{"model_data": {"model": "SimpleRNN", "input_size": 1, "skip": 1, "output_size": 1, "unit_type": "LSTM", "num_layers": 1, "hidden_size": 40, "bias_fl": true}, "state_dict": {"rec.weight_ih_l0": [[-0.02601204812526703], [-0.04000672325491905], [0.12217853963375092], [-0.1137133240699768], [-0.7775402069091797], [0.19865018129348755], [0.13941530883312225], [-0.07605220377445221], [0.09972165524959564], [-0.024762986227869987], [-0.13191796839237213], [0.03135339915752411], [0.09702946245670319], [0.0068861753679811954], [-0.3743230700492859], [-0.07628537714481354], [0.0030443596187978983], [0.4086288809776306], [-0.09933753311634064], [-0.13810791075229645], [-0.13838234543800354], [-0.03483118116855621], [-0.3302812874317169], [0.18160443007946014], [0.2110583782196045], [-0.0347476564347744], [0.08504495769739151], [-0.4779615104198456], [0.06379827111959457], [0.05897459760308266], [0.21018075942993164], [-0.08348806947469711], [-0.1885112076997757], [-0.012112332507967949], [-0.2373950183391571], [-0.05434412509202957], [-0.2509145736694336], [-0.3168860375881195], [-0.020775381475687027], [0.20898354053497314], [0.007888725027441978], [0.009330706670880318], [-0.06093325465917587], [0.05229927599430084], [-0.4099330008029938], [0.09901122748851776], [-0.03097020462155342], [-0.131232351064682], [0.08825268596410751], [0.018110835924744606], [-0.04168761521577835], [0.023752406239509583], [0.08582571893930435], [-0.00940200500190258], [0.007337661925703287], [-0.036872636526823044], [0.13358114659786224], [-0.07887300848960876], [-0.1251961886882782], [-0.0678890198469162], [-0.1346035599708557], [-0.035321783274412155], [-0.19395191967487335], [0.09189198166131973], [-0.024367641657590866], [0.12999387085437775], [-0.024967782199382782], [-0.0872703418135643], [-0.061704039573669434], [0.0716208815574646], [0.23617617785930634], [-0.06891598552465439], [-0.12171962112188339], [0.08216996490955353], [-0.07681954652070999], [0.06452994793653488], [0.07028347253799438], [-0.15717443823814392], [0.1211017370223999], [-0.0555509515106678], [0.19358381628990173], [0.13942275941371918], [-0.4350115656852722], [-0.2990211248397827], [0.7966434955596924], [-0.22212500870227814], [-0.5067248344421387], [-0.32046493887901306], [-0.18579886853694916], [-0.06854093819856644], [-0.3329012095928192], [0.4802132248878479], [0.13463836908340454], [0.07359085977077484], [0.003764072433114052], [-0.15099704265594482], [-0.029390323907136917], [-0.4241586923599243], [-0.03563191741704941], [-0.2554810345172882], [-0.3343031704425812], [-0.1987634301185608], [0.5705514550209045], [-0.5801283717155457], [-0.02320304699242115], [-0.4389500319957733], [0.3570563793182373], [-0.25544223189353943], [0.7551944255828857], [0.3575184643268585], [-0.764543890953064], [-0.1447436511516571], [-0.6541314125061035], [-0.061316248029470444], [-0.47073858976364136], [-0.1965249478816986], [0.2279980331659317], [0.40147891640663147], [-0.5894870758056641], [-0.29465118050575256], [-0.026831235736608505], [0.02102382481098175], [-0.22563394904136658], [0.019243117421865463], [0.19798316061496735], [-0.04153122752904892], [0.1539478302001953], [-0.07031136006116867], [0.06644891202449799], [0.22439107298851013], [-0.09748096764087677], [0.15463359653949738], [0.3265298008918762], [0.022161908447742462], [-0.244233638048172], [-0.12191306054592133], [-0.09676659107208252], [0.28493934869766235], [-0.15786130726337433], [-0.16055771708488464], [-0.1909157782793045], [0.1530003696680069], [-0.0627189576625824], [-0.337487131357193], [0.18653909862041473], [0.05261766538023949], [0.016490550711750984], [-0.3494384288787842], [-0.06897322088479996], [-0.026030683889985085], [0.23013260960578918], [-0.01397645752876997], [-0.1574050486087799], [0.004028224386274815], [-0.1395193189382553], [0.05674920976161957], [-0.0983012244105339], [-0.011409274302423], [0.00156872789375484], [-0.09605886787176132]], "rec.weight_hh_l0": [[0.002475007204338908, -0.004584696609526873, -0.011336693540215492, 0.023064177483320236, 0.0012014838866889477, 0.013802653178572655, -0.011156193912029266, -0.0005821632221341133, -0.03847718983888626, 0.016225917264819145, 0.0031126681715250015, 0.00993659719824791, -0.033883385360240936, 0.0007879269542172551, 0.02955658733844757, 0.017260339111089706, 0.010957780294120312, 0.028377583250403404, -0.0334237664937973, 0.0038130951579660177, 0.02847188338637352, -0.017534123733639717, 0.02988571487367153, 0.02299479953944683, -0.01123341079801321, 0.012804965488612652, -0.01493771094828844, -0.008524256758391857, -0.048093367367982864, -0.000509100966155529, -0.00156071363016963, 0.02210482582449913, -0.006411082576960325, 0.03304288163781166, 0.00872473418712616, 0.006809764076024294, 0.025724615901708603, 0.030425649136304855, -0.034708138555288315, 0.03180544078350067], [0.004410106223076582, -0.006358752958476543, -0.1477637141942978, 0.020601818338036537, -0.12504355609416962, 0.016852030530571938, 0.0019022509222850204, 0.01731199026107788, -0.007707554381340742, -0.014017201028764248, 0.007770715747028589, -0.007952780462801456, -0.19565849006175995, -0.006785099860280752, 0.008712951093912125, 0.007193177938461304, 0.02489030919969082, 0.1658490151166916, 0.03585256263613701, -0.002757629845291376, 0.07584825903177261, 0.00789609830826521, -0.02040439285337925, -0.03565521538257599, -0.0002747088437899947, -0.05446969345211983, -0.011131913401186466, 0.017675762996077538, -0.05725906789302826, 0.0004420442564878613, -0.001711024553515017, -0.012479862198233604, 0.032359231263399124, -0.03784649446606636, 0.012334535829722881, 0.011567234061658382, -0.007347336504608393, 0.02069746144115925, -0.00441333232447505, -0.005219830200076103], [0.0066948928870260715, 0.07282157987356186, -0.3045915961265564, 0.0770987719297409, -0.1414921134710312, -0.09488798677921295, -0.0033728466369211674, 0.01839418336749077, -0.14593437314033508, 0.21412159502506256, -0.08210420608520508, -0.07267530262470245, 0.2426438331604004, 0.009003853425383568, -0.03921361267566681, 0.03894183412194252, 0.20443320274353027, -0.2788292467594147, -0.1835818588733673, 0.0030860675033181906, -0.05139952898025513, -0.06086793914437294, 0.1653694063425064, 0.004179199691861868, 0.004701999481767416, 0.2232777327299118, 0.19288992881774902, -0.16360077261924744, 0.05100223049521446, -0.001010160893201828, 0.03832954168319702, -0.11041124165058136, -0.1974397599697113, 0.18296074867248535, -0.024527492001652718, 0.34669581055641174, 0.263801246881485, 0.05413401126861572, 0.3114308714866638, -0.3726816475391388], [-0.02651488594710827, 0.026088908314704895, -0.01817905530333519, 0.13461147248744965, -0.0540391281247139, 0.23905785381793976, -0.07746046036481857, 0.12705478072166443, 0.3226397633552551, 0.1744368076324463, -0.03985254094004631, -0.09106844663619995, 0.16554854810237885, -0.043673075735569, 0.05381883308291435, -0.00029810526757501066, 0.014300446026027203, -0.2810486853122711, -0.013237846083939075, -0.004235811531543732, 0.185657799243927, -0.1530400663614273, 0.03419630602002144, 0.0680137500166893, -0.0248460341244936, 0.28847673535346985, 0.040182944387197495, 0.008744570426642895, -0.01959376037120819, -0.12012901157140732, 0.04482876881957054, -0.06781309098005295, -0.06552828103303909, -0.06074535474181175, 0.05646159499883652, 0.2543632686138153, 0.3050580620765686, -0.12166266143321991, 0.10803170502185822, -0.2858709990978241], [0.00034477165900170803, -0.00936911255121231, 0.08760125190019608, -0.01991647109389305, 0.10268988460302353, 0.2751162052154541, -0.08833495527505875, 0.11124388128519058, -0.28547900915145874, -0.09061029553413391, 0.04776347428560257, -0.0036834548227488995, -0.2327326387166977, 0.02964102476835251, -0.23712411522865295, 0.005768271628767252, -0.25491756200790405, 0.3635753095149994, 0.0004776401910930872, 0.07072155177593231, 0.16797898709774017, -0.013345163315534592, -0.22444860637187958, 0.144644632935524, -0.07220937311649323, 0.1960720270872116, -0.09285010397434235, 0.0661151111125946, -0.09867316484451294, -0.015036478638648987, 0.01797182857990265, 0.05439786612987518, 0.22115041315555573, -0.3439371585845947, 0.17908285558223724, 0.13428980112075806, -0.15581634640693665, 0.002306764479726553, 0.06847033649682999, 0.2548961341381073], [-0.024105442687869072, 0.03406142815947533, -0.22177107632160187, -0.023565787822008133, -0.11094105243682861, -0.056077681481838226, -0.006295049097388983, -0.07369793206453323, 0.15063396096229553, -0.011550482362508774, -0.06256197392940521, -0.061472561210393906, -0.10525670647621155, 0.004071845207363367, 0.03608956187963486, 0.007160373497754335, 0.01439210306853056, -0.24820581078529358, 0.006870636250823736, -0.05703800171613693, -0.1666727513074875, -0.004322248511016369, 0.05915524438023567, 0.08337444812059402, 0.19744834303855896, 0.05797165259718895, 0.12868262827396393, 0.09606071561574936, 0.1371222883462906, 0.004717279225587845, -0.22111806273460388, -0.020306792110204697, -0.10281941294670105, -0.2696070373058319, 0.1268269419670105, 0.11053291708230972, 0.05739209055900574, -0.3061744272708893, 0.26679569482803345, -0.036045629531145096], [-0.10043515264987946, 0.1510331779718399, -1.204060673713684, -0.14743760228157043, -0.9988797903060913, 0.0362897664308548, 0.11617452651262283, 0.08599882572889328, -0.11089383065700531, -0.41530224680900574, -0.04120859131217003, -0.2624146342277527, -0.883338451385498, 0.07547761499881744, -0.3662031888961792, -0.4061708450317383, -0.26825660467147827, -0.304155558347702, 0.8293578624725342, 0.12100403755903244, 0.013398672454059124, 0.23552373051643372, -0.8108417987823486, -0.5118597149848938, -0.03266512230038643, -0.17936241626739502, 0.4455384314060211, -0.0817679688334465, 0.1439809650182724, -0.09384521842002869, 0.08624815940856934, -0.05189735069870949, 0.003010079963132739, -0.1525656133890152, -0.09833473712205887, -0.0952974483370781, 0.14444458484649658, -0.8203550577163696, 0.16212862730026245, -0.5092297196388245], [-0.01383442897349596, -0.0016507782274857163, 0.04108884558081627, 0.061570972204208374, 0.06786615401506424, 0.06203848496079445, 0.031004467979073524, 0.011738209053874016, -0.02332310564815998, 0.03089531697332859, -0.005127470474690199, 0.03153836354613304, 0.046884216368198395, -0.011559569276869297, 0.07928929477930069, 0.03208531439304352, 0.05177973955869675, -0.0512053444981575, -0.07172795385122299, 0.018701648339629173, 0.03309588134288788, -0.053364019840955734, 0.0696185827255249, 0.06960771232843399, -0.02978176809847355, 0.020340168848633766, -0.026200992986559868, -0.056043654680252075, -0.09008531272411346, -0.004415700677782297, 0.0007154796039685607, 0.048819344490766525, -0.048663534224033356, 0.09654898941516876, -0.0069263651967048645, 0.015600963495671749, -0.004708981141448021, 0.1001397967338562, -0.10895086079835892, 0.05060303956270218], [-0.04185386374592781, 0.05280807241797447, -0.7405556440353394, -0.5290411710739136, -0.42383986711502075, -0.036042239516973495, 0.2922898828983307, -0.054001085460186005, -0.13268612325191498, -0.5327427387237549, -0.03742646425962448, 0.0378059484064579, -0.6079035997390747, 0.20189566910266876, -0.191888228058815, -0.2661980390548706, 0.0550905242562294, 0.01371411606669426, 0.6427727937698364, 0.25536370277404785, -0.17838774621486664, 0.44506892561912537, -0.5736114978790283, -0.45009109377861023, -0.20743955671787262, -0.13567499816417694, 0.2507455348968506, -0.24018467962741852, -0.01940181292593479, 0.04995444044470787, 0.17599794268608093, 0.2730778753757477, -0.1738918125629425, -0.2363543063402176, 0.09012773633003235, -0.1790188103914261, -0.08968693017959595, -0.3919105529785156, 0.03742372244596481, 0.20215538144111633], [-0.0040804557502269745, 0.011899271979928017, -0.40043458342552185, -0.22730204463005066, -0.028646856546401978, 0.0702454149723053, 0.024149486795067787, 0.028378011658787727, 0.012486083433032036, -0.018347932025790215, -0.025485334917902946, -0.004677285440266132, -0.15633146464824677, -0.053783465176820755, -0.13445541262626648, 0.010600357316434383, -0.11280512809753418, -0.2502470016479492, -0.07513117790222168, -0.006668072659522295, 0.0331190750002861, -0.07733108103275299, 0.07727749645709991, -0.06923403590917587, 0.017232051119208336, 0.28315797448158264, -0.027806568890810013, 0.03313549980521202, 0.046601247042417526, -0.1165788471698761, 0.018104905262589455, 0.052679043263196945, 0.0051683480851352215, 0.012726198881864548, -0.07125137001276016, -0.06581304222345352, 0.04881056770682335, -0.024746697396039963, -0.09500245004892349, 0.13216760754585266], [0.004483281169086695, -0.005038752686232328, -0.1923275738954544, -0.01968366466462612, -0.18076565861701965, 0.02048194222152233, 0.008675145916640759, -0.004735132213681936, -0.009626391343772411, -0.04820554330945015, 0.007993312552571297, 0.01790914312005043, -0.24486401677131653, -0.000984909012913704, 0.02238762378692627, 0.0012851846404373646, 0.027987323701381683, 0.10460854321718216, 0.049978356808423996, 0.007922723889350891, 0.05580669641494751, 0.021974463015794754, -0.011247610673308372, -0.06058568134903908, -0.010258965194225311, -0.02331463061273098, -0.008845891803503036, 0.010661430656909943, -0.06831832975149155, -0.0034778350964188576, 0.005017856135964394, 0.03919382020831108, 0.044628046452999115, -0.037462856620550156, 0.0023178551346063614, 0.011166607029736042, -0.03851389139890671, -0.02449502982199192, 0.03498884290456772, 0.016123631969094276], [0.008607280440628529, -0.020823918282985687, 0.11286928504705429, 0.10474587976932526, 0.0996985137462616, 0.06688843667507172, 0.06874145567417145, 0.007092468440532684, -0.014185931533575058, 0.01700194925069809, 0.01835409738123417, 0.06800985336303711, 0.07413682341575623, -0.004058134742081165, -0.07108109444379807, 0.01917491853237152, 0.033829621970653534, 0.14164318144321442, -0.02450539357960224, -0.010449242778122425, -0.110415980219841, 0.06189241632819176, -0.019030790776014328, 0.029817311093211174, 0.013583590276539326, 0.11068426817655563, -0.07054772228002548, -0.030377989634871483, -0.05543414130806923, 0.12202960252761841, -0.08498403429985046, -0.0713454931974411, 0.040275938808918, 0.06436476856470108, 0.05199815332889557, 0.041158925741910934, -0.03423359617590904, 0.04502309858798981, -0.09908652305603027, 0.003217585850507021], [0.017697656527161598, 0.03682317957282066, 0.25249552726745605, -0.008704300038516521, 0.12466146796941757, -0.010470141656696796, -0.053824037313461304, 0.08764638006687164, 0.05768583342432976, 0.13288432359695435, -0.057747818529605865, -0.099448062479496, 0.04940754920244217, -0.06754175573587418, -0.13608404994010925, 0.03178011626005173, 0.14251042902469635, -0.36314231157302856, -0.059489257633686066, -0.013299222104251385, -0.14791499078273773, -0.021863199770450592, 0.05238887667655945, 0.11870181560516357, 0.035277191549539566, 0.05792691558599472, 0.007319698575884104, -0.0582461878657341, -0.04257378354668617, -0.05597256124019623, 0.03996977210044861, -0.0763641893863678, -0.019673611968755722, -0.027669642120599747, -0.03306212276220322, 0.13360978662967682, 0.053847331553697586, -0.00382053479552269, 0.1649465262889862, -0.02197900041937828], [0.001950891688466072, -0.004110062029212713, -0.10626859962940216, -0.02157267928123474, -0.05591743066906929, 0.01480089221149683, 0.013048009015619755, -0.016019105911254883, -0.023614251986145973, -0.00466448487713933, -0.0038683470338582993, 0.013503887690603733, -0.17948292195796967, -0.020475002005696297, -0.027263058349490166, 0.013946003280580044, 0.003912586253136396, -0.010020673274993896, -0.04425031319260597, -0.001968690427020192, -0.025513149797916412, -0.030039319768548012, 0.016499396413564682, 0.019720330834388733, 0.011493036523461342, -0.022742444649338722, -0.03486711531877518, -0.0011049186578020453, 0.016356931999325752, -0.013372073881328106, -0.04298295080661774, -0.03202828764915466, -0.006043690722435713, 0.007877952419221401, -0.026046032086014748, 0.04428544640541077, -0.05903230980038643, 0.01141307968646288, -0.006041712127625942, 0.0030665250960737467], [-0.013064884580671787, -0.018554603680968285, -0.08760074526071548, -0.05392618849873543, -0.06041305884718895, 0.010547406040132046, 0.001771188690327108, 0.002780542243272066, -0.27212533354759216, 0.038679029792547226, 0.029928240925073624, 0.08210703730583191, -0.13700315356254578, 0.004123989958316088, -0.09425032138824463, -0.0035582673735916615, 0.02108077146112919, -0.10364386439323425, -0.01072798203676939, 0.10206455737352371, 0.15760046243667603, 0.05488460883498192, -0.04715320095419884, -0.044280778616666794, 0.055993854999542236, 0.25996133685112, 0.006070354022085667, 0.0784381553530693, -0.24395430088043213, -0.042690057307481766, -0.004983256570994854, 0.058073874562978745, 0.048220399767160416, -0.02179512195289135, 0.05007774010300636, -0.019353820011019707, 0.04761584475636482, -0.20854336023330688, 0.0704926922917366, -0.03575975075364113], [-0.007557154633104801, -0.001978176413103938, -0.09792829304933548, -0.01579589769244194, -0.042750004678964615, 0.003462619846686721, 0.009830478578805923, 0.006374181713908911, -0.022373517975211143, -0.0076464018784463406, 0.0006157148163765669, -0.0011568821500986814, -0.10398010909557343, 0.0010179951786994934, -0.012841836549341679, -0.002703536069020629, -0.01373163890093565, 0.002357949735596776, 0.007367952261120081, 0.0022458950988948345, -0.014207182452082634, 0.0151866115629673, -0.0253475159406662, -0.015597013756632805, 0.005810994654893875, 0.012077169492840767, -0.006208948791027069, 0.001855775830335915, 0.008279810659587383, 0.00458906777203083, 0.001569418702274561, -0.014471196569502354, 0.007221410516649485, -0.019520778208971024, 0.009944993071258068, -0.015482574701309204, -0.02504327893257141, -0.02345048449933529, 0.015051876194775105, -0.002112610498443246], [0.005960416980087757, -0.018079271540045738, -0.04923069477081299, -0.009326053783297539, -0.03131822124123573, 0.1651928573846817, 0.016698621213436127, 0.0028573093004524708, 0.12880024313926697, 0.018691712990403175, 0.03157410770654678, -0.0130354268476367, -0.05016703903675079, -0.07955081015825272, -0.11369549483060837, 0.02151668258011341, -0.033296968787908554, -0.13385732471942902, -0.1285642683506012, -0.01483771950006485, 0.07631555199623108, 0.2636909782886505, 0.13127991557121277, -0.15761041641235352, 0.11307971179485321, 0.16687823832035065, -0.09231740236282349, 0.2720412313938141, 0.11666819453239441, -0.07071343809366226, -0.07447927445173264, 0.018320953473448753, 0.05004160851240158, 0.008566142059862614, -0.10662311315536499, 0.08631864935159683, -0.09649908542633057, -0.07319501042366028, -0.14232423901557922, -0.40300843119621277], [0.021744634956121445, -0.012762743048369884, 0.0484025776386261, -0.0417439304292202, 0.05303175374865532, 0.004980025347322226, -0.022441329434514046, -0.14130473136901855, 0.2956022322177887, -0.00626136502251029, -0.015650998800992966, 0.04817928373813629, 0.08821437507867813, -0.09615141153335571, -0.03504869341850281, -0.007030608598142862, 0.08787518739700317, -0.08958180993795395, 0.04510170593857765, 0.01619509421288967, -0.16704271733760834, 0.020744996145367622, 0.09082061052322388, -0.03174109384417534, 0.14932040870189667, -0.05895918607711792, -0.046921223402023315, 0.19281643629074097, 0.22521252930164337, -0.07142019271850586, -0.10133873671293259, 0.16880583763122559, 0.013578317128121853, 0.02476413920521736, -0.15086877346038818, -0.09896233677864075, -0.05127725750207901, 0.047119468450546265, -0.1464652568101883, -0.07213515788316727], [-0.0001382383197778836, -0.015979068353772163, -0.11039937287569046, 0.04893460124731064, -0.04714053496718407, 0.24969510734081268, -0.06704595685005188, 0.00829311739653349, 0.42037659883499146, -0.058357033878564835, -0.00718375900760293, -0.01638098992407322, -0.20099028944969177, -0.010718042030930519, 0.12293577939271927, 0.003737958613783121, -0.1702416092157364, -0.032957468181848526, 0.011160871013998985, -0.03732392191886902, 0.12393566220998764, -0.045192375779151917, 0.06963133811950684, 0.01971755176782608, -0.05647531524300575, -0.21189869940280914, -0.07743768393993378, 0.05491928383708, 0.05276750028133392, -0.008802161552011967, -0.13845989108085632, 0.06189781054854393, -0.013437616638839245, -0.030809534713625908, 0.02265913039445877, -0.07009119540452957, 0.03999098390340805, -0.03147699311375618, 0.1605183631181717, -0.06775880604982376], [-0.006382633466273546, -0.002849275479093194, -0.04067225754261017, 0.009466495364904404, 0.02002057619392872, 0.017670631408691406, -0.01997346058487892, 0.002369039226323366, -0.20112165808677673, 0.0156769547611475, 0.0019176678033545613, 0.012887892313301563, -0.04282417893409729, -0.0015974529087543488, -0.08550368249416351, 0.007949848659336567, 0.00827238243073225, -0.007322611752897501, -0.02651241049170494, 0.03666805475950241, -0.005704096052795649, 0.010003076866269112, -0.052548736333847046, 0.019308581948280334, 0.007096715737134218, 0.07203198969364166, -0.004253401421010494, -0.011469763703644276, -0.013824882917106152, -0.028965096920728683, -0.013675866648554802, 0.01710774376988411, 0.0007959490758366883, 0.024206552654504776, 0.019572487100958824, 0.014855355024337769, -0.005540989339351654, -0.004575566854327917, -0.03269343823194504, 0.03022119775414467], [-0.012439616024494171, -0.02073965035378933, -0.10240770131349564, 0.0923580750823021, 0.013039985671639442, 0.15736918151378632, -0.04002341628074646, 0.12965960800647736, 0.23447775840759277, 0.18916380405426025, 0.02092438004910946, -0.10444321483373642, 0.02228623814880848, -0.05199249088764191, 0.03820440545678139, 0.013537012971937656, -0.004958467558026314, -0.24376358091831207, -0.07062703371047974, -0.020087623968720436, 0.06392863392829895, -0.0826464369893074, 0.08339196443557739, 0.12643367052078247, 0.015903746709227562, 0.14601042866706848, -0.047701455652713776, 0.10770905017852783, 0.011763134971261024, -0.11204232275485992, -0.0881703794002533, -0.1446429044008255, 0.06697387248277664, -0.04942921921610832, 0.033486321568489075, -0.06431235373020172, 0.1630740761756897, -0.012919453904032707, -0.007455409504473209, -0.15118403732776642], [-0.03732285648584366, 0.003191476920619607, 0.09978342056274414, 0.01477148849517107, -0.19631832838058472, 0.27582985162734985, -0.02404821664094925, -0.04899880290031433, -0.04838108643889427, -0.11581441760063171, -0.0035901530645787716, -0.04229198396205902, -0.14412398636341095, -0.008503580465912819, -0.2417929619550705, -0.026243634521961212, -0.22444365918636322, -0.1581876128911972, 0.046600840985774994, 0.06171078234910965, 0.05172143131494522, 0.1567852944135666, -0.1878434270620346, -0.14632466435432434, 0.05323371663689613, -0.058869071304798126, -0.09464310854673386, 0.08093965798616409, 0.273891806602478, -0.05432010442018509, -0.18200112879276276, -0.08781160414218903, -0.11284394562244415, -0.10116685181856155, 0.03492943197488785, 0.30864256620407104, -0.30225107073783875, -0.043470922857522964, -0.06561250239610672, -0.13285692036151886], [-0.05306791141629219, -0.01538457628339529, -0.1334821730852127, -0.1057039350271225, -0.09804074466228485, 0.060582663863897324, -0.03683168813586235, -0.03757677227258682, -0.40513095259666443, -0.09690336138010025, 0.025398723781108856, 0.019982391968369484, -0.22263194620609283, 0.011951162479817867, -0.018531501293182373, 0.007301183417439461, -0.05504729971289635, -0.04005788266658783, 0.042168572545051575, 0.09257376939058304, 0.08740529417991638, 0.08337569236755371, -0.1090342104434967, -0.0413481630384922, -0.010469868779182434, 0.16284137964248657, -0.05580977350473404, 0.013170992955565453, -0.1468479335308075, -0.04062362387776375, 0.001900319941341877, 0.07421679049730301, 0.14038725197315216, 0.11634689569473267, 0.028127852827310562, -0.19895704090595245, -0.13823240995407104, -0.06773510575294495, 0.027995232492685318, 0.12193863838911057], [0.04255063086748123, 0.0011053779162466526, -0.4096587896347046, -0.18834204971790314, -0.18427066504955292, 0.006421662401407957, -0.05723436549305916, -0.005333348177373409, -0.0009158550528809428, -0.03454199433326721, -0.007211528718471527, -0.019700728356838226, -0.2185458391904831, -0.03696443885564804, -0.08132771402597427, -0.03908400610089302, -0.14987970888614655, -0.08119611442089081, -0.018397914245724678, -0.04956696927547455, -0.02620389126241207, -0.1438877433538437, -0.004255139268934727, -0.22800613939762115, 0.012563162483274937, 0.02015737257897854, 0.0291132852435112, 0.09515748172998428, 0.3262108862400055, -0.023765714839100838, -0.1457926630973816, 0.023242784664034843, -0.12444399297237396, -0.08053456991910934, -0.09578321129083633, -0.10275104641914368, -0.12899643182754517, -0.010923441499471664, 0.011173308826982975, 0.11524979025125504], [0.006842548027634621, -0.009820320643484592, -0.3732413053512573, -0.2541032135486603, 0.024113524705171585, -0.31522420048713684, 0.11787213385105133, 0.02430911920964718, -0.25464051961898804, -0.017864814028143883, -0.0029073201585561037, -0.10094406455755234, -0.4400753974914551, -0.07183275371789932, -0.23591335117816925, 0.011332042515277863, 0.13051818311214447, 0.0996483638882637, -0.1344531625509262, 0.00019747471378650516, -0.08708755671977997, -0.11667623370885849, 0.034361738711595535, -0.08726424723863602, 0.20563960075378418, -0.46863919496536255, -0.009030422195792198, 0.1219692975282669, 0.012173082679510117, -0.004569242708384991, -0.021725118160247803, -0.11347398906946182, 0.12139517813920975, 0.21791194379329681, -0.09546853601932526, -0.24386215209960938, 0.007045145612210035, 0.06767260283231735, 0.016369430348277092, -0.09546744078397751], [-0.024380777031183243, -0.010620770044624805, -0.21775642037391663, -0.14226284623146057, -0.5564154982566833, 0.2086828500032425, 0.139083132147789, -0.029541093856096268, -0.13544325530529022, -0.04966035485267639, -0.025504592806100845, -0.07637916505336761, -0.13986258208751678, -0.21435204148292542, -0.281985878944397, -0.09021275490522385, -0.04208724945783615, -0.31410014629364014, 0.23698709905147552, 0.1000366061925888, -0.1416291892528534, 0.15004320442676544, -0.2841654121875763, -0.39258164167404175, 0.4071587324142456, 0.11877494305372238, 0.17823909223079681, 0.01670416072010994, 0.2437332719564438, -0.09075469523668289, -0.012598473578691483, -0.14030659198760986, -0.0684913769364357, -0.12981151044368744, -0.14707109332084656, -0.04688931629061699, -0.4178621768951416, -0.23106634616851807, 0.060745954513549805, -0.13307160139083862], [0.01598014123737812, -0.022843889892101288, -0.26755982637405396, 0.03827441483736038, -0.21026384830474854, 0.22056922316551208, -0.0063700140453875065, 0.061040688306093216, 0.003542948979884386, -0.09064619988203049, 0.023478958755731583, -0.011711260303854942, -0.27589312195777893, -0.029169676825404167, -0.04036536067724228, 0.013301867991685867, -0.014038287103176117, 0.2444441169500351, 0.10428591817617416, -0.03219540789723396, 5.711005724151619e-05, 0.10588989406824112, -0.08951554447412491, -0.17765578627586365, 0.03651416674256325, -0.12762586772441864, -0.01528316643089056, 0.07915829122066498, 0.10282189399003983, -0.004703959915786982, -0.0010688039474189281, -0.1325380653142929, 0.008003865368664265, -0.11000504344701767, 0.0364568792283535, 0.177592933177948, -0.12425673753023148, 0.10013158619403839, -0.0028118088375777006, -0.08479506522417068], [0.02071274071931839, -0.028819940984249115, -0.12869024276733398, -0.011363848112523556, -0.19946247339248657, -0.03191669285297394, 0.09482379257678986, 0.04175680875778198, 0.05362600460648537, -0.017354708164930344, 0.0446653887629509, 0.013691048137843609, -0.23260998725891113, -0.0006044234614819288, 0.07373525947332382, 0.017699824646115303, 0.059856899082660675, 0.28634464740753174, 0.008637837134301662, 0.007925687357783318, 0.16198809444904327, 0.01448543556034565, -0.004436164628714323, -0.01340813934803009, -0.005549315363168716, 0.0747191309928894, -0.03166266903281212, 0.10193830728530884, -0.36262527108192444, 0.01748783141374588, 0.12478850781917572, 0.12152253836393356, 0.19225051999092102, 0.01986907236278057, 0.05378052964806557, -0.1523398756980896, 0.010896911844611168, -0.02582690119743347, 0.041263971477746964, 0.053010035306215286], [0.034786406904459, -0.025089630857110023, 0.16315247118473053, 0.10472733527421951, 0.11154334992170334, 0.0642671138048172, -0.03499318286776543, 0.01755792833864689, -0.11776425689458847, 0.0720582827925682, 0.032562751322984695, 0.04778313636779785, 0.18158653378486633, -0.016477501019835472, 0.016598597168922424, 0.026536850258708, 0.11272398382425308, -0.056788891553878784, -0.05088371783494949, 0.017017679288983345, 0.09406314045190811, -0.03342955932021141, 0.009177790954709053, 0.034076809883117676, 0.06837418675422668, 0.1981273889541626, -0.009614027105271816, 0.08235116302967072, 0.10166879743337631, -0.014198161661624908, -0.06568844616413116, -0.04419664666056633, 0.06312939524650574, 0.13104890286922455, 0.008378051221370697, 0.06926129758358002, -0.07537341117858887, -0.05530679225921631, -0.03926994279026985, -0.01864471100270748], [-0.012831533327698708, -0.003455390455201268, 0.05697913095355034, 0.04117577150464058, 0.04356904327869415, 0.07742336392402649, 0.08620771765708923, 0.057461246848106384, -0.06564580649137497, 0.022934962064027786, -0.011016479693353176, 0.013020085170865059, 0.035575877875089645, -0.017589401453733444, 0.11811507493257523, 0.08229681849479675, 0.15317273139953613, 0.0340157151222229, -0.11839783936738968, 0.0018964448245242238, 0.11536554992198944, -0.0867762491106987, 0.11798886209726334, 0.030047206208109856, -0.05710064247250557, -0.10366379469633102, -0.07960425317287445, -0.06635624170303345, -0.18525584042072296, 0.004784281365573406, 0.000490883772727102, -0.03972448408603668, -0.0055733853951096535, 0.17996755242347717, -0.003912654239684343, 0.025056639686226845, 0.06606148928403854, 0.17495669424533844, -0.12771907448768616, 0.06453001499176025], [0.016507025808095932, -0.028070613741874695, 0.06385748088359833, 0.04472985491156578, 0.09466026723384857, 0.004746115300804377, 0.03361368551850319, 0.03314577788114548, -0.08612845093011856, 0.042505260556936264, 0.0237421952188015, 0.10536137223243713, 0.10217446088790894, 0.02069038897752762, -0.05276225507259369, -0.0010547582060098648, -0.046815600246191025, 0.0365828201174736, -0.07948095351457596, -0.024500472471117973, -0.039205245673656464, -0.10048579424619675, 0.017720285803079605, 0.06004125624895096, 0.031459610909223557, 0.09220703691244125, -0.020152902230620384, -0.02617265284061432, -0.02306695468723774, 0.1820385605096817, -0.06499072909355164, -0.12284377962350845, 0.022566238418221474, 0.06510164588689804, 0.05053757503628731, 0.0456375889480114, 0.047087982296943665, 0.013162098824977875, -0.1412772685289383, -0.021565696224570274], [-0.044645197689533234, 0.006374069023877382, 0.02371509000658989, 0.04791811853647232, 0.11715734004974365, 0.20327766239643097, -0.01673910766839981, 0.027935512363910675, -0.1273840069770813, 0.11640813946723938, -0.05899347737431526, 0.0729047954082489, 0.0887710303068161, -0.02809644490480423, 0.10913744568824768, 0.0710482969880104, 0.00475152675062418, -0.20517097413539886, -0.16638420522212982, 0.029293131083250046, 0.11299683898687363, -0.10789729654788971, 0.11224667727947235, 0.06379441171884537, -0.06111253798007965, 0.12451615929603577, -0.09271585941314697, -0.11868990957736969, -0.037393685430288315, -0.13197407126426697, -0.10859927535057068, -0.03887889161705971, -0.128059983253479, 0.08445862680673599, 0.034322772175073624, 0.08965856581926346, 0.06455546617507935, 0.09656761586666107, -0.09687237441539764, 0.06168079748749733], [-0.010516720823943615, -0.006119185592979193, -0.06508341431617737, -0.0813700258731842, -0.20329175889492035, -0.06738895922899246, 0.05860452726483345, -0.005901349242776632, -0.04263727366924286, -0.09462463855743408, -0.005168474279344082, -0.011640239506959915, -0.06446323543787003, -0.030899859964847565, -0.012259574607014656, 0.002136951545253396, 0.1652725785970688, -0.11067309975624084, 0.08714555948972702, 0.04653755575418472, -0.042018868029117584, 0.17859876155853271, -0.057662080973386765, -0.18631590902805328, 0.17034582793712616, 0.09804917871952057, 0.019086511805653572, -0.0035068185534328222, -0.08546268194913864, -0.035090651363134384, 0.05397317558526993, 0.059474337846040726, 0.04403096064925194, -0.05290084704756737, -0.02855158969759941, 0.00818414706736803, -0.16066712141036987, -0.11203928291797638, -0.01188212726265192, -0.02917749248445034], [-0.0033089416101574898, -0.03490591049194336, -0.11195632070302963, -0.07272221148014069, -0.24482882022857666, -0.11737839877605438, 0.1735704392194748, 0.04729180037975311, -0.1421259194612503, -0.026387058198451996, 0.0069132642820477486, 0.029181592166423798, -0.04118552431464195, 0.00975523330271244, 0.08719916641712189, 0.006659945473074913, 0.16927288472652435, -0.16470129787921906, -0.007643889635801315, 0.003867431776598096, 0.01118838507682085, -0.011206431314349174, -0.06817979365587234, -0.06828577071428299, -0.06721724569797516, 0.06062456592917442, -0.003090470563620329, 0.01775297522544861, -0.398266077041626, 0.04817580804228783, 0.07362017035484314, 0.03074420802295208, 0.17304983735084534, -0.11016426980495453, 0.09260375052690506, -0.41005685925483704, 0.12341716140508652, -0.15791936218738556, 0.12312258780002594, 0.05617658793926239], [-0.001378171960823238, -0.018097735941410065, -0.04938409850001335, -0.06834925711154938, -0.061908211559057236, 0.044872887432575226, 0.013806259259581566, 0.0280168354511261, -0.06683112680912018, 0.031011922284960747, 0.023988638073205948, 0.01981530524790287, 0.056779250502586365, -0.031495049595832825, -0.07927082479000092, 0.009514691308140755, -0.08044525980949402, 0.03897203877568245, -0.025976069271564484, -0.01603097654879093, 0.10820131003856659, -0.07394606620073318, 0.010836764238774776, -0.022711940109729767, -0.08768817037343979, 0.16144251823425293, -0.029686350375413895, 0.0418575294315815, 0.0023852407466620207, 0.02543327771127224, -0.05895506963133812, -0.025641972199082375, 0.05585753172636032, -0.05832451209425926, -0.03563842177391052, 0.228407621383667, -0.03690318763256073, -0.10994618386030197, -0.002531015081331134, 0.029797010123729706], [0.0013230688637122512, -0.020655035972595215, 0.03129373490810394, 0.029920261353254318, -0.15974023938179016, 0.06429576873779297, 0.11510659009218216, 0.06566647440195084, 0.2790757715702057, 0.07193208485841751, 0.04495064169168472, -0.04538736864924431, 0.08126083761453629, -0.04972541704773903, -0.017545096576213837, -0.0016474116127938032, -0.07720763981342316, -0.34223440289497375, 0.016240475699305534, -0.04292155057191849, -0.008324427530169487, 0.1812150627374649, -0.015904424712061882, -0.009869640693068504, 0.25223931670188904, 0.1576024442911148, -0.029660889878869057, 0.06768152117729187, 0.0650377869606018, -0.036901865154504776, -0.04362071305513382, -0.061769597232341766, -0.03833296522498131, -0.06181476265192032, 0.05464629828929901, -0.020805619657039642, 0.10392894595861435, -0.1104300320148468, 0.11846502870321274, -0.35330384969711304], [-0.02243340015411377, -0.009374326094985008, -0.10469905287027359, -0.01630629412829876, -0.05972679331898689, 0.40601497888565063, 0.0010674545774236321, 0.1073833629488945, -0.09066980332136154, -0.06833168864250183, -0.002764386823400855, 0.06589678674936295, -0.31451502442359924, -0.05080506578087807, -0.11871134489774704, 0.007265937980264425, -0.1006401926279068, -0.13939268887043, 0.17511971294879913, -0.013033658266067505, 0.3048677444458008, 0.07029245793819427, -0.09590242058038712, -0.12231128662824631, 0.030581481754779816, 0.15978264808654785, -0.1317414492368698, -0.002357001416385174, -0.0565328523516655, -0.0373355969786644, -0.02510243095457554, -0.17055855691432953, 0.0981598049402237, -0.04702161252498627, 0.05016881972551346, 0.018948068842291832, -0.0970463827252388, -0.32335716485977173, -0.020904988050460815, 0.05266815423965454], [0.0029611061327159405, -0.007218042854219675, 0.07771452516317368, 0.015976421535015106, -0.19005756080150604, -0.22748547792434692, -0.01177536603063345, 0.1011190116405487, 0.16486774384975433, -0.020419014617800713, -0.016025926917791367, -0.13814444839954376, 0.0671338140964508, -0.0821802094578743, -0.18016868829727173, -0.0059057483449578285, 0.09560073167085648, -0.18691113591194153, -0.060577232390642166, -0.0309124868363142, -0.20925897359848022, 0.001832644804380834, -0.0009665562538430095, -0.05457880720496178, 0.06760478019714355, 0.19225147366523743, 0.002305367961525917, -0.08355525881052017, 0.026793843135237694, -0.05583561584353447, 0.21361176669597626, -0.1791485995054245, -0.0018482474843040109, -0.11820683628320694, -0.11309222877025604, 0.2021307647228241, -0.2686360478401184, -0.2543492913246155, 0.05750523507595062, 0.05190865322947502], [-0.011872241273522377, 0.017680903896689415, -0.7514529824256897, 0.01542369183152914, -0.612077534198761, -0.05277341604232788, 0.16123157739639282, -0.12465863674879074, -0.21158774197101593, -0.18978413939476013, -0.04357260465621948, 0.05082375556230545, -0.3845005929470062, 0.06922997534275055, -0.07305722683668137, -0.09133897721767426, 0.08265183120965958, -0.023254957050085068, 0.5111867785453796, 0.09939859807491302, -0.07817348837852478, 0.2254578024148941, -0.32128986716270447, -0.32236427068710327, 0.30031856894493103, 0.02808101288974285, 0.15548087656497955, -0.07345082610845566, -0.054671283811330795, -0.011195738799870014, 0.02703019790351391, 0.047787394374608994, -0.15168197453022003, 0.06319884210824966, -0.03620491921901703, 0.0363396592438221, -0.28954288363456726, 0.018116667866706848, 0.08961278200149536, -0.11631655693054199], [-0.046430110931396484, 0.0568230114877224, -0.44072797894477844, -0.08936545252799988, 0.025557806715369225, 0.06767573952674866, -0.14253810048103333, -0.11971496790647507, 0.11222656071186066, 0.1557672768831253, -0.08599188923835754, 0.10687073320150375, -0.060496650636196136, 0.03723672404885292, 0.12459929287433624, -0.025758324190974236, 0.08166418969631195, 0.07406531274318695, -0.11171140521764755, 0.004724711179733276, 0.15649117529392242, -0.04996342584490776, 0.13407686352729797, -0.025320066139101982, -0.06973844021558762, 0.20851583778858185, 0.06432150304317474, 0.009610680863261223, 0.13987527787685394, -0.11792974919080734, -0.09992681443691254, 0.1298266500234604, -0.04761632904410362, 0.01755468174815178, -0.07364268600940704, -0.5024876594543457, 0.43516042828559875, -0.11312208324670792, -0.0463995598256588, -0.06023561954498291], [0.0024603467900305986, -0.0024864173028618097, 0.00938611663877964, 0.007313617505133152, 0.009364668279886246, 0.0075449817813932896, -0.008562824688851833, -0.0032728349324315786, -0.006370837800204754, 0.0015715912450104952, 0.0020302613265812397, 0.0076256850734353065, 0.00020039608352817595, 0.002370406873524189, 0.01456516608595848, 0.0036588457878679037, -0.0006780707044526935, 0.01472479198127985, -0.00965430960059166, -0.0008797086193226278, 0.010779931209981441, -0.003569856518879533, 0.010239863768219948, 0.005525954533368349, -0.010197270661592484, 0.0028992549050599337, -0.004589414689689875, -0.0007714660605415702, -0.014144016429781914, 0.005416662897914648, -0.005531956907361746, 0.00837769079953432, -0.0011062653502449393, 0.013352570123970509, 0.0029015210457146168, 0.002282282104715705, 0.00699795875698328, 0.01005586702376604, -0.007871375419199467, 0.009044582024216652], [0.0060722255147993565, -0.005117397289723158, 0.0034372322261333466, 0.0015159951290115714, -0.02954321727156639, -0.0019063405925408006, -0.001116134342737496, 0.000835196697153151, 0.0026554912328720093, -0.016188470646739006, 0.007402733899652958, 0.004114342853426933, -0.01798911765217781, -0.001814398099668324, 0.00660757115110755, 0.000365632091416046, 0.006540630478411913, 0.09127213805913925, 0.00812461320310831, -0.0033622938208281994, 0.01664341799914837, 0.0007751955417916179, -0.0036417075898498297, -0.013516920618712902, -0.005303070414811373, 0.0024046418257057667, -0.0075875758193433285, 0.013485957868397236, -0.015732554718852043, 0.005622283089905977, 0.005798676051199436, 0.010046976618468761, 0.017250923439860344, -0.010171683505177498, 0.0007718430133536458, 0.006353910081088543, -0.011549386195838451, 0.004065575543791056, -0.0010874796425923705, 0.009386272169649601], [-0.0008266994263976812, 0.1133936271071434, -0.3925836682319641, 0.1539478749036789, -0.052323371171951294, -0.08588775247335434, 0.25843703746795654, 0.12085219472646713, -0.16884715855121613, 0.4352858364582062, -0.08848346769809723, -0.13299426436424255, 0.4580082297325134, -0.025518689304590225, -0.06763553619384766, 0.08148980140686035, 0.18238289654254913, -0.3214181065559387, -0.3910737633705139, -0.058930616825819016, -0.03167039528489113, -0.21372194588184357, 0.25772708654403687, 0.1492895483970642, 0.01144264917820692, 0.07837723940610886, 0.28532424569129944, -0.1194492056965828, 0.028642574325203896, -0.001703603775240481, 0.11920483410358429, -0.17582827806472778, -0.19379208981990814, 0.10780017822980881, -0.06902118027210236, 0.40156883001327515, 0.3146638572216034, 0.24112839996814728, 0.3656267523765564, -0.4209349751472473], [0.0008129640482366085, 0.016072480008006096, 0.1876247525215149, 0.2814418375492096, 0.11730050295591354, 0.1754211187362671, -0.1505011022090912, 0.07207877933979034, 0.47818076610565186, 0.24363364279270172, -0.0041214702650904655, -0.04615608602762222, 0.3671899437904358, -0.02554425038397312, 0.05000399798154831, 0.013636220246553421, 0.02994588389992714, -0.1791606992483139, -0.09729310870170593, -0.010736167430877686, 0.15132537484169006, -0.14728601276874542, 0.15835502743721008, 0.14008468389511108, -0.025512326508760452, 0.29094433784484863, 0.013076849281787872, 0.008302390575408936, -0.038294196128845215, -0.140536829829216, 0.038310322910547256, 0.011646104976534843, -0.0010278965346515179, -0.05231944099068642, 0.052665792405605316, 0.24543315172195435, 0.2573170065879822, -0.07229097187519073, 0.12668468058109283, -0.16618098318576813], [0.0259818434715271, -0.0061118947342038155, 0.21848346292972565, -0.0871419757604599, 0.2868455946445465, 0.24740946292877197, -0.1730782687664032, -0.013861737214028835, -0.19703154265880585, -0.06488265842199326, 0.03234187886118889, 0.05655275657773018, 0.015000326558947563, 0.023534687235951424, -0.16736121475696564, -0.006356752011924982, -0.25797510147094727, 0.31809425354003906, -0.14400413632392883, 0.05756792798638344, 0.030925244092941284, -0.07951632887125015, -0.0442439541220665, 0.17657522857189178, -0.11812351644039154, 0.32291218638420105, -0.1251346468925476, 0.08603772521018982, 0.163791224360466, -0.07615094631910324, -0.06617900729179382, 0.12984806299209595, 0.13939258456230164, -0.2262290120124817, 0.08095674216747284, 0.08318445086479187, -0.16488681733608246, 0.09019452333450317, -0.095262810587883, 0.3929167091846466], [-0.032268766313791275, 0.009233146905899048, 0.2519048750400543, 0.14773708581924438, 0.18863631784915924, 0.05768612399697304, -0.0054498640820384026, -0.022150283679366112, 0.14402633905410767, 0.11160966008901596, -0.021577540785074234, 0.04047929868102074, 0.2971562445163727, -0.004284891299903393, -0.005323989782482386, 0.028549112379550934, -0.1142297014594078, 0.061122529208660126, -0.19316454231739044, -0.0592862032353878, 0.032909076660871506, -0.057960521429777145, 0.17993611097335815, 0.1865856796503067, -0.010243828408420086, 0.00849324930459261, -0.05976470187306404, -0.018144657835364342, 0.06126558035612106, 0.05743850767612457, -0.25513195991516113, -0.06956635415554047, 0.006495987996459007, 0.0808197557926178, 0.002766042249277234, 0.27978435158729553, -0.0012369462056085467, 0.21752730011940002, -0.18896454572677612, -0.030187390744686127], [-0.03118828684091568, -0.0037013182882219553, 0.6005839109420776, 0.7719597816467285, 0.5616687536239624, 0.26866379380226135, -0.006708319764584303, -0.011858338490128517, 0.3492816984653473, 0.5869858264923096, -0.041600242257118225, 0.06866037845611572, 0.963365912437439, -0.0019504338270053267, -0.21414953470230103, 0.23126515746116638, 0.06079847365617752, -0.19410571455955505, -0.520103931427002, 0.1194031834602356, 0.07796378433704376, -0.3753628730773926, 0.4005034267902374, 0.7096651196479797, -0.24263134598731995, 0.40498822927474976, -0.05528394505381584, -0.01962805725634098, -0.2130642831325531, -0.09713798016309738, -0.08846656233072281, 0.08826177567243576, 0.0673239529132843, 0.15519501268863678, -0.03367513790726662, -0.07724414765834808, 0.12282097339630127, 0.19870682060718536, -0.24877199530601501, 0.20089425146579742], [-0.0010147076100111008, -0.0019616507925093174, 0.06631822139024734, -0.015197367407381535, 0.0754476934671402, -0.01865740679204464, 0.04385475441813469, -0.016133418306708336, -0.0743769034743309, -0.005645872093737125, 0.013434062711894512, 0.019185231998562813, 0.05107182264328003, 0.01053632516413927, 0.021793795749545097, 0.015257253311574459, 0.011218786239624023, 0.0869920551776886, -0.06710314750671387, 0.017732327803969383, -0.0385134182870388, -0.03480930253863335, 0.04133797436952591, 0.05061424523591995, -0.017106734216213226, 0.05837209150195122, -0.005728560034185648, -0.03684905916452408, -0.08886443078517914, -0.010217344388365746, 0.05285144969820976, 0.1252616047859192, -0.013921675272285938, 0.07888130843639374, -0.020965106785297394, 0.05755070969462395, 0.0026089337188750505, 0.05216643959283829, -0.041413646191358566, 0.07766564935445786], [-0.003509828122332692, -0.024700060486793518, 0.6354517936706543, 0.3639231324195862, 0.5948718190193176, -0.026739902794361115, -0.06664909422397614, -0.016765622422099113, 0.5572251677513123, 0.6920209527015686, -0.04253722354769707, 0.17495092749595642, 1.328115701675415, 0.014541971497237682, -0.4800679087638855, 0.32337161898612976, 0.04417094588279724, -0.16010229289531708, -0.48978903889656067, 0.16340628266334534, 0.15389204025268555, -0.175620436668396, 0.10688192397356033, 0.6234443783760071, -0.197359099984169, 0.35080334544181824, -0.1329549103975296, -0.1520899534225464, 0.039506811648607254, -0.004623029381036758, -0.21835114061832428, 0.029629139229655266, -0.13178926706314087, 0.29439088702201843, 0.37879064679145813, -0.035008031874895096, 0.21020841598510742, 0.3953738212585449, -0.11197861284017563, 0.2982878088951111], [0.0052809445187449455, 0.007465934380888939, -0.2423647791147232, -0.31315651535987854, 0.1057894229888916, 0.032908689230680466, 0.0419519878923893, 0.010014704428613186, 0.08380629122257233, 0.050811659544706345, 8.140944555634633e-05, -0.005467473994940519, -0.012375413440167904, -0.029641054570674896, -0.14330291748046875, -0.010140849277377129, -0.09915588796138763, -0.15291768312454224, -0.1176372841000557, -0.0025778075214475393, 0.011837796308100224, -0.09977460652589798, 0.11462952196598053, 0.007274827919900417, -0.011161231435835361, 0.27998673915863037, 0.016899986192584038, 0.05063880980014801, 0.0366332046687603, -0.08909006416797638, 0.05142524465918541, 0.10725406557321548, 0.01668824814260006, 0.017431076616048813, -0.044152092188596725, -0.043057430535554886, 0.11713983118534088, -0.04246016591787338, -0.04018910601735115, 0.11983747035264969], [0.006576111074537039, -0.0048582046292722225, 0.02212282083928585, -0.0057359784841537476, 0.0009647117694839835, 0.0173756442964077, 0.0031390839722007513, -0.012570047751069069, -0.017746053636074066, -0.020178887993097305, 0.009109161794185638, 0.012869808822870255, 0.0007466476527042687, 0.0005047869635745883, 0.025561993941664696, 0.003007230581715703, 0.00602271081879735, 0.08113517612218857, -0.006892754230648279, 0.005170766729861498, 0.03234652057290077, -0.003908058162778616, 0.018585646525025368, 0.0004205389996059239, -0.016575641930103302, 0.013933162204921246, -0.006456159986555576, 0.005731646437197924, -0.060923982411623, -8.381292718695477e-05, 0.008528586477041245, 0.05463485047221184, 0.02264386974275112, 0.014147663488984108, -0.005515993572771549, 0.015466361306607723, -0.011922028847038746, 3.6594046832760796e-05, 0.0011690290411934257, 0.02712945081293583], [0.01415407843887806, -0.011392221786081791, 0.05480923876166344, 0.0423123762011528, 0.026849916204810143, 0.054077181965112686, 0.022285066545009613, -0.04547734931111336, -0.09761133790016174, 0.01248710136860609, 0.00393732450902462, 0.07107766717672348, 0.004800989758223295, 0.0016120518557727337, 0.025538071990013123, 0.06049690395593643, -0.009012567810714245, 0.08820439875125885, -0.09532205760478973, 0.0025189933367073536, -0.06270483136177063, -0.08334095031023026, 0.04845073074102402, 0.06533785909414291, -0.019507084041833878, 0.0628521591424942, -0.07180500030517578, -0.061451256275177, -0.108028843998909, 0.053922634571790695, -0.08274194598197937, 0.029231881722807884, -0.03995271399617195, 0.014669395983219147, -0.016772767528891563, 0.025344211608171463, 0.05404949560761452, 0.11881227046251297, -0.08921274542808533, 0.1464095115661621], [0.053717341274023056, 0.03678220137953758, 0.32298246026039124, -0.21535465121269226, 0.13034704327583313, -0.2445760816335678, -0.020763114094734192, 0.04725465923547745, 0.14401404559612274, 0.05767084285616875, -0.04622030258178711, -0.05419114604592323, 0.09875302016735077, -0.19146154820919037, -0.3323163688182831, 0.05566779524087906, 0.10371500253677368, -0.23256009817123413, -0.2907770872116089, -0.01678459346294403, -0.25271183252334595, -0.06997005641460419, 0.10539287328720093, 0.030230404809117317, 0.14786089956760406, 0.2357977330684662, -0.03157014399766922, -0.072795070707798, 0.08155401051044464, -0.10537637770175934, 0.110085628926754, -0.0637950748205185, -0.04746492579579353, -0.03285210207104683, -0.12751570343971252, 0.33308371901512146, -0.21145644783973694, -0.0008445429848507047, 0.33087095618247986, 0.1625853329896927], [0.006056694779545069, -0.004384951665997505, 0.015581858344376087, -0.01394343376159668, -0.0036461728159338236, -0.0036838173400610685, 0.004663598258048296, -0.0034681903198361397, -0.01692141778767109, -0.009718266315758228, 0.002703048288822174, -0.004594030324369669, -0.00647397618740797, -0.01785014010965824, -0.02788798324763775, 0.0023637316189706326, -0.015003802254796028, 0.04192972928285599, -0.026284949854016304, -0.01053124014288187, -0.04499642550945282, -0.010120263323187828, 0.016292858868837357, 0.007909066043794155, 0.016274526715278625, 0.009140955284237862, -0.019448786973953247, 0.0136764170601964, 0.029185304418206215, -0.009174101985991001, 0.0007558524375781417, -0.016650507226586342, 0.011872283183038235, -0.009474544785916805, -0.022283252328634262, 0.02531362697482109, -0.03020642325282097, 0.007930747233331203, 0.007815761491656303, 0.017303533852100372], [-0.010760191828012466, 0.004054867196828127, 0.19874261319637299, -0.011170540004968643, 0.28890854120254517, -0.011199969798326492, -0.06320716440677643, -0.03036065213382244, -0.36095935106277466, 0.0727933943271637, -0.028032757341861725, 0.15723556280136108, 0.22499403357505798, -0.007535281125456095, -0.07710010558366776, 0.012674967758357525, 0.06918864697217941, -0.2594670355319977, -0.15582974255084991, 0.10943163186311722, 0.020510736852884293, -0.050471801310777664, 0.006809393875300884, 0.12561292946338654, 0.05624937638640404, 0.21880431473255157, -0.01911063678562641, -0.0594337023794651, -0.06827259808778763, -0.015762075781822205, -0.031328633427619934, 0.053288690745830536, -0.0822826698422432, 0.2567354440689087, -0.031145699322223663, -0.10135161876678467, 0.08090489357709885, 0.07720913738012314, -0.17301037907600403, 0.15802112221717834], [-0.00482453778386116, -0.0006466263439506292, -0.04512232542037964, -0.0032579004764556885, -0.0075558992102742195, 0.0026039532385766506, 0.00386810046620667, 0.003093118779361248, -0.006613515317440033, -0.0022869466338306665, -0.0004045964451506734, -0.0016563658136874437, -0.035370584577322006, 3.928844671463594e-05, -0.0061673857271671295, -0.0014471488539129496, -0.009620283730328083, -0.005698577035218477, 0.004146325867623091, 0.0004231667844578624, -0.0093658696860075, 0.007677730638533831, -0.01246968749910593, -0.0029614197555929422, 0.003336482448503375, 0.001925476361066103, -0.0029501323588192463, 0.0001227567408932373, 0.004417850635945797, 0.0019591080490499735, -0.001124524511396885, -0.00975208543241024, 0.0016788635402917862, -0.005470563191920519, 0.004101408179849386, -0.014745579101145267, -0.01307534147053957, -0.009402601979672909, 0.007209294941276312, -0.001972719794139266], [-0.009543572552502155, -0.025655891746282578, 0.24796748161315918, 0.0003337325470056385, 0.17868587374687195, 0.126447856426239, 0.08261843770742416, 0.012401627376675606, 0.04159916564822197, 0.062146373093128204, -0.011374345049262047, 0.024324992671608925, 0.2402094602584839, -0.04352980852127075, 0.25456365942955017, 0.10197455435991287, 0.08241979777812958, -0.39032015204429626, -0.3237973749637604, -0.02417428232729435, 0.12444726377725601, -0.1027652695775032, 0.22408968210220337, 0.039174895733594894, -0.09247198700904846, 0.071725994348526, -0.17985956370830536, 0.1258041262626648, 0.020647870376706123, -0.14717312157154083, 0.03889976069331169, 0.04423028975725174, -0.1430397480726242, 0.09467506408691406, -0.14357981085777283, -0.0890127420425415, 0.12779586017131805, 0.3896542191505432, -0.15830326080322266, 0.1670464128255844], [-0.021210189908742905, 0.013306915760040283, 0.16117620468139648, 0.018509823828935623, 0.2263224869966507, 0.1862296462059021, 0.06536060571670532, -0.06176326423883438, 0.251268595457077, 0.13543565571308136, -0.029582588002085686, 0.11585661768913269, 0.18375395238399506, -0.03613078594207764, 0.1987684965133667, 0.06562281399965286, -0.19460712373256683, -0.10126959532499313, -0.15741173923015594, 0.0013705180026590824, -0.045130837708711624, -0.16200152039527893, 0.22340084612369537, 0.16519872844219208, -0.15459059178829193, 0.2039935290813446, -0.1342991143465042, -0.0483386367559433, 0.2220683991909027, -0.17448005080223083, -0.05809445306658745, 0.1682123988866806, -0.12573830783367157, 0.08946215361356735, -0.0800166055560112, 0.01798810251057148, 0.0571257658302784, 0.10000835359096527, -0.1367126852273941, 0.15340447425842285], [0.013595202006399632, -0.024996211752295494, -0.016118014231324196, 0.005121971480548382, 0.037761397659778595, 0.17044498026371002, -0.04827369749546051, -0.039879512041807175, 0.2618262767791748, -0.0781966894865036, 0.015610712580382824, 0.03203459829092026, -0.04758884012699127, -0.008169855922460556, 0.0837695524096489, -0.007298658601939678, -0.14018937945365906, 0.05723007023334503, 1.8276537957717665e-05, -0.021290292963385582, 0.07396680861711502, -0.03770924359560013, 0.060663070529699326, 0.008352067321538925, -0.032344844192266464, -0.10277367383241653, -0.08110082149505615, 0.05611785873770714, 0.0120201101526618, 0.008202137425541878, -0.08262331038713455, 0.10687434673309326, 0.037122514098882675, 0.02550440840423107, 0.004587005823850632, -0.06719557195901871, -0.0624433271586895, 0.0022054212167859077, 0.08094421774148941, 0.07088492810726166], [-0.0037019660230726004, -0.0010693626245483756, 0.013664421625435352, -0.010447768494486809, 0.03444627672433853, -0.0037484243512153625, -0.019719090312719345, -0.005359970033168793, -0.15270712971687317, 0.004093047697097063, 0.0021551670506596565, 0.013726403005421162, 0.038662388920784, 0.004239351488649845, -0.08669477701187134, -0.003666772274300456, -0.004879497457295656, -0.014568491838872433, -0.014194391667842865, 0.030185068026185036, -0.024030782282352448, 0.012343423441052437, -0.0568748414516449, 0.004595351871103048, 0.015537651255726814, 0.05761314183473587, 0.009937357157468796, -0.007580084260553122, 0.0158669613301754, -0.012645620852708817, -0.01633693091571331, 0.011940543539822102, 0.0022870691027492285, 0.018032390624284744, 0.011142931878566742, 0.004043344873934984, -0.011001591570675373, -0.015650589019060135, -0.01935332454741001, 0.012696610763669014], [-0.018594875931739807, -0.012103107757866383, 0.07710520178079605, 0.09262525290250778, 0.27681833505630493, 0.2464108020067215, 0.015105558559298515, 0.06271860748529434, -0.05725952237844467, 0.14202307164669037, 0.021302079781889915, -0.0626821219921112, 0.1588805466890335, 0.0030554395634680986, 0.09687317162752151, 0.04925157129764557, -0.06625812500715256, -0.06260348856449127, -0.14156220853328705, 0.0010529195424169302, 0.02673122100532055, -0.10148106515407562, 0.17272475361824036, 0.2088717669248581, -0.11196292191743851, -0.029105616733431816, -0.01552705466747284, 0.007544936612248421, -0.13665099442005157, -0.00883446354418993, -0.029180046170949936, -0.03493456169962883, 0.054201919585466385, 0.0700945109128952, 0.029991885647177696, 0.03621233254671097, 0.24522127211093903, 0.13146160542964935, -0.047749295830726624, 0.04295019432902336], [-0.02945481613278389, -0.00021059084974694997, 0.24595631659030914, 0.02692859061062336, 0.14354240894317627, 0.29547184705734253, -0.01803973689675331, 0.0026369518600404263, 0.00030793770565651357, -0.023743532598018646, -0.007400181610137224, -0.019898373633623123, 0.129818394780159, -4.6584144001826644e-05, 0.03879166394472122, 0.0003769672766793519, -0.05499005317687988, -0.10720114409923553, -0.08839140087366104, 0.023889627307653427, 0.012566396035254002, 0.05699603632092476, -0.001098106848075986, 0.022573446854948997, -0.038224563002586365, 0.10855498164892197, -0.14273783564567566, 0.055146247148513794, 0.3007581830024719, -0.08962138742208481, -0.03302919492125511, -0.026224032044410706, -0.07132726907730103, -0.012830415740609169, 0.036153171211481094, 0.07232809066772461, -0.0904964879155159, 0.05746379867196083, -0.14834727346897125, 0.11934201419353485], [-0.03403319790959358, -0.016858365386724472, -0.027668876573443413, -0.17915962636470795, 0.0334322564303875, -0.0030314004980027676, -0.0003622117219492793, -0.0824938639998436, -0.3874761462211609, -0.06638281047344208, 0.034456767141819, 0.03968917578458786, -0.0385473296046257, -0.0011748512042686343, -0.08992167562246323, -0.008511802181601524, -0.1135997548699379, -0.006310388911515474, -0.02967015840113163, 0.0892726480960846, -0.032356105744838715, 0.060351382941007614, -0.075770303606987, -0.025282971560955048, 0.0008493974455632269, 0.26127365231513977, -0.01037068571895361, 0.020069029182195663, -0.08776737749576569, -0.00904898438602686, 0.00014744196960236877, 0.14507299661636353, 0.12340337783098221, 0.09675475209951401, 0.00940126646310091, -0.17185072600841522, -0.149594247341156, -0.03254937753081322, 0.06486696749925613, 0.14302539825439453], [0.03714744374155998, 0.008007166907191277, -0.13444991409778595, -0.18527215719223022, 0.09359154850244522, -0.08652765303850174, -0.027522806078195572, -0.014901919290423393, -0.020975463092327118, 0.01335922908037901, -0.008442375808954239, 0.03018995001912117, 0.021423961967229843, -0.03618122637271881, -0.04064703360199928, -0.0438297837972641, -0.058856502175331116, -0.0519188791513443, -0.08340193331241608, -0.044131819158792496, -0.047498758882284164, -0.1082916408777237, 0.06382939219474792, -0.15698179602622986, 0.007473865058273077, 0.22422856092453003, 0.029170095920562744, 0.0789400041103363, 0.1828620433807373, -0.0011727983364835382, -0.07473024725914001, 0.04879899322986603, -0.03732418641448021, -0.032527778297662735, -0.06414119154214859, 0.00020614633103832603, -0.005763025023043156, -0.05396244674921036, -0.04395044967532158, 0.12152902036905289], [0.0076440684497356415, -0.013498828746378422, 0.009233335964381695, -0.06625252217054367, 0.22909897565841675, -0.279526948928833, 0.1432940512895584, 0.04097422584891319, -0.0775693729519844, 0.023313386365771294, -0.007765884045511484, -0.06288646906614304, -0.05032522603869438, -0.06261972337961197, -0.2170478254556656, 0.0011806701077148318, 0.06177126616239548, 0.06368979066610336, -0.16153466701507568, -0.014538144692778587, -0.17631104588508606, -0.12051474303007126, 0.02964368835091591, 0.02166353538632393, 0.1917518973350525, -0.10468112677335739, -0.024256670847535133, 0.051097165793180466, 0.05203056335449219, 0.022738710045814514, 0.05236298218369484, -0.13021840155124664, 0.06186958774924278, 0.23946475982666016, -0.06435271352529526, -0.1415935754776001, -0.0409468337893486, 0.09995991736650467, 0.0583806037902832, -0.005191648378968239], [-0.003839019685983658, 0.025086604058742523, 0.49344882369041443, -0.11591283231973648, 0.020693225786089897, -0.0224861279129982, 0.07999730855226517, -0.03426949307322502, -0.0971449539065361, 0.11535528302192688, -0.07758695632219315, 0.025265295058488846, 0.2404593825340271, -0.05356231704354286, 0.00878769252449274, 0.05626564845442772, 0.007042754907160997, 0.021416928619146347, -0.1747777909040451, 0.013248116709291935, -0.06938374042510986, -0.07430092245340347, 0.11492154747247696, -0.09425537288188934, -0.1124432161450386, 0.1517513394355774, -0.05632217228412628, -0.13287274539470673, 0.1600411981344223, -0.1152394562959671, 0.051565125584602356, 0.12294133007526398, -0.11868508160114288, 0.021499214693903923, -0.23570895195007324, -0.0429346077144146, -0.09982293099164963, 0.0703272894024849, -0.11296366155147552, 0.23000238835811615], [0.022564366459846497, -0.02439705841243267, -0.00829930417239666, 0.056839585304260254, -0.07410996407270432, 0.18349820375442505, -0.007400134112685919, 0.038981612771749496, 0.042623404413461685, -0.02682560868561268, 0.017525196075439453, 0.03145427629351616, -0.035089537501335144, -0.02178220823407173, 0.020990334451198578, 0.002741500036790967, -0.04964493587613106, 0.24848394095897675, 0.036731261759996414, -0.03801891952753067, 0.007655739318579435, 0.06311444938182831, -0.030628744512796402, 0.002910885727033019, -0.021123765036463737, -0.05640432983636856, -0.005010236985981464, 0.055452458560466766, 0.04025160148739815, 0.0115802101790905, 0.011304930783808231, -0.08313187956809998, 0.04131387546658516, -0.13169611990451813, 0.017926430329680443, 0.14611908793449402, -0.06134412810206413, 0.08341215550899506, 0.05820216238498688, -0.01918174885213375], [0.028687892481684685, -0.025786006823182106, 0.04182156175374985, -0.008328292518854141, 0.0012487921630963683, 0.01960013248026371, 0.04479813575744629, -0.00800270028412342, 0.060651473701000214, 0.030822843313217163, 0.028256656602025032, 0.045294687151908875, 0.014802323654294014, -0.0186490248888731, 0.027529381215572357, 0.019266417250037193, -0.013053190894424915, 0.19819742441177368, -0.09089396893978119, -0.015934666618704796, 0.11276578158140182, -0.07115056365728378, 0.11319132894277573, 0.05012018233537674, -0.013058855198323727, 0.024132564663887024, -0.018582426011562347, 0.08349351584911346, -0.18430465459823608, 0.036497779190540314, 0.02826055698096752, 0.1296985149383545, 0.09257495403289795, 0.0869583785533905, -0.018012801185250282, -0.0959865003824234, 0.049606405198574066, 0.05960245802998543, -0.06966263800859451, 0.05085728317499161], [0.0513901524245739, -0.03996043652296066, -0.06671738624572754, -0.09718995541334152, 0.14942632615566254, 0.19288355112075806, 0.024774665012955666, 0.007053120993077755, -0.1590525209903717, -0.11417632550001144, 0.08794625103473663, 0.1064118891954422, -0.07760549336671829, -0.0072195096872746944, 0.13422581553459167, -0.020764105021953583, 0.06619709730148315, 0.01389098446816206, 0.017404543235898018, 0.020159302279353142, 0.2521200180053711, -0.007192997727543116, -0.038355570286512375, -0.16607704758644104, 0.006042243912816048, 0.07775659114122391, -0.07827181369066238, 0.14107511937618256, -0.11718841642141342, -0.022013653069734573, -0.02954450249671936, 0.004960890859365463, 0.1569737046957016, 0.2527468800544739, 0.02356407418847084, 0.1033313125371933, -0.05303111672401428, 0.03633376210927963, -0.14575906097888947, 0.13906459510326385], [0.004473934881389141, 0.004526050295680761, 0.11621095985174179, -0.010169431567192078, 0.052627261728048325, 0.06439433246850967, 0.10674577206373215, -0.08744305372238159, -0.09245683997869492, -0.034554969519376755, 0.008941428735852242, 0.07073883712291718, 0.08589521795511246, 0.044500309973955154, 0.0963401198387146, 0.043132662773132324, 0.028584878891706467, 0.14496465027332306, -0.09019052982330322, 0.04498222842812538, 0.05271422490477562, -0.06787893176078796, 0.08093024790287018, 0.04065423086285591, -0.08196143805980682, -0.011695526540279388, -0.026667550206184387, -0.072873055934906, -0.18600855767726898, 0.011298912577331066, 0.007070205174386501, 0.19181954860687256, -0.04269188269972801, 0.13616086542606354, -0.027599630877375603, 0.11045262217521667, 0.014341972768306732, 0.10740997642278671, -0.020198334008455276, 0.14686113595962524], [-0.005587071646004915, 0.0026142210699617863, -0.03828992322087288, 0.023151002824306488, 0.07405563443899155, 0.041181303560733795, -0.033157285302877426, -0.0712120532989502, -0.1439020037651062, 0.06445597857236862, -0.021576575934886932, 0.14633460342884064, 0.0021729024592787027, 0.038315579295158386, 0.019827477633953094, 0.0238557830452919, -0.09026532620191574, -0.10070881247520447, -0.15152288973331451, -0.005345490295439959, -0.06736580282449722, -0.12522388994693756, 0.11416108906269073, 0.05826180800795555, -0.03045494109392166, 0.0006813385989516973, -0.017736434936523438, -0.10219325125217438, 0.0032486438285559416, 0.09845663607120514, -0.1544748693704605, -0.008480105549097061, -0.09889692813158035, 0.1052142009139061, -0.015611371025443077, 0.01720181107521057, 0.09037710726261139, 0.09995908290147781, -0.19046244025230408, 0.054833125323057175], [0.0003638426715042442, -0.00834683608263731, 0.027909431606531143, -0.045849062502384186, 0.08270657807588577, 0.1101132184267044, 0.06293361634016037, -0.002491622930392623, -0.05065315216779709, 0.031143449246883392, 0.005261345766484737, 0.041217122226953506, 0.07408878207206726, -0.01645108126103878, -0.008867898024618626, 0.004744010046124458, -0.10267467051744461, -0.08687380701303482, -0.09964748471975327, -0.006798028014600277, -0.025571398437023163, -0.04923977330327034, 0.05748780816793442, -0.02800810895860195, 0.040175821632146835, 0.18654286861419678, -0.028573203831911087, 0.0349910706281662, 0.007021578028798103, -0.032787032425403595, 0.01646476238965988, -0.03779227286577225, -0.013969109393656254, 0.064232237637043, -0.05457540974020958, 0.1643432229757309, 0.005890171974897385, 0.07299121469259262, -0.026821738108992577, 0.07580073177814484], [-0.001985312206670642, -0.0038300740998238325, 0.040661267936229706, -0.036015115678310394, -0.023685181513428688, 0.035307377576828, 0.0018772886833176017, -0.016957847401499748, 0.034248948097229004, -0.031966716051101685, -0.015654394403100014, 0.025395765900611877, 0.017052210867404938, -0.027506479993462563, 0.12206926196813583, 0.016611643135547638, 0.07644407451152802, -0.11500797420740128, -0.04983924701809883, 0.004353680182248354, 0.006902577821165323, 0.006924744229763746, 0.0887024775147438, -0.017976325005292892, 0.04740775749087334, 0.031440746039152145, -0.016294529661536217, -0.020398130640387535, -0.13546237349510193, -0.020347071811556816, 0.04175395146012306, 0.053002677857875824, 0.006180885247886181, 0.07478761672973633, -0.06230098381638527, -0.05045866221189499, -0.021346019580960274, 0.050945110619068146, -0.11238090693950653, 0.0474916435778141], [-0.01256899069994688, -0.03742346912622452, 0.1200035810470581, -0.018818669021129608, 0.0772070661187172, 0.09104055166244507, 0.1393490880727768, 0.0011617908021435142, -0.17063380777835846, 0.00825499091297388, 0.028870059177279472, 0.15479005873203278, 0.13067741692066193, 0.07247957587242126, 0.23037053644657135, 0.004008898511528969, 0.09609992802143097, -0.13526813685894012, -0.07217928767204285, 0.024591926485300064, 0.12598371505737305, -0.053861942142248154, -0.006106446031481028, 0.07617373019456863, -0.1815013438463211, 0.0013366683851927519, -0.06657062470912933, -0.03752298653125763, -0.566207766532898, 0.13075825572013855, 0.07615204155445099, 0.019678348675370216, 0.17566120624542236, -0.02747219055891037, 0.07327280193567276, -0.37898972630500793, 0.24565058946609497, 0.07767845690250397, -0.007746383547782898, 0.10220938920974731], [0.004991922993212938, -0.011497978121042252, 0.15530432760715485, -0.026880037039518356, 0.18053005635738373, -0.023774562403559685, 0.034788962453603745, -0.0032863961532711983, -0.046124815940856934, 0.04464728385210037, 0.022732824087142944, 0.0004162281984463334, 0.33895227313041687, -0.021118009462952614, -0.02900279313325882, 0.010723616927862167, -0.04262334853410721, 0.12116078287363052, -0.09780803322792053, -0.021931368857622147, 0.04358060657978058, -0.06063542887568474, 0.10969708114862442, 0.049056172370910645, -0.058199428021907806, 0.09989691525697708, -0.012253846973180771, 0.019947689026594162, -0.007044263184070587, 0.026336990296840668, 0.012836693786084652, 0.048236995935440063, 0.05946962535381317, 0.036380209028720856, -0.06113276258111, 0.1817755103111267, 0.0279349647462368, 0.005337714683264494, -0.08582255989313126, 0.023794565349817276], [0.0004638752434402704, -0.01478747371584177, 0.18147994577884674, 0.010148421861231327, 0.02239331044256687, 0.004938736092299223, 0.2178657352924347, 0.09473373740911484, 0.017570683732628822, 0.07687578350305557, 0.0327049121260643, 0.024223819375038147, 0.15929387509822845, -0.03881094604730606, 0.14873069524765015, 0.0352255217730999, -0.16948015987873077, -0.11809419095516205, -0.11341887712478638, -0.07908166199922562, 0.07553449273109436, -0.03479098156094551, 0.07236484438180923, 0.06626398116350174, -0.014980916865170002, 0.03316629305481911, -0.02166399545967579, 0.017092125490307808, -0.006812284234911203, -0.034650713205337524, -0.015934277325868607, -0.1642547994852066, -0.05923005938529968, -0.0077221570536494255, -0.06656321883201599, -0.010146072134375572, 0.20349723100662231, 0.12131594121456146, 0.0138154998421669, -0.04595177248120308], [-0.031020352616906166, -0.000497756409458816, 0.07856887578964233, -0.23428255319595337, -0.01350715383887291, 0.09260645508766174, 0.10572964698076248, -0.04626847803592682, -0.12824997305870056, -0.06387002766132355, 0.032168492674827576, 0.062173571437597275, -0.0745510458946228, 0.03219788148999214, 0.14660952985286713, 0.010595723055303097, -0.018284335732460022, -0.09660117328166962, -0.08984469622373581, 0.04604356735944748, -0.021251842379570007, -0.03474291414022446, 0.03344974294304848, -0.032419171184301376, -0.13315421342849731, 0.3576321005821228, 0.050383057445287704, -0.013322263024747372, 0.20249028503894806, -0.17378266155719757, 0.10033460706472397, 0.10687275975942612, -0.11962886154651642, -0.04831235483288765, 0.017469141632318497, 0.04115673899650574, -0.16325020790100098, 0.0072593651711940765, -0.015037836506962776, 0.17885904014110565], [-0.012094302102923393, 0.026203924790024757, 0.1374853253364563, 0.055120863020420074, 0.04157854989171028, 0.012617584317922592, 0.03556091710925102, 0.05128435418009758, 0.14487411081790924, 0.08770734816789627, -0.04691234603524208, -0.08921150118112564, 0.20994219183921814, -0.05612793192267418, -0.024839458987116814, -0.01944340020418167, 0.09643077850341797, -0.190204456448555, -0.1067124679684639, -0.02399514429271221, -0.08874282240867615, -0.05059497058391571, 0.11759119480848312, 0.020793123170733452, -0.008730847388505936, 0.18282121419906616, 0.03229367733001709, -0.08025874197483063, 0.02726839669048786, -0.08339107036590576, 0.10762430727481842, -0.09703299403190613, -0.06854679435491562, -0.02615499496459961, -0.09313280135393143, 0.11550625413656235, 0.07522161304950714, -0.22020386159420013, -0.13271664083003998, 0.02281731180846691], [-0.0022245305590331554, -0.017948327586054802, 0.43179044127464294, 0.41175514459609985, 0.3202718496322632, -0.04420534521341324, -0.03547248989343643, -0.0020407866686582565, 0.1345149725675583, 0.3319891095161438, 0.016191409900784492, 0.14690029621124268, 0.6980816125869751, -0.007350352592766285, 0.06795334815979004, 0.14227043092250824, 0.09286832809448242, -0.04950273036956787, -0.09236915409564972, -0.02125021629035473, 0.1281466782093048, -0.08532239496707916, 0.31087592244148254, 0.21361102163791656, 0.21402662992477417, 0.36788952350616455, -0.07348407804965973, 0.05115196108818054, -0.05911332368850708, -0.030429042875766754, -0.047865014523267746, -0.0738544687628746, -0.007447008974850178, 0.3115399479866028, -0.012638013809919357, 0.04967530816793442, -0.004694489762187004, 0.3552679121494293, -0.22495511174201965, 0.04501691088080406], [-0.028278732672333717, 0.01778920367360115, 0.016173476353287697, 0.08946637064218521, 0.08664195984601974, 0.0378267765045166, -0.15778808295726776, -0.041222792118787766, 0.15243715047836304, 0.2404061108827591, -0.004005731549113989, 0.04206366837024689, 0.17421039938926697, 0.04360223188996315, 0.11212661117315292, 0.013750539161264896, -0.06260548532009125, 0.21550795435905457, -0.1426890343427658, -0.02259056270122528, 0.23817472159862518, -0.13183456659317017, 0.148643359541893, 0.1017042025923729, -0.068081796169281, -0.07602514326572418, 0.021798770874738693, -0.02614384889602661, -0.18725968897342682, -0.021401654928922653, -0.09017271548509598, -0.049413472414016724, -0.038643188774585724, 0.2305079847574234, -0.015768883749842644, -0.10857999324798584, 0.30514129996299744, 0.12906302511692047, -0.06278198212385178, -0.17016173899173737], [-0.002754603512585163, 0.032000500708818436, -0.07990804314613342, 0.05830938369035721, -0.016917917877435684, -0.07014580816030502, -0.07617383450269699, 0.125754714012146, 0.025705929845571518, -0.04784344881772995, 0.03660979121923447, -0.36984312534332275, -0.14563211798667908, 0.038877908140420914, 0.029929257929325104, 0.009790843352675438, 0.21566008031368256, 0.41233691573143005, 0.052082788199186325, 0.00468943128362298, 0.03199830651283264, 0.0832897499203682, -0.1068899929523468, -0.009862828068435192, -0.09445120394229889, 0.0028851847164332867, -0.06802408397197723, 0.061272505670785904, -0.02753620594739914, -0.08347583562135696, 0.06778103858232498, -0.03039844147861004, 0.16368494927883148, 0.006678430829197168, 0.04214615747332573, 0.11651250720024109, 0.12649068236351013, -0.03361743688583374, -0.06636404991149902, 0.06328282505273819], [-0.06411374360322952, -0.004299633204936981, -0.17781510949134827, -0.2703571915626526, 0.10227569192647934, 0.11500921845436096, 0.04682353883981705, -0.1303797960281372, -0.014819619245827198, 0.01884564943611622, -0.038867682218551636, 0.06583435833454132, 0.06715288758277893, -0.022247981280088425, 0.09655638039112091, -0.005747200455516577, -0.26349493861198425, -0.3875173032283783, -0.06647442281246185, 0.059843406081199646, -0.022499142214655876, -0.05635945126414299, 0.09162503480911255, 0.07175804674625397, 0.07327403128147125, 0.2216978371143341, -0.0571724958717823, -0.121014304459095, 0.1090645045042038, -0.1521768718957901, 0.09770112484693527, 0.16531889140605927, -0.12573383748531342, 0.06750167906284332, -0.04621806740760803, -0.07414732873439789, -0.10498476028442383, -0.00915601383894682, -0.049112480133771896, 0.08790219575166702], [-0.004517918918281794, 0.10588431358337402, 0.2681160271167755, 0.18026284873485565, 0.24844954907894135, -0.4526962637901306, 0.0018139217281714082, 0.2633816599845886, 0.13401822745800018, 0.24792924523353577, -0.0815201923251152, -0.22173897922039032, 0.17413005232810974, -0.01037022564560175, -0.15533539652824402, 0.18187029659748077, -0.012155315838754177, -0.24705342948436737, -0.21425092220306396, -0.24266798794269562, -0.035969045013189316, -0.316812127828598, 0.12617599964141846, 0.1611838936805725, -0.04630349949002266, -0.6956493854522705, 0.2238732874393463, -0.3183518648147583, -0.10237571597099304, 0.1137915626168251, -0.04282703623175621, -0.4887562096118927, -0.1627230942249298, 0.09577403217554092, -0.0007857719319872558, 0.6258782744407654, 0.26139724254608154, 0.6646683812141418, 0.9047935009002686, -0.4585665762424469], [-0.024264561012387276, 0.09038788825273514, 0.07246723771095276, 0.09042283147573471, 0.22783677279949188, 0.0711577907204628, -0.2838580906391144, 0.19036422669887543, 0.28948312997817993, 0.3809601068496704, -0.10254129022359848, -0.14502091705799103, 0.31570854783058167, -0.03559143468737602, -0.22982406616210938, -0.020645201206207275, 0.17185597121715546, -0.2197093516588211, -0.0962110161781311, -0.010640682652592659, 0.12579217553138733, -0.3353406488895416, 0.19465212523937225, 0.14727628231048584, 0.09576424211263657, 0.2916167378425598, 0.20148511230945587, 0.03451542556285858, 0.10806841403245926, -0.24116040766239166, 0.06337865442037582, -0.12979178130626678, -0.14503498375415802, -0.3904780149459839, 0.10386259108781815, 0.3131319284439087, 0.2990422248840332, -0.14883001148700714, 0.12191025912761688, -0.3330029249191284], [0.07392013072967529, 0.023402299731969833, -0.2412552833557129, -0.1258668750524521, 0.40593838691711426, 0.20963819324970245, -0.3220073878765106, -0.14188870787620544, 0.22657136619091034, 0.25367724895477295, -0.002431082772091031, 0.005228715017437935, 0.050985682755708694, -0.0510626882314682, -0.27321308851242065, -0.1213190034031868, -0.21101106703281403, 0.19468416273593903, -0.31297925114631653, -0.0973072499036789, -0.2332172691822052, -0.29113009572029114, 0.2585028409957886, 0.16644088923931122, -0.028051473200321198, 0.7614620327949524, -0.040414053946733475, 0.27116215229034424, 0.413847416639328, -0.44513803720474243, -0.1472160965204239, 0.1594696342945099, 0.18651634454727173, -0.2542177736759186, -0.019093459472060204, -0.005558735691010952, 0.310576468706131, -0.12253296375274658, -0.08684509247541428, 0.30149224400520325], [-0.010780510492622852, -0.17373737692832947, -0.12888921797275543, 0.33489692211151123, 0.170334130525589, 0.032603804022073746, -0.14958199858665466, -0.3748798668384552, 0.2206243872642517, -0.21281984448432922, 0.2617640793323517, 0.6703956723213196, 0.09091980010271072, 0.3527080714702606, 0.21420343220233917, -0.011097297072410583, -0.4210492670536041, -0.22908002138137817, 0.13191956281661987, 0.10110404342412949, 0.2586335241794586, 0.22093164920806885, -0.12591350078582764, -0.027237679809331894, -0.6900436878204346, 0.08453348278999329, -0.016815492883324623, 0.00826355442404747, 0.09356444329023361, 0.34441903233528137, -0.6980623006820679, 0.014715468510985374, -0.21586450934410095, 0.05504303053021431, 0.40285035967826843, 0.15823480486869812, -0.30279791355133057, -0.2865491807460785, -0.7439559698104858, 0.035303711891174316], [0.09335917979478836, 0.07014477252960205, -0.385927677154541, -0.13418447971343994, -0.001021258533000946, -0.20626063644886017, 0.7064924240112305, -0.02386731654405594, -0.2766037881374359, 0.15745989978313446, -0.13422095775604248, -0.023817451670765877, -0.04630430042743683, -0.046935420483350754, -0.31161263585090637, -0.04141026735305786, -0.2457391917705536, -0.12427826225757599, -0.12945637106895447, -0.13854765892028809, -0.2541258633136749, -0.1685550957918167, -0.013304819352924824, 0.050681039690971375, -0.04514174535870552, -0.1218152642250061, 0.1415175050497055, 0.10080921649932861, 0.4744185507297516, 0.045033048838377, -0.09787135571241379, -0.1433267444372177, -0.057365816086530685, -0.0848199874162674, -0.18557114899158478, 0.005707873497158289, 0.0365309938788414, 0.17320318520069122, -0.3268543481826782, -0.21029125154018402], [-0.010099154897034168, 0.11503063887357712, -0.1339886635541916, -0.11832067370414734, -0.05928194895386696, 0.24678362905979156, -0.05163968354463577, 0.07158838212490082, 0.06464797258377075, 0.18569447100162506, -0.10766298323869705, -0.13555622100830078, -0.07034551352262497, -0.24647927284240723, 0.02396087534725666, 0.051326148211956024, 0.1427779495716095, -0.19452154636383057, -0.2162889838218689, 0.021227123215794563, -0.11076963692903519, -0.18576553463935852, 0.2627614140510559, 0.049678508192300797, 0.17048880457878113, 0.032758332788944244, 0.07795824855566025, -0.10675356537103653, 0.16192127764225006, -0.4206363558769226, 0.2422846257686615, -0.023324372246861458, -0.07623086124658585, -0.3569720387458801, -0.19307172298431396, 0.0916467234492302, 0.26171648502349854, 0.10940908640623093, -0.052888739854097366, -0.05117778480052948], [0.04430340602993965, 0.07554247230291367, -0.0468166284263134, -0.22139163315296173, -0.13537681102752686, -0.2031688094139099, 0.3642573356628418, 0.031511399894952774, 0.5217767953872681, -0.06481369584798813, -0.13557025790214539, -0.09609882533550262, -0.022465849295258522, -0.05546971410512924, -0.040846262127161026, 0.04121207818388939, 0.018263747915625572, -0.11775538325309753, -0.1300358772277832, -0.04931236803531647, -0.21411024034023285, -0.08948313444852829, 0.055086102336645126, -0.09364902973175049, -0.04200884699821472, -0.17936483025550842, 0.0054084984585642815, 0.11007919907569885, 0.3754631280899048, -0.00017563907022122294, -0.022580210119485855, -0.09862206876277924, -0.28296786546707153, 0.001511124661192298, -0.16260431706905365, -0.11551915109157562, -0.2233257293701172, 0.2879275679588318, -0.036675821989774704, -0.04241914302110672], [0.07964470982551575, 0.09815309941768646, -0.5617334246635437, -0.24886174499988556, 0.23277924954891205, -0.033273909240961075, -0.292771577835083, 0.03649640455842018, 0.4382730722427368, -0.09275759756565094, -0.04658348485827446, -0.052556347101926804, -0.08172140270471573, -0.15923051536083221, -0.45660170912742615, -0.016239093616604805, -0.05290840566158295, -0.23165307939052582, -0.21999050676822662, 0.027238745242357254, 0.01647074893116951, -0.1916436403989792, 0.34342584013938904, 0.004899853840470314, 0.05781859531998634, 0.7735705971717834, 0.20736145973205566, 0.16772937774658203, -0.012225906364619732, -0.23850348591804504, 0.13588020205497742, 0.14279988408088684, -0.08627983927726746, -0.20670121908187866, -0.05452324077486992, -0.018500916659832, 0.43220770359039307, -0.07057506591081619, 0.05346404016017914, 0.07937002182006836], [0.04755529388785362, -0.015096918679773808, 0.27479732036590576, 0.08264578878879547, 0.0188443623483181, -0.25270912051200867, -0.034854643046855927, 0.04964900761842728, -0.07584607601165771, 0.08889903128147125, 0.0326823815703392, 0.12224937230348587, 0.01436664815992117, 0.10678762197494507, 0.09071936458349228, 0.05100061371922493, 0.18485528230667114, 0.25656694173812866, -0.012553023174405098, 0.02413383312523365, 0.1940673142671585, 0.03516548126935959, -0.01359401922672987, -0.028091048821806908, -0.09145241975784302, -0.09850970655679703, 0.10299525409936905, 0.055840663611888885, -0.2677212953567505, 0.1874224841594696, -0.1041807159781456, 0.022663287818431854, 0.12811341881752014, 0.061892103403806686, 0.16320659220218658, -0.030579306185245514, 0.17233599722385406, -0.04122290387749672, 0.18194977939128876, 0.044143982231616974], [0.1322173923254013, -0.07595837116241455, 0.2634802758693695, 0.30428922176361084, 0.13132521510124207, -0.36870062351226807, -0.12127934396266937, 0.17509470880031586, 0.05301342532038689, -0.06011774018406868, 0.005474362056702375, -0.019129164516925812, 0.13031478226184845, 0.16157405078411102, -0.08159735798835754, -0.10624583810567856, 0.35372570157051086, 0.42928484082221985, 0.10753271728754044, -0.19879978895187378, -0.03006298467516899, 0.20808784663677216, -0.3730044960975647, 0.04202071949839592, -0.1393050253391266, 0.5272098183631897, -0.07410957664251328, 0.006982928141951561, -0.20555639266967773, 0.43596458435058594, -0.11334311217069626, -0.34930339455604553, 0.397126704454422, -0.09650677442550659, 0.3405281901359558, 0.2481374889612198, 0.16208279132843018, -0.09675091505050659, -0.08831269294023514, 0.08474205434322357], [0.08311057835817337, 0.07446350157260895, 0.26065075397491455, -0.21101373434066772, 0.17311236262321472, -0.44863995909690857, -0.08278964459896088, -0.005170001648366451, 0.41288045048713684, 0.24017731845378876, -0.06204639747738838, -0.03159138932824135, 0.2156236469745636, -0.29397648572921753, -0.6284312009811401, 0.05806130915880203, 0.06541312485933304, -0.13998417556285858, -0.29508844017982483, 0.01796882413327694, -0.3172045052051544, -0.2248002588748932, 0.13779643177986145, -0.07530459016561508, 0.21098369359970093, 0.9771230816841125, -0.0007475233869627118, -0.013276450335979462, 0.17903149127960205, -0.22727428376674652, 0.2283804565668106, -0.06813809275627136, -0.13829605281352997, -0.1897895485162735, -0.2247587889432907, 0.4977567493915558, -0.33233991265296936, -0.1051713153719902, 0.1961633265018463, 0.4002896249294281], [-0.032004497945308685, -0.005896728951483965, 0.1844809651374817, 0.28944456577301025, 0.25304391980171204, -0.11717842519283295, -0.013192125596106052, 0.12812386453151703, 0.07960472255945206, 0.275249719619751, 0.01689067669212818, 0.07633752375841141, 0.45344603061676025, 0.022685490548610687, 0.024088280275464058, -0.024054013192653656, -0.008410264737904072, -0.06624007970094681, 0.06360597163438797, -0.07680921256542206, 0.07472193986177444, 0.12336212396621704, -0.06599697470664978, 0.12563684582710266, -0.07618847489356995, 0.4501759707927704, 0.11327598989009857, -0.04651226848363876, -0.11914680898189545, 0.10288362950086594, 0.013248708099126816, -0.18954242765903473, 0.0108681321144104, 0.04987359419465065, 0.22627517580986023, -0.11808472871780396, 0.2582258880138397, -0.09519635140895844, -0.016628261655569077, -0.11405208706855774], [-0.09151692688465118, 0.015298226848244667, 0.2973058819770813, 0.36421316862106323, 0.07287519425153732, 0.03412312641739845, 0.4988288879394531, -0.08798327296972275, 0.47299957275390625, 0.04903959110379219, -0.1376281976699829, 0.13956990838050842, 0.5306761264801025, 0.2617911100387573, -0.02632041648030281, 0.10705246776342392, 0.2332475632429123, -0.24184510111808777, 0.00871800072491169, -0.0957149937748909, -0.07971841096878052, 0.4890669882297516, 0.12866505980491638, 0.0014653409598395228, -0.8616891503334045, 0.15394853055477142, -0.1022518202662468, -0.17136433720588684, 0.11133072525262833, 0.12843617796897888, -0.2001626342535019, -0.016218552365899086, -0.2023792415857315, 0.05891737714409828, 0.30005186796188354, -0.3606688976287842, 0.005386249627918005, -0.21290729939937592, -0.06291650980710983, -0.019699908792972565], [-0.052619826048612595, 0.006840331945568323, 0.032427284866571426, -0.002993606962263584, 0.000650499016046524, -0.12971091270446777, 0.03195919096469879, 0.03960349038243294, 0.004645207431167364, -0.028279148042201996, -0.004008817952126265, -0.013598266988992691, 0.01649140939116478, 0.015778150409460068, 0.1583409458398819, -0.036394622176885605, 0.05984848365187645, -0.23346735537052155, 0.026393596082925797, 0.0343124084174633, 0.0801864042878151, -0.01158158853650093, 0.006465173326432705, -0.036502256989479065, -0.015064523555338383, -0.17077778279781342, 0.05313331261277199, -0.041346535086631775, -0.10899471491575241, 0.029752755537629128, 0.05011368915438652, -0.03274621069431305, -0.02788364887237549, 0.09538935124874115, -0.0063680377788841724, 0.021680649369955063, 0.0987342894077301, 0.02707120217382908, 0.04003699868917465, -0.053088314831256866], [-0.3707468509674072, 0.33824026584625244, 0.11187741905450821, -0.1505773961544037, -0.0032467215787619352, 0.21731309592723846, 0.5072665214538574, 0.26546162366867065, -0.25984832644462585, -0.32189279794692993, -0.27038902044296265, -0.5160838961601257, 0.005694118794053793, 0.01875450275838375, 0.4524005949497223, -0.087531179189682, 0.07264132052659988, -0.25809118151664734, 0.09260887652635574, 0.17578430473804474, -0.2027221918106079, 0.5411871671676636, -0.15682022273540497, -0.3219856023788452, -0.15478286147117615, 0.009265558794140816, -0.1460154503583908, -0.4555618166923523, 0.2318427711725235, -0.4659075438976288, 0.10869894176721573, -0.05252042040228844, -0.25880029797554016, 0.2433272898197174, -0.1084451824426651, 0.04849773645401001, 0.10713963210582733, -0.1539854109287262, 0.019990943372249603, 0.0012659417698159814], [-0.12118376046419144, -0.027061792090535164, 0.2852148711681366, 0.25574591755867004, -0.3449847996234894, 0.10019359737634659, -0.12280964106321335, 0.072748102247715, -0.24154575169086456, -0.15732018649578094, 0.2384549230337143, -0.06885029375553131, -0.008440619334578514, 0.20698638260364532, 0.1188710406422615, 0.227773979306221, 0.41661086678504944, 0.12991055846214294, 0.0731196254491806, 0.15046130120754242, 0.5397354364395142, 0.23856163024902344, -0.12070927023887634, -0.10697454959154129, -0.24418321251869202, -0.40370047092437744, -0.033260613679885864, -0.12378425896167755, -0.10496298223733902, 0.11370674520730972, 0.2738029956817627, -0.013094932772219181, 0.005435045808553696, -0.23034971952438354, 0.40294456481933594, -0.20734667778015137, 0.0902685597538948, 0.19400513172149658, -0.1897696703672409, 0.005012954119592905], [-0.029988689348101616, 0.019858749583363533, 0.43219175934791565, 0.7707422375679016, -0.0764119029045105, 0.324632465839386, -0.12645435333251953, 0.1896398961544037, 0.6340034008026123, 0.2458469122648239, -0.0121620399877429, -0.06892094761133194, 0.12719011306762695, 0.08572740107774734, 0.1887744516134262, 0.050529371947050095, 0.10089212656021118, -0.07134699076414108, 0.10618210583925247, -0.10587666183710098, 0.11048025637865067, 0.1986716091632843, -0.08765595406293869, 0.193938210606575, 0.020424945279955864, -0.19832991063594818, 0.16009889543056488, -0.13619910180568695, -0.00033342736423946917, 0.07505378127098083, -0.04826357960700989, -0.19848397374153137, -0.19194793701171875, -0.11267118901014328, 0.37938961386680603, 0.23078040778636932, 0.2504658102989197, -0.09782026708126068, 0.41714757680892944, -0.32892799377441406], [-0.05446621775627136, -0.016627585515379906, 0.13397152721881866, 0.04573868587613106, 0.06657757610082626, -0.08688534796237946, 0.05332789570093155, -0.17223826050758362, -0.2794552445411682, -0.24136091768741608, 0.022197334095835686, 0.34358593821525574, 0.08252624422311783, 0.11027148365974426, 0.019446393474936485, -0.010419009253382683, -0.11182819306850433, -0.17082346975803375, 0.2578924596309662, 0.04148099571466446, 0.06713128834962845, 0.24099789559841156, -0.25099048018455505, -0.17357385158538818, -0.0013313433155417442, 0.059414319694042206, 0.08010145276784897, -0.13962113857269287, 0.09503715485334396, 0.19488364458084106, -0.1764245331287384, 0.10061369836330414, -0.28632545471191406, 0.27547553181648254, 0.02663995511829853, -0.12817689776420593, -0.07319680601358414, -0.10805848985910416, -0.06791210174560547, -0.07588829100131989], [-0.02888721413910389, -0.06151103228330612, -0.34058308601379395, 0.2904427647590637, -0.13066941499710083, -0.24328310787677765, -0.09059961885213852, 0.19574028253555298, 0.030288929119706154, 0.2364201545715332, 0.17154854536056519, 0.5025354623794556, 0.3822239637374878, 0.3046910762786865, 0.2555936872959137, 0.09912032634019852, -0.03326702490448952, -0.5666717886924744, -0.02325334958732128, 0.11104716360569, 0.1349797397851944, -0.06560301780700684, 0.18082907795906067, 0.12568703293800354, -0.3181052505970001, 0.24485713243484497, 0.2609217166900635, 0.004564915783703327, -0.32461366057395935, 0.31979188323020935, -0.11579190939664841, 0.3788135349750519, -0.13263240456581116, 0.1602712720632553, 0.34769898653030396, -0.06891538202762604, 0.4797552227973938, 0.0005960168200545013, 0.02264305390417576, -0.22084744274616241], [-0.1712120920419693, 0.033075541257858276, 0.6994398832321167, 0.24343200027942657, -0.024071410298347473, -0.03968913108110428, 0.2632877826690674, -0.02001887932419777, -0.059112656861543655, -0.011794586665928364, 0.04029756784439087, 0.23648595809936523, 0.2154112011194229, 0.18564951419830322, -0.12069640308618546, -0.03436516225337982, -0.07354547828435898, -0.430987149477005, 0.3990667462348938, 0.13828442990779877, 0.023729586973786354, 0.09577075392007828, -0.28523263335227966, -0.18710771203041077, -0.02944057807326317, 0.00045564540778286755, 0.12574273347854614, -0.22929216921329498, 0.3582431972026825, 0.22517353296279907, -0.30923640727996826, -0.18417809903621674, -0.47211965918540955, -0.21817642450332642, 0.2345486283302307, 0.23078379034996033, -0.19148504734039307, 0.11196983605623245, 0.09765654057264328, -0.48961925506591797], [0.012361393310129642, -0.03524858132004738, -0.34639665484428406, -0.14907138049602509, -0.2051062136888504, -0.2053624987602234, -0.0963156521320343, -0.07419335842132568, 0.7397026419639587, -0.07345792651176453, 0.06933466345071793, -0.01841404289007187, 0.14450229704380035, -0.049846939742565155, 0.41538241505622864, 0.03525828942656517, -0.006895539816468954, -0.11287803202867508, -0.23078398406505585, -0.05591556429862976, -0.12503086030483246, 0.11317361891269684, 0.17116214334964752, -0.21379916369915009, -0.05271582305431366, 0.4743365943431854, -0.22902244329452515, 0.11646970361471176, -0.29597535729408264, -0.14538992941379547, 0.26057860255241394, 0.2707178592681885, 0.2929843068122864, 0.27935367822647095, -0.24965950846672058, -0.5015172958374023, -0.12974758446216583, -0.2062370479106903, 0.014436413533985615, 0.3074750006198883], [0.0640861764550209, 0.007455890532582998, -0.22754664719104767, -0.049268413335084915, 0.6006972193717957, 0.26643499732017517, 0.0447726808488369, -0.14499980211257935, 0.26710033416748047, 0.17480696737766266, -0.05244684964418411, 0.44201353192329407, 0.03572699427604675, 0.25726497173309326, -0.016959529370069504, -0.12898142635822296, -0.2722730338573456, -0.2213611602783203, 0.02041599154472351, -0.06217995285987854, 0.13756106793880463, -0.20475786924362183, 0.33573389053344727, -0.09764699637889862, -0.20586682856082916, 0.29453474283218384, 0.10177561640739441, -0.08676402270793915, 0.10814489424228668, 0.16951771080493927, -0.18274962902069092, 0.056518033146858215, -0.1917441189289093, 0.1318051517009735, 0.05987182632088661, -0.3812117874622345, 0.7199485301971436, -0.15033751726150513, -0.3523217737674713, 0.06970978528261185], [0.0823790654540062, 0.019591832533478737, -0.43072041869163513, -0.28406181931495667, -0.18279969692230225, -0.2956339418888092, -0.15568962693214417, 0.019900411367416382, -0.40823182463645935, -0.08516935259103775, -0.011253132484853268, -0.19864331185817719, -0.412469744682312, -0.11691179126501083, -0.5828596353530884, 0.1728842407464981, 0.12936076521873474, 0.2077246457338333, -0.32214751839637756, 0.004828433506190777, -0.00782694946974516, -0.3372039198875427, 0.11073586344718933, -0.011515139602124691, 0.19094106554985046, -0.8623214960098267, -0.009001965634524822, 0.15559977293014526, 0.032254695892333984, -0.0012678282801061869, -0.013504436239600182, -0.009985091164708138, 0.15717600286006927, 0.1765800416469574, -0.4976925849914551, 0.0074968948028981686, -0.13857629895210266, -0.06027659773826599, -0.11925943195819855, -0.08904730528593063], [-0.02044808119535446, -0.12602435052394867, 0.3928980529308319, -0.26037365198135376, -0.37770652770996094, -0.2689696252346039, -0.34702324867248535, -0.21924300491809845, 0.05335124954581261, -0.47517645359039307, 0.04791916906833649, -0.007648097816854715, 0.10235942155122757, -0.07817468792200089, -0.11670372635126114, -0.10979431867599487, 0.0012287045828998089, 0.10905717313289642, 0.16630585491657257, -0.025326017290353775, -0.30016812682151794, 0.10306217521429062, 0.056590721011161804, -0.8072187304496765, 0.3109055459499359, -0.11717836558818817, -0.3742333650588989, 0.03522055223584175, 0.359975129365921, 0.12989632785320282, -0.2621094286441803, 0.20404541492462158, -0.0840112641453743, 0.0003575831069611013, -0.26744240522384644, 0.09100177139043808, -0.7312082052230835, -0.16322720050811768, 0.5884896516799927, 0.30173173546791077], [-0.08823570609092712, 0.018251242116093636, -0.34877508878707886, -0.15490514039993286, 0.10716797411441803, -0.34508123993873596, -0.04676491394639015, -0.02712450921535492, -0.12954407930374146, 0.14773498475551605, 0.018950792029500008, -0.05680619552731514, 0.1132936105132103, 0.01413568016141653, -0.17782148718833923, -0.02607283554971218, -0.06525614112615585, -0.2015189826488495, -0.12356988340616226, 0.15263552963733673, 0.26541030406951904, -0.18736089766025543, 0.1954151839017868, -0.06360330432653427, 0.0809231549501419, 0.7433344721794128, 0.025666436180472374, 0.018730277195572853, -0.20296280086040497, -0.10776301473379135, 0.2774289548397064, 0.2169523686170578, 0.05089805647730827, 0.2797551453113556, -0.07033303380012512, -0.2684851586818695, 0.22164298593997955, -0.3109062612056732, -0.221904918551445, 0.08153491467237473], [0.020238984376192093, -0.10647989064455032, -0.24375630915164948, -0.19872523844242096, -0.17508967220783234, 0.3580986559391022, 0.006612928118556738, 0.16968436539173126, 0.1992250382900238, -0.05606868490576744, 0.18753130733966827, -0.03965109959244728, -0.3346914052963257, 0.0693865492939949, 0.17552915215492249, 0.042868442833423615, 0.08257057517766953, 0.49104008078575134, 0.09031534194946289, 0.02941839210689068, 0.05011609196662903, 0.23874399065971375, -0.0440354123711586, 0.056892722845077515, -0.02351924404501915, -0.052334610372781754, -0.30932673811912537, 0.27301183342933655, -0.18965549767017365, 0.029274065047502518, 0.1347815990447998, -0.019343163818120956, 0.3483971953392029, -0.033036861568689346, 0.11003750562667847, -0.16847535967826843, -0.18751293420791626, -0.09954693168401718, -0.25521671772003174, 0.3073175251483917], [-0.25169724225997925, -0.04022836685180664, 0.028754111379384995, -0.18652521073818207, -0.06359529495239258, 0.32613497972488403, -0.19659119844436646, 0.24419721961021423, 0.1749638319015503, 0.06934210658073425, -0.005972422659397125, -0.35711726546287537, -0.22953979671001434, -0.3602883517742157, -0.3985915184020996, 0.1551952064037323, -0.6134578585624695, 0.1217711865901947, -0.3994266092777252, 0.0948965772986412, -0.12968605756759644, -0.12140288949012756, -0.2553778290748596, 0.5026026964187622, 0.3625039756298065, 0.07001568377017975, -0.4115681052207947, 0.0960964560508728, -0.3114355504512787, -0.4699069857597351, 0.39256957173347473, -0.1527419239282608, 0.14265942573547363, -0.42449429631233215, -0.00183919130358845, 0.4237746298313141, -0.6780604124069214, -0.13332737982273102, -0.24507470428943634, 0.11352240294218063], [0.07210032641887665, 0.004273253958672285, 0.123478464782238, 0.3173472285270691, 0.1181517019867897, -0.4687235951423645, 0.18885082006454468, 0.4128912389278412, -0.026769200339913368, 0.4487503170967102, -0.0015634318115189672, -0.38031989336013794, 0.1664000004529953, 0.04617162048816681, -0.16492177546024323, 0.045617345720529556, 0.36170732975006104, 0.3528386056423187, -0.10841736942529678, -0.23201216757297516, 0.04849473387002945, -0.17609402537345886, 0.007560121826827526, 0.1442660093307495, 0.032389312982559204, 0.1704912781715393, 0.24293290078639984, -0.0014266644138842821, -0.4307859241962433, 0.03085212968289852, 0.14196959137916565, -0.4053019881248474, 0.38641709089279175, -0.18493708968162537, 0.23784604668617249, 0.11273083835840225, 0.5091893672943115, 0.07445839792490005, 0.17006585001945496, -0.2882232069969177], [-0.08797618746757507, 0.1652625948190689, -0.031426604837179184, -0.18463021516799927, -0.08279868960380554, -0.08261185139417648, 0.0017622595187276602, -0.11260563880205154, -0.029826946556568146, -0.30131953954696655, -0.12815874814987183, -0.06995098292827606, -0.10072043538093567, -0.14808131754398346, 0.32745373249053955, -0.030438710004091263, 0.22149233520030975, -0.23734532296657562, 0.01014288142323494, -0.029735017567873, -0.18304114043712616, 0.08011887222528458, 