{"model_data": {"model": "SimpleRNN", "input_size": 1, "skip": 1, "output_size": 1, "unit_type": "LSTM", "num_layers": 1, "hidden_size": 40, "bias_fl": true}, "state_dict": {"rec.weight_ih_l0": [[-0.03984764963388443], [0.020543977618217468], [0.12476717680692673], [-0.003417981555685401], [-0.004822086542844772], [-0.049701057374477386], [0.03746063634753227], [-0.009589705616235733], [-6.646366159657191e-07], [0.016885405406355858], [-0.07038051635026932], [-4.3594463932095096e-05], [0.01926247961819172], [0.019665582105517387], [-0.09333524107933044], [0.0050742547027766705], [0.018877675756812096], [0.005661001894623041], [0.0010633732890710235], [-0.000855248945299536], [-0.06828226894140244], [0.01182009931653738], [-0.027748407796025276], [0.002531255828216672], [-0.03264684975147247], [-0.002514749066904187], [-0.006972039118409157], [0.00045900794793851674], [0.0004871917481068522], [-0.011779441498219967], [0.0007962918025441468], [-0.03542955219745636], [1.7876051572329743e-07], [0.1711103469133377], [9.977997095234059e-09], [0.028787938877940178], [-0.03846541419625282], [0.013553386554121971], [-0.03566186502575874], [-3.3376406349816534e-07], [-0.027294449508190155], [-0.023275209590792656], [0.2148238718509674], [0.03459107130765915], [-0.020755846053361893], [-0.013367137871682644], [0.09200654178857803], [-0.044352807104587555], [-5.298273322296154e-07], [0.007252147421240807], [-0.07419826090335846], [-5.555191819439642e-05], [3.458580977167003e-05], [0.008853358216583729], [0.011467655189335346], [0.005162873771041632], [0.056208666414022446], [-0.003670691279694438], [-0.03085833415389061], [-0.010952098295092583], [-0.10382271558046341], [-0.04439065605401993], [0.01319199986755848], [-0.0019246930023655295], [-0.04556285962462425], [-0.03418906033039093], [-0.0046953726559877396], [0.00034122157376259565], [-0.009427445009350777], [-0.027715642005205154], [-0.025194460526108742], [0.04447554051876068], [1.8195869699866307e-07], [-0.03354456648230553], [6.6605112536421984e-09], [0.009175227954983711], [0.01217024214565754], [0.018634207546710968], [0.019414173439145088], [-3.468727527433657e-07], [0.038547251373529434], [-0.40671485662460327], [-0.3448037803173065], [0.3265670835971832], [0.043548062443733215], [0.09219355136156082], [0.17032761871814728], [-0.30532678961753845], [-0.0001908687554532662], [0.17019681632518768], [0.07277429103851318], [0.010915734805166721], [-0.1143948882818222], [-0.11222000420093536], [-0.04608052223920822], [-0.06363760679960251], [0.0855271965265274], [-0.015145860612392426], [-0.2002248466014862], [-0.029946954920887947], [0.05733539164066315], [0.004619887098670006], [-0.03655262663960457], [0.029762260615825653], [0.10228300839662552], [-0.07021620869636536], [0.08408473432064056], [0.01222991943359375], [-0.10311783850193024], [-0.01153875794261694], [0.24158187210559845], [-0.2606409788131714], [-2.7653832148644142e-05], [0.13624979555606842], [1.4470829228230286e-05], [1.4443886280059814], [-0.22030696272850037], [-0.2521874010562897], [-0.03251691535115242], [-0.00010214801295660436], [-0.026222513988614082], [0.0026811740826815367], [0.13750065863132477], [-0.015285922214388847], [-0.00842894334346056], [-0.06938351690769196], [0.04037097468972206], [-0.003402082482352853], [-4.612397219716513e-07], [-0.01389597449451685], [-0.06684038043022156], [-3.506601933622733e-05], [0.014173113740980625], [0.019829673692584038], [-0.1978200227022171], [0.01622423715889454], [0.07666852325201035], [0.004937286954373121], [-0.024747811257839203], [-0.004563311580568552], [-0.04337706044316292], [0.11893107742071152], [-0.02067243866622448], [0.004855684004724026], [-0.042020104825496674], [0.009886262007057667], [-0.005166764836758375], [0.00046133273281157017], [0.002843796042725444], [-0.010966322384774685], [0.008030172437429428], [-0.06611108034849167], [1.938142588642222e-07], [0.12866449356079102], [2.6702100086595237e-08], [0.06476110965013504], [-0.07581449300050735], [-0.06296351552009583], [0.01467085350304842], [-3.5920271557188244e-07]], "rec.weight_hh_l0": [[0.11705281585454941, 0.062314026057720184, 0.2862949073314667, -0.09908666461706161, 0.0015424789162352681, -0.0039504654705524445, 0.12568525969982147, -0.015909062698483467, 0.00026694813277572393, -0.05929073691368103, -0.11581411957740784, -0.00173398747574538, -0.013343255035579205, -0.05314413085579872, 0.30272695422172546, 0.1623808592557907, -0.8978018164634705, 0.024219997227191925, -0.07952999323606491, 0.05413827672600746, -0.11046573519706726, 0.1899525225162506, -0.005361025221645832, 0.013682164251804352, 0.0100075239315629, 0.0034883504267781973, -0.02613523229956627, 0.010074212215840816, 0.05418741703033447, 0.01869695633649826, -0.036254193633794785, 0.05647158995270729, -1.031544707075227e-05, -0.07282350957393646, 4.404381343192654e-06, 0.08388974517583847, 0.09625256806612015, -0.4839872419834137, 0.07969684898853302, 1.5259669453371316e-05], [-0.00366887915879488, -0.02249457873404026, 0.09534415602684021, -0.0028800538275390863, -0.028030307963490486, 0.02345701865851879, -0.10331632196903229, -0.007143600843846798, 0.00043109641410410404, -0.008250007405877113, -0.03562331199645996, -0.0021588446106761694, -0.02897331304848194, -0.018185922876000404, 0.07479192316532135, 0.009498788975179195, 0.17724384367465973, -0.00553148565813899, 0.024376438930630684, 0.03276380896568298, -0.0014915828360244632, -0.07163340598344803, 0.0035408001858741045, 0.009564289823174477, -0.03061153180897236, -0.07046980410814285, -0.0011082307901233435, 0.003975928761065006, -0.001003726851195097, -0.016237176954746246, 0.026639465242624283, 0.017215896397829056, 5.872690235264599e-05, 0.03739628568291664, -9.512231918051839e-05, 0.04969065636396408, -0.00212912168353796, 0.02924070693552494, 0.08522117137908936, 0.0001307234342675656], [-0.005263069644570351, -0.000489987782202661, 0.034252334386110306, -0.013427465222775936, -0.045838601887226105, 0.05459747835993767, -0.048506662249565125, 0.024320410564541817, 7.802168511261698e-06, -0.01555037684738636, 0.01624094694852829, -0.0014716496225446463, -0.005660131573677063, -0.01990087516605854, -0.06721633672714233, 0.23324371874332428, 0.16394034028053284, 0.014107337221503258, 0.024318024516105652, -0.003742384724318981, 0.02209841087460518, -0.004403403028845787, -0.0021042239386588335, 0.007213110104203224, -0.0978359580039978, -0.0021820166148245335, 0.0022770322393625975, 0.0025855598505586386, 0.0005888419691473246, 0.000602392596192658, 0.022765988484025, -0.01648157276213169, 6.748177383997245e-06, 0.08738955855369568, 1.7922598999575712e-05, 0.10133416950702667, 0.038082800805568695, 0.001218567369505763, 0.030599016696214676, -3.709159273057594e-06], [-0.043873850256204605, -0.03519108518958092, -0.006327777169644833, -0.05856539309024811, 0.012392052449285984, 0.015548362396657467, -0.06887009739875793, 0.04676813632249832, 0.0003650236176326871, 0.03135286644101143, -0.04957122728228569, -0.00012097776198061183, -0.00609842874109745, -0.05524292588233948, -0.011992126703262329, -0.010841173119843006, 0.30699679255485535, 0.01205237302929163, 0.0380597859621048, 0.024313228204846382, 0.020141281187534332, 0.044324927031993866, -0.012698188424110413, 0.007210069801658392, -0.05845847725868225, -0.05387890711426735, 0.0036943075247108936, 0.0050914837047457695, -0.01059156283736229, -0.02663641981780529, 0.020455211400985718, 0.001021459698677063, 1.916382825584151e-05, 0.06517171114683151, -5.694073479389772e-05, 0.023035641759634018, -0.00515773007646203, 0.03252633288502693, 0.12994703650474548, -2.1126634237589315e-06], [0.0061356923542916775, 0.0047724274918437, 0.008674615062773228, 0.03148500993847847, 0.003962698392570019, 0.1024850457906723, 0.012953574769198895, -0.0008155029499903321, 6.31961256658542e-06, 0.0050116428174078465, 0.013893835246562958, -0.00013350693916436285, 0.007145053241401911, 0.002533923601731658, -0.0686836689710617, 0.0221243929117918, 0.2487519383430481, -0.0037291438784450293, 0.004908918868750334, -0.0004571810713969171, -0.0082247294485569, -0.08137842267751694, 0.0033472056966274977, 0.00012193613656563684, -0.022296251729130745, 0.0061841257847845554, 0.000289136020001024, -5.367460835259408e-05, 0.013675146736204624, -0.003822542494162917, -0.007397984620183706, -0.002802112139761448, 5.471074018714717e-06, 0.042142175137996674, -3.445186848693993e-06, 0.003635939909145236, -0.009691482409834862, 0.13636481761932373, -0.010738573037087917, -1.0088337148772553e-05], [0.13572721183300018, 0.16970637440681458, -0.14058814942836761, -0.14686164259910583, 0.021428780630230904, 0.049348484724760056, 0.10429379343986511, -0.08595748245716095, -0.0003432779631111771, -0.05941116437315941, -0.10241581499576569, 0.002281621564179659, -0.019590839743614197, -0.03235442936420441, -0.10450789332389832, -0.05545263737440109, -0.9966012835502625, 0.01371755637228489, -0.07627895474433899, 0.0223905798047781, 0.06433877348899841, 0.2857200801372528, 0.09645789861679077, -0.06368118524551392, 0.03265226259827614, 0.09473870694637299, -0.030169188976287842, 0.003905653487890959, -0.0338812880218029, -0.040369659662246704, -0.014216122217476368, -0.07576529681682587, -0.00014364560774993151, -0.04043152555823326, 0.00017092576308641583, -0.11859002709388733, 0.07710587233304977, -0.3021596372127533, 0.03869611769914627, 7.926992111606523e-06], [0.019916914403438568, -0.016611110419034958, 0.03661428019404411, -0.018923621624708176, -0.012176956981420517, 0.006160924676805735, -0.04045338183641434, 0.040587469935417175, 0.00025793927488848567, -0.010019268840551376, -0.02912858873605728, -0.00114683888386935, 0.01577860116958618, -0.02339453436434269, -0.05717651546001434, 0.016635838896036148, 0.08864302188158035, -0.00020488770678639412, 0.00786068569868803, -0.0017139492556452751, 0.0304690133780241, -0.05460762605071068, 0.01579865626990795, -0.018072882667183876, -0.010529817081987858, -0.002291448414325714, 0.00011855861521326005, 0.0018813443602994084, 0.010349751450121403, -0.024126112461090088, 0.006288712378591299, 0.05974883213639259, 1.5625395462848246e-05, 0.0686970055103302, -5.1631039241328835e-05, 0.025110309943556786, -0.009489067830145359, 0.0012675265315920115, 0.052060842514038086, 4.353209806140512e-05], [-0.017883161082863808, -0.021882934495806694, 0.02621299959719181, -0.01634080335497856, 0.009111318737268448, 0.025132998824119568, -0.031915511935949326, 0.013335969299077988, 0.00015017157420516014, -0.0076836789958179, -0.01872064173221588, -0.00039517355617135763, -0.014592139981687069, -0.023318015038967133, 0.001574711175635457, 0.005767886992543936, 0.1962791532278061, 0.01743503287434578, 0.008051219396293163, 0.038775015622377396, 0.0033918770495802164, -0.06727448105812073, -0.010930052027106285, 0.0018262043595314026, -0.016029076650738716, -0.03003510646522045, -0.008591561578214169, 0.0028373815584927797, -0.0005292436107993126, -0.001845770631916821, 0.009395950473845005, 0.006750559899955988, 1.0634532372932881e-05, 0.03988945856690407, -3.0376564609468915e-05, 0.0021139909513294697, 0.023936275392770767, 0.05875841900706291, 0.07860399037599564, 7.008274405961856e-05], [-5.832667397953628e-07, 7.083449986566848e-07, 4.201033334538806e-07, 2.8210229174874257e-06, 3.459939534877776e-07, -1.8274834019393893e-06, 2.1710303599320468e-07, -4.926465067001118e-07, -3.655590052886737e-09, -4.002006619430176e-07, -2.5351135946038994e-07, -5.560171073559772e-11, -2.7435379479356925e-07, 1.0181844345424906e-06, 1.5239204458339373e-06, -1.6556953141844133e-06, -5.195767698751297e-06, -2.9508537835454263e-08, -9.385033195030701e-07, -1.497686525908648e-07, -8.961624189396389e-07, 1.3904526667829487e-06, -2.466221928898449e-07, 2.7807467972706945e-07, 1.523591777186084e-06, -2.591578152078e-07, -4.0808956214277714e-08, -4.26725854651977e-08, -3.6970635619582026e-07, 7.433059749928361e-07, -5.3446431280690376e-08, 6.456283472289215e-07, 2.5545066062448996e-11, -9.283754707212211e-07, -9.586291482843734e-11, -1.0062335604743566e-06, 2.1695577743230388e-06, -2.8445997486414853e-06, 1.5362207932412275e-06, -2.765447038033386e-10], [-0.018070043995976448, -0.03283270448446274, 0.060572173446416855, -0.0310230553150177, -0.02394632250070572, 0.002369263209402561, -0.05841880664229393, 0.08452384173870087, 0.00028547924011945724, 0.006470425985753536, -0.09720460325479507, -0.0014051030157133937, 0.026845699176192284, -0.04229837656021118, 0.07176203280687332, 0.03785993158817291, 0.14905908703804016, 0.003639229806140065, 0.019995110109448433, -0.0004078699857927859, 0.0281312745064497, -0.010952325537800789, 0.011276242323219776, -0.03606225177645683, -0.03829672187566757, -0.020345401018857956, -0.016370320692658424, 0.006620840635150671, 0.008534624241292477, -0.036843787878751755, 0.00156891206279397, 0.03434998169541359, 6.8383124016691e-06, 0.020682184025645256, -2.5638813895056956e-05, 0.02389826439321041, 0.02980608306825161, -0.020462505519390106, 0.051120176911354065, 3.248283974244259e-05], [-0.08224710822105408, 0.01292299386113882, -0.005619535688310862, -0.04170941933989525, 0.040387313812971115, 0.04944348707795143, 0.017645854502916336, 0.05153277888894081, 1.8382830830887542e-06, 0.014142231084406376, -0.033724863082170486, 0.0008439948433078825, 0.027818022295832634, -0.027427418157458305, -0.019614392891526222, -0.06370420753955841, 0.09739816933870316, -0.0050924066454172134, 0.025286048650741577, 1.2215508832014166e-05, -0.025158224627375603, -0.003228489775210619, -0.02391105145215988, -0.009207508526742458, 0.021631918847560883, -0.003332856111228466, -0.006694987881928682, 0.0008957763202488422, 0.022283483296632767, -0.016510648652911186, -0.03166970610618591, -0.019805826246738434, 2.339588536415249e-05, 0.01715623028576374, -3.90054119634442e-05, -0.05542717128992081, -0.03324659913778305, 0.06110212579369545, 0.04162031039595604, -1.1330435881973244e-05], [2.627452340675518e-05, -8.274984111267258e-07, -0.00012466154294088483, 0.00014509681204799563, 5.71209893678315e-05, 0.0002651274553500116, -8.481625991407782e-05, -2.7305830371915363e-05, -6.233359073348765e-08, 9.296615462517366e-05, 9.18999285204336e-06, 2.050123612207244e-06, 2.705450424400624e-05, 6.716104689985514e-05, -0.00019979164062533528, -0.0002045357396127656, 0.0006002067239023745, -2.7128711735713296e-05, 8.822928793961182e-05, -3.0054504804866156e-06, 8.678564336150885e-05, -0.00010902280337177217, 8.82884796737926e-06, 6.454341018979903e-06, -6.348175520543009e-05, -1.926364711835049e-05, 1.03549627965549e-05, 2.832576001310372e-06, 6.152800779091194e-05, -7.4759409471880645e-06, -4.802058174391277e-05, -6.128302629804239e-05, -3.449093100016398e-08, 8.508539031026885e-05, 6.173854671942536e-08, -6.755990762030706e-05, 4.180986252322327e-06, 0.00029812235152348876, -2.8035487048327923e-05, 1.6555627269099205e-07], [-0.03065607137978077, -0.006345084402710199, 0.05143037810921669, 0.022221865132451057, 0.013473917730152607, 0.03300171718001366, -0.10065831989049911, 0.040729206055402756, 0.00015668010746594518, 0.03199910745024681, -0.03441731259226799, -0.001004474121145904, 0.019670400768518448, -0.017106371000409126, 0.041834596544504166, 0.014759160578250885, 0.23511818051338196, 0.021212102845311165, 0.039624229073524475, 0.012355511076748371, 0.02197057195007801, -0.06335776299238205, 0.02107429876923561, -0.019595030695199966, -0.03288770839571953, -0.0175658967345953, -0.007125245872884989, 0.0040521579794585705, 0.019090700894594193, -0.02360471338033676, -0.019474448636174202, 0.022829359397292137, -4.313905265007634e-06, 0.07436297833919525, -3.5444732020550873e-06, 0.02269713021814823, 0.018325628712773323, 0.05132060870528221, 0.051769766956567764, 2.8862288672826253e-05], [-0.04017605632543564, -0.003049761289730668, 0.04811941459774971, -0.07229529321193695, 0.018130844458937645, 0.06372719258069992, -0.00954324472695589, 0.02700110338628292, 6.971148104639724e-05, 0.009246481582522392, -0.00797377247363329, -0.00013497115287464112, 0.0037185074761509895, -0.02092047967016697, -0.007120470516383648, -0.026169924065470695, 0.15843775868415833, 0.0036813076585531235, 0.010549125261604786, 0.0038980147801339626, -0.006168420892208815, 0.024290431290864944, 0.0013650550972670317, -0.009879094548523426, -0.033063046634197235, -0.04192721098661423, -0.007888415828347206, 0.0026604144368320704, -0.013884540647268295, -0.0027450667694211006, -0.0013543582754209638, 0.030088022351264954, 2.9391540010692552e-05, 0.04965412989258766, -4.522164090303704e-05, 0.007516861893236637, 0.010009720921516418, 0.052946124225854874, 0.026062048971652985, 4.322862150729634e-05], [-0.013129140250384808, -0.0059388913214206696, -0.07853324711322784, 0.18980196118354797, 0.040059737861156464, -0.07953719049692154, 0.03194449469447136, 0.030153745785355568, 0.00022103579249233007, -0.0681348666548729, -0.1123993918299675, -0.0035614799708127975, 0.007035530172288418, 0.06350626796483994, -0.02798108197748661, -0.35300955176353455, -0.7532747983932495, -0.0018234543967992067, 0.029607802629470825, 0.06210086867213249, -0.041383046656847, 0.08045783638954163, -0.0068972003646194935, 0.02462395466864109, 0.06451546400785446, 0.09645094722509384, -0.014822972938418388, 0.0012281720992177725, 0.030553428456187248, 0.043412741273641586, -0.00766925560310483, 0.03179769217967987, -0.00016655180661473423, -0.009095852263271809, 8.30097560537979e-05, -0.08479597419500351, -0.07259324193000793, -0.3654949367046356, -0.12858039140701294, -5.039673396822764e-06], [0.0035424453672021627, -0.010241411626338959, -0.03545374050736427, -0.00070776796201244, 0.0033972542732954025, 0.18904438614845276, -0.02827240712940693, 0.005189806688576937, -1.645909833314363e-05, 0.024502897635102272, 0.03761456906795502, -0.0004359227605164051, 0.002542678266763687, 0.009192275814712048, -0.137632817029953, 0.0009722340619191527, 0.48893266916275024, 0.004494223278015852, 0.04815324395895004, 0.013717771507799625, 0.025934483855962753, -0.07157901674509048, 0.008677677251398563, 0.004297307226806879, -0.10988714545965195, -0.0032120835967361927, -0.0030522027518600225, 0.001702765584923327, 0.009758255444467068, 0.0011866685235872865, -0.005886510480195284, 0.0032731788232922554, 1.7356984244543128e-05, 0.07085958123207092, -6.823133389843861e-06, 0.02517014555633068, 0.009195707738399506, 0.22423171997070312, -0.04377489537000656, 6.114999905548757e-06], [-0.015206790529191494, 0.004012357443571091, 0.016180651262402534, -0.01843944750726223, -0.0015315025812014937, 0.09947571158409119, -0.029669374227523804, -0.002372792921960354, -7.492340228054672e-05, 0.0017423707759007812, 0.002360440557822585, -0.0001521481026429683, -0.002288689836859703, -0.007105602882802486, 0.0023610854987055063, -0.00018519019067753106, 0.15601952373981476, -0.0032867647241801023, 0.021867280825972557, 0.0029488643631339073, 0.02665344811975956, -0.008214977569878101, -0.004042531829327345, -0.002055141841992736, -0.0014320771442726254, 0.002916882047429681, 0.0008595507242716849, 0.0003254003240726888, 0.0017892384203150868, -0.008273850195109844, 0.006050214171409607, -0.07763281464576721, 1.0524656318011694e-05, 0.034301817417144775, -5.669845450029243e-06, 0.004363537300378084, -0.04149667173624039, 0.053054437041282654, -0.020527515560388565, 2.360098915232811e-05], [-0.010691900737583637, 0.003773399628698826, 0.0367184653878212, 0.0038829464465379715, 0.0034680182579904795, 0.09288489073514938, -0.004740257281810045, -0.0040792846120893955, -3.2508771710126894e-06, 0.011041405610740185, 0.0051566665060818195, 8.177679410437122e-05, 0.0023258074652403593, -0.008486773818731308, -0.04193909093737602, 0.014733180403709412, 0.2517378628253937, 0.0001498047640779987, 0.014546475373208523, 0.0015639630146324635, -0.017916347831487656, -0.07726563513278961, 0.013770162127912045, -0.005521319340914488, -0.02393207885324955, -0.007094631902873516, -0.0003116531588602811, 0.0009111124672926962, 0.0026192422956228256, -0.011648224666714668, -0.00040336910751648247, -0.006139635108411312, 1.4869401638861746e-06, 0.05628425255417824, 4.3835348151333164e-06, 0.018310388550162315, -0.013400868512690067, 0.1441076546907425, 0.017206581309437752, 2.3426237021340057e-05], [-0.009262996725738049, -0.07139208167791367, 0.02198600396513939, 0.01526569202542305, 0.041254922747612, -0.0470212921500206, -0.06203623488545418, 0.08559992909431458, 0.0005334737943485379, -0.04009461775422096, -0.03217003867030144, -0.0018368215532973409, 0.011921738274395466, -0.06750628352165222, 0.08027899265289307, 0.023298531770706177, -0.14545129239559174, 0.004846316762268543, 0.061646535992622375, 0.009611483663320541, 0.042184773832559586, 0.04012365639209747, -0.06340833008289337, 0.026118086650967598, -0.027010533958673477, -0.016192462295293808, 0.009173323400318623, 0.0012927622301504016, 0.03513671085238457, -0.009773851372301579, 0.007137961219996214, 0.011472619138658047, 7.65659351600334e-05, 0.007907376624643803, -0.00013792746176477522, 0.026023315265774727, -0.05192764848470688, -0.05580589920282364, 0.08968043327331543, 7.827774243196473e-05], [-0.015546509996056557, 0.00562735041603446, 0.046642761677503586, 0.02368776872754097, 0.007110740058124065, 0.116503044962883, -0.006457129027694464, -0.004262808244675398, 6.417695203708718e-06, 0.011798449791967869, 0.008036511018872261, 8.24605012894608e-06, 0.006752300541847944, -0.006233327090740204, -0.051540788263082504, 0.00968804769217968, 0.3198535740375519, -0.0023539697285741568, 0.01911376230418682, 0.0007797829457558692, -0.02802065946161747, -0.0978567972779274, 0.017146514728665352, -0.003767765825614333, -0.028395602479577065, -0.006932578515261412, -0.0007167149451561272, 0.0010211678454652429, 0.0019248779863119125, -0.01058444194495678, -0.0039419149979949, -0.0026621436700224876, 8.449625966022722e-06, 0.0736021175980568, -2.7080839117843425e-06, 0.015054796822369099, -0.00589958019554615, 0.18339449167251587, 0.0328671932220459, 3.9830818423070014e-05], [0.09515818953514099, 0.038064006716012955, -0.04765588045120239, 0.04301396757364273, 0.031762320548295975, 0.024518322199583054, -0.039305124431848526, 0.01827750913798809, 0.0001524324034107849, -0.018602250143885612, -0.012436327524483204, -0.000666710315272212, 0.008855029940605164, -0.02055303193628788, 0.00255893194116652, -0.026234176009893417, -0.3830774426460266, 0.002609195886179805, -0.0029730808455497026, -0.004244635812938213, 0.059224095195531845, 0.055808018893003464, -0.015482889488339424, -0.005310117267072201, -9.904817125061527e-05, -0.0006054661353118718, -0.005691895727068186, -0.0012679228093475103, 0.0035616944078356028, -0.005205081310123205, -0.01936504617333412, -0.0120474211871624, 2.2589712898479775e-05, -0.03373780846595764, -6.874234532006085e-05, -0.03429150581359863, -0.037885311990976334, -0.13271354138851166, 0.008139465004205704, -2.039810897258576e-05], [0.09196210652589798, 0.019695961847901344, -0.040488529950380325, 0.03208460286259651, 0.02502896636724472, 0.007355375215411186, 0.04575694724917412, 0.013378147035837173, 0.00011438189540058374, -0.05205998569726944, -0.11073468625545502, -0.0010882822098210454, -0.0036202752962708473, -0.024622436612844467, -0.028941389173269272, -0.003292349399998784, 0.025660749524831772, 0.016539372503757477, -0.04619031026959419, -0.011257216334342957, 0.0013048409018665552, -0.016817934811115265, 0.04754026606678963, -0.05136797949671745, 0.05800221487879753, 0.010729405097663403, -0.02040415070950985, 0.0011127874022349715, -0.0022253079805523157, -0.030753513798117638, 0.01420844066888094, 0.0537986122071743, -2.5477966119069606e-05, 0.007300138473510742, 5.6363987823715433e-05, -0.007580641657114029, -0.02942095883190632, -0.02845015563070774, 0.07203531265258789, -3.460947846178897e-05], [-0.016387786716222763, -0.01271641906350851, 0.038450051099061966, -0.052510686218738556, -0.010608275420963764, 0.003416502382606268, -0.035946279764175415, 0.04694274440407753, 0.00030143532785587013, -0.0031506866216659546, -0.056316036731004715, -0.0007378064910881221, 0.002516173291951418, -0.039448391646146774, 0.04528481885790825, 0.030147133395075798, 0.0736539214849472, 0.027149202302098274, 0.007160520646721125, 0.02092820033431053, 0.03249364346265793, 0.011351770721375942, -0.005058333743363619, -0.024747421965003014, -0.039144694805145264, -0.03153574839234352, -0.011675724759697914, 0.004887063521891832, 0.02240331657230854, -0.029172101989388466, 0.011764513328671455, 0.019613025709986687, 2.5233443011529744e-05, -0.01782936230301857, -5.3490664868149906e-05, 0.0017085736617445946, 0.011570864357054234, -0.04425906762480736, 0.02512686885893345, 6.852570368209854e-05], [-0.006571595557034016, 0.007754587102681398, 0.024778222665190697, -0.03682753071188927, 0.01089001540094614, 0.010638791136443615, -0.011044450104236603, 0.00576213002204895, 6.195373134687543e-05, -0.0038919292856007814, -0.007095493841916323, 0.0002987159532494843, -0.0039750682190060616, -0.015704404562711716, 0.0027449852786958218, 0.006607730407267809, 0.0976119115948677, 0.0051939659751951694, -0.007855386473238468, 0.006793564185500145, -0.011081192642450333, -0.02412930503487587, -0.008971230126917362, -0.007917381823062897, 0.0076703219674527645, -0.016218440607190132, -0.005337945185601711, 0.0022283238358795643, -0.00024259167548734695, -0.004501283634454012, 0.002023873385041952, 0.019953928887844086, 3.875845141010359e-05, 0.01776687614619732, -4.439254553290084e-05, 0.008726297877728939, -0.0007106212433427572, 0.038140784949064255, 0.006705055944621563, 4.829493991564959e-05], [0.026315663009881973, -0.020087633281946182, -0.007508132606744766, 0.006170737091451883, 0.029802657663822174, 0.07643548399209976, 0.02073049359023571, -0.009721233509480953, 5.4964591981843114e-05, -0.010511817410588264, -0.01721801981329918, 0.000249719392741099, -0.0005123137379996479, -0.018059665337204933, -0.08735271543264389, -0.18498994410037994, 0.17222468554973602, -0.013504134491086006, 0.023563247174024582, 0.00582007085904479, 0.048626262694597244, -0.07347380369901657, 0.0032030080910772085, -0.0026997430250048637, 0.0063935755752027035, -0.012508278712630272, -0.0012989079114049673, 0.0004468644328881055, 0.004399982281029224, -0.013901148922741413, 0.021328823640942574, -0.03933924436569214, 2.0272271285648458e-05, 0.04268803820014, -7.4281415436416864e-06, -0.0374462753534317, -0.11351343989372253, 0.06572294980287552, -0.10022096335887909, -1.3942720215709414e-05], [0.0015780471730977297, -0.0038185189478099346, 0.006841691210865974, -0.012995090335607529, -0.010289442725479603, 0.05258927121758461, -0.03937365487217903, 0.0005110258352942765, 0.00012108751980122179, 0.0036213134881109, -0.01900910586118698, -8.450847235508263e-05, 0.01611487567424774, 0.02108607441186905, 0.006978241726756096, 0.03379250690340996, 0.21665005385875702, 0.007103928364813328, 0.011035572737455368, -0.007358746137470007, 0.00046033255057409406, -0.05982322618365288, 0.009954556822776794, -0.0020871630404144526, -0.015144196338951588, -0.0013953903689980507, -0.009872900322079659, 0.004667386412620544, 0.008648221381008625, 0.008355747908353806, -0.017786210402846336, 0.03982452303171158, 2.795772161334753e-05, 0.01072336919605732, -3.4415617847116664e-05, 0.01177623588591814, 0.04025808349251747, 0.07943478226661682, -0.02922353707253933, 4.170338434050791e-05], [0.0012152156559750438, -0.00365013862028718, 0.0029545414727181196, 0.008591181598603725, 0.0011856643250212073, 0.015038339421153069, -0.005334476474672556, -0.004612985998392105, 9.719730769575108e-06, 0.0019357887795194983, 0.0009483677567914128, 2.3159855118137784e-05, -0.00498593645170331, 0.0045810663141310215, -0.009316820651292801, -0.005966257303953171, 0.04673741012811661, 0.0014825406251475215, -0.004289751406759024, 0.0022122799418866634, 0.0007677947287447751, -0.018533600494265556, 0.005013749469071627, 0.0005358007038012147, -0.005569736007601023, -0.004777412861585617, -0.0016835798742249608, 0.00039259131881408393, -0.0032934665214270353, 0.00354840699583292, -0.0023252442479133606, 0.006213667336851358, 1.655802407185547e-05, 0.010789395309984684, -1.4178222954797093e-05, -0.004377469420433044, 0.010788541287183762, 0.021289626136422157, 0.008455191738903522, 2.459098686813377e-05], [0.00014188856584951282, -0.0001671437348704785, 0.0001237315300386399, 0.00019599605002440512, 0.00011981206625932828, 0.001379327499307692, -0.00026796574820764363, -0.00012689972936641425, 1.4670957853013533e-06, 0.00012220549979247153, 0.00016789788787718862, 3.239151192246936e-05, 5.937264722888358e-05, -3.598406328819692e-05, -0.000867915281560272, 0.0004096752090845257, 0.0034830067306756973, 2.4802475309115835e-06, 0.0001659713889239356, -8.032428922888357e-06, 0.00020525937725324184, -0.0007941212970763445, 0.00031597184715792537, 9.271987437386997e-06, -0.0006134348222985864, -8.885491115506738e-05, 6.3617444538977e-05, 5.8299854572396725e-05, -6.8246158662077505e-06, -7.234275835799053e-05, -5.3158082664594986e-06, 5.3845109505346045e-05, 2.2537638244557456e-07, 0.0009142442140728235, -3.629647835623473e-07, 0.0004622882406692952, 0.0001762941392371431, 0.0018097638385370374, 0.00023016419436316937, 1.3483146403814317e-06], [-0.008059820160269737, -0.00508376257494092, 0.03224742412567139, 0.00029848923441022635, 0.012330636382102966, 0.07064082473516464, -0.02513645403087139, 0.004112856462597847, 1.4422626009036321e-05, 0.01254368294030428, -0.0009152919519692659, 0.00015935357077978551, -0.004645127337425947, -0.015014559961855412, -0.025159688666462898, -0.003770930925384164, 0.2548048496246338, 0.005383707582950592, 0.002856559120118618, 0.003607560880482197, -0.0007514671888202429, -0.09988433122634888, -0.00038122787373140454, -0.007040268741548061, -0.005155239719897509, -0.021506793797016144, -0.003194748191162944, 0.001617848756723106, 0.005381032358855009, -0.01072373241186142, 0.000610449758823961, -0.00018294804613105953, -1.940171387104783e-06, 0.05541932210326195, 6.534911790367914e-06, 0.009000003337860107, -0.00599086657166481, 0.11548781394958496, 0.033574942499399185, 2.7245929231867194e-05], [-0.027767203748226166, 0.005819518584758043, 0.04010618478059769, -0.04319198057055473, 0.012913092039525509, 0.008394025266170502, -0.011135755106806755, 0.03312661498785019, 3.8005113310646266e-05, 0.018060948699712753, -0.01952790841460228, 0.00018805220315698534, -0.008864146657288074, -0.01679389923810959, 0.016571450978517532, -0.014994928613305092, 0.08874606341123581, 0.006786315701901913, 0.00017440969531890005, 0.006982150953263044, -0.014994185417890549, -0.008166315965354443, -0.02483084611594677, -0.01443568803369999, -0.0005776915932074189, -0.04563779756426811, -0.007968381978571415, 0.002487896243110299, -0.0002222067123511806, -0.007589505985379219, 0.008483548648655415, 0.018859419971704483, 4.053397060488351e-05, 0.018495280295610428, -5.2830127970082685e-05, -0.005028328858315945, 0.003051449777558446, 0.034499429166316986, -0.0028031866531819105, 5.44777576578781e-05], [-0.016733083873987198, -0.007055311929434538, 0.018367823213338852, 0.013636828400194645, 0.007020734716206789, 0.06821265816688538, -0.04518388211727142, 0.024163121357560158, 0.0001371305261272937, 0.01236000843346119, -0.01836121641099453, -0.0005021007382310927, -0.004906717222183943, -0.0053741722367703915, -0.0062370141968131065, -0.0014028081204742193, 0.23124884068965912, 0.010646059177815914, 0.028027016669511795, 0.0036662258207798004, 0.014697336591780186, -0.0467597134411335, 0.0008253175765275955, -0.009071627631783485, -0.023966211825609207, -0.039039481431245804, -0.008722260594367981, 0.002687811851501465, 0.0028633105102926493, -0.0034964075312018394, -0.0006469505606219172, -0.004605394322425127, 1.0146429303858895e-05, 0.05201360955834389, -1.984708069358021e-05, 0.004452973138540983, 0.016259396448731422, 0.06641048192977905, 0.014657481573522091, 5.234398122411221e-05], [0.0441226027905941, -0.1219143494963646, -0.12779100239276886, 0.04733063653111458, -0.02610122226178646, -0.05408675596117973, -0.0902649313211441, 0.021848395466804504, 0.0007260338752530515, 0.06101455166935921, -0.12799358367919922, -0.001938104280270636, -0.026604436337947845, 0.06761285662651062, -0.04126023128628731, -0.03225553035736084, -0.9212443232536316, -0.018311621621251106, 0.0686473697423935, -0.006137045565992594, 0.09242171049118042, 0.09433629363775253, 0.01596761867403984, 0.04565916210412979, -0.14570072293281555, -0.023816173896193504, -0.0018549271626397967, 0.004126111511141062, 0.031147735193371773, 0.010949913412332535, 0.02130654826760292, -0.34906259179115295, -0.00014346228272188455, -0.17435187101364136, 6.630580173805356e-05, -0.02607370913028717, -0.14549654722213745, -0.3892059624195099, -0.13691364228725433, -4.828883538721129e-05], [-4.0453656424688234e-08, -1.6450684370283852e-08, -5.287030546696769e-08, -1.280064623188082e-07, -1.822059303435708e-08, -1.1242073583161982e-07, 4.381612228598897e-08, -3.92084906764012e-08, -3.956444113301094e-12, -4.816281773400988e-08, 2.5363917188769847e-08, 3.256005465246403e-10, -6.05715078094704e-09, -7.56128937240419e-09, 2.0247485466029502e-08, 1.6574632866195316e-07, -2.2865425819418306e-07, 2.048165370638344e-08, -2.1060678534468025e-08, -5.065551977878613e-09, 1.0501344238633692e-09, 7.40399173082551e-08, 8.98344154620645e-09, 2.593776393666758e-08, -6.205025471217596e-08, 2.0760739793956873e-09, -7.290319015140767e-09, 1.0673170125485854e-09, -5.196316266165013e-08, 5.10481719118161e-08, -3.5934459852171585e-09, 1.9022502684151732e-08, -2.3780545241325335e-11, -3.4525459824408244e-08, 8.25219233224761e-12, 1.1023232104889757e-07, 5.151460058527846e-08, -1.7410621921953862e-07, 3.315311403184751e-08, -1.514522535162044e-11], [-0.028077702969312668, -0.022395646199584007, -0.15142031013965607, 0.17146077752113342, -0.03045276366174221, -0.03231525793671608, -0.10202761739492416, 0.046969182789325714, 0.0006638361955992877, 0.03782075271010399, -0.056089527904987335, -0.00411630654707551, -0.01663382537662983, -0.0056818751618266106, 0.24312874674797058, 0.3616671860218048, -0.81080162525177, 0.04927561432123184, 0.06807337701320648, -0.014160148799419403, -0.042535051703453064, 0.2434920072555542, -0.07434450089931488, 0.04915699362754822, 0.08718752861022949, -0.11508683860301971, 0.012294039130210876, 0.00774729810655117, 0.08618353307247162, 0.08072244375944138, -0.04511858895421028, -0.045257680118083954, 0.00015350795001722872, -0.07411018759012222, -0.00012736338248942047, 0.10926853865385056, 0.03421736881136894, -0.3204808831214905, -0.10116424411535263, 7.429881225107238e-05], [-1.1729351712119751e-08, 1.9194995815041693e-08, -3.179919616513871e-08, 4.893083627166561e-08, 1.529278925715971e-08, 9.68471436380014e-09, -2.10809520950761e-08, -4.341703530030827e-08, 1.0466971039901907e-11, -3.59982195163866e-08, 3.445773799626295e-08, 1.7597411375303018e-11, -1.5662765306956317e-08, 2.9746598073643327e-08, 1.7435965560252953e-08, 5.654758084006062e-08, -7.459546758070701e-09, 1.0528755645111687e-09, -2.9573101745228314e-09, 2.5913662327070597e-09, -2.6184821422248206e-08, 1.5506034234391564e-09, -1.2309806507460053e-08, 3.9672968910053896e-08, -6.085216330831145e-09, 2.5847668894130038e-08, -7.789976996797066e-10, -2.0045154425218925e-10, -1.7756335068952467e-08, 4.2690096790920506e-08, -1.9824762276243746e-08, -1.1713116698786052e-08, 6.948710270376912e-12, -2.6331550273539506e-08, -3.27556623318237e-12, 2.010698096910346e-08, 6.465206325856343e-08, 3.05595726501906e-08, 6.625990067732346e-08, 4.157785227221211e-12], [-0.0024203527718782425, -0.007074063178151846, -0.059322621673345566, 0.023511674255132675, -0.011759682558476925, 0.14398740231990814, -0.033667318522930145, 0.01027256716042757, 2.4761317035881802e-05, 0.010799171403050423, 0.01681211218237877, -0.000575850426685065, 0.009044574573636055, 0.0076070078648626804, -0.11238659173250198, -0.004083998501300812, 0.3962888717651367, -0.0008423490216955543, 0.05924046039581299, 0.012559290044009686, 0.010888727381825447, -0.03068622015416622, 0.004399029538035393, 0.010527300648391247, -0.07439780980348587, 0.009537199512124062, 7.530576112912968e-05, 0.0016043308423832059, 0.020073803141713142, 0.001025944366119802, -0.017499728128314018, 0.010408987291157246, 2.162542841688264e-05, 0.04760289192199707, -1.2196257557661738e-05, -0.0020590974017977715, 0.01269732229411602, 0.18715640902519226, -0.032881274819374084, 3.0871728085912764e-05], [-0.023646190762519836, 0.0009875309187918901, -0.01317858137190342, 0.11778444051742554, -0.02278956212103367, 0.04676254466176033, -0.020501263439655304, 0.024379918351769447, 0.0002611445088405162, 0.012876243330538273, -0.018152372911572456, -0.0011262681800872087, 0.0014414765173569322, -0.003910190425813198, -0.010060478933155537, 0.07117680460214615, 0.2502973973751068, -0.004603951703757048, 0.012150034308433533, -0.006207750178873539, 0.01936420239508152, -0.11275623738765717, 0.0014732021372765303, 0.010697231628000736, -0.00912381149828434, 0.005881344433873892, 0.0068738567642867565, -0.0020841960795223713, 0.01970546692609787, -0.015646617859601974, -0.031274840235710144, 0.019890623167157173, -3.4647787288122345e-06, -0.02275329828262329, -1.9143002646160312e-05, -0.03723275661468506, 0.06901716440916061, 0.04944482818245888, 0.10802125930786133, 2.4829121684888378e-05], [0.02076268196105957, 0.07889237999916077, 0.06409664452075958, -0.01130659133195877, 0.026376282796263695, 0.11287190765142441, 0.00747702969238162, -0.011310002766549587, -5.1265626098029315e-05, -0.009647495113313198, 0.03584844246506691, -0.0005981489666737616, 0.010675515048205853, 0.0046923598274588585, 0.04257352650165558, 0.01848282665014267, 0.05517611652612686, -0.0009052535751834512, -0.007909208536148071, -0.013992312364280224, -0.00012376853555906564, 0.023838793858885765, 0.022386861965060234, -0.027188941836357117, -0.04149661585688591, -0.02259213663637638, -0.012222413904964924, 0.0009053482208400965, -0.026809290051460266, -0.0029279934242367744, -0.003173746634274721, 0.04683240130543709, -1.9687618987518363e-05, 0.04427767172455788, 2.607163150969427e-05, 0.0074645234271883965, 0.04757090285420418, 0.06392278522253036, 0.05334632471203804, 2.8502636268967763e-05], [0.09628258645534515, -0.009345301426947117, -0.17519435286521912, 0.31479254364967346, -0.02260257676243782, -0.10352539271116257, -0.029475701972842216, -0.07483363896608353, 0.00018292148888576776, 0.005696439184248447, -0.0441567599773407, -0.0010494247544556856, -0.0027973835822194815, 0.1332147717475891, -0.08513481169939041, 0.0871068611741066, 0.09006687998771667, 0.01025613397359848, 0.009444111958146095, 0.020474065095186234, -0.005788720212876797, -0.14935965836048126, 0.005954302381724119, 0.07660118490457535, 0.036228522658348083, 0.1945691704750061, 0.011048839427530766, 0.005183040630072355, 0.04956459626555443, 0.08200322091579437, -0.08228668570518494, 0.042574938386678696, -1.9905615772586316e-05, -0.07201451063156128, 2.5269901016145013e-05, 0.016827218234539032, 0.2339777797460556, -0.016241921111941338, 0.01319030486047268, -4.729167267214507e-05], [5.450710993670782e-09, -4.727899138856628e-08, 1.8615924091136549e-07, -2.496337856427999e-07, 3.3613748229299745e-08, -4.5261529635354236e-07, 4.796007857521545e-08, 1.797813986570418e-08, -1.465759805197031e-11, -1.6751131681758125e-07, -9.438388559601663e-08, -1.9292235864387663e-10, 4.7693049509689445e-09, -7.658712775082677e-08, 4.1862105604195676e-07, -2.3670739324188617e-07, -6.752950412192149e-07, -4.2469920913390524e-08, -2.8866324441878533e-08, 2.6944289022168277e-09, -1.9736475564968714e-07, -8.902791392984e-08, -7.510377741937191e-08, 1.608615107784317e-08, 3.411548448184476e-07, 1.6362328381092084e-07, 2.1468284927550485e-08, -6.511590822100288e-09, 1.0381543802395754e-07, -4.70034287047838e-08, 1.3785709462865725e-08, -1.1387182752287117e-08, 2.2528340304361905e-11, -3.3034913826668344e-07, -2.2036225275079424e-11, -1.6409829584063118e-07, -2.5768693490135774e-07, -3.096030525284732e-07, -1.007780028317029e-07, -1.54323581691429e-10], [0.18531501293182373, 0.03428153693675995, 0.11730533093214035, 0.11803245544433594, -0.012929700314998627, 0.07138296216726303, -0.04238201305270195, -0.013122385367751122, 3.232537710573524e-05, -0.03553679212927818, 0.15859654545783997, -0.003730230266228318, 0.006636076141148806, -0.003010198939591646, -0.007571933325380087, 0.07391653209924698, 0.9812702536582947, -0.031267136335372925, 0.07225276529788971, 0.03668055683374405, 0.052661262452602386, -0.09184125810861588, -0.03729915991425514, 0.06620505452156067, -0.17830833792686462, 0.13845250010490417, 0.029329003766179085, -0.003920102026313543, 0.07730565220117569, 0.01734808087348938, -0.03679138049483299, 0.033691972494125366, 8.814593456918374e-05, 0.09788624197244644, -2.0222443708917126e-05, 0.059290461242198944, -0.14936219155788422, 0.36497578024864197, -0.2863963544368744, -1.580233765707817e-05], [0.07588542997837067, -0.002723518991842866, -0.05097698047757149, -0.02247690036892891, -0.03706759214401245, 0.08358919620513916, 0.035717763006687164, 0.01910511404275894, 0.00013137182395439595, 0.0523764006793499, -0.05694214254617691, 0.00015753350453451276, 0.03938395529985428, -0.01851131208240986, -0.14329363405704498, 0.0034265697468072176, 0.3656739294528961, -0.0029335771687328815, -0.012801953591406345, -0.021496210247278214, 0.09593942761421204, -0.06219123676419258, -0.016319451853632927, -0.008126295171678066, -0.01599862426519394, -0.02776193991303444, 0.005253482609987259, 0.002592061646282673, 0.010397416539490223, -0.02794296108186245, 0.004941477905958891, -0.03143561631441116, -3.0161418180796318e-06, 0.029104171320796013, 1.1455766070866957e-05, -0.021783852949738503, -0.007194251753389835, 0.073686383664608, 0.0978735163807869, 4.983430335414596e-05], [-0.021487653255462646, -0.018289940431714058, 0.10184077173471451, -0.04275742173194885, -0.02546689473092556, 0.032610934227705, -0.09216762334108353, 0.017423363402485847, 0.00020886443962808698, -0.04134315624833107, 0.007581242360174656, -0.0016693732468411326, -0.02582717500627041, -0.03232763335108757, -0.03667888790369034, 0.1022002249956131, 0.1579892486333847, 0.023508651182055473, 0.01895415596663952, -0.0007128342404030263, 0.04948430135846138, 0.06411857157945633, -0.017635662108659744, 0.019157804548740387, -0.08178485929965973, -0.02027421072125435, -0.0004376136348582804, 0.005380888469517231, -0.01850936934351921, 0.011879266239702702, 0.046665363013744354, -0.05308685451745987, 2.4206468879128806e-05, 0.13445645570755005, -3.471807985988562e-06, 0.1434575766324997, 0.004759658593684435, -0.10277584940195084, 0.03660081326961517, -1.677621912676841e-05], [-0.05980055779218674, -0.03958190605044365, -0.01029114704579115, 0.049021705985069275, -0.027515901252627373, -0.07885656505823135, -0.07254384458065033, 0.06736984848976135, 0.00028676557121798396, 0.02467278204858303, -0.07907390594482422, -0.0003467858477961272, 0.0035223683807998896, -0.07461406290531158, 0.06553353369235992, 0.0607907734811306, -0.0838056281208992, -0.00010082600056193769, 0.0028649959713220596, 0.004110071808099747, -0.0017670542001724243, 0.15669500827789307, -0.010436729528009892, -0.005714779254049063, -0.02589053101837635, -0.046241022646427155, 0.014222702942788601, 0.00020513658819254488, -0.010003880597651005, -0.06349673122167587, 0.03550838679075241, -0.050769198685884476, 7.570961770397844e-06, 0.026204844936728477, -4.743489989778027e-05, 0.02282089740037918, -0.03641854599118233, -0.015149393118917942, 0.13207311928272247, 1.054554331858526e-06], [0.009633900597691536, 0.008156068623065948, -0.035515256226062775, -0.009359098970890045, -0.004368992522358894, 0.009365578182041645, 0.01628292165696621, -0.00607507536187768, 3.106641452177428e-05, -0.0017331218114122748, 0.010121079161763191, 0.00012270612933207303, 0.0024693827144801617, 0.015135920606553555, -0.022849567234516144, -0.020233267918229103, -0.023064542561769485, -0.0035112807527184486, -0.0021454307716339827, 0.00011429219739511609, 0.021501990035176277, -0.0028031703550368547, -0.0028320741839706898, 0.004164460580796003, -0.0006256453925743699, 0.01772340200841427, -0.0008533328655175865, -0.0001979666849365458, -0.0016477053286507726, 0.010068428702652454, -0.009719671681523323, 0.006815366912633181, -2.521281885492499e-06, -0.007503597531467676, 4.947525667375885e-06, -0.030751647427678108, -0.003415690967813134, -0.019541919231414795, -0.045152366161346436, 3.898432260029949e-05], [0.04486538842320442, 0.17652110755443573, 0.02850951999425888, 0.10305040329694748, 0.07511616498231888, 0.17739741504192352, 0.024493174627423286, -0.07303954660892487, -0.0002479416143614799, -0.01635444536805153, -0.03935237601399422, -4.1439197957515717e-05, -0.03416065499186516, -0.004348193295300007, -0.024448415264487267, -0.06525047868490219, 0.8784646391868591, -0.003272261470556259, -0.020162226632237434, 0.009889456443488598, -0.05159364268183708, 0.09827952831983566, 0.05663084611296654, -0.028886519372463226, -0.07992002367973328, 0.011061911471188068, -0.011790351010859013, 0.0031246263533830643, -0.044509924948215485, -0.022353852167725563, -0.00124825700186193, -0.022599320858716965, 3.6494126106845215e-05, 0.13019664585590363, 2.521784699638374e-05, -0.028257396072149277, 0.1373557299375534, 0.340885192155838, 0.023180175572633743, 1.94130352610955e-05], [0.03026539646089077, -0.019581830129027367, 0.05386804789304733, 0.01844070665538311, -0.002093045273795724, 0.024600019678473473, -0.060479383915662766, 0.043882887810468674, 0.00039514293894171715, -0.02231556549668312, -0.038490019738674164, -0.001673422404564917, 0.006307210773229599, -0.027870401740074158, -0.12234321236610413, -0.01558937318623066, 0.3011179566383362, -0.003331901039928198, -0.0036059103440493345, -0.00065471330890432, 0.04750441014766693, -0.12913848459720612, 0.015446515753865242, -0.01810702495276928, -0.007473134435713291, 0.005871763452887535, 0.003214785363525152, 0.0021340122912079096, 0.011018051765859127, -0.027887871488928795, 0.01016587670892477, 0.10528620332479477, 8.86551060830243e-06, 0.114844411611557, -7.55388755351305e-05, 0.049874212592840195, 0.01765543408691883, 0.0413619726896286, 0.11178237944841385, 5.348336344468407e-05], [0.00690904026851058, 0.028203139081597328, -0.031670767813920975, -0.0027965479530394077, -0.019716419279575348, 0.03985847160220146, 0.031158804893493652, -0.025888441130518913, 0.00014151065261103213, 0.02324233390390873, 0.020450133830308914, -0.00014486227883026004, -0.001457052188925445, 0.007130773272365332, -0.06718224287033081, -0.03741241991519928, 0.20049364864826202, -0.010114621371030807, -0.009462465532124043, 0.021546756848692894, 0.02008804865181446, -0.014077789150178432, -0.024018345400691032, 0.02017962373793125, 0.004719711374491453, -0.048628222197294235, 0.00045128021156415343, 0.000239589688135311, -0.012740135192871094, 0.01670134626328945, -0.011040115728974342, -0.013966693542897701, -3.2618161185382633e-06, 0.010726260021328926, -2.7139078156324103e-05, -0.0446041040122509, 0.020022427663207054, 0.05767211690545082, -0.026776395738124847, 4.315599653637037e-05], [-6.791138957851217e-07, 7.186764605648932e-07, 6.393904641299741e-07, 3.2791865578474244e-06, 3.821032521500456e-07, -1.2157072433183203e-06, 1.7774142690996086e-07, -5.897176720282005e-07, -3.80920983644728e-09, -3.515356183925178e-07, -1.2342420063760073e-07, 9.163234615527927e-10, -3.748157553218334e-07, 1.0594305877020815e-06, 1.389561475662049e-06, -1.4764982552151196e-06, -4.16380225942703e-06, -5.092089594427307e-08, -8.496689929415879e-07, -1.1819589929018548e-07, -1.1070790151279652e-06, 1.2085781690984732e-06, -2.4213304072873143e-07, 3.4948106986121275e-07, 1.4789553688387969e-06, -2.2401560784146568e-07, -7.825646797243735e-09, -4.31071995876664e-08, -3.520159168601822e-07, 7.492737381653569e-07, -2.632066298247082e-08, 5.164459935258492e-07, 9.884611879007466e-11, -6.637251885877049e-07, -1.2581516384280178e-10, -7.524912462031352e-07, 2.3568943561258493e-06, -2.054440756182885e-06, 1.928090796354809e-06, -1.7522040762774083e-10], [0.028391368687152863, -0.005392459686845541, -0.05923991650342941, 0.022950071841478348, 0.003607275662943721, 0.08159724622964859, 0.03637111559510231, 0.006846847012639046, 0.00019770176731981337, 0.006029033102095127, -0.03164437413215637, 0.0015794188948348165, -0.020194830372929573, -0.006002506706863642, -0.12053587287664413, -0.021576225757598877, 0.2605762183666229, 0.022327182814478874, 0.0059689972549676895, -0.035602740943431854, 0.06745956838130951, -0.021054916083812714, 0.030914992094039917, -0.03110402263700962, 0.026057947427034378, 0.020385481417179108, -0.008944584056735039, 0.0027276535984128714, 0.0009148498065769672, -0.013658635318279266, -0.0016057337634265423, 0.007105046883225441, -1.6637872249702923e-05, 0.024454209953546524, -4.887874183623353e-06, -0.013774833641946316, 0.015546745620667934, 0.08165048807859421, -0.009803864173591137, 0.0001020249692373909], [-0.09704370051622391, -0.029619934037327766, -0.05293411388993263, 0.00436409143730998, 0.024716079235076904, 0.07820521295070648, 0.050856854766607285, 0.05537774786353111, 3.760948675335385e-05, 0.0029982959385961294, -0.030731597915291786, 0.0005260686739347875, 0.012917263433337212, -0.0277438685297966, -0.08196074515581131, -0.05553585663437843, 0.23717863857746124, -0.005582524463534355, 0.020552165806293488, 0.012107052840292454, -0.01980568654835224, -0.03593769669532776, -0.040356848388910294, 0.0050933402962982655, 0.005833734292536974, -0.016418756917119026, -0.003471749136224389, -0.0015123371267691255, 0.039138175547122955, -0.009011267684400082, -0.026526398956775665, -0.04216967895627022, 1.3095128451823257e-05, 0.00974989589303732, -2.876575308619067e-05, -0.06380635499954224, -0.061833351850509644, 0.0901629626750946, 0.03065773844718933, -2.5670422473922372e-05], [1.6596593923168257e-05, 1.1277247722318862e-05, -0.00014519177784677595, 0.00010894145088968799, 6.10718852840364e-05, 0.00025001403992064297, -5.096631866763346e-05, -4.0417515265289694e-05, -3.670497150665142e-08, 6.016327461111359e-05, 3.3060267014661804e-05, 1.3669679219674435e-06, 1.9590039300965145e-05, 2.4300321456394158e-05, -0.00021118350559845567, -4.612634074874222e-05, 0.00043235314660705626, -1.535022420284804e-05, 6.566145020769909e-05, -1.4589149941457435e-06, 8.596306724939495e-05, -5.7473458582535386e-05, 2.3820482965675183e-05, 1.829242319217883e-05, -9.379851690027863e-05, -2.5316378014395013e-05, 3.934333108190913e-06, 1.4172327382766525e-06, 2.0526511434582062e-05, -1.390571810588881e-06, -5.372780651669018e-05, -8.507298480253667e-05, -3.2413847605994306e-08, 7.017693860689178e-05, 4.5352020805466964e-08, -3.3147163776447996e-05, -1.314385372097604e-05, 0.00020926326396875083, -2.3713007976766676e-05, 9.331873940254809e-08], [-0.016800489276647568, 0.010098324157297611, -0.05360926687717438, -0.009296131320297718, -0.006636921316385269, 0.07992595434188843, 0.04706616699695587, -0.023692095652222633, 0.0004108857538085431, 0.02144710347056389, -0.02076333574950695, 0.0006837924011051655, 0.0028491499833762646, 0.014880686067044735, -0.10352835804224014, 0.003963713999837637, 0.2485564798116684, 0.015365165658295155, 0.00634987186640501, 0.028503086417913437, 0.024256141856312752, -0.04275655746459961, 0.031179748475551605, -0.009763565845787525, 0.011428477242588997, -0.005739894695580006, -0.006925507914274931, 0.0021178133320063353, 0.003912650980055332, 0.008825970813632011, -0.012851007282733917, 0.0027783734258264303, -7.926209946162999e-06, 0.022258970886468887, -6.848332850495353e-05, -0.010857276618480682, 0.020862959325313568, 0.08546459674835205, -0.06171615049242973, 0.0001960612862603739], [-0.03827301040291786, -0.014793687500059605, 0.05884674936532974, -0.04162272810935974, 0.019946264103055, 0.03583168983459473, 0.040854331105947495, 0.015324563719332218, 0.00010694770026020706, 0.001295130467042327, -0.034812506288290024, 0.00032323499908670783, -0.01291416585445404, -0.020593369379639626, 0.0014461976243183017, -0.07680859416723251, 0.08476823568344116, 0.003376583568751812, -0.023493170738220215, 0.003230820642784238, -0.025474490597844124, 0.047223277390003204, -0.0004677828692365438, -0.016494495794177055, 0.017436375841498375, -0.0521128885447979, -0.00514757027849555, 0.0022904211655259132, -0.013117365539073944, -0.007014864590018988, 0.02226707525551319, 0.02806512825191021, 2.9280690796440467e-05, 0.03926648944616318, -5.6977591157192364e-05, -0.004998146556317806, -0.015277978032827377, 0.008294372819364071, -0.0032371371053159237, 5.368485290091485e-05], [0.028689946979284286, 0.008586086332798004, -0.15029768645763397, 0.09010162204504013, -0.00021262318477965891, 0.04547036811709404, 0.011263047344982624, 0.04303671047091484, 0.00018227429245598614, 0.006630491465330124, 0.001968878787010908, -0.002098901430144906, 0.01158847939223051, 0.012879373505711555, -0.10724006593227386, -0.007868222892284393, 0.9668954610824585, 0.013260692358016968, 0.012014771811664104, 0.004722767509520054, 0.03994395583868027, -0.2261490821838379, -0.02653893269598484, 0.011196882463991642, -0.07053177058696747, 0.006281964480876923, -0.004546388518065214, 0.0014025517739355564, 0.02930196188390255, 0.03204283118247986, -0.018475616350769997, 0.06595256924629211, -0.00011951786291319877, 0.08058145642280579, 6.143587961560115e-05, 0.009882118552923203, 0.0007812501862645149, 0.28061991930007935, -0.0876861959695816, 6.625744504162867e-07], [0.010108784772455692, -0.01524735800921917, -0.2699877917766571, 0.037269528955221176, 0.048739608377218246, -0.013968773186206818, -0.045977573841810226, -0.003469805233180523, 0.00023863163369242102, 0.02700379677116871, 0.03039534017443657, 0.00031386176124215126, -8.495384827256203e-05, 0.04286174476146698, -0.15967340767383575, -0.18525519967079163, -0.03192094340920448, 0.021989576518535614, 0.02704387716948986, 0.005170725751668215, 0.19666671752929688, 0.17850317060947418, -0.03187418356537819, 0.02112465910613537, -0.04468177631497383, -0.05377225950360298, -0.011693613603711128, 0.004003278911113739, -0.042996782809495926, 0.06262699514627457, -0.015946514904499054, 0.045868922024965286, -9.502190323473769e-07, -0.020078342407941818, -2.976389805553481e-05, -0.04583955556154251, -0.010895590297877789, -0.21520249545574188, -0.18263348937034607, 9.445357136428356e-06], [-0.03787321224808693, 0.006890566553920507, 0.011851754039525986, -0.0335380993783474, -0.0019382894970476627, 0.25272122025489807, -0.05318436771631241, 0.00709453085437417, 1.1345827260811348e-05, 0.018963804468512535, 0.017186181619763374, -0.00027629075339064, 0.0012125612702220678, -0.017977559939026833, 0.006384900771081448, 0.04759591817855835, 0.3766043782234192, -0.0017240201123058796, 0.04642559587955475, 0.003897078800946474, 0.03568087890744209, -0.003993550315499306, -0.012100069783627987, -0.008696788921952248, -0.03359691798686981, -0.005385270342230797, -0.0033569561783224344, 0.002116444753482938, 0.0045700278133153915, -0.014826914295554161, 0.002831054851412773, -0.16220968961715698, 5.663941556122154e-05, 0.05642537772655487, -3.1330968340625986e-05, 0.0331059955060482, -0.0796082615852356, 0.15946711599826813, -0.04002099111676216, 1.7334174117422663e-05], [-0.004469514358788729, 0.0013857911108061671, -0.026180649176239967, 0.004363298416137695, -0.001089162309654057, 0.011546339839696884, 0.016699012368917465, -0.009113436564803123, 1.4842534255876672e-05, -0.006258662324398756, 0.004229126498103142, 0.0001832532143453136, -0.006120199337601662, 0.006456077564507723, -0.026781121268868446, -0.0002333976299269125, 0.01800357736647129, 0.002932147355750203, 0.00208742986433208, 0.0015652843285351992, 0.003530013607814908, -0.015878934413194656, 0.0021999466698616743, 0.0014665620401501656, 0.0017857500351965427, 0.003921440336853266, -0.00030524563044309616, -6.423510785680264e-05, -7.683162402827293e-05, 0.005667352583259344, -0.0012886222684755921, 0.0036790764424949884, 2.373865527260932e-06, -0.0026101432740688324, -4.656807504943572e-06, -0.008144655264914036, -0.01309282798320055, 0.013817131519317627, -0.03905767947435379, 2.465842044330202e-05], [0.012993170879781246, -0.06806787848472595, -0.12079649418592453, 0.0333498977124691, -0.009661337360739708, 0.06021706759929657, -0.08484842628240585, 0.0801544189453125, 0.000343644613167271, 0.034860868006944656, 0.008780661970376968, -0.001586502999998629, 0.007846007123589516, 0.010050657205283642, -0.10965503007173538, -0.054438233375549316, 0.4192889928817749, 0.010267266072332859, 0.0807749480009079, 0.009868515655398369, 0.18239334225654602, 0.030984610319137573, -0.037462443113327026, 0.007197248283773661, -0.07462570816278458, -0.057655446231365204, -0.007841872051358223, 0.0017214928520843387, 0.012985005974769592, 0.023181773722171783, -0.0006017793784849346, -0.08105400204658508, 2.4490678697475232e-05, 0.006247217301279306, -4.275835453881882e-05, -0.06871944665908813, -0.024920614436268806, 0.030978474766016006, -0.0769696980714798, -4.559259468805976e-05], [-0.007849249988794327, 0.011766527779400349, -0.02821342833340168, 0.0001167769223684445, 0.000751872721593827, 0.015452751889824867, 0.027580421417951584, -0.012494235299527645, 8.147176413331181e-05, -0.012388745322823524, 0.00824546068906784, 0.0001579771633259952, -0.005716738756746054, 0.009999698959290981, -0.032910753041505814, -0.0057861995883286, 0.037365932017564774, 0.0032233665697276592, 0.0017026695422828197, -0.0038281125016510487, 0.0009977248264476657, -0.019160481169819832, 0.0032784391660243273, 0.002872935961931944, 0.0005047882441431284, 0.004798613488674164, -0.002151964930817485, 8.032865298446268e-05, -0.004373808857053518, 0.011893869377672672, -0.0032431611325591803, 0.01642460748553276, 8.035302016651258e-06, 0.0021500287111848593, -2.1530906451516785e-05, -0.017001613974571228, -0.0005173537647351623, 0.021671369671821594, -0.04045584052801132, 5.721092747990042e-05], [0.09276757389307022, 0.09069309383630753, -0.05676654726266861, 0.10199397802352905, 0.037530217319726944, 0.14121511578559875, -0.11234262585639954, 0.04669387266039848, 0.00023927564325276762, -0.0218697190284729, 0.03866104409098625, -0.001802615006454289, 0.02894585393369198, 0.013705774210393429, -0.05289311334490776, -0.0039031021296977997, 0.5721034407615662, 0.0024671198334544897, 0.0570542998611927, -0.0017079799436032772, 0.058796390891075134, -0.004804348107427359, -0.03815679997205734, 0.010090348310768604, -0.07745228707790375, 0.027309102937579155, -0.009350488893687725, -0.0006921361782588065, 0.015151821076869965, 0.014308661222457886, -0.04936116933822632, 0.041787903755903244, 2.930181653937325e-05, -0.030060505494475365, -8.47091359901242e-05, -0.06323395669460297, 0.023082485422492027, 0.2011605054140091, 0.01327831856906414, -2.102276084769983e-05], [0.07234860956668854, -0.03942706063389778, -0.08293409645557404, 0.21044163405895233, -0.03143550083041191, 0.19825391471385956, 0.06597588211297989, 0.03273838758468628, 0.00016899067850317806, 0.010842915624380112, -0.13673467934131622, -0.0029839924536645412, -0.038695644587278366, 0.02942649833858013, -0.16415688395500183, 0.042032480239868164, 0.4203818440437317, 0.02250279299914837, -0.04857635498046875, 0.0075572459027171135, 0.004231506027281284, -0.07060104608535767, 0.07814417779445648, -0.06616324931383133, -0.012917366810142994, -0.030149927362799644, -0.02869541384279728, 0.0005405796691775322, 0.0028437438886612654, -0.03363737091422081, 0.029100144281983376, -0.09528044611215591, -2.2370004444383085e-05, -0.0027216633316129446, 9.530933311907575e-05, -0.039129674434661865, 0.03159833699464798, 0.15355028212070465, 0.07488927990198135, -3.664019095594995e-05], [-0.0006456777337007225, 0.003959236200898886, 0.01597592793405056, 0.026480065658688545, -0.013229310512542725, 0.049100905656814575, 0.051004864275455475, 0.008547291159629822, 0.00016118871280923486, 0.028586657717823982, -0.011282422579824924, 0.00035715638659894466, 0.008412729948759079, -0.018740931525826454, -0.07267855852842331, 0.009421156719326973, 0.263241708278656, 0.007449083961546421, -0.021096033975481987, 0.009288869798183441, 0.001402922673150897, -0.026681402698159218, -0.011906350031495094, -0.01338963583111763, -0.027684874832630157, -0.03882843628525734, -0.004502344410866499, 0.0028574205935001373, -0.002552715130150318, -0.00919109582901001, 0.005872554145753384, 0.032149787992239, -1.0064053640235215e-05, 0.024842416867613792, 8.520864867023192e-06, 0.004964258521795273, 0.016710475087165833, 0.07236770540475845, 0.03827131539583206, 3.906945130438544e-05], [0.0017601139843463898, 0.010943143628537655, 0.019518328830599785, -0.003067556768655777, 0.004543060902506113, 0.012669103220105171, -0.003048364771530032, -0.00470539228990674, 7.530416041845456e-05, -0.004644523374736309, -0.008749122731387615, 0.0003977030864916742, -0.006863447837531567, -0.007127234246581793, -0.015042200684547424, 0.0028730377089232206, 0.11389197409152985, 0.0011954951332882047, -0.016931163147091866, 0.0023573837243020535, -0.019449030980467796, -0.046672482043504715, -0.013614377938210964, -0.003612773260101676, 0.03431249037384987, -0.009309215471148491, -0.0012849755585193634, 0.0019211714388802648, 0.007163946516811848, -0.003326346166431904, 0.002036317251622677, 0.02475917711853981, 9.624678568798117e-06, 0.019251463934779167, -1.9343495296197943e-05, 0.005135916173458099, -0.0003121388435829431, 0.06133553758263588, 0.006753418128937483, 1.7105665392591618e-05], [0.027928771451115608, -0.016388962045311928, -0.11056353896856308, 0.2636764645576477, 0.011078013107180595, 0.033523283898830414, 0.022572770714759827, 0.01833934523165226, 4.504026583163068e-05, 0.012697000987827778, -0.05183716118335724, -0.0004184409335721284, -0.00567338801920414, 0.017460817471146584, -0.09051541239023209, -0.010504929348826408, 0.0571560338139534, -0.01483383309096098, 0.04242033138871193, -0.018660714849829674, 0.068916916847229, -0.04105452820658684, -0.018404433503746986, 0.0022991143632680178, 0.06723257154226303, -0.013116022571921349, 0.006767213810235262, -0.0015246067196130753, 0.0361584909260273, -0.005366850644350052, 0.017308715730905533, -0.0680541843175888, 1.574411362526007e-05, -0.014304201118648052, 7.621631084475666e-06, -0.02496802806854248, -0.06228884682059288, -0.029302280396223068, -0.11231239885091782, -1.2458987839636393e-05], [0.0382382832467556, -0.022960424423217773, -0.09124545007944107, 0.03753940761089325, 0.005516981706023216, 0.087532639503479, 0.010627515614032745, -0.06851141154766083, 1.9548855561879463e-05, 0.02647019363939762, 0.037735022604465485, 0.001046555582433939, -0.018494753167033195, 0.10533829033374786, -0.10477787256240845, -0.0536281019449234, 0.22179238498210907, 0.009913580492138863, -0.03536464646458626, -0.01656038500368595, 0.017298981547355652, -0.0857698917388916, 0.040520258247852325, 0.0043442826718091965, -0.013757776468992233, 0.01672181859612465, -0.008490009233355522, 0.0010880772024393082, -0.026702189818024635, 0.04861073940992355, -0.015438289381563663, 0.06904666870832443, -1.3688460967387073e-05, -0.007116016931831837, 2.7493648303789087e-05, -0.026219237595796585, 0.03829419985413551, 0.1501026749610901, -0.14970582723617554, 4.761073432746343e-05], [0.0035091654863208532, 0.0013826231006532907, -0.0037156117614358664, 0.010824048891663551, 0.0009947603102773428, 0.008186481893062592, 0.001356670050881803, -0.009951398707926273, 4.39686391473515e-06, -0.0022681367117911577, 0.000734027533326298, -2.464720091666095e-05, -0.0019624039996415377, 0.007064404897391796, -0.010659102350473404, -0.007335046771913767, 0.024915460497140884, 0.0003739266248885542, -0.007032664027065039, 0.0007422592025250196, 0.001349919126369059, -0.013521632179617882, 0.004850131459534168, 0.0023859126958996058, 0.0007051905849948525, -0.0009746928699314594, -0.0011357133043929935, 0.00018970078963320702, -0.002942079911008477, 0.005829767324030399, -0.004204259254038334, 0.00762431975454092, -2.4025505354074994e-06, 0.004123940598219633, 1.948762928805081e-06, -0.0060794660821557045, 0.010883275419473648, 0.010392364114522934, 0.0015268210554495454, -1.4364784874487668e-05], [-7.7278476965148e-05, -4.106408141524298e-06, 0.0001148180672316812, 0.0001538389187771827, 6.76900745020248e-05, 0.0011247345246374607, -4.890723721473478e-05, -0.00018124445341527462, 7.303915481315926e-07, 6.015679900883697e-05, 4.45516025138204e-06, 1.4864542208670173e-05, 0.00011836922203656286, -3.861921413772507e-06, -0.0006820907001383603, 0.0004909142735414207, 0.0025583519600331783, 8.748257823754102e-05, 0.00010883698996622115, -5.923827120568603e-05, -5.453997437143698e-05, -0.00046562429633922875, 0.00032173481304198503, 5.390782007452799e-06, -0.00045877593220211565, -0.00024751247838139534, 2.9472534151864238e-05, 1.6387260984629393e-05, -9.212700206262525e-06, -3.0669805710203946e-05, -1.8203651052317582e-05, 0.00015258110943250358, -7.030395465790207e-08, 0.0005993492086417973, 7.495631137999226e-08, 0.000407135346904397, 8.512120257364586e-05, 0.0015117635484784842, 7.626674050698057e-05, -1.070382680268267e-07], [-0.0008972629439085722, 0.013359618373215199, -0.04519345238804817, 0.011301658116281033, -0.0030541815795004368, 0.03184724599123001, 0.05103858560323715, -0.04298652336001396, 9.022058657137677e-05, -0.0011529062176123261, 0.017211688682436943, 0.0004458267940208316, -0.016381947323679924, 0.013469932600855827, -0.06591537594795227, -0.03382938727736473, 0.07153168320655823, -0.0007727042539045215, -0.026962710544466972, 0.0026135712396353483, 0.001304647303186357, -0.05535696819424629, 0.0020411740988492966, 0.008214477449655533, -0.0021680842619389296, -0.009318066760897636, 0.0009203875670209527, -0.001006272272206843, -0.004256655462086201, 0.01346021518111229, -0.006613326724618673, 0.014707397669553757, -7.450823318322364e-07, -0.0031165168620646, -2.3893840989330783e-05, -0.023374518379569054, -0.010055419988930225, 0.05290348827838898, -0.07716231793165207, 5.8705722040031105e-05], [-0.016399580985307693, 0.0017595371464267373, 0.015022236853837967, -5.786402471130714e-05, 0.00765516422688961, 0.005854861810803413, 0.0005960220005363226, 0.026859281584620476, -2.0405830582603812e-05, 0.03279237449169159, -0.023281918838620186, 0.00045194700942374766, -0.014707294292747974, -0.001687304931692779, 0.0005372659652493894, -0.04070226848125458, 0.11887884140014648, 0.006782736629247665, -0.014451432041823864, 0.0069939494132995605, -0.011354474350810051, -0.02764859050512314, -0.0396902970969677, -0.007649075239896774, 0.03689407929778099, -0.034836575388908386, -0.003965136129409075, 0.002254823222756386, 0.010105147026479244, -0.0016531002474948764, 0.00023378574405796826, 0.015146610327064991, 3.5240984288975596e-05, 0.013885894790291786, -2.509515979909338e-05, -0.024692101404070854, -0.003099139081314206, 0.0510898195207119, -0.022945713251829147, 3.836803080048412e-05], [0.003599264658987522, 0.02110172249376774, -0.04105231538414955, 0.019312724471092224, -0.006250253412872553, 0.042369768023490906, 0.051872774958610535, -0.02556545101106167, 0.0002810192236211151, -0.005880214739590883, -0.015845561400055885, 0.00025643609114922583, -0.0064459205605089664, 0.02267216518521309, -0.06600695848464966, -0.01696872152388096, 0.11735544353723526, 0.0071213943883776665, 0.009601361118257046, -0.00021707046835217625, 0.0027686944231390953, -0.016561228781938553, 0.0026006652042269707, 0.010294063948094845, 0.03797783702611923, 0.010155273601412773, -0.0005806932458654046, 0.0006159896729514003, 0.014657619409263134, 0.014233032241463661, -0.012473028153181076, -0.012124384753406048, 1.958930852197227e-06, -0.004397817887365818, -4.782911855727434e-05, -0.03233847767114639, 0.015476875007152557, 0.0338560976088047, -0.04344441741704941, 0.00010789856605697423], [-0.03976813331246376, 0.019941695034503937, 0.020372841507196426, 0.03001995012164116, 0.003475242294371128, 0.1834724098443985, 0.1336447149515152, 0.012234970927238464, 0.00018490581715013832, 0.052815791219472885, -0.149347722530365, 0.0007688971236348152, -0.024252714589238167, 0.002231947146356106, -0.10285677760839462, 0.07271838188171387, 0.8336795568466187, 0.030813468620181084, -0.014343032613396645, 0.0008555097156204283, 0.12221769243478775, -0.018269473686814308, 0.0889039859175682, -0.09344757348299026, -0.11124756187200546, -0.1103523001074791, -0.051868051290512085, 0.008337056264281273, -0.02200358174741268, -0.023082541301846504, 0.030800525099039078, -0.14586271345615387, -0.00018292218737769872, 0.06758163124322891, 0.0001646026794333011, -0.005694510415196419, 0.022229084745049477, 0.13300414383411407, -0.13009774684906006, 2.7382928237784654e-05], [-3.953591232175313e-08, -1.874287747227754e-08, -4.3552383033329534e-08, -1.1317868597870984e-07, -1.59252895315376e-08, -1.1533681032460663e-07, 4.419242216613384e-08, -4.182286517107059e-08, -2.694584139151246e-12, -4.7194664176686274e-08, 2.7071356711871886e-08, 3.434873219188006e-10, -8.15030531953198e-09, -5.831582772231059e-09, 2.8529289153311765e-08, 1.6632942845262733e-07, -2.2229187379707582e-07, 2.0500356967545486e-08, -2.2723364523358214e-08, -4.794251218243062e-09, -6.0791895961642695e-09, 7.157840542504346e-08, 6.9331003160755245e-09, 2.838408796890235e-08, -5.618345255697932e-08, 3.719275110114495e-09, -6.277050434988496e-09, 1.0498469871222937e-09, -5.08481932115501e-08, 5.276148939969971e-08, -3.1333249328469037e-09, 1.9653059624147318e-08, -2.056389086790844e-11, -3.3806326626972805e-08, 5.8871870052545905e-12, 1.1878636740902948e-07, 5.625603449743721e-08, -1.7031986487836548e-07, 4.2025291691061284e-08, -1.5292061020244496e-11], [0.08447125554084778, 0.026251938194036484, 0.11226914823055267, -0.08826705068349838, 0.012474660761654377, -0.008501850999891758, -0.12966006994247437, 0.07290580868721008, 0.00011690748215187341, -0.05297843739390373, 0.041034035384655, -0.00280513777397573, 0.05384910851716995, -0.08962919563055038, -0.039347756654024124, 0.08340515196323395, 1.0002161264419556, -0.003355222288519144, 0.1127307265996933, 0.02811369299888611, 0.07632610946893692, -0.1729280799627304, -0.015659714117646217, -0.023233527317643166, -0.17151053249835968, 0.06338362395763397, 0.006697521544992924, 0.004629695788025856, 0.0677461251616478, -0.06606121361255646, -0.02733357809484005, 0.19262178242206573, 0.00019494535808917135, 0.015117117203772068, -0.00011343081860104576, 0.05758306384086609, -0.08947931230068207, 0.18954335153102875, -0.09661703556776047, -2.1891431970288977e-05], [-1.3810117494017504e-08, 2.090788697728385e-08, -1.0691543650409585e-08, 5.725109630816405e-08, 1.6004767289246047e-08, 1.759570267267918e-08, -2.383483099777095e-08, -4.6587423696564656e-08, 1.079256302383147e-11, -3.7055009727282595e-08, 3.6766589772696534e-08, -1.940897312660561e-12, -1.7311673872200117e-08, 2.9659325662123592e-08, 2.541064425543027e-08, 6.174862221541844e-08, 1.861354270715765e-08, 3.0416658081122705e-10, -4.0441596738105545e-09, 3.631000167203524e-09, -3.961402228469524e-08, -5.180760709322385e-09, -1.0636620473292169e-08, 4.071723225251844e-08, -6.967658006118427e-09, 2.6589844992486178e-08, -3.1051550219984847e-10, -1.3020161337973235e-10, -1.7528922313658768e-08, 4.200500924866901e-08, -1.928539994366929e-08, -1.1606416272513798e-08, 1.2172537283694496e-11, -2.040834701233507e-08, -6.517128416788642e-12, 2.5574250273052712e-08, 7.010596903000987e-08, 5.3296304258765304e-08, 8.178108146239538e-08, 7.2538472624394945e-12], [1.0130404916708358e-05, -0.0066481963731348515, -0.22436673939228058, -0.02955656871199608, -0.02319212071597576, -0.03898296132683754, -0.06927019357681274, 0.009516850113868713, 0.0002172536333091557, 0.019285932183265686, 0.0032100991811603308, -8.037596853682771e-05, 0.007726742886006832, 0.04553651064634323, -0.1049613207578659, -0.16356754302978516, -0.08560334891080856, 0.002652150811627507, 0.05045958235859871, 0.013148833066225052, 0.11338766664266586, 0.16486027836799622, -0.025489775463938713, 0.022631436586380005, -0.0068803224712610245, -0.00574568472802639, -0.0010644543217495084, 0.002138330601155758, -0.0017123715952038765, 0.031597889959812164, -0.02652197703719139, 0.04739503562450409, -4.296423128380411e-07, -0.049404483288526535, -2.634418342495337e-05, -0.0922023206949234, 0.03815440461039543, -0.11632287502288818, -0.11844106018543243, 6.340411800920265e-06], [0.010057352483272552, 0.001487254281528294, -0.047267381101846695, 0.047017231583595276, -0.04719788581132889, 0.02938440814614296, -0.0027436011005192995, -0.04248698800802231, 4.8013509513111785e-05, 0.02901504561305046, 0.1783577799797058, 5.35903345735278e-05, 0.00759335421025753, 0.11133145540952682, -0.1189895048737526, 0.08045662939548492, 0.0929461121559143, 0.006204912904649973, -0.053185127675533295, -0.023596452549099922, 0.036478191614151, -0.08633849769830704, 0.014803116209805012, 0.023717574775218964, -0.10190845280885696, 0.045812495052814484, 0.007559563964605331, -0.009052904322743416, -0.007656805217266083, 0.04538030922412872, -0.02772732824087143, 0.06902983039617538, 2.1615853256662376e-05, -0.03789311647415161, -9.04887383512687e-06, -0.005891033448278904, 0.18003258109092712, 0.006232507526874542, 0.0065323482267558575, -2.6870276997215115e-05], [0.04248930141329765, 0.10100860148668289, 0.08479227125644684, 0.06638467311859131, 0.05578232184052467, 0.18538938462734222, -0.003372934414073825, -0.01924508437514305, -7.209791510831565e-05, -0.00142056739423424, 0.06373481452465057, -0.0009448610944673419, 0.01130985002964735, 0.02202632650732994, 0.017006777226924896, -0.031150415539741516, 0.37904438376426697, -0.0071388487704098225, -0.008692738600075245, -0.025964921340346336, 0.02878657728433609, -0.040402334183454514, 0.011053206399083138, -0.02984459511935711, -0.021352745592594147, -0.04364301636815071, -0.016843708232045174, 0.0008642753819003701, -0.035481665283441544, 0.010465601459145546, -0.011517616920173168, 0.09973358362913132, -2.933817313532927e-06, 0.10214956849813461, 3.962282426073216e-05, 0.00307913008145988, 0.07032524049282074, 0.14900986850261688, 0.09883875399827957, 3.61819111276418e-05], [0.09162376821041107, -0.04324193671345711, -0.2006324976682663, -0.05170745402574539, -0.044469691812992096, -0.21634480357170105, -0.02424457296729088, -0.13661767542362213, 0.0003229655558243394, -0.052256908267736435, 0.032024260610342026, -9.97040988295339e-05, -0.01460869051516056, 0.1218375489115715, -0.0954194888472557, 0.287767618894577, 0.14892926812171936, 0.02955402433872223, -0.06090116500854492, 0.04336411878466606, 0.02421257458627224, -0.11623585969209671, 0.06304807960987091, 0.09171747416257858, -0.15549421310424805, 0.18979768455028534, -0.008330601267516613, 0.00848016981035471, -0.04609103128314018, 0.1259617954492569, -0.1109456941485405, 0.14903569221496582, -4.979900404578075e-05, -0.15847855806350708, 6.881264562252909e-05, 0.06533265113830566, 0.3002832233905792, 0.028859099373221397, 0.02097589708864689, -3.400947753107175e-05], [6.884126602102469e-09, -5.0563123465963145e-08, 1.9216966506974131e-07, -2.6235522909701103e-07, 3.270208992489643e-08, -4.566934990180016e-07, 4.27427693239224e-08, 1.790417947233891e-08, -1.4396481402834116e-11, -1.7246878769583418e-07, -8.311892685242128e-08, -2.1919989434682208e-10, 2.0010089141209164e-09, -7.884340647024146e-08, 4.183038129212946e-07, -2.3713043617590301e-07, -6.688819098599197e-07, -4.204520820394464e-08, -2.9157257941392345e-08, 4.76001682514493e-09, -1.9256334837791655e-07, -9.870964134961469e-08, -7.532079138172776e-08, 1.838530394593363e-08, 3.3838094282145903e-07, 1.644812925860606e-07, 2.0950459145296918e-08, -6.521221340705097e-09, 1.0143111950355888e-07, -4.426444633054416e-08, 1.1411567690799984e-08, -1.0074421297190383e-08, 2.217708482132874e-11, -3.2533441185478296e-07, -2.2299457419494573e-11, -1.717457394079247e-07, -2.5606283315937617e-07, -3.109861950179038e-07, -9.953934920758911e-08, -1.537350108327118e-10], [0.535573422908783, 0.17347018420696259, -0.12750795483589172, -0.33827003836631775, -0.015607045963406563, 0.012444838881492615, 0.12929080426692963, -0.02946121245622635, -0.00037436714046634734, 0.0009327513980679214, 0.10627150535583496, -0.003484681248664856, 0.06031256914138794, -0.0532485656440258, 0.14619728922843933, 0.24479500949382782, 0.02595936693251133, 0.04010448604822159, 0.1723010092973709, -0.07468671351671219, 0.19789372384548187, 0.07701106369495392, 0.01669170893728733, 0.03076806664466858, 0.007001180667430162, 0.06018998101353645, 0.009448342956602573, -0.0024860044941306114, -0.005287742707878351, 0.03693564608693123, -0.03591974452137947, -0.005366851110011339, 2.602197309897747e-05, -0.21677421033382416, -4.322390668676235e-05, 0.057205960154533386, -0.11601562798023224, 0.13303862512111664, -0.041982509195804596, 3.465454574325122e-05], [0.03540978208184242, 0.24349428713321686, -0.031002581119537354, -0.026792554184794426, -0.18382097780704498, 0.20223796367645264, -0.09041339159011841, -0.5936803221702576, -5.672801853506826e-05, -0.06381702423095703, -0.0892738476395607, 0.0012883469462394714, -0.2372233122587204, -0.02544638141989708, -0.04766786843538284, 0.0759635642170906, -0.03510129451751709, -0.1159089133143425, 0.6031388640403748, 0.03807872161269188, 0.010217626579105854, -0.05569615960121155, -0.06438422203063965, 0.0682825818657875, 0.04053644835948944, -0.2681331932544708, 0.10743003338575363, 0.008466961793601513, -0.14324510097503662, -0.1046566292643547, 0.4073616564273834, 0.2637004852294922, 8.05554554972332e-06, 0.048384904861450195, 2.3311291442951187e-05, 0.29546427726745605, 0.10030551254749298, -0.08321674913167953, -0.040453456342220306, -3.139298132737167e-05], [-0.07613127678632736, -0.03267340362071991, 0.40425848960876465, -0.05669420212507248, -0.044497810304164886, 0.04381655901670456, -0.01933836005628109, 0.03148544579744339, -0.0006603281944990158, -0.03466497361660004, -0.015878798440098763, 0.0040520853362977505, 0.008337595500051975, -0.06935596466064453, 0.33587947487831116, 0.37022948265075684, 0.1166355162858963, 0.014302695170044899, -0.02598407305777073, 0.012288040481507778, -0.15021179616451263, -0.108371801674366, -0.023789769038558006, -0.028184426948428154, -0.0036727949045598507, -0.021916287019848824, -0.05000757426023483, 0.011947774328291416, -0.007995945401489735, 0.026525555178523064, -0.03284271061420441, 0.07004490494728088, 9.558925376040861e-05, 0.7573586106300354, 3.421132714720443e-05, -0.0662112832069397, 0.0539269782602787, 0.02631847746670246, -0.004610993899405003, 2.111579306074418e-05], [0.2754305601119995, -0.03758695349097252, 0.37868645787239075, 1.3709306716918945, 0.38201698660850525, 0.08740201592445374, -0.07453806698322296, -0.16043730080127716, -0.00018976398860104382, 0.0018981911707669497, -0.13731582462787628, -0.0009128862875513732, -0.022998999804258347, -0.050942033529281616, -0.14362870156764984, -1.8007688522338867, -0.13996034860610962, -0.0619136244058609, 0.0456586554646492, 0.060487400740385056, -0.17244870960712433, -0.02161801978945732, -0.04432809725403786, 0.004803934600204229, 0.2634871304035187, -0.0331580676138401, -0.0224436204880476, -0.0027494526002556086, -0.07958555966615677, -0.008799968287348747, -0.020452339202165604, 0.005954565014690161, 9.001789294416085e-05, 0.2615172863006592, -7.965497206896544e-05, 0.058300282806158066, -0.20037297904491425, -0.06834867596626282, 0.002361100632697344, 6.52886155876331e-05], [-0.040460072457790375, 0.36692386865615845, 0.04592125490307808, -0.1706671565771103, -0.11257141828536987, 0.017612656578421593, 0.013772786594927311, -0.019751137122511864, 0.000175511886482127, -0.09197767823934555, -0.07462643086910248, 0.0074166189879179, 0.23018747568130493, 0.22667337954044342, 0.08265307545661926, -0.5105082392692566, -0.04315216466784477, 0.17495131492614746, -0.0051369937136769295, -0.5941079258918762, 0.03247955068945885, 0.010166306979954243, -0.08161260932683945, -0.03616680949926376, -0.26185333728790283, 0.15533575415611267, -0.0786837711930275, 0.03820092976093292, 0.047714073210954666, 0.08433018624782562, 0.01654237136244774, -0.019200511276721954, 6.490862870123237e-05, -0.017416276037693024, -6.122791091911495e-05, 0.26257890462875366, 0.14246819913387299, 0.010695252567529678, 0.03473028168082237, 5.179454819881357e-05], [0.04098263755440712, 0.1466454118490219, -0.017490489408373833, -0.02397182770073414, 0.08378449082374573, 0.5254290699958801, -0.017646314576268196, -0.044370803982019424, 0.0006929356604814529, 0.009926625527441502, 0.025608403608202934, 0.00015242864901665598, 0.0425051748752594, 0.049900833517313004, -0.020223641768097878, -0.03787431865930557, 0.06049618870019913, 0.0029194813687354326, -0.2375987023115158, 0.035255685448646545, -0.033766429871320724, 0.15513549745082855, 0.09956862032413483, -0.06611902266740799, -0.03565601259469986, 0.0010400449391454458, -0.01655745692551136, 0.019749250262975693, -0.05283879116177559, -0.013194945640861988, -0.07406265288591385, 0.4892311692237854, 2.7641335691441782e-05, 0.09039349108934402, -8.484759018756449e-05, -0.10138501971960068, 0.3926320970058441, 0.021304434165358543, -0.04854750260710716, -0.00011711362458299845], [-0.05001850426197052, 0.0883735939860344, -0.06452114880084991, -0.08713433146476746, -0.019097935408353806, 0.03093288652598858, 0.5185161828994751, -0.15450312197208405, -0.00035366174415685236, 0.019390352070331573, 0.023787572979927063, 0.008896023035049438, 0.0846121534705162, -0.0350741408765316, -0.12352302670478821, -0.09008130431175232, -0.0853762999176979, 0.010722719132900238, -0.026194395497441292, 0.047689519822597504, -0.22265377640724182, 0.0011284126667305827, -0.09309789538383484, 0.1250198483467102, 0.03435804322361946, 0.026299115270376205, 0.032451581209897995, 0.016155235469341278, 0.041047971695661545, 0.04012292996048927, 0.05926945433020592, -0.09868080914020538, -4.262775837560184e-05, -0.07045711576938629, 6.294134800555184e-05, 0.04100516438484192, 0.11418960988521576, -0.008889245800673962, -0.025285227224230766, 6.389760073943762e-06], [-0.08210569620132446, -0.014077524654567242, -0.03784719482064247, 0.0770091637969017, 0.07697287201881409, -0.1575150489807129, 0.057759564369916916, 0.15808796882629395, 0.00015927360800560564, -0.11499509960412979, -0.017972813919186592, 0.00042015506187453866, 0.605252742767334, 0.036785244941711426, -0.00949803926050663, 0.1493406593799591, 0.08248162269592285, -0.11979079991579056, -0.31813010573387146, -0.1284584254026413, 0.06236463040113449, 0.11482330411672592, -0.4623122215270996, -0.10714773088693619, -0.01904590055346489, -0.21577928960323334, -0.08063878864049911, 0.037310194224119186, -0.11286551505327225, 0.04830728843808174, 0.25350522994995117, -0.005267773754894733, 0.00014925122377462685, 0.09496547281742096, -0.00012985279317945242, 0.1756579428911209, -0.2895893156528473, -0.0886678621172905, 0.06863639503717422, -0.00015206390526145697], [-0.00041340605821460485, -3.264909764766344e-06, 0.00019885037909261882, 8.007844735402614e-05, -0.0001788059453247115, -0.00038301970926113427, -0.0005225407658144832, 5.717962994822301e-05, -5.595273705694126e-06, -0.0002110329660354182, -0.0005572400405071676, 3.736134749487974e-05, 4.135699782636948e-05, -0.00012100767344236374, 0.00035111227771267295, -4.1860064811771736e-05, -0.005107100121676922, -0.00015816617815289646, -0.0001918298949021846, -0.00010919414489762858, -0.0003452537639532238, 0.0009153216960839927, -1.9321525542181917e-05, 0.00023833735031075776, -0.00027214735746383667, 0.00024369695165660232, 0.00017796580505091697, 3.1397732527693734e-05, 0.00023909012088552117, -0.00028892848058603704, 0.0001637784152990207, -0.0003115678555332124, -3.754035162728542e-07, -0.0004317797429393977, 9.528426403448975e-07, 0.00017100364493671805, -0.00043114233994856477, -0.0012302874820306897, 2.452658191032242e-05, 2.727687729020545e-07], [0.07637868821620941, 0.05756865069270134, 0.03102610446512699, -0.012655709870159626, -0.0618850477039814, -0.013041451573371887, 0.03800034150481224, 0.37898963689804077, -8.92471507540904e-05, 0.24576027691364288, -0.02818017639219761, 0.004718846641480923, -0.44887569546699524, 0.09700360149145126, -0.0015688767889514565, -0.1334005743265152, -0.16226240992546082, 0.11948142945766449, 0.03923632949590683, 0.06879852712154388, -0.01929786428809166, -0.10251838713884354, -0.5223705768585205, -0.24028301239013672, -0.040233734995126724, -0.13709917664527893, -0.03469949960708618, 0.000410852866480127, 0.13343359529972076, -0.12069392204284668, 0.2712651789188385, -0.06383197009563446, -6.164400110719725e-05, -0.06426943093538284, -1.629969301575329e-05, -0.034056905657052994, 0.2210601568222046, 0.19696968793869019, -0.09172035753726959, 0.00013631799083668739], [-0.07099732756614685, 0.035625021904706955, -0.014435919001698494, 0.1077655479311943, 0.067765973508358, 0.04896063357591629, -0.1586984097957611, 0.012635116465389729, -0.0003790954651776701, -0.004910145420581102, 0.4144296646118164, 0.004990150220692158, -0.06166427582502365, 0.01783721335232258, 0.08889610320329666, 0.12290722131729126, -0.004476683214306831, -0.02711031772196293, -0.027149686589837074, -0.0007223531720228493, 0.15552547574043274, -0.05166732892394066, -0.12773707509040833, 0.11486601084470749, -0.1495177000761032, 0.2497403770685196, 0.03800441697239876, -0.020250508561730385, 0.04786747694015503, 0.03162142634391785, -0.1508679836988449, -0.009375747293233871, -0.00017399720672983676, 0.024240979924798012, 0.00019285440794192255, 0.19568367302417755, 0.1543138027191162, 0.20140892267227173, -0.0864570289850235, 8.460300887236372e-05], [-0.002096928656101227, -0.005880443844944239, -0.005158956628292799, -0.019213268533349037, -0.0009594227885827422, 0.0034561350475996733, 0.0019950850401073694, 0.0003944916825275868, 4.4143296690890566e-05, -0.00145242630969733, -0.000728543265722692, 0.0005027506849728525, 0.0016904787626117468, -0.008218225091695786, 0.0008276524022221565, -0.014747483655810356, -0.00790136307477951, -0.0035107301082462072, 0.004665474873036146, -0.00027380060055293143, 0.0063002812676131725, -0.004020939115434885, -0.0048677665181458, -0.0012323959963396192, 0.02005402371287346, -0.006046864204108715, -0.00013662608398590237, 8.103444088192191e-06, 0.0063543906435370445, -0.0023911595344543457, -0.0024882722645998, -0.0015634701121598482, 3.5364248560654232e-06, 0.004361145664006472, -4.2700676203821786e-06, 0.006801398936659098, 0.03817619010806084, 0.021921953186392784, -0.011748211458325386, 2.5627763534430414e-05], [0.024309538304805756, 0.21950361132621765, -0.016048269346356392, -0.0042314426973462105, -0.16374914348125458, -0.039468344300985336, -0.07254669815301895, -0.5255289077758789, -8.544221782358363e-05, 0.5174481272697449, 0.050261277705430984, -0.0013128042919561267, 0.22703248262405396, -0.1909523755311966, -0.01900791935622692, -0.01480309572070837, 0.06784456968307495, 0.2117619663476944, 0.04244810715317726, 0.23654687404632568, 0.06187165528535843, 0.0066015212796628475, 0.07301612198352814, 0.14958477020263672, -0.028707057237625122, -0.3576259911060333, 0.1664862185716629, -0.02552110143005848, 0.4876343905925751, -0.1161566898226738, -0.34949371218681335, 0.07255487889051437, -3.274463233537972e-05, -0.0032336004078388214, 2.1517716959351674e-06, 0.11332110315561295, -0.11647231131792068, -0.061488572508096695, 0.06393781304359436, 4.633691787603311e-06], [0.0260545052587986, -0.10554972290992737, 0.04807046428322792, 0.19076776504516602, -0.01978236250579357, 0.01801341585814953, -0.04559976980090141, -0.18195806443691254, -0.0003769612230826169, -0.03205099329352379, -0.014807620085775852, 0.017097244039177895, 0.26791974902153015, 0.1323722004890442, -0.025087153539061546, -0.058002129197120667, -0.05494709312915802, 0.09305085986852646, 0.06950521469116211, -0.14210475981235504, 0.11446984857320786, -0.12421664595603943, 0.08572299033403397, -0.009028483182191849, 0.04506578668951988, -0.1318831741809845, 0.10091979801654816, 0.004303512163460255, 0.3302268981933594, -0.07981491088867188, 0.20570747554302216, -0.07626427710056305, -1.9963274098699912e-05, -0.0731394961476326, -5.948327452642843e-05, -0.05695153772830963, 0.41699591279029846, 0.08149445056915283, -0.19897504150867462, -4.058755439473316e-05], [-0.12289322167634964, -0.04670264199376106, 0.12229406088590622, 0.15048326551914215, 0.10547906905412674, -0.025036035105586052, -0.11342013627290726, -0.03898010402917862, 0.00028534981538541615, -0.0020461194217205048, 0.032468315213918686, 0.002744765719398856, -0.022737830877304077, 0.08055908977985382, 0.3504965007305145, -0.42419034242630005, -0.10903692245483398, -0.023352984338998795, -0.0866447314620018, 0.020655106753110886, -0.19175083935260773, 0.03377591818571091, 0.021942025050520897, -0.036729805171489716, 0.2121724784374237, -0.03410537913441658, -0.0441947765648365, 0.0032687108032405376, -0.1487305462360382, 0.0064529613591730595, 0.019853787496685982, -0.0858021229505539, -3.1128925911616534e-05, -0.20698922872543335, -1.92699608305702e-05, -0.19951453804969788, -0.008502261713147163, 0.09932410717010498, -0.007698222063481808, -2.5669758542790078e-05], [-0.15632419288158417, -0.12742379307746887, -0.5142925977706909, 0.23912465572357178, 0.5785621404647827, 0.11340289562940598, 0.05516461655497551, -0.22314336895942688, 0.00039435457438230515, 0.10814038664102554, -0.09729740768671036, -0.0005989588680677116, -0.06201386824250221, -0.10821262001991272, 0.6221547722816467, 0.06070590019226074, 0.03871449455618858, 0.02404453419148922, -0.030495688319206238, -0.0012903522001579404, 0.09979477524757385, -0.07619458436965942, -0.07256443798542023, 0.06288551539182663, 0.27512702345848083, -0.14374810457229614, 0.030329152941703796, 0.0007389862439595163, -0.08771269768476486, 0.033074162900447845, 0.15251237154006958, -0.012213398702442646, -0.00019898361642844975, -0.5265401601791382, 0.00017043750267475843, 1.6798313856124878, -0.026692144572734833, -0.02517872303724289, -0.09446140378713608, 4.9166988901561126e-05], [-0.10233348608016968, 0.022157147526741028, 0.044315386563539505, -0.06865479797124863, -0.005373867228627205, 0.32231366634368896, -0.08651698380708694, 0.0004586797149386257, -0.0004597631050273776, 0.0008453534101136029, -0.013304024934768677, -0.000451779633294791, -0.0006114393472671509, -0.01885083317756653, 0.020665528252720833, 0.00749131990596652, 0.16440331935882568, -0.012775490060448647, 0.09814225882291794, 0.007067907135933638, 0.0038308706134557724, 0.07177900522947311, -0.0257868729531765, -0.0033051460050046444, 0.0182107575237751, 0.02069215662777424, 0.005333132576197386, -0.0010100982617586851, 0.005000445060431957, -0.018482230603694916, 0.021786514669656754, -0.241075336933136, 0.00017283718625549227, 0.08974461257457733, -8.499807154294103e-05, 0.024547535926103592, -0.14392800629138947, 0.034467749297618866, -0.0245579332113266, 2.2416470528696664e-05], [-0.020693957805633545, -0.05189409852027893, -0.0725061222910881, -0.0529203787446022, -0.08525988459587097, -0.00875796191394329, -0.0033474680967628956, 0.007968570105731487, 1.5047397937451024e-05, -0.12747794389724731, -0.09253673255443573, 0.014090669341385365, -0.3520496189594269, -0.13424617052078247, 0.050629597157239914, -0.02803632616996765, 0.028658922761678696, 0.02324344404041767, 0.0202967319637537, -0.8305807709693909, 0.01844056323170662, 0.018541676923632622, -0.015405536629259586, 0.03159577026963234, -0.0022705052979290485, -0.11703775078058243, 0.040799811482429504, 0.014742739498615265, 0.2568925619125366, 0.009178896434605122, -0.19101566076278687, -0.012189074419438839, -1.665010495344177e-05, -0.028173204511404037, -4.5671171392314136e-05, 0.15147455036640167, 0.2022077441215515, 0.009762801229953766, -0.07546159625053406, 4.226094006298808e-06], [-0.11046930402517319, -0.49166443943977356, -0.011228594928979874, 0.17100009322166443, -0.14708784222602844, 0.5197657346725464, 0.08364903181791306, 0.2532917857170105, 2.730501364567317e-05, -0.11085371673107147, 0.09803938120603561, -0.007881510071456432, -0.010316465049982071, -0.11110247671604156, 0.10236257314682007, 0.032678790390491486, 0.04148794338107109, 0.008341019973158836, 0.197005957365036, 0.001373471925035119, 0.049645666033029556, 0.06461793929338455, -0.059203293174505234, -0.04702890291810036, -0.02223631739616394, -0.08899600803852081, -0.006167168729007244, -0.0055815414525568485, 0.03362354636192322, -0.03646762669086456, 0.09365823119878769, 0.5491505861282349, 0.00015176832675933838, 0.005917255766689777, -0.00011217541032237932, 0.091250479221344, -0.5576336979866028, -0.010067256167531013, 0.1202545091509819, -0.0001321674499195069], [-0.023080188781023026, -0.10096495598554611, 0.04215783253312111, -0.03921528533101082, 0.4045941233634949, 0.033764131367206573, -0.10429396480321884, 0.008610573597252369, 0.00041329863597638905, 0.049435801804065704, 0.0773734599351883, 0.003917557653039694, -0.3881891071796417, 0.09809394925832748, -0.11816289275884628, 0.09779118001461029, 0.007178831845521927, 0.8715466856956482, -0.10355500876903534, 0.05931970849633217, -0.11166026443243027, 0.03112657740712166, 0.054290223866701126, -0.11837492883205414, -0.10316086560487747, 0.1647435426712036, -0.05280795693397522, 0.006444660946726799, 0.5903965830802917, 0.017049618065357208, 0.07059022784233093, -0.0020254189148545265, 0.00013978153583593667, 0.03923840820789337, -8.93012693268247e-05, -0.08244618773460388, -0.053358595818281174, -0.04817705973982811, 0.02558130770921707, -8.580814755987376e-05], [0.15224580466747284, -0.0345621183514595, -0.1387939751148224, -0.21404430270195007, 0.0016899209003895521, 0.1421106606721878, -0.14367756247520447, 0.07247395813465118, -0.0004734150425065309, 0.07532930374145508, 0.1660996973514557, 0.0041602598503232, -0.014019941911101341, 0.04048417508602142, -0.12470359355211258, 0.2006959319114685, 0.0764148160815239, 0.03282306343317032, 0.07234931737184525, -0.0206153504550457, 0.45621800422668457, -0.010163013823330402, -0.0648796409368515, -0.02671661414206028, -0.17865093052387238, -0.08642930537462234, -0.019773826003074646, -0.007370519917458296, -0.03610138222575188, -0.012005708180367947, 0.027737267315387726, -0.06875374913215637, -0.0002319258637726307, -0.06801312416791916, 0.00019938538025598973, -0.0566883347928524, 0.09003948420286179, -0.19032879173755646, -0.019687335938215256, 0.000201625021873042], [-0.1361672282218933, 0.021397918462753296, 0.003335901303216815, 0.026751810684800148, -0.024318888783454895, 0.4472804069519043, -0.007104390766471624, -0.0881076380610466, 0.00019917867030017078, 0.07473792880773544, -0.05202681943774223, -0.00023292546393349767, -0.05267893522977829, 0.055804766714572906, 0.04548775777220726, 0.06137532368302345, -0.11297200620174408, -0.03433331474661827, -0.07139062881469727, 0.0588604211807251, 0.12208636850118637, 0.5653419494628906, 0.07791288942098618, 0.043938882648944855, -0.024455618113279343, 0.08694597333669662, 0.023090947419404984, 0.007993757724761963, 0.019746504724025726, -0.03463384881615639, -0.026306048035621643, 0.1529192328453064, 6.424198363674805e-05, 0.05588214471936226, -8.714587602298707e-05, 0.027662368491292, 0.2050073891878128, 0.07480816543102264, -0.007927468046545982, 3.690093944896944e-05], [0.10681875050067902, -0.25362780690193176, 0.08304357528686523, -0.10662857443094254, 0.15808460116386414, 0.1555933952331543, 0.025225242599844933, 0.14513517916202545, -0.00020613397646229714, 0.48220735788345337, -0.23699314892292023, 0.003651425475254655, -0.028564028441905975, 0.006717992480844259, -0.060165680944919586, 0.018250398337841034, -0.02394651621580124, -0.002939681289717555, 0.14830856025218964, -0.18047593533992767, -0.03174861520528793, -0.027022361755371094, 0.2610856592655182, -0.16858072578907013, -0.02935153990983963, 0.2746274173259735, -0.019586920738220215, 0.005598385352641344, -0.08031958341598511, -0.1137382760643959, -0.14950565993785858, 0.06742410361766815, -0.00013667932944372296, 0.030215784907341003, 6.910852243890986e-05, 0.12490842491388321, 0.30782902240753174, 0.08665979653596878, -0.09388702362775803, 8.355603495147079e-05], [-0.06614972651004791, 0.021106669679284096, -0.005819524172693491, 0.15294671058654785, -0.020418019965291023, -0.10223723948001862, 0.0022945140954107046, -0.08049038052558899, 0.00026790675474330783, 0.1403365433216095, 0.12903302907943726, 0.000302265805657953, -0.16240938007831573, -0.006314466707408428, -0.011898635886609554, -0.04759303480386734, 0.01382556464523077, -0.05502384528517723, 0.17433178424835205, 0.22743704915046692, 0.0022859040182083845, -0.018911555409431458, -0.017224155366420746, 0.19972947239875793, -0.06798069179058075, 0.35043632984161377, 0.12576605379581451, -0.011538340710103512, -0.04190528020262718, -0.0493793822824955, -0.10851044207811356, -0.08450347930192947, 9.95940063148737e-05, -0.033209171146154404, -0.00013113798922859132, -0.05886133387684822, -0.03852832317352295, -0.05301214009523392, 0.07085490226745605, -1.9194014384993352e-05], [0.08437205851078033, 0.036785099655389786, 0.06512611359357834, -0.008451292291283607, 0.12662523984909058, 0.03605305030941963, 0.12352816760540009, -0.020444093272089958, -0.00018468960479367524, -0.09804357588291168, -0.09168621152639389, 0.0010703596053645015, -0.012167719192802906, -0.12685176730155945, -0.023061200976371765, -0.7945930361747742, 0.01750926487147808, 0.01650165393948555, -0.026157228276133537, 0.08315611630678177, 0.07358250021934509, -0.18971870839595795, -0.02902941405773163, -0.11079518496990204, 0.24439895153045654, 0.1017054095864296, -0.021440742537379265, -0.001915455679409206, -0.019772473722696304, -0.11499375104904175, 0.07153107970952988, 0.0075609455816447735, 3.206482142559253e-05, 0.10799511522054672, 3.107970769633539e-05, -0.1596035659313202, -0.2619938850402832, 0.012177582830190659, 0.1324874758720398, 6.731024768669158e-05], [0.2225974202156067, 0.17865028977394104, -0.02690277434885502, -0.013839774765074253, -0.005604366771876812, 0.04548029974102974, -0.10681208968162537, 0.14530743658542633, 3.491822644718923e-05, 0.060354288667440414, -0.08344974368810654, 0.005623095203191042, 0.4115496277809143, 0.01594376377761364, -0.08870445191860199, 0.04860367253422737, 0.032012585550546646, -0.11423537880182266, 0.11964789032936096, -0.046284474432468414, -0.07975386083126068, -0.1503572016954422, -0.2085411548614502, -0.08163117617368698, 0.07246210426092148, 0.41119566559791565, 0.14962886273860931, -0.005022209137678146, 0.1702403873205185, -0.3374885022640228, 0.3669682741165161, -0.06999459117650986, -3.973089769715443e-05, 0.05472443997859955, 8.659984450787306e-05, 0.11583062261343002, 0.3445056080818176, 0.13229964673519135, -0.16869565844535828, -5.5220749345608056e-05], [0.020696843042969704, -0.019642896950244904, 0.026570534333586693, 0.07435926049947739, -0.05099620670080185, -0.018706267699599266, -0.028074633330106735, 0.0538346953690052, -7.468118565157056e-05, 0.07264028489589691, 0.05799039453268051, -0.002579247811809182, -0.18559753894805908, -0.14225433766841888, -0.06531223654747009, -0.09239181131124496, 0.020003607496619225, -0.045870739966630936, 0.07002720981836319, 0.20183974504470825, -0.014358355663716793, -0.025204801931977272, -0.037953343242406845, 0.009105970151722431, -0.013226368464529514, 0.15414047241210938, 0.04071805626153946, -0.013851749710738659, 0.03399746119976044, -0.13065165281295776, 