{"model_data": {"model": "SimpleRNN", "input_size": 1, "skip": 1, "output_size": 1, "unit_type": "LSTM", "num_layers": 1, "hidden_size": 40, "bias_fl": true}, "state_dict": {"rec.weight_ih_l0": [[-0.017817877233028412], [-0.02988242730498314], [0.13096573948860168], [-0.014541011303663254], [-0.0065724048763513565], [0.03262380510568619], [-0.0463196262717247], [0.004959393758326769], [5.349562002265884e-07], [-0.030226008966565132], [-0.005350156687200069], [-1.3308535926626064e-06], [-0.03590691089630127], [7.754660146019887e-06], [-0.1615390032529831], [-0.014867379330098629], [-0.007663392461836338], [-0.023603349924087524], [0.047613102942705154], [-0.014095897786319256], [-0.06459670513868332], [0.07863375544548035], [-0.0355706512928009], [-3.748893107058393e-07], [-0.04229479655623436], [-0.03989790007472038], [-0.017913298681378365], [4.715094291896094e-06], [0.01456665899604559], [-4.974434659743565e-07], [0.00704695051535964], [-0.04594501480460167], [-7.617238111379265e-07], [0.18938730657100677], [-8.785352179074835e-07], [-0.018812639638781548], [0.012698174454271793], [-0.019543198868632317], [0.003162578446790576], [0.015079974196851254], [0.016682211309671402], [0.003070635022595525], [0.17553915083408356], [0.01723974011838436], [0.000995359499938786], [-0.11112849414348602], [-0.017946111038327217], [0.04106966406106949], [4.745561739127879e-07], [0.004941974766552448], [0.032967038452625275], [6.606977422052296e-06], [-0.021758150309324265], [7.906478458608035e-06], [-0.061951953917741776], [0.01888236589729786], [-0.032748956233263016], [0.010526797734200954], [0.01648762822151184], [-0.004579179920256138], [0.031939323991537094], [0.10468723624944687], [0.0055823917500674725], [-2.275973656651331e-06], [-0.07157614827156067], [-0.046622663736343384], [0.01025446131825447], [2.7116086585010635e-06], [0.02146740071475506], [-5.924144375057949e-07], [-0.003120267065241933], [0.04093219339847565], [-8.544040497326932e-07], [0.1644025593996048], [-9.395423603564268e-07], [-0.061840783804655075], [-0.01463314425200224], [-0.04902336373925209], [-0.01378513965755701], [0.02405746653676033], [0.18224136531352997], [-0.4908091425895691], [0.04692762717604637], [0.08703568577766418], [-0.10208320617675781], [0.180457204580307], [0.009097112342715263], [-0.30524110794067383], [-0.00043391366489231586], [0.09372653067111969], [0.14184048771858215], [-0.0010708714835345745], [-0.056665997952222824], [-0.0001928082201629877], [-0.08450113981962204], [0.0981573760509491], [0.14861081540584564], [-0.00591482175514102], [-0.33953362703323364], [-0.07252176105976105], [0.22257593274116516], [0.12023457139730453], [-0.03771551698446274], [0.00017799112538341433], [0.10146383941173553], [-0.07659173756837845], [-0.053776826709508896], [-0.0001106388881453313], [-0.18958978354930878], [0.0007688477635383606], [0.16654786467552185], [-0.23430748283863068], [3.459359868429601e-05], [0.1403120458126068], [-0.0001406814408255741], [1.506354808807373], [-0.0452200323343277], [-0.3102109432220459], [-0.19722075760364532], [0.27157893776893616], [0.025196757167577744], [-0.007053898647427559], [0.30420970916748047], [-0.03781741484999657], [-0.012390682473778725], [0.0732710212469101], [-0.027286391705274582], [0.012248270213603973], [3.004016093655082e-07], [-0.017275093123316765], [-0.013035112991929054], [1.2948199810125516e-06], [-0.026202525943517685], [8.316915227624122e-06], [-0.380671888589859], [-0.014445229433476925], [0.02258923649787903], [-0.015222678892314434], [0.027183139696717262], [-0.015621154569089413], [-0.018626390025019646], [0.21980918943881989], [-0.037923432886600494], [-1.9341084680490894e-06], [-0.05884675309062004], [-0.047037187963724136], [-0.04924178123474121], [6.31749389867764e-06], [0.018578950315713882], [-7.256283538481512e-07], [0.017902346327900887], [-0.031605545431375504], [-4.843969918510993e-07], [0.34008657932281494], [-1.1989443464699434e-06], [-0.008332708850502968], [-0.05587878078222275], [-0.14420227706432343], [0.0027965535409748554], [0.022319884970784187]], "rec.weight_hh_l0": [[0.011922117322683334, 0.10981353372335434, 0.1921035796403885, -0.3274533450603485, 0.06692653149366379, -0.009186930023133755, 0.007784284185618162, 0.004066795576363802, -0.00020977512758690864, -0.03267786651849747, 0.018792027607560158, -0.0011853092582896352, 0.012640608474612236, 0.00024836702505126595, 0.1388508826494217, -0.03471066430211067, -0.8094874620437622, 0.10818396508693695, 0.04181477427482605, -0.0717044472694397, 0.16430822014808655, 0.317125141620636, -0.04883791133761406, 8.905588038032874e-05, -0.00776642607524991, -0.01361613254994154, -0.0511394664645195, -0.00035915683838538826, -0.02593315578997135, 0.0003021814045496285, 0.02790677919983864, -0.04189851135015488, -9.385505109094083e-05, -0.31430357694625854, -3.301336255390197e-05, 0.0803104043006897, -0.005615052301436663, -0.5114410519599915, -0.00691224867478013, 0.04507283493876457], [-0.013418694958090782, -0.0028484920039772987, 0.04188553988933563, 0.022526072338223457, 0.0005720080225728452, 0.017914114519953728, 0.006025127600878477, -0.01777382381260395, -0.00012416210665833205, 0.0009422915172763169, -0.054299548268318176, -0.0001988026051549241, 0.011217037215828896, -0.0002084748848574236, 0.09613265842199326, 0.005528060253709555, 0.09365925937891006, 0.06274862587451935, 0.0040626018308103085, -0.006669750437140465, 0.02354862354695797, 0.026183702051639557, -0.023882145062088966, -0.00010741202277131379, -0.022945895791053772, 0.04580075666308403, -0.01162661425769329, 1.9117464034934528e-05, -0.011119985952973366, 5.6646025768714026e-05, -0.032071229070425034, 0.02031499706208706, 6.016980478307232e-05, -0.013797015883028507, -0.00015608241665177047, -0.0001314426917815581, -0.01778365671634674, -0.02055036649107933, 0.021983856335282326, -0.00811578705906868], [0.024761062115430832, -0.041813578456640244, 0.025122199207544327, -0.02975311316549778, -0.043177828192710876, -0.07440841197967529, -0.02059820294380188, -0.05433347076177597, 0.0003294060006737709, 0.02410353347659111, -0.048730723559856415, 0.0003667692362796515, -0.0027385628782212734, 0.00012094290286768228, 0.02910195104777813, 0.1263783872127533, -0.04796144366264343, 0.03452710434794426, -0.10014693439006805, 0.016056396067142487, 0.02094605378806591, -0.008004757575690746, -0.011392125859856606, -0.00024740106891840696, 0.03761058673262596, 0.07670433074235916, -0.03908970579504967, -6.686054257443175e-05, 0.007068907842040062, -0.00044356510625220835, 0.03310694918036461, -0.02564079500734806, -0.0003184618253726512, 0.1651017665863037, -9.859780192300605e-08, 0.054775554686784744, -0.0564485639333725, -0.03361925482749939, -0.051725272089242935, 0.00610971637070179], [0.13201268017292023, -0.020927010104060173, -0.045967306941747665, -0.019041195511817932, 0.0019935169257223606, -0.034554604440927505, -0.013945239596068859, -0.012721043080091476, 4.576966603053734e-05, -0.007703568786382675, 0.0068442062474787235, -6.629944437008817e-06, 0.00259958952665329, -4.0666418499313295e-05, -4.6979726903373376e-05, 0.007657303474843502, 0.517049252986908, 0.030733799561858177, -0.004599574487656355, -0.00992415938526392, 0.027355922386050224, -0.127171590924263, -0.022755838930606842, -0.00011048893793486059, -0.02407468855381012, 0.02675379440188408, 0.022254550829529762, 5.748721014242619e-05, -0.01802230440080166, -4.568481381284073e-05, -0.005898122675716877, 0.03456239402294159, 1.0755639777926262e-05, 0.1695154458284378, -0.00011209082003915682, 0.004631981253623962, -0.014219787903130054, 0.21081236004829407, -0.008843973278999329, 0.009362759999930859], [0.11043624579906464, -0.0015517519786953926, -0.042666055262088776, -0.01705203391611576, -0.0014039080124348402, -0.028044123202562332, -0.004477705340832472, -0.005890499800443649, 1.3724757081945427e-05, -0.0067789857275784016, 0.009530043229460716, -0.00016916016465984285, 0.004550225101411343, 0.00012766516010742635, 0.003354814602062106, 0.024134395644068718, 0.22187040746212006, -0.0014501296682283282, -0.01825665310025215, -0.0032649647910147905, 0.007651063147932291, -0.08159438520669937, -0.0009648556006141007, -5.6949207646539435e-05, -0.015888744965195656, 0.012560057453811169, 0.013743446208536625, -9.7062969871331e-05, -0.005699204746633768, 1.2427490503341687e-07, -0.0009207826224155724, 0.03445930406451225, -4.312893725000322e-05, 0.12922607362270355, 5.800261988042621e-06, 0.005172467324882746, -0.0017736932495608926, 0.16381549835205078, -0.005894266534596682, 0.0023253029212355614], [-0.1075628399848938, -0.07777829468250275, -0.03390681743621826, -0.005251926835626364, -0.003953843843191862, -0.06518270820379257, 0.000933213101234287, -0.010723263956606388, -0.00042597277206368744, 0.008488190360367298, 0.13690076768398285, -0.000936373311560601, -0.02715311013162136, 0.0011776332976296544, -0.05756145715713501, 0.03442502021789551, -1.1635642051696777, -0.044626567512750626, -0.044704485684633255, 0.017654556781053543, -0.11722578853368759, 0.4952474534511566, 0.029572201892733574, 0.00022827694192528725, 0.1077459529042244, -0.0022408878430724144, 0.0911703035235405, -0.0002891157928388566, 0.0759170725941658, 0.000834598031360656, 0.06976764649152756, -0.18103532493114471, 7.31567561160773e-05, -0.07601583749055862, 8.695641008671373e-05, -0.047170136123895645, 0.0037632568273693323, -0.24367474019527435, -0.02664891444146633, -0.01779620535671711], [-0.02098645083606243, 0.022217780351638794, 0.051516011357307434, -0.022931504994630814, -0.000727181788533926, -0.01532534696161747, -0.002386952517554164, 0.0064957523718476295, -0.00014212112000677735, -0.013018111698329449, 0.010071009397506714, -6.243636016733944e-05, 0.01757832244038582, -0.0004556483472697437, 0.0979035422205925, 0.021319951862096786, 0.05139120668172836, 0.04776535928249359, -0.04503818228840828, -0.011180221103131771, -0.009291395545005798, -0.028360437601804733, -0.04113122075796127, -6.914043478900567e-05, -0.006229419726878405, 0.020982960239052773, 0.04135628417134285, 0.00020085391588509083, -0.004852588288486004, 5.875111583009129e-06, -0.024235522374510765, -0.0315457284450531, 0.00012075579434167594, 0.039787616580724716, -0.00015714028268121183, -0.006931403186172247, 0.003291227389127016, -0.10298912972211838, 0.010440057143568993, -0.002402297221124172], [0.018904048949480057, -0.026588138192892075, 0.02502555027604103, 0.027273759245872498, 0.0055006118491292, -0.00836450606584549, -0.01577524095773697, -0.023925889283418655, 5.444104317575693e-05, -0.0010761796729639173, -0.025228360667824745, 0.00030021974816918373, -0.013651793822646141, -0.00016180342936422676, 0.036891303956508636, -0.009049239568412304, 0.15178433060646057, 0.07972107082605362, -0.02524345926940441, 0.0005650465609505773, 0.021466461941599846, -0.044871389865875244, -0.02115122228860855, -0.0001963984250323847, -0.01530094351619482, 0.019700346514582634, -0.00032396134338341653, -5.714491635444574e-05, -0.011158243753015995, -0.00018337686196900904, -0.030666427686810493, 0.01649291068315506, 0.00011346003884682432, 0.06099575757980347, -0.00014945487782824785, -0.008287844248116016, 0.005986156407743692, 0.01269641425460577, 0.014879211783409119, -0.0018951313104480505], [-1.6879658915058826e-06, -1.0171249442691987e-07, 1.404362024004513e-06, 2.5388869744347176e-06, -5.119865420510905e-08, 6.197859079293266e-07, -5.912103233640664e-07, -1.5501547068197397e-07, 9.826843783145023e-10, 9.158883074178448e-08, -2.434017005725764e-07, 5.845246953128935e-09, 3.750911048427952e-08, -2.1233466096504117e-09, 4.953640768690093e-07, -5.806471676805813e-07, -3.2936170555331046e-06, 3.6002114711664035e-07, 3.5176714163753786e-07, -1.0575826436820535e-08, 4.222942777687422e-07, 3.051652015528816e-07, -4.4331702042654797e-07, -2.041818492060088e-09, 1.1387702443244052e-06, 3.4623786859810934e-07, -6.337249374155363e-07, -1.2164047547003065e-09, -1.1563926705093763e-07, -2.841376023354769e-09, -3.3268361221416853e-07, 3.6355817201183527e-07, 6.729439783192959e-10, -1.0424855645396747e-06, -1.4874146359034057e-09, -2.4293305500577844e-07, 5.867198069609003e-07, -1.830389578572067e-06, 9.707275694381678e-08, -3.212307364552913e-10], [-0.016829058527946472, 0.027854107320308685, 0.06962163746356964, 0.012251988053321838, 0.00047159133828245103, -0.031756140291690826, 0.002630488481372595, -0.005470145959407091, 0.0003116652078460902, -0.02062896266579628, -0.040105365216732025, 0.0009011126821860671, -0.0014335305895656347, -0.0004055236931890249, 0.07051169127225876, 0.00994852278381586, 0.1640833169221878, 0.08116796612739563, -0.04296761378645897, -0.014224948361515999, 0.04576672986149788, -0.06945721060037613, -0.025589458644390106, -0.0002901156258303672, 0.017871703952550888, 0.003887810977175832, 0.07457161694765091, 0.00025494766305200756, -0.028487546369433403, -0.0005359777715057135, -0.03428805246949196, 0.01688186265528202, 0.00022830469242762774, 0.04034482315182686, -0.00030147418146952987, -0.013271552510559559, 0.027196379378437996, -0.08255897462368011, -0.005999920889735222, 0.009637013077735901], [0.01862558163702488, 0.058293841779232025, 0.029398052021861076, -0.04920091852545738, 0.00984619278460741, -0.014629419893026352, -0.012158242985606194, 0.015014040283858776, -9.172246063826606e-05, -0.011105071753263474, 0.03947056829929352, 0.00032662093872204423, 0.0010426039807498455, -7.753985846647993e-05, 0.058228958398103714, 0.005795146804302931, -0.10664296895265579, 0.014850220642983913, -0.02445078454911709, 0.010959872044622898, 0.024541636928915977, -0.016499388962984085, -0.034361694008111954, -5.763724402640946e-05, 0.04553773254156113, 0.03099839761853218, 0.017841476947069168, 0.00010330135410185903, 0.01562734693288803, 9.174831211566925e-05, -0.01843210496008396, -0.04678985849022865, 0.00010277252295054495, -0.020581703633069992, -0.0001967611606232822, 0.02546371892094612, -0.01944611221551895, -0.0690867006778717, 0.01615053229033947, -0.017355935648083687], [0.00020628358470275998, -3.3085983886849135e-05, 0.00010370168456574902, 6.4697205743868835e-06, -4.661005732486956e-06, -8.072503260336816e-05, 1.664960291236639e-05, 2.8698194000753574e-05, -1.1797200016872011e-07, 8.688700290804263e-06, 1.6412312106695026e-05, -8.921784342419414e-07, -5.739546395489015e-06, 4.915183922094002e-07, 0.00024877567193470895, -4.803263800567947e-05, 0.0001972335303435102, 2.1616026060655713e-05, -2.211388709838502e-05, 1.7176695337184356e-06, 1.0442509847052861e-05, -0.00021365791326388717, 2.0261008103261702e-05, 3.1160664093476953e-07, -2.071948756565689e-06, 4.000874105258845e-05, 7.525510591221973e-05, 2.551611544276966e-07, 9.898475582303945e-06, 3.4339421972617856e-07, 2.528606955820578e-06, 0.00010320595902157947, -2.5402428605048044e-07, 0.000264981877990067, 3.84961140298401e-07, -1.4527971870847978e-05, -2.2464973881142214e-05, 0.0002464288263581693, 2.5158833523164503e-05, -2.804502219078131e-05], [-0.02182200737297535, 0.017028311267495155, 0.05130685493350029, 0.02187609113752842, -0.004323877859860659, -0.0226155873388052, 0.011151674203574657, -0.0048779938369989395, 0.00048156490083783865, 0.005836117081344128, -0.09329300373792648, 0.0010564927943050861, 0.006128242705017328, -0.00020371483697090298, 0.04711952432990074, -0.002848129952326417, 0.17221440374851227, 0.10641644895076752, -0.030185187235474586, -0.0070524318143725395, 0.03805641457438469, -0.01634259521961212, -0.06301062554121017, -0.00037827217602171004, -0.004604428540915251, 0.042059510946273804, -0.007380431517958641, 0.00015843666915316135, -0.009942959062755108, -0.000827766431029886, -0.027595698833465576, 0.022498080506920815, 0.0001844554062699899, 0.005233696196228266, -0.0002813679166138172, -0.025242863222956657, -0.02433246746659279, -0.09718230366706848, -0.005843524821102619, 0.0034643136896193027], [1.2564983080665115e-05, -2.3677278022660175e-06, 6.550556918227812e-06, 2.763209522527177e-06, 3.144373067698325e-06, -9.600542398402467e-06, 1.8787090994010214e-06, 3.6741469102707924e-06, -4.4539940624588326e-09, -4.402799731906271e-06, 2.528745881136274e-06, -6.467715252256312e-08, 1.3667003031514469e-06, 6.849458777935524e-09, 1.1759811059164349e-05, -1.0179398486798164e-05, 1.0370471500209533e-05, -3.4310414775973186e-07, -7.985696356627159e-06, -4.064921540702926e-06, -7.14890211384045e-06, -1.0131127964996267e-05, 3.4670688364712987e-07, -2.9534588108504067e-09, -1.6479123132739915e-06, 3.9470248225370597e-07, 6.775128440494882e-06, 1.1094325458316234e-08, 1.1804908126578084e-06, 9.67941371499137e-09, 4.954216819896828e-06, 9.347511877422221e-06, 4.31235519515738e-10, 1.8611832274473272e-05, -5.952585091506535e-10, 2.320840849279193e-06, -6.856918730591133e-07, 1.1781846296798903e-05, 7.376418125204509e-07, -5.315849094245095e-08], [-0.13247880339622498, -0.0363924577832222, 0.016551531851291656, -0.05848664045333862, 0.011247185058891773, 0.06504983454942703, -0.05801882594823837, -0.005058131646364927, 0.00020801952632609755, 0.012134569697082043, 0.09021765738725662, 0.0006344522698782384, 0.027106687426567078, 0.0005830081645399332, 0.07085263729095459, -0.4675586521625519, -0.6478626728057861, 0.09407966583967209, 0.01798723079264164, 0.04927589371800423, -0.17255857586860657, 0.07306460291147232, -0.07235146313905716, -0.00023082869302015752, 0.10186444222927094, 0.09475689381361008, 0.22461062669754028, -0.00020600963034667075, -0.08430014550685883, -4.2362178646726534e-05, -0.14276546239852905, -0.1912289708852768, 8.178349526133388e-05, -0.2017403542995453, 0.00013314477109815925, 0.002942365361377597, 0.045603085309267044, -0.5220196843147278, 0.0889371708035469, -0.056953202933073044], [0.23016196489334106, -0.0027994986157864332, -0.13722386956214905, -0.027725890278816223, -0.004589493852108717, -0.060649845749139786, -0.007642379961907864, -0.011702620424330235, -3.1044903153087944e-05, -0.012191158719360828, 0.024166421964764595, -0.0001810676621971652, 0.0026074950583279133, -5.949663318460807e-05, -0.03919491544365883, 0.027961254119873047, 0.5366553068161011, 0.01614438369870186, -0.02988678589463234, -0.009230277501046658, 0.01769823022186756, -0.17501217126846313, -0.015186326578259468, -7.367110811173916e-05, -0.013392549939453602, 0.03641664609313011, 0.038757942616939545, -4.3281728721922264e-05, -0.01197851449251175, 1.227321172336815e-05, -0.007202688604593277, 0.08935656398534775, 3.530740286805667e-05, 0.22941142320632935, -4.778103902935982e-05, 0.011530609801411629, -0.0008161045261658728, 0.37925463914871216, 0.002278153318911791, 0.008679072372615337], [0.06986158341169357, -0.0036806222051382065, -0.02493143081665039, -0.0011389038991183043, -0.004009023308753967, -0.010092783719301224, -0.0007069391431286931, -0.005267201457172632, 5.7005559938261285e-05, -0.0009486976196058095, -0.0017253040568903089, 0.00025808345526456833, 0.001165039837360382, 2.8696342269540764e-05, 0.0033245254307985306, 0.00449190242215991, 0.17731881141662598, 0.008555728942155838, -0.009938955307006836, -0.0003441934532020241, 0.005329667590558529, -0.05642254650592804, -0.005708970129489899, -4.490242645260878e-05, -0.0062218112871050835, 0.011633926071226597, 0.00585662666708231, -6.410405330825597e-05, -0.003993222489953041, -7.712379738222808e-05, -0.003329026512801647, 0.011979897506535053, 2.7974843760603108e-05, 0.07098297029733658, -4.34171270171646e-05, 0.005144689232110977, -0.008761607110500336, 0.09724881500005722, -0.002692346926778555, 0.0014406184200197458], [0.03380180150270462, -0.02343679592013359, 0.019291073083877563, 0.025803089141845703, -0.001010657986626029, -0.03720344975590706, -0.0003028933424502611, -0.009825926274061203, 0.0003062594623770565, -0.027486609295010567, -0.011821440421044827, 0.0006126131629571319, -0.013779811561107635, 3.984778595622629e-05, 0.03657328337430954, 0.007563593797385693, 0.22806087136268616, 0.04488542303442955, -0.03830837830901146, 0.0003831976209767163, 0.025204364210367203, -0.05184106156229973, -0.02455299161374569, -0.0001209982146974653, 0.02946978248655796, 0.0226743184030056, 0.0017882183892652392, -0.00019894848810508847, -0.0032937428914010525, -0.0003739123058039695, -0.01113356463611126, 0.027783382683992386, -8.980112033896148e-05, 0.0564403161406517, -3.8459380448330194e-05, -0.012372083961963654, 0.012605536729097366, 0.03481094166636467, -0.003742645727470517, 0.002979751443490386], [-0.06560415029525757, 0.03950457647442818, 0.06350769102573395, 0.010073091834783554, 0.05039150267839432, -0.07467977702617645, 0.03494994342327118, 0.012477141804993153, -0.0002762303629424423, -0.02630513720214367, -0.023352252319455147, -0.0004851762787438929, -0.012196660973131657, 0.0001427118550054729, 0.1295090913772583, -0.06581883132457733, -0.38880452513694763, -0.044415369629859924, -0.018103517591953278, 0.044634316116571426, 0.04738117381930351, -0.001072096754796803, -0.012722370214760303, 0.0003072434919886291, -0.06499205529689789, -0.04421564191579819, -0.009744367562234402, -0.00024765386478975415, 0.052092574536800385, 0.0002733376168180257, 0.01059415191411972, -0.026093194261193275, -0.00014320721675176173, 0.011386502534151077, 3.314517016406171e-05, 0.014142428524792194, -0.03903195261955261, -0.3045452833175659, 0.014217241667211056, -0.04082038626074791], [0.03822368383407593, -0.0061493609100580215, -0.0043060253374278545, 0.013532646000385284, -0.006572939921170473, -0.016553794965147972, -0.012796971946954727, -0.017451224848628044, 5.1748873374890536e-05, -0.0016368585638701916, -0.01304328627884388, 0.000205644711968489, -0.006092428229749203, -0.00016146289999596775, 0.024280190467834473, -0.0013131595915183425, 0.19739264249801636, 0.03628307953476906, -0.020233958959579468, 0.0019455128349363804, 0.03043965995311737, -0.059750113636255264, -0.018873155117034912, -8.936847734730691e-05, 0.0018817557720467448, 0.014036552049219608, 0.010543827898800373, -3.893359826179221e-05, -0.017558785155415535, -0.00014017477224115282, -0.012088588438928127, 0.022378599271178246, 9.959666203940287e-05, 0.0589381642639637, -9.7127805929631e-05, -0.007529135327786207, -0.002574309939518571, 0.07921897619962692, 0.00124262401368469, 0.004747744183987379], [0.033113934099674225, 0.0008967561880126595, -0.01122004259377718, -0.04840169474482536, -0.01185694057494402, -0.05105895176529884, -0.021109603345394135, 0.0031437838915735483, 0.00031476348522119224, -0.002098917029798031, -0.003289395710453391, 0.00012935991981066763, -0.0016931118443608284, -0.0012280931696295738, -0.05083814635872841, -0.04124470427632332, -0.34506118297576904, 0.08149465918540955, -0.03408486768603325, 0.06815008819103241, 0.05526099354028702, 0.24136370420455933, -0.061624154448509216, 0.0004761364252772182, 0.04198918491601944, 0.06367606669664383, 0.032481804490089417, 0.0009483573376201093, 0.01682892255485058, -0.0005383984535001218, -0.0072827572003006935, -0.12111225724220276, -6.988409586483613e-05, -0.23954041302204132, 0.00016666021838318557, -0.07369748502969742, -0.03382844105362892, -0.38191404938697815, -0.0212265457957983, -0.02125488966703415], [0.08501920849084854, -0.011620361357927322, 0.01826832816004753, -0.015918102115392685, 0.006564739625900984, -0.0353185273706913, -0.005146604031324387, 0.014058154076337814, 9.205560490954667e-05, -0.007620473392307758, -0.0009208755800500512, -1.943202551046852e-05, -0.0009853392839431763, 4.8033900384325534e-05, -0.012766638770699501, -0.024279966950416565, 0.18137246370315552, 0.004651885014027357, -0.02980196103453636, -0.010913909412920475, 0.0036777821369469166, -0.002008152427151799, -0.006033953279256821, -3.4301370760658756e-05, -0.012714405544102192, -0.012788654305040836, 0.057860732078552246, -1.6663780115777627e-05, 0.009391860105097294, -8.356582111446187e-05, 0.013970519416034222, 0.014412208460271358, 5.4739928600611165e-05, 0.09618905186653137, -3.6808773984375875e-06, 0.016038723289966583, -0.022202877327799797, 0.047874823212623596, -0.005559954326599836, 0.007242264226078987], [-0.0035484207328408957, 0.005353593733161688, 0.01402908656746149, 0.0033158683218061924, -0.009921330027282238, -0.02129172347486019, 0.0002930386981461197, -0.021907737478613853, -4.654220538213849e-05, -0.023348281159996986, -0.045705001801252365, 6.493158434750512e-05, -0.006217148620635271, -0.0004682219587266445, 0.031670961529016495, 0.030614780262112617, 0.12516991794109344, 0.07355181127786636, -0.01505450438708067, -0.001180489780381322, 0.0106879360973835, -0.02558787539601326, -0.03310653939843178, -0.00017655214469414204, -0.010434969328343868, 0.023406419903039932, 0.018560562282800674, 0.00018317854846827686, -0.027890074998140335, -8.413733303314075e-05, -0.003804428270086646, 0.023049285635352135, 0.00017356757598463446, -0.010956107638776302, -0.0002479282265994698, -0.010939638130366802, 0.014285064302384853, -0.051501523703336716, -0.00244559021666646, 0.004138357471674681], [1.5089398402778897e-05, -7.693340080550115e-07, 3.0022692953934893e-06, -3.569878799680737e-06, -1.005699132861082e-07, -5.756315204052953e-06, 3.6715744045068277e-07, 9.341984537059034e-07, -2.3373844526553e-10, 2.473519202794705e-07, 1.7891929928737227e-06, 8.655056227269142e-09, -1.4489473869616631e-06, -1.9478492152558147e-09, 1.7195350665133446e-05, 1.0906670468102675e-05, 2.445506652293261e-05, -1.331162934548047e-06, -1.36611583911872e-06, -1.0556017286944552e-06, -1.8484015527064912e-06, -1.677459295024164e-05, 5.342071744962595e-07, 9.83970860346517e-09, -3.5408805842962465e-07, 2.9460595669661416e-06, 9.916455383063294e-06, 9.833259539959727e-09, 7.33305569156073e-07, 1.9836765563496783e-09, -7.619314601470251e-07, 6.638314062001882e-06, -2.330515502801944e-10, 2.509628211555537e-05, 6.625926030068285e-09, 2.5722085865709232e-06, 2.10164103009447e-06, 2.4377293811994605e-05, 1.241916834260337e-06, -2.6187070290006886e-09], [0.15106052160263062, -0.006669056601822376, -0.11771845817565918, -0.017071060836315155, -0.00628241803497076, -0.0389975979924202, -0.01896752044558525, -0.008398424834012985, -5.117278851685114e-05, -0.009578418917953968, 0.011469964869320393, -0.00012447958579286933, 0.0013525851536542177, -3.094037310802378e-05, -0.045439548790454865, 0.01031504850834608, 0.32631728053092957, -0.011004175990819931, -0.04185590147972107, 0.0068035367876291275, 0.0016546972328796983, -0.11865069717168808, -0.006982321385294199, 8.695936412550509e-05, -0.0067235128954052925, 0.020381847396492958, 0.030025092884898186, -6.083368498366326e-05, -0.004752606153488159, 3.086711876676418e-05, -0.006806206423789263, -0.008111659437417984, -5.7607456255936995e-05, 0.11887827515602112, 8.225112833315507e-05, -0.005975285544991493, 0.00973009318113327, 0.228785902261734, -0.0009784057037904859, 0.0008939444669522345], [0.04375486075878143, 0.008651423268020153, 0.0017260025488212705, 0.023510459810495377, -0.022979123517870903, -0.03382452204823494, 0.0062817358411848545, -0.022458504885435104, 0.00023395683092530817, 0.01787731796503067, -0.03838774561882019, 0.00020555101218633354, 0.04593947157263756, 0.00011105355952167884, 0.03695784509181976, 0.022726668044924736, 0.15255750715732574, 0.05660509318113327, -0.0005180545849725604, 0.011148856021463871, 0.0019540423527359962, -0.03971673920750618, -0.0463801845908165, -0.00014615300460718572, 0.034362874925136566, 0.05593620613217354, -0.02411000244319439, -1.7777449102140963e-05, -0.009579035453498363, -0.0002972960064653307, -0.015345762483775616, 0.031491708010435104, -0.0001361663598800078, 0.033578287810087204, 2.0899657101836056e-05, -0.016359630972146988, 0.011010421440005302, 0.0024945621844381094, -0.02332889847457409, -0.002083065453916788], [-0.007466846611350775, -0.06010312959551811, 0.01220820751041174, -0.0023789796978235245, -0.015177726745605469, 0.033894751220941544, -0.030824150890111923, -0.028958356007933617, 0.00010495166498003528, -0.014255985617637634, -0.04889969155192375, 0.0003295139176771045, 0.02166714519262314, -0.0004374876734800637, 0.04495825618505478, 0.06610014289617538, -0.007673116400837898, -0.017526010051369667, 0.02883671596646309, 0.004610342439264059, -0.0026832190342247486, 0.02997032180428505, 0.024185575544834137, 1.184856159852643e-06, -0.04953724518418312, 0.03880787268280983, -0.016775231808423996, 0.0002238876768387854, -0.018184635788202286, -0.0002846302231773734, -0.02360391430556774, -0.06138710677623749, 9.639596100896597e-05, -0.0338277705013752, -1.9394501578062773e-05, 0.017856929451227188, 0.015501054935157299, -0.04992341250181198, -0.027601679787039757, 0.01109943725168705], [4.345670276961755e-06, -3.462018185018678e-06, 1.5709645140304929e-06, 1.570601853018161e-06, 5.134258458383556e-07, -4.345581146480981e-06, 1.0746545058282209e-06, 1.146298814092006e-06, -1.573870200832772e-10, 1.8543158830652828e-06, 8.130663786687364e-07, -2.59782826361743e-08, 4.525992665094236e-07, 2.5525792590741503e-09, 4.9289828893961385e-06, 1.6353614000763628e-06, 1.9653286926768487e-06, -4.879903485743853e-07, -1.3924872064308147e-06, -5.719072646570567e-07, -5.10770951223094e-06, -2.8953443234058795e-06, -3.584139847134793e-07, -6.850128464463978e-09, 1.245238195224374e-06, 1.0658732207957655e-06, 2.79922824120149e-06, 2.8013866781861907e-09, -3.8805956137366593e-07, 5.373305134170892e-10, 5.248013508207805e-07, 5.4165980145626236e-06, 8.362880943302287e-10, 7.4633921940403525e-06, -2.0136798895009633e-09, 3.4829745345632546e-06, 8.399853754781361e-07, 3.99571081288741e-06, -2.784746300221741e-07, 6.200400548550533e-07], [0.10503315925598145, -0.0032710223458707333, -0.010454903356730938, 0.017026379704475403, -0.0017750684637576342, -0.030031660571694374, -0.006118409801274538, -0.021693136543035507, 1.2461506230465602e-05, -0.006886307615786791, 0.01147172786295414, 0.0003138381289318204, -0.0009089034865610301, -0.0002078112738672644, 0.02426627092063427, -0.01242021843791008, 0.2944171130657196, 0.013948136940598488, -0.032085515558719635, -0.001962054520845413, 0.004904049914330244, -0.10035300254821777, -0.005005091894418001, -0.00017048885638359934, 0.005115743260830641, 0.02353879064321518, 0.00910140573978424, -0.00019719102419912815, -0.010407409630715847, -0.00010343919711885974, 0.0006088617956265807, 0.0576598234474659, 0.0001519031065981835, 0.16349296271800995, -0.000186925710295327, -0.0020058441441506147, 0.0164242684841156, 0.19210441410541534, 0.0004547606804408133, 0.008571107871830463], [-2.7347630293661496e-06, -5.94766277117742e-07, 1.5631211454092409e-06, 1.0901162568188738e-06, 5.448117690320942e-07, 2.8835388548031915e-06, -5.834207854604756e-07, 3.0683975182910217e-07, 2.096484541525001e-09, -5.997575414085077e-08, -1.823665570555022e-06, -6.161937626814051e-09, 5.671896587955416e-07, 4.9586130757006686e-09, 8.826703492559318e-07, -1.3075236893200781e-06, -2.9026575703028357e-06, 8.681455483383616e-07, 2.2738063307770062e-06, -1.2597530485436437e-06, 1.0870654705286142e-06, -1.176438217953546e-07, 1.3603577997400862e-07, -8.062291390054099e-10, -5.47716638266138e-07, 5.73051011087955e-08, -8.658139449835289e-07, -3.920979096960764e-09, -5.210283120504755e-07, -7.535982393669372e-10, -2.8513935035334725e-07, -2.546117912061163e-07, -1.2904720625428467e-09, -1.2441627177395276e-06, 1.1676043465413954e-09, -1.1169433946633944e-06, -2.7301532554702135e-06, -1.1166129070261377e-06, 4.1796357663770323e-07, 6.865785451282136e-08], [0.04598741978406906, 0.013407209888100624, 0.02801194041967392, 0.037824325263500214, -0.0085741076618433, -0.014985770918428898, -0.009536238387227058, -0.01460476778447628, 1.929643622133881e-05, -0.012222654186189175, -0.02654057741165161, 0.00011354628077242523, -0.001134727499447763, -0.00021599546016659588, 0.04891951382160187, 0.023127902299165726, 0.25146543979644775, 0.024211661890149117, -0.02232445776462555, -0.004910530522465706, 0.02954043820500374, -0.07829888164997101, -0.020728955045342445, -0.00037720377440564334, 0.0006725426064804196, 0.029387272894382477, 0.003127642907202244, 3.984471914009191e-05, -0.011556575074791908, -0.00010007253877120093, -0.011998231522738934, 0.028971292078495026, 0.00031385969487018883, 0.09237059205770493, -0.00031620525987818837, 0.0019829650409519672, 0.0032018362544476986, 0.0779373049736023, -0.004223306197673082, 0.004637901205569506], [-0.09192945063114166, -0.1320866048336029, -0.0322563536465168, 0.0013992044841870666, -0.005116750951856375, 0.019743818789720535, -0.010216180235147476, -0.06425674259662628, -0.00010098221537191421, 0.0033593568950891495, 0.020617373287677765, -0.00040162852383218706, 0.028685618191957474, 0.00019669435278046876, 0.02555440552532673, -0.021904615685343742, -1.0029855966567993, 0.025478225201368332, 0.08529308438301086, -0.09965830296278, 0.004936568439006805, 0.35881364345550537, -0.024076875299215317, 0.000547060277312994, 0.043704431504011154, 0.050903063267469406, 0.0259326733648777, -0.0004198645183350891, -0.08338526636362076, 0.00042430218309164047, 0.028534764423966408, -0.18594646453857422, -0.0004527405253611505, -0.11446525156497955, 0.0005128670600242913, -0.028323791921138763, 0.03092990443110466, -0.32992732524871826, 0.00129272835329175, 0.0935719683766365], [1.4417561260415823e-06, 2.965406906696444e-07, 6.787564075239061e-07, -1.430153702131065e-06, 3.8334835039677273e-07, 7.973357440960172e-08, 3.50202583376813e-07, -1.7245190520043252e-07, -8.092743697396543e-10, -6.116987947279995e-07, -1.055533829230626e-07, -8.407046614422597e-09, 4.799403541255742e-07, 6.091301907318325e-10, 2.764176997516188e-06, -2.682352032934432e-06, 2.0029056031489745e-06, 3.2861078125279164e-07, 2.6837489031095174e-07, -5.184059546081698e-07, -1.334297223820613e-07, -1.1868361298184027e-06, -3.1803492106519116e-07, 7.43494432686731e-10, -9.381084851156629e-07, 1.509290257217799e-07, 1.191630417451961e-06, 1.8217974906420409e-09, -5.112896772629938e-08, 1.3972192292044383e-09, 1.2681057341978885e-06, -5.5373199359110004e-08, -5.16727105548398e-10, 2.2648623598797712e-06, 9.081402851940368e-10, -2.0273333234399615e-08, -2.8493327590695117e-06, 2.488027348590549e-06, -3.751828216991271e-07, -6.927547246959875e-08], [0.11933177709579468, 0.017980189993977547, 0.019249526783823967, -0.02929108217358589, -0.004894982557743788, 0.022116392850875854, -0.04921448603272438, -0.0036816850770264864, -3.347449455759488e-05, -0.04755009710788727, 0.02253134734928608, 0.0004195270885247737, 0.007508642505854368, -0.00019088279805146158, 0.12677323818206787, 0.44003960490226746, -0.7722475528717041, -0.0012492313981056213, 0.034134019166231155, 0.05545658618211746, 0.0044798096641898155, 0.02279384806752205, -0.08517923206090927, 6.391097122104838e-05, -0.030403176322579384, 0.026960788294672966, -0.0016404282068833709, 3.270640809205361e-05, 0.07072817534208298, 0.00015261211956385523, 0.0460631288588047, 0.01733226887881756, -0.000227391195949167, -0.14884935319423676, 3.953588384320028e-05, 0.17650799453258514, -0.0892442911863327, -0.3606167435646057, -0.05535246431827545, -0.007837600074708462], [-8.46017201183713e-07, -6.514981691907451e-07, 1.202051862492226e-06, -3.883705630869372e-06, 2.0199568950829416e-07, 1.3070506383883185e-06, 8.120146617329738e-07, 7.243590403049893e-07, -4.731727787365969e-10, 3.0050824761929107e-07, -1.3219097354522091e-06, -1.889218737005649e-08, -6.886123742333439e-07, 4.280370724529803e-09, 2.8694100819848245e-06, 2.020586634898791e-06, -1.1198645779586514e-06, 6.055431640561437e-07, 6.535359489134862e-07, -5.625917651741474e-07, -1.0782120085650604e-08, 9.48437218539766e-07, 8.976045506869923e-08, 1.879610023181044e-09, -1.8859819874705863e-06, -7.638682859578694e-07, 2.082458422592026e-06, 6.064979768405365e-11, -5.633578226138525e-08, 2.6416822063168865e-09, 1.4725892469868995e-06, -2.8859928988822503e-06, -1.75013858960682e-09, -7.9973494848673e-07, 3.420461247571893e-09, 1.2883622275694506e-06, -3.0644064281659666e-06, -5.421758828560996e-07, -1.6032271332733217e-07, 9.315007076793336e-08], [0.18834394216537476, -0.008408106863498688, -0.15946859121322632, -0.010687489062547684, 0.004339167382568121, -0.045656196773052216, -0.019290337339043617, -0.012126892805099487, 1.6265448721242137e-06, -0.02282627299427986, 0.016313062980771065, 6.0240578022785485e-05, 0.0034827743656933308, -0.0001470870920456946, -0.040375661104917526, -0.012742854654788971, 0.474943608045578, 0.0022952393628656864, -0.0021956891287118196, -0.009999864734709263, 0.005111568607389927, -0.1687062531709671, -0.008340597152709961, -0.00013035516894888133, -0.005636055022478104, 0.035738181322813034, 0.04808931052684784, -7.63484786148183e-05, -0.014417148195207119, -6.569805555045605e-05, -0.013746773824095726, 0.07576131075620651, 9.479107393417507e-05, 0.17950205504894257, -0.0001286504411837086, -0.0029322963673621416, 0.006957919802516699, 0.3416078984737396, 0.001773633062839508, 0.010643907822668552], [0.10263292491436005, 0.036135487258434296, -0.060257792472839355, -0.008016635663807392, 0.004094153642654419, -0.030914509668946266, 0.003375787753611803, -0.0038231087382882833, 8.3283439380466e-06, 0.006248812656849623, 0.00713683757930994, -7.63438583817333e-05, 0.004986662417650223, -0.00030707253608852625, -0.04158394783735275, -0.009445227682590485, 0.29117733240127563, -0.042611490935087204, -0.018036041408777237, 0.014677189290523529, 0.025457607582211494, -0.09152507036924362, 0.02461671642959118, 0.00015050816000439227, -0.0061623044312000275, 0.0032862736843526363, 0.020091133192181587, 0.00020965212024748325, 0.014240154065191746, 5.2634950407082215e-05, -0.011201760731637478, -0.002700764685869217, 5.394670006353408e-05, 0.02687784843146801, -4.1080093069467694e-05, 0.019472546875476837, 0.014996904879808426, 0.11151272803544998, 0.004600933287292719, -0.0025357098784297705], [0.019981950521469116, -0.005733306985348463, -0.004611802753061056, -0.011120934039354324, -0.0009789342293515801, -0.001639269175939262, 0.0073682391084730625, 0.008568883873522282, 0.00012976353173144162, -0.0030918156262487173, -0.02978213131427765, 0.00017608313646633178, 0.0074041662737727165, -0.00013864001084584743, 0.0019156807102262974, 0.009187264367938042, 0.17445671558380127, 0.0017384786624461412, 0.005190665367990732, -0.015895573422312737, 8.324806549353525e-05, -0.06433238089084625, 0.0077069890685379505, -9.609978587832302e-05, -0.01742437854409218, 0.006834265775978565, -0.0023059819359332323, 0.00019783324387390167, -0.005714479833841324, -0.00021841870329808444, -0.008833693340420723, 0.033667027950286865, -2.446851067361422e-05, 0.005336192436516285, -6.310859134828206e-06, 0.0005129658384248614, -0.0020578987896442413, 0.09193417429924011, 0.007309054955840111, 0.002557305386289954], [0.1054912656545639, -0.0057197799906134605, -0.010852774605154991, 0.005432686302810907, -0.008324692957103252, -0.027757419273257256, -0.005439935717731714, -0.024457577615976334, -8.280721885967068e-06, 0.0029375788290053606, -0.004000181797891855, 0.00013434099673759192, 0.005456332582980394, -0.000244164519244805, 0.0413929708302021, 0.012745526619255543, 0.32951369881629944, 0.01875261776149273, -0.023303747177124023, -0.0028322977013885975, 0.009048700332641602, -0.10559991747140884, -0.01237074937671423, -0.00019104524108115584, -0.002601014217361808, 0.03413824364542961, -0.005369330290704966, -9.98951363726519e-05, -0.015735629945993423, -8.706442167749628e-05, -0.006274095270782709, 0.0558273121714592, 0.00015758689551148564, 0.15329058468341827, -0.0001861535565694794, 0.004382013343274593, 0.001919127651490271, 0.21096332371234894, -0.00659191096201539, 0.006743528414517641], [0.1238994225859642, -0.00559215247631073, -0.024021785706281662, 0.009818821214139462, 0.0021910553332418203, -0.03139832615852356, -0.004130663815885782, -0.01062129158526659, -8.456770046905149e-06, -0.004949233960360289, 0.014431287534534931, 0.0002572990779299289, 0.0046764640137553215, -0.000338145240675658, 0.02817055583000183, -0.012421377003192902, 0.30062636733055115, 0.0068203783594071865, -0.023228302597999573, -0.008581407368183136, -2.7442347345640883e-05, -0.10974112898111343, -0.002806713804602623, -0.0001490884751547128, 0.004135186783969402, 0.022242914885282516, 0.028681175783276558, -1.2960133972228505e-05, -0.008207504637539387, -0.00010695228411350399, -0.0007406342192552984, 0.05678044632077217, 0.0001926640106830746, 0.17125548422336578, -0.00020823231898248196, 0.007170089986175299, 0.004197884816676378, 0.21171018481254578, -0.005997323431074619, 0.008096152916550636], [0.17870430648326874, 0.10542748868465424, -0.08736956864595413, -0.6618020534515381, 0.03136753663420677, 0.1733892261981964, -0.03973989933729172, 0.008261824026703835, 0.000402873323764652, 0.020594174042344093, -0.0010053892619907856, 9.197760664392263e-05, 0.01627493090927601, 9.727179713081568e-05, -0.021889448165893555, 0.10130908340215683, 1.054443359375, 0.131400465965271, -0.00902103167027235, -0.09739936143159866, -0.047257132828235626, -0.17604196071624756, -0.03983447700738907, 3.3864384022308514e-05, -0.21707341074943542, 0.11973290145397186, -0.003977407701313496, 6.116001168265939e-05, -0.020765254274010658, -0.00018426794849801809, -0.003487661248072982, 0.07442305237054825, 1.7630361980991438e-05, 0.10172043740749359, -0.00020024085824843496, 0.10833894461393356, -0.18326260149478912, 0.645138144493103, 0.040310088545084, 0.0044159963726997375], [0.10570026934146881, -0.0007543549290858209, -0.09147951006889343, 0.03867077827453613, 0.010901514440774918, 0.02897169068455696, 0.001096638385206461, 0.010562252253293991, -0.0004112876486033201, -0.01641065813601017, -0.01918385736644268, -0.0010051860008388758, 0.0068882848136126995, 0.0004110741429030895, -0.10313677787780762, -0.0030663665384054184, 0.3417013883590698, -0.010424270294606686, 0.010440511628985405, 0.007270929869264364, 0.06986992061138153, 0.020503299310803413, 0.007665106561034918, 1.9707958927028812e-05, -0.0604749359190464, -0.009678419679403305, -0.034535713493824005, -0.0002056817029369995, -0.005565990228205919, 0.0005105373566038907, -0.00859256274998188, 0.011923747137188911, -3.1233000754582463e-06, 0.005401762668043375, 2.953399052785244e-05, 0.011475895531475544, -0.007418259046971798, 0.08421558886766434, 0.0019335176330059767, -0.0015400787815451622], [0.08312267065048218, -0.07515131682157516, 0.06877298653125763, 0.014284840784966946, -0.043350156396627426, -0.13617275655269623, -0.05503231659531593, -0.07529079169034958, 0.0006007831543684006, 0.03351379558444023, -0.06250060349702835, 0.0008261891198344529, -0.014583813026547432, 0.00036334519973024726, 0.02036784589290619, -0.012496812269091606, 0.2432490438222885, 0.04100988060235977, -0.14462493360042572, 0.04029364511370659, 0.028240330517292023, -0.07867060601711273, -0.015878409147262573, -0.0003419095301069319, 0.10606338828802109, 0.11352428793907166, -0.01229916326701641, -0.00012632006837520748, 0.012097575701773167, -0.0007865429506637156, 0.016345422714948654, 0.003001115983352065, -0.00044547629659064114, 0.32438281178474426, 2.7454938390292227e-05, -0.003399296198040247, -0.045082565397024155, 0.10652624070644379, -0.041308097541332245, -0.012673144228756428], [-0.176534041762352, -0.03342186287045479, 0.06127852573990822, 0.03160462900996208, 0.00016745258471928537, 0.06567356735467911, -0.023746954277157784, -0.0032655075192451477, -0.00040569837437942624, 0.009286833927035332, -0.05380949750542641, -0.0010163489496335387, 0.004067430272698402, 0.00021674348681699485, 0.009904245845973492, 0.02606707438826561, -0.0784640982747078, 0.011410894803702831, 0.10176974534988403, 0.011165277101099491, 0.0032785057555884123, 0.1279265582561493, -0.029581759124994278, 8.002493268577382e-05, -0.017072385177016258, 0.028052104637026787, -0.0255427323281765, -0.00022527565306518227, -0.006157245021313429, 0.0005778755294159055, -0.005236772354692221, -0.07315648347139359, -6.168093932501506e-06, -0.035111721605062485, -2.7891994250239804e-05, 0.01113195065408945, 0.0013254520017653704, -0.14009805023670197, -0.013384835794568062, 0.0072292364202439785], [-0.08226528018712997, -0.007536489050835371, 0.04345453903079033, -0.012068449519574642, -0.007641303353011608, 0.01972702518105507, -0.0036572834942489862, 0.0036990754306316376, -3.002101402671542e-05, -0.0020014771725982428, -0.008614539168775082, -0.0002548320044297725, -0.0017983781872317195, -1.5450397768290713e-05, 0.00455034663900733, 0.023755595088005066, -0.16581253707408905, 0.0018364253919571638, 0.006712321657687426, 0.003631457919254899, 0.006637805141508579, 0.053602080792188644, -0.0016637364169582725, -3.521659891703166e-05, -0.006936598569154739, -0.016052061691880226, -0.013048375956714153, 8.936547237681225e-05, -0.001197795500047505, 2.311301614099648e-05, 0.0017882904503494501, -0.02925272099673748, -2.001120628847275e-05, -0.07801242917776108, 1.4508686035696883e-05, 0.0019987821578979492, 0.00748506560921669, -0.11886220425367355, -0.005044172517955303, 0.0006300848326645792], [0.23899272084236145, 0.013176295906305313, 0.18531383574008942, 0.055020906031131744, 0.010362681932747364, -0.11486031115055084, 0.03139077126979828, -0.0207651499658823, -0.0003951051621697843, 0.01331334188580513, 0.012498381547629833, 0.00010954809113172814, 0.009917592629790306, -0.00023583864094689488, 0.07596617192029953, -0.08314622938632965, 1.0144689083099365, 0.02243092842400074, -0.07752808928489685, 0.0005063992575742304, -0.07953871041536331, -0.14726291596889496, -0.02226850390434265, 0.0005932290805503726, -0.0007867678068578243, 0.01673988252878189, -0.022058822214603424, -0.0002717896131798625, 0.007929829880595207, 0.000412112771300599, -0.009239627048373222, 0.006666549947112799, -8.824300311971456e-05, 0.17634260654449463, 0.0005232110852375627, -0.024883218109607697, 0.016870124265551567, 0.4298550486564636, 0.009012659080326557, -0.015311862342059612], [0.0670781210064888, -0.0334727019071579, -0.0581449531018734, 0.02990049123764038, -0.004007960669696331, -0.03346165269613266, -0.007167147938162088, -0.005267549771815538, -2.9979319151607342e-05, -0.010130825452506542, -0.007336040493100882, -0.0002839752705767751, 0.005364281125366688, 0.00022021954646334052, -0.026367543265223503, -0.011201988905668259, 0.32518330216407776, 0.00631348742172122, -0.0261023361235857, 0.008338925428688526, -0.02245069295167923, -0.02617144212126732, -0.01761026494204998, -1.4650328921561595e-05, -0.0062458710744977, 0.02508375234901905, 0.02040662057697773, -0.0001199150356114842, 0.003265105653554201, 4.1485833207843825e-05, -0.0005148764466866851, 0.006257085595279932, -4.7181652917061e-05, 0.11329611390829086, 4.880466440226883e-05, -0.012751452624797821, -0.008516781963407993, 0.04659246280789375, -0.006288235075771809, -0.004454517737030983], [0.0592125728726387, -0.03906523063778877, -0.05996427685022354, 0.03562907502055168, 0.012688497081398964, -0.016417140141129494, -0.032363735139369965, -0.031191205605864525, -2.800478796416428e-05, -0.008102033287286758, -0.008030780591070652, -9.314935596194118e-05, -0.0008193171815946698, 0.0006966853397898376, -0.05027402192354202, -0.019541438668966293, 0.2412148118019104, 0.07058112323284149, -0.01098073460161686, 0.014794613234698772, 0.014262833632528782, -0.07124021649360657, -0.024002978578209877, 1.528511529613752e-05, -0.023941470310091972, 0.010012739337980747, -0.020421918481588364, -0.00045828951988369226, -0.013621111400425434, 2.108697844960261e-05, -0.024589668959379196, 0.03670103847980499, -0.00025636941427364945, 0.0646628811955452, 0.00028169338474981487, 0.008835574612021446, 0.02967177890241146, 0.04935292527079582, 0.011747611686587334, -0.004459100309759378], [-1.690808858256787e-06, -1.2942322769049497e-07, 1.2548913446153165e-06, 2.7718936053133802e-06, -4.344830628610907e-08, 7.071839149830339e-07, -5.88386967592669e-07, -1.586467419656401e-07, 1.1509827535505224e-09, 1.429714302503271e-07, -7.173898808332524e-08, 6.736585955735563e-09, 5.714784379051707e-08, -2.505317953094277e-09, -5.0914511717792266e-08, -3.144476750094327e-07, -3.3556113976374036e-06, 3.551339773366635e-07, 2.762678548151598e-07, 5.30543964316621e-08, 3.3548784017511935e-07, 4.625027258953196e-07, -4.342611532592855e-07, -2.3677582117187512e-09, 1.2589227935677627e-06, 2.2297115265246248e-07, -6.411855224541796e-07, -1.766655488566471e-09, -1.6620141707335279e-07, -3.1497866537222308e-09, -2.924807631643489e-07, 2.3068695043093612e-07, 9.050569182988966e-10, -9.130178568739211e-07, -1.9374004622818575e-09, -8.26055099878431e-08, 6.2225319652498e-07, -2.1200098672125023e-06, 2.3671859139540175e-08, 2.141294785928949e-08], [0.059979066252708435, -0.016619333997368813, -0.03604840114712715, -0.006221705581992865, -0.002450408646836877, -0.036166828125715256, 0.025728631764650345, -0.004898656625300646, -0.00011220932356081903, 0.019331522285938263, 0.00026357363094575703, -0.00029668386559933424, 0.011166335083544254, 0.0008660944295115769, -0.06950899958610535, -0.012107663787901402, 0.256956547498703, -0.008376892656087875, -0.04129376634955406, 0.011548998765647411, -0.04639499634504318, -0.007426552474498749, 0.016203848645091057, 4.319116851547733e-05, -0.0008571058278903365, -0.009675830602645874, 0.034604355692863464, -0.00032391893910244107, 0.025585656985640526, 9.818949911277741e-05, -0.002460025716573, 0.02148778736591339, -0.00013532349839806557, 0.03133881092071533, 0.0002676697913557291, 0.008631156757473946, -0.029197830706834793, 0.0425693579018116, -0.011811128817498684, -0.0036205577198415995], [0.15208245813846588, -0.01893426850438118, -0.023498622700572014, 0.01770676299929619, 0.01104299072176218, -0.04619291052222252, -0.024450572207570076, 0.020974790677428246, -0.00021440070122480392, -0.005544750019907951, 0.027775967493653297, -5.0784303311957046e-05, 0.0016148982103914022, -0.0002444651327095926, -0.05465494096279144, -0.04461212083697319, 0.45683059096336365, 0.011395938694477081, -0.03237605094909668, 0.014490681700408459, -0.05075973644852638, -0.06012626737356186, -0.011708011850714684, -0.00019685215374920517, 0.048103973269462585, 0.03411461040377617, 0.10577131062746048, 0.00020811977447010577, 0.015280901454389095, 0.0002654092095326632, -0.005157881416380405, 0.02212991751730442, 0.0003247989807277918, 0.1335497349500656, -0.00035130526521243155, -0.004098354373127222, -0.005444940645247698, 0.2188761830329895, 0.0017664500046521425, -0.015663009136915207], [-4.559532317216508e-05, -3.5820416087517515e-05, 8.54627724038437e-05, 8.767116014496423e-06, 1.1575340295166825e-06, 5.4664898925693706e-05, 2.0046090867253952e-05, 3.0071218134253286e-05, -4.611552384403694e-08, 5.756460268457886e-06, -5.5724449339322746e-05, -7.496099101444997e-07, -8.048783456615638e-06, 4.197825091978302e-07, 2.3408096240018494e-05, -3.276400457252748e-05, -1.6192741895793006e-05, 2.3566974050481804e-05, 3.875276888720691e-05, 1.7768039697330096e-06, 1.5713338143541478e-05, 3.70048001059331e-05, 2.2668195015285164e-05, 1.3256479292067525e-07, 1.7380011740897316e-06, -3.294215275673196e-05, -4.1914405301213264e-05, -3.3556584178029425e-09, 9.923700417857617e-06, 2.0323800242749712e-07, -1.7992567791225156e-06, -5.222607796895318e-05, -1.8311456528863346e-07, -1.5100225027708802e-05, 2.363043307695989e-07, -1.2634016457013786e-05, -1.8085227566189133e-05, -1.1424046533647925e-05, 2.2705258743371814e-05, -2.602475433377549e-05], [0.08068208396434784, 0.03433508053421974, -0.1237465962767601, 0.009993491694331169, 0.008500277064740658, -0.039369966834783554, 0.0038897234480828047, -0.01576649583876133, 0.0002917808888014406, -0.0006145347142592072, -0.009091169573366642, -0.00019851468096021563, -0.024483919143676758, 0.0010419745231047273, -0.10134850442409515, 0.0016184115083888173, 0.2926233410835266, 0.013271145522594452, -0.0028792826924473047, 0.02465188130736351, -0.03626159578561783, -0.0329337939620018, -0.01693654991686344, -6.35585529380478e-05, -0.05566046014428139, -0.00139050732832402, -0.02018999308347702, -0.00030321048689074814, 0.008242473937571049, -0.0003722601686604321, -0.019260093569755554, 0.03810923174023628, -0.00013611566100735217, 0.0027654734440147877, 0.00028326743631623685, 0.0059685357846319675, 0.018939761444926262, 0.013373643159866333, 0.010324256494641304, -0.008450847119092941], [4.234590960550122e-06, -2.815420202750829e-06, 7.747629751975182e-06, 2.8357944756862707e-06, 2.7557539397093933e-06, -5.636232344841119e-06, 2.040920435320004e-06, 4.059854745719349e-06, -2.23056972892266e-09, -3.5210209716751706e-06, 1.0599492270557676e-06, -6.47857163471599e-08, 1.1613503829721594e-06, 1.3169699997206408e-08, 5.2799250624957494e-06, -4.7907392399793025e-06, 2.884847560835624e-07, -1.5392960506233067e-07, -5.861667887074873e-06, -2.974905328301247e-06, -7.21195920050377e-06, -5.362928732211003e-07, 3.622634778821521e-07, -4.2425640778276374e-09, -9.46315708461043e-07, -2.2095600797911175e-06, 3.649528252935852e-06, 2.86318679876274e-09, 1.2458796163627994e-06, 8.412771812515984e-09, 4.6925888455007225e-06, 4.4879093366034795e-06, -9.622433960743138e-10, 7.7164486356196e-06, 3.7599687252587444e-10, 3.315377853141399e-06, 1.091383751372632e-06, -1.4222185029666434e-07, 9.436682830710197e-07, -4.935819788443041e-07], [0.2811051607131958, -0.0005282427882775664, -0.11051520705223083, 0.04383675381541252, 0.005535566247999668, -0.004048773553222418, -0.02050120197236538, 0.04069145396351814, -0.0002610286755952984, -0.009232882410287857, -0.03960449621081352, -0.0009904070757329464, 0.034868381917476654, 9.251780284103006e-05, -0.1345892697572708, 0.0866115540266037, 0.9658191204071045, 0.11179260164499283, 0.10789533704519272, -0.09140558540821075, -0.003579652402549982, -0.0776887908577919, -0.08765178173780441, -0.00019908072135876864, -0.06394968926906586, 0.04078390821814537, 0.03739983215928078, -0.00046880386071279645, -0.04419967159628868, 0.0003755473589990288, -0.05942919850349426, 0.07728299498558044, 0.0004973261966370046, 0.037067219614982605, -0.00040087540401145816, -0.0058167483657598495, -0.06971085071563721, 0.36809295415878296, 0.029367825016379356, 0.01889813505113125], [-0.003946429118514061, -0.028670089319348335, -0.0855797752737999, 0.040584880858659744, -0.019122246652841568, -0.03680616244673729, 0.0027451806236058474, 0.0065520829521119595, -1.543125108582899e-05, 0.012238483875989914, -0.025883499532938004, -0.00029630083008669317, 0.009420507587492466, -5.4031079343985766e-05, -0.17121879756450653, 0.062338072806596756, -0.038898225873708725, 0.02498451992869377, -0.02731446735560894, 0.014321612194180489, 0.050250567495822906, 0.06787281483411789, -0.038436707109212875, 5.761293141404167e-05, 0.017195260152220726, -0.04044320806860924, -0.012907793745398521, -6.568444950971752e-05, -0.01628780923783779, -4.634294964489527e-05, 0.00029046734562143683, 0.007528279908001423, -0.00016504035738762468, -0.12389383465051651, 0.0001556524366606027, 0.03961038589477539, 0.009174332953989506, -0.11570088565349579, -0.02471819706261158, 0.001203562831506133], [0.16453054547309875, -0.0017805531388148665, -0.04924103245139122, 0.016109157353639603, -0.0038937400095164776, -0.020772427320480347, -0.007548818364739418, -0.008115068078041077, 5.280426557874307e-05, -0.007080005947500467, -0.0005649278755299747, 0.00017836783081293106, 0.003109670476987958, -8.342219371115789e-05, 0.007999666966497898, -0.004613239783793688, 0.4674355983734131, 0.011836809106171131, -0.013508250005543232, 0.0006342079723253846, 0.006059112027287483, -0.1355469971895218, -0.007935321889817715, -8.499226532876492e-05, 0.0061351582407951355, 0.02652622014284134, 0.018769696354866028, 8.693589734320994e-06, -0.006693934090435505, -6.943986954865977e-05, -0.00715143047273159, 0.02195444144308567, 7.39114111638628e-05, 0.1441698670387268, -8.373466698685661e-05, -0.007263657171279192, -0.011033248156309128, 0.24076369404792786, -0.0025283312425017357, 0.00133707991335541], [0.07327661663293839, -0.03985145688056946, -0.0255504809319973, -0.023270320147275925, 0.0020815262105315924, -0.03871503472328186, -0.010605914518237114, -0.017065249383449554, 0.0002103810547851026, -0.0501830093562603, 0.0008458653464913368, 0.00016855006106197834, -0.05410384759306908, 0.0008332310826517642, -0.03266376629471779, -0.01260354369878769, 0.15010660886764526, -0.01467721164226532, -0.04853227362036705, 0.020221197977662086, -0.020618246868252754, -0.0035116258077323437, 0.01594657264649868, -1.1742099559342023e-06, 0.010457709431648254, -0.011249289847910404, -0.004182842560112476, -0.0004354316333774477, 0.009808426722884178, -0.00019910505216103047, 0.00018015882233157754, 0.013742710463702679, -0.00018466477922629565, 0.06209469586610794, 0.0002479480463080108, -0.009015534073114395, 0.0231014471501112, 0.051150888204574585, -0.0007837173761799932, 0.007719149347394705], [0.19780871272087097, 0.024493282660841942, -0.08108575642108917, 0.004275235813111067, 0.03451601043343544, -0.0519886314868927, -0.005015810951590538, 0.0016435550060123205, -0.0006416051764972508, -0.02698960341513157, -0.0018314149929210544, -0.0005502190324477851, 0.007935238070786, -0.00024372323241550475, -0.12763839960098267, -0.051852256059646606, 0.5981029272079468, 0.06290486454963684, 0.04151080548763275, -0.04185046628117561, 0.05782708153128624, -0.24534057080745697, -0.07360028475522995, 0.00015532708493992686, -0.08024393767118454, -0.0019614282064139843, 0.01129358820617199, 0.00014691779506392777, -0.011190022341907024, 0.0006603081710636616, -0.027706081047654152, 0.09745201468467712, 0.0001370748650515452, 0.10495046526193619, -0.00017439470684621483, -0.01122585590928793, 0.005693037528544664, 0.33694231510162354, 0.014518422074615955, 0.014768322929739952], [0.043947238475084305, -0.019054604694247246, -0.050905752927064896, 0.02588203176856041, -0.0035959994420409203, -0.013488334603607655, -0.0189414843916893, -0.025246987119317055, -0.00010182855476159602, 0.013261103071272373, -0.009427621029317379, -0.00022676351363770664, -0.0035382050555199385, 0.0009235099423676729, -0.024085579439997673, 0.0069455052725970745, 0.10865139961242676, -0.009935201145708561, 0.010569833219051361, 0.03265093266963959, 0.00226503680460155, -0.016235582530498505, 0.012875709682703018, -3.508449299260974e-05, -0.005389339756220579, -0.009565931744873524, -0.01775473728775978, -0.0003164212976116687, -0.013278262689709663, 0.00012987635273020715, -0.008958416059613228, 0.022170931100845337, -0.00011860227095894516, 0.03250456228852272, 0.00024756212951615453, 0.0002674035495147109, 0.02313876524567604, 0.05711684376001358, -0.010540399700403214, -0.002769728656858206], [0.22532440721988678, -0.06218774616718292, -0.13567543029785156, -0.09006550163030624, -0.027914784848690033, -0.09785576909780502, -0.05166352540254593, -0.06122260540723801, 0.00013417814625427127, 0.015162793919444084, -0.06281182914972305, -3.8665901229251176e-05, 0.0018240538192912936, -0.001521419733762741, -0.2160920947790146, 0.023073604330420494, 0.6219109892845154, 0.10734353959560394, -0.04123038426041603, 0.043177444487810135, 0.05552363768219948, -0.0217026025056839, -0.0764840766787529, 0.0005559189594350755, -0.012108578346669674, 0.09413480013608932, -0.05767903849482536, 0.0011434843763709068, -0.01572364568710327, -0.00029198385891504586, -0.029900508001446724, -0.017635224387049675, 5.3610889153787866e-05, -0.030269108712673187, -2.1677868062397465e-05, -0.01301250047981739, -0.05242186039686203, 0.15546907484531403, -0.027389926835894585, -0.010978261940181255], [0.14332883059978485, -0.04200888052582741, -0.02010793425142765, 0.022032974287867546, 0.007477219216525555, -0.05027550458908081, -0.008574116975069046, 0.017260219901800156, 3.956929867854342e-05, -0.012188288383185863, 0.010352550074458122, -6.943303105799714e-06, -0.0055101728066802025, 2.0463234250200912e-05, -0.06001269444823265, -0.017296472564339638, 0.42043453454971313, 0.0031128202099353075, -0.05857877805829048, -0.0071565848775208, 0.01094927079975605, -0.02785780094563961, 0.0003994100261479616, -6.557356391567737e-05, 0.01882845349609852, -0.021283814683556557, 0.1334204524755478, -1.6165788110811263e-05, 0.007558854762464762, -0.0001392578415106982, 0.025890806689858437, 0.04278714209794998, 4.3835938413394615e-05, 0.13914743065834045, 1.5964862541295588e-05, 0.011982453055679798, 0.023892421275377274, 0.13415682315826416, -0.015567381866276264, 0.01790584996342659], [0.06495595723390579, -0.014482637867331505, -0.05954068526625633, 0.02400483749806881, -0.014424709603190422, -0.02760077826678753, -0.03113374300301075, -0.027123747393488884, -4.208326936350204e-05, -0.029194992035627365, -0.014723658561706543, -0.0001826793741201982, -0.02360888570547104, 0.0005450777825899422, -0.09165333956480026, 0.010910526849329472, 0.2300151288509369, 0.014519105665385723, -0.04664100334048271, 0.020602265372872353, -0.011191313154995441, -0.025316620245575905, -0.02063574083149433, 0.00011950222688028589, 0.005582784302532673, -0.010781747289001942, -0.005579919088631868, -0.000430557643994689, -0.011210557073354721, 6.115398718975484e-05, 0.005737808998674154, -0.0017791809514164925, -0.0003122276393696666, 0.03007376566529274, 0.00025035295402631164, 0.012104029767215252, 0.02757824957370758, 0.048661019653081894, -0.010725312866270542, 0.0035567819140851498], [-2.2293652364169247e-06, -7.607117140651098e-07, 4.5455053623300046e-06, -3.4172944651800208e-06, -1.2101506285944197e-07, 1.3335774156075786e-06, 9.819849537962e-07, 1.707433284536819e-06, 2.9496411979579307e-09, 1.3518598507289425e-06, -1.3333245760804857e-06, 7.2112338322938285e-09, -1.789631483006815e-06, 1.0745017320346051e-08, 8.170915862137917e-06, 9.724995834403671e-06, -4.648773312965204e-07, -5.12207066094561e-07, 2.382598040640005e-06, -1.7503967342236137e-07, -1.8837126845028251e-06, -3.793162193233002e-07, 4.3481742295625736e-07, 9.229903952245877e-09, -1.007780028317029e-07, -6.967594572415692e-07, 4.017124865640653e-06, -4.244427476152168e-09, 1.3517521892936202e-06, 1.4380111545975183e-09, -6.823001399425266e-07, -1.9928745587094454e-06, -3.260480996303272e-09, 5.254091774986591e-07, 8.6067863946937e-09, 5.962496629763336e-07, 1.7037364159477875e-06, 8.735530627745902e-07, 1.401642180098861e-06, -7.5585762715491e-07], [0.051378339529037476, -0.029714880511164665, -0.12642450630664825, -0.03378929942846298, -0.034773219376802444, 0.007399007678031921, -0.035424698144197464, -0.01763186790049076, 0.0003716658102348447, -0.005982399918138981, -0.02026110701262951, 0.0005244207568466663, 0.0027730094734579325, -0.0006202560616657138, -0.16686329245567322, 0.07625392824411392, 0.0956524908542633, 0.026481138542294502, -0.02414630725979805, 0.013716859742999077, 0.03716130182147026, 0.004639968741685152, -0.029791878536343575, -3.5895138239538937e-07, -0.003927475307136774, 0.01085717510432005, 0.013206806033849716, 8.075156074482948e-05, -0.01315319538116455, -0.0005446681170724332, -0.020948247984051704, -0.12597544491291046, -3.364191343280254e-06, -0.11101310700178146, -0.0001320146257057786, -0.023099593818187714, -0.01940215565264225, 0.03032097965478897, -0.013777334243059158, 0.0032117124646902084], [0.09857582300901413, -0.003449639305472374, -0.09295600652694702, -0.013206799514591694, -0.019670935347676277, -0.04750305041670799, -0.0014901587273925543, -0.015645965933799744, 0.00013908022083342075, 0.01772281713783741, -0.0266971867531538, -0.0006005789618939161, 0.04273989796638489, 0.000987773179076612, -0.05525042861700058, -0.01223709899932146, 0.2514697313308716, 0.041923873126506805, 0.008169491775333881, 0.007080931216478348, -0.03722080588340759, -0.041267089545726776, -0.06096929311752319, -0.00023216263798531145, -0.008494343608617783, 0.05928235501050949, -0.09194595366716385, -0.00019460961630102247, -0.003652161918580532, -0.00012774851347785443, -0.01978251338005066, 0.03379274904727936, -0.00018622215429786593, 0.04797109216451645, 0.00023186590988188982, -0.014543102122843266, 0.006575463805347681, 0.0731758251786232, -0.02022482454776764, -0.004236621782183647], [0.20863361656665802, -0.0403343066573143, -0.12818926572799683, 0.04215610399842262, 0.009199424646794796, -0.029282154515385628, -0.03643611818552017, -0.03533054143190384, -1.4563613149221055e-05, -0.04666793718934059, -0.0009071691893041134, 0.00042742802179418504, -0.027275079861283302, -0.0006209678831510246, -0.12831126153469086, -0.10739567875862122, 0.4267156720161438, 0.028516948223114014, -0.061108361929655075, 0.0016480308258906007, 0.03176899999380112, -0.08057664334774017, -0.027792468667030334, 0.00032090628519654274, -0.06127247214317322, 0.007117042783647776, -0.061856117099523544, 0.0003976709849666804, 0.01558610238134861, -0.00028663381817750633, 0.026211215183138847, -0.01752527803182602, -1.5769026504131034e-05, 0.09339119493961334, 0.00020723954366985708, -0.013016453944146633, -0.05382729694247246, 0.23763339221477509, -0.0215360876172781, 0.003603775054216385], [2.18957279685128e-06, -2.981607394758612e-06, 1.8188129615737125e-06, 2.0936863620590884e-06, 7.004014719314e-07, -3.1655704333388712e-06, 1.2960381354787387e-06, 1.4765491869184189e-06, 2.773992702209682e-10, 1.9256826817581896e-06, 1.6352075249415066e-07, -2.5749466558977474e-08, 4.486094269395835e-07, 5.96337956793036e-09, 3.6817320960835787e-06, -1.1006455906681367e-06, 1.0138630841538543e-06, -2.9159255632293934e-07, -4.446053765150282e-07, -7.117939162526454e-07, -5.22358868693118e-06, -7.280988256752607e-07, -6.580255558219505e-07, -6.417160136606981e-09, 1.3875421700504376e-06, 6.870046718177036e-07, 1.482665879848355e-06, 5.547958759066773e-10, -5.890137089181735e-08, 9.877089146570484e-10, 4.668952726660791e-07, 4.437796633283142e-06, -3.463518361002116e-10, 5.029897693020757e-06, -1.2697584095278103e-09, 1.6285639503621496e-06, -7.51270903265322e-08, 2.0521674741758034e-06, -5.785952605918965e-09, 3.662048015939945e-07], [0.046574048697948456, -0.016415931284427643, -0.0585760660469532, -0.0032782494090497494, 0.005479580257087946, -0.020641067996621132, 0.0062864311039447784, -0.000653542228974402, 1.2567085832415614e-05, -0.0016441269544884562, 0.006216214969754219, 8.817754860501736e-05, -0.008042760193347931, 0.0001353216648567468, -0.07205086201429367, -0.011278382502496243, 0.037103164941072464, -0.015736384317278862, -0.01823517493903637, 0.01669122837483883, -0.007411282043904066, -0.003634649096056819, 0.017714286223053932, 0.00036140609881840646, -3.004358040925581e-05, -0.015721146017313004, 0.009368430823087692, -1.3297254554345272e-05, 0.008796372450888157, -5.923205208091531e-06, 0.02126890979707241, 0.01416128408163786, -0.0002605296904221177, 0.018911326304078102, 0.0002894848585128784, -0.006246673874557018, 0.0165165513753891, 0.03896810859441757, 0.007111028768122196, -0.00033004904980771244], [-4.165940936218249e-06, -5.661127033818047e-07, 1.925078549902537e-06, 1.6625236867184867e-06, 6.065166076041351e-07, 3.7750648971268674e-06, -4.769021302308829e-07, 3.970459658830805e-07, 2.6759143789689688e-09, 1.75563471316309e-07, -2.2479393919638824e-06, -7.849864758213698e-09, 4.598161922331201e-07, 7.562376502789903e-09, 3.866720277301283e-08, -1.29759439460031e-06, -3.916439254680881e-06, 8.535086521987978e-07, 2.5928879949788097e-06, -1.106877334677847e-06, 1.0895481636907789e-06, 8.21134960915515e-07, 1.0750922996294321e-07, -3.9079181557433174e-10, -1.9458352085166553e-07, -6.528136964334408e-07, -1.507417891843943e-06, -5.1682187418578e-09, -4.4098231910538743e-07, -4.683044507736156e-10, -1.6720632345368358e-07, -9.459607213102572e-07, -2.0470678485651206e-09, -2.521369196983869e-06, 1.7857106904273223e-09, -8.960830086834903e-07, -2.9943971640022937e-06, -2.2967767563386587e-06, 3.5133729170411243e-07, -2.8241373684068094e-08], [0.04160495102405548, 0.001566049293614924, -0.0752565860748291, 0.0023112462367862463, -0.013027718290686607, -0.016932515427470207, -0.0003637514600995928, -0.012746123597025871, 0.0001414374855812639, 0.011566332541406155, -0.017166655510663986, 0.00028569178539328277, 0.0018999078311026096, -0.00018653333245310932, -0.0692576915025711, -0.02661636471748352, 0.13167624175548553, -0.02550412341952324, 0.00035468547139316797, 0.02096296288073063, 0.012178114615380764, -0.013591043651103973, -0.002603011205792427, 0.0005470169126056135, -0.011508314870297909, 0.022137299180030823, -0.03678036853671074, -6.964303611312062e-05, 0.0038040163926780224, -0.0003068738733418286, -0.0034246877767145634, 0.01651449128985405, -0.0005169508513063192, 0.030153367668390274, 0.00042284230585210025, -0.027091607451438904, 0.0035153261851519346, 0.0743640661239624, -0.011140016838908195, -0.011189050041139126], [0.19804488122463226, -0.054332435131073, 0.00962535385042429, 0.06650218367576599, -0.0011452859034761786, -0.06106080114841461, 0.00621720589697361, -0.02461603656411171, -0.0001263243320863694, 0.01894896663725376, -0.02719426155090332, 4.2558192944852635e-05, 0.02146473526954651, -1.149307718151249e-05, -0.17906393110752106, -0.05446008965373039, 1.0092049837112427, 0.05118183046579361, -0.02397112548351288, -0.0425606295466423, -0.054894790053367615, 0.20510521531105042, -0.0300905779004097, 0.0001437360915588215, 0.12483906000852585, 0.08684687316417694, 0.0728689581155777, 0.00016491174756083637, -0.020880838856101036, 0.0002260424371343106, 0.0002435406786389649, -0.011071965098381042, 5.5087581131374463e-05, 0.11966100335121155, 0.00013917779142502695, -0.0022223866544663906, 0.027065947651863098, 0.49270039796829224, -0.0036408095620572567, 0.01800655946135521], [-6.420417548724799e-07, 2.8007701757815084e-07, 9.447018101127469e-07, -1.1937338513234863e-06, 3.8926583556531114e-07, 9.529186399959144e-07, 4.351483937625744e-07, 2.150827960178958e-08, -5.029620608887342e-10, -4.2638569652808656e-07, -4.993321454094257e-07, -9.519108168376533e-09, 3.798885472861002e-07, 2.7232958110801064e-09, 2.0544955532386666e-06, -2.2628696569881868e-06, -1.069157633537543e-06, 3.7465463265107246e-07, 7.507766781600367e-07, -3.5091778727291967e-07, -1.4956829375023517e-07, 9.068938879863708e-07, -3.1021389190755144e-07, 7.369239662935456e-10, -7.321689849959512e-07, -3.5671962450578576e-07, 5.849032049809466e-07, 2.1653047410641335e-10, 9.484665497438982e-08, 1.6027907889792914e-09, 1.1789458085331717e-06, -1.1993646467090002e-06, -1.0434721975371986e-09, -7.581076033602585e-07, 1.4802826742155162e-09, -1.0750458301345134e-07, -2.7636187951429747e-06, -4.777700155500497e-07, -2.434763075598312e-07, -2.195395154558355e-07], [0.3045528531074524, 0.027868974953889847, -0.03666950389742851, -0.004661025013774633, -0.02962426282465458, 0.06663163751363754, -0.009868782944977283, -0.04005056247115135, 2.226514698122628e-05, 0.002419812139123678, 0.020031046122312546, 0.00015738006914034486, -0.01404609251767397, -0.0001492619194323197, -0.1570894867181778, 0.2392377257347107, 1.0638868808746338, 0.07922537624835968, -0.10922270268201828, 0.04968984052538872, -0.0049993726424872875, -0.1685258001089096, 0.015159664675593376, 0.00021221225324552506, -0.04060084745287895, 0.04856504127383232, -0.011077363044023514, 0.00019438692834228277, -0.015455914661288261, -7.237148383865133e-05, 0.00719158910214901, 0.0239717997610569, -0.00014496689254883677, 0.13855496048927307, 5.3611503972206265e-05, 0.13516215980052948, 0.012515611946582794, 0.1715490221977234, -0.009991796687245369, -0.01585511490702629], [-1.5354263496192289e-06, -5.851977107340645e-07, 1.5846724181756144e-06, -4.048275059176376e-06, 2.1913105285875645e-07, 1.6395634929722291e-06, 8.278818768303609e-07, 7.14113298272423e-07, -2.485989469835914e-10, 3.444820890763367e-07, -1.5319322983486927e-06, -1.9192803790701873e-08, -6.769317337784742e-07, 6.009861497346947e-09, 2.935666088887956e-06, 2.7216069611313287e-06, -1.8774696854961803e-06, 7.177016527748492e-07, 9.385479984302947e-07, -5.737779815717658e-07, 1.3509850305126747e-07, 1.5526984498137608e-06, 1.0470712652477232e-07, 2.2553265921487764e-09, -2.057429583146586e-06, -9.3732273853675e-07, 1.9216238342778524e-06, -6.794161344636507e-10, -5.97356963893958e-09, 2.9203814921885396e-09, 1.4028254327058676e-06, -3.2206328341999324e-06, -2.2591375437031047e-09, -1.5368125332315685e-06, 4.029617528544804e-09, 1.185972678285907e-06, -3.1820579806662863e-06, -1.210983214150474e-06, -8.035594589728134e-08, 1.61999693659709e-08], [-0.07309956103563309, -0.04321037232875824, -0.15743109583854675, 0.04217764362692833, -0.017396308481693268, 0.008844258263707161, -0.025416536256670952, -0.023924261331558228, 4.6950557589298114e-05, -0.0003229691064916551, -0.05398060381412506, -0.00024943434982560575, -0.001945733092725277, 0.00010556822235230356, -0.1472788155078888, -0.0268383901566267, -0.09081569314002991, 0.014636900275945663, 0.07763241231441498, 0.01955491490662098, 0.014273378998041153, 0.03248942643404007, -0.02459588274359703, -7.558121433248743e-05, 0.006526636891067028, -0.0034927595406770706, -0.04900645837187767, -0.00023601780412718654, -0.031244413927197456, -6.939300510566682e-05, -0.0075446004047989845, 0.009449753910303116, -9.182128997053951e-05, -0.16945885121822357, 3.422773443162441e-05, -0.03260182961821556, 0.01165925245732069, -0.06458348780870438, -0.006370170973241329, 0.004499238915741444], [0.025025971233844757, 0.03979843854904175, -0.11050897091627121, -0.02234276756644249, 0.02854621410369873, -0.025488952174782753, 0.010210628621280193, 0.034883785992860794, -5.051894913776778e-05, -0.0275985449552536, 0.003734445432201028, -0.0006546727963723242, 0.0037612442392855883, -0.00029021152295172215, -0.11852483451366425, -0.01994631625711918, -0.04125411435961723, -0.1010764017701149, -0.009882355108857155, 0.0116549301892519, 0.003384724259376526, -0.0501396507024765, 0.07000447064638138, 0.0002816630876623094, -0.03992806375026703, -0.01780070923268795, -0.014432882890105247, 4.355971759650856e-05, 0.029159754514694214, 0.00020810592104680836, -0.029147973284125328, 0.001296759000979364, 1.5896475815679878e-05, -0.09099973738193512, 0.00012426974717527628, 0.023257294669747353, -0.01231202483177185, -0.10990729928016663, 0.03210712969303131, -0.02191510982811451], [-0.021897155791521072, -0.010122351348400116, -0.0033504520542919636, -0.020686712116003036, -0.002842893358319998, -0.005537645425647497, 0.03637884557247162, -0.0011446387507021427, 0.00018058718706015497, 0.023323750123381615, -0.056058138608932495, 0.0002857308427337557, 0.018061872571706772, -0.00026522399275563657, 0.012027036398649216, -0.019369103014469147, 0.4135701060295105, 0.03554366156458855, 0.025027558207511902, -0.029627038165926933, -0.0021181507036089897, -0.11951030045747757, 0.007903254590928555, -0.00015427258040290326, -0.01005344744771719, 0.03394017741084099, -0.02468135766685009, 0.0002890791220124811, -0.009258801117539406, -0.00041437186882831156, -0.002291266806423664, 0.09804769605398178, -2.454612695146352e-05, -0.014304779469966888, -3.948552330257371e-05, -0.01082577183842659, -0.021087544038891792, 0.16527630388736725, 0.004173658322542906, -0.00035477097844704986], [0.04009025916457176, 0.0010245706653222442, -0.044071294367313385, -0.0010542002273723483, -0.0033291212748736143, -0.014826031401753426, -0.002850176999345422, -0.002749677514657378, 7.020851626293734e-05, 0.012388327158987522, -0.016950219869613647, 0.00010049858974525705, -0.00849545281380415, 0.0002285120717715472, -0.039276424795389175, 0.02138282172381878, 0.0793774276971817, -0.0007017523166723549, 0.005536684300750494, 0.01714768446981907, 0.008976596407592297, -0.011603121645748615, -0.00306911114603281, 0.00027301281807012856, -0.019424183294177055, -0.00540360389277339, -0.01848890818655491, -0.00013462996867019683, -0.0032106603030115366, -0.00010849513637367636, -0.00322311301715672, 0.01583722047507763, -0.00030703580705448985, 0.015318583697080612, 0.00031356027466244996, -0.010264258831739426, 0.0033123488537967205, 0.04529521241784096, 0.0033297715708613396, -0.010587655007839203], [-0.007450552191585302, -0.00730695016682148, 0.005710903089493513, 0.013865004293620586, 0.002937957178801298, 0.0004563919792417437, 0.00048278525355271995, -0.002214031992480159, 2.9183867809479125e-05, 0.008131681941449642, -0.007522294297814369, -9.035826951730996e-05, -0.0018515384290367365, 0.0002206595818279311, -0.022849667817354202, -0.019822651520371437, -0.017501670867204666, 0.011355468071997166, -0.0011737545719370246, 0.0068100374191999435, 0.00013324606698006392, 0.008307951502501965, -0.0018280594376847148, 6.842691800557077e-05, 0.004564621951431036, -0.008891399949789047, -0.0055297669023275375, -2.672854134289082e-05, 0.0027158705051988363, 3.1261959520634264e-05, 0.0063981423154473305, 0.009880096651613712, -0.00011864647967740893, -0.014375110156834126, 0.00013821634638588876, -0.010708849877119064, -0.0012324482668191195, -0.024934884160757065, -0.010081583634018898, -0.003708168165758252], [0.3155291974544525, -0.04993968456983566, -0.20802606642246246, -0.5131099820137024, 0.029632002115249634, 0.01413794420659542, -0.10047003626823425, -0.05009248107671738, -3.2367130188504234e-05, 0.03001352772116661, -0.0826120674610138, 0.00011203403846593574, -0.00023081642575562, -0.0002686844381969422, 0.0968179777264595, 0.24961785972118378, -0.008234389126300812, 0.24722084403038025, 0.11992975324392319, -0.1480930894613266, -0.1917078197002411, 0.17079134285449982, -0.12529829144477844, 0.00032403398654423654, -0.11686117202043533, 0.15451554954051971, -0.1565403789281845, -0.0004315701371524483, -0.12247343361377716, -4.005117807537317e-05, -0.0520169772207737, 0.053601570427417755, -8.755332964938134e-05, -0.16122253239154816, 0.0001858897157944739, 0.17142821848392487, 0.30248451232910156, 0.11423834413290024, 0.05840480327606201, 0.005824396852403879], [0.20705927908420563, 0.23619544506072998, 0.05861804261803627, 0.011799724772572517, -0.1923476755619049, 0.02949133701622486, 0.14360526204109192, -0.49670425057411194, 6.050976298865862e-05, -0.1085401326417923, 0.15743419528007507, 0.000836285063996911, -0.11382151395082474, -0.00016086555842775851, -0.016096586361527443, -0.0015045100590214133, 0.05587143823504448, -0.04537416249513626, 0.32168322801589966, 0.0195605531334877, 0.16454264521598816, -0.09428209811449051, -0.008705870248377323, -0.00019870235701091588, 0.002175988396629691, -0.1459895372390747, 0.1062089055776596, 0.00023664135369472206, -0.13432426750659943, 0.00011906815780093893, 0.41089800000190735, 0.19930526614189148, 1.7879503502626903e-05, 0.10519251227378845, -0.00020331141422502697, 0.2489791363477707, 0.007925346493721008, -0.19027239084243774, -0.3071152865886688, 0.3199561834335327], [-0.17608129978179932, 0.01085277833044529, 0.35404109954833984, 0.012500489130616188, 0.006691982503980398, -0.023683961480855942, -0.008210397325456142, 0.012952663004398346, -1.603722012077924e-05, 0.027214914560317993, -0.015692351385951042, 0.0003796689270529896, -0.0025017508305609226, 0.00030089219217188656, 0.140941321849823, 0.11832772195339203, 0.04306269809603691, 0.02927687019109726, 0.016893360763788223, -0.05886176973581314, 0.08367332816123962, 0.013080543838441372, 0.004987524356693029, -0.0001362168841296807, -0.010274217464029789, 0.014241814613342285, 0.03712257370352745, 0.00029852805892005563, 0.04238443821668625, 0.00012069398508174345, 0.048636045306921005, -0.037760183215141296, 0.0003571065026335418, 0.6274506449699402, -0.0005712611600756645, 0.12919138371944427, 0.08222628384828568, 0.014868000522255898, 0.021074457094073296, -0.06036492437124252], [0.30013981461524963, 0.043773312121629715, 0.23041437566280365, 1.3051029443740845, 0.19406507909297943, -0.0064169554971158504, 0.04416962340474129, -0.04497138783335686, 0.0004244776791892946, 0.004247973207384348, -0.13770394027233124, 4.807732693734579e-05, -0.01533419732004404, 0.0002301552303833887, -0.15556791424751282, -2.328845500946045, -0.20531626045703888, -0.007293080911040306, 0.05248377472162247, -0.007972333580255508, -0.13750189542770386, -0.07314199209213257, 0.06456191092729568, -0.00030177924782037735, 0.17941860854625702, -0.018642455339431763, -0.036235880106687546, 0.00016149628208950162, 0.037681885063648224, -0.00043068674858659506, 0.08501847088336945, 0.07849729061126709, -0.00010508913692319766, 0.24093537032604218, 3.735772770596668e-05, -0.11859504133462906, -0.24050630629062653, -0.06998176872730255, -0.04017011821269989, 0.046073608100414276], [-0.05166321620345116, 0.009686279110610485, 0.024167953059077263, -0.12658949196338654, -0.3798290491104126, 0.06206851452589035, 0.013066044077277184, 0.16257323324680328, 3.3040840207831934e-05, -0.03308992460370064, -0.0324225127696991, -0.0005762544460594654, -0.03750494122505188, 0.00012655572209041566, -0.01561788097023964, -0.41186124086380005, 0.035810939967632294, -0.04820619150996208, 0.07416112720966339, -0.07176341116428375, 0.04687255248427391, -0.07551798969507217, -0.03535225987434387, 1.7741636838763952e-05, -0.21139435470104218, 0.017774323001503944, 0.13416261970996857, -1.040159804688301e-05, 0.1879555732011795, 1.612488631508313e-05, -0.13197670876979828, 0.09530645608901978, 6.615211896132678e-05, 0.02977471426129341, 0.0003672375751193613, 0.29768919944763184, 0.26527443528175354, -0.010706971399486065, -0.0029735160060226917, -0.4219265878200531], [0.0991683080792427, 0.4257693886756897, 0.03401273488998413, 0.2360445261001587, 0.09859037399291992, 0.5555376410484314, 0.022618990391492844, 0.1959078460931778, -2.6791620257426985e-05, -0.07559040188789368, 0.017036162316799164, 7.041032222332433e-05, -0.009310380555689335, -0.0002200573799200356, 0.056148942559957504, 0.19849428534507751, 0.02636585757136345, -0.09338124096393585, 0.20881208777427673, 0.007270823698490858, 0.04668320715427399, 0.08011005818843842, -0.0261676162481308, 0.00027855177177116275, -0.0030085069593042135, 0.05399726703763008, -0.04408907890319824, -4.32656379416585e-05, 0.1451692283153534, -0.0003011412627529353, -0.13558824360370636, 0.6132988333702087, -0.00024191808188334107, -0.07113640755414963, 0.00025794259272515774, -0.045354802161455154, 0.005063829477876425, 0.00435023196041584, 0.18391461670398712, -0.1500529944896698], [-0.0664467141032219, -0.09002034366130829, -0.04320530220866203, -0.04367363080382347, -0.06201869249343872, 0.07424534112215042, 0.4380910098552704, 0.2301909476518631, 2.1028079572715797e-05, 0.23988889157772064, 0.25676870346069336, -0.00105219054967165, 0.48923400044441223, -0.00010351680248277262, 0.045357540249824524, -0.029259638860821724, 0.011610249057412148, 0.04673061892390251, -0.15712858736515045, -0.13122501969337463, -0.0035315314307808876, 0.03991222381591797, -0.03239523619413376, -0.0003612527216318995, -0.040471628308296204, -0.10747087001800537, -0.14964559674263, -2.5589315555407666e-05, 0.007769040297716856, -8.202617027563974e-05, -0.06226148456335068, 0.042949892580509186, -0.0003007439081557095, -0.0509147085249424, 0.00012613424041774124, -0.004900628700852394, -0.039472389966249466, 0.003868849715217948, -0.03668488562107086, 0.04384312033653259], [0.1747419834136963, 0.04561373218894005, 0.011722180992364883, 0.15766692161560059, 0.02944445051252842, -0.06039772182703018, -0.20193789899349213, 0.2042035609483719, 0.00024881373974494636, -0.29041141271591187, -0.10931288450956345, -0.002308986382558942, 0.48516252636909485, 0.000455504865385592, -0.032073672860860825, 0.12067670375108719, -0.01537484023720026, -0.16480885446071625, -0.10530943423509598, -0.3262292742729187, 0.08117184042930603, -0.057401902973651886, -0.37021464109420776, -0.0006602127687074244, -0.0449867881834507, -0.00990037526935339, 0.04170515760779381, 0.0004611652111634612, -0.05521964654326439, 0.00022978881315793842, 0.16377797722816467, 0.15782196819782257, 0.00015589228132739663, 0.1528550535440445, -0.00019822853209916502, 0.1513628363609314, -0.24681790173053741, -0.03246625140309334, -0.10997547954320908, 0.11176367849111557], [-0.00030933579546399415, 0.000310220435494557, -0.0006826079334132373, 2.0241555830580182e-05, 0.00011343356891302392, 0.00021676174947060645, 0.00019562469969969243, -0.0001913991291075945, -3.6163437471259385e-06, -0.00010757651034509763, -0.0003065885975956917, -3.5871191357728094e-05, 0.0004552585305646062, 7.511831881856779e-06, -0.00022862627520225942, 0.0002889255993068218, 0.00036659935722127557, 0.00020544415747281164, -0.0010281209833920002, -0.00023247695935424417, 3.358336471137591e-05, -0.0002334500604774803, 0.00024592611589469016, -2.556005256337812e-07, -1.0624931746860966e-05, 4.4056047045160085e-05, 0.0001891481369966641, 1.0453142749611288e-05, -0.0002867839648388326, 5.8673090279626194e-06, 0.00020118644169997424, 0.0006753590423613787, -6.977531938900938e-06, -1.1367232218617573e-05, 8.62266642798204e-06, -0.0004591374599840492, -0.000424261117586866, -0.0002130058710463345, -0.00021914299577474594, 0.000438904418842867], [-0.0325300469994545, 0.0431746169924736, -0.02878429926931858, -0.03047669678926468, -0.019922232255339622, 0.032043904066085815, 0.08257675915956497, 0.36343979835510254, 7.950857252581045e-05, 0.25524482131004333, -0.10438214242458344, 0.0018222982762381434, -0.4593956172466278, 0.00028119751368649304, 0.014262376353144646, -0.05771820619702339, -0.023320816457271576, 0.2350805550813675, -0.12440530955791473, 0.1092674508690834, -0.046482574194669724, 0.026614518836140633, -0.7124794721603394, 0.00021000343258492649, -0.022952327504754066, 0.013211006298661232, -0.07604481279850006, 0.00048448832239955664, 0.00035313155967742205, 2.724611658777576e-05, 0.43947580456733704, 0.018170775845646858, 0.0001382834161631763, 0.0007385771023109555, -0.00012483129103202373, -0.030789395794272423, 0.11597026139497757, 0.2057797908782959, 0.020457318052649498, -0.02968536503612995], [0.2469266802072525, -0.21859626471996307, -0.011593212373554707, 0.03755379468202591, 0.052991077303886414, 0.018958469852805138, -0.02701929584145546, 0.27541112899780273, -0.0007452179561369121, 0.08960187435150146, 0.38896554708480835, -0.0006960827740840614, 0.1000545471906662, -3.766074587474577e-05, 0.10765280574560165, -0.14829611778259277, -0.10066395998001099, -0.07763229310512543, 0.11076392233371735, 0.0654606819152832, 0.1949213296175003, -0.09245932102203369, -0.019078651443123817, -0.00040507412631995976, 0.06809307634830475, -0.01592985913157463, 0.033758096396923065, 0.0004950370057485998, 0.05450853332877159, 0.0009156573796644807, -0.08255712687969208, -0.10980786383152008, 0.0009158648317679763, -0.09174716472625732, -0.0006503151962533593, -0.003428265219554305, 0.07508400082588196, 0.036570727825164795, 0.06480523943901062, -0.09063630551099777], [-0.000348868576111272, 0.0022177991922944784, -0.0007895430317148566, 0.0017451810417696834, 0.0012985924258828163, -0.00037240603705868125, 0.0010191603796556592, 0.0012484780745580792, 3.0121796953608282e-05, 0.00029578618705272675, -0.0015190895646810532, -1.4140780876914505e-05, 0.00015997959417290986, 3.962990012951195e-05, 1.8995237041963264e-05, -0.0032947261352092028, 0.0006943452754057944, 0.00020374135056044906, -0.0015829430194571614, 0.0003781938285101205, 0.0005358732305467129, -0.00042298046173527837, -0.0018962371395900846, 3.7938902096357197e-05, 0.0013061678037047386, -0.001151637639850378, 0.0010456411400809884, 2.5076556994463317e-05, 0.0021307398565113544, -1.2835103916586377e-05, 0.004527723416686058, 0.0004634511424228549, 1.3115775800542906e-05, -7.745945185888559e-05, 3.553368151187897e-05, -0.003037593327462673, -0.0020558787509799004, -0.0007246910245157778, -0.0016679881373420358, 6.633982411585748e-05], [0.003508396912366152, 0.0859893336892128, 0.0069769443944096565, -0.019612213596701622, -0.018144911155104637, 0.01941324956715107, -0.3914809226989746, -0.32593128085136414, -0.00019319831335451454, 0.5922227501869202, -0.019385231658816338, 0.0022641608957201242, 0.2439347505569458, -0.00047638584510423243, -0.008099243976175785, -0.009211845695972443, 0.034821052104234695, 0.2553686797618866, 0.019645964726805687, 0.19361194968223572, -0.06986609846353531, -0.004942036233842373, 0.06053825467824936, 0.00013557772035710514, 0.020593777298927307, -0.5278440713882446, 0.1450788378715515, -0.000522037036716938, 0.24748095870018005, 3.837928670691326e-05, -0.41206055879592896, 0.038612280040979385, 0.0001189846734632738, 0.04677312821149826, -0.0002069808979285881, 0.052703116089105606, -0.0018589271930977702, 0.053591981530189514, 0.061610542237758636, 0.11038768291473389], [0.00042721821228042245, -0.00023717014119029045, -0.00015432105283252895, -0.0003366980527061969, -0.00044044703827239573, -4.986401563655818e-06, -0.00032138332608155906, -0.0006298598600551486, -9.814588338485919e-06, 0.0009077680879272521, -7.09099622326903e-05, -5.8593668654793873e-05, 0.0007514316821470857, -9.241102816304192e-08, -0.000505958974827081, 0.0006371547933667898, -0.00010947191913146526, 1.25176266010385e-05, 0.00035952270263805985, 0.0005594022804871202, -7.535737495345529e-06, 0.00047124599223025143, 0.0008561239810660481, -1.8437615381117212e-06, -0.00020968329044990242, -0.0004924082313664258, -0.000180381495738402, 1.2451806469471194e-05, -0.0006258224602788687, 1.2771662113664206e-05, -0.0006417889962904155, -4.296296538086608e-05, -1.0954108802252449e-05, -0.0005123952287249267, 4.877183982898714e-06, -9.076225978787988e-05, 0.0005395799526013434, 0.00037250807508826256, -5.70300871913787e-05, 0.0002486642333678901], [-0.06079181656241417, -0.10089035332202911, 0.10340450704097748, -0.019330773502588272, -0.0014236600836738944, -0.034913014620542526, -0.04953613132238388, -0.0551096610724926, -0.0004720392753370106, 0.015220865607261658, -0.07378682494163513, -0.0007189902244135737, -0.0156607273966074, -0.000448487582616508, 0.4766388535499573, -0.492493599653244, -0.05675837770104408, -0.004818818997591734, 0.020570864900946617, -0.006279386579990387, -0.0478191003203392, -0.009955664165318012, 0.01847001165151596, 0.00016965277609415352, -0.06922455877065659, 0.017814792692661285, -0.04565770924091339, 0.0002946880704257637, -0.08809497952461243, 0.0006310916505753994, -0.03767668828368187, -0.09368917346000671, 0.00020421965746209025, -0.06723140180110931, 6.787128768337425e-06, -0.03745046630501747, 0.077457495033741, 0.137375146150589, -0.01234549842774868, 0.04139064624905586], [-0.21419376134872437, -0.2905034124851227, -0.47575846314430237, 0.27484115958213806, 0.3774186372756958, -0.026145778596401215, 0.007876813411712646, -0.24083492159843445, -0.0001721743610687554, 0.06816162914037704, 0.09647879004478455, 0.0008652193937450647, -0.06319169700145721, 7.285666652023792e-05, 0.4326794147491455, 0.02171468921005726, -0.046524468809366226, -0.0007930722204037011, -0.040539633482694626, -0.1252368539571762, 0.009675960056483746, 0.11653011292219162, -0.12996558845043182, 0.0004936362965963781, 0.11224457621574402, -0.026166172698140144, 0.061479564756155014, 0.00028876514988951385, -0.12506718933582306, 0.0006659119972027838, 0.13038094341754913, -0.14275942742824554, 0.00020505099382717162, -0.5437448620796204, -0.000467767909867689, 2.1274285316467285, -0.19646206498146057, 0.055122241377830505, -0.05258844792842865, 0.11917222291231155], [0.22692136466503143, -0.0012292774626985192, 0.010489732958376408, 0.034764841198921204, 0.0024973279796540737, -0.02563578262925148, 0.0032414179295301437, 0.03928917273879051, 0.0002256275765830651, 0.046959251165390015, -0.006900884211063385, 0.0015368586173281074, 0.029670847579836845, 9.224042878486216e-05, -0.009554857388138771, -0.20456387102603912, 0.3999001383781433, -0.05794158950448036, -0.012413461692631245, 0.037000566720962524, 0.02314389869570732, -0.061563268303871155, 0.0405961349606514, -0.00013832919648848474, 0.031317271292209625, 0.02853282354772091, 0.03904949873685837, 0.0005266453954391181, 0.02413751557469368, -0.00012587563833221793, 0.048128996044397354, 0.034917980432510376, 6.537610170198604e-05, 0.20624162256717682, -0.0001711773220449686, -0.11005666851997375, -0.034421466290950775, 0.18620780110359192, -0.028671439737081528, 0.00041778251761570573], [-0.20146596431732178, -0.13929910957813263, -0.03109469637274742, -0.2878687083721161, -0.06610023230314255, 0.18698295950889587, -0.0064190286211669445, 0.03949389234185219, -0.00022622605320066214, -0.10906914621591568, 0.12778787314891815, -0.0005237717414274812, -0.4997173249721527, 6.299102096818388e-05, 0.0213339701294899, 0.0075759426690638065, 0.10580720007419586, 0.21624891459941864, -0.06197698414325714, -0.3353637158870697, -0.19384539127349854, 0.04230247065424919, 0.11497649550437927, -0.00042821740498766303, 0.29710909724235535, -0.15587352216243744, -0.22647559642791748, -0.0005400793743319809, 0.017431700602173805, 7.871581328799948e-05, -0.43941453099250793, 0.09206964075565338, -0.0002343774540349841, -0.06574835628271103, 0.00012236679322086275, 0.07685133814811707, 0.010143734514713287, -0.2156141996383667, 0.08874494582414627, 0.04885987937450409], [0.08080920577049255, -0.5667352080345154, -0.02781716361641884, 0.21962039172649384, -0.1769087016582489, 0.22907674312591553, -0.012162897735834122, 0.0979684442281723, 0.0002469068276695907, 0.1153944581747055, -0.017596499994397163, 0.00010490737622603774, -0.02894517034292221, 0.00040709853055886924, 0.02504819631576538, 0.16395415365695953, 0.13977918028831482, -0.05829587206244469, 0.17772604525089264, 0.21599332988262177, -0.26025480031967163, -0.04846235364675522, 0.10946629196405411, -0.0002979843702632934, 0.13072361052036285, -0.10895488411188126, 0.05798542499542236, 4.5017754018772393e-05, 0.025136154145002365, -0.0001424392976332456, 0.11642785370349884, 0.5545231103897095, 0.00018745104898698628, 0.035277221351861954, -1.5278505088645034e-05, 0.05140497535467148, -0.6828755736351013, -0.11285179108381271, -0.14442062377929688, 0.03673696890473366], [0.18159767985343933, -0.11613457649946213, -0.0762578696012497, 0.26026296615600586, 0.15965096652507782, -0.1361508071422577, 0.03934621810913086, -0.11025774478912354, 0.0002770815044641495, 0.012946032918989658, 0.016284365206956863, 0.0009632107685320079, -0.30628177523612976, -2.3331383999902755e-05, 0.04442913085222244, 0.09679646790027618, -0.05205748230218887, 0.4864828884601593, -0.10275803506374359, 0.07403707504272461, 0.1859569251537323, -0.0003911138337571174, 0.08937986940145493, 0.00019378948491066694, -0.062042780220508575, -0.05004946142435074, 0.017611468210816383, 0.0004211865016259253, 0.4256163239479065, -3.29649010382127e-05, 0.053985629230737686, -0.0990704670548439, -0.00024657201720401645, 0.09110015630722046, 0.0006153780850581825, -0.04888118430972099, -0.08043020218610764, 0.05420126020908356, 0.15936391055583954, -0.2649630606174469], [-0.18567664921283722, 0.061439916491508484, -0.03507481887936592, -0.25992250442504883, -0.07768788933753967, -0.06473778188228607, -0.08802930265665054, 0.028099646791815758, 0.00040343220462091267, 0.0003504615160636604, -0.0021339079830795527, 0.00049785734154284, -0.029907215386629105, 0.0003696816856972873, -0.015340955927968025, 0.09451057016849518, 0.05728628486394882, -0.007157609798014164, 0.19110451638698578, 0.04994136840105057, 0.6053937673568726, -0.0582171231508255, -0.008476424030959606, 7.990035373950377e-05, 0.1856888234615326, 0.03417031466960907, -0.16292889416217804, -0.00019258426618762314, -0.014119134284555912, -0.0006697135977447033, -0.07245438545942307, 0.05914423242211342, -0.0004230528720654547, -0.05181990563869476, 0.0003829678171314299, 0.06343986839056015, 0.005867291241884232, 0.03204154595732689, 0.02855777181684971, -0.0018326005665585399], [0.22515513002872467, -0.020619258284568787, -0.11158908903598785, 0.01672801561653614, -0.04848301410675049, -0.10803459584712982, 0.0026525710709393024, 0.02322857826948166, 0.0009211894939653575, 0.051145996898412704, -0.006740010809153318, 0.001483961590565741, 0.020596206188201904, -0.00042642137850634754, 0.036130789667367935, 0.13055068254470825, -0.18812748789787292, 0.02702164649963379, -0.2985283136367798, 0.08280427753925323, -0.1295216679573059, 0.25738343596458435, -0.012310205958783627, -0.0007781836902722716, -0.042918767780065536, -0.06025005131959915, -0.07853610813617706, 0.00043290716712363064, -0.0022386270575225353, -0.0013870374532416463, 0.013875201344490051, 0.7209099531173706, 0.00020369616686366498, -0.06163227558135986, -0.0004765012999996543, 0.1672782599925995, 0.18108385801315308, 0.18563611805438995, -0.046431951224803925, -0.02358635887503624], [0.12962812185287476, -0.1394270956516266, 0.07454656809568405, 0.07892785221338272, 0.07425250858068466, 0.05770883336663246, 0.3222982585430145, 0.17853927612304688, 0.00022759677085559815, 0.6487280130386353, -0.08055812120437622, 0.0026563850697129965, -0.19829297065734863, -0.0008300436893478036, -0.04632731154561043, 0.04495369270443916, 0.02649264596402645, -0.1980622410774231, -0.0847063958644867, 0.054451167583465576, 0.19729380309581757, -0.1028500348329544, 0.2105502188205719, 0.0008381071384064853, -0.15476612746715546, 0.2245936095714569, 0.17030435800552368, -0.0003741898399312049, -0.03540283814072609, -0.00024155218852683902, -0.24457450211048126, -0.0008707568631507456, 0.0006057749269530177, 0.025164570659399033, -0.0005190293304622173, 0.026783106848597527, 0.08636011928319931, 0.06138429045677185, 0.04481761157512665, 0.009015181101858616], [-8.251613326137885e-05, 0.00013409352686721832, -6.220507202669978e-06, 0.00019196199718862772, 0.00019100788631476462, 0.00013969129940960556, 0.0006369632319547236, 0.00027493739617057145, 9.911980669130571e-06, -0.001584710436873138, -0.00012536213034763932, 1.668045842961874e-05, 6.03542648605071e-05, 8.78295031725429e-06, 0.0001563539553899318, -0.0011815966572612524, -0.00012997284648008645, -0.00024762205430306494, -0.00036557798739522696, -0.0007825843058526516, -0.00015349799650721252, 0.0003274221671745181, -0.0005835073534399271, -7.15597764155973e-07, -0.00010315452527720481, 0.0003817194083239883, -0.0002723880170378834, 1.2354663340374827e-05, 0.0004849647812079638, -7.200994787126547e-06, 0.001065924996510148, -0.0002218748559243977, 3.359813035785919e-06, 0.00022294180234894156, 1.8283167264598887e-06, -0.0004256312095094472, -0.00026175714447163045, 0.0005805366090498865, -0.0005909589235670865, -9.920389857143164e-06], [0.08189495652914047, 0.05243205651640892, 0.02927825227379799, 0.17163735628128052, 0.03251097723841667, -0.08164221048355103, -0.025578301399946213, 0.006815999746322632, 0.0005397310596890748, -0.0950179472565651, 0.08184864372015, 0.0005845825653523207, 0.0009407650213688612, -0.0005399382789619267, -0.026493163779377937, -1.0794765949249268, 0.0021177944727241993, -0.01791170984506607, -0.040182530879974365, 0.11459619551897049, -0.021368978545069695, 0.06969746202230453, -0.03508313000202179, -3.0127142963465303e-05, 0.6997140645980835, -0.05427044630050659, 0.0271269790828228, -0.0005319840856827796, 0.1356590986251831, -0.0006765361176803708, -0.04128791391849518, 0.01417678501456976, -0.00013275335368234664, 0.28158190846443176, 0.00023064485867507756, -0.31267470121383667, -0.5705616474151611, 0.01815074123442173, -0.06744595617055893, -0.13517700135707855], [0.04824470356106758, 0.06850980222225189, -0.01809307374060154, -0.06966191530227661, -0.10733475536108017, 0.043242935091257095, 0.17910236120224, -0.06048951297998428, -0.00033893215004354715, 0.05341818928718567, -0.2657869756221771, -0.0029247435741126537, 0.6336526274681091, 0.0006375957746058702, -0.0010523837991058826, -0.03954879567027092, 0.0048294938169419765, 0.042013805359601974, 0.0820862203836441, -0.14646930992603302, 0.011316240765154362, 0.0649879202246666, -0.13008029758930206, -0.0007323704776354134, 0.20236478745937347, 0.34041133522987366, -0.03774980455636978, 