{"model_data": {"model": "SimpleRNN", "input_size": 1, "skip": 1, "output_size": 1, "unit_type": "LSTM", "num_layers": 1, "hidden_size": 40, "bias_fl": true}, "state_dict": {"rec.weight_ih_l0": [[0.0337296724319458], [-0.00565257528796792], [0.18566779792308807], [0.03316893428564072], [0.0046873996034264565], [0.015766019001603127], [0.012063149362802505], [0.007790619973093271], [5.1675760914804414e-05], [0.008479151874780655], [0.053486861288547516], [2.766308625723468e-06], [0.017691882327198982], [0.02288036420941353], [-0.2912388741970062], [-0.02003112994134426], [0.12737394869327545], [0.03882009908556938], [-0.006123736035078764], [-0.011252406984567642], [0.12550215423107147], [0.03543667495250702], [0.01811816543340683], [0.027433345094323158], [-0.06813014298677444], [0.009855062700808048], [0.0037859627045691013], [0.008684820495545864], [-0.007351457607001066], [0.0033480164129287004], [-0.022330109030008316], [0.09043566137552261], [0.013847606256604195], [0.27736133337020874], [1.2900644605906564e-06], [0.033423569053411484], [-0.022704964503645897], [0.0238465815782547], [0.0007702436996623874], [-0.003977394197136164], [-0.09585316479206085], [0.04453958198428154], [0.16037710011005402], [-0.08584116399288177], [0.014323344454169273], [-0.14876435697078705], [-0.01723833754658699], [-0.031339678913354874], [4.986396015738137e-05], [0.0009493999532423913], [0.10407337546348572], [2.93903849524213e-06], [0.002458130242303014], [0.017970867455005646], [-0.3306235074996948], [0.019976947456598282], [0.1585070937871933], [0.02102750912308693], [0.03025277890264988], [-0.02412906475365162], [0.17048954963684082], [0.15083757042884827], [-0.013132698833942413], [0.041791170835494995], [-0.09824766218662262], [-0.001278130104765296], [0.008531035855412483], [-0.056470442563295364], [-0.007160182110965252], [0.022573107853531837], [0.011202015914022923], [0.05957374721765518], [0.016863252967596054], [0.31170153617858887], [1.2589403013407718e-06], [0.0597502738237381], [-0.09489642083644867], [0.029382038861513138], [0.0002706136729102582], [0.007566728629171848], [-0.1778673678636551], [-0.561352014541626], [-0.27545619010925293], [0.33736753463745117], [-0.4050772190093994], [0.25420817732810974], [0.016797473654150963], [-0.33220717310905457], [-0.001082233153283596], [0.1263102889060974], [0.3193501830101013], [-0.0007061023497954011], [-0.11455842852592468], [-0.0441773496568203], [-0.050880033522844315], [0.11589428037405014], [0.06296011060476303], [-0.07486344873905182], [-0.33969220519065857], [-0.02856620028614998], [0.1518857628107071], [0.15531696379184723], [-0.04775521531701088], [0.0039657666347920895], [-0.08541461825370789], [-0.08776602149009705], [0.047983281314373016], [-0.06573541462421417], [-0.07194452732801437], [0.13518662750720978], [0.16805461049079895], [-0.3180173933506012], [-0.26825329661369324], [0.21085987985134125], [-0.00026320506003685296], [1.7073694467544556], [-0.16654115915298462], [-0.2593704164028168], [-0.06308170408010483], [0.3536076545715332], [-0.08305276185274124], [-0.02938733622431755], [0.17869526147842407], [0.013257898390293121], [0.009468331933021545], [-0.10521963238716125], [0.0339323915541172], [-0.05793660506606102], [5.1195063861086965e-05], [0.008924636989831924], [0.031311821192502975], [2.6203281322523253e-06], [0.01700797863304615], [0.027495356276631355], [-0.34161972999572754], [-0.008718491531908512], [0.17846140265464783], [0.0420684814453125], [-0.0019980764482170343], [-0.015608135610818863], [0.0627765953540802], [0.22541600465774536], [0.023579902946949005], [0.03452210873365402], [-0.07478614151477814], [0.004222754389047623], [-0.027263060212135315], [0.020747197791934013], [-0.02107963338494301], [0.008295276202261448], [-0.02441730722784996], [-0.026270287111401558], [0.015248571522533894], [0.09136440604925156], [6.200488655849767e-07], [0.13851892948150635], [-0.02476695366203785], [-0.402378648519516], [0.0011610451620072126], [0.0036120042204856873]], "rec.weight_hh_l0": [[-0.0042669507674872875, 0.020915715023875237, 0.31867119669914246, -0.01602911576628685, -0.2625351548194885, 0.06469213217496872, 0.05840850993990898, 0.02000267617404461, -0.001853223075158894, -0.09799129515886307, 0.06116916984319687, 0.0014760138001292944, -0.03467622771859169, -0.06536909192800522, 0.4116823077201843, 0.3734416365623474, -1.0658074617385864, -0.030746588483452797, 0.031184261664748192, 0.004324132110923529, 0.1573401391506195, 0.2809487283229828, -0.0004665633896365762, -0.08867545425891876, 0.42604807019233704, 0.04805084690451622, 0.10655374825000763, 0.14646875858306885, 0.10038798302412033, 0.01800953969359398, 0.0327066108584404, -0.15505550801753998, -0.04515654221177101, -0.03190408647060394, -0.0005495985387824476, 0.02508813701570034, -0.12481346726417542, -0.7536810040473938, 0.05320604518055916, 0.016583958640694618], [0.03386768326163292, 0.10064897686243057, 0.030648326501250267, 0.014091970399022102, -0.0369420126080513, -0.026504546403884888, 0.0348956435918808, -0.017939751967787743, -5.0850154366344213e-05, 0.014402765780687332, 0.014300075359642506, 6.262104579946026e-05, -0.027311425656080246, 0.005702235270291567, 0.10276015847921371, -0.004154467023909092, 0.07664336264133453, 0.001954279374331236, -0.024874867871403694, -0.010983745567500591, -0.027013598009943962, -0.00016245426377281547, -0.03714407980442047, -0.007462389301508665, 0.04927557334303856, -0.004862076602876186, -0.0047668395563960075, 0.05903049558401108, 0.013929612934589386, -0.013315613381564617, -0.016552867367863655, 0.021378539502620697, 0.005187705159187317, 0.06406211853027344, 0.00011300571350147948, 0.011699849739670753, 0.04606146737933159, 0.013623133301734924, 0.0009522736654616892, -0.0014796790201216936], [-0.20105203986167908, -0.03578101471066475, 0.14529938995838165, -0.04944402724504471, -0.06207767128944397, -0.1376817524433136, 0.0445132777094841, -0.006479295436292887, -0.00044114384218119085, 0.015227644704282284, 0.09075244516134262, -0.0001069977370207198, -0.01233755424618721, -0.00374204502440989, -0.13450734317302704, 0.02131962962448597, -0.09563405066728592, -0.002629828406497836, -0.050637807697057724, 0.0006958860321901739, -0.0021621217019855976, 0.010344781912863255, -0.023910075426101685, 0.025963470339775085, 0.015522448346018791, 0.02290215715765953, 0.0021763951517641544, 0.08538573980331421, -0.020387113094329834, -0.03850185126066208, -0.029727280139923096, -0.045049384236335754, 0.021879535168409348, 0.34228360652923584, -0.00011075407383032143, 0.16378138959407806, 0.05727960914373398, -0.17170992493629456, -0.008618935011327267, -0.01601107232272625], [0.009398524649441242, -0.019527310505509377, 0.052903980016708374, 0.014084591530263424, 0.008870049379765987, -0.0768568366765976, 0.05914715304970741, 0.05083537474274635, 0.00024078496790025383, 0.013690640218555927, 0.0724758729338646, 0.00014142371946945786, 0.015204097144305706, 0.0500810369849205, 0.21109378337860107, -0.002027667360380292, 0.4683789908885956, 0.01771717518568039, 0.018466921523213387, -0.0042561995796859264, -0.02319837361574173, -0.05406174436211586, -0.010085277259349823, 0.05033058300614357, -0.08281257748603821, 0.02201629802584648, -0.057288575917482376, 0.021317150443792343, 0.016182441264390945, -0.014351083897054195, 0.0024769979063421488, -0.027040909975767136, 0.014990382827818394, 0.272311806678772, 8.485159196425229e-05, 0.0775163546204567, 0.001326471334323287, 0.24318139255046844, -0.0036267137620598078, 0.0072556957602500916], [0.0311098862439394, -0.005424255505204201, -0.0006181522039696574, -0.0221128948032856, -0.009963983669877052, -0.027379538863897324, 0.021701645106077194, 0.03143645450472832, -0.00022290641209110618, -0.022347642108798027, -0.0005508920876309276, 6.495033176179277e-06, -0.005611068569123745, 0.016624577343463898, 0.07974795997142792, -0.016501596197485924, 0.31500422954559326, 0.007201837375760078, -0.007266414817422628, -0.005847275722771883, 0.02363666146993637, -0.062429871410131454, -0.022948436439037323, 0.04243941232562065, -0.016704151406884193, 0.011898495256900787, -0.013867000117897987, 0.03438251465559006, -0.0005481154075823724, 0.000753577973227948, 0.013218142092227936, -0.0301150344312191, 0.008313844911754131, 0.05153319239616394, -2.1950301743345335e-05, 0.02310454100370407, -0.007654879707843065, 0.1574004739522934, -0.0015859439736232162, -0.006368577480316162], [-0.2596004009246826, -0.28559207916259766, -0.07138318568468094, -0.03224199265241623, 0.07098864763975143, -0.15947718918323517, -0.1420179009437561, 0.16820375621318817, -0.003959723748266697, -0.046217191964387894, 0.16879889369010925, -0.00017724699864629656, 0.045752182602882385, 0.04185331612825394, -0.09172451496124268, -0.008502243086695671, -1.2143090963363647, -0.015413179993629456, 0.10328030586242676, 0.014469404704868793, -0.0027628890238702297, 0.6265649199485779, -0.16821911931037903, 0.20967459678649902, -0.05947240814566612, 0.010801849886775017, -0.03035772033035755, 0.0008349569397978485, -0.06405343115329742, 0.06470739096403122, -0.03228157386183739, -0.2960929870605469, 0.07745534181594849, -0.13640542328357697, -0.00024409701291006058, -0.04230396822094917, -0.30502089858055115, -0.40014517307281494, -0.017793705686926842, -0.0070460159331560135], [-0.07088819146156311, -0.032423388212919235, 0.12743280827999115, -0.13321734964847565, -0.024342618882656097, 0.038826391100883484, 0.02937140315771103, 0.032650455832481384, 0.0005740608321502805, 0.007182680070400238, 0.04493505507707596, 0.00014056317741051316, 0.010694037191569805, 0.0037020889576524496, 0.1838703155517578, 0.056582171469926834, -0.2375616580247879, -0.0044621373526751995, 0.06259869039058685, -0.01951301284134388, 0.045037511736154556, -0.010510200634598732, -0.015590822324156761, 0.06962288171052933, 0.006292352918535471, 0.01239117980003357, -0.03849802911281586, 0.07872597873210907, 0.07697037607431412, -0.012430026195943356, -0.013262981548905373, -0.06639118492603302, 0.007419989909976721, 0.07778483629226685, 0.00028614653274416924, -0.0067876479588449, -0.05844280868768692, -0.22077308595180511, 0.00242775515653193, -0.02872239239513874], [0.029147086665034294, 0.001735983300022781, 0.017655428498983383, 0.013133428059518337, 0.005063339602202177, 0.0014271619729697704, -0.005837657954543829, 0.05202493071556091, -0.00041190924821421504, -0.0017862109234556556, 0.016851915046572685, 3.153310535708442e-05, 0.029956450685858727, 0.004599328618496656, 0.028615890070796013, -0.027961490675807, 0.14734713733196259, 0.00880368147045374, 0.01731373369693756, 0.012175410985946655, 0.01164308562874794, -0.0325947031378746, -0.03925721347332001, -5.485936708282679e-05, 0.009827431291341782, 0.02406165562570095, 0.00628913938999176, 0.00954103097319603, 0.027311155572533607, -0.004935633856803179, 0.020433686673641205, -0.02499391883611679, 0.010614912956953049, 0.07885907590389252, 7.179813110269606e-05, 0.03817223384976387, -0.029132753610610962, 0.05564353987574577, -0.004730905871838331, -0.013773102313280106], [2.3468510335078463e-05, -4.2738098272820935e-05, -1.9577767034206772e-06, 0.00011544950393727049, -1.5971549146343023e-05, -9.06281729839975e-06, 2.5633955829107435e-06, 9.144797331828158e-06, -2.7899778842765954e-07, 1.7104690414271317e-05, 0.00010313203529221937, 6.733306889827873e-08, -4.314552370487945e-06, 2.7921236323891208e-05, -2.9952183467685245e-05, -2.636277895362582e-05, 4.340176747064106e-05, -4.389582954900106e-06, 4.074005119036883e-05, -2.3200433133752085e-05, -2.1671312424587086e-05, -2.199237496824935e-05, 2.5015114601956157e-07, -4.4993048504693434e-05, 4.1770177631406114e-05, -4.253917359164916e-05, -8.31949946586974e-05, -3.181243300787173e-06, -5.712400525226258e-05, 2.9078637453494594e-05, -6.244588439585641e-05, -7.196896331151947e-05, -8.232345862779766e-06, 7.208492752397433e-05, 1.894624546139312e-08, 2.5304509108536877e-05, 8.39822823763825e-05, 4.156343129579909e-05, -1.192247054859763e-06, 2.223835326731205e-05], [0.07628527283668518, 0.01689770631492138, 0.06389404088258743, -0.009850826114416122, -0.012241948395967484, -0.0476510226726532, -0.00870575476437807, 0.029443219304084778, -0.00032316206488758326, -0.004286095965653658, -0.03309808298945427, -0.00017102580750361085, 0.039315491914749146, 0.007167762611061335, 0.06037697568535805, -0.03593380004167557, 0.10765357315540314, -0.008234288543462753, 0.008589399978518486, -0.000613292446359992, 0.054653920233249664, -0.002761834068223834, -0.03497673198580742, 0.04252936691045761, -0.010825758799910545, 0.02398858219385147, -0.0003685835108626634, 0.05016745254397392, 0.04421425983309746, -0.017488660290837288, -0.007483195047825575, 0.06504973024129868, 0.0025411604437977076, 0.014229649677872658, 8.375719335163012e-05, -0.011582820676267147, -0.02458927594125271, -0.0011047740699723363, 0.0004888555849902332, -0.03498384356498718], [0.04495095834136009, 0.10419131070375443, 0.06456570327281952, 0.038235560059547424, 0.042699720710515976, 0.163496196269989, -0.06504388153553009, 0.01746557094156742, 0.0016959034837782383, -0.11826567351818085, -0.03349865972995758, 0.00040738206007517874, 0.014792266301810741, -0.06140008941292763, -0.1346668303012848, -0.17321258783340454, -0.25374123454093933, -0.03416309505701065, 0.020219920203089714, 0.08089914917945862, -0.008028154261410236, 0.12413698434829712, -0.04936496168375015, 0.025716861709952354, -0.2012266218662262, -0.0793987587094307, 0.2853609025478363, -0.2059129774570465, -0.16999155282974243, 0.06961312890052795, 0.06807021051645279, 0.01000561285763979, -0.047843243926763535, -0.13113760948181152, 0.00104696920607239, -0.013427543453872204, -0.09396255761384964, -0.0910918116569519, 0.018877821043133736, -0.04030869901180267], [-9.52488392158557e-07, -1.4319094798764809e-09, 1.0855833352252375e-06, -1.6635793826935696e-06, -2.0185232187941438e-06, 3.634919266914949e-06, -2.095193394779926e-06, 1.1418764955806182e-07, 1.0672817296608628e-08, -3.4162471251875104e-07, -1.81743939720036e-06, 2.9788627120552746e-09, -9.35452959538452e-08, 1.1341737717884826e-06, 2.169924073314178e-06, 2.7005316383110767e-07, -1.6405499991378747e-05, -3.0862594257996534e-07, 2.406892690487439e-06, -3.3971866741921986e-07, 8.331508070114069e-07, 1.681803269093507e-06, -1.4951160665077623e-06, 1.6797292801129515e-06, 3.379531790415058e-06, -1.0664704177543172e-06, 1.828606173148728e-07, 1.4066512221688754e-07, -4.396359827296692e-07, 1.745303734423942e-06, -7.291955057553423e-07, -1.074715669346915e-06, -8.405888820561813e-07, 3.46941646967025e-06, 2.241709484707144e-09, 7.099531558196759e-07, -1.8384666873316746e-06, -7.654322871530894e-06, 5.124171309489611e-08, 1.0344967904529767e-06], [0.06269509345293045, 0.01962149515748024, 0.05907241255044937, 0.0016487569082528353, -0.0090538514778018, -0.05351726710796356, 0.012917459942400455, 0.00037087113014422357, 0.0003060362651012838, -0.03664274513721466, -0.05111164599657059, 2.3584281734656543e-05, -0.002202450530603528, -0.013024971820414066, 0.007325651124119759, -0.05980677157640457, 0.21129193902015686, -0.009621021337807178, -0.0026390545535832644, 0.0024302492383867502, 0.030925685539841652, -0.030902564525604248, 0.0002649735542945564, 0.014230134896934032, -0.011625153943896294, 0.01004600990563631, 0.010264311917126179, 0.06296571344137192, 0.021068012341856956, -0.03479364141821861, -0.004169726278632879, 0.057335060089826584, -0.01721719279885292, -0.01766924560070038, 0.00017929091700352728, -0.002310271840542555, 0.024770140647888184, -0.045275334268808365, 0.0057448954321444035, -0.01723240502178669], [0.005092696286737919, 0.04474516585469246, -0.010334921069443226, 0.005132938269525766, 0.02711808867752552, -0.002366775879636407, 0.004254586528986692, 0.0008439043303951621, -0.00023253198014572263, -0.007807732094079256, -0.021007265895605087, -3.429301159485476e-06, 0.006452945061028004, -0.009754453785717487, 0.01410693023353815, -0.049915529787540436, 0.24587321281433105, -0.0010518123162910342, -0.016930824145674706, -0.0093901501968503, -0.012262766249477863, -0.033548347651958466, -0.008057358674705029, 0.00029711544630117714, -0.059446945786476135, 0.0002637421421241015, 0.01588497869670391, -0.005771266296505928, -7.230124901980162e-05, 0.008857698179781437, 0.0059647997841238976, 0.02091001160442829, 0.0046956525184214115, 0.03312152624130249, 1.1357665243849624e-05, 0.010190139524638653, 0.016933713108301163, 0.13198386132717133, -0.001223093713633716, 0.0008499023970216513], [-0.13082526624202728, -0.014732430689036846, 0.4099414348602295, 0.15088333189487457, 0.1913042515516281, 0.00977689865976572, 0.019802918657660484, 0.09684652090072632, 0.001465977868065238, 0.04472910985350609, -0.011020214296877384, -0.000455767527455464, 0.02600405551493168, -0.06239950284361839, -0.039942916482686996, -0.6549204587936401, -1.030634880065918, -0.03786393254995346, 0.0015986560611054301, -0.07999587804079056, -0.08327384293079376, 0.22790899872779846, 0.010789353400468826, -0.02653530426323414, 0.09651366621255875, -0.06327208131551743, -0.10977053642272949, 0.09170711040496826, 0.05838007107377052, -0.026112357154488564, -0.1595304310321808, 0.02035355567932129, 0.05673034116625786, 0.14712382853031158, 1.0677398677216843e-05, -0.1840890645980835, 0.04963340982794762, -0.5581080913543701, -0.004110861103981733, -0.08528325706720352], [0.06729821115732193, 0.0003398264816496521, 0.05111785978078842, 0.003643486648797989, -0.015416601672768593, -0.01959664188325405, 0.027392560616135597, 0.02004312165081501, -0.0005672603147104383, -0.011763273738324642, -0.0032412658911198378, -5.321133357938379e-05, 0.016074202954769135, 0.013793760910630226, 0.0720941349864006, -0.0025619736406952143, 0.4129146337509155, -0.013540110550820827, -0.02246316894888878, -0.01826711744070053, -0.019376998767256737, -0.0432044081389904, -0.015644196420907974, -0.05794626846909523, -0.14192131161689758, -0.007974146865308285, -0.0267484188079834, 0.021764405071735382, -0.02949131280183792, 0.01648961380124092, -0.03347695618867874, -0.026023125275969505, 0.007333938963711262, 0.03515499085187912, -1.9597184291342273e-05, 0.045494142919778824, 0.08363663405179977, 0.16212809085845947, 0.003012782661244273, -0.013337568379938602], [-0.08692213892936707, -0.035364408046007156, -0.030533485114574432, 0.06172141805291176, -0.04166599363088608, 0.10826395452022552, -0.019496489316225052, -0.011856562457978725, -0.0011634216643869877, -0.000236450185184367, -0.005004577338695526, 0.00024030092754401267, -0.001794681535102427, -0.0015676183393225074, -0.097694031894207, 0.0865299254655838, 0.1595839262008667, -0.007715968415141106, -0.016669411212205887, 0.005227485205978155, 0.0029304646886885166, -0.027927212417125702, 0.00072158855618909, -0.030681338161230087, -0.018067335709929466, 0.0002797381312120706, 0.01288291160017252, -0.012879676185548306, -0.04054767265915871, 0.033161040395498276, 0.028852038085460663, -0.05450538173317909, -0.006226801313459873, -0.0058615244925022125, 0.0002438421652186662, 0.055248335003852844, 0.03673446923494339, 0.051489897072315216, -0.002921127947047353, 0.023205608129501343], [-0.008568446151912212, 0.001703785266727209, 0.004063562490046024, 0.0027617088053375483, -0.01242704875767231, -0.0005550053901970387, 0.008753678761422634, 0.003965715877711773, -0.0001565270940773189, -0.000699612544849515, 0.0015708612045273185, -9.075954039872158e-06, -0.012330667115747929, -0.010528801940381527, -0.02098255418241024, 0.014466879889369011, 0.10794195532798767, -0.0036717308685183525, -0.018716424703598022, -0.007339355070143938, 0.0007057533366605639, -0.011672231368720531, 0.0014116679085418582, -0.02035064995288849, -0.02468196488916874, 0.016578732058405876, 0.006001747213304043, 0.026556346565485, 0.013787148520350456, -0.006980088539421558, 0.005154276266694069, -0.0006532093975692987, 0.006315684411674738, 0.031737662851810455, -0.00010016646410804242, 0.02920474484562874, 0.021931827068328857, 0.0309588685631752, -0.0005820969236083329, -0.013293377123773098], [0.0241228099912405, -0.08570057898759842, -0.07643641531467438, -0.04455386474728584, -0.046976786106824875, 0.0064964741468429565, 0.058971840888261795, -0.007935328409075737, 0.0005283424980007112, 0.0036853139754384756, -0.09269771724939346, -0.00015813723439350724, 0.004798690788447857, -0.028372278437018394, -0.1362924575805664, 0.0161809753626585, -0.36646077036857605, -0.02954035997390747, -0.03971122205257416, 0.024023182690143585, -0.024473126977682114, 0.1490422487258911, -0.029785750433802605, 0.05568113550543785, 0.03266764432191849, -0.00012289380538277328, 0.07507041096687317, -0.023760119453072548, -0.022403106093406677, 0.02113785408437252, 0.01733754388988018, -0.05144219473004341, -0.015221948735415936, -0.17134667932987213, -6.95824419381097e-05, -0.007724351715296507, -0.050595011562108994, -0.17803950607776642, -0.0030305597465485334, 0.04337015748023987], [0.04788873717188835, -0.026188863441348076, 0.0034880032762885094, -0.004686153493821621, 0.002278699539601803, -0.03164243325591087, 0.03338206931948662, 0.006404539570212364, -0.00014293889398686588, 0.016021698713302612, 0.02253943867981434, 3.059045866393717e-06, -0.02087121643126011, 0.005508420988917351, 0.005543249659240246, -0.02383379451930523, 0.12575416266918182, -0.005789794959127903, -0.014352249912917614, -0.009249326772987843, -0.0037432797253131866, -0.02891385369002819, 0.011448183096945286, -0.026548217982053757, 0.004529129713773727, 0.011315186507999897, -0.003048692597076297, 0.0313723161816597, 0.012120131403207779, -0.011348566971719265, 0.0063144490122795105, -0.013309639878571033, 0.0012080762535333633, 0.027389999479055405, 2.5207200451404788e-06, 0.011278585530817509, 0.025788690894842148, 0.058180369436740875, 0.002471583429723978, -0.011911076493561268], [-0.08417756855487823, 0.042065899819135666, -0.22618623077869415, -0.015075725503265858, -0.18849235773086548, 0.22246511280536652, -0.05401523783802986, -0.05606602877378464, -0.00012438664271030575, -0.04922349750995636, -0.07922971248626709, -0.000371442933101207, -0.015048541128635406, -0.05713960900902748, -0.42703649401664734, 0.18319730460643768, -0.5554793477058411, -0.023575367406010628, 0.025551505386829376, -0.009840606711804867, -0.01850385032594204, 0.1490909308195114, -0.036652833223342896, -0.06653767824172974, 0.17539483308792114, 0.052774809300899506, 0.15384075045585632, 0.2339152842760086, 0.16737571358680725, -0.047251295298337936, -0.00018423890287522227, -0.030141880735754967, 0.01255820319056511, -0.2664070427417755, -0.00017236862913705409, 0.03225421532988548, -0.0735057145357132, -0.3840677738189697, 0.0030061376746743917, -0.029429130256175995], [-0.0341593436896801, -0.03201916441321373, -0.004134127404540777, -0.23703721165657043, -0.0024318082723766565, 0.06898678094148636, 0.10801167041063309, -0.0005744441295973957, 8.977202378446236e-05, -0.003954197280108929, 0.030179781839251518, -6.433078669942915e-05, -0.02522660605609417, 0.005609848070889711, -0.06688182801008224, -0.02015240304172039, 0.10408701747655869, 0.01786954700946808, -0.08249051123857498, 0.022792566567659378, 0.0908704400062561, -0.01414521224796772, 0.007311451714485884, 0.07525784522294998, 0.045833878219127655, 0.030112769454717636, 0.02238091640174389, 0.047849491238594055, 0.05056002736091614, -0.052842698991298676, 0.05098601430654526, -0.07740841805934906, -0.0013691502390429378, 0.046162597835063934, -0.00020220156875438988, 0.049471307545900345, -0.026147328317165375, 0.05390366539359093, 0.00208011525683105, -0.008361834101378918], [0.08350951969623566, 0.008564295247197151, 0.057321105152368546, -0.010407757945358753, -0.019971318542957306, -0.03629970923066139, -0.012362929061055183, 0.019671235233545303, 7.753558020340279e-05, -0.011755668558180332, -0.013887358829379082, 5.8919289585901424e-05, 0.02807101048529148, 0.017869142815470695, 0.08167994767427444, -0.047059331089258194, 0.027404870837926865, -0.010668806731700897, 0.017243511974811554, -0.009170527569949627, 0.024185899645090103, -0.0001281399599974975, -0.048460863530635834, 0.04737544432282448, -0.012141511775553226, 0.004600604996085167, -0.007275054231286049, 0.02516200579702854, 0.006374882068485022, 0.022867508232593536, -0.03248492628335953, 0.008830701000988483, -0.003950917162001133, 0.019593164324760437, 0.00015861984866205603, -0.014526771381497383, 0.010873659513890743, -0.012850593775510788, 0.0031416923739016056, -0.01514300238341093], [-0.017703210934996605, 0.07864225655794144, 0.017003560438752174, -0.00321839633397758, 0.026265719905495644, 0.014254209585487843, 0.011665302328765392, 0.012715283781290054, -0.0003440618165768683, -0.012049364857375622, -0.06083489954471588, 1.625262484594714e-06, 0.032025519758462906, -0.028847558423876762, -0.0027299628127366304, -0.024132709950208664, 0.12774856388568878, -9.720056550577283e-05, -0.027117962017655373, 0.0366184264421463, -0.006399916019290686, -0.06372620165348053, -0.006851016078144312, 0.02986578270792961, -0.08080944418907166, 0.024260807782411575, 0.055888962000608444, -0.015932288020849228, 0.041883014142513275, -0.014707650989294052, 0.08745655417442322, 0.040101684629917145, 0.017083551734685898, 0.01697489619255066, 1.700850589259062e-05, 0.023129623383283615, -0.041131552308797836, 0.07096831500530243, -0.0037800867576152086, -0.02457316964864731], [-0.03876191005110741, -0.007799290586262941, -0.008575443178415298, 0.09741780161857605, 0.04563169553875923, -0.017410581931471825, -0.03787867724895477, -0.003940280061215162, -1.5610752598149702e-05, -0.0065993438474833965, 0.029422646388411522, -0.00026849654386751354, 0.01347967516630888, -0.0710151270031929, -0.0626494437456131, -0.24032332003116608, 0.0459597148001194, 0.0075933425687253475, 0.04948538541793823, -0.011921686120331287, -0.03625914454460144, -0.17429012060165405, 0.03571195527911186, -0.019133519381284714, 0.07527013123035431, -0.006409326568245888, 0.01302318088710308, -0.0035085235722362995, 0.03493647277355194, -0.03511523827910423, 0.05008246749639511, -0.14029645919799805, 0.026864415034651756, -0.09206007421016693, -0.00038289735675789416, -0.08833318948745728, -0.12061646580696106, 0.08931854367256165, -0.015587913803756237, -0.003789337119087577], [0.022558366879820824, 0.06769085675477982, 0.00039021612610667944, 0.0044538346119225025, 0.004054403863847256, -0.01583954691886902, 0.008120618760585785, -0.0002097983960993588, 0.00020609966304618865, -0.01820197142660618, -0.022590599954128265, 8.543646254111081e-05, 0.013508329167962074, -0.01793842390179634, 0.002267526462674141, -0.04282623901963234, 0.21401363611221313, -0.007951535284519196, -0.024472586810588837, -0.0053561353124678135, -0.011507042683660984, -0.05113302916288376, -0.0286606065928936, -0.008892489597201347, 0.0018183481879532337, 0.017744606360793114, 0.015484316274523735, 0.05513431131839752, 0.030745897442102432, -0.014325321651995182, -0.01589600183069706, 0.02274577133357525, -0.0009276136406697333, -0.01612020842730999, 3.831976209767163e-05, 0.007643249351531267, 0.017228618264198303, 0.06263215094804764, 0.0018660994246602058, -0.009128300473093987], [0.04766299948096275, 0.014651459641754627, 0.05429080128669739, 0.09890163689851761, -0.05119801685214043, -0.03292723372578621, -0.009011092595756054, 0.009073765948414803, 0.00017405713151674718, -0.006136849522590637, 0.011526481248438358, 6.823683361290023e-05, -0.0162179134786129, 0.02692403458058834, 0.12439915537834167, 0.003314307890832424, 0.07743604481220245, 0.001841047778725624, 0.022276170551776886, -0.015509180724620819, -0.010191893205046654, -0.004235661588609219, -0.03366914764046669, 0.037434469908475876, 0.08415257185697556, -0.024778863415122032, -0.09460322558879852, 0.04146242141723633, -0.05259878933429718, 0.013162950053811073, -0.08068518340587616, 0.006512037944048643, 0.00874541886150837, 0.03349166363477707, -0.0001454462471883744, -0.0014664997579529881, 0.10818760097026825, 0.07843620330095291, -0.003391261911019683, 0.0028156698681414127], [0.03687627986073494, -0.001960871974006295, -0.029787356033921242, 0.013361233286559582, -0.035006336867809296, -0.04305209591984749, 0.0018519016448408365, 0.030786460265517235, -6.986703374423087e-05, -0.015193342231214046, 0.006617347244173288, 7.772545359330252e-05, 0.01337509136646986, -0.0028496189042925835, 0.04643063619732857, 0.06099555641412735, 0.1842714101076126, 0.004024036694318056, -0.009513425640761852, 0.0014410695293918252, 0.02205195464193821, -0.0774216279387474, -0.01242179237306118, 0.02759774960577488, -0.007371042855083942, -0.0002860587555915117, 0.008190709166228771, 0.030141759663820267, 0.007070436142385006, 0.0005903242854401469, 0.011738165281713009, -0.030453206971287727, -0.00028496154118329287, 0.0037628691643476486, 6.707171269226819e-05, 0.024936161935329437, -0.014938188716769218, 0.08421538770198822, -0.002527770586311817, -0.004018216859549284], [0.03325038030743599, 0.05166737735271454, 0.03928273171186447, 0.004526540637016296, -0.0023942787665873766, -0.03780483826994896, -0.005478050094097853, 0.0012484464095905423, -0.00027514027897268534, -0.005652585066854954, -0.005942091345787048, 6.083112020860426e-05, -0.0033482841681689024, -0.007661300245672464, 0.07539432495832443, -0.02797437272965908, 0.19887632131576538, -0.007215010933578014, 0.00777016393840313, 0.0006162737845443189, -0.008175106719136238, -0.025427719578146935, 0.015768500044941902, 0.005389470141381025, 0.006811333354562521, 0.020695025101304054, 0.05857515707612038, 0.0187008548527956, 0.01021278090775013, -0.008151445537805557, 0.012730556540191174, 0.03812979534268379, 0.006433233618736267, 0.08509497344493866, 1.3750812286161818e-05, 0.012380840256810188, -0.003085334785282612, 0.12105270475149155, 0.001447615446522832, -0.020967692136764526], [-0.005569508299231529, 0.0023603104054927826, -0.021616647019982338, -0.04651861637830734, -0.008685636334121227, 0.024227382615208626, 0.012220770120620728, 0.02159588225185871, -4.287913179723546e-05, -0.00045186394709162414, -0.013431924395263195, -9.935518392012455e-06, -0.004551370162516832, -0.009865418076515198, -0.01766224391758442, -0.034524597227573395, 0.19941608607769012, 0.015173155814409256, -0.012073170393705368, 0.02005111053586006, 0.0032077424693852663, -0.034565478563308716, -0.0025522341020405293, -0.009445356205105782, 0.024138519540429115, 0.014072168618440628, 0.024364683777093887, 0.020140059292316437, 0.040932949632406235, -0.03219152241945267, 0.03522317856550217, -0.03474082052707672, 0.0070760827511549, 0.0002600263396743685, -0.00010733881936175749, 0.019462333992123604, -0.03279539942741394, 0.11109054088592529, -0.0008637033752165735, -0.013596052303910255], [0.03475848212838173, 0.032041680067777634, 0.03271050751209259, 4.25371435994748e-05, -0.01280779018998146, -0.036152858287096024, 0.030256107449531555, -0.0031001337338238955, -8.753528527449816e-05, -0.023902803659439087, 0.04657066985964775, 0.00010600940731819719, -0.008847297169268131, 0.0002521214773878455, 0.06055404245853424, -0.0439157672226429, 0.1748177707195282, 0.00809916015714407, -0.0034722452983260155, -0.02023826539516449, -0.026559781283140182, -0.044988811016082764, -0.004445199854671955, 0.02208266779780388, 0.043905552476644516, 0.011434542946517467, -0.0058784387074410915, 0.0589742548763752, 0.03168487176299095, -0.0138049041852355, -0.02741502784192562, 0.007290354929864407, 0.0033416219521313906, 0.05405782163143158, 0.0001834087452152744, 0.0008140330901369452, 0.03231880068778992, 0.04131462424993515, 0.0008275670115835965, -0.007561109960079193], [-0.17439736425876617, 0.0808345228433609, 0.10321187227964401, -0.03232778236269951, -0.01742292381823063, 0.24266952276229858, -0.03808814659714699, -0.05407742038369179, 0.0014466644497588277, -0.01842472329735756, -0.0949624627828598, 0.0004062812658958137, 0.010564090684056282, 0.011124925687909126, -0.1875617355108261, -0.09059181064367294, -1.1030783653259277, 0.020432371646165848, 0.09953282028436661, 0.01982354000210762, 0.010384268127381802, 0.14969119429588318, -0.01649393141269684, 0.025186147540807724, -0.06412821263074875, 0.0857485830783844, 0.1504420042037964, 0.1211235448718071, 0.09889833629131317, -0.12600839138031006, -6.336436490528286e-05, 0.02959338389337063, -0.030909104272723198, -0.24610324203968048, -0.00024371872132178396, -0.0858314260840416, -0.16395477950572968, -0.4877479374408722, -0.003990422002971172, -0.007119117770344019], [0.019381757825613022, 0.01231316290795803, -0.015898896381258965, 0.01249281968921423, -0.004730572924017906, -0.00999399647116661, 0.010006198659539223, 0.015176450833678246, -3.260302037233487e-05, -0.005314849782735109, 0.0031833313405513763, 2.7251697247265838e-05, 0.006023230962455273, -0.0021081899758428335, 0.014003422111272812, -0.0012073693796992302, 0.2250613272190094, 0.0014729277463629842, -0.005698902998119593, 0.0024295360781252384, -0.010782265104353428, -0.041227519512176514, -0.008551075123250484, -0.01819399744272232, -0.02806604467332363, 0.0013468338875100017, 0.0002037068916251883, -0.00014907863806001842, 0.007958060130476952, 0.005806885194033384, 0.006601368542760611, -0.0140567347407341, 0.00536652747541666, 0.0241829976439476, 2.6673104002838954e-05, 0.02854551374912262, 0.004181001801043749, 0.12132608890533447, -0.00013470415433403105, 0.002025960013270378], [0.2601363956928253, -0.06949004530906677, -0.2773355543613434, -0.10445225238800049, -0.19117522239685059, 0.01912713050842285, -0.07959318906068802, -0.08581759035587311, 0.0010467002866789699, -0.011150197125971317, 0.04540586844086647, -0.00011589056521188468, -0.025590477511286736, 0.023861855268478394, 0.2659110128879547, 0.5193961262702942, -1.0195327997207642, -0.029935425147414207, 0.05255834385752678, 0.03674981743097305, -0.1627240777015686, 0.2571658194065094, -0.08113840967416763, 0.04230319708585739, 0.07231734693050385, -0.05175619199872017, 0.16289643943309784, 0.011574062518775463, -0.029888570308685303, 0.10539186000823975, 0.03656184673309326, -0.09089772403240204, -0.04684949666261673, -0.472693532705307, 0.0003768691385630518, 0.15106536448001862, -0.14261308312416077, -0.2856771945953369, -0.011595342308282852, 0.10746271163225174], [-9.014086572278757e-06, 4.029543106298661e-06, 7.957194611662999e-06, -1.0188258784182835e-05, -5.870734298696334e-07, 2.229414519661077e-07, -7.498309742004494e-07, -5.483957920660032e-06, 2.9297314796394858e-08, -2.204532023597494e-07, -7.335889677051455e-06, 2.2376991926087442e-10, -3.0919702567189233e-06, 8.804822755337227e-07, 3.6000651562062558e-06, 7.372384516202146e-06, -4.101278318557888e-05, 4.695559994161158e-07, -4.280386747268494e-06, 2.7974515433015767e-06, 7.565951818833128e-06, 9.0825415099971e-06, -2.1552894580167958e-08, 1.0346791896154173e-05, 6.265643719416403e-07, 2.2889428237249376e-06, 7.43309374229284e-06, -2.2535393782163737e-06, 2.157486278520082e-06, -2.7083620679491105e-08, 5.945133580098627e-06, 1.5695059119025245e-05, -2.683475941012148e-06, -3.3063413411582587e-06, -2.871143145455335e-08, -5.63813091503107e-06, -8.13414590083994e-06, -2.9305103453225456e-05, 3.9389078665408306e-07, 8.95858136118477e-07], [-0.14021217823028564, -0.04956377297639847, -0.40158364176750183, 0.0660586878657341, 0.01138711255043745, -0.1517655998468399, -0.06036607176065445, 0.03734339401125908, -0.0008213144610635936, -0.06006277725100517, 0.01126062497496605, 0.00045999520807527006, 0.07581711560487747, -0.03506793454289436, -1.1055840253829956, -0.20548933744430542, -0.11676079779863358, -0.011145641095936298, -0.05378327891230583, 0.04389181360602379, 0.06221207603812218, -0.010968715883791447, -0.039603736251592636, -0.023964839056134224, -0.24542434513568878, -0.018029235303401947, 0.07201413065195084, -0.025151832029223442, -0.028245607390999794, 0.028201302513480186, 0.020298531278967857, -0.05830388143658638, 0.04139138013124466, -0.8894901871681213, 3.2012634619604796e-05, 0.0034907874651253223, 0.06105806678533554, -0.2787112295627594, -0.012084294110536575, 0.021408159285783768], [0.05187440663576126, -0.031045878306031227, 0.027126489207148552, 0.06836138665676117, 0.05246768519282341, -0.06574800610542297, 0.015755847096443176, 0.025070559233427048, 0.00033941102446988225, 0.01184737216681242, -0.01743319258093834, 5.8938003348885104e-05, 0.025178246200084686, 0.025716528296470642, 0.09862013906240463, -0.11467625200748444, 0.3823200762271881, 0.01635981909930706, 0.034429505467414856, 0.022390682250261307, 0.061355989426374435, 0.016213614493608475, 0.0011688716476783156, 0.04485084488987923, -0.09500434994697571, -0.021937893703579903, -0.06305958330631256, -0.06763166189193726, -0.056967031210660934, -0.0056434692814946175, -0.0019559036009013653, -0.04458414390683174, -0.008690151385962963, 0.03716735169291496, 8.823807002045214e-05, -0.015102204866707325, 0.04903170466423035, 0.21232710778713226, -0.002565958071500063, 0.0051735518500208855], [-0.05741938203573227, 0.07122694700956345, 0.028790190815925598, -0.07825139164924622, -0.06513959169387817, 0.20241186022758484, -0.04124363884329796, 0.03115806356072426, 0.000313697149977088, -0.041279733180999756, -0.0848880261182785, 0.0002968855551443994, 0.029118837788701057, -0.007887708954513073, 0.1125035211443901, 0.10680366307497025, 0.02020920254290104, 0.012434171512722969, 0.02336631715297699, 0.01702108420431614, 0.04452912509441376, 0.11373787373304367, -0.03610615059733391, 0.052980486303567886, -0.03189396858215332, 0.0075952596962451935, 0.03386729955673218, 0.004918680526316166, -0.005261772312223911, 0.0056088934652507305, 0.014007074758410454, 0.07668708264827728, -0.001349124708212912, -0.023986971005797386, 9.195424354402348e-05, 5.820076694362797e-06, -0.01079794205725193, 0.05978856980800629, -0.0032432512380182743, -0.00472004571929574], [0.0018603280186653137, 0.0021385729778558016, -0.002215820597484708, -0.001795376418158412, -3.9689944969723e-05, -0.0007979878573678434, 0.00037743517896160483, 0.00266599515452981, 5.141407200426329e-06, -0.0010255617089569569, -0.002165147801861167, -8.05602303444175e-06, 0.0013023701030761003, 0.00028804081375710666, 8.432698814431205e-05, -0.002615775680169463, 0.025986017659306526, 0.00037312443600967526, -0.0002840738161467016, 0.0013035805895924568, 0.00017479603411629796, -0.006020482629537582, -0.0003780827682930976, -0.0007095811306498945, -0.00032580256811343133, 0.0009365357109345496, 0.0016162414103746414, 0.0008389624999836087, 0.00018228117551188916, -0.0008653418626636267, 0.0015620068879798055, -0.0025080025661736727, 0.0006607358227483928, 0.003072798717767, -4.337186965130968e-06, 0.003922233823686838, -0.001119242631830275, 0.015366123989224434, 2.8550792194437236e-05, -0.00029826772515662014], [0.02243274264037609, 0.017926154658198357, -0.02628222666680813, 0.03358248248696327, -0.005855256225913763, -0.011871938593685627, 0.013924319297075272, 0.024717768654227257, -8.830848673824221e-05, -0.006042047869414091, 0.005758949089795351, 1.7543905414640903e-05, 0.008571726270020008, -0.002591301454231143, 0.014895942993462086, -0.0016809746157377958, 0.3511687219142914, 0.0037115290760993958, -0.00967432651668787, 0.005575187038630247, -0.0175827294588089, -0.06511423736810684, -0.009690377861261368, -0.027192655950784683, -0.018332647159695625, 0.004713959526270628, -0.002183619886636734, 0.005217147525399923, 0.01010605227202177, 0.0025586506817489862, 0.00728534534573555, -0.025811277329921722, 0.010998050682246685, 0.026474904268980026, -1.5265766705852002e-05, 0.03316489979624748, 0.010821647010743618, 0.1838436871767044, -0.0009521123138256371, -0.005165355280041695], [0.30699169635772705, 0.11283791810274124, 0.0025321205612272024, -0.15863554179668427, 0.11726628243923187, -0.00862815510481596, 0.07292066514492035, 0.08261669427156448, 0.002238878048956394, -0.049784835427999496, 0.06389565765857697, 8.670715033076704e-06, 0.07937097549438477, -0.0667218565940857, -0.34691256284713745, 0.0548819862306118, 1.1770637035369873, -0.030474714934825897, 0.07503315806388855, 0.08709849417209625, 0.008194837719202042, -0.080769382417202, -0.013080751523375511, -0.09149321168661118, -0.4293377101421356, 0.0020225741900503635, 0.20467159152030945, -0.11949865520000458, 0.02056015282869339, 0.025018323212862015, 0.06677094846963882, -0.043559275567531586, 0.05749689042568207, -0.08711108565330505, -0.000108068656118121, 0.25719699263572693, -0.17143191397190094, 0.4266684651374817, 0.016762221232056618, -0.12026083469390869], [0.0043513416312634945, 0.08014759421348572, -0.03960341587662697, -0.021378299221396446, -0.0073360176756978035, 0.012413558550179005, -0.03352430462837219, -0.014180945232510567, -0.00022451837139669806, 0.022669464349746704, 0.026572145521640778, -2.9605311283376068e-05, -0.0014474099734798074, -0.0002975930110551417, -0.22386229038238525, -0.014681682921946049, 0.33672425150871277, -0.00936883594840765, 0.025841688737273216, 0.020343273878097534, -0.008273692801594734, -0.07765498757362366, 0.02881528064608574, -0.03494827821850777, 0.07700423896312714, -0.023366380482912064, 0.06535886973142624, -0.005350863095372915, -0.01197117567062378, -0.004734996240586042, 0.005445258226245642, 0.025348812341690063, 0.009099136106669903, 0.016096459701657295, 0.00021316333732102066, 0.08242782950401306, -0.008435295894742012, 0.1037810742855072, -0.0009427136392332613, -0.0003160372725687921], [-0.28742358088493347, 0.003188126487657428, 0.20457474887371063, -0.04964065924286842, 0.01366923376917839, -0.12625975906848907, 0.08453244715929031, -0.03275501728057861, -0.000680731434840709, 0.02108723856508732, 0.0730467215180397, 8.631861419416964e-06, -0.025465233251452446, -0.025404224172234535, -0.06394553929567337, -0.15192778408527374, 0.16140425205230713, 0.011160753667354584, -0.08373294025659561, 0.00011825360707007349, -0.056257862597703934, -0.030627377331256866, -0.004724264610558748, 0.026626894250512123, 0.042448680847883224, 0.018055595457553864, 0.011079992167651653, 0.06384503096342087, 0.00551451463252306, -0.06353107839822769, -0.0165467020124197, -0.042986854910850525, 0.020309291779994965, 0.3640631437301636, -3.267077045165934e-05, 0.10989725589752197, 0.04337345063686371, -0.023960858583450317, -0.007478015031665564, -0.022662710398435593], [-0.03336746618151665, 0.044185537844896317, -0.10955336689949036, -0.11405143141746521, 0.0733720064163208, -0.13142552971839905, 0.005032048560678959, 0.028572941198945045, 0.0012594208819791675, -0.013767761178314686, 0.08776027709245682, 0.0004983182880096138, -0.012198965065181255, 0.07485441863536835, 0.4030076563358307, -0.07038123905658722, 0.18063488602638245, 0.0332808755338192, 0.07086880505084991, -0.04592874273657799, -0.10410571098327637, 0.030360883101820946, -0.003832938615232706, 0.12838709354400635, -0.056460920721292496, -0.0029166967142373323, -0.0577358640730381, 0.07118837535381317, 0.05207028239965439, -0.022246316075325012, -0.018308550119400024, -0.06523216515779495, 0.03939909115433693, 0.3734503984451294, 0.0010947957634925842, -0.006042159628123045, 0.011920763179659843, 0.29868370294570923, -0.0028380025178194046, 0.03021278791129589], [0.01481167133897543, -0.021179448813199997, -0.03782248869538307, -0.020444732159376144, -0.044103316962718964, -0.027915170416235924, -0.031535934656858444, 0.03304051235318184, 2.7838057576445863e-05, -0.047923795878887177, -0.0431613028049469, -0.00010372664837632328, -0.0008907397859729826, 0.003785887034609914, -0.04720587655901909, 0.05266362428665161, 0.002551848301663995, -0.003222098108381033, 0.010552365332841873, -0.0024602580815553665, 0.06329206377267838, -0.04709109291434288, -0.007542969658970833, 0.05324340611696243, -0.01556280069053173, 0.00950526725500822, 0.0148395374417305, 0.05221875011920929, -0.023759637027978897, 0.001481381244957447, 0.004986691754311323, -0.01976507157087326, 0.01194639503955841, -0.025011012330651283, -0.00021592335542663932, 0.025858210399746895, -0.0031173506285995245, -0.04626233130693436, -0.001374466810375452, -0.016000758856534958], [0.1976861208677292, 0.06208041310310364, -0.10225851088762283, 0.18686287105083466, -0.15046682953834534, -0.20092156529426575, -0.08188511431217194, 0.18398305773735046, -0.0019594274926930666, -0.1334429383277893, -0.07592961937189102, 0.0015415296657010913, 0.04927917197346687, -0.022256527096033096, -0.05553995445370674, 0.1765778511762619, 0.9888159036636353, 0.05251049995422363, -0.004900616127997637, 0.07392000406980515, 0.3762770891189575, -0.003831813344731927, 0.016076495870947838, -0.013046011328697205, 0.22821758687496185, 0.058232568204402924, 0.08345966786146164, 0.13918301463127136, 0.020909180864691734, -0.05216081067919731, 0.03942391276359558, -0.17067469656467438, 0.044030848890542984, 0.04603694751858711, 0.0007278007688000798, 0.1134772002696991, -0.13083313405513763, 0.4042227864265442, 0.005236451979726553, -0.07937287539243698], [-0.0614018589258194, -0.04325421527028084, 0.09196147322654724, -0.019051147624850273, 0.030194446444511414, -0.17635878920555115, 0.06114476919174194, 0.06534138321876526, 0.0007217893726192415, 0.005410979967564344, 0.08886547386646271, 0.0002900107065215707, 0.01749781332910061, 0.010774127207696438, 0.11409252882003784, -0.03565559908747673, 0.5964351892471313, -8.659148443257436e-05, -0.00478868093341589, 0.012077553197741508, 0.03730537369847298, -0.1721435934305191, -0.007814235985279083, 0.08639030158519745, 0.0042252675630152225, 0.01295489352196455, -0.05259765684604645, 0.03192872926592827, 0.03641873598098755, -0.018898531794548035, 0.008164050057530403, -0.07391828298568726, 0.011457547545433044, 0.0996309369802475, 1.542896279715933e-05, 0.02681388147175312, -0.014187298715114594, 0.15794989466667175, 0.0021934083197265863, -0.04113387688994408], [-0.03870101273059845, 0.018868276849389076, -0.004501746501773596, 0.03707676753401756, 0.005182528402656317, 0.033254578709602356, -0.028143923729658127, 0.047792255878448486, -0.00018487212946638465, -0.004123397171497345, -0.025651417672634125, -8.3298931713216e-05, 0.03070896677672863, -0.0039311065338552, -0.009409630671143532, 0.04267030954360962, 0.14578832685947418, 0.0007122399401850998, -0.0011868755100294948, 0.017978303134441376, 0.005384542513638735, -0.017680959776043892, -0.03821675106883049, 0.0028565519023686647, -0.0030503745656460524, 0.02245035395026207, 0.04027489572763443, -0.011555100791156292, 0.0027886906173080206, 0.009027821011841297, 0.03138066828250885, -0.010788696818053722, 0.016804801300168037, 0.04735201597213745, -4.548801007331349e-05, 0.04177450016140938, -0.02356344275176525, 0.027871830388903618, -0.0054735238663852215, -0.023636700585484505], [2.548374868638348e-05, -4.425310544320382e-05, -4.988070486433571e-06, 0.00011064426507800817, -1.4380352695297915e-05, -9.918565410771407e-06, 2.3539228095614817e-06, 1.3764458344667219e-05, -3.379361430688732e-07, 1.5741632523713633e-05, 0.00010193299385719001, 5.459058272094808e-08, -2.3426045459018496e-07, 2.8688067686744034e-05, -2.9158192774048075e-05, -2.8369357096380554e-05, 4.3671207095030695e-05, -4.741205884783994e-06, 3.9925846067490056e-05, -2.3242837414727546e-05, -2.241821857751347e-05, -2.6724981580628082e-05, -1.4259591125664883e-06, -4.8020825488492846e-05, 4.11153378081508e-05, -4.06706276407931e-05, -8.523874566890299e-05, 7.563765507256903e-07, -5.437195432023145e-05, 3.045216180908028e-05, -6.271617894526571e-05, -7.41764233680442e-05, -6.848203611298231e-06, 7.547857967438176e-05, 1.9338637358146116e-08, 2.997653245984111e-05, 8.357350452570245e-05, 4.2631170799722895e-05, -1.2270389788682223e-06, 2.1827736418345012e-05], [0.012540530413389206, 0.04711170494556427, -0.03947151452302933, 0.005853198003023863, 0.016914818435907364, -0.020498502999544144, -0.026367247104644775, 0.05695129930973053, 0.001200749189592898, -0.05188997462391853, 0.004807168152183294, -8.47550472826697e-05, 0.03933421149849892, -0.009600401856005192, -0.06227665767073631, 0.021264011040329933, 0.2865699231624603, 0.004013272933661938, 0.016946949064731598, 0.028834737837314606, 0.018524527549743652, -0.12182141840457916, -0.0033071800135076046, -0.0038980685640126467, 0.028127498924732208, 0.007421490270644426, 0.014829188585281372, 0.0035960597451776266, 0.029035674408078194, -0.00481506809592247, 0.00533918896690011, 0.04884765297174454, 0.0143370870500803, -0.011562936939299107, -0.0001269409549422562, 0.03744741529226303, -0.015976985916495323, 0.08484923839569092, -0.0003975595172960311, -0.03777057304978371], [0.057173751294612885, 0.15400609374046326, 0.05973482504487038, 0.18279238045215607, -0.057676494121551514, 0.004514525644481182, -0.052384212613105774, 0.041879549622535706, 0.0004025808593723923, -0.11250484734773636, 0.008343433029949665, 0.00015226169489324093, -0.004013391677290201, -0.010242579504847527, -0.18886776268482208, -0.04758179187774658, 0.6447489261627197, 0.002270475961267948, 0.011543288826942444, 0.06316076219081879, -0.026731809601187706, 0.09260693192481995, -0.09319987893104553, 0.16750934720039368, 0.16796410083770752, 0.005647749174386263, 0.233204647898674, -0.046425558626651764, -0.06271474063396454, 0.026412660256028175, 0.032310400158166885, 0.15258249640464783, -0.001770812668837607, 0.031176535412669182, 0.00022755387180950493, 0.06275857985019684, -0.11869975924491882, 0.32714787125587463, -0.004079470876604319, 0.0087765883654356], [-8.373536957151373e-07, -4.474941022181156e-07, 1.1961318477915484e-06, -1.4992511978562106e-06, -2.0775573830178473e-06, 3.78630079467257e-06, -2.0548582142509986e-06, 2.908425926761993e-07, 9.506772258305318e-09, -4.964849722455256e-07, -1.4885949894960504e-06, 2.668073761924461e-09, 6.946348918290823e-08, 1.378071601720876e-06, 2.0474731172726024e-06, 2.5803475978136703e-07, -1.7598955309949815e-05, -2.523288173961191e-07, 2.604291466923314e-06, -4.1621925106483104e-07, 8.26104951556772e-07, 2.0965806015738053e-06, -1.802523684091284e-06, 1.081227310351096e-06, 3.3783167054934893e-06, -1.0844354392247624e-06, -3.129974288640369e-07, 1.0858076393560623e-07, -4.449495918379398e-07, 2.0132686131546507e-06, -8.651661573821912e-07, -1.0724611456680577e-06, -8.171984404725663e-07, 4.174023615632905e-06, 3.31421534660592e-09, 9.75163743532903e-07, -1.4067106803850038e-06, -8.531123967259191e-06, 2.2096894980450088e-08, 1.203766260005068e-06], [-0.03245609998703003, 0.06226152181625366, -0.012555237859487534, 0.0350072905421257, 0.04479093477129936, 0.018330154940485954, 0.004510193131864071, 0.002968716900795698, 0.0009667397825978696, -0.013067048043012619, 0.026804249733686447, -0.00012436513497959822, 0.010813773609697819, 0.0001324883778579533, -0.016951551660895348, -0.03627992793917656, 0.3288126289844513, -0.003959637600928545, 0.0010686885798349977, -0.01250408124178648, -0.029681729152798653, -0.1213059201836586, 0.0009532528929412365, -0.0072430637665092945, -0.012604591436684132, 0.011946403421461582, 0.029236948117613792, 0.03150647133588791, 0.01479929219931364, 0.007403209339827299, -0.005355775356292725, 0.041123561561107635, 0.0013341100420802832, -0.006462277844548225, -0.0005221411702223122, 0.0059052081778645515, 0.021825512871146202, 0.09448964893817902, -0.0010373558616265655, 0.003104408970102668], [-0.014261304400861263, 0.04908478632569313, -0.06065261736512184, -0.037179432809352875, 0.051384590566158295, 0.025851882994174957, -0.024042949080467224, -0.021133024245500565, -9.650759602664039e-05, -0.017061710357666016, -0.04699113219976425, -5.9516594774322584e-05, 0.001381772686727345, -0.031808316707611084, -0.11311410367488861, -0.06273537874221802, 0.0561370886862278, -0.004500414244830608, -0.021561361849308014, -0.01287589780986309, -0.006853185594081879, -0.018395481631159782, -0.006940996274352074, -0.016835933551192284, -0.05327436327934265, -0.020099565386772156, 0.03277292847633362, -0.0315946564078331, 0.0009859987767413259, 0.02133939042687416, -0.0020976820960640907, 0.026455366984009743, 6.557703454745933e-05, -0.06977711617946625, -5.576074181590229e-05, -0.0035281707532703876, 0.0007645873702131212, 0.03202283754944801, -5.721110210288316e-05, 0.005363715346902609], [0.09274043887853622, 0.16961628198623657, 0.030608631670475006, 0.1894775778055191, 0.016496295109391212, -0.004545793402940035, -0.19197967648506165, 0.182198166847229, -0.0034455175045877695, -0.0651732087135315, -0.09063488245010376, -0.0009333218913525343, 0.10972686856985092, -0.13832639157772064, -0.08208666741847992, 0.05950508639216423, 1.1945198774337769, -0.015683500096201897, 0.18795008957386017, 0.05645592510700226, 0.10793668031692505, -0.19803425669670105, 0.07091515511274338, -0.06242190673947334, 0.003567909589037299, 0.022939447313547134, 0.004414790775626898, -0.018589189276099205, 0.0753890797495842, -0.036402225494384766, 0.022573983296751976, -0.05604444444179535, 0.05710683390498161, -0.15580354630947113, -0.0008562930161133409, 0.0992487221956253, -0.19976899027824402, 0.660289466381073, -0.009827195666730404, -0.1247248649597168], [0.11586927622556686, 0.03680655360221863, 0.059340305626392365, -0.04671204462647438, -0.01822400465607643, -0.0400824248790741, -0.003574858419597149, 0.04940849170088768, 0.00016801466699689627, -0.033450353890657425, -0.03548421710729599, -0.0002790527360048145, 0.00809528399258852, 0.02893649786710739, 0.05366796255111694, 0.04672156646847725, 0.32176488637924194, -0.006811344064772129, -0.041541215032339096, -0.01292057428508997, 0.08698655664920807, -0.0353461317718029, -0.06494365632534027, -0.05905540660023689, 0.05606928840279579, -0.01500694453716278, -0.02839519828557968, 0.03129870072007179, -0.012827891856431961, 0.033761363476514816, -0.047524482011795044, 0.07286912202835083, -0.002718441653996706, 0.015598136000335217, -0.0007492171716876328, 0.08787821978330612, -0.003706843825057149, 0.08383984863758087, 0.008653038181364536, -0.03811515495181084], [-0.21745210886001587, -0.018638070672750473, -0.061991993337869644, 0.01891014724969864, -0.08540850132703781, 0.337007075548172, -0.01580210030078888, -0.028649665415287018, 1.4153347365208901e-05, -0.0016558148199692369, -0.03367326781153679, 0.0007229855982586741, -0.01245507225394249, -0.018710315227508545, -0.16143648326396942, 0.13836930692195892, 0.4136843681335449, -0.022722169756889343, -0.02736278623342514, -0.02152986265718937, -0.001193833420984447, -0.05988054350018501, -0.014515291899442673, -0.05886569619178772, -0.06557998061180115, 0.015962814912199974, 0.04399240389466286, 0.056506525725126266, 0.006902532186359167, 0.023176059126853943, 0.033443231135606766, -0.1591576188802719, 0.0014300424372777343, -0.03339654579758644, 0.000751435523852706, 0.06457780301570892, 0.03863988816738129, 0.19519248604774475, -0.003334909211844206, 0.011965824291110039], [-0.036065950989723206, 0.01519792340695858, -0.03646981343626976, 0.021448783576488495, 0.010217192582786083, 0.0299515500664711, -0.007086402736604214, 0.011922994628548622, 0.0003234047908335924, 0.00940840132534504, -0.01743433251976967, -2.1401616322691552e-05, 0.003591202897951007, -0.014461363665759563, -0.10134235769510269, -0.016524426639080048, 0.08013517409563065, -0.005608793348073959, -0.020437980070710182, 0.0019444492645561695, -0.005071460735052824, -0.021557120606303215, -0.011343809776008129, -0.03967791050672531, -0.03413640335202217, 0.0021468554623425007, 0.017148731276392937, 0.010457554832100868, 0.006446396932005882, -0.0015685799298807979, 0.007276308257132769, -0.02101726084947586, 0.014910303987562656, -0.010973535478115082, -9.625385428080335e-05, 0.02264726534485817, 0.021373815834522247, 0.026553522795438766, 0.00022302499564830214, -0.025973185896873474], [0.0616578608751297, -0.05284280702471733, -0.11144637316465378, -0.002302472945302725, -0.04088149592280388, -0.11318130046129227, 0.03132043033838272, -0.05173070356249809, 0.000608616101089865, 0.047888368368148804, -0.14766106009483337, 7.694671512581408e-05, 0.0010968854185193777, -0.027898285537958145, -0.20981256663799286, 0.04405469447374344, 0.43340185284614563, -0.03183204308152199, -0.04471229389309883, -0.04539022594690323, 0.011969947256147861, 0.025501353666186333, 0.011779209598898888, -0.07067876309156418, 0.0914776399731636, 0.017527496442198753, -0.03905337303876877, 0.044419266283512115, 0.06480417400598526, -0.008375483565032482, -0.012658685445785522, 0.10094881057739258, -0.009600140154361725, -0.11177796125411987, -0.00035185812157578766, 0.03140365332365036, 0.029248137027025223, 0.18244735896587372, -0.0012335897190496325, 0.04642118513584137], [0.0018942168680951, -0.029614156112074852, -0.018779821693897247, 0.026621785014867783, 0.02880881354212761, -0.01417449489235878, 0.03005875274538994, -0.0026554346550256014, 0.00037299591349437833, 0.03694799542427063, 0.01735796220600605, 7.654072760487907e-06, -0.022685693576931953, -0.0015160527545958757, -0.0673719197511673, -0.013847731053829193, 0.08450105786323547, -0.013460136950016022, -0.03213145211338997, -0.022953063249588013, -0.024869436398148537, -0.02551093138754368, 0.008449329994618893, -0.058877214789390564, -0.08114239573478699, -0.011258216574788094, -0.003402973059564829, 0.02587934397161007, 0.007848947308957577, -0.007314336486160755, -0.005800706800073385, -0.003751782001927495, 0.0034916093572974205, -0.0026970673352479935, -3.407816984690726e-05, 0.008863634429872036, 0.05604046210646629, 0.010089286603033543, 0.004470968618988991, -0.02513974905014038], [-0.09391482174396515, -0.011271758005023003, -0.06626374274492264, 0.29659193754196167, -0.056263115257024765, 0.05881230905652046, 0.03254915028810501, -0.0227324478328228, -0.00042951980140060186, 0.009539607912302017, 0.03206992149353027, -0.00023494494962505996, 0.0017753071151673794, -0.04844094067811966, -0.27430227398872375, -0.039022523909807205, 0.6486212015151978, -0.018754031509160995, -0.03167155385017395, -0.0260471124202013, -0.009770099073648453, -0.11303438246250153, 0.0012835853267461061, -0.06280726939439774, -0.10564425587654114, 0.0008369171409867704, -0.0035375640727579594, 0.10274239629507065, 0.019670413807034492, -0.02412637323141098, 0.0037260414101183414, -0.15483786165714264, 0.008677716366946697, -0.03254573419690132, -8.131168578984216e-05, 0.03731098771095276, 0.08370403200387955, 0.14494289457798004, -0.004893166944384575, -0.044791679829359055], [-0.06244879961013794, -0.05778615176677704, 0.0059458184987306595, -0.028730476275086403, -0.047627709805965424, 0.18688267469406128, 0.15706723928451538, 0.030936719849705696, 0.00043323193676769733, -0.03036767989397049, -0.060854747891426086, -0.0002276899031130597, -0.026552077382802963, 0.021257415413856506, -0.21953193843364716, -0.044151779264211655, 0.44413647055625916, 0.04095029458403587, -0.12503665685653687, 0.0660633072257042, 0.20729483664035797, -0.03731496259570122, 0.005101831629872322, 0.1412147581577301, 0.0792195126414299, 0.037935901433229446, 0.011259926483035088, 0.09127099066972733, 0.02470390871167183, -0.08818228542804718, 0.07290323078632355, -0.21162456274032593, 0.0034679677337408066, 0.1491849422454834, -0.0006471099331974983, 0.15271921455860138, 0.05920357257127762, 0.21937333047389984, 0.00022335756511893123, -0.010845582000911236], [0.03324716538190842, 0.0455588735640049, 0.012826253660023212, 0.01594609022140503, 0.012842828407883644, -0.019202332943677902, -0.03011571802198887, 0.013476273976266384, 0.0006814945372752845, -0.054545581340789795, -0.023487601429224014, -2.434819407426403e-06, 0.02140672318637371, 0.015632541850209236, -0.0010286266915500164, -0.06450585275888443, 0.26672571897506714, -0.009585821069777012, 0.017964350059628487, -0.00011933213681913912, 0.0005555147072300315, -0.06507822126150131, -0.014155788347125053, 0.03704550117254257, 0.018880892544984818, -0.010236823000013828, -0.016389645636081696, -0.006746478378772736, -0.008634896017611027, 0.025091474875807762, -0.012579024769365788, 0.035156335681676865, 0.004256454762071371, -0.008093771524727345, 5.866849824087694e-05, -0.006167479790747166, 0.008043935522437096, 0.06542117893695831, 0.0039421506226062775, -0.02495465986430645], [-0.058871958404779434, 0.10596860200166702, -0.02733096480369568, 0.021880343556404114, 0.0017370255663990974, 0.07127972692251205, -0.025780675932765007, 0.030945410951972008, -0.0004233865183778107, -0.039748359471559525, -0.1504765748977661, -0.0001029213672154583, 0.04205659031867981, -0.028751971200108528, -0.0581681989133358, -0.042095690965652466, 0.3209337592124939, 0.008851512335240841, -0.03661190718412399, 0.04904686287045479, 0.0019716513343155384, -0.11540152877569199, -0.012716916389763355, 0.0744103342294693, -0.02151029370725155, 0.046264976263046265, 0.07528997212648392, 0.027296945452690125, 0.024667790159583092, -0.01761048287153244, 0.10569116473197937, 0.03688216581940651, 0.02571694739162922, -0.012057274580001831, -3.886102786054835e-05, 0.018188491463661194, -0.04443032294511795, 0.15539473295211792, -0.010419250465929508, -0.019069086760282516], [0.016199393197894096, -0.03666919469833374, -0.03035932406783104, 0.08683093637228012, 0.04642737656831741, -0.10856210440397263, -0.10042183101177216, 0.08263945579528809, 0.00033647968666628003, -0.05961420759558678, 0.011792623437941074, -0.000698504620231688, 0.04220428317785263, -0.055385369807481766, 0.007958969101309776, -0.23323442041873932, 0.13509374856948853, 0.012698010541498661, 0.10687780380249023, 0.07356754690408707, 0.04298264533281326, -0.2821642756462097, 0.007393646985292435, 0.12034281343221664, 0.11272251605987549, 0.012603146024048328, 0.12162740528583527, -0.07098749279975891, -0.011759327724575996, -0.016414711251854897, 0.1419474333524704, -0.2107899785041809, 0.022967800498008728, -0.14310650527477264, -0.0006380194099619985, -0.04685186967253685, -0.2679843306541443, 0.13349920511245728, -0.020554598420858383, -0.02479228377342224], [-0.03462309390306473, 0.030270090326666832, -0.020045291632413864, 0.009533151984214783, 0.004680998623371124, 0.021502571180462837, -0.010598143562674522, 0.01157348696142435, 0.0006966809742152691, -0.030223703011870384, -0.016912566497921944, -0.00022415153216570616, 0.03910975158214569, -0.020250104367733, -0.038718752562999725, 0.020950673148036003, 0.15977835655212402, -0.014772492460906506, -0.009705581702291965, -0.004679382778704166, -0.013133887201547623, -0.03737286850810051, -0.003959170542657375, 0.017544737085700035, 0.012907926924526691, 0.03790208324790001, 0.03313269466161728, 0.040065325796604156, 0.021332597360014915, 0.007319040596485138, -0.016480466350913048, 0.021484367549419403, 0.009445293806493282, -0.04893295839428902, -0.00022758945124223828, 0.004737203940749168, -0.005833987612277269, 0.018623529002070427, -0.0008886271971277893, -0.014465904794633389], [0.05469532310962677, 0.004106332082301378, -0.01790640503168106, 0.021775174885988235, -0.014118044637143612, -0.01734689436852932, 0.003793546697124839, -0.027600707486271858, 0.0003239340730942786, 0.03230828419327736, 0.0664607360959053, 8.846244600135833e-05, -0.0056008994579315186, 0.03455868735909462, 0.0464145801961422, -0.018489768728613853, 0.21688345074653625, 0.0034748571924865246, -0.0063530923798680305, -0.08265098929405212, -0.05955623835325241, -0.029688147827982903, -0.06094305217266083, -0.057433612644672394, 0.032382380217313766, -0.050477173179388046, -0.12022264301776886, 0.07922615855932236, -0.0039803627878427505, 0.04342759773135185, -0.14622972905635834, 0.007806065957993269, 0.013187356293201447, 0.007314001210033894, -0.00012342858826741576, 0.0023739843163639307, 0.15490791201591492, 0.11320626735687256, -0.002415912924334407, 0.014151730574667454], [0.010273585096001625, 0.03022673726081848, -0.06550884246826172, -0.020783254876732826, -0.048277877271175385, -0.042056724429130554, -0.04089001938700676, 0.04924871399998665, 0.00024076830595731735, -0.04552295431494713, -0.04906944930553436, -3.0169476303854026e-05, 0.0342237688601017, -0.013884772546589375, -0.012790689244866371, 0.08551060408353806, 0.08645619451999664, 0.011652440764009953, -0.002574895042926073, 0.015087121166288853, 0.04743118956685066, -0.10068829357624054, -0.02165083773434162, 0.04646168649196625, -0.006815244443714619, -0.02022666670382023, 0.03447959944605827, 0.031095916405320168, 0.020231738686561584, 0.0008878124644979835, 0.01671922579407692, -0.030847635120153427, 0.010971063748002052, -0.059523116797208786, -6.151787238195539e-05, 0.008735619485378265, -0.040353890508413315, 0.04137876257300377, -0.0012994281714782119, -0.019851570948958397], [-0.028731955215334892, 0.041145313531160355, -0.07848189771175385, -0.04495112970471382, 0.04050329700112343, 0.027395181357860565, -0.03418451547622681, -0.009475218132138252, 0.00067503796890378, 0.013880058191716671, -0.06943413615226746, -0.00014973360521253198, 0.0010261302813887596, -0.03695197030901909, -0.1701221466064453, -0.06446614861488342, 0.14750835299491882, -0.020042136311531067, -0.023015405982732773, 0.012835832312703133, -0.005864856299012899, -0.0532032735645771, -0.0006077114376239479, -0.04764917492866516, -0.03649754822254181, -0.0006544420029968023, 0.10218918323516846, -0.017606692388653755, 0.006303709931671619, 0.010556747205555439, 0.025531001389026642, 0.012357291765511036, 0.009764287620782852, -0.027377644553780556, -8.914533100323752e-05, 0.010246115736663342, -0.023943718522787094, 0.0790007933974266, 0.004343143664300442, -0.037444960325956345], [-0.027367206290364265, -0.004553055390715599, -0.04924876615405083, -0.08829846233129501, -0.01748952642083168, 0.05106862634420395, -0.007804422173649073, 0.020605824887752533, 0.00016288572805933654, 0.006860110443085432, -0.031911756843328476, -3.981703412136994e-05, 0.009915470145642757, -0.010322204791009426, -0.06099434942007065, -0.024735361337661743, 0.10859154909849167, 0.019420990720391273, -0.008835358545184135, 0.027189208194613457, 0.030158858746290207, -0.033884692937135696, -0.0027648224495351315, 0.0067450604401528835, 0.04646860063076019, 0.01636733114719391, 0.042115937918424606, 0.037437889724969864, 0.05268970504403114, -0.04650582745671272, 0.04123770445585251, -0.048487622290849686, 0.00429950375109911, -0.01648842543363571, -9.333865455118939e-05, 0.03552709147334099, -0.06656305491924286, 0.06543517112731934, -0.0015913030365481973, -0.010655248537659645], [-0.010773995891213417, -0.012803617864847183, -0.0732547864317894, 0.07578898966312408, -0.007334272842854261, 0.0012410174822434783, -0.03785363957285881, 0.0016035335138440132, 0.001348452060483396, -0.019737431779503822, -0.008940854109823704, -0.00019953308219555765, 0.01730281487107277, -0.014483548700809479, -0.1466750055551529, -0.0364251546561718, 0.17710059881210327, -0.021506140008568764, -0.01402030885219574, -0.026572037488222122, -0.025417130440473557, -0.054443322122097015, -0.023613950237631798, -0.038398269563913345, -0.062314197421073914, -0.0218791626393795, 0.023584481328725815, 0.02223082073032856, -0.02019641548395157, 0.03742881491780281, -0.047247909009456635, 0.02278681844472885, 0.0010864805663004518, -0.054198071360588074, -0.00035985696013085544, -0.01042380090802908, 0.07994800060987473, 0.04206177219748497, 0.005380744114518166, -0.030713923275470734], [0.1299508810043335, 0.213197261095047, 0.07461503893136978, 0.01310395821928978, -0.06170513108372688, 0.050529297441244125, -0.0033803225960582495, -0.09875836968421936, 0.0012062124442309141, 0.07694636285305023, -0.06552016735076904, 0.0012017718981951475, 0.01581568270921707, -0.07605740427970886, -0.10121050477027893, 0.248011514544487, 1.0288567543029785, -0.03822369500994682, -0.0022145456168800592, 0.004593946970999241, 0.10751307010650635, -0.3446742296218872, 0.14689573645591736, -0.27674901485443115, 0.2998865842819214, 0.025950103998184204, -0.060275595635175705, -0.02267913706600666, 0.06055782362818718, 0.012676838785409927, 0.000667763699311763, -0.054058223962783813, 0.02898816391825676, -0.029412565752863884, 0.00032406277023255825, 0.10425478965044022, -0.037989139556884766, 0.4338212013244629, -0.007025756407529116, 0.034087587147951126], [0.005941496230661869, -0.0006354671204462647, -0.007698687259107828, 0.0047106253914535046, -0.011350739747285843, -0.006244500167667866, -0.004515370354056358, 0.0030651683919131756, 8.44099122332409e-05, -0.0028796398546546698, -0.006991143804043531, 4.409753091749735e-05, -0.0028049247339367867, -0.004316774662584066, -0.001959156012162566, 0.010672028176486492, 0.018698403611779213, 0.0020309765823185444, -0.0001664938754402101, 6.336259684758261e-05, -0.0021049350034445524, -0.00701875938102603, -0.0028865577187389135, -0.01061271969228983, 0.002447424689307809, 0.0014268254162743688, -0.00925406999886036, 0.0013381161261349916, 0.011950447224080563, 0.005467301234602928, -0.0036820846144109964, 0.0057191504165530205, 0.001319987466558814, -0.0004022927605547011, -3.747183654922992e-05, 0.010227089747786522, -0.0011145498137921095, 0.006699922028928995, 0.0002776251931209117, 0.007188858464360237], [0.12334059178829193, -0.26266059279441833, -0.18715529143810272, -0.02803122252225876, -0.04478482902050018, -0.30780935287475586, 0.14320670068264008, -0.060621052980422974, -0.00022584214457310736, 0.03871600702404976, 0.048706330358982086, -0.00012157222226960585, -0.03802308067679405, -0.014699929393827915, -0.5220555067062378, -0.054344598203897476, 1.1402380466461182, -0.019586488604545593, -0.09662749618291855, -0.0327494852244854, -0.005769688636064529, -0.20986416935920715, -0.018515905365347862, -0.0268415454775095, -0.24323277175426483, -0.006469047162681818, 0.011975772678852081, 0.04628627374768257, 0.029151052236557007, -0.0002861817192751914, 0.014609081670641899, -0.12077777832746506, -0.019658390432596207, -0.03502778708934784, 0.00013465937809087336, 0.20809213817119598, -0.022134659811854362, 0.36528804898262024, -0.0043764878064394, 0.03562629222869873], [-8.742117643123493e-06, 4.005208666058024e-06, 7.797441867296584e-06, -1.0457848475198261e-05, -4.67595896225248e-07, -6.117462447718935e-08, -5.036083621234866e-07, -5.117874934512656e-06, 2.6176463663318827e-08, -4.108109976641572e-07, -7.162303063523723e-06, -1.0838269171031811e-09, -2.6608627194946166e-06, 8.769597457103373e-07, 4.1614398469391745e-06, 7.2933180490508676e-06, -4.0430048102280125e-05, 3.0934762662582216e-07, -4.383851774036884e-06, 2.8314964310993673e-06, 7.334079327847576e-06, 8.513570719514973e-06, -1.395071507204193e-07, 9.97400093183387e-06, 1.9902374503999454e-07, 2.628350557642989e-06, 7.578738859592704e-06, -2.095840272886562e-06, 2.323156422789907e-06, 9.999812533578734e-08, 6.221428520802874e-06, 1.5435152818099596e-05, -2.41264137912367e-06, -2.5601004836062202e-06, -2.7073138397781804e-08, -5.115676685818471e-06, -8.093076758086681e-06, -2.8835487682954408e-05, 3.616798949224176e-07, 7.910397812338488e-07], [-0.1819826364517212, -0.07497525215148926, -0.36965036392211914, -0.027486786246299744, -0.049032457172870636, -0.18344374001026154, 0.048834726214408875, -0.03547583147883415, -0.0022589194122701883, -0.035964205861091614, -0.03466814011335373, 0.0005053185159340501, -0.004767687991261482, -0.0007953581516630948, -0.6310187578201294, -0.09168984740972519, 0.2668246626853943, 0.05887361243367195, -0.09873434901237488, -0.01075717806816101, 0.06583572924137115, 0.025389518588781357, -0.005370466969907284, -0.016403406858444214, 0.056295134127140045, 0.01009374763816595, 0.028253283351659775, 0.10549698024988174, 0.05411859229207039, -0.06650779396295547, 0.02393322065472603, -0.03278485685586929, 0.015401242300868034, -0.49055179953575134, -0.00028992921579629183, 0.06208020821213722, 0.016507644206285477, 0.15390022099018097, -0.014997661113739014, 0.042975593358278275], [0.0616910383105278, -0.06726662814617157, -0.011933538131415844, 0.11490795016288757, 0.013602429069578648, -0.0989840179681778, -0.03721645846962929, -0.02267616055905819, 0.0005316929891705513, -0.028822194784879684, -0.0017926782602444291, 0.00028111590654589236, -0.016052410006523132, 0.1102498397231102, 0.1714508980512619, -0.08580145239830017, 0.1264900416135788, 0.001392599893733859, 0.04602889344096184, -0.0241687148809433, 0.01818741299211979, 0.22301775217056274, -0.0444088876247406, 0.09150981903076172, -0.08828369528055191, -0.05109422281384468, -0.0848584920167923, -0.0985725075006485, -0.1699463129043579, 0.07578933984041214, -0.08276843279600143, -0.09448327124118805, -0.04235408082604408, 0.04009874910116196, -0.0002922089770436287, -0.044270485639572144, 0.1302475929260254, 0.1518598198890686, 0.008119259960949421, 0.07374505698680878], [-0.14230436086654663, 0.1197255328297615, 0.05242331326007843, -0.07488761842250824, -0.043012846261262894, 0.3583810329437256, -0.005971610080450773, 0.03187001496553421, 0.000982716679573059, -0.0555262491106987, -0.0786437839269638, 0.00045464353752322495, 0.03169848769903183, -0.025749647989869118, 0.2084553986787796, 0.062097903341054916, 0.4521743953227997, 0.015955906361341476, 0.02161415107548237, 0.02314194105565548, -0.0016265835147351027, 0.11709306389093399, -0.04512760788202286, 0.028549719601869583, -0.06228893995285034, 0.010011707432568073, 0.05442752689123154, -0.010087610222399235, 0.01114866603165865, -0.008331521414220333, 0.03292881324887276, 0.09076197445392609, 0.003423073096200824, 0.004807096906006336, 0.00035164973814971745, -0.0156396497040987, 0.03137672692537308, 0.21372786164283752, -0.004238297697156668, -0.0341084823012352], [0.000652953633107245, 0.0007328305509872735, -0.0017295368015766144, -0.002602123888209462, 0.0011699643218889832, 0.00014704490604344755, -0.0006829433841630816, 0.001320944051258266, 1.678599073784426e-05, -0.0004654590447898954, -0.0022251582704484463, -8.085346962616313e-06, 0.0008018168155103922, -6.440898141590878e-05, -0.0034586440306156874, -0.003779485123232007, 0.0048722559586167336, 0.00018587654631119221, 0.00026184096350334585, 0.0013159996597096324, 0.0009644023375585675, -0.002575318329036236, 0.0003118630265817046, -0.0002192359825130552, 0.0022554397583007812, 0.0006524044438265264, 0.001981085166335106, -0.0003827328619081527, 6.935474084457383e-05, -0.0006945940549485385, 0.0010028881952166557, -0.000980920041911304, 7.362800533883274e-05, -0.00033769506262615323, -1.7307100279140286e-05, 0.00165381224360317, -0.002189429709687829, 0.0032713687978684902, 0.00016471989511046559, -0.0003299829550087452], [-0.001269120373763144, -0.002895772224292159, -0.02265891060233116, 0.02935076132416725, -0.020853400230407715, 0.0024560699239373207, -0.01564931310713291, 0.004967004992067814, 6.914252298884094e-05, -9.547026274958625e-05, -0.005075909662991762, -3.5344837669981644e-05, -0.007731264922767878, -0.010446760803461075, -0.04085373878479004, 0.026854943484067917, -0.005389981437474489, 0.0038183939177542925, -0.001341829658485949, -0.003986833151429892, 0.0007756241247989237, -0.0031425843480974436, 0.003024282632395625, -0.02932758629322052, 0.04367658868432045, 0.005148854572325945, -0.02575797215104103, 0.013898058794438839, 0.019244441762566566, 0.0019552670419216156, -0.01495322585105896, 0.004691570531576872, 0.008706770837306976, -0.02935471385717392, -0.00013962305092718452, -0.0068319570273160934, 0.017331920564174652, -0.018877806141972542, -0.0007355248089879751, -0.004143896047025919], [0.3504321277141571, 0.049783799797296524, -0.22397223114967346, -0.36501896381378174, -0.19704079627990723, -0.1976722627878189, -0.012161603197455406, 0.10481389611959457, 0.0008185214828699827, -0.03673529624938965, 0.0256788432598114, 0.0001120521264965646, 0.06182112917304039, -0.03069823607802391, 0.24075113236904144, 0.5979807376861572, 0.007855012081563473, -0.03225147724151611, -0.01748168282210827, -0.09032322466373444, 0.2682829201221466, 0.07951924949884415, -0.011164763011038303, -0.022330861538648605, -0.22686637938022614, 0.007871493697166443, -0.027616580948233604, 0.140089213848114, 0.03424243628978729, 0.01113826222717762, -0.07549268007278442, -0.07700376212596893, 0.09593583643436432, -0.3766932189464569, 0.00042387531721033156, -0.05485484004020691, 0.0377378985285759, 0.17236101627349854, -0.03463854640722275, -0.07422313839197159], [0.012839878909289837, 0.08992163836956024, -0.02088034525513649, 0.004165030084550381, -0.2359997183084488, 0.08975239843130112, 0.09874425083398819, -0.5908753275871277, 0.0016252357745543122, -0.00186536752153188, 0.10121139883995056, -0.00010457142343511805, -0.22035130858421326, -0.003083097981289029, -0.16062232851982117, -0.04379025474190712, 0.06576874107122421, 0.07151642441749573, 0.5667213201522827, 0.1188826635479927, 0.1313084065914154, -0.11761747300624847, 0.02384638413786888, 0.02985680289566517, 0.022240813821554184, -0.3894781768321991, 0.09540282934904099, 0.009248243644833565, -0.05787969008088112, -0.07207456231117249, 0.45638883113861084, 0.4413253962993622, -0.28232353925704956, 0.143519788980484, 6.474121619248763e-05, 0.23273639380931854, 0.06856203824281693, -0.15210412442684174, -0.03579085320234299, 0.5271653532981873], [-0.3279914855957031, 0.0058538350276649, 0.253290057182312, 0.08318230509757996, 0.14988009631633759, 0.11850164830684662, 0.01779128611087799, -0.08445694297552109, -0.0026117723900824785, 0.0607885904610157, -0.0012258205097168684, -0.0011562121799215674, 0.0689241960644722, 0.006617692764848471, 0.06186347082257271, 0.0821826159954071, 0.10887651145458221, 0.007411225698888302, 0.08290033787488937, -0.17247609794139862, 0.2744573950767517, -0.0608241930603981, 0.0028358043637126684, 0.040325749665498734, -0.0645768940448761, 0.018720658496022224, -0.02517285943031311, -0.08049160242080688, 0.06644066423177719, 0.06764793395996094, 0.056220538914203644, 0.0939398854970932, 0.0035665291361510754, 0.9288859963417053, -0.001567388535477221, -0.2564361095428467, -0.04766708239912987, -0.026105191558599472, -0.027903947979211807, -0.030059654265642166], [0.377499520778656, -0.00916637945920229, 0.37989121675491333, 1.4403712749481201, 0.65904301404953, -0.017337510362267494, -0.030620628967881203, -0.30687227845191956, -0.0034444532357156277, 0.08814791589975357, -0.20655201375484467, 1.2877793778898194e-05, -0.08486852794885635, -0.07154930382966995, -0.2671000063419342, -2.071164608001709, -0.11476752161979675, 0.03256072476506233, 0.08730056881904602, 0.03502479940652847, -0.29794254899024963, -0.026848623529076576, 0.014037223532795906, -0.07070815563201904, 0.48214852809906006, 0.014302588999271393, 0.01776083931326866, -0.21911470592021942, -0.04562090337276459, -0.08999592065811157, 0.014967212453484535, -0.09189628064632416, -0.05845386162400246, 0.2881605625152588, -8.838525536702946e-05, -0.056493308395147324, -0.230259969830513, -0.035187557339668274, 0.020135149359703064, 0.025387857109308243], [-0.01640426740050316, 0.11810057610273361, -0.06382201611995697, -0.08384805172681808, -0.19991804659366608, 0.06683345139026642, 0.09567869454622269, -0.23655965924263, -0.002165938727557659, 0.08765651285648346, 0.07218137383460999, -0.00042291200952604413, 0.40752264857292175, 0.08779539912939072, -0.06505775451660156, -0.5336558222770691, 0.028341136872768402, -0.2720566689968109, -0.03572508320212364, -0.2798401713371277, -0.14291375875473022, -0.10269873589277267, -0.10150720179080963, -0.11934683471918106, -0.2257889211177826, -0.15577435493469238, -0.16747049987316132, 0.3065224289894104, -0.3997802138328552, -0.07001714408397675, 0.15358787775039673, 0.11968934535980225, 0.22139717638492584, 0.25795820355415344, -0.001364547642879188, 0.19482441246509552, -0.19040457904338837, 0.05028912052512169, -0.07679105550050735, -0.15073566138744354], [0.05893230065703392, 0.3167541027069092, 0.013700216077268124, -0.09975513815879822, 0.17281362414360046, 0.53441321849823, -0.10908583551645279, 0.0799434706568718, 0.001246781786903739, -0.06432637572288513, -0.06942572444677353, 0.0002794094616547227, 0.20772702991962433, 0.002518521621823311, -0.050950970500707626, -0.12173989415168762, 0.10225154459476471, -0.027199387550354004, 0.1667681783437729, -0.025221142917871475, -0.013536554761230946, 0.13480713963508606, -0.11522343009710312, -0.010176379233598709, 0.030418336391448975, 0.13701337575912476, -0.0016653331695124507, 0.03751233220100403, 0.04964527115225792, 0.054462604224681854, -0.11059770733118057, 0.6701229214668274, 0.12328820675611496, -0.01971963420510292, 0.00021856439707335085, -0.1190204918384552, 0.39132171869277954, 0.043811868876218796, -0.012092147953808308, -0.12184380739927292], [0.03012661635875702, -0.05472426488995552, 0.06562832742929459, -0.02387908473610878, 0.06592435389757156, 0.20939941704273224, 0.518593966960907, 0.18465499579906464, 0.00426137400791049, 0.005598453804850578, 0.3604177236557007, -0.0003196300531271845, 0.02901473455131054, 0.024691764265298843, 0.002340498846024275, 0.015582435764372349, -0.10422072559595108, 0.009309622459113598, -0.2239808738231659, 0.06640144437551498, 0.11240474134683609, 0.06576976925134659, -0.08716900646686554, -0.004761190619319677, -0.07272376120090485, -0.02957254648208618, -0.041352663189172745, -0.00967455841600895, 0.14011551439762115, 0.010658175684511662, 0.025233544409275055, -0.11774826794862747, 0.01039761584252119, -0.07341311872005463, 0.002069563139230013, -0.036755822598934174, 0.1392468363046646, 0.02144525945186615, 0.019954221323132515, -0.024219824001193047], [0.04043857008218765, -0.08290384709835052, 0.033600520342588425, 0.09548190981149673, 0.1421186327934265, 0.02354561910033226, -0.15732894837856293, 0.03518069535493851, -0.004354445729404688, -0.12054676562547684, 0.04488115385174751, -0.0007078141206875443, 0.3295145630836487, -0.04914997145533562, 0.004169582389295101, 0.1493985503911972, 0.12636500597000122, -0.13776414096355438, -0.17986460030078888, -0.1236761212348938, 0.1976204216480255, 0.040930137038230896, -0.44849058985710144, -0.0881757065653801, 0.13919246196746826, -0.00022827678185421973, -0.18479755520820618, -0.09313500672578812, -0.1421211212873459, 0.11367996037006378, 0.35350117087364197, -0.03218182921409607, -0.13843151926994324, 0.09423121064901352, -0.00022097228793427348, 0.19181616604328156, -0.36073267459869385, -0.20789021253585815, -0.08248863369226456, 0.058372750878334045], [-0.001185740577057004, -0.0007078971830196679, 0.0009081120369955897, -0.0005914141656830907, 0.0007996788481250405, 0.0034594007302075624, 0.0036202408373355865, 0.0016382334288209677, 0.00011808185809059069, 0.0009200169006362557, -0.0028849318623542786, 6.426831077988027e-06, 0.0007667868048883975, -0.0025478603783994913, -0.0009905690094456077, 0.0014669395750388503, -0.012595180422067642, -0.0018832464702427387, 0.0011127095203846693, 0.0007012136047706008, -0.0006512372056022286, -0.0003535625000949949, -0.002183307195082307, 0.002390004228800535, -0.0014019476948305964, -0.0037072193808853626, 0.00020037649665027857, -0.0028323193546384573, -0.0010366166243329644, 0.002163037657737732, -0.0008058951352722943, 0.0003305072896182537, -0.0010470745619386435, -0.0017099404940381646, -6.776665395591408e-05, 2.1187774734698905e-07, 0.0009441945585422218, -0.005405650474131107, 9.327876614406705e-05, -0.0017233479302376509], [0.023220015689730644, 0.12156199663877487, 0.010045173577964306, 0.013355561532080173, 0.0700528547167778, -0.053450461477041245, -0.05842491239309311, 0.3524476885795593, -3.977791857323609e-05, 0.158999502658844, -0.025699233636260033, -0.00020014667825307697, -0.486621618270874, 0.11302611976861954, -0.0017215046100318432, -0.05450432375073433, -0.2003885805606842, 0.09612942487001419, 0.0675482451915741, 0.08920988440513611, -0.0025632677134126425, -0.057408321648836136, -0.713056743144989, -0.3280417025089264, -0.0672370046377182, 0.04869401082396507, -0.16100507974624634, 0.2294001430273056, 0.145431250333786, -0.08842577040195465, 0.4007408022880554, -0.08276880532503128, 0.10302967578172684, 0.06602789461612701, -0.0004703847225755453, -0.10746145993471146, 0.13737012445926666, 0.17316970229148865, 0.00800761952996254, -0.025533420965075493], [0.009472867473959923, 0.04236695170402527, -0.06871248781681061, -0.010499096475541592, 0.1570521742105484, 0.03516436368227005, -0.3525216579437256, 0.0022758902050554752, 0.004856928251683712, 0.04723652824759483, 0.7021930813789368, 0.0011783650843426585, 0.09989196062088013, 0.10968495905399323, 0.22953617572784424, -0.14593614637851715, -0.0011715112486854196, -0.04924101382493973, 0.12513822317123413, -0.1277318149805069, 0.14522622525691986, -0.04905709996819496, -0.17464998364448547, -0.0422995500266552, 0.14100907742977142, -0.07755793631076813, -0.22925248742103577, -0.0038122939877212048, -0.10133569687604904, 0.12670500576496124, -0.22971011698246002, -0.1461952179670334, 0.029080655425786972, -0.2425459921360016, 0.0013965426478534937, 0.19695232808589935, 0.4203280210494995, 0.1087787002325058, -0.0015636538155376911, 0.011957671493291855], [0.0005511339986696839, 0.0006911797099746764, 0.0002777342451736331, 0.00012315201456658542, 0.0005737520987167954, 0.0008403003448620439, 0.000799573608674109, 0.0005966185708530247, -1.9656836229842156e-05, -0.00028229953022673726, -0.0010101693915203214, -1.9702241843333468e-05, 6.408817716874182e-05, -0.0007935194298624992, 0.00011549989721970633, 0.0005101853748783469, -0.0014744099462404847, -0.0003869630163535476, -6.427536573028192e-05, 0.00020954459614586085, -0.000567521492484957, -0.0005828840075992048, 0.0003447433700785041, -0.00016034654981922358, -0.00011099306721007451, -0.0015031874645501375, -0.00020531618793029338, -0.0007777877035550773, -0.0005959073314443231, 0.00026747584342956543, -0.00044701521983370185, 2.8663671400863677e-05, 0.00016043083451222628, 0.0005853319307789207, -1.4652091522293631e-05, 0.0006259550573304296, 0.00044007712858729064, -0.0005128071061335504, -1.9987226551165804e-05, -0.0011081632692366838], [0.01904451474547386, 0.175419420003891, -0.08499495685100555, 0.037920039147138596, -0.13756923377513885, -0.08481589704751968, -0.1368938535451889, -0.2918836176395416, -0.000989024993032217, 0.5998194217681885, 0.04563535377383232, -6.262063106987625e-05, 0.2642754316329956, 0.09395451843738556, -0.01475133653730154, -0.018033528700470924, 0.13238465785980225, 0.20833656191825867, 0.036856040358543396, 0.19564762711524963, 0.1421966701745987, -0.03972804918885231, 0.01710907183587551, 0.16085194051265717, -0.01753905974328518, -0.4893558919429779, 0.21451255679130554, -0.10832277685403824, 0.30180156230926514, -0.06943843513727188, -0.4370029866695404, -0.05975516885519028, -0.04982519522309303, 0.027192628011107445, -0.00032701611053198576, 0.07559200376272202, -0.08589637279510498, -0.037493541836738586, 0.03982321918010712, 0.07732310891151428], [0.0705808699131012, -0.1849370151758194, -0.05438896268606186, -0.06718847155570984, -0.13636234402656555, 0.005396874621510506, -0.14044055342674255, -0.15862047672271729, 0.0005185682675801218, -0.013689345680177212, -0.0033007198944687843, 3.904562254319899e-05, 0.04679771140217781, 0.0818464532494545, 0.10061518102884293, -0.10402444750070572, -0.048820704221725464, 0.20427925884723663, 0.08997859805822372, 0.1315063238143921, -0.018110500648617744, -0.050892919301986694, -0.10235576331615448, 0.2749992311000824, 0.029870476573705673, 0.0724460706114769, 0.1671718806028366, -0.18683521449565887, 0.46283355355262756, 0.244927778840065, -0.03935834392905235, -0.01380299311131239, 0.13597358763217926, 0.07449096441268921, 0.000466525845695287, 0.18569119274616241, 0.5513942241668701, 0.11919264495372772, 0.00973596889525652, -0.07508546859025955], [-0.5142489075660706, -0.039193082600831985, 0.5412629246711731, 0.12608441710472107, 0.036549460142850876, -0.017922574654221535, 0.02669794112443924, 0.0429408997297287, -0.0020250931847840548, -0.055931635200977325, -0.019781198352575302, 5.174743273528293e-05, -0.08208006620407104, -0.005657754838466644, 0.40973350405693054, -0.45498916506767273, -0.07262726128101349, 0.044732943177223206, -0.1237831711769104, 0.11544118821620941, -0.19003908336162567, -0.13265694677829742, 0.06337559223175049, 0.0389205627143383, 0.07629809528589249, -0.005615375470370054, 0.027165688574314117, -0.0775553286075592, -0.08698896318674088, -0.053597342222929, 0.03849855810403824, -0.04469726234674454, -0.05411161109805107, -0.3240908086299896, -0.0005230800597928464, -0.31902673840522766, 0.020144309848546982, 0.10172926634550095, 0.022532107308506966, 0.034841474145650864], [-0.2196393460035324, -0.16888900101184845, -0.4110829830169678, 0.29265886545181274, 0.33017808198928833, 0.09366568922996521, 0.10721058398485184, -0.30853506922721863, -0.0022847040090709925, 0.15552106499671936, -0.06113201379776001, -0.0006452688830904663, -0.011545691639184952, -0.15822406113147736, 0.7832614183425903, 0.04592370614409447, -0.09970629215240479, -0.07088131457567215, -0.10267725586891174, -0.2651784420013428, 0.03569437935948372, -0.023708054795861244, -0.14250776171684265, 0.0031996658071875572, 0.26191362738609314, -0.09930264949798584, 0.13769717514514923, -0.1614307165145874, 0.040942493826150894, 0.03186015039682388, 0.1822730004787445, 0.11094367504119873, -0.05531362444162369, -0.7253682613372803, -0.0008911352488212287, 1.6085494756698608, 0.01452390756458044, -0.16579216718673706, -0.0706033930182457, 0.062334056943655014], [-0.21411775052547455, -0.07073315978050232, 0.03432644158601761, 0.02235397696495056, -0.09134585410356522, 0.48863086104393005, -0.0314178392291069, -0.005648121237754822, -0.0035109324380755424, -0.0018492931267246604, -0.049636632204055786, 0.0007227162132039666, -0.004954954143613577, 0.026926828548312187, 0.007354354485869408, 0.1608802229166031, 0.1734684407711029, -0.017629902809858322, -0.01002506259828806, -0.016221866011619568, -0.011221282184123993, 0.006260671652853489, -0.010515316389501095, -0.0018082748865708709, 0.020641058683395386, 0.027337757870554924, 0.015880966559052467, 0.05168411508202553, -0.028486188501119614, 0.05368528887629509, 0.029845677316188812, -0.17021094262599945, -0.019808294251561165, -0.013713066466152668, 0.0011754456209018826, -0.0064244382083415985, 0.07642191648483276, 0.11894207447767258, 9.595279698260128e-05, 0.035904113203287125], [-0.07557458430528641, -0.015327652916312218, -0.029809553176164627, 0.015862904489040375, 0.08185496926307678, 0.03692067787051201, 0.11128368973731995, 0.10393735766410828, -0.0012712307507172227, -0.05211760476231575, -0.03699887543916702, 0.00016212761693168432, -0.40467119216918945, -0.28034475445747375, -0.0030112925451248884, 0.00448335288092494, 0.11061365157365799, 0.06814297288656235, -0.08153083175420761, -0.2397846132516861, 0.20908913016319275, 0.029167229309678078, 0.03624071925878525, 0.10970273613929749, 0.12664936482906342, -0.027330918237566948, -0.08053997159004211, -0.15278522670269012, 0.14621029794216156, -0.06615526229143143, -0.19510062038898468, 0.054842639714479446, -0.023273322731256485, 0.09085585176944733, -0.00028998104971833527, 0.025194011628627777, -0.11338435858488083, -0.0002763431693892926, -0.04270224645733833, 0.024014964699745178], [0.19133123755455017, -0.7604604959487915, -0.04860367998480797, 0.1323302537202835, -0.2341986745595932, 0.5402213335037231, -0.3717882037162781, 0.175897017121315, 0.001589780324138701, 0.11789873987436295, -0.023178663104772568, 0.00034041941398754716, -0.2095031440258026, 0.07508111000061035, -0.00789610855281353, -0.023874498903751373, 0.13327933847904205, 0.015989862382411957, 0.09586151689291, -0.019347546622157097, 0.053207822144031525, -0.11092176288366318, 0.028540747240185738, -0.021831050515174866, -0.06837953627109528, -0.1576831340789795, -0.15705141425132751, -0.10083694010972977, -0.05060005933046341, 0.01198557484894991, -0.10917417705059052, 0.5921732783317566, -0.09874431788921356, 0.15256428718566895, 0.000814379716757685, 0.0821443572640419, -0.6455365419387817, -0.11331620812416077, 0.0020167608745396137, 0.055115845054388046], [0.044482965022325516, -0.08745019137859344, 0.012507711537182331, 0.003251125570386648, 0.22785043716430664, 0.07066375017166138, -0.0024062078446149826, 0.14997360110282898, -0.0010868587996810675, 0.1232595145702362, -0.07698876410722733, 0.0005613242974504828, -0.18582646548748016, -0.2554932236671448, 0.001663491944782436, 0.08190596848726273, 0.0986032709479332, 0.29408079385757446, 0.0802907645702362, 0.07514724880456924, 0.1193806603550911, -0.06061793491244316, -0.04665490239858627, 0.12049330025911331, 0.1360100954771042, -0.011091342195868492, 0.11293570697307587, -0.3808782696723938, 0.367107629776001, 0.013234253972768784, 0.23232150077819824, 0.010280262678861618, -0.09629695862531662, 0.01408863440155983, 2.0176124962745234e-05, 0.05313281714916229, 0.10402695089578629, -0.07718289643526077, -0.05864972621202469, 0.030197985470294952], [0.21930186450481415, 0.06144464388489723, -0.08160963654518127, -0.4823671877384186, -0.07982040196657181, 0.04357679560780525, 0.04531871899962425, -0.06248892471194267, 0.000832749588880688, 0.01748907007277012, 0.1042652577161789, -0.0009516155114397407, -0.061436571180820465, -0.021667782217264175, -0.11529912799596786, 0.25155362486839294, 0.11368735134601593, 0.0499928779900074, -0.09335007518529892, -0.02722851000726223, 0.5069820284843445, 0.011063838377594948, 0.006994261406362057, 0.1109873577952385, -0.12773746252059937, 0.10535088926553726, 0.08642073720693588, 0.1121632307767868, 0.049079809337854385, -0.14581063389778137, 0.06182797998189926, 0.0722116008400917, -0.1140449196100235, 0.0010157715296372771, -0.0004470601852517575, 0.07222522050142288, 0.11077602952718735, -0.15457318723201752, 0.041141483932733536, 0.1101372167468071], [0.18887373805046082, 0.30601829290390015, 0.013258129358291626, 0.13197481632232666, 0.14087305963039398, 0.9013746380805969, 0.07985354959964752, -0.022488756105303764, 0.000912868301384151, 0.03371857479214668, -0.09925073385238647, -0.0005900163087062538, 0.09598592668771744, 0.024251043796539307, 0.09919652342796326, 0.10003799945116043, -0.07329244166612625, -0.0028832335956394672, 0.1318265050649643, -0.03508554399013519, 0.19059881567955017, 0.5462300181388855, 0.058440160006284714, -0.06479797512292862, 0.05659204348921776, -0.0017427070997655392, -0.03155183047056198, -0.15041467547416687, -0.08003097772598267, 0.07347464561462402, -0.017916154116392136, 0.4556691646575928, -0.001840014010667801, 0.20968009531497955, 0.0006670362781733274, 0.09030469506978989, 0.13208572566509247, 0.23425215482711792, 0.013570325449109077, -0.049819815903902054], [-0.05260320380330086, -0.31690382957458496, 0.045318156480789185, 0.020301200449466705, 0.11704490333795547, 0.19376815855503082, 0.21887846291065216, 0.19310219585895538, 0.0018007321050390601, 0.6609986424446106, -0.08383939415216446, -6.199673225637525e-05, -0.02872338704764843, -0.10966028273105621, 0.02068817988038063, 0.05024411529302597, 0.04130472615361214, -0.056018222123384476, 0.1985531449317932, 0.02571095898747444, 0.16642014682292938, -0.1917998492717743, 0.14570021629333496, -0.15898765623569489, 0.037050046026706696, 0.38426467776298523, 0.2216651737689972, 0.08845128118991852, -0.06365383416414261, -0.14396391808986664, -0.07364561408758163, 0.20679253339767456, 0.10961218923330307, 0.024847915396094322, -0.0005612982786260545, -0.032088372856378555, 0.13206791877746582, 0.08029859513044357, -0.05523613467812538, -0.13120818138122559], [-0.09874635189771652, 0.09262225776910782, -0.11545179039239883, 0.02791529893875122, 0.09237967431545258, -0.18583352863788605, 0.004729237407445908, 0.07471339404582977, -0.0008644576300866902, 0.20871597528457642, 0.1063009724020958, -0.001103660324588418, -0.18022671341896057, 0.03211256489157677, 0.08561056852340698, 0.02694251574575901, -0.019960951060056686, -0.07482919096946716, -0.037461575120687485, -0.010560233145952225, 0.06567477434873581, 0.19653190672397614, -0.015585350804030895, 0.4707956910133362, 0.02687298133969307, 0.2575153410434723, 0.5161927342414856, 0.11343011260032654, -0.18121135234832764, -0.20457619428634644, -0.0813102200627327, -0.16802532970905304, 0.06619703024625778, 0.08686284720897675, 0.0012213920708745718, 0.008740038610994816, -0.13031965494155884, 0.03127489238977432, -0.002901313826441765, -0.09718481451272964], [0.08090890944004059, 0.19247378408908844, 0.05407010018825531, 0.05442051589488983, 0.046509623527526855, 0.06624370813369751, -0.09307390451431274, 0.10813938826322556, -0.0021325901616364717, -0.10386218130588531, 0.07057041674852371, -0.0005802017403766513, 0.01781214028596878, 0.072242870926857, -0.07128099352121353, -0.5579570531845093, 0.0892089307308197, 0.05452209711074829, 0.01639961265027523, -0.057056721299886703, 0.500400185585022, -0.25708886981010437, 0.06020635366439819, -0.010944357141852379, 0.5489174723625183, 0.12747827172279358, -0.11555952578783035, 0.2444877028465271, -0.016649547964334488, -0.16921928524971008, -0.07875251024961472, -0.07720591127872467, 0.14061075448989868, 0.010257335379719734, -0.0007585849380120635, -0.2325209230184555, -0.17620357871055603, 0.04725882038474083, -0.018325263634324074, -0.1346220225095749], [-0.05536476895213127, 0.032144397497177124, 0.039826732128858566, -0.09678714722394943, 0.15173737704753876, -0.03695080056786537, -0.013996547088027, 0.08674696832895279, 0.0013886853121221066, -0.04798942431807518, 0.02190297469496727, 0.00040890928357839584, 0.6241588592529297, -0.24214260280132294, 0.039432015269994736, 0.03849130496382713, 0.008423250168561935, -0.1615844964981079, 0.0399894118309021, -0.07525615394115448, 0.023399045690894127, 0.061154626309871674, -0.1513807773590088, -0.16772004961967468, 0.10827336460351944, 0.15271325409412384, 0.09857365489006042, 0.1787116974592209, 0.06488588452339172, -0.0922970250248909, 0.47331833839416504, -0.0444331057369709, -0.3693072497844696, 0.08033841103315353, 0.0005397020722739398, -0.017191698774695396, 0.21783295273780823, -0.09102112799882889, -0.06775858253240585, 0.6560252904891968], [-0.07555169612169266, 0.01683986559510231, -0.03914675861597061, -0.09328287839889526, -0.08111481368541718, 0.007511124014854431, 0.031892918050289154, 0.24511535465717316, 0.002899245824664831, 0.3052155375480652, 0.03644150123000145, 0.00048736872849985957, -0.16453297436237335, -0.2323521077632904, 0.030999185517430305, -0.06287854164838791, -0.019791997969150543, -0.0010885163210332394, 0.010324186645448208, 0.19171424210071564, -0.11120600253343582, 0.1836346834897995, -0.06323649734258652, -0.20535492897033691, -0.1094917356967926, 0.13050462305545807, 0.3248245120048523, -0.0005921857082284987, 0.054229266941547394, -0.2691884934902191, 0.20013996958732605, 0.05942382290959358, 0.023006398230791092, -0.05553530901670456, 0.0008859225199557841, 0.055026330053806305, -0.26974883675575256, -0.0275422316044569, 0.0012891634833067656, -0.0782296434044838], [-0.14096695184707642, -0.17326994240283966, 0.051753465086221695, -0.09602999687194824, -0.48048222064971924, 0.03193282708525658, -0.01248250063508749, -0.0718032494187355, 0.0030984811019152403, -0.040922895073890686, 0.012916254810988903, 0.0003703547117765993, 0.264575719833374, 0.1831514537334442, -0.03694538027048111, 0.1622399091720581, -0.07533834129571915, 0.02794901840388775, -0.04448923096060753, 0.2411573976278305, -0.10346975177526474, 0.12128342688083649, -0.10534441471099854, -0.06696180999279022, 0.1980258822441101, -0.15589173138141632, 0.017123419791460037, 0.11562810838222504, 0.12277309596538544, -0.01263404916971922, 0.17066802084445953, 0.07983162254095078, 0.0007879573968239129, -0.09011708945035934, 0.0013015784788876772, -0.022441815584897995, 0.17162887752056122, -0.20664188265800476, 0.038050971925258636, -0.07204721868038177], 