{"model_data": {"model": "SimpleRNN", "input_size": 2, "skip": 1, "output_size": 1, "unit_type": "LSTM", "num_layers": 1, "hidden_size": 40, "bias_fl": true}, "state_dict": {"rec.weight_ih_l0": [[-0.04443884268403053, -0.34636789560317993], [-0.4284084737300873, -0.45529597997665405], [0.0108862966299057, 0.04920225217938423], [0.10784119367599487, -1.0228601694107056], [0.07816123962402344, 0.13021089136600494], [-0.03685073181986809, -0.14388711750507355], [-0.2503952085971832, -0.5533074140548706], [0.015223185531795025, 0.15260127186775208], [0.020970404148101807, 0.08087808638811111], [-0.03737450763583183, -0.10136547684669495], [0.022281445562839508, 0.1195288673043251], [0.1571848839521408, -0.7274208664894104], [-0.005757003091275692, -0.018690122291445732], [0.037837106734514236, -0.19865138828754425], [-0.0014116649981588125, -0.03747621178627014], [-0.02934393472969532, 0.20568256080150604], [0.02606758289039135, -0.15769262611865997], [-0.005520255770534277, 0.19425132870674133], [-0.024365266785025597, -0.6067962050437927], [0.015232873149216175, -0.25216981768608093], [-0.025685735046863556, 0.21254050731658936], [0.5331858396530151, -0.15016256272792816], [0.018870273604989052, -0.02274022251367569], [-0.0009725915151648223, 0.1647580862045288], [-0.14935053884983063, 0.11552073806524277], [-0.16614873707294464, 0.2740328907966614], [-0.9604719281196594, -1.1424661874771118], [0.010764158330857754, -0.12346676737070084], [-0.29824620485305786, -1.4915133714675903], [-0.3992235064506531, -0.2883983254432678], [-0.04300958290696144, -0.8722430467605591], [-0.10740110278129578, 0.6023880839347839], [0.05028318986296654, -0.07210232317447662], [-0.05820414796471596, 0.15394261479377747], [-0.022741707041859627, 0.10316233336925507], [0.009955409914255142, -0.30017200112342834], [-0.02993280440568924, -0.03616228327155113], [-0.01750105805695057, 1.408549427986145], [-0.0253419391810894, -0.1397373080253601], [0.0005219739978201687, -0.013186835683882236], [-0.07980585098266602, 0.46416759490966797], [-0.030888009816408157, -0.2852117419242859], [0.04380624741315842, 0.12624147534370422], [0.3683620095252991, 2.1780998706817627], [0.19356004893779755, 0.20417554676532745], [0.01501850038766861, -0.05278424546122551], [-0.5479981303215027, -0.17139115929603577], [0.05780651792883873, 0.1775556355714798], [0.05714866518974304, 0.1348007172346115], [0.011306075379252434, -0.04570922628045082], [0.05024618282914162, 0.27283239364624023], [0.13000288605690002, 2.0589370727539062], [0.0008165166364051402, -0.020083053037524223], [-0.0032690155785530806, -0.08570672571659088], [0.009538980200886726, -0.019769461825489998], [0.1275225430727005, 0.1777307391166687], [0.030157851055264473, -0.029169946908950806], [-0.07016318291425705, 0.23803108930587769], [-0.07922796905040741, 0.4893859922885895], [0.048252735286951065, -0.0856742337346077], [0.04200723394751549, 0.1593244969844818], [0.38998955488204956, 0.17152978479862213], [-0.014652397483587265, 0.188932865858078], [0.07390663772821426, 0.16643032431602478], [-0.028464574366807938, 0.45693668723106384], [0.16595400869846344, 0.6467427611351013], [-0.5351921916007996, 2.252197504043579], [-0.0017069800524041057, 0.005995981395244598], [-0.2520871162414551, -0.7564610838890076], [0.01419262494891882, -0.3444614112377167], [0.02871030382812023, 0.7444676756858826], [-0.23228925466537476, 0.6890143752098083], [0.0452365018427372, 0.08343672007322311], [0.025768352672457695, 0.2194066196680069], [0.1366334706544876, 0.16012932360172272], [0.020262273028492928, 0.09770536422729492], [0.02458353526890278, -0.24929237365722656], [0.05772211030125618, 1.1827480792999268], [-0.00462093111127615, -0.060336630791425705], [0.0015031403163447976, -0.015408295206725597], [-0.02633814886212349, 0.0871453806757927], [0.10810434073209763, -0.10615473985671997], [0.09759438037872314, 0.17947044968605042], [-0.01032435055822134, -0.3165172338485718], [0.0019510145066305995, 0.06269694119691849], [-0.019274013116955757, -0.02230512723326683], [0.2440997213125229, 1.6694433689117432], [-0.0168718583881855, -0.17315877974033356], [0.05068632587790489, 0.0682498887181282], [-0.01300641056150198, -0.08414627611637115], [0.035817280411720276, 0.20452743768692017], [1.1761260032653809, 0.18739521503448486], [0.046769652515649796, 0.03848036006093025], [-0.14249427616596222, -0.035032130777835846], [0.07896623760461807, 0.07521764189004898], [-0.006063409615308046, 0.011605261825025082], [0.04494848474860191, 0.062150824815034866], [0.02065212093293667, 0.03826062008738518], [-0.20281416177749634, 0.16811104118824005], [-0.06181064620614052, -0.02696818672120571], [0.0356302373111248, 0.17823009192943573], [-0.2049238234758377, -0.031513918191194534], [0.00870376918464899, -0.04748222604393959], [-0.012116574682295322, -0.03518689051270485], [0.536688506603241, 0.1978808343410492], [-0.6708435416221619, -0.05888697877526283], [0.4906793236732483, 0.08311954140663147], [0.06140725314617157, -0.05518204718828201], [-0.09255532175302505, -0.013442084193229675], [0.04877900704741478, -0.009829527698457241], [0.2138718217611313, 0.041955649852752686], [-0.5546103715896606, -0.1345425695180893], [0.1460634171962738, 0.004474658519029617], [0.03763645142316818, 0.04512045532464981], [-0.030019598081707954, -0.04779251664876938], [0.008871964178979397, -0.09776987135410309], [1.150531530380249, -0.21035458147525787], [2.307419538497925, 0.1604311317205429], [0.01306159421801567, 0.03847759589552879], [-0.0073193516582250595, -0.016803758218884468], [-0.023192422464489937, -0.20271016657352448], [-0.18570458889007568, 0.08680863678455353], [0.009066129103302956, 0.05174972862005234], [-0.21750664710998535, 0.8246059417724609], [0.054847352206707, 0.15729625523090363], [-0.046243198215961456, -0.12625141441822052], [0.19955453276634216, -0.0186481811106205], [0.01607501693069935, 0.17493084073066711], [0.01066935807466507, 0.09579205513000488], [-0.04548381641507149, -0.09584090113639832], [-0.2948315143585205, -1.2033454179763794], [0.000814850558526814, 0.7407079935073853], [-0.008262982591986656, -0.01805027388036251], [0.06155163049697876, -0.13760972023010254], [0.0011740564368665218, -0.03646181523799896], [-0.027297597378492355, 0.251671701669693], [0.019088568165898323, -0.14498496055603027], [0.10662546753883362, 0.2198585569858551], [-0.004476520698517561, 0.3994867205619812], [0.026034964248538017, -0.2220446765422821], [-0.02946516126394272, 0.21586453914642334], [0.20652875304222107, -0.05938565358519554], [0.0258302241563797, 0.09907539188861847], [-0.029456475749611855, 0.21809561550617218], [0.28961294889450073, -0.7569563388824463], [0.12890292704105377, 0.854718029499054], [0.06161033362150192, 0.5432766675949097], [-0.015993179753422737, -0.05443191900849342], [-0.6399927139282227, -1.1794860363006592], [-0.06553005427122116, -0.1820618361234665], [-0.0063158548437058926, 0.35881903767585754], [0.4223269820213318, -0.24247339367866516], [0.04209814965724945, -0.03934958577156067], [-0.022693200036883354, 0.2474500685930252], [-0.04628759250044823, 0.14457114040851593], [0.02171490713953972, -0.16230878233909607], [0.010127000510692596, 0.15762688219547272], [0.07179662585258484, 0.8338626027107239], [-0.034822575747966766, -0.13078030943870544], [-0.0003781238046940416, -0.013257219456136227]], "rec.weight_hh_l0": [[-0.0031128288246691227, -0.16849470138549805, -0.007296187337487936, 0.1635744571685791, -0.001867594663053751, 0.006287562660872936, -0.0697774663567543, 0.040964845567941666, -0.007876898162066936, 9.340506221633404e-05, -0.03581628575921059, -0.0720323771238327, 0.002484393771737814, 0.05985554680228233, 0.013271966017782688, 0.043963346630334854, -0.02984672412276268, 0.03019259124994278, 0.03391082584857941, 0.05297542363405228, -0.03727322816848755, -0.23280039429664612, 0.03651709482073784, 0.0032228445634245872, 0.1805221289396286, -0.058052416890859604, 0.11922965943813324, -0.09064032882452011, -0.099403016269207, -0.11609870940446854, -0.049946557730436325, 0.023213950917124748, -0.02716660313308239, -0.03661118447780609, 0.02761545404791832, 0.00983844418078661, 0.05673322454094887, 0.02456715889275074, 0.022662026807665825, -0.013699790462851524], [0.06175076961517334, -0.20561347901821136, -0.057971686124801636, -0.07371014356613159, 0.11716554313898087, -0.05547763779759407, -0.32421639561653137, 0.03638597950339317, -0.04243770241737366, -0.040493957698345184, -0.006649477407336235, 0.11389446258544922, 0.016694674268364906, 0.30662137269973755, -0.02708289958536625, -0.07022421061992645, -0.05917302891612053, -0.19795852899551392, -0.07482051104307175, -0.059609122574329376, 0.06722754240036011, -0.08103186637163162, 0.01896831765770912, -0.010607114993035793, 0.33064237236976624, 0.1272052675485611, -0.1325533092021942, 0.05381385236978531, 0.2711796462535858, -0.31571468710899353, -0.23907136917114258, -0.004007628653198481, -0.21597574651241302, -0.17867781221866608, 0.022439032793045044, -0.04372505098581314, -0.48908764123916626, -0.5877341032028198, -0.007933287881314754, -0.006642797030508518], [-0.01936923712491989, -0.06323432922363281, 0.001113185309804976, -0.0223295409232378, -0.004033355507999659, -0.0018576299771666527, 0.061235103756189346, -0.005809674970805645, -0.0035958834923803806, -0.006550237070769072, -0.02052697353065014, 0.019536077976226807, 0.0016724899178370833, 0.012444183230400085, 0.002420280361548066, 0.0012936813291162252, -0.005737322848290205, 0.0046047912910580635, -0.058125194162130356, 0.00816142838448286, -0.005073407664895058, -0.04861998185515404, -0.005358043592423201, 0.000385454623028636, -0.012489115819334984, -0.005308044143021107, -0.003674594685435295, -0.015133281238377094, -0.07453092932701111, -0.000497165194246918, -0.004265061113983393, -0.05376368761062622, -0.00541274668648839, -0.02299884334206581, -0.0022429581731557846, -0.0022374934051185846, 0.01246616616845131, -0.06290530413389206, 0.005981933791190386, -0.000408441323088482], [0.11500599980354309, -0.8276402354240417, 0.16603608429431915, 0.5409842133522034, -0.15045097470283508, -0.007870512083172798, -0.5378979444503784, 0.01134352758526802, 0.0635271817445755, -0.0742962583899498, -0.986376166343689, 0.6469407081604004, 0.03718668967485428, 0.007049927953630686, 0.020763397216796875, 0.1691373586654663, 0.02235240302979946, 0.0864647701382637, -0.30415451526641846, 0.014192372560501099, 0.07330383360385895, -0.2014731764793396, 0.06405900418758392, 0.02824965864419937, 0.4121589660644531, -0.44602033495903015, 0.23128977417945862, 0.03279641270637512, -0.366109699010849, 0.018141739070415497, -0.1894473433494568, -0.5622333288192749, 0.0757572203874588, -0.13780975341796875, -0.17171229422092438, -0.01571541465818882, -0.2593424916267395, -0.8119689226150513, 0.027362026274204254, -0.024325603619217873], [-0.008504525758326054, -0.12515725195407867, 0.021477049216628075, 0.044237010180950165, 0.011986956000328064, 0.01783720590174198, 0.06623368710279465, 0.0298824030905962, 0.020973293110728264, 0.013005662709474564, -0.002038993639871478, 0.041778143495321274, 0.003167309332638979, -0.05800671502947807, 0.01472705602645874, 0.0523521825671196, 0.014643861912190914, -0.017325572669506073, -0.06111172214150429, 0.025489741936326027, -0.005785756278783083, -0.07215865701436996, 0.03911766782402992, 0.01326255314052105, -0.0063976082019507885, -0.017391227185726166, 0.06742556393146515, -0.025068245828151703, -0.013707582838833332, -0.051735177636146545, -0.0003002202429343015, -0.004151787608861923, 0.028985971584916115, 0.017047887668013573, -0.04865533113479614, -0.007712263613939285, 0.014714077115058899, -0.06524696201086044, 0.000542144407518208, -0.005458593834191561], [0.00951329991221428, -0.060888614505529404, 0.008165637031197548, 0.026800140738487244, 0.006717495620250702, 0.0015623487997800112, -0.03487568348646164, 0.011746427975594997, -0.0010524590034037828, 0.0005535229574888945, -0.019711334258317947, -0.014594444073736668, 0.004205115605145693, 0.009901904501020908, 0.004033991135656834, 0.0013979256618767977, 0.0018842759309336543, 0.0002633271215017885, -0.048043109476566315, 0.012804212979972363, 0.004868729505687952, -0.041037511080503464, 0.010680877603590488, -0.0023159615229815245, 0.03655732795596123, 0.016886157914996147, 0.07604546844959259, -0.017706844955682755, 0.03443703055381775, -0.0243400726467371, 0.042856261134147644, -0.011162461712956429, 0.0057701412588357925, -0.003571954555809498, -0.014059070497751236, -0.011258421465754509, -0.012602010741829872, 0.004804902710020542, 0.0013073405716568232, -0.0024105350021272898], [0.058535534888505936, 0.44677382707595825, -0.02935069240629673, 0.16781987249851227, 0.0006667464622296393, 0.011884244158864021, -0.3107149004936218, 0.035624295473098755, 0.0009666684200055897, 0.035104792565107346, 0.1583191454410553, -0.08184123784303665, -0.017139896750450134, -0.04482952505350113, -0.006112224888056517, 0.029712850227952003, 0.014489876106381416, 0.09997061640024185, -0.13884232938289642, 0.012689306400716305, -0.022594934329390526, -0.05732928216457367, -0.08877824246883392, 0.04800131171941757, -0.11393338441848755, -0.4047338664531708, 0.1734635978937149, -0.061511892825365067, 0.5602191686630249, 0.08625856786966324, -0.008656779304146767, 0.04271925613284111, 0.003888931358233094, 0.08877404034137726, -0.02222169004380703, 0.05988558009266853, 0.008112435229122639, 0.48309704661369324, -0.010398472659289837, 0.00854699406772852], [0.024424444884061813, 0.023711979389190674, -0.004836644511669874, 0.030034441500902176, -0.021018575876951218, 0.007017283700406551, -0.21742959320545197, 0.03752920776605606, 9.88435567705892e-05, 0.016587449237704277, 0.22623507678508759, -0.032823603600263596, 0.0055601042695343494, 0.011023571714758873, 0.0014213566901162267, 0.007066467776894569, -0.0015247021801769733, 0.0005561314173974097, -0.05501096695661545, 0.015659667551517487, -0.02118915133178234, 0.08251983672380447, 0.00871376134455204, -0.0011199858272448182, -0.017733827233314514, 0.04007108509540558, 0.030653221532702446, 0.0371839702129364, 0.233091339468956, -0.037665821611881256, 0.062393009662628174, -0.0042275115847587585, 0.009310075081884861, -0.0017284754430875182, 0.015401424840092659, 0.03486675024032593, 0.055574651807546616, 0.009578563272953033, -0.007901454344391823, -0.005525061395019293], [0.013301662169396877, -0.04776546359062195, 0.02626756764948368, 0.010669511742889881, 0.0030827380251139402, 0.009979317896068096, 0.039152681827545166, -0.013744885101914406, -0.004296735394746065, 0.006782627198845148, -0.002106902888044715, 0.0018810604233294725, 0.002562055829912424, 0.018264319747686386, 0.0034967169631272554, 0.014229139313101768, 0.014649901539087296, -0.019861474633216858, -0.07706594467163086, 0.020266791805624962, 0.013595682568848133, -0.06401868909597397, 0.0031988737173378468, -0.026860766112804413, 0.008660292252898216, 0.019328230991959572, 0.07941066473722458, -0.021654164418578148, 0.006941546220332384, -0.03959409520030022, 0.020739778876304626, 0.020426789298653603, 0.02413969673216343, -0.029343143105506897, -0.0540912002325058, -0.030679350718855858, 0.02241566590964794, 0.022775396704673767, -0.007396995555609465, -0.0009793414501473308], [-0.0062763686291873455, -0.05278618633747101, 0.0019732126966118813, -0.020221984013915062, 0.012812553904950619, 0.007867516949772835, -0.0823526382446289, 0.037890516221523285, 0.008898627012968063, 0.015702782198786736, 0.04187653213739395, 0.01368770282715559, 0.003060069866478443, -0.002323466120287776, 0.0027193210553377867, 0.013715237379074097, 0.003135181497782469, -0.04124186933040619, -0.09637545794248581, 0.0214985404163599, 0.01710519567131996, 0.027665013447403908, 0.027149906381964684, -0.016280481591820717, 0.032898396253585815, 0.028859559446573257, 0.017134780064225197, 0.006731824949383736, 0.06977944076061249, -0.07184967398643494, 0.03937781602144241, 0.0372917577624321, -0.004714420530945063, -0.0007526424014940858, -0.010593634098768234, -0.0027608636301010847, -0.007474170997738838, -0.07860133796930313, -0.004213049076497555, -0.0030455966480076313], [-0.007281824480742216, -0.0031129703857004642, -0.00019466444791760296, -0.020117171108722687, 0.005469735711812973, 0.00032014245516620576, -0.03269779309630394, 0.0017527120653539896, 0.00036864340654574335, -0.0031298696994781494, 0.07186645269393921, 0.01254846528172493, -0.00030676875030621886, -1.9010569758393103e-06, 0.002911020303145051, -0.0006488410872407258, -0.0024405450094491243, 0.002551206387579441, -0.02073739841580391, 0.0005011289613321424, 0.0013616284122690558, 0.011699571274220943, -0.0021183378994464874, -0.0024054974783211946, 0.017850669100880623, -0.01362631469964981, -0.05567742884159088, -0.008574613370001316, 0.06684232503175735, 0.0015200503403320909, -2.4124783521983773e-05, -0.0038584775757044554, -0.0035959561355412006, 0.004157782066613436, 0.0005325499805621803, 0.0039946548640728, 0.0095131890848279, 0.005686377640813589, 0.005007989704608917, 0.0020860873628407717], [-0.032234299927949905, -1.1441537141799927, -0.0507916621863842, -0.22187049686908722, -0.05611398443579674, -0.04918896406888962, 0.3662768006324768, 0.04892521724104881, 0.005354731809347868, -0.020322855561971664, -0.6659238934516907, -0.31232571601867676, -2.5392620955244638e-05, 0.09493506699800491, 0.03133455663919449, -0.07603758573532104, -0.028520474210381508, -0.1959618628025055, -0.13454580307006836, 0.00011095021909568459, 0.0554349347949028, -0.8475329279899597, 0.01946401223540306, -0.04921463131904602, 0.7095566987991333, -0.24270524084568024, -0.8509405255317688, -0.052304141223430634, 0.019868699833750725, 0.3383590877056122, 0.0036635694559663534, 0.10499093681573868, -0.06512786448001862, 0.050865717232227325, 0.065337173640728, 0.06511770188808441, -0.0445389486849308, 0.05995819345116615, 0.04243045300245285, -0.0015739280497655272], [0.0019854996353387833, -0.01806139387190342, -9.583698556525633e-05, -0.003237617900595069, -0.0011268936796113849, -4.394481220515445e-05, 0.024939971044659615, 0.002705738879740238, 0.001581538817845285, 0.0007418747409246862, -0.01040877029299736, 0.00022655658540315926, 0.00044308550423011184, 0.002284458838403225, 0.0003706797433551401, 0.001217690180055797, 0.0002934791555162519, -0.0051198685541749, 0.0006602677167393267, 0.002409921493381262, -0.001259193173609674, -0.006591374520212412, 0.006147824693471193, 0.0034382841549813747, -0.005205451976507902, 0.0004036654136143625, -0.0015426501631736755, -0.000719121191650629, -0.027859801426529884, -0.01160641759634018, 0.006814196705818176, 0.0016914501320570707, -3.625366298365407e-05, 0.0009111534454859793, -0.0021637664176523685, 0.0023319642059504986, -0.0014480870449915528, -0.0013688321923837066, -0.00014972825010772794, -0.00033281289506703615], [0.03827041760087013, -0.06327532231807709, 0.018729403614997864, 0.03386545926332474, 0.006619761697947979, -2.145869075320661e-05, -0.3130008280277252, 0.0022709593176841736, -0.005036065820604563, 0.0011085399892181158, 0.08667127043008804, -0.08534342795610428, 0.008104522712528706, 0.003781222505494952, 0.010862059891223907, -0.017780369147658348, 0.016568917781114578, -0.010507396422326565, -0.14511670172214508, 0.008480759337544441, 0.006212133914232254, -0.008351917378604412, 0.009901032783091068, 0.002956586657091975, 0.07817266136407852, 0.059365689754486084, 0.04490256682038307, -0.035409994423389435, 0.2699032425880432, -0.026483865454792976, 0.12842701375484467, 0.018787695094943047, 0.03644401207566261, -0.01928662694990635, 0.0045488327741622925, -0.01743902824819088, 0.03720344603061676, 0.012752651236951351, -0.0027681635692715645, -0.00465918704867363], [0.002196271438151598, -0.013121512718498707, -0.002070801332592964, 0.0027405277360230684, 0.007427684031426907, 0.0028048385865986347, 0.02425343729555607, -0.00020792764553334564, 0.0023330207914114, 0.0035399440675973892, -0.023183666169643402, -0.001196211320348084, 9.010914800455794e-05, 0.002483468735590577, -0.0007692222134210169, 0.0045321546494960785, 0.0022698950488120317, -0.009712250903248787, -0.0028028269298374653, 0.004879418760538101, 0.0006111048860475421, -0.00911578256636858, 0.0042025987058877945, -0.001896959263831377, -0.0024603193160146475, -0.005378889851272106, 0.011533225886523724, -0.0014827382983639836, -0.03586425259709358, -0.016885655000805855, 0.010623159818351269, 0.011853132396936417, -0.0019365329062566161, -0.0047930884175002575, -0.009456943720579147, -0.005931494291871786, -0.0026951252948492765, 0.006098524667322636, -0.0028434651903808117, -0.00035504583502188325], [0.033778972923755646, -0.111695297062397, 0.030568061396479607, 0.07768402993679047, 0.007065064739435911, 0.011277502402663231, 0.01236956100910902, -0.03714454919099808, -0.0024287684354931116, -0.0020478754304349422, 0.037514232099056244, -0.006884686648845673, 0.00669925007969141, 0.01014167070388794, 0.013093802146613598, 0.014137012884020805, 0.01763206534087658, 0.012877237983047962, -0.049215689301490784, 0.02530539780855179, 0.02139231748878956, -0.12499722838401794, -0.04929283633828163, -0.05524881184101105, -0.018420444801449776, -0.0064981235191226006, 0.13834968209266663, -0.05305837467312813, 0.04677766188979149, -0.04065633565187454, 0.023412929847836494, -0.04958119988441467, 0.018823891878128052, -0.011818695813417435, -0.04172653704881668, -0.024499544873833656, 0.01770944520831108, 0.04440123587846756, -0.0005166878108866513, -0.007901227101683617], [0.011637401767075062, -0.00473951967433095, -0.00104278523940593, 0.030481727793812752, 0.005666035693138838, 0.005373257212340832, -0.12240275740623474, 0.015494479797780514, 0.0019160067895427346, 0.011526478454470634, 0.03803960978984833, -0.005682638380676508, 0.0008133759256452322, 0.014218905009329319, 0.002199480077251792, 0.004937632940709591, 0.0012741893297061324, -0.021987996995449066, -0.09526979923248291, 0.01654224656522274, 0.00434640608727932, 0.0040286448784172535, -0.000228865523240529, -0.018426133319735527, 0.04091048613190651, 0.04731936752796173, 0.08450283110141754, 0.004768496844917536, 0.0895952358841896, -0.025792699307203293, 0.06262949854135513, 0.031177008524537086, -0.00914408266544342, -0.01067818608134985, 0.0024890322238206863, 0.010685939341783524, 0.03617526590824127, 0.02031271904706955, -0.0015012280782684684, -0.0005859180237166584], [-0.004798488691449165, 0.03957769647240639, 0.010969210416078568, 0.17586837708950043, 0.04127678647637367, -0.015520413406193256, 0.10051906853914261, 0.046735990792512894, -0.010679597966372967, -0.02652064710855484, -0.04792536050081253, -0.1243162676692009, 0.008522420190274715, -0.05742102488875389, 0.006772608961910009, 0.058908600360155106, -0.005350310821086168, 0.08828485012054443, 0.04836548864841461, -0.01764800027012825, 0.005682340823113918, 0.002699094358831644, -0.046336252242326736, -0.032675936818122864, -0.12671338021755219, 0.018444398418068886, 0.21766190230846405, -0.01094727125018835, -0.11467895656824112, 0.10674077272415161, -0.06444814056158066, -0.11294736713171005, 0.04730633646249771, -0.03469894826412201, 0.01216114591807127, -0.047415152192115784, 0.1138879582285881, -0.2525002062320709, 0.011934883892536163, -0.005671132355928421], [-0.11877728998661041, 0.09348465502262115, -0.008352125063538551, -0.3246876895427704, 0.11819104850292206, -0.03949185088276863, 0.0395134873688221, -0.15072785317897797, 0.023861244320869446, -0.029053471982479095, -0.49166131019592285, -0.10901719331741333, 0.038458872586488724, -0.28570306301116943, 0.05859857052564621, -0.017562946304678917, 0.02749485895037651, -0.03835243731737137, -0.2168830782175064, -0.011492707766592503, 0.05089458450675011, 0.42608603835105896, -0.03782447427511215, -0.05246290564537048, 0.5837956666946411, 0.20009292662143707, 0.0663410946726799, -0.15668122470378876, 0.302719384431839, 0.28498896956443787, 0.41176217794418335, -0.7011296153068542, 0.033036548644304276, 0.13902199268341064, 0.03305770456790924, 0.04913443699479103, 0.1890379637479782, -0.06908629089593887, 0.05969402566552162, -0.003309994237497449], [0.011058568023145199, -0.020825713872909546, 0.004267016891390085, 0.0790160521864891, 0.012825430370867252, 0.001100544584915042, -0.16419649124145508, 0.003933602478355169, -0.0027934794779866934, 0.0027389475144445896, 0.030131787061691284, -0.028833577409386635, 0.0035391957499086857, 0.01387602649629116, 0.0035963363479822874, -0.005465380847454071, 0.0041825175285339355, 0.0025304569862782955, -0.08637430518865585, 0.008040567860007286, 0.010224336758255959, -0.04005327820777893, -0.007312749978154898, -0.010098183527588844, 0.09411843121051788, 0.044239964336156845, 0.13996323943138123, -0.02379009500145912, 0.12034283578395844, -0.0032646507024765015, 0.09195710718631744, 0.027434730902314186, -0.0018394493963569403, -0.001728723756968975, -0.01235945150256157, -0.01549779623746872, -0.0008080098195932806, 0.05651513487100601, -0.001781331840902567, -0.0004539417859632522], [0.00016664531722199172, 0.01204206794500351, -0.004444974474608898, -0.024928556755185127, -0.0067076836712658405, -0.003878023475408554, -0.09994661062955856, -0.02309313789010048, 0.003930418286472559, 0.0031070334371179342, 0.12379956245422363, -0.00735435588285327, 0.0009140270412899554, -0.009924097917973995, -0.0035059917718172073, 0.0008229845552705228, 0.004966843873262405, -0.015424633398652077, -0.037491388618946075, -0.005606822203844786, -0.006771688349545002, 0.06383714079856873, 0.006035060156136751, -0.002140446798875928, -0.03535623103380203, 0.02815275266766548, -0.07589104771614075, 0.019949154928326607, 0.1393290013074875, -0.011922664940357208, -0.0060632419772446156, 0.01986144296824932, 0.004652783274650574, -0.00824554543942213, 0.0017318427562713623, 0.003500725142657757, -0.021287081763148308, -0.07013668864965439, -0.00501977326348424, -0.0027769783046096563], [-0.14123794436454773, -0.24545444548130035, 0.10976839065551758, 0.23912250995635986, -0.09094502776861191, 0.07300014048814774, 0.03549923747777939, -0.11831585317850113, 0.0428813174366951, 0.020102018490433693, -0.31448861956596375, -0.36268436908721924, 0.002556885126978159, -0.26309335231781006, 0.047980230301618576, 0.13067516684532166, 0.07602894306182861, 0.1409635990858078, -0.018514320254325867, 0.09331429749727249, -0.015463927760720253, -0.17990842461585999, -0.06995416432619095, -0.1220787763595581, -0.050222110003232956, -0.17687483131885529, -0.08858118951320648, -0.07598859071731567, 0.3011005222797394, 0.2862064838409424, 0.1655174195766449, -0.14133575558662415, 0.1810038983821869, 0.10020273923873901, -0.16934596002101898, 0.02024967223405838, 0.7930359840393066, 0.39084404706954956, 0.02652265690267086, -0.013275831937789917], [-0.03444725647568703, -0.08869335055351257, 0.006979763973504305, 0.13307376205921173, -0.026842042803764343, -0.005478949751704931, -0.02548457309603691, 0.05773753672838211, -0.012999555096030235, 0.02589401602745056, 0.033825986087322235, 0.05750847980380058, -0.0019944063387811184, 0.0456429049372673, -0.009757726453244686, -0.004035823978483677, 0.013603675179183483, -0.10269373655319214, -0.03433992713689804, -0.016491543501615524, -0.018607275560498238, -0.09337698668241501, 0.02027927152812481, -0.029408881440758705, 0.013916208408772945, 0.05258994176983833, 0.1417996883392334, 0.04721610248088837, 0.019508393481373787, -0.03425271809101105, -0.060159627348184586, 0.08009649813175201, 0.028186555951833725, -0.027775317430496216, 0.03991912677884102, 0.023200415074825287, 0.007338622119277716, -0.004728294909000397, -0.020030422136187553, -0.007592243608087301], [0.0339154377579689, -0.07445238530635834, 0.01267433725297451, 0.06560007482767105, -0.017061064019799232, 0.026547357439994812, -0.09263928234577179, 0.10265529900789261, 0.011953765526413918, 0.0317317433655262, 0.15127021074295044, 0.026692232117056847, 0.0035688141360878944, 0.013745399191975594, 0.004851350095123053, 0.04942399635910988, 0.01630789041519165, -0.0038318978622555733, -0.022950811311602592, 0.03872910514473915, -0.02819162607192993, -0.049067236483097076, 0.07963954657316208, 0.030704062432050705, -0.00010934373858617619, 0.04636048898100853, 0.04662339389324188, -0.010207896120846272, 0.1530107855796814, -0.15726567804813385, 0.07600679248571396, -0.02065352536737919, 0.04260794818401337, -0.013004944659769535, -0.04058963805437088, 0.006660670042037964, -0.014971287921071053, 0.09607843309640884, -0.01655149646103382, -0.007146830204874277], [0.10046888142824173, 0.2486560195684433, -0.024198714643716812, 0.13819211721420288, 0.07887008041143417, -0.009528083726763725, 0.0624195821583271, 0.04408279433846474, -0.03680246323347092, 0.007529078982770443, 0.01068353932350874, 0.013254150748252869, 0.006699397228658199, 0.020875947549939156, -0.004883370827883482, -0.050179582089185715, -0.0034349304623901844, -0.018032919615507126, -0.17716500163078308, -0.02441365458071232, -0.007253524847328663, -0.05457957461476326, 0.01614590361714363, -0.032769523561000824, -0.08168107271194458, 0.17131803929805756, 0.20472308993339539, 0.018766015768051147, -0.06460840255022049, -0.05721642076969147, -0.2289671152830124, 0.04934392869472504, -0.0076036048121750355, -0.024876490235328674, -0.004971299786120653, -0.023800594732165337, -0.03443899750709534, -0.0022539757192134857, -0.006544589530676603, -0.008575312793254852], [0.1388854682445526, -0.04921344667673111, 0.055545441806316376, 0.3645768463611603, -0.08725537359714508, 0.012454492971301079, 0.09260617941617966, -0.06267473101615906, -0.027555027976632118, -0.008550627157092094, -0.7881186008453369, -0.16041633486747742, -0.006873095408082008, 0.21554839611053467, -0.020860373973846436, -0.0014906361466273665, -0.00018085984629578888, -0.050967928022146225, 0.1601279079914093, 0.057553552091121674, 0.007364927791059017, -0.21743904054164886, 0.130264550447464, -0.027864176779985428, -0.1023256704211235, -0.14817805588245392, 0.22369788587093353, 0.059286411851644516, -0.8150134086608887, -0.02200276032090187, -0.3524741232395172, -0.04737714305520058, -0.02639012783765793, -0.036601971834897995, -0.04742535948753357, -0.006054099649190903, -0.18171218037605286, -0.016179215162992477, 0.003579881275072694, -0.029049070551991463], [-0.16038157045841217, 0.15885090827941895, -0.03957265615463257, 0.30634215474128723, 0.2878991365432739, 0.06834538280963898, 0.2215777337551117, 0.05774650722742081, 0.04219122231006622, 0.13770517706871033, -0.3370928168296814, -1.2052879333496094, 0.005980086978524923, -0.22434017062187195, 0.018522093072533607, 0.09017579257488251, 0.11318077892065048, 0.12930899858474731, 0.1890074461698532, -0.055301230400800705, -0.11975648999214172, -0.8432720303535461, -0.2092270851135254, -0.021965619176626205, -0.32440701127052307, 1.0851775407791138, 1.2057127952575684, 0.029993392527103424, 0.9704145193099976, 0.07705657929182053, -0.15113627910614014, 0.9609857797622681, 0.14795397222042084, 0.07370918989181519, -0.07873367518186569, -0.020584536716341972, -0.3622030019760132, 0.7107774019241333, -0.08892006427049637, 0.0064414674416184425], [0.02834297902882099, -0.023075124248862267, -0.006454369053244591, 0.032061558216810226, -0.006063970271497965, 0.01567913219332695, -0.1525999754667282, 0.03912336379289627, 0.021041590720415115, 0.021575871855020523, 0.1373952180147171, 0.019819606095552444, 0.0007564023253507912, 0.029635315760970116, 0.008106757886707783, 0.01988839916884899, 0.005840310826897621, -0.02172357216477394, -0.09743395447731018, 0.034761711955070496, -0.01654261164367199, -0.01816572993993759, 0.0102244783192873, 0.012208515778183937, 0.07278404384851456, 0.06505423784255981, 0.07384216040372849, -0.015199399553239346, 0.1368313431739807, -0.09715750068426132, 0.10223392397165298, -0.04153525084257126, -0.008839410729706287, 0.01482852641493082, 0.030936166644096375, 0.03811158612370491, -0.011480819433927536, 0.06182697415351868, -0.0039818063378334045, -0.0071815322153270245], [0.05373111739754677, 0.07760412245988846, 0.027355099096894264, -0.11870143562555313, -0.0576152503490448, -0.0332585945725441, -0.7753655314445496, -0.08057735860347748, -0.017685187980532646, -0.07202781736850739, 0.015118012204766273, -0.4538068175315857, -0.0015690242871642113, 0.016724348068237305, 0.011921367608010769, -0.0988861620426178, -0.029551267623901367, 0.027429264038801193, -0.20526638627052307, -0.02347947284579277, 0.04502074420452118, 0.016296247020363808, -0.018162798136472702, -0.06290724873542786, 0.2075866013765335, -0.391223281621933, 0.48330584168434143, 0.018934175372123718, 0.7694522142410278, 0.09707602858543396, 0.17296135425567627, 0.10732494294643402, -0.05593995004892349, 0.08961782604455948, 0.07758239656686783, 0.015909356996417046, 0.1258488893508911, 0.17129328846931458, 0.0444694459438324, -0.010758087038993835], [0.03925516828894615, -0.09516188502311707, 0.0037090445403009653, 0.24127547442913055, -0.006194856017827988, 0.029824653640389442, -0.22824838757514954, 0.10675277560949326, -0.0061293537728488445, 0.059037744998931885, -0.004354651551693678, -0.06845960021018982, -0.03267540782690048, 0.17949040234088898, -0.027778804302215576, 0.0036601724568754435, 0.020508255809545517, -0.03494676202535629, -0.22993382811546326, 0.01819295436143875, 0.030888322740793228, -0.20034123957157135, 0.025051109492778778, 0.04642026498913765, -0.005179952830076218, 0.08822018653154373, 0.2666490972042084, 0.07641138881444931, 0.32841721177101135, 0.008982495404779911, 0.0991811603307724, 0.04557643458247185, -0.009300456382334232, -0.0739063248038292, -0.08483627438545227, -0.03036464937031269, -0.20282571017742157, -0.00986027903854847, -0.056081708520650864, 0.00560388620942831], [-0.09367041289806366, -0.17636258900165558, -0.06418398022651672, 0.03523341193795204, 0.07244489341974258, 0.0013486286625266075, 0.16661015152931213, -0.020509708672761917, -0.03418350964784622, -0.010951180011034012, -0.8172973990440369, -0.0778803601861, -0.028608113527297974, 0.055781904608011246, -0.038416165858507156, -0.04781951382756233, -0.07122910022735596, 0.06309788674116135, 0.3378365635871887, -0.015173984691500664, -0.09846123307943344, -0.23178520798683167, -0.08175479620695114, 0.09613852202892303, 0.2706255316734314, 0.030066777020692825, -0.020817482843995094, -0.021727384999394417, -0.35634851455688477, 0.10322567075490952, -0.3090656101703644, -0.044913165271282196, -0.1038951724767685, -0.07759349048137665, 0.07538329064846039, -0.03983333706855774, 0.005726383067667484, 0.056833818554878235, -0.004083653446286917, -0.00892696250230074], [-0.14814239740371704, -0.25350379943847656, -0.03803768754005432, -0.1671012043952942, -0.018114671111106873, -0.020147496834397316, 0.7281461358070374, 0.036863137036561966, -0.01907743141055107, -0.017356237396597862, 0.06858479976654053, -0.2196296751499176, 0.014414164237678051, -0.03231580927968025, 0.011046133935451508, 0.011671014130115509, -0.01914285309612751, 0.003380490466952324, -0.06853850930929184, 0.0045478446409106255, -0.08305787295103073, 0.022375421598553658, -0.0033387085422873497, -0.061944473534822464, -0.11264979094266891, -0.13498955965042114, -0.21875059604644775, -0.059463582932949066, -0.7086012959480286, 0.0767308697104454, -0.022384241223335266, -0.5404898524284363, 0.01815180480480194, 0.027425121515989304, 0.039697229862213135, 0.05396098643541336, 0.1915600299835205, -0.017499146983027458, 0.021670321002602577, -0.0015982547774910927], [0.012867558747529984, -0.0632079690694809, -0.0017821667715907097, 0.027342546731233597, 0.019121205434203148, 0.007566664833575487, -0.15538740158081055, 0.01911626197397709, 0.0005882637924514711, 0.016756942495703697, 0.09779337048530579, -0.024940168485045433, -0.00018350555910728872, 0.026710880920290947, 0.003175013465806842, -0.007537138648331165, 0.00906387623399496, -0.02325725182890892, -0.08342958241701126, 0.016422828659415245, -0.01897907257080078, -0.0708506628870964, 5.062763375462964e-05, -0.03184384107589722, 0.029010381549596786, 0.00799613818526268, 0.04884782060980797, 0.021483590826392174, 0.0869116261601448, -0.03450224548578262, 0.07461986690759659, 0.06788311898708344, 0.005647723097354174, -0.016325362026691437, 0.0009500835440121591, 0.028522346168756485, 0.03873596712946892, 0.014558405615389347, -0.008587374351918697, -0.002564911497756839], [-0.07206873595714569, -0.1339348405599594, 0.010300575755536556, 0.13312293589115143, -0.01362489815801382, 0.028077324852347374, -0.041492052376270294, -0.01178697682917118, -0.0037385900504887104, 0.0425187312066555, 0.0658131092786789, 0.021618671715259552, -0.00834716111421585, 0.029209982603788376, -0.0033710177522152662, 0.03192806616425514, 0.027794411405920982, 0.046315718442201614, -0.08111646771430969, 0.046237513422966, 0.009500504471361637, -0.09989921748638153, -0.022782938554883003, -0.039895858615636826, -0.0428035669028759, 0.01821996085345745, 0.15002194046974182, 0.006081979256123304, 0.06056024134159088, -0.015684938058257103, 0.016006095334887505, -0.13871262967586517, 0.033543799072504044, -0.040293674916028976, 0.0006444317405112088, -0.010893471539020538, -0.04921251907944679, -0.10963083058595657, -0.024722887203097343, -0.006163864862173796], [-0.015175903216004372, -0.0981297492980957, 0.004454977344721556, 0.031044114381074905, -0.038921598345041275, -0.004969276022166014, 0.051265038549900055, 0.03468746691942215, -0.0023635905236005783, 0.006548277102410793, 0.05081658810377121, 0.033493053168058395, 0.003319541225209832, -0.0019085269887000322, 0.011451072059571743, -0.0038763885386288166, -0.006448972038924694, -0.014987663365900517, -0.017450330778956413, 0.019372763112187386, 0.012381210923194885, -0.14564017951488495, -0.026431534439325333, 0.005248218309134245, -0.038365356624126434, 0.0028487860690802336, 0.01595553196966648, -0.011432752013206482, -0.06378369778394699, -0.020384183153510094, -0.04489528760313988, 0.029183287173509598, 0.00993279181420803, -0.005161832086741924, 0.005307814106345177, 0.02743285521864891, -0.003472311422228813, -0.04523090645670891, 0.007206575013697147, -0.01243499107658863], [-0.01750839687883854, -0.08259414881467819, -0.01616622507572174, 0.07001190632581711, -0.024969808757305145, 0.0001617102388991043, -0.013909639790654182, 0.054422780871391296, -0.0031933949794620275, 0.019047677516937256, 0.010851076804101467, -0.00021181291958782822, -0.00010427238157717511, 0.025533661246299744, -0.0023704010527580976, -0.010754767805337906, -0.009445617906749249, -0.04235554113984108, -0.11687108874320984, 0.006082050036638975, -0.021372554823756218, -0.08286561816930771, 0.039907194674015045, 0.013568385504186153, 0.006883459165692329, -0.010536628775298595, 0.18269680440425873, 0.015090221539139748, -0.049379874020814896, -0.018903160467743874, -0.015722282230854034, 2.7630501790554263e-05, -0.0022049429826438427, 0.039091043174266815, 0.035035569220781326, 0.04227396473288536, -0.022043319419026375, 0.04515065997838974, -0.004548741038888693, -0.003911192063242197], [0.03377411141991615, -0.06593187153339386, -0.01191468071192503, -0.022921772673726082, -0.002409512409940362, 0.019196027889847755, 0.052258629351854324, 0.07579454779624939, -0.01123765017837286, 0.029630985110998154, 0.18694275617599487, 0.07494617998600006, 0.0038667491171509027, 0.05067979171872139, 0.004764412064105272, -0.008168996311724186, 0.005829032510519028, -0.016187582165002823, -0.15619727969169617, 0.045324500650167465, -0.005170996300876141, -0.19899755716323853, 0.03501228243112564, 0.04704289883375168, 0.05601277947425842, -0.028329815715551376, 0.0011966326273977757, -0.03040836937725544, 0.17174655199050903, -0.02388441190123558, 0.06250172108411789, -0.05744117125868797, -0.003672059392556548, -0.022088130936026573, -0.009612991474568844, 0.01638840325176716, 0.05787578970193863, 0.0398123636841774, -0.010074588470160961, -0.01024123840034008], [0.2472255378961563, 0.24833787977695465, 0.18213549256324768, 0.3402085304260254, 0.019386332482099533, 0.01897195167839527, 0.5298856496810913, -0.24346470832824707, -0.02404618449509144, -0.13821831345558167, -0.2229819893836975, 0.1636846512556076, 0.04063302278518677, 0.1166694387793541, 0.025745736435055733, 0.052842073142528534, -0.009004857391119003, 0.0947779044508934, 0.062449146062135696, 0.00739806704223156, 0.0025797258131206036, -0.13239392638206482, -0.06961283087730408, -0.17165595293045044, -0.2868177890777588, -0.015298946760594845, 0.7746787071228027, -0.03132396191358566, -0.9714469313621521, -0.03712202236056328, -0.017563438042998314, -0.05341646075248718, 0.04265287145972252, 0.08173000067472458, -0.051711663603782654, -0.15036854147911072, -0.024746466428041458, -0.09391613304615021, 0.07196242362260818, -0.0020634790416806936], [0.007638873998075724, -0.016556598246097565, -0.0014135988894850016, 0.034921567887067795, 0.011129689402878284, 0.006890992633998394, -0.08887338638305664, 0.018316783010959625, 0.007866987027227879, 0.01310240849852562, 0.0224546380341053, 0.0018571759574115276, 0.001251226058229804, 0.003191291121765971, 0.0010164553532376885, 0.011056662537157536, 0.003740195883437991, -0.03267284855246544, -0.05819303169846535, 0.014109541662037373, 0.007871728390455246, 0.009519626386463642, 0.006807465571910143, -0.02058348059654236, 0.017360856756567955, 0.030677935108542442, 0.07553707808256149, 0.013033819384872913, 0.05510594695806503, -0.02266083098948002, 0.03910786658525467, 0.043634019792079926, -0.007680627051740885, 0.004659096710383892, -0.006943963933736086, 0.005010964814573526, -0.009715775027871132, -0.005296062212437391, -0.004749245475977659, -0.0008857600041665137], [0.0015809837495908141, 0.0004974299226887524, 7.556593482149765e-05, -0.0037457733415067196, 0.0004943595267832279, -9.589159890310839e-05, -0.005895449314266443, -2.482531635905616e-05, -0.0005797974299639463, 8.020958921406418e-05, 0.0026093213818967342, 0.0011686075013130903, 0.0005230807582847774, -0.00019978838099632412, 0.0001255634124390781, -0.00031892434344626963, 0.00014038845256436616, -0.0008735425653867424, -0.004954137839376926, 0.0001725732145132497, -0.001056014560163021, 0.0015800463734194636, 0.0019589359872043133, -0.00026459130458533764, 0.005376185290515423, 0.003397671040147543, -0.0031492868438363075, -0.0005071410560049117, 0.003385361051186919, -4.997932774131186e-05, 0.0007534447940997779, -0.0011389749124646187, 0.00040197212365455925, 0.0005390269798226655, -0.0008353316807188094, 0.0009857749100774527, -7.431171979987994e-05, -0.0007958582718856633, 3.498697333270684e-05, -0.0009337925584986806], [0.013846836052834988, -0.050953250378370285, -0.02556115947663784, 0.09570686519145966, 0.0002858755469787866, 0.017453301697969437, -0.103244848549366, 0.1300208568572998, -0.008444853127002716, 0.025623472407460213, 0.4003725051879883, -0.13373830914497375, 0.003841525875031948, 0.03779338672757149, 0.009213634766638279, 0.04644124209880829, -0.022276809439063072, 0.05164627730846405, -0.048277728259563446, 0.045853160321712494, 0.0005868412554264069, 0.05499467998743057, -0.001413087360560894, -0.0104506341740489, -0.07245834171772003, -0.22002239525318146, -0.2915312647819519, -0.04893801733851433, 0.07657225430011749, 0.01777310110628605, -0.18432775139808655, -0.008014530874788761, -0.013268065638840199, 0.000509569828864187, -0.0035503976978361607, 0.03686929866671562, 0.17445772886276245, -0.005556238349527121, 0.00725130969658494, -0.004991460125893354], [0.05776916444301605, -0.17719024419784546, -0.0597936287522316, -0.2116423398256302, 0.03373028710484505, -0.03172076493501663, -0.18775822222232819, 0.06572246551513672, -0.01509158406406641, -0.01187725830823183, 0.19526129961013794, -0.02529754862189293, 0.016487967222929, 0.1469413787126541, -0.013625934720039368, -0.01575564220547676, -0.045798324048519135, -0.1746140569448471, -0.00020663058967329562, -0.023561319336295128, 0.01616906002163887, 0.10123513638973236, 0.03486074507236481, 0.10075780004262924, 0.11098756641149521, 0.26535362005233765, -0.11360535025596619, 0.003958635963499546, 0.23346766829490662, 0.042349908500909805, -0.33449307084083557, -0.07325276732444763, -0.11730102449655533, -0.06225186586380005, -0.0051842196844518185, 0.058574408292770386, -0.059949908405542374, -0.48575958609580994, 0.007629261817783117, -0.009470473974943161], [-0.03131692111492157, -0.06386939436197281, -0.00029205510509200394, -0.0790630355477333, -0.015789197757840157, -0.003780860686674714, 0.09111465513706207, -0.006414288654923439, 0.00032682076562196016, -0.015840040519833565, 0.024899333715438843, 0.02310016378760338, 0.002256999257951975, 0.00484205549582839, 0.0010483985533937812, 0.007071657571941614, -0.009970499202609062, -0.0028023733757436275, -0.05455056205391884, 0.00842880830168724, -0.001955814426764846, -0.04290192946791649, -0.0040586888790130615, 0.0083647221326828, -0.019481735303997993, -0.006468523293733597, -0.10173453390598297, -0.01812388002872467, -0.10010453313589096, 0.016823261976242065, -0.01610388793051243, -0.038513630628585815, -0.011883181519806385, -0.010881186462938786, 0.003954294137656689, -0.0015106297796592116, 0.041199441999197006, -0.029665356501936913, 0.01204727217555046, 0.002638216596096754], [-0.05224919691681862, -0.23221540451049805, -0.10084175318479538, -0.4733189642429352, -0.08618925511837006, 0.022798605263233185, 0.1864522099494934, 0.2236626148223877, 0.01314961351454258, 0.1067453995347023, 0.5752267837524414, 0.6743971109390259, -0.05114826187491417, 0.00896353181451559, -0.038882914930582047, 0.001258113537915051, 0.00521960761398077, 0.0006394915981218219, -0.4277780055999756, 0.007025941740721464, -0.013106182217597961, 0.6897099614143372, -0.08400604128837585, 0.11830725520849228, -0.07390280067920685, -0.24519380927085876, 0.08708980679512024, 0.11661937832832336, 0.3505631983280182, -0.11266730725765228, 0.31544458866119385, -0.2652241587638855, 0.005560767836868763, -0.23087483644485474, 0.25263649225234985, 0.1113513633608818, 0.2853262424468994, -0.8733559846878052, -0.07623770833015442, 0.02570565789937973], [-0.08830121159553528, 0.02502165548503399, -0.008641074411571026, -0.16892436146736145, 0.022194035351276398, -0.010434257797896862, 0.037875499576330185, -0.050161540508270264, 0.010300488211214542, -0.011461267247796059, 0.09240783751010895, 0.01842154562473297, 0.003363310592249036, -0.12823696434497833, 0.017184186726808548, -0.002615006873384118, -0.005048601422458887, -0.00119948317296803, -0.06185368448495865, -0.01618018187582493, -0.005555355921387672, -0.13287512958049774, 0.01666034758090973, 0.022751566022634506, 0.03863596171140671, -0.036547478288412094, -0.19560672342777252, -0.061836764216423035, -0.09156230837106705, 0.03939955309033394, -0.03337251767516136, 0.109291210770607, -0.015490589663386345, 0.07119210809469223, -0.003503211308270693, -0.005007660482078791, 0.03892269730567932, 0.13338039815425873, 0.022133368998765945, 0.0044892821460962296], [0.003485838882625103, 0.01606927625834942, 0.000742787669878453, -0.016670139506459236, 0.010859237983822823, -0.006921205669641495, -0.12222787737846375, -0.0018743512919172645, -0.002709192456677556, -0.010771925561130047, 0.03157547861337662, -0.015869449824094772, 0.004590852651745081, -0.013289575465023518, 0.005630845203995705, 0.00039910603663884103, -0.007071050815284252, -0.0017742873169481754, -0.0028914371505379677, -0.0023243308532983065, 0.006960011553019285, 0.04091745987534523, -0.0017291882541030645, 0.0034624598920345306, 0.044243112206459045, -0.00035435939207673073, -0.003698320360854268, -0.025060351938009262, 0.021663110703229904, 0.02912454679608345, 0.0069100395776331425, -0.008660711348056793, -0.003960689064115286, 0.01648389920592308, 0.01041247695684433, 0.0007313595269806683, 0.024969343096017838, 0.004992889240384102, 0.010861445218324661, 0.001639117836020887], [0.04347040131688118, 0.45396220684051514, -0.027861233800649643, 0.10428797453641891, -0.07984817028045654, 0.007633107248693705, -0.31170910596847534, 0.054205719381570816, -0.005645480938255787, -0.0008280799374915659, 0.1481630951166153, -0.10177121311426163, -0.028811318799853325, 0.04834023118019104, -0.02252144366502762, 0.023579120635986328, -0.01846223883330822, 0.11147397011518478, -0.004235019441694021, 0.03757930546998978, -0.007371810730546713, 0.10305766761302948, -0.0887337327003479, 0.08389018476009369, -0.292267769575119, -0.5781384110450745, -0.03607814386487007, -0.05133138597011566, 0.35658901929855347, 0.14131233096122742, -0.06944005191326141, 0.032835692167282104, -0.056553445756435394, 0.09532101452350616, -0.028675220906734467, 0.06574562191963196, -0.1673303097486496, 0.030302993953227997, 0.009579082019627094, 0.01099471002817154], [-0.1280709207057953, 0.050891000777482986, -0.028130801394581795, -0.158159077167511, -0.010506902821362019, -0.03672073408961296, 0.06581910699605942, 0.006699816323816776, -0.00998042244464159, -0.030714722350239754, 0.1436229646205902, -0.1628754436969757, 0.002338015241548419, -0.07109054177999496, 0.003362998366355896, -0.03681902587413788, -0.03244033828377724, -0.042639560997486115, -0.05805281549692154, -0.04590247943997383, 0.012515779584646225, 0.08589787036180496, -0.019076421856880188, -0.0559781938791275, -0.05998562276363373, 0.0018353401683270931, -0.13151636719703674, 0.03569204732775688, -0.11135018616914749, 0.21943527460098267, -0.009091050364077091, -0.08288483321666718, -0.0260841753333807, 0.056938398629426956, 0.06196567416191101, 0.02680676244199276, 0.18274028599262238, -0.03599182888865471, 0.025535795837640762, -0.0008939108229242265], [-0.025836143642663956, 0.03611282259225845, -0.00018308132712263614, -0.14419881999492645, 0.0006784675060771406, -0.007640302646905184, 0.027585437521338463, -0.029598649591207504, -0.003527738619595766, -0.014478223398327827, 0.06739374995231628, -0.03164878860116005, 0.0025967287365347147, -0.026621807366609573, 0.002979848999530077, 0.009672272950410843, -0.008862386457622051, -0.04538353160023689, -0.020799387246370316, -2.659354140632786e-05, 0.011658141389489174, 0.04521410912275314, -0.028704486787319183, 0.008100343868136406, -0.028210582211613655, -0.00816734042018652, -0.18159201741218567, -0.040761470794677734, -0.09490058571100235, 0.03765634074807167, -0.007143721915781498, 0.05810629576444626, -0.011715621687471867, -0.022055430337786674, 0.0010032354621216655, -0.012072427198290825, 0.07897558063268661, 0.001845711492933333, 0.014896583743393421, 0.0030917867552489042], [-0.008596341125667095, 0.01354408822953701, -0.008464070037007332, -0.042221587151288986, 0.01913544163107872, -0.006313623860478401, -0.07712604105472565, 0.014550818130373955, 0.001881419331766665, 0.009280843660235405, 0.053027503192424774, 0.023235276341438293, 0.0037463221233338118, -0.0341167151927948, 0.00247836671769619, -0.007133179344236851, 0.004274923820048571, -0.03756224736571312, -0.052257295697927475, -0.009052613750100136, 0.00921627227216959, 0.042221568524837494, 0.003710297169163823, -0.014077828265726566, 0.03342529013752937, 0.015522610396146774, -0.008293533697724342, 0.0171820018440485, 0.02569406107068062, -0.024467594921588898, 0.011769641190767288, 0.05719245970249176, 0.001191062736324966, 0.00475506205111742, 0.012966100126504898, 0.007018162403255701, -0.00021735538030043244, -0.07005774229764938, -0.0028752153739333153, 0.0007075109169818461], [-0.016009101644158363, -0.0016633574850857258, -0.006451805122196674, -0.040532901883125305, 0.0031274815555661917, 0.0015557932201772928, -0.07409113645553589, 0.011241354048252106, 0.0008529832703061402, 0.0006203257944434881, 0.16239739954471588, 0.02892320230603218, -0.0006808651378378272, -5.500787665368989e-05, 0.0028901873156428337, 0.0016329512000083923, -0.00319016189314425, 0.005427053663879633, -0.039965905249118805, 0.004717432428151369, -0.0010742248268797994, 0.026258662343025208, 0.0013146689161658287, 0.0025293331127613783, 0.030767016112804413, -0.02918246015906334, -0.12158513069152832, -0.013399463146924973, 0.15524111688137054, -0.0018148466479033232, -0.0024337447248399258, 0.0007321052253246307, -0.002862044842913747, 0.0034908668603748083, 0.0023089724127203226, 0.009825225919485092, 0.023235782980918884, 0.015119754709303379, 0.00460548372939229, 0.0012458605924621224], [0.0036733176093548536, 0.1456572264432907, -0.016151338815689087, -0.34371981024742126, 0.12259193509817123, 0.008750490844249725, -0.08875839412212372, -0.06793409585952759, 0.002752491971477866, 0.01704169251024723, 0.43099120259284973, 0.2531649172306061, -0.011387328617274761, 0.03552372008562088, -0.01488347165286541, -0.04640234261751175, 0.012350361794233322, 0.07497064024209976, 0.20050042867660522, -0.04307705909013748, -0.009987877681851387, 0.14246533811092377, -0.11583707481622696, -0.009351988323032856, 0.08292032033205032, -0.44948679208755493, -0.32903632521629333, 0.010730721987783909, 0.4985419511795044, 0.1033203974366188, 0.14949581027030945, -0.140925794839859, -0.01946067623794079, 0.07466807961463928, 0.06712441891431808, 0.04605400934815407, -0.26125627756118774, 0.3220987617969513, -0.027871258556842804, 0.019426606595516205], [-0.00038455153116956353, 0.002202898496761918, 0.0010435120202600956, -0.0006962668267078698, 0.0007636475493200123, -0.0008090262999758124, -0.004171147011220455, 8.494718349538743e-05, 0.001077256165444851, -0.0010057220933958888, -0.003757081925868988, -0.0015018158592283726, 0.0009054441470652819, -0.003317418275400996, 0.0007708253106102347, 0.0006567372474819422, -0.00021181312331464142, -0.0026151523925364017, 0.005997021216899157, -0.0011931060580536723, -0.000625541084446013, 0.0004975573974661529, 0.0015566477086395025, 0.0012176837772130966, 0.0030796180944889784, 0.0004054353048559278, -0.003085196018218994, -0.0011175378458574414, -0.01174172107130289, 0.0025318400003015995, 0.0012300265952944756, 0.0005274158320389688, -0.00028623841353692114, 0.003301006043329835, 0.0007246850873343647, -4.535069456323981e-05, 0.00015107638319022954, 0.005048220511525869, 0.0011506018927320838, -0.0003637812042143196], [-0.0337207093834877, 0.03419744595885277, 0.002193239750340581, -0.04671792685985565, 0.02540550008416176, -0.018532007932662964, -0.20752301812171936, 0.0128469318151474, 0.007327547296881676, -0.007790053728967905, 0.1403082311153412, -0.15163461863994598, 0.010708382353186607, -0.03171080723404884, 0.013753463514149189, -0.012565365061163902, -0.0002144964091712609, 0.00638071121647954, -0.048056792467832565, -0.016188517212867737, 0.017704110592603683, 0.07590334862470627, -0.037481311708688736, 0.0723707303404808, 0.05429493263363838, 0.03239765763282776, -0.09766221046447754, -0.1119312047958374, 0.13329242169857025, 0.15229591727256775, 0.014858787879347801, -0.04656108841300011, 0.014275514520704746, 0.03383999690413475, 0.0262302216142416, 0.0018455812241882086, 0.0193625595420599, 0.05691223219037056, 0.009443160146474838, -0.0022251682821661234], [-0.002935907570645213, 0.009068244136869907, -0.003190630115568638, -0.0034554062876850367, 0.01090169046074152, 0.001048803562298417, 0.004762041382491589, -0.002812541788443923, 0.0007918439223431051, 0.0008824787219054997, -0.008551855571568012, -0.004669600632041693, 0.0010191354667767882, -0.005780560430139303, 0.001897658221423626, 0.0005701693589799106, -0.00017694898997433484, -0.005279134958982468, 0.012802252545952797, -0.0005162118468433619, 0.0005333305452950299, 0.002022508764639497, -0.007303277496248484, -0.0015794725622981787, 0.0014249065425246954, -0.006881422363221645, -0.004747012164443731, -0.0038783722557127476, -0.026176242157816887, 0.0014051514444872737, -0.002131498185917735, 0.01320396363735199, -0.0038482912350445986, 1.2664394489547703e-05, 0.004808092024177313, -0.0020952827762812376, 0.004493277054280043, 0.009674089029431343, 0.0007582012331113219, 6.580560147995129e-05], [-0.009990782476961613, 0.059134628623723984, 0.014642124064266682, -0.26769983768463135, -0.02027096226811409, 5.058539682067931e-05, -0.09661491215229034, -0.03583375737071037, 0.005273081827908754, -0.03529660403728485, 0.16075779497623444, -0.09608122706413269, 0.00549306208267808, -0.06978970766067505, 0.015690552070736885, 0.023939983919262886, -0.02208522893488407, -0.018406089395284653, -0.013319434598088264, 0.0209704227745533, 0.02655087411403656, 0.11947479099035263, -0.06302237510681152, 0.002657216042280197, -0.06673705577850342, -0.029914572834968567, -0.30550435185432434, -0.08607813715934753, -0.06708265095949173, 0.1301405280828476, 0.011123951524496078, 0.0028108805418014526, -0.020862307399511337, 0.011634480208158493, 0.00935837160795927, -0.003062187461182475, 0.14542116224765778, 0.045675359666347504, 0.04527540132403374, 0.001139450236223638], [0.0035937081556767225, 0.05061063915491104, -0.004716103430837393, -0.023580921813845634, 0.01361729297786951, -0.006009488366544247, -0.09160034358501434, 0.006015285849571228, 0.00046339831897057593, -0.0032717883586883545, 0.06261225789785385, -0.012277736328542233, 0.003467780305072665, -0.01292614359408617, 0.004345887806266546, -0.004369561094790697, -0.004952790681272745, -0.02077513374388218, -0.05175692215561867, -0.007181772496551275, 0.0018080364679917693, 0.029654623940587044, -0.01110909879207611, -0.01783685013651848, 0.03628510609269142, 0.028515683487057686, -0.00938563421368599, 0.0005764847737737, 0.03956053406000137, 0.011815647594630718, 0.02782023511826992, 0.037824586033821106, -0.010811788961291313, 0.015482720918953419, 0.014874880202114582, 0.01396933477371931, 0.038575880229473114, 0.029889756813645363, 0.00743512436747551, 0.0027385863941162825], [-0.10500219464302063, -0.015582836233079433, -0.006765848491340876, -0.20288001000881195, -0.007065479643642902, -0.019086631014943123, 0.12737588584423065, 0.027818184345960617, -0.018374668434262276, -0.03738787770271301, 0.15363197028636932, -0.2497466653585434, 0.0012154809664934874, -0.07598178088665009, 0.009548706002533436, 0.006823231931775808, -0.017735352739691734, 0.2617689073085785, -0.1810246706008911, -0.023804426193237305, 0.02147539146244526, 0.1706535667181015, -0.058493953198194504, 0.017627354711294174, -0.07306169718503952, 0.032756853848695755, -0.16432705521583557, -0.044002849608659744, -0.08482775092124939, 0.18978069722652435, 0.060099486261606216, -0.4050075113773346, 0.03590979427099228, 0.008482301607728004, 0.1078014224767685, -0.02685995027422905, 0.177853524684906, -0.17336533963680267, 0.02564830146729946, 0.009801605716347694], [-0.24915535748004913, -0.2816948890686035, -0.07680428773164749, 0.13165344297885895, 0.09814710170030594, 0.027602937072515488, -0.3341241180896759, 0.04017658904194832, -0.014659558422863483, 0.0737505629658699, 0.560144305229187, -0.07104751467704773, -0.009991971775889397, 0.01321791484951973, -0.0035173101350665092, 0.04039952531456947, 0.01799774169921875, 0.08356210589408875, -0.2645642161369324, 0.04011071100831032, -0.0423690564930439, -0.04591725394129753, -0.1227894201874733, 0.014097420498728752, -0.06917111575603485, 0.384503036737442, -0.09268824756145477, -0.07453614473342896, 0.5553591251373291, -0.030757663771510124, 0.1710837483406067, -0.5329990386962891, 0.017101045697927475, -0.10934191942214966, -0.023725174367427826, 0.009400986135005951, -0.14544469118118286, -0.11289718002080917, -0.04326166957616806, 0.009345860220491886], [0.002623798092827201, 0.04851027950644493, 0.0005385075346566737, 0.004455870948731899, 0.01686529442667961, -0.004761368036270142, -0.20721077919006348, 0.012623460032045841, -0.0019485426601022482, -0.007391226012259722, 0.06903935223817825, -0.030754409730434418, 0.003608012106269598, -0.00275973416864872, 0.00400211988016963, 0.0009512086980976164, -0.007181176915764809, 0.008396659046411514, -0.02777954190969467, 0.0010529326973482966, 0.021075842902064323, 0.06523993611335754, -0.01413198746740818, 0.009763223119080067, 0.07525801658630371, 0.015305706299841404, 0.0123396385461092, -0.0427582822740078, 0.05779263377189636, 0.06457676738500595, 0.01701985113322735, -0.014430740848183632, -0.008412315510213375, 0.018318243324756622, -0.0010936756152659655, -0.0010075373575091362, 0.03341230750083923, 0.03143219277262688, 0.008474168367683887, 0.003287188708782196], [-0.006305097136646509, -0.01009134016931057, -0.015055166557431221, -0.05820917338132858, -0.0013783148024231195, -0.005881115328520536, 0.1830306351184845, 0.007583280559629202, -0.0015330479945987463, -0.005653511732816696, -0.002944595878943801, 0.033353324979543686, 0.0018998731393367052, 0.0016061019850894809, -0.0017224136972799897, -0.0013979023788124323, -0.004974565003067255, -0.05042891949415207, -0.0044975439086556435, -0.003939979709684849, -0.028742840513586998, -0.02839375101029873, 0.020387504249811172, 0.008750339969992638, -0.04683620482683182, 0.0323382131755352, -0.07414405792951584, -0.003238174133002758, -0.1551608443260193, -0.006322300992906094, -0.027474045753479004, 0.021099580451846123, -0.006572396028786898, -0.002880818210542202, 0.0009797741658985615, 0.004896259400993586, 0.02205376699566841, 0.008448432199656963, 0.00471983477473259, -0.0004552748869173229], [-0.1969986855983734, 0.1463129222393036, 0.008266053162515163, -0.06455671042203903, -0.054349616169929504, -0.006071866024285555, -0.5378767848014832, -0.12827862799167633, -0.017116306349635124, -0.009603611193597317, 0.00514740077778697, -0.0540865883231163, -0.006761503405869007, -0.16685843467712402, 0.009346066042780876, -0.052048083394765854, 0.02668154239654541, 0.18353936076164246, -0.056563712656497955, -0.009113091975450516, -0.05490961670875549, -0.09345728158950806, -0.12573231756687164, -0.064694344997406, 0.04026589170098305, -0.027115598320961, -0.5241770148277283, 0.018060363829135895, 0.34650322794914246, -0.014684304594993591, 0.032835911959409714, 0.08843200653791428, 0.10043713450431824, -0.02808830887079239, 0.03982505947351456, -0.027331912890076637, 0.0849994644522667, 0.25319042801856995, 0.008884984999895096, -0.01196853257715702], [0.07522805035114288, 0.03935796767473221, -0.0038642999716103077, -0.08394072204828262, -0.002046267967671156, -0.0067442930303514, -0.0958663821220398, 0.027483439072966576, 0.0076025198213756084, 0.023966548964381218, 0.3705335855484009, 0.007699500769376755, -0.0035102595575153828, -0.010751216672360897, -0.005059349816292524, -0.018791135400533676, 0.017155960202217102, -0.0960623174905777, -0.10358991473913193, -0.02969435416162014, -0.051358677446842194, 0.05795633792877197, 0.04735160991549492, 0.014351951889693737, 0.0038124886341392994, 0.03733037784695625, -0.0379505529999733, 0.0203504990786314, 0.07104039192199707, 0.03867863118648529, 0.017030075192451477, 0.08456642925739288, 0.04332021623849869, 0.041609302163124084, 0.0063485451973974705, 0.06572142988443375, 0.04562880098819733, -0.016493724659085274, -0.016523487865924835, 0.009854087606072426], [-0.165479838848114, 0.15527567267417908, -0.03975557163357735, -0.2698920965194702, 0.005777047015726566, -0.057696688920259476, 0.03407440707087517, 0.02934609353542328, 0.0062455725856125355, -0.0516682043671608, 0.13438549637794495, -0.12698276340961456, 0.0035641156136989594, -0.16935880482196808, 0.01007369626313448, -0.020387660712003708, -0.043287452310323715, -0.04937365651130676, 0.019255278632044792, -0.0739191472530365, 0.006254113744944334, 0.09273894131183624, -0.024562913924455643, 0.038290392607450485, -0.09873835742473602, -0.012449772097170353, -0.1982354074716568, -0.077012799680233, -0.13714824616909027, 0.2793034315109253, -0.11299285292625427, 0.024113282561302185, -0.04294560104608536, 0.0769495889544487, 0.07863977551460266, 0.028401702642440796, 0.13958391547203064, -0.006800070870667696, 0.04823319986462593, -0.0005407665157690644], [0.11536756157875061, 0.22705738246440887, -0.06887704879045486, 0.11090127378702164, 0.15220405161380768, -0.0021570436656475067, 0.45850884914398193, 0.11370918899774551, -0.045232389122247696, 0.03065302222967148, 0.12781280279159546, 0.1748938411474228, 0.010581412352621555, 0.0397639274597168, -0.003701584180817008, -0.037146713584661484, -0.014053013175725937, -0.11357622593641281, -0.4546898305416107, -0.0028390558436512947, -0.02256440743803978, 0.0504935197532177, 0.06069890409708023, -0.03594619035720825, -0.07146366685628891, 0.5135675072669983, 0.2849675416946411, -0.03461534529924393, -0.4020293653011322, -0.08473356813192368, -0.5461445450782776, -0.1830776184797287, -0.03670915961265564, -0.06050829961895943, -0.009670326486229897, -0.02893533743917942, 0.1270863264799118, -0.17461492121219635, -0.010182268917560577, -0.020903274416923523], [-0.1239306777715683, 0.022455444559454918, -0.051795344799757004, 0.6361595988273621, -0.09292066097259521, -0.04098471254110336, -0.5557219982147217, 0.09860127419233322, -0.005467246286571026, 0.047936372458934784, 0.6441558003425598, 0.2484801858663559, 0.006653050426393747, -0.029413484036922455, 0.0008389768772758543, -0.04214675724506378, 0.0002296256716363132, -0.0272526815533638, 0.16609495878219604, -0.0584939680993557, 0.011975391767919064, -0.11700420081615448, -0.15675964951515198, 0.1257304698228836, -0.409956693649292, -0.028941120952367783, -0.20980803668498993, 0.06458346545696259, 0.7781679034233093, 0.19516171514987946, -0.1567823439836502, -0.4243271052837372, 0.05323958396911621, -0.06503286212682724, 0.12932781875133514, 0.0781625434756279, -0.030744602903723717, 0.021160414442420006, -0.037834927439689636, -0.003190503688529134], [-0.10699070245027542, -0.15964841842651367, -0.052787333726882935, -0.4849444627761841, -0.20231439173221588, 0.07878123968839645, 1.3744133710861206, 0.2997833788394928, 0.023244524374604225, 0.14037902653217316, 0.514446496963501, -0.342036634683609, -0.055927298963069916, -0.03199608251452446, -0.04099788889288902, 0.13437201082706451, 0.07067417353391647, 0.15427637100219727, 0.014306292869150639, 0.042236458510160446, -0.07559015601873398, -0.07585766166448593, 0.09329266101121902, 0.2970615029335022, -0.28445953130722046, 0.8424084782600403, -0.9620891213417053, 0.12213284522294998, -0.43140676617622375, 0.06762658804655075, -0.10116277635097504, -0.8996074199676514, 0.16486240923404694, 0.06320689618587494, -0.06573742628097534, 0.10816637426614761, -0.31776294112205505, -0.37730374932289124, -0.10230202227830887, 0.005739619489759207], [-0.05232226103544235, 0.10030409693717957, -0.04720102623105049, -0.15210992097854614, 0.026974771171808243, -0.038024935871362686, -0.05862472206354141, 0.016682613641023636, 0.009117924608290195, -0.0270889513194561, 0.18587921559810638, -0.1259397715330124, -0.003742231521755457, -0.04234762489795685, 0.004261117894202471, -0.04735933989286423, -0.03844482824206352, -0.0592033714056015, -0.08486819267272949, -0.033485252410173416, -0.010048571974039078, 0.04381311312317848, -0.010276900604367256, 0.033231303095817566, -0.06818017363548279, 0.015437185764312744, -0.17647266387939453, -0.0606234110891819, -0.06572050601243973, 0.1676032841205597, -0.08265630900859833, -0.010126590728759766, -0.07057049125432968, 0.07308784127235413, 0.07920452952384949, 0.061167649924755096, 0.06245383992791176, -0.01746445894241333, 0.03509111329913139, 0.0011081392876803875], [0.04769797995686531, 0.098416268825531, 0.013115782290697098, -0.013973967172205448, -0.05453748255968094, -0.03452180698513985, -0.7442139387130737, -0.09340859949588776, -0.02807016856968403, -0.06315424293279648, 0.30705058574676514, -0.37915974855422974, -0.004222827963531017, 0.04099046438932419, 0.007672836538404226, -0.11101988703012466, -0.02726472169160843, 0.027837054803967476, -0.020596418529748917, -0.02591281197965145, 0.0436336025595665, 0.010113401338458061, -0.014627515338361263, -0.05391721427440643, 0.12013673037290573, -0.3305796980857849, 0.3634556829929352, 0.022292962297797203, 1.0424026250839233, 0.0995643213391304, 0.13751663267612457, 0.21814589202404022, -0.05358099564909935, 0.0679045021533966, 0.0891130119562149, 0.00916220247745514, 0.08364132791757584, 0.17204910516738892, 0.03588160127401352, -0.014554379507899284], [0.13919515907764435, 0.38563215732574463, 0.05805995687842369, 0.2833007872104645, 0.02806089259684086, -0.007930646650493145, -0.487690806388855, -0.07697360217571259, -0.03212089091539383, -0.02479337714612484, 0.10819830745458603, -0.10994604974985123, -0.009930402971804142, 0.09663034230470657, -0.013596771284937859, -0.03434080630540848, 0.009478161111474037, -0.05776424705982208, -0.09504025429487228, -0.04611920565366745, 0.08098390698432922, 0.20060096681118011, -0.002018331317231059, -0.07544815540313721, 0.1630994975566864, 0.14027521014213562, 0.4172956645488739, 0.023901375010609627, 0.4041031301021576, 0.08393891900777817, 0.07578432559967041, 0.10752993822097778, 0.024632686749100685, 0.03433341905474663, -0.0757347121834755, -0.11074294149875641, 0.016107821837067604, 0.2981378138065338, -0.012518712319433689, 0.02080954983830452], [-0.11304793506860733, -0.02957303263247013, -0.01874152012169361, 0.10700107365846634, 0.01784832961857319, 0.0025196608621627092, 0.004859859589487314, 0.19950568675994873, -0.022147826850414276, 0.027833936735987663, 0.8516291975975037, -0.1305893063545227, 0.04556483030319214, -0.24647097289562225, 0.03180830925703049, 0.16109627485275269, 0.0011381969088688493, 0.09101565182209015, 0.19240081310272217, 0.041716884821653366, -0.022319836542010307, 0.1804594248533249, 0.0799754410982132, -0.06498335301876068, 0.8125602006912231, -0.3842642605304718, -0.02316390909254551, -0.07394428551197052, 0.40255793929100037, 0.031359925866127014, 0.31399378180503845, -0.22176389396190643, 0.14421585202217102, 0.027181681245565414, 0.01869460940361023, -0.05426815152168274, 0.26526719331741333, 0.10485341399908066, 0.010981620289385319, -0.03545813634991646], [0.026360195130109787, -0.020519841462373734, -0.07251882553100586, 0.20682436227798462, -0.09099030494689941, -0.013297039084136486, 0.36892443895339966, 0.17233969271183014, -0.005406779702752829, 0.06140968203544617, 0.15587061643600464, 0.11967067420482635, -0.029948880895972252, 0.01618189923465252, -0.013199211098253727, -0.040076032280921936, -0.009633244946599007, -0.130693256855011, 0.2724018394947052, 0.019977889955043793, 0.015379984863102436, -0.0782741978764534, 0.02374688908457756, 0.1688041388988495, -0.12531280517578125, -0.0723578929901123, -0.27056676149368286, 0.0007825250504538417, -0.5520102381706238, 0.2526582181453705, 0.0961952805519104, -0.1037202775478363, 0.013014452531933784, 0.03925411403179169, -0.014550521969795227, 0.15877771377563477, -0.10399831831455231, -0.168244868516922, -0.04099947586655617, 0.009162455797195435], [-0.04388456419110298, 0.03977791219949722, -0.01312924176454544, -0.13331818580627441, -0.0011626059422269464, -0.01384554523974657, -0.07425498217344284, 0.014603023417294025, -0.0030243878718465567, 0.00241474574431777, 0.14455337822437286, -0.10545738786458969, -0.0004888681578449905, -0.029905196279287338, 0.00043506824295036495, -0.025233624503016472, -0.007008683402091265, -0.02429294027388096, -0.09466380625963211, -0.01602228172123432, -0.01814892515540123, 0.04110613465309143, 0.01786951720714569, 0.015138229355216026, -0.0266665518283844, 0.008990829810500145, -0.12815941870212555, 0.002606810536235571, -0.06709638237953186, 0.11464546620845795, 0.02660670131444931, 0.01659761555492878, 0.011403362266719341, 0.012026241049170494, -0.013091173022985458, 0.020146945491433144, 0.09418150037527084, 0.02510545775294304, 0.0056604426354169846, 0.0034127102699130774], [-0.09252443164587021, -0.09037241339683533, -0.04000016674399376, -0.26317161321640015, 0.034104086458683014, 0.011958073824644089, 0.010673598386347294, -0.021435663104057312, 0.0037756236270070076, 0.03024126961827278, 0.271737277507782, -0.1503153294324875, -0.015550002455711365, -0.05468166619539261, 0.003567138686776161, -0.026909785345196724, 0.0043209632858633995, -0.022980673238635063, -0.1999426633119583, 0.03058122843503952, -0.011670929379761219, -0.09265480190515518, -0.008988110348582268, -0.0091704111546278, -0.06644979119300842, 0.02910316362977028, -0.250569611787796, -0.046973466873168945, -0.057035449892282486, 0.058272164314985275, 0.06788146495819092, 0.041096433997154236, -0.016613638028502464, 0.012686092406511307, -0.007125723175704479, 0.04120102897286415, 0.09979190677404404, 0.07073544710874557, -0.0003503564512357116, 0.007494394667446613], [-0.024027135223150253, 0.00840715505182743, -0.04856888949871063, -0.30643901228904724, 0.013621564023196697, -0.014698635786771774, 0.05400065705180168, 0.05124548450112343, 0.030222447589039803, -0.000905863125808537, 0.2615855038166046, -0.024829894304275513, -0.0038196758832782507, -0.06336108595132828, 0.021837005391716957, -0.009898334741592407, -0.026100659742951393, -0.07150746881961823, -0.12050934135913849, 0.00469485716894269, 0.0006584695656783879, 0.031655099242925644, -0.0013276133686304092, 0.0602712407708168, 0.04238657280802727, 0.045056965202093124, -0.2970105707645416, -0.03820565715432167, -0.15420864522457123, 0.07170490175485611, 0.06035996973514557, 0.07039903104305267, -0.04091319814324379, 0.05526209622621536, 0.06234661117196083, 0.07708241045475006, 0.1261461079120636, 0.03221273794770241, 0.031186848878860474, 0.00444385688751936], [0.01878001168370247, 0.0873197466135025, -0.015473475679755211, -0.06402314454317093, -0.007324498612433672, 0.012103665620088577, -0.14885614812374115, 0.044834576547145844, 0.003129026386886835, 0.03048532083630562, 0.2679637670516968, -0.025238951668143272, -0.0016079845372587442, -0.036481279879808426, -0.003971101250499487, -0.0014716741861775517, 0.010426957160234451, -0.026206141337752342, -0.11722289770841599, -0.0011715579312294722, -0.029798179864883423, 0.06071556732058525, 0.0012217977782711387, 0.015980450436472893, 0.0010600901441648602, -0.05876528471708298, 0.03984875977039337, 0.020750677213072777, 0.11436842381954193, 0.03590583801269531, -0.028616422787308693, -0.011181721463799477, 0.02612968161702156, 0.020954778417944908, -0.006893516052514315, 0.05190972983837128, 0.04402939975261688, 0.021061044186353683, -0.017354166135191917, 0.00445705046877265], [0.06648799031972885, 0.09290195256471634, -0.0331595242023468, -0.1174192726612091, 0.0216642115265131, 0.023699941113591194, -0.17162242531776428, 0.048693183809518814, -0.032029688358306885, 0.03079926408827305, 0.19556842744350433, 0.029045602306723595, -0.008515670895576477, 0.029318053275346756, -0.01509897317737341, -0.012168891727924347, 0.0019188857404515147, 0.07782760262489319, -0.10053529590368271, 0.029435737058520317, -0.026645805686712265, -0.09339918941259384, -0.027022892609238625, 0.0865081176161766, 0.14895202219486237, -0.09256363660097122, -0.11894549429416656, -0.04777606576681137, 0.06723281741142273, 0.07958267629146576, -0.03467945009469986, -0.10183266550302505, -0.010218397714197636, 0.010122084990143776, -0.020570116117596626, 0.034681737422943115, -0.07046610862016678, -0.1230844259262085, -0.015044317580759525, -9.948240767698735e-05], [-0.04275992885231972, 0.5960456728935242, -0.06088944151997566, 0.3507871627807617, 0.10197636485099792, 0.014225211925804615, 0.007938350550830364, 0.12404850870370865, -0.01887834258377552, 0.06447497010231018, 0.5597310662269592, 0.09456955641508102, -0.0005879360251128674, -0.02783355675637722, -0.018134910613298416, 0.0447763167321682, 0.023132214322686195, -0.21406210958957672, 0.1314026564359665, 0.0025137101765722036, -0.020104406401515007, -0.1133582815527916, -0.025056257843971252, 0.11240565031766891, -0.5684012174606323, 0.11020223796367645, 0.47391414642333984, 0.010903554037213326, -0.3100488781929016, -0.06313780695199966, 0.3482062816619873, -0.009951068088412285, 0.08590167760848999, -0.11962303519248962, -0.026071324944496155, -0.045932844281196594, 0.13761034607887268, -0.03700669854879379, -0.03951375558972359, 0.007959813810884953], [0.00010293498780811206, 0.017910009250044823, -0.006535128690302372, -0.004392172675579786, 0.015885602682828903, -0.0038618920370936394, -0.09020304679870605, 0.007132095750421286, 0.002985401777550578, 0.002006812719628215, 0.035220954567193985, -0.0043021016754209995, 0.0035315677523612976, -0.017442282289266586, 0.0029044323600828648, -0.0013618497177958488, -0.0013684489531442523, -0.023556768894195557, -0.022364335134625435, -0.004319268744438887, 0.00416759354993701, 0.03431522846221924, -0.0011744301300495863, -0.017290648072957993, 0.025422271341085434, 0.015147021040320396, 0.020215116441249847, 0.007856299169361591, 0.021023249253630638, 0.01025264523923397, 0.009957206435501575, 0.0361119769513607, -0.004181661177426577, 0.016874508932232857, 0.011311945505440235, 0.008564356714487076, 0.001073816791176796, -0.005872318521142006, 0.0021039859857410192, 0.0017781833885237575], [0.0020145236048847437, 0.0018230639398097992, 9.164032235275954e-05, -0.0018767529400065541, 0.000806674244813621, 6.142137135611847e-05, -0.00443130312487483, 0.00022069345868658274, -0.0007065306417644024, 0.00030354264890775084, 0.0010354956611990929, 0.0016416988801211119, 0.000525550392922014, -0.0003385104355402291, 7.872527930885553e-05, -7.697738510614727e-06, 0.0002812015009112656, -0.0002737169561441988, -0.00450759194791317, 0.0004276894323993474, -0.0012475507101044059, 4.172013723291457e-05, 0.0017757224850356579, -0.00029276945861056447, 0.0059953127056360245, 0.003940397407859564, 0.00016320667054969817, -0.0009028828353621066, 0.0022607557475566864, -0.00046906236093491316, 0.0018360604299232364, -0.0020986602175980806, 0.0007269739871844649, 0.00028909798129461706, -0.0011690922547131777, 0.0006854720995761454, 0.00024247811234090477, 0.001868140883743763, -3.519632446113974e-05, -0.0009360541589558125], [0.4876360297203064, 0.1308557540178299, 0.1085825115442276, 0.020797593519091606, 0.10672640800476074, -0.012143650092184544, -0.028923271223902702, -0.07524450868368149, 0.027687370777130127, 0.19269555807113647, -0.08190427720546722, 0.03512053191661835, 0.04016074910759926, -0.254260390996933, -0.03352547809481621, -0.07537322491407394, 0.3234102725982666, -0.24931567907333374, -0.14895884692668915, -0.30197638273239136, 0.0022523573134094477, 0.01919737085700035, -0.08388396352529526, -0.22102724015712738, 0.058862559497356415, -0.08887442201375961, 0.019097188487648964, 0.38862618803977966, 0.04863019287586212, -0.16877320408821106, 0.008308433927595615, 0.009564739651978016, 0.38893240690231323, 0.1121426522731781, -0.27121701836586, 0.5121157765388489, -0.08486343175172806, -0.030125601217150688, -0.24238261580467224, 0.004798586945980787], [0.03409348428249359, 0.07012245804071426, 0.1401374340057373, -0.16212905943393707, -0.10586753487586975, 0.10048379004001617, 0.2740536630153656, -0.18110254406929016, 0.08502864092588425, -0.0716916173696518, -0.1070321649312973, 0.3530879020690918, 0.025530461221933365, -0.2261257916688919, 0.14223724603652954, 0.22196108102798462, -0.011405212804675102, 0.061636682599782944, -0.401461660861969, 0.18478946387767792, -0.09991920739412308, -0.19294458627700806, -0.13368567824363708, 0.01854112558066845, -0.45100218057632446, -0.12991376221179962, 0.25716039538383484, -0.32412317395210266, 0.36331629753112793, 0.7556085586547852, -0.04850156605243683, 0.21933595836162567, 0.016712678596377373, 0.18621347844600677, -0.06839412450790405, 0.05208626762032509, 0.26226744055747986, 0.9804441332817078, 0.18466103076934814, 0.0027025537565350533], [0.03653455153107643, 0.011206009425222874, 0.08986175805330276, -0.05006217584013939, -0.0030799731612205505, 0.030725277960300446, -0.11346825212240219, 0.23054495453834534, 0.08754431456327438, -0.06232832372188568, -0.20240966975688934, 0.0733727514743805, 0.034724995493888855, -0.02243073098361492, 0.015593081712722778, 0.30309006571769714, -0.034389276057481766, -0.06773235648870468, -0.03343904763460159, 0.08749618381261826, -0.08418487757444382, 0.2008393257856369, 0.022861115634441376, -0.03247920051217079, -0.11723627150058746, 0.03489163517951965, -0.0567505769431591, -0.07891061902046204, 0.20000940561294556, 0.024603981524705887, 0.044265266507864, 0.05060679465532303, 0.06778480112552643, -0.01752854324877262, -0.2424049973487854, -0.04059906303882599, 0.08339560776948929, -0.057587165385484695, 0.04385967552661896, 0.0053083463571965694], [-0.04457997530698776, 0.622700035572052, -0.1406695395708084, 0.5240938663482666, 0.20726026594638824, 0.034536294639110565, 0.6971915364265442, 0.060196492820978165, -0.023724572733044624, 0.1097872257232666, 0.11461950093507767, -0.36637336015701294, -0.03689640015363693, -0.05934412404894829, -0.011149411089718342, -0.05808921530842781, 0.06325186789035797, -0.08961620181798935, 0.17939786612987518, -0.0031714914366602898, -0.10489987581968307, -0.7312304377555847, 0.10788973420858383, 0.16272208094596863, 0.3171977996826172, 0.38055968284606934, 0.7570497393608093, -0.09439267963171005, 0.10660086572170258, 0.20435263216495514, 0.11479444056749344, 0.050384391099214554, 0.00037618933129124343, 0.2840629816055298, -0.07132032513618469, 0.12223490327596664, -0.4259207546710968, 1.4114906787872314, -0.04939785227179527, -0.003668645629659295], [-0.18802621960639954, 0.10637934505939484, -0.17288877069950104, -0.09196165204048157, 0.16791950166225433, -0.13191193342208862, -0.04883450269699097, 0.23389075696468353, -0.2120627909898758, -0.0704052671790123, -0.003900600131601095, -0.15649740397930145, -0.0022149202413856983, -0.025336120277643204, -0.03174465149641037, -0.32658275961875916, -0.05682256817817688, -0.20220428705215454, -0.050939545035362244, -0.1334945261478424, -0.02015732415020466, -0.04702318087220192, -0.12048384547233582, -0.5472085475921631, 0.13445709645748138, -0.04715294390916824, 0.10857260227203369, 0.10112981498241425, -0.024407831951975822, -0.22076283395290375, -0.12573771178722382, -0.07506711035966873, -0.08420228958129883, -0.046726956963539124, 0.3943364918231964, -0.10026225447654724, -0.08176083117723465, 0.114326111972332, 0.02944563515484333, -0.0016027989331632853], [-0.03952013701200485, -0.14701546728610992, -0.010089272633194923, 0.05414995551109314, 0.15529803931713104, 0.03946790471673012, 0.03369218856096268, -0.04118632525205612, 0.17799924314022064, 0.035423193126916885, 0.00761817442253232, 0.0384802483022213, 0.0014087369199842215, -0.03037530742585659, 0.02739381603896618, 0.30823037028312683, -0.031178200617432594, -0.16748684644699097, -0.005786424968391657, 0.15960724651813507, -0.05612540617585182, 0.08875713497400284, 0.022986264899373055, 0.11728233844041824, -0.05115595459938049, -0.00044519625953398645, 0.062327250838279724, -0.2509084939956665, 0.07356511056423187, -0.19036704301834106, -0.05851605534553528, -0.037853144109249115, -0.08280429244041443, 0.15685735642910004, -0.03914069011807442, 0.015400241129100323, 0.023083483800292015, 0.08690474927425385, 0.057874176651239395, 0.0008354127639904618], [-0.06602471321821213, -0.10100600123405457, -0.09137938171625137, -1.3075379133224487, 0.32550832629203796, -0.05611228942871094, 0.5314534306526184, -0.07252119481563568, -0.11101066321134567, -0.022713597863912582, -0.49184727668762207, -1.0488392114639282, 0.02996775135397911, -0.18261565268039703, -0.015115289017558098, -0.1325429528951645, 0.037051014602184296, -0.09718140959739685, -0.5753728747367859, -0.1339205503463745, -0.15177619457244873, -0.15782424807548523, 0.05048895627260208, -0.18799743056297302, 0.7642834186553955, 0.2145622968673706, -0.47322413325309753, -0.16982674598693848, -0.16699381172657013, -0.2966267764568329, -0.35036730766296387, -0.3623831868171692, 0.10382861644029617, 0.05564776808023453, -0.03409992903470993, -0.02151966094970703, 0.3084811270236969, 0.4889686703681946, -0.010374274104833603, 0.013572970405220985], [0.08628519624471664, -0.03886872157454491, -0.19780103862285614, 0.021104536950588226, -0.1465294063091278, 0.049630846828222275, 0.078755684196949, 0.1851194053888321, -0.1826985478401184, -0.3830762207508087, 0.2226976454257965, 0.038064584136009216, 0.010422778315842152, 0.25142401456832886, -0.10571270436048508, 0.2171272188425064, -0.40745624899864197, -0.15939201414585114, 0.16061830520629883, 0.2707817554473877, -0.715265154838562, -0.16119664907455444, 0.0805872231721878, -0.7021616101264954, -0.08093772828578949, 0.022605983540415764, 0.03951965272426605, 0.14206676185131073, -0.08507619798183441, 0.050574347376823425, 0.01706629991531372, -0.12535622715950012, -0.2566337287425995, -0.12470589578151703, -0.32053130865097046, 0.30477359890937805, -0.06364738941192627, 0.01723526418209076, 0.3575458526611328, 0.05969526246190071], [-0.11440425366163254, -0.08962050080299377, -0.08359081298112869, 0.07532088458538055, 0.292383074760437, -0.04944160580635071, -0.060011353343725204, 0.10177331417798996, 0.07829590141773224, -0.08428840339183807, -0.07178238779306412, 0.0708298608660698, 0.020547103136777878, -0.11435657739639282, 0.07405918836593628, 0.05473792925477028, -0.0812576562166214, -0.34098437428474426, -0.001195666496641934, -0.0035463902167975903, -0.03465195745229721, 0.04629020392894745, 0.25315675139427185, 0.12265289574861526, -0.10393359512090683, 0.020738402381539345, -0.003100726753473282, -0.262329638004303, 0.10138461738824844, -0.13276436924934387, 0.029792699962854385, -0.041495248675346375, -0.07368201017379761, 0.38348284363746643, 0.30938616394996643, -0.02788401022553444, 0.0003006828483194113, -0.06071225926280022, 0.12089881300926208, -0.013070202432572842], [-0.25767114758491516, -0.10933709144592285, 0.08306316286325455, 0.08401653170585632, 0.1663278490304947, 0.08268165588378906, 0.11296360939741135, 0.38845786452293396, 0.1503068059682846, 0.07258020341396332, 0.1177801564335823, 0.046115826815366745, -0.02185325138270855, -0.1297970563173294, 0.0410798080265522, 0.25174495577812195, 0.03647064045071602, -0.18982836604118347, -0.05370880663394928, 0.09800615161657333, 0.19275769591331482, -0.03172976151108742, -0.07162412256002426, 0.06058087944984436, 0.023344891145825386, -0.04849379509687424, 0.10296347737312317, -0.07834996283054352, 0.03832622617483139, -0.06520391255617142, -0.07477223128080368, 0.04951656982302666, 0.007542257197201252, 0.19806517660617828, -0.032195352017879486, -0.04840576648712158, -0.06251148134469986, 0.07554319500923157, -0.030009154230356216, 0.02285417914390564], [-0.011648665182292461, -0.0005875424831174314, -0.00260712718591094, -0.03149003908038139, 0.0049956245347857475, 0.0006188819534145296, -0.05718462914228439, 0.0036170773673802614, 0.00036542105954140425, -0.002010190626606345, 0.11929172277450562, 0.020126909017562866, -0.0003832440997939557, -0.0001517870114184916, 0.003068682039156556, -0.0004648970498237759, -0.002804309129714966, 0.004948895424604416, -0.0302034430205822, 0.0020824065431952477, 0.0008408380090259016, 0.019646110013127327, -0.002001354703679681, -0.0011759577319025993, 0.023380113765597343, -0.02415250614285469, -0.09197911620140076, -0.01116079930216074, 0.1174624115228653, 0.0006250573787838221, -0.0036744021344929934, -0.0006360367988236248, -0.00393342413008213, 0.004215648397803307, 0.0018772060284391046, 0.006783872377127409, 0.015150503255426884, 0.01003357395529747, 0.005005516577512026, 0.00204872852191329], [-0.0003655505133792758, 0.4135766327381134, -0.04316934198141098, 1.741391897201538, 0.01233658753335476, 0.04321460425853729, 0.41396111249923706, 0.06706736981868744, -0.01298535242676735, 0.05629648640751839, 0.053398218005895615, -0.4861338138580322, -0.018970683217048645, 0.00340629112906754, -0.008659717626869678, 0.02657698094844818, -0.00869434792548418, -0.011800470761954784, -0.30784228444099426, 0.05869798734784126, 0.002062425250187516, 0.03663018345832825, 0.03919428586959839, 0.058946043252944946, 0.07282611727714539, 0.03374233841896057, -0.9759264588356018, -0.039973583072423935, 0.2389778196811676, -0.005869891028851271, 0.14874981343746185, 0.011225409805774689, -0.03404645994305611, 0.050344664603471756, -0.014660297892987728, -0.036519136279821396, 0.09889527410268784, 0.5384743213653564, -0.0214213989675045, -0.003122171154245734], [0.03875163570046425, 0.06802193075418472, -0.01629430241882801, -0.021062029525637627, -0.022935615852475166, 0.01856117881834507, -0.03173668682575226, 0.04385673999786377, -0.048533763736486435, 0.03359823673963547, -0.009969384409487247, -0.11245326697826385, -0.01865963824093342, 0.007815972901880741, -5.176387639949098e-05, -0.13766711950302124, 0.019939620047807693, -0.07059744745492935, 0.08211183547973633, -0.027462942525744438, 0.1066049188375473, 0.01907620020210743, 0.03954915329813957, -0.10684416443109512, 0.04905305057764053, 0.01930818147957325, -0.028974466025829315, 0.11124861240386963, -0.002104855142533779, -0.10985521227121353, -0.0024014238733798265, -0.10752864181995392, 0.0013979087816551328, -0.10827087610960007, 0.02440701425075531, 0.015927640721201897, 0.014072301797568798, -0.0033839100506156683, -0.023411476984620094, -0.02268117666244507], [0.42205262184143066, 0.03121250495314598, -0.08242931216955185, -0.0021632362622767687, -0.12823039293289185, 0.06690259277820587, 0.04656015336513519, -0.45201337337493896, -0.011140760965645313, -0.01788807101547718, 0.014599320478737354, 0.15995842218399048, -0.06864511966705322, 0.19767706096172333, -0.08217371255159378, 0.04303159937262535, -0.02609904482960701, 0.16948489844799042, -0.10642064362764359, 0.11173997819423676, -0.3920769989490509, -0.14745952188968658, -0.15530332922935486, 0.6268982291221619, -0.0019375693518668413, -0.05354703590273857, -0.011393420398235321, -0.257964551448822, 0.02073652483522892, 0.0628865584731102, -0.0036894462537020445, 0.11919210106134415, -0.10218624770641327, -0.23741061985492706, -0.12906305491924286, 0.11634496599435806, -0.06893941015005112, -0.04936492443084717, 0.045848071575164795, 0.04326145723462105], [-0.0016458270838484168, -0.02678820677101612, -0.000324790773447603, 0.020718101412057877, 0.06388439983129501, -0.04682915657758713, -0.05981138348579407, 0.11859023571014404, -0.0444449819624424, -0.03982480615377426, -0.06708697974681854, -0.08837052434682846, -0.017634807154536247, -0.010596586391329765, -0.023208066821098328, -0.11467377841472626, -0.013949128799140453, -0.07363084703683853, 0.016984300687909126, -0.057898420840501785, 0.02032429911196232, 0.06264816969633102, 0.09644661098718643, -0.07441256940364838, -0.005031537264585495, 0.04006175696849823, -0.034794941544532776, -0.05099281668663025, 0.021769845858216286, -0.07178983837366104, 0.01809510588645935, -0.053938042372465134, 0.014677314087748528, 0.08086802810430527, 0.18290109932422638, -0.023772627115249634, 0.08889918029308319, 0.016252579167485237, 0.0030993360560387373, -0.012012514285743237], [-0.02038799598813057, -0.115987129509449, -0.16244052350521088, 0.14817333221435547, 0.41096246242523193, -0.003099849447607994, -0.07591580599546432, -0.15477435290813446, 0.25369617342948914, -0.017991049215197563, 0.00400155782699585, 0.0387093648314476, 0.06843286752700806, -0.10399162769317627, 0.10838470607995987, 0.12852752208709717, -0.051959551870822906, -0.5152807235717773, 0.18027521669864655, 0.07221934199333191, -0.09143763035535812, 0.10123049467802048, 0.1250312179327011, 0.08588925749063492, -0.07818622887134552, 0.059738367795944214, -0.015135989524424076, -0.3394371271133423, 0.006695003714412451, -0.3966883718967438, 0.03338966518640518, -0.23562747240066528, -0.16659021377563477, 0.22090044617652893, 0.18788738548755646, 0.03182704374194145, 0.08958243578672409, -0.05719009041786194, 0.10835671424865723, -0.009369953535497189], [-0.21114514768123627, -0.017811059951782227, 0.1081072986125946, 0.034144628793001175, 0.14079928398132324, 0.05402356758713722, 0.020865125581622124, 0.4261910915374756, 0.12186169624328613, 0.10841677337884903, -0.05355338752269745, 0.008060906082391739, 0.020154666155576706, -0.16646236181259155, 0.028382625430822372, 0.18879249691963196, 0.07045873254537582, -0.0947573184967041, -0.09991703182458878, 0.007006686646491289, 0.22540321946144104, 0.05876566842198372, -0.14348897337913513, -0.06865245848894119, 0.025481663644313812, -0.026576755568385124, 0.02339790016412735, 0.13060565292835236, 0.10781921446323395, -0.03313322365283966, -0.033397067338228226, 0.06660470366477966, 0.13870492577552795, 0.18885169923305511, -0.08990336954593658, 0.03257264941930771, -0.04428648576140404, -0.0014056800864636898, -0.0994754359126091, 0.004132492002099752], [0.06714580208063126, 0.09154993295669556, 0.20319721102714539, -0.18078412115573883, -0.16420245170593262, 0.14441971480846405, -0.04587389901280403, 0.19157323241233826, 0.1923454850912094, 0.047028180211782455, -0.06847644597291946, 0.07636383175849915, 0.03320029377937317, -0.011085850186645985, 0.036191560328006744, 0.36184534430503845, 0.06323448568582535, 0.4605156183242798, 0.3219950795173645, 0.14634524285793304, 0.026870809495449066, -0.04482675716280937, 0.0003703029069583863, 0.4601812958717346, -0.024256862699985504, 0.01974809356033802, -0.007889949716627598, -0.09580697119235992, 0.23192651569843292, 0.1872205287218094, -0.028209922835230827, -0.29599785804748535, 0.18120382726192474, 0.1836489737033844, -0.4172021448612213, 0.2562820017337799, -0.08089572936296463, -0.08501377701759338, -0.024689989164471626, -0.04120481014251709], [0.14487601816654205, 0.6888514757156372, 0.030595812946558, -0.1757095605134964, 0.015422576107084751, -0.08944689482450485, 0.5005236268043518, -0.07666678726673126, -0.021653661504387856, -0.06875954568386078, 0.045527126640081406, -0.11859316378831863, 1.1349882242939202e-06, 0.019782843068242073, -0.048249050974845886, -0.1571090817451477, -0.016969725489616394, -0.37372887134552, -0.1619706153869629, -0.11912426352500916, 0.13811743259429932, -0.28816860914230347, 0.04523973912000656, -0.13711820542812347, 0.4903107285499573, 0.5802537202835083, 0.20048953592777252, 0.22299852967262268, 0.4067498445510864, -0.22620537877082825, 0.5567291975021362, 1.9870349168777466, -0.08337988704442978, -0.17545023560523987, -0.03523138910531998, -0.07231225073337555, 0.3980206251144409, -0.5804740786552429, -0.013981437310576439, 0.012164069339632988], [0.12869808077812195, -0.17545302212238312, -0.09401939809322357, 0.09025683254003525, 0.15836001932621002, 0.00972037948668003, -0.020012812688946724, -0.22407326102256775, 0.10341274738311768, -0.06586045026779175, 0.005345541518181562, -0.0304399561136961, 0.007819944061338902, 0.06732115149497986, -0.007035916205495596, 0.18253158032894135, -0.06047346070408821, -0.18840396404266357, 0.024606473743915558, 0.08637647330760956, -0.14777059853076935, 0.05973578616976738, 0.017972225323319435, 0.20709192752838135, -0.029435493052005768, 0.01214964035898447, -0.02802492305636406, -0.4264954924583435, -0.05831456556916237, -0.2560785114765167, 0.035818103700876236, -0.10683169960975647, -0.13893379271030426, 0.017452597618103027, 0.08727005869150162, 0.07391238957643509, 0.1421336680650711, 0.08301025629043579, 0.10449808835983276, 0.009157872758805752], [-0.20604979991912842, 0.10913313180208206, 0.241789311170578, 0.07872016727924347, -0.023788990452885628, 0.06251547485589981, -0.046230610460042953, 0.6896029710769653, 0.07621625810861588, -0.15928435325622559, -0.18483807146549225, 0.02417946793138981, -0.1297380030155182, 0.16374608874320984, -0.029309837147593498, 0.13246691226959229, -0.151495561003685, 0.03964740410447121, -0.286323606967926, 0.03667287528514862, -0.0013761495938524604, 0.175929993391037, -0.19397148489952087, 0.35539770126342773, 0.08176454156637192, -0.05723310261964798, -0.02333594113588333, -0.056380242109298706, 0.1098501980304718, 0.24890436232089996, 0.03980598226189613, 0.2719850540161133, -0.08606855571269989, 0.17882199585437775, 0.14509505033493042, -0.16291369497776031, 0.04330599680542946, -0.05478540062904358, 0.058928973972797394, 0.1691516488790512], [0.08601048588752747, 0.0962274968624115, -0.108113132417202, 0.11077331751585007, 0.1078205555677414, -0.09327346086502075, -0.4350557029247284, 0.21493268013000488, -0.055434927344322205, -0.09783919900655746, -0.20149950683116913, 0.12026858329772949, -0.0033254586160182953, 0.25896042585372925, -0.07823463529348373, -0.20659321546554565, -0.11009309440851212, 0.031123461201786995, -0.1600048542022705, -0.08301113545894623, 0.006731323432177305, -0.09091083705425262, 0.06272915005683899, 0.07047377526760101, 0.2034216672182083, 0.04296685755252838, 0.16638760268688202, 0.22624416649341583, -0.45616573095321655, -0.612633228302002, -0.1590457260608673, 0.21623611450195312, -0.2295435518026352, -0.08320596814155579, 0.08907020837068558, -0.24047750234603882, -0.5341019630432129, -1.0285731554031372, -0.016939491033554077, -0.015866808593273163], [0.19889913499355316, 0.022156506776809692, 0.07332449406385422, -0.0339830107986927, -0.18062381446361542, -0.07073172926902771, 0.020884700119495392, -0.05755537375807762, -0.35298585891723633, 0.044349055737257004, 0.09504524618387222, -0.11410810053348541, -0.018584033474326134, 0.15061472356319427, -0.14237654209136963, -0.2612881660461426, -0.015543344430625439, -0.07746630162000656, 0.02262278087437153, -0.11036770790815353, 0.05206454172730446, -0.07611282914876938, 0.30206525325775146, 0.05147193372249603, 0.08673727512359619, -0.015029877424240112, 0.0204742681235075, -0.10602955520153046, -0.0773400217294693, -0.018223213031888008, -0.052963919937610626, -0.0610852986574173, 0.11255086213350296, -0.4688184857368469, -0.2719212770462036, -0.5955237150192261, -0.02125118300318718, 0.03677976131439209, -0.11418098956346512, 0.020630646497011185], [0.3702590763568878, -0.10489826649427414, 0.05256852135062218, -0.135966956615448, 0.4231721758842468, -0.147527277469635, 0.02817264012992382, 0.45449766516685486, -0.15095502138137817, -0.11858778446912766, 0.04080227017402649, 0.20035800337791443, 0.1289157122373581, -0.23407107591629028, 0.11211390793323517, -0.07405729591846466, -0.004586077760905027, -0.29249510169029236, 0.07357612997293472, -0.06592299789190292, -0.17806033790111542, -0.04730592668056488, 0.06255660951137543, 0.144865944981575, -0.20547835528850555, 0.028515255078673363, -0.09405334293842316, -0.5900283455848694, 0.12651313841342926, 0.2756675183773041, 0.14035268127918243, -0.05479120835661888, 0.32357001304626465, -0.19639605283737183, 0.060425788164138794, -0.062004879117012024, -0.09687817841768265, 0.008616507984697819, 0.06587722897529602, -0.007156963925808668], [-0.03257186338305473, 0.1802239567041397, -0.07011676579713821, -0.48004165291786194, -0.0517549030482769, 0.0009437011904083192, -0.5832306146621704, 0.07633636891841888, -0.024561727419495583, 0.01633984036743641, 0.28755518794059753, 1.1122474670410156, -0.025246258825063705, 0.21350927650928497, -0.02858288399875164, -0.03167853504419327, -0.07889413833618164, 0.21911536157131195, -0.26785755157470703, 0.0026982484851032495, -0.11785205453634262, -0.2870117723941803, -0.21869578957557678, 0.16346459090709686, 0.48404499888420105, 0.5323426127433777, -0.012704631313681602, 0.029189851135015488, 0.34049585461616516, -0.0815284326672554, -0.2637292146682739, 0.2669396698474884, -0.13745827972888947, -0.0673859491944313, 0.11806849390268326, 0.05576017126441002, -0.7267816662788391, -0.16557207703590393, -0.007992669939994812, 0.05341993272304535], [0.1533062905073166, 0.36019226908683777, 0.05033425614237785, 0.18802551925182343, -0.10229349881410599, 0.024138038977980614, 0.04434939846396446, 0.13946495950222015, -0.007515359669923782, -0.18312974274158478, -0.05262277275323868, 0.5771645307540894, -0.020709963515400887, 0.42285263538360596, 0.0012690789299085736, 