{"model_data": {"model": "SimpleRNN", "input_size": 2, "skip": 1, "output_size": 1, "unit_type": "LSTM", "num_layers": 1, "hidden_size": 40, "bias_fl": true}, "state_dict": {"rec.weight_ih_l0": [[0.011864995583891869, -0.005510378163307905], [0.07476958632469177, 0.1341453641653061], [-0.2527170777320862, -0.2077062577009201], [-4.1356692236149684e-05, 0.004187573213130236], [-0.00011306812666589394, 0.006317461375147104], [0.04488590732216835, 0.028802888467907906], [0.02240099012851715, 0.10185158252716064], [0.01379397138953209, 0.29547956585884094], [-5.5860909924376756e-05, 0.005225770175457001], [0.06049259752035141, -0.046616557985544205], [0.0011599488789215684, -0.18259687721729279], [-4.415677540237084e-05, 0.0040773628279566765], [0.017823925241827965, 0.12028992921113968], [0.0136542534455657, -0.10279125720262527], [0.031130092218518257, 0.10852144658565521], [-0.0013447157107293606, 0.5905277729034424], [-0.046035200357437134, -0.22968655824661255], [0.01160778384655714, 0.04518706351518631], [0.07911427319049835, 0.6825637817382812], [-5.7565463066566736e-05, 0.005520094186067581], [-0.05343211442232132, -0.04359305277466774], [-0.2459220141172409, -0.38959717750549316], [-0.03440919145941734, -0.2338743954896927], [0.020998772233724594, -0.37899795174598694], [0.06163622811436653, 0.051227107644081116], [0.00999845564365387, -0.08391575515270233], [0.004071808885782957, 0.3653285801410675], [0.04010886326432228, -0.013661026954650879], [0.031002942472696304, -0.02702702395617962], [-0.01277070865035057, 0.3722394108772278], [-0.005518745165318251, -0.14095015823841095], [0.06547816097736359, 0.1033371165394783], [0.02219926193356514, -0.011572018265724182], [5.3373882110463455e-05, 0.0022165996488183737], [-4.071094008395448e-05, 0.004598969593644142], [0.03180873021483421, -0.005376237444579601], [0.08183285593986511, -0.03828595206141472], [0.07351485639810562, -0.039032865315675735], [0.02504882588982582, -0.01275993138551712], [-0.12996172904968262, -0.05642421916127205], [0.009667091071605682, 0.047868020832538605], [0.06679859757423401, 0.13070473074913025], [-0.36490902304649353, 0.13977280259132385], [2.8862088583991863e-05, 0.005654596723616123], [-8.140731551975477e-06, 0.00889581348747015], [-0.011229834519326687, 0.06999175250530243], [0.029362788423895836, -0.00922743696719408], [0.021044012159109116, -0.07317471504211426], [3.411300713196397e-05, 0.007137056440114975], [-0.046862754970788956, 0.08957961201667786], [0.014149256981909275, -0.1726972460746765], [2.3921254978631623e-05, 0.005506183952093124], [0.008593078702688217, -0.02652718499302864], [-0.013938898220658302, 0.08438384532928467], [-0.00942616444081068, -0.02067168429493904], [0.01803954504430294, 0.14412137866020203], [0.19690869748592377, 0.33464133739471436], [-0.02783689647912979, 0.05511331185698509], [-0.06219646334648132, 0.30168041586875916], [3.817818287643604e-05, 0.0075615327805280685], [-0.0019958969205617905, 0.21123041212558746], [-0.018928533419966698, 0.4846664071083069], [-0.054032113403081894, -0.1443716287612915], [-0.12909343838691711, 0.4517229497432709], [-0.043953876942396164, 0.029825543984770775], [0.00299164280295372, 0.03289048373699188], [-0.0866955891251564, 0.1373749077320099], [0.073380246758461, 0.15305447578430176], [-0.0878308117389679, 0.04378148540854454], [-0.06012512743473053, 0.44013431668281555], [0.07635785639286041, 0.07898562401533127], [0.048292387276887894, 0.03610454872250557], [0.07562415301799774, 0.08057247847318649], [7.802352047292516e-05, 0.0028643866535276175], [3.748791277757846e-05, 0.00622076028957963], [0.000499189249239862, 0.0463358573615551], [-0.01609455607831478, 0.03660278022289276], [-0.009066007100045681, 0.035591013729572296], [0.0007189741590991616, 0.059544213116168976], [0.23595216870307922, 0.13610543310642242], [0.07406900078058243, 0.011194835416972637], [-0.021994810551404953, 0.004408541135489941], [0.378607839345932, -0.032474540174007416], [-0.00809630285948515, 0.002626206260174513], [-0.010213548317551613, 0.002076521748676896], [-0.02874371036887169, -0.041276004165410995], [0.319017231464386, -0.048499904572963715], [0.3356727957725525, 0.03804326429963112], [-0.008793385699391365, 0.00298959668725729], [-0.07721555978059769, 0.06085255742073059], [-0.06787083297967911, 0.10143670439720154], [-0.008003505878150463, 0.002255482831969857], [0.21575433015823364, 0.060545191168785095], [-0.13691100478172302, 0.023019254207611084], [0.18719157576560974, -0.18244343996047974], [1.2542858123779297, -0.17683754861354828], [0.4448656439781189, 0.02870042994618416], [0.4917888939380646, -0.048518676310777664], [-0.09336179494857788, 0.0932231992483139], [-0.008968329057097435, 0.0030970165971666574], [-0.11281067878007889, 0.09831307828426361], [0.510354220867157, -0.021386902779340744], [0.08365684002637863, 0.3624091148376465], [-0.06483031809329987, -0.014330544508993626], [0.003848460502922535, -0.09990505874156952], [-0.039911989122629166, -0.06942035257816315], [-0.1236196979880333, 0.10809842497110367], [-0.049544088542461395, 0.7515389323234558], [-0.06850295513868332, -0.17286549508571625], [-0.8375948071479797, -0.023012448102235794], [-0.09854350984096527, 0.02811593934893608], [-0.08814094215631485, -0.00029272696701809764], [-0.06718937307596207, 0.12232150137424469], [0.005269208457320929, -0.003108457662165165], [0.008233821019530296, -0.003021139418706298], [0.056205619126558304, -0.061496421694755554], [-0.06378491967916489, 0.006479889154434204], [0.013944570906460285, -0.005123613402247429], [0.030344394966959953, -0.0689581036567688], [-0.12550772726535797, 0.0798284113407135], [0.009557100012898445, 0.03314538300037384], [0.1315760761499405, 0.2080245465040207], [-0.32394617795944214, 0.2119462937116623], [6.254509935388342e-05, 0.00417765136808157], [2.7800178941106424e-05, 0.006295748520642519], [0.020042188465595245, 0.058533526957035065], [0.014463669620454311, 0.10618185997009277], [0.018330493941903114, 0.30801501870155334], [6.493154069175944e-05, 0.0052129910327494144], [0.0524008609354496, 0.10347914695739746], [-0.01400287076830864, -0.1945251226425171], [5.8133886341238394e-05, 0.004067154135555029], [0.020171446725726128, 0.12117928266525269], [-0.0014618225395679474, 0.149734228849411], [0.040745120495557785, 0.11531198024749756], [0.02590363286435604, 0.5307332873344421], [0.06021019443869591, 0.1885870397090912], [0.006056569050997496, 0.14707262814044952], [0.07147422432899475, 0.647068202495575], [6.787778693251312e-05, 0.0055066063068807125], [-0.0010492964647710323, 0.20074507594108582], [-0.08772829174995422, 0.16485728323459625], [-0.028658611699938774, -0.2308332324028015], [-0.08188154548406601, 0.3554039001464844], [0.045141592621803284, 0.10381544381380081], [0.041123002767562866, 0.010753391310572624], [-0.06088017672300339, -0.28537270426750183], [0.07656659930944443, 0.2751251459121704], [-0.0047625526785850525, 0.12870672345161438], [-0.06697820872068405, 0.43970978260040283], [-0.04044283553957939, 0.15824604034423828], [0.04097141698002815, 0.14155730605125427], [0.22980497777462006, -0.21810542047023773], [0.00010918837506324053, 0.0022167623974382877], [6.830022903159261e-05, 0.004589030519127846], [0.004157024901360273, 0.13315913081169128], [0.02994547411799431, 0.07172303646802902], [0.04344568029046059, 0.06640809774398804], [0.04464038833975792, 0.0775945782661438], [-0.04590008035302162, 0.08879546821117401]], "rec.weight_hh_l0": [[0.0450659841299057, -0.0419943630695343, 0.014794708229601383, 0.0014730050461366773, 0.002265381393954158, -0.0014886092394590378, 0.026559367775917053, -0.0053815231658518314, 0.001748116803355515, 0.022658927366137505, -0.013285597786307335, 0.0014853943139314651, -0.011192353442311287, 0.032460905611515045, 0.0022665541619062424, -0.03701692074537277, 0.07504203170537949, 0.042566388845443726, 0.022028816863894463, 0.0018173923017457128, -0.07959349453449249, 0.024561593309044838, 0.0019430997781455517, 0.09722494333982468, -0.017179831862449646, 0.0455533005297184, 0.014745298773050308, -0.07077159732580185, -0.04224558174610138, 0.008067318238317966, -0.053876638412475586, 0.012806153856217861, 0.04897981882095337, -0.0005551253561861813, -0.0015360020333901048, -0.02946690283715725, -0.04124413803219795, -0.017092756927013397, -0.0157636646181345, 0.057420916855335236], [0.011754428036510944, -0.053123947232961655, -0.021446222439408302, 0.0017737273592501879, 0.0021587226074188948, -0.030023714527487755, -0.015363384038209915, 0.014565499499440193, 0.001967170974239707, -0.003072044113650918, -0.008493146859109402, 0.0017436051275581121, 0.01661628857254982, -0.016929561272263527, 0.012909878976643085, 0.034575797617435455, -0.05684877559542656, 0.057365525513887405, 0.1710851937532425, 0.002017939928919077, -0.08957040309906006, -0.11203061789274216, 0.025456871837377548, 0.029112882912158966, 0.012252391315996647, 0.12148850411176682, -0.010010823607444763, 0.10969860106706619, -0.022579021751880646, -0.2432689368724823, 0.026153605431318283, -0.02360265515744686, -0.049766816198825836, -0.0012466750340536237, -0.001850812928751111, 0.003581397235393524, -0.009653032757341862, 0.018986964598298073, 0.0048164622858166695, -0.16978344321250916], [-0.0015746642602607608, -0.09245380014181137, -0.26028960943222046, 0.0019044256769120693, 0.0029167805332690477, -0.016705306246876717, 0.0628901794552803, -0.03833940997719765, 0.0022874362766742706, 0.01032736711204052, -0.08822242170572281, 0.0018535468261688948, -0.02740376442670822, 0.015666255727410316, 0.00038599479012191296, 0.061148643493652344, 0.006091305986046791, 0.03592876344919205, 0.06662317365407944, 0.0023790388368070126, 0.05702413246035576, -0.1551816761493683, -0.027158981189131737, 0.0016097479965537786, -0.003282631980255246, -0.0362795926630497, 0.015048287808895111, -0.04020535945892334, -0.1513359397649765, -0.062567338347435, 0.021888714283704758, -0.03440731018781662, 0.136105015873909, -0.0007387409568764269, -0.0020230647642165422, -0.051567550748586655, 0.03676830977201462, 0.05814547464251518, 0.025894762948155403, 0.008693113923072815], [0.00019066204549744725, 0.0017914918716996908, -0.0002812486491166055, -2.9633278245455585e-05, -4.429343607625924e-05, -0.00010339749132981524, -0.0004886407987214625, -0.00013042853970546275, -3.5203895095037296e-05, 5.8818492107093334e-05, 0.0010249791666865349, -2.9301254471647553e-05, 0.00012550957035273314, -0.00018589725368656218, 0.0003125453367829323, -0.00034604599932208657, 0.001310736290179193, -8.818488277029246e-05, 0.0012551241088658571, -3.6701661883853376e-05, -0.0015870103379711509, -0.0036565931513905525, 0.0010242130374535918, -0.0009500043233856559, -6.970705726416782e-05, 0.0009111845283769071, 0.00037393279490061104, 0.0028135336469858885, 0.004596121609210968, 0.0011073447531089187, -0.0011064856080338359, -0.00034558880724944174, -0.004605260211974382, 1.5465495380340144e-05, 3.123440910712816e-05, -0.00013302812294568866, 4.9802911235019565e-05, 1.1571004506549798e-05, 0.00012410945782903582, -0.001850879518315196], [0.000363901344826445, 0.0028762880247086287, -0.000443153316155076, -5.1522012654459104e-05, -7.932475273264572e-05, -0.0001230842899531126, -0.0007921459036879241, -0.00019282769062556326, -6.215702160261571e-05, 1.5600706319673918e-05, 0.0016259404364973307, -5.0871141866082326e-05, 0.00017041277897078544, -0.000303971377434209, 0.0005661812610924244, -0.000633424089755863, 0.0019844172056764364, -0.00018239932251162827, 0.0018491939408704638, -6.501977622974664e-05, -0.0026261107996106148, -0.005655312445014715, 0.0015577225713059306, -0.001448958646506071, -8.437072392553091e-05, 0.0014756122836843133, 0.0004221611307002604, 0.004173245746642351, 0.007128241006284952, 0.0018163477070629597, -0.0017748421523720026, -0.0004713917733170092, -0.007116160821169615, 2.3402039005304687e-05, 5.458714076667093e-05, -0.00015407080354634672, 6.516199209727347e-05, -3.6991357774240896e-05, 0.00012401517597027123, -0.0029025860130786896], [0.019654324278235435, -0.02394789084792137, -0.04833649843931198, -0.0024805169086903334, -0.002789201680570841, -0.0399162694811821, 0.04220181703567505, 0.010058971121907234, -0.002719566226005554, -0.010024153627455235, 0.1154571920633316, -0.0024161464534699917, -0.015827972441911697, -0.0014956827508285642, 0.011014209128916264, 0.010497468523681164, 0.008694046176970005, 0.006418811157345772, -0.005226585548371077, -0.0027855252847075462, -0.07333365827798843, -0.04748184606432915, -0.03290164843201637, -0.04676979035139084, 0.012000477872788906, 0.06768868863582611, -0.01418540719896555, -0.010579465888440609, 0.10182681679725647, 0.0015923379687592387, -0.020515093579888344, 0.05111017823219299, -0.09712627530097961, 0.001977241365239024, 0.0025985005777329206, 0.006927783600986004, -0.010333648882806301, -0.018732668831944466, 0.0002685454674065113, 0.040034953504800797], [0.0021083771716803312, 0.03257650509476662, -0.01560310460627079, -0.0006234780885279179, -0.001019942108541727, 0.007881781086325645, 0.013099481351673603, -0.026470305398106575, -0.000730650732293725, -0.0014937653904780746, 0.040155284106731415, -0.000616247474681586, -0.008915351703763008, -0.004749929532408714, 0.014970478601753712, 0.019504567608237267, 0.03891162574291229, 0.012413475662469864, -0.009665959514677525, -0.000758832145947963, -0.049017004668712616, -0.1554695963859558, 0.014825021848082542, -0.05878972262144089, -0.009666062891483307, 0.07932580262422562, -0.0017088010208681226, -0.05673600360751152, 0.22692497074604034, 0.02134888805449009, -0.03158365562558174, 0.008031289093196392, -0.23847779631614685, 0.00022578865173272789, 0.0006297823274508119, 0.0002513293002266437, -0.001775367883965373, -0.008385619148612022, -0.00412042485550046, -0.05779990553855896], [0.005933292675763369, 0.0834117978811264, -0.046152763068675995, -0.0013028349494561553, -0.0016534766182303429, -0.007200589403510094, -0.016340838745236397, 0.013020526617765427, -0.0014590945793315768, -0.0025223088450729847, 0.058150287717580795, -0.0012874273816123605, 0.008516889065504074, -0.013029990717768669, 0.02383277378976345, -0.03570796549320221, 0.033870209008455276, 0.0144211919978261, 0.011177215725183487, -0.0014992482028901577, -0.07407764345407486, -0.22026373445987701, 0.03851481154561043, -0.06847689300775528, -0.006152389571070671, 0.0976284071803093, 0.0012689830036833882, 0.18627268075942993, 0.3030552864074707, 0.06461604684591293, -0.05776409059762955, -0.01497848890721798, -0.2977769076824188, 0.000826702918857336, 0.0013452109415084124, -0.0031707456801086664, -0.012759741395711899, 0.006420883350074291, -0.0034609786234796047, -0.07208353281021118], [0.00027023075381293893, 0.002266302704811096, -0.0003585471131373197, -3.933441257686354e-05, -5.9133893955731764e-05, -0.00010640892287483439, -0.000616577104665339, -0.000153737812070176, -4.6902598114684224e-05, 5.80995692871511e-05, 0.0012973669217899442, -3.887778439093381e-05, 0.00015930160589050502, -0.0002436292270431295, 0.0004211057093925774, -0.00046418383135460317, 0.0016398046864196658, -9.991466504288837e-05, 0.001528202323243022, -4.893837831332348e-05, -0.0020038040820509195, -0.004580122884362936, 0.0013037066673859954, -0.0011966845486313105, -8.586372132413089e-05, 0.0011531751370057464, 0.0004236310487613082, 0.0035160717088729143, 0.005753225646913052, 0.0014138062251731753, -0.0014111892087385058, -0.00041313751717098057, -0.0057603660970926285, 1.980483102670405e-05, 4.152110341237858e-05, -0.0001549712906125933, 6.229430437088013e-05, -5.466538368636975e-06, 0.00012263431563042104, -0.0023377290926873684], [-0.014415238983929157, -0.014297165907919407, -0.11836698651313782, -0.004139665514230728, -0.004154091700911522, -0.014233125373721123, 0.04974925518035889, 0.007889983244240284, -0.004460158292204142, -0.004009300842881203, 0.04975324124097824, -0.004013852681964636, -0.02266314998269081, -0.015496763400733471, 0.015020844526588917, -0.0031763510778546333, -0.004398632794618607, 0.00030646746745333076, -0.009038635529577732, -0.004553019069135189, 0.023789552971720695, 0.025690333917737007, -0.09087488800287247, -0.011547589674592018, -0.0035190603230148554, -0.0009642475633881986, 0.016401419416069984, 0.00453408807516098, -0.03756321594119072, 0.028640106320381165, -0.017412511631846428, 0.018392756581306458, 0.018763169646263123, 0.0038149463944137096, 0.0043555679731070995, 0.002833779202774167, 0.0012186386156827211, -0.017556285485625267, -0.018078135326504707, 0.01989869959652424], [-0.015508332289755344, -0.003662947565317154, 0.03131193667650223, -0.0009543682681396604, -0.0012055464321747422, 0.002726827748119831, -0.01531751174479723, 0.019111311063170433, -0.0010547328274697065, -0.005193386226892471, 0.0028779893182218075, -0.0009470957447774708, 0.013652306981384754, -0.009570272639393806, -9.685447730589658e-05, -0.0704353004693985, 0.010309691540896893, -0.011913998052477837, 0.08421150594949722, -0.0010787852806970477, -0.09733903408050537, -0.041520439088344574, -0.013499779626727104, -0.012797117233276367, -0.003473052056506276, 0.037714794278144836, 0.019999397918581963, -0.3421527147293091, 0.06568805128335953, -0.05563736706972122, -0.012937574647367, -0.042007677257061005, -0.09461882710456848, 0.0005914319190196693, 0.0009790306212380528, 0.004624006804078817, -0.0001075944455806166, -0.006692793685942888, -0.008298395201563835, -0.10285831987857819], [0.0001802890037652105, 0.0017436012858524919, -0.00027692585717886686, -2.8545598979690112e-05, -4.2683710489654914e-05, -0.00010510764695936814, -0.0004787038778886199, -0.00012866953329648823, -3.39149592036847e-05, 5.7257180742453784e-05, 0.000997598166577518, -2.8226406357134692e-05, 0.0001189136819448322, -0.00017816606850828975, 0.0002998069394379854, -0.0003343308053445071, 0.0012736995704472065, -9.328585292678326e-05, 0.0012444151798263192, -3.5358509194338694e-05, -0.0015511888777837157, -0.00355699984356761, 0.0009897465351969004, -0.0009205787791870534, -6.608891271753237e-05, 0.0008815343026071787, 0.0003693844482768327, 0.0027464572340250015, 0.0044672563672065735, 0.0010677330428734422, -0.0010715971002355218, -0.0003397710679564625, -0.004476423840969801, 1.490268186898902e-05, 3.0088638595771044e-05, -0.0001289804931730032, 4.843439455726184e-05, 1.2942637113155797e-05, 0.00012613777653314173, -0.00179679982829839], [0.0073264893144369125, 0.03422150760889053, -0.0082867331802845, -0.0007862959173507988, -0.0011806654511019588, 9.857284021563828e-05, 0.002211034996435046, 0.007304857950657606, -0.0009068278595805168, -0.0014129254268482327, 0.04762192443013191, -0.0007762624300085008, 0.0028448121156543493, -0.008458607830107212, 0.0157998725771904, -0.02095378004014492, 0.03810247778892517, -0.001634045853279531, -0.02674824185669422, -0.0009389011538587511, -0.043980713933706284, -0.15325652062892914, -0.0006197891780175269, -0.07319771498441696, -0.005984222982078791, 0.07207545638084412, -0.012714507058262825, -0.03484600409865379, 0.23309914767742157, 0.046881165355443954, -0.028464486822485924, -0.002350783674046397, -0.23581935465335846, 0.0003810538037214428, 0.0008020993554964662, -0.002137361327186227, 0.0002930872142314911, -0.005921673960983753, -0.005174919962882996, -0.06136632710695267], [0.02700350619852543, 0.010945409536361694, -0.06703143566846848, -0.002413551090285182, -0.0024508314672857523, -0.00841944944113493, 0.02578645758330822, -0.004909158684313297, -0.0026469186414033175, 0.027728699147701263, -0.03615821525454521, -0.002320891013368964, 0.0012777973897755146, -0.027750805020332336, 0.04173509031534195, 0.004215146414935589, 0.007834290154278278, 0.02931952103972435, -0.00810938235372305, -0.0027295604813843966, 0.04644215106964111, 0.1055697649717331, -0.07357808947563171, -0.001972735160961747, -0.006162181030958891, -0.017323389649391174, -0.0010080040665343404, -0.0549459308385849, -0.11338534206151962, 0.009920848533511162, 0.026211244985461235, 0.007655493449419737, 0.12424563616514206, 0.0027602803893387318, 0.0025755928363651037, 0.0005329069681465626, 0.010998077690601349, -0.03199639543890953, 0.02196795493364334, 0.02994345873594284], [0.049110639840364456, -0.010092114098370075, -0.015759948641061783, -0.002769914921373129, -0.0035121170803904533, -0.01158676203340292, 0.03739490732550621, -0.017829913645982742, -0.003112637670710683, -0.008167296648025513, 0.08069875836372375, -0.0027166958898305893, -0.007471390534192324, -0.014869928359985352, 0.0452888160943985, 0.010128965601325035, 0.04907134175300598, 0.009393498301506042, -0.09340056777000427, -0.003205111250281334, -0.034178704023361206, -0.12203918397426605, -0.030372271314263344, -0.05765056982636452, 0.021566400304436684, 0.0544818751513958, -0.04113616421818733, -0.0076697813346982, 0.20757927000522614, 0.00995301827788353, -0.01706109382212162, -0.017552150413393974, -0.22152841091156006, 0.0018595998408272862, 0.0028879507444798946, -0.009058520197868347, 0.0029807868413627148, 0.004176626447588205, 0.0011070903856307268, 0.006258184555917978], [0.06381554156541824, 0.19118502736091614, 0.06572168320417404, -0.0018168343231081963, -0.0029821540229022503, 0.018526623025536537, -0.014944005757570267, -0.024377144873142242, -0.0021725082769989967, 0.02482367679476738, 0.0076448917388916016, -0.0018122383626177907, 0.04341128468513489, 0.008758376352488995, 0.030833400785923004, 0.007910678163170815, 0.023848434910178185, 0.0601792149245739, -0.14965450763702393, -0.002263278467580676, -0.19186066091060638, -0.16579918563365936, 0.05457284301519394, -0.060985416173934937, 0.03191353753209114, 0.03386509791016579, 0.07933171093463898, 0.7380520701408386, 0.206570103764534, -0.04389471188187599, -0.03146862983703613, -0.04613108187913895, -0.16494932770729065, 0.0008293688879348338, 0.0018886912148445845, -0.008626526221632957, 0.03239693492650986, 0.014922648668289185, -0.009166023693978786, -0.25556671619415283], [0.04694916307926178, -0.44941848516464233, 0.06353967636823654, -0.003375433851033449, -0.005264194216579199, -0.02401912584900856, -0.02149330824613571, -0.03027566708624363, -0.0039501553401350975, -0.045860517770051956, -0.009260359220206738, -0.0033581112511456013, -0.04802282527089119, -0.023213781416416168, -0.11680635809898376, 0.019168313592672348, -0.04999426007270813, -0.07138779759407043, -0.035164788365364075, -0.00409158319234848, 0.20638994872570038, -0.004054286517202854, 0.048796024173498154, 0.017018774524331093, 0.02454177476465702, -0.22839906811714172, 0.0698782205581665, 0.004222821909934282, -0.9108337163925171, -0.23862534761428833, -0.2162560522556305, -0.0963413417339325, 0.46756184101104736, 0.0013449672842398286, 0.003511033719405532, 0.03453140705823898, -0.023853400722146034, -0.05673431605100632, 0.02586509846150875, 0.5959959626197815], [-0.0049236007034778595, -0.023234056308865547, -0.006819546688348055, -0.0005095290835015476, -0.0005283929058350623, -0.0030004074797034264, 0.056177668273448944, -0.032803844660520554, -0.0005244598723948002, 0.0011055871145799756, 0.07704181224107742, -0.0004837667220272124, -0.02894582413136959, -0.004244004841893911, 0.015020564198493958, -0.028714552521705627, 0.06289595365524292, 0.0002899732789956033, -0.011010580696165562, -0.0005312554421834648, -0.043119292706251144, -0.13761654496192932, -0.041894007474184036, -0.09162353724241257, -0.017690682783722878, 0.09027506411075592, 0.005059318151324987, -0.24585077166557312, 0.308657705783844, 0.0039606112986803055, -0.03851881995797157, 0.0017374280141666532, -0.32765331864356995, 0.00046548331738449633, 0.0005062238778918982, -0.007628920953720808, -0.005798108875751495, 0.0041091847233474255, -0.012459345161914825, 0.03040650673210621], [0.1242997795343399, 0.06520510464906693, 0.04061470553278923, -0.006856528576463461, -0.00944414734840393, 0.024908125400543213, 0.023250091820955276, -0.04154849424958229, -0.007883347570896149, 0.016125911846756935, 0.15262286365032196, -0.006755655165761709, 0.020101474598050117, 0.015592049807310104, 0.016690682619810104, -0.024941835552453995, 0.0666985735297203, -0.0007389078964479268, 0.02745744399726391, -0.00814503338187933, -0.08744074404239655, -0.1771288514137268, 0.08383406698703766, -0.12861429154872894, -0.005120464600622654, 0.02481662668287754, 0.008618183434009552, 0.8653007745742798, 0.20480552315711975, -0.09199695289134979, -0.005715838633477688, 0.059229668229818344, -0.17812590301036835, 0.0038102050311863422, 0.007172701880335808, -0.0006865101167932153, -0.009707915596663952, -0.0370093435049057, -0.021894067525863647, 0.05676186829805374], [0.0002917222445830703, 0.0024020476266741753, -0.0003791199706029147, -4.22642842750065e-05, -6.355607911245897e-05, -0.00010669042967492715, -0.0006520146271213889, -0.0001602434494998306, -5.041573604103178e-05, 5.7693407143233344e-05, 0.0013744283933192492, -4.177040318609215e-05, 0.0001700205757515505, -0.0002602782042231411, 0.0004528449208009988, -0.0004965905682183802, 0.0017352501163259149, -0.00010267696052324027, 0.0016049118712544441, -5.260874968371354e-05, -0.0021230776328593493, -0.004841244779527187, 0.001383064198307693, -0.001268076477572322, -9.062475874088705e-05, 0.0012207492254674435, 0.00043762283166870475, 0.0037169011775404215, 0.006079713813960552, 0.001502237282693386, -0.0014979008119553328, -0.00043099489994347095, -0.006086433306336403, 2.116667019436136e-05, 4.4624845031648874e-05, -0.00016098491323646158, 6.560199108207598e-05, -1.0369349183747545e-05, 0.00012189114204375073, -0.002476467052474618], [-0.0583060197532177, -0.01757133938372135, -0.065574049949646, 0.010540169663727283, 0.013279462233185768, 0.01974550634622574, 0.009382510557770729, -0.01967182196676731, 0.011914843693375587, 0.02943624183535576, -0.0009416148532181978, 0.010371705517172813, -0.021592067554593086, 0.03491044417023659, -0.047055236995220184, 0.020436851307749748, 0.016699807718396187, -0.12144981324672699, -0.3489362299442291, 0.012276783585548401, -0.3271326720714569, 0.09006388485431671, -0.0647464469075203, 0.006421636790037155, -0.02678283490240574, -0.10216119885444641, 0.02503400482237339, -0.11402034014463425, -0.026186726987361908, 0.002975487383082509, 0.05673234537243843, -0.055432770401239395, 0.05007193982601166, -0.0070967962965369225, -0.011053442023694515, -0.008345372043550014, 0.06028186157345772, 0.010018170811235905, 0.009201377630233765, 0.16457967460155487], [-0.005976731888949871, 0.11995112895965576, -0.6536007523536682, 0.004316303879022598, 0.005952976644039154, -0.09717190265655518, -0.07641950249671936, 0.1316782385110855, 0.00495355436578393, 0.0014306947123259306, 0.03983341529965401, 0.004123451188206673, 0.0679151862859726, 0.004767066333442926, -0.10312259942293167, -0.08179138600826263, -0.07716015726327896, 0.14054924249649048, 0.02440795488655567, 0.005110200494527817, 0.04789511486887932, -0.16990937292575836, 0.160798117518425, -0.1963772475719452, -0.01696489378809929, -0.12414013594388962, -0.006199375260621309, -0.04510852321982384, -0.998475968837738, -0.3307145833969116, -0.0329366959631443, 0.04777850583195686, 0.8475079536437988, -0.002205865690484643, -0.00448486628010869, 0.0072008767165243626, -0.011358674615621567, 0.07019487023353577, -0.05313122272491455, 0.34999340772628784], [-0.005240576341748238, -0.01077322568744421, 0.02578810416162014, 0.002063403371721506, 0.002578767715021968, -0.016114437952637672, -0.021633898839354515, 0.04554927721619606, 0.002283400157466531, 0.009320198558270931, 0.0019432627595961094, 0.0020458048675209284, 0.0474812351167202, -0.027519142255187035, 0.024278447031974792, -0.04276268556714058, -0.017025692388415337, 0.0250143650919199, 0.10646452754735947, 0.002342032268643379, -0.046633072197437286, -0.017010677605867386, -0.048848506063222885, 0.006680741906166077, -0.010530360974371433, 0.006371194962412119, -0.02085694670677185, -0.34222662448883057, 0.0014666967326775193, 0.020027801394462585, 0.00013208622112870216, 0.04082329943776131, -0.002429177286103368, -0.0013383639743551612, -0.0021322970278561115, -0.018701791763305664, -0.008263949304819107, 0.025086678564548492, 0.019527995958924294, -0.06693948805332184], [-0.002872864017263055, -0.7783370614051819, -0.16227352619171143, 0.006546035874634981, 0.008470242843031883, 0.053254421800374985, 0.3054877519607544, -0.19205982983112335, 0.007452532183378935, 0.03757486864924431, -0.16698294878005981, 0.006521409377455711, -0.08996287733316422, 0.04428181052207947, 0.09155160933732986, -0.08159714937210083, -0.018672622740268707, -0.012495744973421097, -0.008131495676934719, 0.007686950266361237, 0.31337183713912964, -0.038322824984788895, -0.043583955615758896, -0.05929003283381462, -0.015759408473968506, 0.023098530247807503, -0.05436890572309494, -0.12934909760951996, -0.9410829544067383, -0.24246138334274292, -0.047532375901937485, -0.031817637383937836, 0.7279491424560547, -0.004432567860931158, -0.006952546536922455, 0.00017812593432608992, 0.015182972885668278, -0.05283733084797859, -0.09319757670164108, 0.8184930086135864], [0.016926104202866554, -0.03790758550167084, -0.09660379588603973, -0.006351496558636427, -0.007455136626958847, -0.009599903598427773, 0.06757732480764389, -0.008226796053349972, -0.007066160906106234, -0.006398549769073725, 0.15397782623767853, -0.006197244860231876, 0.0059117418713867664, -0.008565346710383892, -0.027749674394726753, 0.06447816640138626, 0.017513001337647438, 0.025514967739582062, -0.06725361943244934, -0.007263236213475466, -0.110646553337574, -0.016388507559895515, -0.10728687793016434, -0.01863156631588936, 0.0003557878953870386, 0.018376411870121956, 0.013313236646354198, 0.05456346273422241, 0.11097561568021774, -0.010860485956072807, -0.005514893680810928, 0.030824435874819756, -0.08782535046339035, 0.004937923979014158, 0.006696391385048628, 0.02488267794251442, -0.03778328746557236, -0.007042300887405872, -0.03256042301654816, 0.11296813189983368], [0.027365650981664658, 0.001712033525109291, -0.023014672100543976, -0.005731635261327028, -0.007181463297456503, 0.06634866446256638, 0.03276770934462547, 0.016973040997982025, -0.006486760452389717, -0.015332370065152645, -0.03927098587155342, -0.005596591625362635, 0.027692455798387527, -0.006875385995954275, 0.00021818256936967373, -0.028384488075971603, 0.09048423916101456, 0.04791300743818283, -0.015930602326989174, -0.006685551721602678, 0.06860233843326569, -0.006465377286076546, -0.024205276742577553, 0.06921015679836273, -0.00013073648733552545, -0.006276614498347044, -0.01161822397261858, 0.0016733823576942086, 0.0012105610221624374, -0.03780888020992279, -0.02311215177178383, 0.10389909148216248, -0.025335492566227913, 0.003930713515728712, 0.006041418295353651, 0.028410684317350388, 0.02827608771622181, -0.02493666671216488, -0.07421348243951797, 0.009962796233594418], [0.021463559940457344, 0.12257544696331024, -0.01826838031411171, -0.002629028633236885, -0.003717711428180337, -1.5152565538301133e-05, -0.017040394246578217, 0.014210119843482971, -0.00305902399122715, -0.0022000139579176903, 0.0729140117764473, -0.0025899126194417477, 0.020780354738235474, -0.012674044817686081, 0.023639626801013947, -0.041914574801921844, 0.0835193544626236, 0.015484338626265526, -0.017379648983478546, -0.0031728276517242193, -0.0935126468539238, -0.310641348361969, 0.06046212092041969, -0.10705452412366867, -0.012151787057518959, 0.12187626212835312, 0.008082544431090355, 0.20070643723011017, 0.4295275807380676, 0.09026998281478882, -0.06564301252365112, -0.012776847928762436, -0.4231497645378113, 0.0014836778864264488, 0.0027537450660020113, -0.011466298252344131, -0.01000644825398922, -0.0062905484810471535, -0.003109564073383808, -0.1664157658815384], [0.03506987914443016, 0.0694703534245491, 0.06698264926671982, -0.00029689291841350496, -0.00010904202645178884, -0.01827108860015869, -0.008047329261898994, 0.03416430577635765, -0.000255063408985734, 0.006747668609023094, 0.010774139314889908, -0.00031755174859426916, 0.012045316398143768, 0.004818518180400133, -0.002858228050172329, -0.010794498026371002, -0.026093482971191406, 0.027249028906226158, -0.1523374617099762, -0.00024477430270053446, -0.0026343008503317833, 0.01885044015944004, -0.0060464078560471535, 0.03777066990733147, -0.02876642905175686, -0.0005499939434230328, 0.03751713037490845, -0.12015889585018158, 0.05865054577589035, 0.11708763986825943, 0.02056918852031231, -0.0228758305311203, -0.037984516471624374, 0.0004472521832212806, 0.00029106554575264454, -0.033631470054388046, -0.026026591658592224, 0.014327281154692173, 0.008004008792340755, -0.01553211361169815], [-0.010877477005124092, -0.003332028863951564, 0.002985629951581359, -0.0026027504354715347, -0.0030258777551352978, -0.007375244051218033, 0.007012531626969576, 0.008916824124753475, -0.0028802549932152033, -0.002298227744176984, -0.008653994649648666, -0.002539444947615266, -0.03157074376940727, -0.005333969835191965, 0.0343351811170578, -0.03313910961151123, -0.007714265026152134, -0.03764253109693527, -0.044714927673339844, -0.002952436450868845, -0.06647559255361557, 0.01066805049777031, -0.028314704075455666, 0.008769038133323193, 0.0006592688150703907, -0.04530264437198639, -0.01762666180729866, -0.016103317961096764, 0.2292519211769104, 0.01318776048719883, 0.029749367386102676, 0.030184293165802956, -0.24973520636558533, 0.0019280352862551808, 0.0027285234536975622, 0.009748879820108414, -0.007572293281555176, -0.006001487374305725, 0.023208247497677803, -0.055634040385484695], [0.031025944277644157, 0.28365084528923035, -0.06178925558924675, 0.00022415143030229956, 0.0003606051323004067, -0.03866685554385185, -0.05648030340671539, 0.0483696423470974, 0.0002353006711928174, -0.011035584844648838, 0.036232300102710724, 0.00022486869420390576, 0.03905544430017471, -0.07058219611644745, 0.08672003448009491, 0.059274494647979736, -0.05227021127939224, 0.09888822585344315, -0.10160855203866959, 0.00023774064902681857, -0.12904490530490875, -0.10323185473680496, 0.03137810155749321, 0.0021887761540710926, 0.017271695658564568, 0.014628669247031212, -0.05509534478187561, 0.47967082262039185, -0.010016290470957756, 0.23253940045833588, 0.022818783298134804, 0.04528912529349327, 0.10541091859340668, -5.631882231682539e-06, -0.00021028198534622788, 0.07666413486003876, -0.005192826967686415, -0.03899462893605232, -0.03563494235277176, 0.21007342636585236], [-0.010951828211545944, 0.025529492646455765, 0.13311313092708588, -0.003743974259123206, -0.004436271730810404, -0.03196531906723976, -0.05315297469496727, 0.03094271942973137, -0.004172279965132475, 0.010372517630457878, -0.06428749114274979, -0.0037043916527181864, 0.007207164075225592, -0.018849143758416176, 0.028460336849093437, -0.025628332048654556, 0.040219470858573914, 0.016747601330280304, -0.027320224791765213, -0.004288990516215563, -0.04886661469936371, 0.22555214166641235, -0.023904046043753624, 0.10516031086444855, 0.011433593928813934, 0.008635162375867367, -0.14280101656913757, 0.057819873094558716, -0.5709524750709534, -0.013599256053566933, -0.07411513477563858, 0.06791185587644577, 0.7611523270606995, 0.003159400774165988, 0.003955102525651455, -0.031025275588035583, -0.012524905614554882, 0.03616674244403839, 0.07201901078224182, 0.06528697162866592], [0.030364593490958214, 0.018936891108751297, -0.056945424526929855, -0.011304846964776516, -0.013974218629300594, 0.013271029107272625, 0.03501851111650467, -0.07904308289289474, -0.012704105116426945, 0.011235324665904045, 0.12540189921855927, -0.01109389215707779, -0.007233405951410532, 0.022226981818675995, 0.0067656743340194225, 0.07373607158660889, -0.006258372217416763, -0.015715336427092552, -0.029968393966555595, -0.013088633306324482, -0.12737330794334412, 0.08436883240938187, 0.023645270615816116, 0.03075363114476204, -0.01459771953523159, 0.015821583569049835, 0.020684724673628807, 0.17482595145702362, -0.06225880980491638, 0.0041844816878438, -0.0009928765939548612, 0.053953975439071655, 0.07409936189651489, 0.008122071623802185, 0.011898369528353214, 0.0006780425319448113, -0.031875792890787125, 0.006078132428228855, -0.007760878652334213, 0.0703345239162445], [-0.021297790110111237, -0.007079395465552807, -0.00696104671806097, -0.0007371117826551199, -0.0012862739386036992, 0.025655655190348625, 0.014728028327226639, -0.0050691585056483746, -0.0009265921544283628, -0.006381031591445208, 0.03849397972226143, -0.0007026686798781157, -0.003707248717546463, -0.00657840957865119, -0.0010155719937756658, -0.015355808660387993, 0.04235115274786949, -0.013883200474083424, -0.03420615941286087, -0.0009757836232893169, -0.02249295450747013, -0.03599713370203972, -0.008370324037969112, -0.01701739989221096, -0.0070687406696379185, -0.008792839013040066, -0.028856636956334114, -0.036799754947423935, 0.11584234982728958, -0.06073964014649391, 0.002469868864864111, 0.061953600496053696, -0.14497993886470795, 0.00020558324467856437, 0.0007882422651164234, 0.0005403673858381808, 0.006486288737505674, -0.016064537689089775, -0.03144806995987892, -0.05358294025063515], [-8.13210954220267e-06, 0.0008403575047850609, -9.657832561060786e-05, -1.6858279195730574e-05, -2.222393777628895e-05, -7.696776447119191e-05, -0.00019985518883913755, -6.507083890028298e-05, -1.9081426216871478e-05, 4.0272458136314526e-05, 0.0004563757393043488, -1.6706968381186016e-05, 8.445856656180695e-05, -7.692598592257127e-05, 0.00013245298760011792, -8.188737410819158e-05, 0.0007130765006877482, -1.8454546761859092e-06, 0.0005643549375236034, -1.966138370335102e-05, -0.0006907812203280628, -0.001855159760452807, 0.0004938255879096687, -0.0005096488166600466, -1.829537177400198e-05, 0.00038052169838920236, 0.0002327698457520455, 0.001550748711451888, 0.00230172136798501, 0.0005425600102171302, -0.0005075829685665667, -0.00014233366528060287, -0.002321982989087701, 1.0967776688630693e-05, 1.7583122826181352e-05, -5.847750435350463e-05, 3.975912022724515e-06, 3.194459713995457e-05, 0.00010030330304289237, -0.0009126958902925253], [0.00021669013949576765, 0.0019651378970593214, -0.0003119508037343621, -3.338020542287268e-05, -4.9667705752654e-05, -0.00010173516056966037, -0.0005316829192452133, -0.00013681648124475032, -3.959008972742595e-05, 6.321276305243373e-05, 0.0011252424446865916, -3.3008091122610494e-05, 0.00014486911823041737, -0.00020914817287120968, 0.00035351901897229254, -0.0003841779544018209, 0.001445938367396593, -8.146686741383746e-05, 0.0013347392668947577, -4.1259521822212264e-05, -0.0017276258440688252, -0.004010695032775402, 0.0011405989062041044, -0.0010546402772888541, -7.953144813654944e-05, 0.0009978332091122866, 0.00039543668390251696, 0.0031030273530632257, 0.005032775457948446, 0.0012249971041455865, -0.0012220107018947601, -0.00036950461799278855, -0.005043427925556898, 1.7512984413770027e-05, 3.517272125463933e-05, -0.00014444300904870033, 5.3846946684643626e-05, 6.556795597134624e-06, 0.00012178559700259939, -0.0020411161240190268], [0.035116132348775864, 0.04209692031145096, -0.06524905562400818, -0.002606426365673542, -0.0027990026865154505, 0.024335471913218498, 0.00038415967719629407, -0.008141877129673958, -0.0029017634224146605, -0.02722301334142685, 0.014206761494278908, -0.002546125091612339, 0.028376469388604164, 0.002952883020043373, 0.020931951701641083, 0.012704865075647831, -0.01274140551686287, 0.03994186595082283, -0.0014270887477323413, -0.00299771293066442, -0.042799219489097595, 0.024863172322511673, -0.005454020109027624, 0.02713426575064659, -0.004687987733632326, -0.008543717674911022, -0.0007677531102672219, 0.04133209213614464, -0.18022267520427704, 0.007154462393373251, 0.013440861366689205, 0.01409082394093275, 0.17830906808376312, 0.002734728390350938, 0.002806487027555704, -0.0004679951525758952, 0.02939440868794918, 0.03952988609671593, 0.00401417538523674, 0.03660671412944794], [0.01070423424243927, 0.02766624465584755, -0.0363733172416687, -0.0027761696837842464, -0.002772859763354063, -0.005363923497498035, 0.018858077004551888, 0.019043035805225372, -0.0029679317958652973, -0.05420897156000137, 0.09483502060174942, -0.002712178509682417, -0.00022106023970991373, -0.002025951398536563, 0.004451107233762741, 0.010258246213197708, -0.0006070342496968806, -0.0022898062597960234, -0.018112802878022194, -0.0030273492448031902, -0.03347501903772354, 0.06704068183898926, -0.05795624479651451, 0.036799106746912, -0.03697550669312477, -0.021623574197292328, -0.0021808710880577564, -0.033440519124269485, -0.06168903410434723, -0.0035870198626071215, -0.0029547936283051968, 0.011973092332482338, 0.04221741855144501, 0.0026701795868575573, 0.002913014031946659, 0.014452352188527584, 0.0012232447043061256, -0.013999861665070057, -0.023227138444781303, 0.06589452922344208], [0.005071412771940231, 0.012502828612923622, -0.0935349389910698, -0.0022425344213843346, -0.0021985515486449003, 0.04682529345154762, 0.06049942225217819, 0.0003185000969097018, -0.0024173485580831766, -0.009784447029232979, 0.09697139263153076, -0.0021664276719093323, 0.023327728733420372, 0.0024151995312422514, -0.02563369646668434, 0.02405095472931862, 0.009534983895719051, -0.018718060106039047, -0.06540770828723907, -0.002468342427164316, -0.017903786152601242, 0.005892347078770399, -0.08399785310029984, -0.04513547196984291, -0.039257582277059555, 0.053579721599817276, -0.004129684064537287, -0.09313838183879852, 0.08972620218992233, -0.02343827672302723, -0.012240732088685036, 0.020161936059594154, -0.08376985043287277, 0.002127575920894742, 0.002365696942433715, -0.001464854460209608, -0.018510231748223305, -0.00903608463704586, -0.0033046635799109936, 0.11380773782730103], [-0.026283349841833115, -0.02268042415380478, -0.03604681044816971, -0.0010825821664184332, -0.0012042151065543294, 0.013979744166135788, 0.07700645923614502, -0.027443910017609596, -0.0011616062838584185, 0.010521737858653069, 0.08940891176462173, -0.0010383338667452335, -0.026693714782595634, -0.01811271905899048, 0.0034139223862439394, -0.028919966891407967, 0.07531760632991791, 0.0028504037763923407, -0.03759559243917465, -0.0011841049417853355, -0.03250173106789589, -0.05924408510327339, -0.06015725061297417, -0.08486638218164444, -0.015453817322850227, 0.04615997150540352, -0.003637593239545822, -0.14904099702835083, 0.16832217574119568, -0.028128182515501976, -0.03269543498754501, 0.018947916105389595, -0.19681701064109802, 0.0008656226564198732, 0.001109744538553059, -0.012231539003551006, -0.020862145349383354, -0.023432379588484764, -0.014674194157123566, 0.11124588549137115], [-0.006877230480313301, -0.019839024171233177, 0.04149293154478073, -0.0037750613410025835, -0.004648875445127487, -0.0011790357530117035, -0.09433549642562866, 0.223561093211174, -0.004264418035745621, 0.006723217200487852, -0.03143404796719551, -0.0036985445767641068, -0.023115048184990883, 0.013011644594371319, 0.028535189107060432, -0.46856215596199036, 0.038603998720645905, -0.04960929974913597, 0.23571978509426117, -0.004392378963530064, 0.03474360704421997, 0.055817827582359314, 0.038812968879938126, 0.017127027735114098, 0.03788788989186287, 0.03692242503166199, 0.04275346174836159, 0.13824237883090973, 0.07965178042650223, 0.30355697870254517, -0.0022020828910171986, 0.027474967762827873, -0.08159150928258896, 0.002702313708141446, 0.003972029313445091, -0.0277752336114645, -0.006778892129659653, 0.020183736458420753, 0.0331253781914711, -0.0432947501540184], [0.06394220888614655, -0.06898524612188339, 0.0400426983833313, 0.0006925672059878707, 0.001192157156765461, -0.04409670829772949, 0.03563077375292778, -0.015086770057678223, 0.0008095012162812054, -0.010491615161299706, 0.0859629288315773, 0.0007457586470991373, -0.026353463530540466, -0.021662084385752678, 0.04564390331506729, -0.03218964859843254, 0.13091669976711273, 0.1002814993262291, -0.03733988478779793, 0.0008400028455071151, -0.02361820824444294, -0.13207198679447174, 0.03625192120671272, 0.012946940958499908, 0.013726112432777882, 0.09668195247650146, -0.039426323026418686, -0.0016028318786993623, 0.3897389769554138, -0.0022608262952417135, -0.10735185444355011, -0.010159270837903023, -0.39027872681617737, -0.00012683283421210945, -0.0006906954222358763, -0.010415338911116123, -0.033319395035505295, 0.0122275585308671, 0.04718009755015373, -0.08985599875450134], [0.029672501608729362, -0.09787428379058838, 0.013250217773020267, 0.002246395917609334, 0.0025740868877619505, -0.03779027611017227, 0.01802731677889824, -0.02881251648068428, 0.0024710758589208126, -0.000598887971136719, -0.02713087946176529, 0.0022078242618590593, 0.021332617849111557, 0.0026886994019150734, 0.023768506944179535, 0.09523184597492218, -0.10142401605844498, 0.04936108738183975, 0.18341785669326782, 0.0025306777097284794, -0.08533703535795212, -0.09837483614683151, 0.013706281781196594, 0.04553516209125519, -0.005765549838542938, 0.1510244607925415, -0.002868224401026964, 0.08761163800954819, -0.029575783759355545, -0.1895168423652649, 0.04181665554642677, -0.028190817683935165, -0.06918109953403473, -0.001730151823721826, -0.0023548274766653776, 0.01168763916939497, -0.017763543874025345, 0.007645266130566597, 0.018152743577957153, -0.09136409312486649], [0.023895878344774246, -0.008557628840208054, -0.5068246722221375, 0.004606193862855434, 0.006845536641776562, 0.018177088350057602, -0.012966576963663101, 0.010648137889802456, 0.005356603302061558, 0.03110530413687229, -0.05738032981753349, 0.004528969991952181, -0.0012893722159788013, -0.010465486906468868, -0.031597740948200226, -0.009482107125222683, 0.07128328084945679, -0.02018922194838524, -0.028880205005407333, 0.005537346005439758, -0.033851273357868195, -0.44162699580192566, 0.03736122325062752, -0.0898100882768631, 0.006948532536625862, 0.03253830224275589, 0.00894294586032629, 0.15292368829250336, 0.2073267698287964, 0.07736673951148987, -0.02853970415890217, -0.01594851352274418, -0.19156749546527863, -0.001967598684132099, -0.004796713124960661, -0.03314608708024025, 0.040855005383491516, 0.03302711248397827, -0.03003600612282753, -0.06403936445713043], [0.0003101889742538333, 0.00234033796004951, -0.00039192059193737805, -3.0173852792358957e-05, -4.7328365326393396e-05, -5.478653474710882e-05, -0.0006094605196267366, -8.332880679517984e-05, -3.6485143937170506e-05, 5.060031617176719e-05, 0.001361207920126617, -2.9807961254846305e-05, 0.0002099857956636697, -0.00024830331676639616, 0.0004286993353161961, -0.0004898664774373174, 0.0016272127395495772, -8.252958650700748e-05, 0.0010826208163052797, -3.819128323812038e-05, -0.002165347570553422, -0.004915348254144192, 0.0013533416204154491, -0.0013242284767329693, -7.067013211781159e-05, 0.0014044767012819648, 0.00038391660200431943, 0.0036021473351866007, 0.006171356420964003, 0.0015669547719880939, -0.0014330660924315453, -0.00043322413694113493, -0.006161171942949295, 1.4407277376449201e-05, 3.19095779559575e-05, -0.00013470622070599347, 4.8626978241372854e-05, -4.735087713925168e-05, 3.376946915523149e-05, -0.0024183066561818123], [0.0005839618388563395, 0.0038525420241057873, -0.000628346111625433, -5.474402860272676e-05, -8.71786760399118e-05, -7.675171946175396e-05, -0.0010228443425148726, -0.00011298753815935925, -6.675534677924588e-05, 1.2728531146422029e-05, 0.002206058008596301, -5.4053874919191e-05, 0.0003312228072900325, -0.00042444313294254243, 0.0007962684030644596, -0.0008883046684786677, 0.0025287424214184284, -0.00013470332487486303, 0.001567171304486692, -7.000198093010113e-05, -0.0036224096547812223, -0.00780330877751112, 0.0021403066348284483, -0.002082695486024022, -7.386106881313026e-05, 0.0023156930692493916, 0.00042099272832274437, 0.005666281562298536, 0.009780137799680233, 0.002572692697867751, -0.0023421745281666517, -0.0006025229231454432, -0.00972635205835104, 2.3353914002655074e-05, 5.804954707855359e-05, -0.0001577941293362528, 6.230433064047247e-05, -0.00012650738062802702, -1.2963151675648987e-05, -0.003923158627003431], [-0.02342219650745392, -0.04239939525723457, -0.0176820270717144, -0.0024646318051964045, -0.002553516998887062, -0.13687963783740997, 0.008679245598614216, -0.023162899538874626, -0.0026434611063450575, -0.0037748864851891994, -0.010680356994271278, -0.002439037896692753, -0.031939003616571426, 0.003998376429080963, -0.003149038413539529, 0.0015564776258543134, 0.02018645592033863, 0.04895518720149994, -0.00952184572815895, -0.002692277543246746, -0.022517571225762367, -0.11398183554410934, 0.01604870893061161, -0.0766778364777565, -0.004355286248028278, 0.0911940485239029, 0.015483428724110126, -0.03950616717338562, 0.17872881889343262, -0.024567950516939163, -0.037139423191547394, -0.014837861992418766, -0.1736493706703186, 0.0021140456665307283, 0.0025777537375688553, -0.03195609524846077, -0.06237717345356941, 0.006367678754031658, 0.06833631545305252, 0.009176964871585369], [-0.0032077624928206205, -0.040481746196746826, -0.005262345541268587, -0.00046532897977158427, -0.0008369701099582016, 0.008554741740226746, 0.037102505564689636, -0.04621320962905884, -0.0005612248205579817, -0.004609742201864719, 0.0048929485492408276, -0.00046057160943746567, -0.028714535757899284, 0.014233333989977837, 0.0006292650941759348, 0.06878209859132767, -0.0077793290838599205, 0.017872123047709465, -0.023556167259812355, -0.0005854261107742786, 0.02297089993953705, 0.02820401079952717, -0.014232894405722618, 0.0007274950039573014, 0.0011903838021680713, -0.0017836256884038448, 0.007768864743411541, 0.031267233192920685, -0.06232872232794762, -0.07918408513069153, 0.007052397355437279, 0.013793990015983582, 0.04545848071575165, 8.054477075347677e-05, 0.0004744538164231926, 0.007035627495497465, -0.0018632975406944752, -0.008410056121647358, 0.007173175457865, 0.04959603026509285], [-0.004972252994775772, 0.023175565525889397, 0.015803547576069832, 0.0009429614874534309, 0.0015282287495210767, -0.015096255578100681, -0.026692189276218414, 0.05848521366715431, 0.0011464759008958936, 0.0038491522427648306, -0.08064372837543488, 0.0009219764615409076, 0.01610025204718113, 0.004908626899123192, 0.014942067675292492, -0.06989526748657227, -0.06833357363939285, 0.034387342631816864, 0.015875481069087982, 0.0012018003035336733, 0.008785761892795563, 0.1054350882768631, -0.03931190446019173, 0.0597771517932415, 0.010101488791406155, -0.00913981907069683, -0.01128220185637474, -0.00026411787257529795, -0.1478126496076584, -0.03349995240569115, 0.02084476687014103, 0.0014890661695972085, 0.1496892273426056, -0.0003565631341189146, -0.0009973165579140186, -0.005265312734991312, -0.025533396750688553, 0.02200170047581196, 0.00464013172313571, -0.020664837211370468], [0.0004256680840626359, 0.0029906744603067636, -0.000500358350109309, -4.1151430195895955e-05, -6.44975298200734e-05, -5.2483239414868876e-05, -0.000780282192863524, -9.40897298278287e-05, -4.9794456572271883e-05, 4.8830021114554256e-05, 0.0017390137072652578, -4.064903623657301e-05, 0.000274345075013116, -0.0003292303008493036, 0.0005798158817924559, -0.0006551814149133861, 0.002058624289929867, -8.44058085931465e-05, 0.0013025051448494196, -5.212828182266094e-05, -0.0027583891060203314, -0.006218318361788988, 0.0017410070868209004, -0.0016854805871844292, -8.461875404464081e-05, 0.0017960526747629046, 0.00043287556036375463, 0.004560957662761211, 0.007796409539878368, 0.002012270735576749, -0.0018454513046890497, -0.0005239210440777242, -0.007776882499456406, 1.9097076801699586e-05, 4.353647818788886e-05, -0.00015822763089090586, 5.885888822376728e-05, -8.104142034426332e-05, 8.818818059808109e-06, -0.003091770689934492], [-0.03645612671971321, -0.08491437137126923, -0.017109306529164314, -0.0007318968418985605, -0.00041489131399430335, -0.05801330506801605, 0.012454316951334476, -0.008453446440398693, -0.0006454218528233469, 0.010538526810705662, -0.08151444792747498, -0.0007359492592513561, -0.03677479550242424, -0.003044208511710167, 0.03602371737360954, -0.026124028488993645, 0.06660941988229752, 0.013728691264986992, -0.0068442667834460735, -0.0006254595937207341, -0.02666478604078293, -0.12404057383537292, -0.03547751531004906, -0.071987584233284, 0.011427227407693863, 0.05893689766526222, 0.027414066717028618, -0.06663147360086441, 0.2911588251590729, 0.04042515158653259, -0.007584425620734692, -0.034521691501140594, -0.2980723977088928, 0.001022385316900909, 0.0007193607743829489, -0.006097687873989344, -0.005055587738752365, 0.034076377749443054, 0.044047772884368896, -0.05568244680762291], [0.005406735930591822, -0.016179034486413002, 0.038014158606529236, -0.0008977266843430698, -0.0007742141024209559, 0.012050340883433819, -0.006913074292242527, 0.03338884562253952, -0.0009254102478735149, 0.003091702703386545, -0.05657925084233284, -0.0008839870570227504, 0.02320486307144165, -0.0046262661926448345, 0.013829209841787815, -0.055743299424648285, -0.001998686930164695, -0.013235087506473064, 0.1277679055929184, -0.0009312790352851152, -0.12692993879318237, -0.02133985236287117, -0.017555352300405502, -0.008584750816226006, 0.0032426277175545692, 0.01562720350921154, 0.06160006672143936, -0.3340730369091034, 0.11042623221874237, -0.08238419145345688, 0.01710730977356434, -0.08105243742465973, -0.1396923065185547, 0.000883804983459413, 0.0009331171168014407, 0.006196162197738886, 0.024813150987029076, 0.00021989941888023168, -0.00021570289391092956, -0.08833255618810654], [0.0002975568058900535, 0.0022760764695703983, -0.0003843814192805439, -2.8949873012606986e-05, -4.545595948002301e-05, -5.7390887377550825e-05, -0.0005954290390945971, -8.288476965390146e-05, -3.501795436022803e-05, 4.974600960849784e-05, 0.0013238373212516308, -2.859907181118615e-05, 0.00020072865299880505, -0.00023826617689337581, 0.00041221402352675796, -0.0004734192625619471, 0.001579945208504796, -8.80884617799893e-05, 0.0010779042495414615, -3.665861004265025e-05, -0.002113250782713294, -0.004778909031301737, 0.0013081291690468788, -0.0012839061673730612, -6.692342867609113e-05, 0.0013594354968518019, 0.00037946790689602494, 0.003516500350087881, 0.0059958104975521564, 0.0015122010372579098, -0.0013862218474969268, -0.0004249661578796804, -0.005986201111227274, 1.3818911611451767e-05, 3.061880488530733e-05, -0.00013052171561867, 4.8097506805788726e-05, -4.4082829845137894e-05, 3.837764234049246e-05, -0.0023458388168364763], [0.0018438848201185465, 0.015758486464619637, 0.0257768202573061, 0.0005986661417409778, 0.0006792215863242745, -0.008404670283198357, -0.015465008094906807, 0.02593635581433773, 0.0006730366148985922, -0.002110203728079796, -0.0017554304795339704, 0.0005869283340871334, -0.002467366633936763, -0.011810355819761753, 0.003416937543079257, -0.02293628640472889, -0.016030076891183853, -0.010502687655389309, -0.028969882056117058, 0.0006938374135643244, -0.023486368358135223, 0.022196702659130096, -0.021432839334011078, -0.01399923861026764, 0.0012628789991140366, 0.007069109473377466, -0.02241012454032898, 0.004107706248760223, -0.029910944402217865, 0.03859499841928482, 0.016718152910470963, 0.0014212274691089988, 0.034998223185539246, -0.00046381301945075393, -0.0006368671893142164, 0.00039057264802977443, -0.002039211569353938, -0.001003797398880124, 0.006700627040117979, 0.012650420889258385], [-0.0043302010744810104, -0.09067264944314957, -0.016152074560523033, -0.0007539551006630063, -0.0005798173369839787, -0.04302170127630234, 0.024805260822176933, -0.01837373524904251, -0.0007518568891100585, 0.0017094919458031654, -0.07264372706413269, -0.0007388117373920977, -0.004316289443522692, -0.021171091124415398, 0.04151659831404686, -0.013295642100274563, 0.03517492115497589, -0.018906613811850548, -0.007273746654391289, -0.0007548303692601621, -0.06406830251216888, -0.09620765596628189, -0.10924100130796432, -0.01574503444135189, -0.008859393186867237, 0.052488524466753006, 0.026576969772577286, -0.16757850348949432, 0.37834957242012024, 0.06571611762046814, 0.007105972617864609, -0.02237388677895069, -0.4092409014701843, 0.0010624084388837218, 0.0007818427984602749, 0.005648087244480848, 0.0126754529774189, 0.01163425762206316, 0.060918260365724564, -0.058313339948654175], [0.010922113433480263, -0.01573420874774456, 0.04090863838791847, -0.0023021313827484846, -0.0030765742994844913, -0.0405644066631794, -0.02593405358493328, 0.00948853325098753, -0.0025952684227377176, -0.004493694752454758, -0.06803375482559204, -0.002293367637321353, -0.0037691835314035416, -0.04619628190994263, 0.06853625923395157, -0.01766034960746765, 0.05518745258450508, 0.013289258815348148, 0.046409595757722855, -0.002672252245247364, -0.002001033863052726, -0.022182021290063858, -0.03914330154657364, -0.02609184756875038, 0.046442657709121704, -0.02158011496067047, -0.041596669703722, -0.051192913204431534, 0.02332419343292713, 0.012333082966506481, 0.010379582643508911, -0.022443696856498718, -0.021401841193437576, 0.0014330021804198623, 0.0023944000713527203, -0.00849577784538269, -0.0101847555488348, 0.03813654184341431, 0.04481017217040062, -0.016178151592612267], [-0.044486548751592636, -0.0435524620115757, 0.1802929937839508, -0.0024743182584643364, -0.004185110330581665, -0.06046677380800247, 0.01078655943274498, -0.01676401123404503, -0.0029942812398076057, 0.020956700667738914, -0.05557765066623688, -0.0024843940045684576, -0.014006235636770725, -0.0035078092478215694, -0.03899074345827103, -0.10520476847887039, 1.8362727132625878e-05, 0.002180163050070405, -0.022553248330950737, -0.00312751904129982, -0.11739751696586609, -0.057287298142910004, 0.08223748207092285, 0.03703031688928604, 0.0019702916033566, 0.05562444403767586, 0.14118658006191254, 0.27785906195640564, -0.023938849568367004, 0.11526240408420563, -0.0252098198980093, -0.05464804545044899, 0.04854900762438774, 0.000929210742469877, 0.0025770689826458693, -0.020026786252856255, 0.012136220932006836, -0.012567167170345783, 0.021166644990444183, -0.1878490000963211], [0.15005828440189362, 0.05118342861533165, -0.19430002570152283, -0.004982085898518562, -0.006603955756872892, 0.22406403720378876, 0.09452454000711441, -0.04241099953651428, -0.005589494481682777, 0.055883802473545074, -0.0011311108246445656, -0.004875226877629757, 0.04927210882306099, 0.05755643919110298, -0.037239350378513336, 0.09268448501825333, -0.07283739000558853, -0.16757506132125854, 0.021641740575432777, -0.005757099483162165, -0.2400192767381668, 0.0136567959561944, -0.059209275990724564, -0.16788794100284576, -0.04015514999628067, -0.18755200505256653, 0.0787302553653717, -0.20863686501979828, 1.0456006526947021, 0.07194548100233078, 0.19934092462062836, 0.06423141807317734, -0.8007528185844421, 0.003256985917687416, 0.005154944956302643, -0.025276463478803635, 0.15335482358932495, -0.11908063292503357, -0.18602071702480316, -0.22522787749767303], [-0.0351896695792675, -0.04247109591960907, 0.03411886468529701, -0.0013958634808659554, -0.0010924014495685697, -0.06920511275529861, -0.02098871022462845, -0.015304931439459324, -0.0014205955667421222, -0.009529836475849152, -0.02210143581032753, -0.0013780917506664991, -0.018272217363119125, -0.005770441144704819, 0.013119738548994064, -0.013567059300839901, 0.039912279695272446, 0.014477078802883625, -0.0002842230605892837, -0.0014299635076895356, -0.04338393360376358, -0.08855091035366058, 0.007859696634113789, -0.02215607464313507, 0.022268541157245636, 0.04584253579378128, 0.03486185148358345, -0.03154165670275688, 0.12086740881204605, -0.02327837236225605, -0.025461921468377113, -0.051940809935331345, -0.12605834007263184, 0.001608912949450314, 0.001464737462811172, -0.0033166464418172836, -0.03817610442638397, 0.04405856505036354, 0.07094774395227432, -0.07378902286291122], [0.10281125456094742, 0.01769200712442398, -0.06434725970029831, -0.0035381466150283813, -0.004647725727409124, 0.051392294466495514, -0.0006545052747242153, 0.04445180296897888, -0.00394522026181221, 0.00842350721359253, -0.013990535400807858, -0.003561103716492653, 0.021179866045713425, 0.01919342204928398, -0.013783146627247334, -0.05157190188765526, -0.031999263912439346, -0.030455371364951134, -0.05914471298456192, -0.004044500645250082, -0.21393992006778717, -0.017909971997141838, 0.0414128340780735, -0.01921546645462513, -0.021865079179406166, -0.10876075178384781, 0.033576250076293945, 0.3917997479438782, -0.23014290630817413, -0.03503144159913063, 0.01457582414150238, -0.026100492104887962, 0.26408085227012634, 0.001965639414265752, 0.003651711856946349, 0.010768776759505272, -0.0002586318296380341, -0.03348110616207123, -0.08057272434234619, 0.13503922522068024], [0.0004576922219712287, 0.003178737824782729, -0.0005302015342749655, -4.4499203795567155e-05, -6.967232911847532e-05, -5.1389692089287564e-05, -0.000828618067316711, -9.688712452771142e-05, -5.383239113143645e-05, 4.803177580470219e-05, 0.0018476905534043908, -4.3955675209872425e-05, 0.00029407761758193374, -0.000352908595232293, 0.0006244988762773573, -0.0007019357872195542, 0.0021850750781595707, -8.432545291725546e-05, 0.0013640011893585324, -5.635247362079099e-05, -0.0029301384929567575, -0.006591267418116331, 0.00185279396828264, -0.0017911795293912292, -8.892681944416836e-05, 0.0019080250058323145, 0.0004464959492906928, 0.0048371898010373116, 0.008260492235422134, 0.002142390003427863, -0.0019646899309009314, -0.0005486159934662282, -0.008238350041210651, 2.058889003819786e-05, 4.7079200157895684e-05, -0.00016473705181851983, 6.138710887171328e-05, -9.089472587220371e-05, 1.2270053275642567e-06, -0.0032861167564988136], [-0.04909157380461693, 0.11203939467668533, -0.04596015810966492, 0.01385519653558731, 0.016749389469623566, 0.04396134242415428, -0.027845019474625587, 0.010294201783835888, 0.015507341362535954, 0.06456679850816727, 0.0834638699889183, 0.013641460798680782, -0.0036536010447889566, -0.017972994595766068, 0.005980861373245716, -0.04110360145568848, 0.047153059393167496, -0.10680080205202103, -0.01837456226348877, 0.015942152589559555, -0.5702515840530396, -0.11036625504493713, -0.056272875517606735, -0.08085090667009354, -0.008530115708708763, 0.06535740196704865, -0.023046258836984634, -0.10715793818235397, 0.3461506962776184, -0.013189687393605709, -0.029808789491653442, -0.07004926353693008, -0.30619823932647705, -0.009753593243658543, -0.014544698409736156, -0.03959823399782181, 0.06806550920009613, 0.0035025423858314753, -0.019522810354828835, -0.0697191134095192], [-0.007363687735050917, 0.04618535563349724, 0.13749030232429504, 0.0014736378798261285, 0.002223003888502717, 0.030970273539423943, 0.024238068610429764, 0.051469624042510986, 0.001762230647727847, 0.0014929284807294607, 0.09931666404008865, 0.001445395522750914, -0.024065490812063217, 0.021027594804763794, 0.04543594270944595, -0.12910136580467224, 0.02277134731411934, -0.04313662275671959, 0.04975942522287369, 0.001827081898227334, -0.2422991842031479, -0.08287670463323593, 0.11458490788936615, 0.10108411312103271, -0.033040858805179596, 0.17969439923763275, -0.09742792695760727, 0.18858957290649414, 0.9134731292724609, 0.23824992775917053, 0.08664581179618835, 0.08303011208772659, -0.8200988173484802, -0.0005588156054727733, -0.0015429577324539423, -0.017430676147341728, -0.027450213208794594, -0.024223191663622856, -0.027516229078173637, -0.13947337865829468], [0.02017119526863098, -0.006418959237635136, -0.020488440990447998, 0.0026371432468295097, 0.0035827632527798414, -0.025968465954065323, -0.016487598419189453, 0.025423089042305946, 0.0029685180634260178, 0.01717529632151127, 0.07087502628564835, 0.002625928493216634, 0.03792157769203186, -0.03205008804798126, 0.0020589816849678755, -0.020312856882810593, -0.018021579831838608, 0.02038033865392208, 0.08682674169540405, 0.0030541743617504835, -0.09679940342903137, -0.08229479193687439, -0.06080841273069382, 0.021041037514805794, -0.021734006702899933, 0.0207483172416687, 0.008829787373542786, -0.26587069034576416, 0.10726150125265121, -0.002363124629482627, -0.018296347931027412, 0.009443143382668495, -0.09923069179058075, -0.0014670841628685594, -0.0027122842147946358, -0.015386861748993397, -0.0036623640917241573, 0.03710390254855156, 0.02471756748855114, -0.03453165665268898], [0.1531098335981369, 0.14207102358341217, -0.25033289194107056, 0.001637722016312182, 0.0024741236120462418, 0.10762333124876022, 0.0016850953688845038, 0.01930035836994648, 0.001817648415453732, 0.012701885774731636, 0.04566091299057007, 0.0016560994554311037, 0.02702028863132, -0.042844731360673904, 0.020474998280405998, -0.021771730855107307, 0.08215704560279846, 0.16316919028759003, 0.08973221480846405, 0.0018625888042151928, -0.2928878664970398, -0.11276962608098984, 0.05864398181438446, -0.08454868197441101, 0.022245854139328003, 0.00586371123790741, -0.05162901431322098, 0.10940435528755188, 0.9330938458442688, -0.14064544439315796, -0.2114942967891693, 0.04459086433053017, -0.8864266872406006, -0.0006325955619104207, -0.001633798936381936, -0.03018501214683056, 0.0761740580201149, -0.01371551863849163, -0.11251910030841827, -0.3706468343734741], [0.04230896383523941, -0.07681533694267273, 0.03152461722493172, -0.000402887788368389, -0.00033209321554750204, -0.09229883551597595, 0.025430602952837944, -0.03437552601099014, -0.000374683178961277, 0.021355418488383293, -0.08672244101762772, -0.00041150476317852736, -0.023990357294678688, -0.005787257570773363, 0.07864201068878174, -0.021853193640708923, 0.10699090361595154, 0.06719272583723068, -0.04314281418919563, -0.00037194331525824964, -0.16329316794872284, -0.11473929136991501, -0.008632523007690907, -0.10209555178880692, 0.033704765141010284, 0.055572979152202606, 0.029346706345677376, -0.006243088748306036, 0.21403782069683075, 0.05162965878844261, 0.0032363508362323046, -0.061768993735313416, -0.1872234046459198, 0.0006183130899444222, 0.00041497431811876595, -0.035042669624090195, -0.03245532512664795, 0.04201270639896393, 0.07550950348377228, 0.03426728770136833], [0.034136250615119934, 0.0362137071788311, -0.018119407817721367, -0.009073076769709587, -0.011651569977402687, 0.09684742987155914, 0.05078127235174179, -0.005513268522918224, -0.010298081673681736, -0.02800932712852955, -0.014009039849042892, -0.008871205151081085, 0.043095629662275314, -0.015432790853083134, 0.02325320988893509, -0.04059257730841637, 0.24613945186138153, 0.05517158284783363, 0.024584272876381874, -0.01061990112066269, 0.016093598678708076, -0.13267911970615387, -0.004652407485991716, 0.03164151310920715, -0.009184801019728184, -0.004051927477121353, -0.026028495281934738, -0.07194361090660095, 0.2647193968296051, 0.03684083744883537, -0.07831129431724548, 0.14477524161338806, -0.2862898111343384, 0.006044771056622267, 0.009533890523016453, 0.0370459258556366, 0.028069650754332542, -0.05383544787764549, -0.1021476686000824, -0.08246410638093948], [0.05941631272435188, 0.004677266348153353, 0.05695490539073944, -0.00033043406438082457, -0.0005382076487876475, -0.010561821050941944, -0.030384251847863197, 0.0425117090344429, -0.00035050263977609575, 0.015179879032075405, -0.15712803602218628, -0.00037025456549599767, 0.008193560875952244, 0.007641867734491825, 0.06580022722482681, -0.10446091741323471, 0.05166979879140854, 0.05881011113524437, 0.027676504105329514, -0.00035184805165044963, -0.02501257322728634, -0.02089490182697773, -0.023234864696860313, -0.05070677027106285, 0.014145385473966599, -0.025485804304480553, -0.12295925617218018, -0.05231200531125069, 0.031071500852704048, -0.008351122960448265, -0.04268669709563255, 0.04931832104921341, -0.03569059446454048, 8.68668794282712e-05, 0.00031696335645392537, -0.037732385098934174, -0.057185910642147064, 0.032384369522333145, 0.03501758351922035, -0.271563857793808], [0.05715610086917877, 0.14392338693141937, 0.0938187763094902, -7.360337622230873e-05, 0.00034803804010152817, -0.0226087998598814, -0.013628900051116943, 0.050233740359544754, 2.5830337108345702e-05, 0.015123778954148293, 0.06387515366077423, -0.00010193327761953697, 0.024408742785453796, -0.009970172308385372, -0.018758192658424377, -0.012641381472349167, 0.006549807731062174, 0.05958588421344757, -0.018282515928149223, 5.0717968406388536e-05, -0.11070729792118073, -0.13156816363334656, 0.02017458714544773, 0.004911924246698618, -0.06196272000670433, 0.058295875787734985, 0.11016222089529037, -0.17872856557369232, 0.35706695914268494, 0.17388185858726501, -0.007874812930822372, -0.056295670568943024, -0.3308087885379791, 0.0004916278412565589, 5.784000313724391e-05, -0.06850987672805786, -0.04482218995690346, 0.020057661458849907, -0.0018705949187278748, -0.1583225131034851], [-0.0018346573924645782, -0.10751177370548248, 0.045959796756505966, -0.003546132706105709, -0.003959428984671831, -0.012431889772415161, 0.04854173958301544, 0.06883732974529266, -0.003905464895069599, 0.03422670066356659, 0.021103816106915474, -0.00342953740619123, -0.05871639773249626, 0.012979237362742424, 0.03564148768782616, -0.33641546964645386, 0.010650756768882275, -0.020654257386922836, -0.07626718282699585, -0.00400132779031992, -0.0860881358385086, 0.14543144404888153, -0.03663831576704979, -0.019837606698274612, -0.043971817940473557, -0.10709713399410248, 0.04065656289458275, 0.005810276139527559, 0.31042543053627014, 0.22453296184539795, 0.07063791155815125, 0.07347021996974945, -0.28847309947013855, 0.00281033874489367, 0.0037362175062298775, -0.022850006818771362, -0.00830801110714674, 0.01638542115688324, 0.023790225386619568, -0.0006906490307301283], [0.012196669355034828, 0.19108670949935913, 0.19010643661022186, 0.005379594396799803, 0.006552465725690126, -0.016167020425200462, -0.04491584748029709, -0.02740839309990406, 0.006089804694056511, 0.014285940676927567, 0.04121736064553261, 0.005243085324764252, 0.006332024000585079, -0.06131058931350708, 0.0465100035071373, 0.2210741639137268, 0.026512950658798218, -0.011477958410978317, -0.01731649786233902, 0.006270675919950008, -0.2976904511451721, -0.09366267174482346, -0.07277245819568634, -0.12025739997625351, -0.013248274102807045, 0.12256979942321777, -0.09433943778276443, 0.12615738809108734, 0.1508024036884308, -0.010964076966047287, 0.00774043845012784, -0.06941582262516022, -0.16135773062705994, -0.003691780613735318, -0.005685409065335989, 0.021389931440353394, 0.010678552091121674, 0.035103969275951385, 0.04174456372857094, -0.0018054324900731444], [-0.011856374330818653, -0.07497727870941162, -0.25599583983421326, -0.00530873192474246, -0.005346328020095825, 0.02992851659655571, 0.06804162263870239, -0.0658327266573906, -0.005838464479893446, -0.008300043642520905, 0.0458858422935009, -0.005096523556858301, -0.017940523102879524, -0.025425897911190987, 0.0228448323905468, 0.049637168645858765, 0.23254428803920746, 0.015428837388753891, -0.024561189115047455, -0.005991303361952305, 0.0681290552020073, -0.1341349482536316, -0.0756860300898552, -0.14132097363471985, 0.009605116210877895, 0.02102932147681713, 0.0028197539504617453, -0.01648549549281597, 0.7509868741035461, 0.036970291286706924, -0.10834194719791412, 0.08583416044712067, -0.718144953250885, 0.005166357848793268, 0.005684947595000267, -0.03980915620923042, 0.0030230607371777296, 0.004279015585780144, -0.004675393458455801, -0.08718827366828918], [0.06929440051317215, 0.01066314522176981, -0.043960798531770706, -0.0047882734797894955, -0.006530022714287043, -0.005160796456038952, 0.011941359378397465, -0.025581279769539833, -0.005484438501298428, 0.028935931622982025, -0.10591141879558563, -0.004707475192844868, 0.021141428500413895, -0.017752043902873993, 0.04241994768381119, 0.01826380006968975, 0.05271879956126213, 0.02484464831650257, -0.014871903695166111, -0.0056664226576685905, -0.018353167921304703, -0.06241198256611824, -0.03674444183707237, -0.06772422790527344, -0.013685647398233414, 0.07157251238822937, -0.04525170102715492, 0.08972001075744629, 0.2831103205680847, -0.00651227030903101, 0.01680905930697918, 0.08483341336250305, -0.24516786634922028, 0.002843257738277316, 0.0050189802423119545, 0.0008734994917176664, -0.01636008359491825, 0.035213228315114975, 0.03446007892489433, -0.05490228906273842], [-0.06336861103773117, 0.004122489131987095, 0.01920356974005699, -0.002310094889253378, -0.003572700312361121, 0.05006444454193115, 0.026895660907030106, -0.022969534620642662, -0.0027674194425344467, -0.015725720673799515, 0.07892632484436035, -0.0022305678576231003, -0.012424425221979618, -0.00595847237855196, 0.008569208905100822, -0.0065195453353226185, 0.09777332842350006, -0.04495466500520706, -0.033867720514535904, -0.002883483422920108, -0.04819255694746971, -0.0949259102344513, -0.0064542051404714584, -0.07594023644924164, -0.004538966808468103, -0.006193135399371386, -0.059588849544525146, -0.032891787588596344, 0.36692532896995544, -0.0705876424908638, 0.018088338896632195, 0.10371167212724686, -0.39166131615638733, 0.0009377466631121933, 0.0024422015994787216, 0.004690862260758877, 0.008229772560298443, -0.032938409596681595, -0.045435830950737, -0.14653286337852478], [3.749679308384657e-05, 0.0010874279541894794, -0.00015521844034083188, -1.6077150576165877e-05, -2.229421261290554e-05, -4.36936279584188e-05, -0.000252445723162964, -3.0824881832813844e-05, -1.8526790881878696e-05, 3.088401354034431e-05, 0.0006260897498577833, -1.591034379089251e-05, 0.00010968920105369762, -0.00010814769484568387, 0.00018069551151711494, -0.0001748038048390299, 0.0008726679370738566, -1.68985116033582e-05, 0.0004979261429980397, -1.9178600268787704e-05, -0.0009588273242115974, -0.0024475848767906427, 0.0006491255480796099, -0.0007025672239251435, -3.236619886592962e-05, 0.0006262898095883429, 0.0002332621515961364, 0.0018596360459923744, 0.003054217901080847, 0.0007813120610080659, -0.0006731753819622099, -0.0001904113159980625, -0.0030694478191435337, 9.942789802153129e-06, 1.6843139746924862e-05, -5.8890691434498876e-05, 1.580325374561653e-06, 2.9416689812933328e-06, 5.6460907217115164e-05, -0.0011676306603476405], [0.00034647798747755587, 0.0025770042557269335, -0.00043401357834227383, -3.4418291761539876e-05, -5.365668403101154e-05, -4.987027568859048e-05, -0.0006678719655610621, -8.450185123365372e-05, -4.1519080696161836e-05, 5.3523075621342286e-05, 0.0015017044497653842, -3.400470086489804e-05, 0.00023955979850143194, -0.00028000958263874054, 0.0004844479262828827, -0.0005476577789522707, 0.0018028388731181622, -7.516031473642215e-05, 0.0011404777178540826, -4.343720502220094e-05, -0.0023696739226579666, -0.005411080084741116, 0.001510563655756414, -0.0014734104042872787, -8.07347460067831e-05, 0.0015479553258046508, 0.0004052643198519945, 0.003972051199525595, 0.006785720121115446, 0.0017422673990949988, -0.0015912688104435802, -0.0004667392640840262, -0.006774956826120615, 1.655763844610192e-05, 3.637695772340521e-05, -0.00014681564061902463, 5.111812788527459e-05, -5.938353933743201e-05, 2.2523156076204032e-05, -0.00267652771435678], [-0.016092978417873383, -0.12605178356170654, -0.017756115645170212, -0.0009482849854975939, -0.0008103764266707003, -0.008503801189363003, 0.0557137057185173, -0.005328336264938116, -0.0009626844548620284, 0.00674052257090807, -0.014210384339094162, -0.0009168031392619014, -0.010557965375483036, 0.0016864965436980128, 0.02120252326130867, -0.02793521247804165, 0.04018916189670563, -0.013240351341664791, 0.0028694034554064274, -0.0009670088184066117, 0.017034025862812996, -0.07587629556655884, -0.12139695882797241, -0.042241696268320084, 0.000817664316855371, 0.025359204038977623, 0.02177169732749462, -0.046279288828372955, 0.32966217398643494, 0.009328731335699558, -0.019267333671450615, 0.0006962729385122657, -0.37902867794036865, 0.001026855781674385, 0.0009688094141893089, -0.012471538037061691, -0.01621011458337307, 0.014932704158127308, 0.008113422431051731, 0.0010627147275954485], [-0.049932822585105896, -0.06110268458724022, -0.08332764357328415, 5.676062937709503e-05, 0.0005512594361789525, -0.044180091470479965, 0.02274227887392044, -0.01795940473675728, 0.00018540352175477892, -0.0046151974238455296, -0.028570497408509254, 7.259917765622959e-05, -0.03244871273636818, 0.00823388621211052, 0.036756884306669235, -0.009839287027716637, 0.04179545119404793, -0.007306753192096949, 0.008963209576904774, 0.0002183973410865292, -0.06066680699586868, -0.057640306651592255, -0.03803486377000809, -0.038306932896375656, 0.010341661982238293, 0.04188486933708191, 0.0005257511511445045, 0.018459128215909004, 0.25084418058395386, 0.020983939990401268, -0.02981000393629074, -0.032076817005872726, -0.27635109424591064, 0.0004170173197053373, -7.657146488782018e-05, 0.029370054602622986, 0.006674047559499741, 0.04004180431365967, 0.028598161414265633, -0.007064228877425194], [0.004932968877255917, -0.05181575194001198, 0.021949956193566322, 0.0013282474828884006, 0.001903027412481606, -0.04534896835684776, 0.020068814978003502, -0.01527952216565609, 0.0016147173009812832, -0.017775632441043854, -0.039904966950416565, 0.0012924198526889086, -0.029723890125751495, -0.004455565474927425, 0.04003164917230606, -0.03055066056549549, 0.08731573820114136, -0.019165698438882828, -0.025897707790136337, 0.0016885268269106746, -0.10382302105426788, -0.11340194940567017, -0.04713639244437218, -0.09204347431659698, 0.0016682383138686419, 0.041050832718610764, 0.03449889272451401, -0.12555846571922302, 0.22247590124607086, 0.018503358587622643, 0.007031110115349293, -0.048476118594408035, -0.23293428122997284, -0.0006400863640010357, -0.0014396432088688016, -0.008759996853768826, -0.04623258486390114, 0.06560591608285904, 0.004084454383701086, 0.028030531480908394], [-0.03683732450008392, -0.06155519187450409, 0.04848184809088707, 0.00028302581631578505, 0.00031662420951761305, -0.02734529599547386, 0.01034983154386282, -0.02248365618288517, 0.0003734578494913876, -0.01602611131966114, 0.0011455653002485633, 0.0002683386846911162, -0.031871113926172256, -0.041559770703315735, 0.0038339458405971527, -0.00010259194095851853, 0.07370514422655106, -0.041162870824337006, -0.019010324031114578, 0.00039914489025250077, -0.08579136431217194, -0.15000396966934204, -0.019376110285520554, -0.05666942149400711, 0.023685656487941742, 0.05539350211620331, 0.017137812450528145, -0.1054827943444252, 0.22802649438381195, 0.06134464219212532, -0.03964114561676979, -0.02373276650905609, -0.23466800153255463, -0.0002067463647108525, -0.0003442662418819964, 0.005499664228409529, -0.04137086123228073, -0.017188869416713715, 0.06293006986379623, -0.03407809138298035], [-0.0032953517511487007, -0.03146231174468994, 0.10283524543046951, -0.002953979419544339, -0.003051256062462926, -0.020740389823913574, -0.018098143860697746, 0.05016237124800682, -0.0031552521977573633, 0.00132907519582659, -0.0993751734495163, -0.002895291894674301, 0.04835899919271469, 0.019343627616763115, 0.09377880394458771, 0.0476774126291275, 0.0541495718061924, 0.0046579414047300816, -0.1489381343126297, -0.003200701205059886, 0.005899492651224136, 0.03297341614961624, 0.029405763372778893, 0.037574660032987595, 0.021730052307248116, -0.03331882506608963, 0.05373107269406319, 0.20197902619838715, 0.2990073263645172, 0.31107380986213684, 0.0009573794668540359, 0.02585245482623577, -0.2527431547641754, 0.0024452763609588146, 0.0030567790381610394, 0.017864378169178963, -0.0036695164162665606, -0.007600505370646715, 0.033862680196762085, 0.12047906965017319], [0.46684497594833374, -0.02559639699757099, -0.0116924112662673, 0.008818047121167183, 0.009592202492058277, 0.09921974688768387, 0.015232300385832787, 0.07657336443662643, 0.009580502286553383, 0.0828673467040062, -0.04018692672252655, 0.008785728365182877, 0.033363815397024155, 0.15377749502658844, -0.05175543949007988, -0.004446535371243954, -0.19985051453113556, -0.2732900381088257, -0.006339527200907469, 0.009793604724109173, -0.03872763365507126, 0.10446744412183762, 0.017408939078450203, -0.10431510210037231, -0.1041092574596405, 0.009529685601592064, 0.06849628686904907, -0.009903151541948318, 0.14065225422382355, -0.00766537431627512, -0.4104498028755188, -0.13500447571277618, -0.00977944303303957, -0.007242635358124971, -0.00918863620609045, -0.170648992061615, -0.026389800012111664, -0.013044148683547974, 0.14554274082183838, 0.02098819799721241], [0.02774692140519619, 0.13271453976631165, -0.07374259829521179, 0.0034833515528589487, 0.003667378332465887, 0.05257265269756317, -0.042634230107069016, 0.14585751295089722, 0.0037353101652115583, -0.03585724160075188, 0.007070925552397966, 0.003424812573939562, 0.16796118021011353, -0.05711793899536133, -0.0007402727496810257, -0.14454251527786255, -0.026632647961378098, 0.10826176404953003, 0.05014349892735481, 0.0038040070794522762, -0.03676404803991318, 0.13884419202804565, -0.05711714178323746, -0.30626180768013, -0.06944043189287186, 0.02201150730252266, 0.0017126312013715506, 0.004084740299731493, 0.3059345781803131, 0.45871397852897644, 0.02983887866139412, 0.05840461328625679, -0.08900617808103561, -0.00312019232660532, -0.0036504382733255625, 0.07218017429113388, -0.021216826513409615, -0.05751587823033333, -0.14734520018100739, 0.04610172286629677], [-0.014889766462147236, 0.023719271644949913, 0.08289497345685959, 0.005155510734766722, 0.007288786582648754, -0.0568532720208168, 0.03080848790705204, 0.14411453902721405, 0.005790369119495153, 0.008746668696403503, -0.0537860170006752, 0.005115683656185865, -0.05234988033771515, -0.0064154574647545815, -0.07194080948829651, -0.04063118249177933, 0.00919217336922884, 0.0052695199847221375, 0.03703662380576134, 0.005945313721895218, 6.825126183684915e-05, 0.5949894785881042, -0.027135640382766724, 0.08003956079483032, -0.03227763995528221, 0.011920984834432602, -0.057952459901571274, 0.05498906224966049, 0.14660067856311798, 0.027125965803861618, -0.036780912429094315, -0.004286803770810366, 0.033819347620010376, -0.0024422253482043743, -0.005234544165432453, -0.0405266210436821, 0.03804263845086098, -0.006130201276391745, -0.03686027601361275, 0.039442986249923706], [0.005207308102399111, -0.009701624512672424, -0.008797957561910152, 0.007006188854575157, 0.008869482204318047, -0.003362830961123109, -0.004335289821028709, 0.011757506988942623, 0.007910970598459244, 0.003123319474980235, -0.0005934481741860509, 0.006912979297339916, 0.008155903778970242, -0.00028024360653944314, -0.006192100699990988, 0.006732678506523371, 0.004996273200958967, 0.005164631642401218, -0.010821985080838203, 0.008150794543325901, -0.02890273742377758, -0.0020607057958841324, 0.0057630049996078014, -0.005631304811686277, -0.00518011674284935, 0.005532439798116684, -0.0015491032972931862, -0.008490278385579586, -0.004372238181531429, 0.0019992475863546133, 0.0027613164857029915, -0.00277316034771502, 0.006941352970898151, -0.004688567016273737, -0.007357159163802862, -0.0034428949002176523, -0.0005002496764063835, 0.0035395664162933826, -0.0003190956776961684, 0.002269198652356863], [0.005509660579264164, -0.01394381932914257, -0.013552759774029255, 0.00866660289466381, 0.011165889911353588, -0.007294749841094017, -0.006165662314742804, 0.018689220771193504, 0.009815755300223827, 0.0036221572663635015, 0.00016770024376455694, 0.008555490523576736, 0.010421640239655972, -0.0015184826916083694, -0.008085798472166061, 0.004760858602821827, 0.003213532269001007, 0.008502134121954441, -0.014449009671807289, 0.010119081474840641, -0.03654848784208298, -0.0021136081777513027, 0.00798891857266426, -0.004186737351119518, -0.006383082363754511, 0.004769026301801205, 0.0005449674790725112, -0.01072294358164072, -0.0047003841027617455, -0.0007059559575282037, 0.00279590068385005, -0.005880078766494989, 0.0076967813074588776, -0.005621769931167364, -0.009091068990528584, -0.004497508984059095, -0.0010645102011039853, 0.005901749711483717, 0.0019073791336268187, 0.003572475630789995], [-0.018043704330921173, 0.0006908305804245174, -0.06268072128295898, -0.003244771622121334, -0.005819940473884344, 0.06190066784620285, -0.07115350663661957, 0.06205156818032265, -0.003924202173948288, 0.2110949456691742, -0.023704761639237404, -0.0032570981420576572, -0.21620871126651764, -0.07181018590927124, 0.2595233917236328, 0.029139235615730286, -0.06417825073003769, 0.10716070979833603, 0.002988789463415742, -0.0041094496846199036, -0.015683116391301155, 0.14311468601226807, 0.03547746688127518, -0.048766348510980606, -1.1020959615707397, -0.09721073508262634, -0.049744945019483566, 0.054657094180583954, 0.05697166174650192, -0.02135644108057022, 0.0473313070833683, -0.2016318440437317, -0.08256278187036514, 0.0010168561711907387, 0.0033662377391010523, 0.08276208490133286, 0.20634639263153076, -0.40932005643844604, -0.2782168984413147, -0.0153571255505085], [0.0704244002699852, -0.20555385947227478, -0.10447388887405396, 0.012996924109756947, 0.019601771607995033, 0.1696038395166397, -0.15043538808822632, -0.5512102246284485, 0.015145489946007729, -0.0845525786280632, -0.033936940133571625, 0.012924171052873135, 0.3918711543083191, -0.058037951588630676, -0.12399913370609283, -0.19752506911754608, -0.06113399937748909, 0.4174247086048126, -0.023202110081911087, 0.01569015346467495, -0.073418028652668, -0.030352339148521423, -0.07804567366838455, 0.08092310279607773, 0.03132699802517891, -0.07450403273105621, 0.0025530229322612286, -0.01802659220993519, 0.06628154218196869, -0.03780175745487213, 0.04582337662577629, 0.07081873714923859, -0.01993917115032673, -0.005467310082167387, -0.013416853733360767, 0.03149706870317459, 0.06384123116731644, -0.01555128488689661, 0.10898873955011368, 0.19844341278076172], [0.02734612673521042, -0.005635896697640419, -0.2706111967563629, 0.008805984631180763, 0.012231067754328251, 0.03111185133457184, 0.31513985991477966, -0.6273564696311951, 0.00995674543082714, 0.06334634125232697, 0.08673110604286194, 0.00867617130279541, -0.12579797208309174, 0.14260387420654297, -0.0886000245809555, -0.914352536201477, -0.02951672114431858, -0.2792157828807831, -0.14793004095554352, 0.0102357417345047, -0.04420912265777588, -0.16346623003482819, 0.03079499863088131, 0.0701390728354454, -0.05776301026344299, -0.009979127906262875, 0.22361241281032562, -0.039158906787633896, -0.21800504624843597, 0.18687085807323456, 0.041951846331357956, 0.05135839432477951, 0.1304934173822403, -0.004435122944414616, -0.00902310200035572, 0.00011593627277761698, 0.12319938838481903, -0.1244874969124794, 0.09833946079015732, -0.5079966187477112], [0.00534801185131073, -0.011377546936273575, -0.010128320194780827, 0.007854974828660488, 0.00996826309710741, -0.004303325433284044, -0.005098588299006224, 0.014140143990516663, 0.00887276977300644, 0.0034617390483617783, -0.00046968492097221315, 0.0077508422546088696, 0.009263251908123493, -0.00046626399853266776, -0.007052890956401825, 0.00673700263723731, 0.004738806281238794, 0.005937386769801378, -0.012449589557945728, 0.009142366237938404, -0.0324263721704483, -0.0022667020093649626, 0.006542355287820101, -0.005861553829163313, -0.005877935327589512, 0.005739104934036732, -0.001374390791170299, -0.009673361666500568, -0.0047193714417517185, 0.001591026782989502, 0.0029175300151109695, -0.003720642067492008, 0.007517688442021608, -0.005232784431427717, -0.0082472525537014, -0.0038509382866322994, -0.0006831399514339864, 0.004178755450993776, -1.967480329767568e-06, 0.0028516037855297327], [-0.06664678454399109, 0.01234513707458973, 0.033866867423057556, 0.0014223729958757758, 0.0019414931302890182, -0.02348857931792736, 0.1362270563840866, 0.05665144324302673, 0.0016606661956757307, 0.05504487082362175, 0.0010876012966036797, 0.0014321322087198496, 0.2818422317504883, 0.4778456687927246, -0.017186546698212624, 0.04487496241927147, -0.008029869757592678, 0.005506984889507294, 0.005459577776491642, 0.0017192449886351824, -0.014656420797109604, 0.07970401644706726, 0.02150409109890461, 0.03734593093395233, 0.013559483923017979, 0.0069389441050589085, -0.004928393289446831, -0.01634439080953598, 0.01830117031931877, -0.02628031186759472, -0.02013329789042473, 0.0750805139541626, -0.11281509697437286, -0.0007627751911059022, -0.001506448956206441, 0.4660307765007019, 0.13638804852962494, 1.0412349700927734, -0.3489842712879181, 0.04059542343020439], [0.02962908148765564, 0.14385820925235748, 0.06554647535085678, -0.010011360980570316, -0.0109193604439497, -0.057124413549900055, 0.016535233706235886, -0.1270233392715454, -0.010975480079650879, 0.006036182399839163, 0.429158091545105, -0.009705327451229095, -0.0655401274561882, -0.038749102503061295, 0.07141043990850449, -0.283331960439682, 0.16026751697063446, -0.020523669198155403, -0.05974777787923813, -0.011217157356441021, 0.028291070833802223, 0.14747336506843567, -0.04166639596223831, -0.2580029368400574, 0.0485004186630249, 0.08421939611434937, 0.12908916175365448, 0.10451897233724594, 0.18095092475414276, -0.17233635485172272, -0.03281299024820328, 0.012438373640179634, 0.09927281737327576, 0.007957813329994678, 0.010489256121218204, -0.002442920347675681, 0.05101991817355156, 0.035664450377225876, 0.005834607407450676, 0.5054733157157898], [0.005237752106040716, -0.009588521905243397, -0.0087748933583498, 0.0068979389034211636, 0.008738416247069836, -0.0033255228772759438, -0.004203442484140396, 0.011643541045486927, 0.007789805997163057, 0.003073303960263729, -0.0005956296226941049, 0.006806505843997002, 0.008065625093877316, -0.00029669393552467227, -0.006116384174674749, 0.006606961600482464, 0.005097283981740475, 0.005181905813515186, -0.0106968954205513, 0.008026201277971268, -0.0286113191395998, -0.001957475673407316, 0.005602564662694931, -0.005443119443953037, -0.005077802576124668, 0.005620181560516357, -0.0014448724687099457, -0.00820815097540617, -0.004287189804017544, 0.0018555053975433111, 0.002714661881327629, -0.002666301792487502, 0.006869632285088301, -0.004611189477145672, -0.007243247702717781, -0.003428725991398096, -0.00046858788118697703, 0.003518679877743125, -0.0002711973793338984, 0.002337100449949503], [0.0195158701390028, -0.07843464612960815, -0.03326405957341194, -0.017208026722073555, -0.027426650747656822, 0.3876734972000122, -0.1973051279783249, -0.004649368580430746, -0.02047896943986416, -0.10704511404037476, -0.0889134332537651, -0.01716001331806183, -0.10224762558937073, 0.20076729357242584, -0.7652038335800171, -0.08506837487220764, -0.07336050271987915, 0.3730250597000122, 0.01690100133419037, -0.021322596818208694, -0.024547815322875977, -0.006826786790043116, -0.10495810955762863, -0.048631954938173294, 0.16880515217781067, -0.1076522096991539, -0.16378335654735565, 0.022343995049595833, 0.03751862794160843, 0.13869623839855194, 0.11045853793621063, 0.16538821160793304, -0.07550271600484848, 0.006290014833211899, 0.01789534091949463, -0.016911419108510017, 0.09128015488386154, 0.1639903485774994, 0.25452443957328796, -0.04510127007961273], [-0.13337896764278412, 0.022376248612999916, 0.01303794700652361, -0.0005188818904571235, -0.0010310962097719312, 0.009786898270249367, 0.06001860648393631, 0.06197262182831764, -0.000639916630461812, -0.5415371656417847, 0.014597450383007526, -0.0005193180404603481, 0.05322957783937454, 0.2963219881057739, 0.22592893242835999, 0.07888844609260559, -0.036283228546381, 0.15866395831108093, 0.0034026491921395063, -0.0006731814355589449, -0.0031292615458369255, 0.04100401699542999, 0.049449652433395386, -0.019080867990851402, 0.006824371870607138, -0.02124561369419098, 0.028571635484695435, -0.005689830519258976, 0.010549984872341156, -0.03159034252166748, 0.19275523722171783, -0.03740183636546135, -0.14391393959522247, 0.00010507564002182335, 0.000525815412402153, -1.0246930122375488, -0.1661815196275711, 0.16094903647899628, -0.30554401874542236, 0.04186125844717026], [0.23767691850662231, -0.04695974290370941, 0.0035590699408203363, -0.012561528943479061, -0.0150952422991395, -0.4055190086364746, 0.1082632765173912, -0.03529883921146393, -0.013903922401368618, -0.10706175863742828, -0.23548288643360138, -0.012398597784340382, 0.575082540512085, -0.2382599264383316, -0.035982050001621246, -0.15686969459056854, 0.08173535019159317, -0.09899114817380905, 0.04838672652840614, -0.014250868931412697, 0.042897798120975494, -0.019544200971722603, -0.22407452762126923, 0.05654976889491081, -0.1494547426700592, -0.172235369682312, -0.7682525515556335, 0.16847571730613708, 0.159502312541008, 0.008982686325907707, 0.1384156197309494, -0.8500335812568665, -0.021970629692077637, 0.008753245696425438, 0.013043999671936035, -0.20066513121128082, 0.049533918499946594, -0.01819739118218422, -0.37385886907577515, 0.05853232368826866], [0.019811488687992096, -0.05168041214346886, -0.4470217227935791, 0.0017607716144993901, 0.0031419529113918543, -0.03901982679963112, 0.06445471942424774, 0.7726777195930481, 0.002064725384116173, 0.05866381153464317, -0.07902690023183823, 0.0017370182322338223, -0.007019342854619026, -0.01922568678855896, 0.10212142020463943, 0.08918554335832596, -0.013127398677170277, 0.15007352828979492, 0.15637046098709106, 0.0021457348484545946, -0.03348713740706444, -1.2886584997177124, -0.07321350276470184, 0.37108540534973145, 0.03449556604027748, 0.06622790545225143, -0.07308895885944366, -0.037313107401132584, 0.11086761951446533, 0.3302129805088043, -0.05159368738532066, 0.048556193709373474, -0.0603998638689518, -0.00039287167601287365, -0.001766105298884213, 0.021529564633965492, -0.12085390836000443, 0.0429968535900116, -0.000352580682374537, 0.3292056918144226], [-0.05243728682398796, -0.019980693235993385, 0.012427338398993015, 0.006140468176454306, 0.006261512171477079, -0.04272294044494629, -0.2022378295660019, -0.004139250610023737, 0.006516527384519577, 0.0011125237215310335, -0.12638528645038605, 0.006103070452809334, 0.04636603221297264, 0.26140663027763367, -0.24475015699863434, -0.000796070322394371, 0.3455922603607178, -0.6575220823287964, 0.012112951837480068, 0.006616498809307814, -0.005203867796808481, -0.42104896903038025, -0.032049015164375305, 0.1110633835196495, 0.03409532457590103, -0.007391610182821751, 0.44215649366378784, -0.015968555584549904, -0.19680726528167725, -0.46690359711647034, 0.21455706655979156, -0.05604635551571846, 0.10613035410642624, -0.005356729030609131, -0.006376353558152914, 0.019170857965946198, -0.0011767985997721553, -0.06321727484464645, 0.29194509983062744, -0.19555333256721497], [0.1986493319272995, -0.09047185629606247, -0.1520339697599411, 0.0023413931485265493, 0.003255906980484724, -0.26108115911483765, -0.629652738571167, -0.3101630210876465, 0.0026763903442770243, -0.034002047032117844, 0.00039675558218732476, 0.002327863359823823, -0.6376324892044067, -0.2450924962759018, 0.1816665679216385, -0.24908988177776337, 0.052340470254421234, -0.11411677300930023, -0.041724883019924164, 0.0027550833765417337, 0.027589771896600723, -0.17847934365272522, -0.16219758987426758, 0.09927859902381897, 0.09463496506214142, 0.04711056500673294, 0.10521305352449417, -0.0009686412522569299, -0.0061395736411213875, 0.07396211475133896, -0.11755853146314621, 0.012100259773433208, 0.25572440028190613, -0.0012033989187330008, -0.002426220802590251, -0.09027086943387985, -0.08439616113901138, 0.3290073871612549, -0.7674404382705688, -0.1521873027086258], [0.04945754632353783, -0.3412330150604248, 0.10400181263685226, -0.0004637629317585379, 0.0003509418456815183, -0.008809288963675499, 0.08145225793123245, 0.8024551272392273, -0.000378858094336465, -0.04126871004700661, 0.1526757776737213, -0.00036909355549141765, -0.053064338862895966, -0.10248441249132156, -0.27104121446609497, -1.7509304285049438, -0.19977116584777832, 0.35591205954551697, 1.2799338102340698, -0.00034807759220711887, -0.27942535281181335, -0.09964493662118912, 0.09023037552833557, 0.4009073078632355, 0.08753592520952225, 0.15123148262500763, -0.2550346553325653, -0.14597269892692566, -0.3116883337497711, -2.1819381713867188, -0.07467134296894073, 0.014031375758349895, 0.0899958536028862, 0.0013743290910497308, 0.0005176643608137965, -0.01570051535964012, -0.006434162613004446, -0.03844991326332092, 0.05053925886750221, -0.6499481797218323], [0.005367392208427191, -0.01181071251630783, -0.010456182062625885, 0.008082112297415733, 0.01026018988341093, -0.004534103441983461, -0.005309235770255327, 0.014749851077795029, 0.009129712358117104, 0.003552576992660761, -0.0004328689246904105, 0.007975024171173573, 0.0095522440969944, -0.000506698212120682, -0.00728382496163249, 0.006726864259690046, 0.004687573295086622, 0.00611225888133049, -0.012886058539152145, 0.009407151490449905, -0.033338066190481186, -0.0023286191280931234, 0.0067415083758533, -0.005936651024967432, -0.006061791907995939, 0.005803353153169155, -0.0013489912962540984, -0.009973819367587566, -0.004820629023015499, 0.0014836486661806703, 0.002955501899123192, -0.003958851099014282, 0.007672620937228203, -0.005380390677601099, -0.008485494181513786, -0.003950193058699369, -0.0007267915643751621, 0.004333384335041046, 6.473211396951228e-05, 0.0030107891652733088], [0.2069350928068161, -0.1923079937696457, -0.08729922771453857, -0.027101214975118637, -0.030641630291938782, -0.16220588982105255, 0.06067687273025513, -0.016756143420934677, -0.030084697529673576, -0.04184206947684288, -0.030203040689229965, -0.026505226269364357, -0.08051767200231552, -0.03906502202153206, 0.1709415763616562, -0.15754103660583496, 0.2923600971698761, 0.17689159512519836, -0.022628210484981537, -0.030922578647732735, 0.29313746094703674, -0.005904873367398977, 0.17970779538154602, -0.26294049620628357, 0.1818361133337021, 0.09261814504861832, 0.06362275034189224, -0.09163724631071091, -0.07807176560163498, 0.19841140508651733, 0.08647849410772324, -0.007401375565677881, 0.10341104120016098, 0.0226384699344635, 0.028751356527209282, -0.006713744252920151, 0.07588900625705719, 0.103121317923069, 0.12963518500328064, 0.02255956269800663], [0.07226346433162689, 0.17611990869045258, -0.11209647357463837, -0.003161367727443576, -0.003686038311570883, 0.009111992083489895, -0.10166652500629425, -0.306558758020401, -0.003473949618637562, 0.0014565563760697842, -0.12337162345647812, -0.0031584659591317177, 0.003136087441816926, 0.049081407487392426, -0.11020970344543457, 0.41241350769996643, 0.01767599768936634, -0.12520882487297058, -0.0845685750246048, -0.003547759260982275, -0.013374601490795612, -0.1596848964691162, -0.1647486388683319, -0.34886208176612854, 0.028517678380012512, -0.04833199828863144, -0.116075798869133, 0.04701632633805275, -0.0695221945643425, -0.33484771847724915, -0.014806647785007954, -0.0803123489022255, -0.013055868446826935, 0.002118507167324424, 0.0033072286751121283, 0.024182869121432304, 0.09000099450349808, -0.02270139381289482, 0.032640740275382996, -0.17370736598968506], [0.05072721466422081, -0.15392084419727325, 0.053383227437734604, -0.007106317672878504, -0.006497515831142664, 0.09358761459589005, -0.04981827363371849, 0.10893840342760086, -0.007352709304541349, -0.01737401820719242, -0.020872389897704124, -0.007001083344221115, 0.09916970878839493, 0.044754594564437866, -0.024582020938396454, -0.16509023308753967, 0.12156915664672852, 0.04882228001952171, -0.16888053715229034, -0.007407621014863253, 0.10391582548618317, -0.0048020947724580765, 0.2568657100200653, 0.08024654537439346, -0.02526027336716652, -0.04156951606273651, 0.24601976573467255, 0.15956130623817444, -0.0008127315086312592, -0.004123280756175518, -0.054054997861385345, 0.03241518884897232, -0.019190188497304916, 0.006466775666922331, 0.007339388597756624, -0.01958191581070423, 0.05695397034287453, -0.048217158764600754, -0.05506034195423126, -0.1664762943983078], [0.038169097155332565, 0.01814325898885727, -0.05912259593605995, -0.0013192142359912395, -0.0011047584703192115, -0.014676978811621666, -0.07302860915660858, -0.022990867495536804, -0.001268578926101327, 0.03800463676452637, 0.13570953905582428, 