{"model_data": {"model": "SimpleRNN", "input_size": 2, "skip": 1, "output_size": 1, "unit_type": "LSTM", "num_layers": 1, "hidden_size": 40, "bias_fl": true}, "state_dict": {"rec.weight_ih_l0": [[-0.41251736879348755, 0.21565355360507965], [0.17458096146583557, -0.6323117017745972], [4.020138533178397e-07, -9.008692359202541e-06], [0.03881159424781799, 0.2103184461593628], [0.010512708686292171, -0.13882765173912048], [0.005880976095795631, 0.16411159932613373], [-0.013389403000473976, -0.08119209110736847], [-0.019740531221032143, 0.21596702933311462], [0.07695889472961426, 0.4795120060443878], [0.0005232699913904071, 0.24746933579444885], [2.960770189019968e-07, -9.854204108705744e-06], [0.043964236974716187, -0.19784896075725555], [-0.005387470591813326, -0.0028958041220903397], [0.09616661071777344, 0.02422010526061058], [0.055125318467617035, 0.10973578691482544], [0.11983095854520798, 0.2338065356016159], [-9.520706356624942e-08, -6.250750629988033e-06], [-0.10636497288942337, -0.06904996931552887], [6.952444095986721e-07, -9.038617463374976e-06], [0.08468836545944214, 0.19460880756378174], [9.035999681827889e-08, -3.998899501311826e-06], [0.023121993988752365, -0.15266850590705872], [0.18083713948726654, 0.23309025168418884], [-0.03186111897230148, -0.32217103242874146], [-0.0028087464161217213, -0.42118895053863525], [-0.058496665209531784, -0.6720997095108032], [-0.03516281768679619, 0.177192822098732], [0.00432142149657011, -0.09632043540477753], [-0.09413362294435501, -0.12019387632608414], [0.1336303949356079, -0.4892653226852417], [0.027198417112231255, 0.059860456734895706], [0.03512053191661835, -0.2260499745607376], [1.5020928856301907e-07, -6.02772115598782e-06], [5.255038786344812e-07, -1.0049610864371061e-05], [3.6108571066506556e-07, -6.939556897123111e-06], [-1.7252042994186922e-07, -4.1367065932718106e-06], [0.030989255756139755, -0.47378894686698914], [1.2482848887884757e-07, -4.368207555671688e-06], [0.011315925978124142, -0.10126340389251709], [0.013120932504534721, -0.03613009676337242], [-0.12422562390565872, 0.159853994846344], [-0.04248644784092903, 1.049791932106018], [3.233788277157146e-07, -8.465022801829036e-06], [0.02272365242242813, 0.13127347826957703], [-0.04831402003765106, 0.07404285669326782], [-0.05369371548295021, 0.20758911967277527], [0.02523846924304962, -0.06906469166278839], [0.003140591084957123, 0.2725673019886017], [-0.03767595812678337, 0.21494725346565247], [-0.07323775440454483, 0.13659517467021942], [2.76188558245849e-07, -9.312344445788767e-06], [-0.06469888240098953, 0.15053297579288483], [0.015577324666082859, -0.2917606234550476], [0.14383919537067413, -0.01188893336802721], [-0.04419388994574547, -0.2347671389579773], [0.0021782093681395054, 0.3906134366989136], [-1.2407009819526138e-07, -6.036371360096382e-06], [-0.0380060039460659, 0.1267232745885849], [6.647559871453268e-07, -8.799938768788707e-06], [-0.10645019263029099, 0.5746068358421326], [7.83510358814965e-08, -3.702143203554442e-06], [-0.07722692936658859, -0.03753636032342911], [0.07311198860406876, 0.33234795928001404], [0.042876482009887695, 0.11126916110515594], [0.01238399837166071, 0.37914830446243286], [0.01018341165035963, 0.7272049188613892], [-0.012094633653759956, -0.08194909989833832], [-0.02038399502635002, 0.21406510472297668], [0.08219113200902939, 0.20617294311523438], [-0.01410541869699955, -0.12560074031352997], [0.0016287151956930757, 0.0806780457496643], [-0.021152857691049576, 0.07017682492733002], [1.0346906975655656e-07, -5.754377980338177e-06], [4.88971807044436e-07, -9.013957424031105e-06], [3.2606459399175947e-07, -6.537918125104625e-06], [-1.8291878234322212e-07, -3.913182354153832e-06], [0.0026906542479991913, 0.3762260377407074], [4.406881615182101e-08, -3.9142873902164865e-06], [-0.05488196015357971, 0.2668243944644928], [-0.03957122936844826, 0.14875617623329163], [-0.8004564642906189, 0.14980928599834442], [0.49651384353637695, -0.006755995564162731], [-0.0002455388312228024, -3.962595292250626e-05], [-0.34661808609962463, -0.061219360679388046], [-0.007985237054526806, 0.11517037451267242], [-0.06894604861736298, -0.04621744528412819], [-0.003067029407247901, 0.7726320624351501], [-0.2588145136833191, -0.025400876998901367], [0.039077527821063995, -0.46281227469444275], [0.05720069631934166, 0.1495281308889389], [0.000190785649465397, -7.613389607286081e-05], [0.026525357738137245, -0.11411753296852112], [-0.022683849558234215, -0.01159205473959446], [0.6596801280975342, 0.04776803031563759], [0.007967147044837475, -0.05619494989514351], [0.23439547419548035, 0.12192028760910034], [0.00012131645780755207, 4.090585935045965e-05], [-0.1250341683626175, -0.055053479969501495], [-0.00012853114458266646, 7.974649633979425e-05], [0.1396719217300415, 0.0449945330619812], [-0.00011811475269496441, 5.7711429690243676e-05], [0.02751639485359192, -0.0562489815056324], [0.2295321375131607, 0.011948248371481895], [0.20571725070476532, 0.040100835263729095], [0.02538076974451542, 0.0602806881070137], [0.14536108076572418, 0.05498645827174187], [-0.25825369358062744, 0.005961358081549406], [0.08187337219715118, 0.011280913837254047], [0.14598406851291656, -0.0024751871824264526], [-0.021896841004490852, 0.05270588397979736], [0.08844520896673203, -0.05854490399360657], [0.09662159532308578, -0.11866145581007004], [-8.657034049974754e-05, -0.0002321998035768047], [-0.0002455428766552359, 0.00013759813737124205], [0.00011439831723691896, 0.00016906943346839398], [-0.000102898949990049, -0.00011743679351639003], [-0.34024426341056824, 0.028572963550686836], [-0.00016086881805676967, 0.00015951452951412648], [-0.14101803302764893, 0.16464710235595703], [-0.04824477434158325, -0.03550087660551071], [-0.21692027151584625, 0.21608568727970123], [-0.06554454565048218, 0.2661089599132538], [2.6789572871166456e-07, -9.012068403535523e-06], [0.008159467950463295, 0.1899806708097458], [0.013102548196911812, 0.1132347509264946], [-0.04440321400761604, 0.22126011550426483], [0.015234658494591713, -0.6248447895050049], [0.0036251808051019907, 0.22658543288707733], [0.05746125802397728, -0.23559795320034027], [-0.025749150663614273, 0.25612059235572815], [3.1785245369064796e-07, -9.858365046966355e-06], [-0.016094081103801727, 0.046199981123209], [0.09668777883052826, 0.03601018711924553], [0.10947217047214508, 0.08318808674812317], [0.05840735137462616, 0.2477317601442337], [0.04929031804203987, 0.22544293105602264], [-2.2543696687193915e-08, -6.255609605432255e-06], [-0.025856314226984978, -0.02457105554640293], [7.684187721679336e-07, -9.04127136891475e-06], [0.03800664469599724, 0.27855780720710754], [9.49800735838835e-08, -4.002879450126784e-06], [0.005315819755196571, -0.0513843297958374], [0.13028205931186676, 0.24903292953968048], [-0.019704166799783707, 0.46744075417518616], [-0.02302313782274723, -0.04107099398970604], [0.04989094287157059, 0.13338448107242584], [-0.03893338888883591, 0.18519747257232666], [-0.29789355397224426, -0.5768856406211853], [-0.035638466477394104, 0.04472470283508301], [-0.027179690077900887, -0.21928854286670685], [0.013957338407635689, 0.10856708139181137], [0.04144870117306709, 0.01172606460750103], [5.2556998753061634e-08, -6.031501015968388e-06], [5.073982833891932e-07, -1.0052848665509373e-05], [3.741912735222286e-07, -6.94234176989994e-06], [-1.456851492775968e-07, -4.141013505432056e-06], [0.011405966244637966, 0.2662732005119324], [9.915063969856419e-08, -4.371580416773213e-06], [0.07151943445205688, -0.1497558355331421], [0.02317657880485058, 0.09004999697208405]], "rec.weight_hh_l0": [[0.03667010739445686, -0.027915364131331444, -7.84547592047602e-06, 0.0976242646574974, 0.04544708877801895, -0.009950799867510796, 0.021875372156500816, 0.08980059623718262, 0.00040335432277061045, -0.00528420927003026, 5.78016770305112e-05, 0.002631327137351036, 0.08591926842927933, -0.013617473654448986, -0.010515906848013401, -0.06672504544258118, -2.7462994694360532e-05, -0.03761332109570503, -2.6655663532437757e-05, -0.00027497028349898756, 4.468151382752694e-05, -0.05183755233883858, -0.014937684871256351, 0.010065460577607155, 0.0049107312224805355, 0.04742478206753731, 0.06749778240919113, 0.012641764245927334, -0.019490430131554604, -0.017093755304813385, -0.054818108677864075, -0.01961754821240902, -3.58951001544483e-05, -3.087451113970019e-05, 3.0458206310868263e-05, 9.086335012398195e-06, -0.046361614018678665, 3.968150122091174e-05, -0.0004275773244444281, 0.025870464742183685], [0.12346023321151733, 0.0956244245171547, 0.00018634495791047812, -0.031274713575839996, -0.15878620743751526, 0.06941675394773483, -0.20958292484283447, -0.028550341725349426, -0.11803847551345825, 0.04691047593951225, -0.00029869418358430266, 0.01885688677430153, 0.2817000448703766, 0.1246461421251297, 0.03748275339603424, 0.28786125779151917, -4.510347207542509e-05, 0.3783806562423706, 0.00012873798550572246, -0.046695295721292496, 4.805538628716022e-05, 0.1231362372636795, -0.006796576082706451, 0.015290319919586182, -0.03366789594292641, 0.04333126172423363, -0.02856338582932949, 0.7150219082832336, -0.037314556539058685, -0.14005602896213531, 0.001426058355718851, 0.06795045733451843, -3.0218272513593547e-05, 0.0002513538347557187, 0.00010961484076688066, -5.644483826472424e-05, 0.05886697769165039, 0.0003056880086660385, 0.1776765137910843, 0.07104324549436569], [8.720364803593839e-07, -7.473787633216489e-08, -3.781815485770501e-11, -8.126518764584034e-07, 2.5805002223933116e-07, 1.4779887180793594e-07, -4.042524778924417e-06, 1.0744486900193806e-07, 3.229967830975511e-07, -3.2512576808585436e-07, -6.714065969859462e-10, -1.4890283637214452e-06, 2.560289203756838e-06, 1.637723414660286e-07, 9.54944766817789e-07, 7.935737755815353e-08, 5.83680187515867e-11, 2.418331405351637e-06, 5.06470920758062e-10, 4.724534790057078e-07, -3.183052432742528e-10, -6.481214427367377e-07, 6.90747157250371e-08, -7.146642388988766e-08, 1.9800653205948038e-07, 1.8473623697445873e-07, -3.5076644167020277e-07, 6.837911314505618e-06, -5.420835123004508e-07, -5.185525537854119e-07, 1.1360457392584067e-06, 3.186925994214107e-07, -9.544601220490279e-11, 1.9339098378257091e-10, -1.1898371177210265e-10, -1.1660912513367094e-10, -1.4017972205238038e-07, -4.313365289942972e-11, 9.022657536661427e-07, 1.3066164683550596e-07], [0.09745179861783981, 0.03139657527208328, 7.14314637662028e-06, -0.060029834508895874, 0.050004854798316956, -0.03955294191837311, -0.025198044255375862, -0.044954150915145874, 0.0872650295495987, 0.005189511924982071, -6.196861795615405e-05, 0.006363560911267996, -0.13184623420238495, 0.07096121460199356, -0.11062971502542496, -0.014014122076332569, 2.7901412977371365e-05, 0.01703486405313015, -3.123160922768875e-06, -0.055001188069581985, 2.5799035938689485e-06, 0.015202009119093418, 0.045255545526742935, -0.020598871633410454, -0.0025700910482555628, 0.11479057371616364, -0.013321495614945889, -0.18451780080795288, 0.044297344982624054, 0.02474559098482132, 0.0057565257884562016, -0.009519563056528568, -5.465879803523421e-05, 4.415746298036538e-05, 2.9404260203591548e-05, -5.015536953578703e-05, -0.0022600742522627115, 1.0234622095595114e-05, 0.1707630157470703, -0.03424075245857239], [0.1401272863149643, 0.10757646709680557, -0.0001190980983665213, 0.028034865856170654, -0.0031321393325924873, 0.024576151743531227, -0.04766565561294556, -0.04048445075750351, 0.09209904819726944, -0.013501892797648907, 0.00010792633111122996, 0.01751193404197693, 0.032972369343042374, 0.030092528089880943, -0.06789980828762054, 0.07948031276464462, -6.468110950663686e-05, 0.11606556922197342, -6.199812196427956e-05, -0.11146824061870575, 7.749367068754509e-05, -0.043581772595644, -0.01955106295645237, -0.07860329002141953, -0.09271817654371262, 0.027981171384453773, -0.06906119734048843, 0.050596751272678375, -0.03215153142809868, -0.031053997576236725, 0.08184705674648285, -0.01200033724308014, -1.8176798732838506e-07, -9.924294135998935e-05, -3.330568506498821e-05, 7.42440897738561e-05, 0.04444372281432152, -0.00012040058936690912, -0.07569656521081924, -0.011329145170748234], [0.016422748565673828, 0.018712911754846573, 7.350485975621268e-05, 0.01068913098424673, 0.023955045267939568, 0.021521959453821182, 0.004190579988062382, -0.051834166049957275, -0.0072460114024579525, -0.00859963521361351, -5.1375081966398284e-05, 0.0564986951649189, -0.0031904191710054874, 0.004895779304206371, 0.04280167818069458, 0.03727073222398758, -6.0858561482746154e-05, 0.02530546858906746, 7.092377200024202e-05, -0.06740077584981918, 5.853028778801672e-05, 0.0008739986806176603, 0.0111940773203969, -0.025099344551563263, -0.03716881200671196, 0.007447539828717709, -0.028881628066301346, -0.11522330343723297, 0.0063094268552958965, -0.0003668838180601597, 0.04572917893528938, -0.013032970950007439, 5.410143785411492e-05, 9.698270150693133e-05, -5.6755307014100254e-05, 1.569497362652328e-05, -0.03125140070915222, 8.215380512410775e-05, -0.10543712228536606, 0.016125917434692383], [0.024875406175851822, 0.054817039519548416, 1.456911013519857e-05, -0.017987960949540138, -0.013806392438709736, 0.037163496017456055, -0.03320184350013733, 0.035052619874477386, 0.0623539574444294, 0.03918119892477989, -0.00015612374409101903, 0.10469833761453629, -0.02088961936533451, -0.01638711616396904, 0.15766096115112305, -0.04081951454281807, -0.00021294268663041294, -0.044413208961486816, 0.0002839680528268218, 0.016672544181346893, 0.00012802606215700507, 0.08111896365880966, 0.016386643052101135, -0.0004897424369119108, -0.06310025602579117, -0.0734504908323288, 0.03854033723473549, -0.19595210254192352, 0.003527652006596327, -0.059976499527692795, -0.016122957691550255, 0.04956531897187233, 5.0161244871560484e-05, -6.841656130518459e-08, -0.0002019490784732625, 0.00013053581642452627, -0.03684292361140251, 3.0449564292212017e-05, -0.2606666684150696, 0.0719316303730011], [0.021829210221767426, 0.009906820021569729, 3.1836887501413e-05, -0.0011719291796907783, -0.013837732374668121, -0.01574523001909256, 0.05307181552052498, 0.012918157503008842, 0.015354393981397152, 0.007554951123893261, -5.5999749747570604e-05, 0.014301203191280365, -0.05592416971921921, 0.027424590662121773, -0.019944921135902405, 0.02711283601820469, 5.252861683402443e-06, -0.031020130962133408, 3.403792652534321e-05, -0.022436561062932014, -1.639100446482189e-05, -0.002272362355142832, -0.011220584623515606, -0.016127046197652817, -0.06278711557388306, 0.05979268252849579, 0.00368873355910182, -0.12401965260505676, 0.01768680289387703, 0.010542217642068863, -0.0018049470381811261, 0.002663480117917061, -9.880761353997514e-06, 4.956388511345722e-05, 2.716787093959283e-06, -1.4004711374582257e-05, 0.005303421523422003, 1.9791315935435705e-05, 0.039041757583618164, -0.005402734037488699], [-0.019663222134113312, -0.001954085426405072, -2.020291140070185e-05, 0.014233783818781376, 0.02522801235318184, 0.04231865704059601, 0.23544888198375702, 0.005977766588330269, -0.10574083775281906, 0.02361232601106167, 2.7697335099219345e-05, -0.010993197560310364, -0.17082810401916504, 0.05351696163415909, -0.04862232506275177, 0.04287241771817207, -5.167111521586776e-05, -0.04721726477146149, 1.4651037417934276e-05, 0.07868324220180511, 2.5740659111761488e-05, -0.011799969710409641, -0.00891814660280943, -0.03231789544224739, -0.039809249341487885, 0.06798721849918365, 0.06812721490859985, -0.13935934007167816, 0.009231512434780598, -0.0003407879266887903, -0.0125361867249012, 0.019233716651797295, 2.466735713824164e-05, -3.248831853852607e-05, -3.996320810983889e-05, 6.289679004112259e-05, 0.05799095332622528, -4.010225893580355e-05, -0.2014378309249878, 0.016900455579161644], [0.0202742051333189, 0.02739824168384075, 5.9520407376112416e-05, 0.030592922121286392, -0.02485591731965542, 0.017658008262515068, 0.07177004963159561, -0.02041926048696041, 0.027111496776342392, -0.003052351763471961, -6.1364139583020005e-06, 0.04996153712272644, -0.08868015557527542, -0.00608992762863636, -0.014006423763930798, 0.027937939390540123, 2.848896292562131e-05, -0.031054377555847168, -3.038782233488746e-05, -0.02328784205019474, -1.8543067199061625e-05, 0.019856199622154236, 0.0018310900777578354, 0.014465219341218472, -0.04420850798487663, -0.016845984384417534, -0.015705939382314682, -0.24873623251914978, 0.01694006472826004, 0.030964147299528122, -0.004312123171985149, -0.014467321336269379, 3.750023097381927e-05, 5.334272645995952e-05, 1.5715815607109107e-05, -2.4549890440539457e-05, 0.012173108756542206, 4.770838131662458e-05, -0.12791015207767487, 0.001725069829262793], [7.072930543472467e-07, 7.249138178622161e-08, 6.149108999764508e-10, -1.402720926080292e-07, -6.9864247720374806e-09, 8.657951866553049e-08, -4.0030172385741025e-06, 4.8356497472923365e-08, -4.682951271206548e-07, 7.06106959569297e-08, -1.0018722518267964e-09, -8.132543598549091e-07, 3.256849822719232e-06, -6.227494395716349e-07, 4.749650486246537e-07, 7.331443185876196e-08, -2.3901527979042214e-10, 2.3064396827976452e-06, 8.115471628045157e-10, -1.4532106717979332e-07, -9.660806182809623e-11, 7.510174704350447e-09, 1.9619978530727167e-08, -9.963257525669178e-07, -1.3259300324364176e-08, -4.6028225142435986e-07, -2.661488167632342e-07, 6.7588002821139526e-06, -5.832422971252527e-07, -7.101604637682613e-07, 2.745334199971694e-07, 1.6936655811150558e-07, 5.261819313595595e-10, 7.723279793481197e-10, -5.685704684843529e-10, 1.7484692860225692e-10, 3.3447452096879715e-07, 3.5655883801055666e-10, 4.7083514687074057e-07, 2.695162493182579e-07], [0.014313062652945518, -0.03910931199789047, 0.00011448485747678205, -0.007547254208475351, -0.005140935070812702, 0.17135682702064514, -0.0944356769323349, -0.0026340289041399956, 0.05761520564556122, -0.04720984399318695, -3.212900992366485e-05, -0.150412455201149, -0.0026275941636413336, 0.05719885230064392, 0.025714047253131866, 0.0347139909863472, 6.816969835199416e-05, 0.09598129987716675, -3.8274756661849096e-05, 0.00424020504578948, -6.15873868810013e-05, -0.06197492033243179, -0.026107819750905037, 0.18232475221157074, -0.06345242261886597, -0.020299237221479416, -0.09545816481113434, 0.06714345514774323, -0.08839714527130127, 0.049192290753126144, 0.11281963437795639, -0.02658938430249691, 7.886825915193185e-05, 9.210901043843478e-05, 6.571740232175216e-05, -6.228294660104439e-05, 0.1960175633430481, 1.8787706721923314e-05, -0.0918092206120491, 0.020505409687757492], [-0.03110670857131481, -0.028279127553105354, -9.887612577585969e-06, 0.08887550979852676, 0.03729470819234848, -0.02044093981385231, 0.008954588323831558, -0.06181563436985016, 0.03162352740764618, 0.08005223423242569, -4.251050631864928e-05, 0.16025497019290924, -0.2013162076473236, 0.03596338629722595, -0.2607545852661133, -0.07202889770269394, -6.750877946615219e-05, -0.03217994049191475, 4.6421424485743046e-05, 0.019519543275237083, 3.3983382309088483e-05, 0.054643165320158005, -0.027315344661474228, 0.06718306243419647, 0.033829446882009506, -0.12472023069858551, 0.08371175825595856, -0.438524067401886, 0.07442495971918106, 0.0021152545232325792, -0.05074954405426979, -0.04395891726016998, 3.267732245149091e-05, -3.45432163157966e-05, -6.106786167947575e-05, 8.873845945345238e-05, -0.11048713326454163, 1.9951447029598057e-05, 0.023413879796862602, -0.09633968025445938], [-0.038739051669836044, 0.06482943892478943, 4.387980879982933e-06, 0.02379518933594227, -0.01739746518433094, 0.0005847278516739607, -0.023268340155482292, -0.01972472295165062, 0.08958190679550171, 0.002897616708651185, 7.549155270680785e-06, 0.05346843600273132, -0.11167152971029282, 0.015597458928823471, -0.06631585210561752, -0.02573743462562561, -1.5492965758312494e-05, -0.040288254618644714, 6.347897397063207e-06, 0.0065917326137423515, -8.08125150797423e-06, 0.0027838577516376972, 0.00042737324838526547, 0.013400698080658913, -0.03615522384643555, -0.010222084820270538, -0.01846456713974476, -0.36104899644851685, 0.0007227035821415484, 0.026961319148540497, 0.02877158112823963, -0.004068832378834486, 4.7793815610930324e-05, -1.586608232173603e-05, -3.9296544855460525e-05, 2.722167300817091e-05, 0.008214082568883896, -2.7398753445595503e-05, -0.14389637112617493, -0.013824636116623878], [0.1234496608376503, -0.004775705747306347, 7.508307317038998e-05, 0.050045643001794815, 0.010640694759786129, 0.09612253308296204, 0.06828172504901886, -0.07892235368490219, -0.0341830849647522, -0.015676995739340782, 4.373588672024198e-05, 0.07269159704446793, 0.4695866107940674, 0.028910107910633087, -0.004717404488474131, 0.11202816665172577, 0.00012936531857121736, 0.1391887068748474, -0.00013183349801693112, 0.06706999987363815, -0.00010520937212277204, 0.06131306663155556, 0.03634209930896759, 0.015239179134368896, -0.06920615583658218, -0.0895136147737503, -0.03494422137737274, -0.06622130423784256, 0.03890523687005043, 0.0474507212638855, 0.058678556233644485, 0.007630321197211742, 0.0001052102743415162, 5.711959602194838e-05, 6.513725384138525e-05, -0.0001136776409111917, -0.010708987712860107, 0.00010051013668999076, -0.1419890969991684, 0.051938194781541824], [-0.035036005079746246, 0.14935748279094696, 0.00010459819895913824, -0.013504324480891228, 0.03486616909503937, 0.00929239857941866, 0.2029460221529007, 0.0026677423156797886, 0.02567506767809391, 0.01513066329061985, -0.00025631251628510654, -0.06507821381092072, 0.013586829416453838, 0.11183450371026993, 0.0059778220020234585, 0.05324770510196686, -0.0003813788352999836, -0.08586359769105911, 0.0003659550566226244, 0.044713348150253296, 0.0002655622083693743, -0.0402173176407814, 0.11137883365154266, -0.027255913242697716, -0.029458431527018547, 0.1142122745513916, -0.008597842417657375, 0.15426801145076752, -0.04005976766347885, -0.032592907547950745, -0.04443401098251343, -0.013012334704399109, 1.12302259367425e-05, 0.00011826696572825313, -0.00030669226543977857, 0.0002593397512100637, 0.0842408835887909, 0.00011854756303364411, 0.1409824639558792, -0.04131540283560753], [5.567470680034603e-07, -1.2293216400394158e-07, -1.5737745828747762e-10, -6.814423159084981e-08, 2.215551404560756e-07, -3.038408635802625e-07, -2.824788452926441e-06, 1.7634082638551263e-08, -4.246249432071636e-07, 1.329260470583904e-07, 6.106395944449616e-11, -8.044433457143896e-07, 2.4808330181258498e-06, 9.542984003019228e-08, -1.0892500768022728e-06, 7.803040347198476e-08, 4.384232976661906e-10, 1.7353911516693188e-06, -1.7304722932376393e-10, -2.663595353169512e-07, -4.39547148678443e-10, 1.8885263841639244e-07, 7.319079031731235e-08, -4.861718139181903e-07, 6.909674254984566e-08, -8.263450723688948e-08, -8.02741055849765e-08, 4.395986252347939e-06, -2.5248894530705e-07, -9.13538897862054e-08, -5.715912720916094e-08, -1.7943264651876234e-07, -1.9876601753399115e-10, -3.2384813580810246e-11, 2.937662335611435e-10, -3.9926736916662264e-10, -7.812147373442713e-08, -1.6725104634573995e-10, 1.7775124661056907e-06, 7.44659814699844e-07], [0.11417007446289062, -0.10444857180118561, -4.3507239752216265e-05, -0.0942741259932518, -0.039438534528017044, -0.030486654490232468, -0.04991760849952698, -0.05960266292095184, 0.04777000844478607, -0.08268382400274277, 7.706785254413262e-05, 0.02904759719967842, 0.01734425500035286, -0.044395167380571365, -0.041396547108888626, -0.04990307614207268, 6.244740507099777e-05, 0.07757963985204697, -6.212883454281837e-05, -0.03449132293462753, -2.3810933271306567e-05, 0.021812161430716515, -0.10756842792034149, 0.05890680104494095, 0.023428715765476227, -0.13203507661819458, -0.00023098010569810867, -0.06718544661998749, -0.0621175542473793, 0.00857831072062254, 0.049546144902706146, 0.020381491631269455, -6.351241609081626e-05, -5.0283280870644376e-05, 6.681919330731034e-05, -7.15491478331387e-05, -0.03284406289458275, -6.590008752027643e-07, 0.036209024488925934, 0.02035234123468399], [4.952437961946998e-07, 4.227962691061293e-08, 2.080638855650463e-10, -7.3395436395173874e-09, -2.6647200002116733e-08, -6.823977116710012e-08, -3.698341970448382e-06, 8.20455099415085e-08, -6.273382950894302e-07, 1.4118431579390744e-07, -5.394408808534479e-10, -6.127068559180771e-07, 3.1997033147490583e-06, -7.921563138779675e-08, -2.057294210544569e-07, 2.9027768277956056e-07, -5.9994570075772025e-12, 2.097586957461317e-06, 5.093009347589827e-10, -2.7439352834335295e-07, -2.558469269775543e-10, 3.2167793051485205e-07, 1.7741361091339058e-07, -8.295084512610629e-07, -1.3782717189769755e-07, -1.1457628090738581e-07, -2.448958014156233e-07, 5.97920779910055e-06, -1.542062335602168e-07, -4.527500436779519e-07, -3.062823594746078e-08, -1.268283398303538e-07, 2.5772470269025405e-10, 3.4218172739741703e-10, -2.589378989004132e-10, -2.114429464850076e-11, 3.959603134262579e-08, 5.51186249420077e-11, 7.474068866031303e-07, 6.077278271732212e-07], [0.09697932004928589, 0.21690426766872406, -4.783837721333839e-05, -0.08646855503320694, -0.018465446308255196, 0.014382720924913883, 0.17407116293907166, -0.01684097945690155, -0.04968255013227463, -0.11109637469053268, 4.5182347093941644e-05, 0.01613020896911621, 0.22445961833000183, 0.02648754045367241, -0.01840529963374138, 0.1511334329843521, 3.5452150768833235e-05, 0.15901587903499603, -7.727741831331514e-06, -0.07563386112451553, -1.5473929124709684e-06, -0.008413393050432205, -0.002582313260063529, -0.1201234981417656, 0.04398420453071594, 0.08436686545610428, -0.005640982650220394, 0.02667529508471489, 0.12533985078334808, 0.09190300107002258, 0.026795849204063416, 0.020922014489769936, -0.00011163159797433764, -3.2834075682330877e-05, 6.750892498530447e-05, -4.980797893949784e-05, 0.01751113124191761, -1.0507988008612301e-05, 0.16727642714977264, 0.04426491633057594], [3.753231681002944e-07, -8.544301977053692e-08, -2.4050902935890406e-10, -2.521151145629119e-07, 1.195147376620298e-07, -1.4740103893018386e-07, -1.8777432160277385e-06, 2.122303222051869e-09, -4.5601018427987583e-07, -8.028452214148274e-08, 1.916150571545927e-10, -5.711964945476211e-07, 1.513862116553355e-06, 1.0902328995143762e-07, -5.889636440770118e-07, 1.3272465082536655e-07, 3.9548203600858756e-10, 1.2099866353310063e-06, -2.1357618451567362e-10, -8.986395272359005e-08, -3.7125216789668514e-10, 2.180392471018422e-07, 8.427824838008746e-08, -3.5072275750280824e-07, 7.956601422165477e-08, -1.53238612909945e-08, -1.4553059202171426e-07, 3.091496182605624e-06, -1.341339128657637e-07, 9.795003919066403e-09, 7.538982771393421e-08, -1.4441548046306707e-07, -2.6195617897073475e-10, -1.7394945206472556e-10, 3.2774516434130874e-10, -3.782134883056898e-10, -1.4113382462710433e-07, -1.7953429021222433e-10, 1.3684389159607235e-06, 5.878207502973964e-07], [0.06879518181085587, 0.11566165834665298, -5.40911169082392e-05, 0.011746369302272797, -0.06724009662866592, 0.003598594106733799, -0.2263588160276413, -0.00937679409980774, 0.01785491779446602, 0.024207396432757378, 7.945423567434773e-05, 0.11182662844657898, 0.0439944751560688, 0.015058961696922779, -0.05316080152988434, 0.044122934341430664, 8.809114660834894e-06, 0.01937093958258629, -6.906860653543845e-05, -0.04632265493273735, 2.5831788661889732e-05, -0.007628004997968674, -0.012228298932313919, -0.006802833639085293, -0.11891502887010574, 0.053243089467287064, -0.039404891431331635, -0.13540510833263397, -0.09523801505565643, -0.06545908004045486, 0.021005524322390556, -0.023473337292671204, 2.6086059733643197e-05, -3.823036604444496e-05, 1.2404279914335348e-05, -1.1149472811666783e-05, -0.001559027354232967, -5.350862193154171e-05, -0.11312929540872574, -0.028821172192692757], [0.021221214905381203, 0.039253078401088715, -6.947511792532168e-06, 0.010680931620299816, 0.09605072438716888, 0.002502088202163577, 0.028446663171052933, -0.07839599251747131, -0.007129752077162266, 0.011754428036510944, 2.709882755880244e-05, -0.027129584923386574, -0.029189765453338623, 0.10587503015995026, -0.021392475813627243, 0.1398068219423294, 8.766080281930044e-05, 0.07568711042404175, -4.584221096592955e-05, 0.022111115977168083, -5.1297452046128456e-06, 0.043087199330329895, 0.06192639470100403, -0.05048706382513046, 0.046697601675987244, 0.0964650884270668, -0.02158590964972973, 0.008959757164120674, 0.17473691701889038, 0.07148934155702591, 0.041338685899972916, 0.008354254066944122, -7.323660247493535e-05, 2.9270706363604404e-05, 2.8961343559785746e-05, -7.923343946458772e-05, 0.003924671094864607, -4.351383267930942e-06, 0.15952801704406738, -0.004069477319717407], [0.006524309050291777, 0.1452961266040802, -0.0001004759906209074, -0.03649129718542099, 0.04545501619577408, -0.31240442395210266, 0.17459627985954285, -0.0048740035854279995, 0.2136203646659851, 0.056658219546079636, 2.618663347675465e-05, -0.23506300151348114, -0.3481990694999695, 0.009312419220805168, -0.14548209309577942, 0.056270960718393326, -6.040994412614964e-05, 0.11678729206323624, -6.499766459455714e-05, 0.1559838503599167, 0.00011047272710129619, 0.0033788394648581743, -0.04549296200275421, -0.1145797148346901, -0.08176448196172714, 0.12667430937290192, 0.08475048840045929, 0.55705326795578, -0.005025360733270645, 0.028255654498934746, -0.03185121342539787, 0.17302314937114716, -0.000267643976258114, -0.00013379564916249365, 0.00017374640447087586, 5.369653445086442e-05, 0.002236107364296913, -6.053131437511183e-05, 0.5217365026473999, -0.2241385132074356], [0.03380202502012253, -0.09212516248226166, -5.658508598571643e-05, 0.003889526706188917, -0.03393694758415222, 0.06821990758180618, -0.16752153635025024, 0.00035560104879550636, -0.04577339068055153, -0.010363496840000153, -2.8613294489332475e-05, 0.022849667817354202, 0.048991959542036057, -0.003148991148918867, 0.015550576150417328, -0.010885571129620075, 9.552545816404745e-05, 0.060844410210847855, -5.3133673645788804e-05, -0.03706829994916916, -0.0001225148153025657, -0.004266361705958843, 0.0036268322728574276, 0.07780605554580688, -0.0661207064986229, -0.021523255854845047, -0.058912329375743866, 0.18017637729644775, 0.014828243292868137, 0.019014816731214523, 0.030087094753980637, -0.07063382118940353, 0.00020336327725090086, -4.724053724203259e-05, 2.154101457563229e-05, -5.0876820751000196e-05, 0.08444108814001083, -3.972171725763474e-06, -0.09074690192937851, 0.029914237558841705], [0.003721838118508458, 0.010539336130023003, -0.000153708882862702, 0.0762462466955185, -0.0656992569565773, -0.046021755784749985, -0.1401994675397873, 0.08820869028568268, -0.027556823566555977, -0.018355045467615128, 7.720877329120412e-05, 0.09743902832269669, 0.30336499214172363, 0.04338302090764046, 0.07520768791437149, 0.07169358432292938, 8.738066389923915e-05, 0.09761188179254532, -0.00015822979912627488, 0.08505290746688843, -0.00017897716315928847, 0.04048491269350052, 0.03667294979095459, 0.11907657235860825, 0.047716397792100906, -0.014286727644503117, -0.0006759453099220991, 0.4371410310268402, -0.05864930897951126, -0.09779344499111176, 0.00723922997713089, 0.021928414702415466, 4.952869130647741e-05, -0.00014728630776517093, 0.00013470118574332446, -8.793344022706151e-05, -0.09985941648483276, -6.970606773393229e-05, 0.029696103185415268, -0.019400298595428467], [-0.036925558000802994, 0.02055938169360161, -9.620742275728844e-06, 0.02024197019636631, 0.009461816400289536, -0.024762460961937904, 0.04796144738793373, -0.00019157640053890646, 0.06044428423047066, 0.0033952551893889904, -8.337735380337108e-06, 0.045904189348220825, -0.10899785906076431, 0.01384346466511488, -0.04923614487051964, -0.06262389570474625, -2.1069416106911376e-05, -0.06200268864631653, 1.4315914995677304e-05, -0.02058439888060093, 1.4415124496736098e-05, -0.014944178983569145, -0.010384263470768929, 0.026422444730997086, -0.011098470538854599, -0.019957955926656723, 0.014963660389184952, -0.28953227400779724, 0.008414828218519688, 0.01839190535247326, -0.007513056974858046, 0.008399049751460552, 1.3053381735517178e-05, -9.360544027003925e-06, -2.3094551579561085e-05, 2.357678022235632e-05, 0.024122819304466248, -2.2124499082565308e-05, -0.11151863634586334, -0.0037709297612309456], [-0.012740721926093102, -0.01862633228302002, -3.0645725928479806e-05, 0.016579387709498405, -0.015852389857172966, -0.008185750804841518, -0.07096138596534729, -0.041855257004499435, -0.0007378171430900693, -0.01550776232033968, -4.725225153379142e-05, 0.05046695098280907, -0.05788801610469818, -0.003808277891948819, -0.021660130470991135, -0.0004894902813248336, -2.0090727048227564e-05, 0.004600015468895435, -2.621548560455267e-07, 0.011342695914208889, -8.609846190665849e-06, 0.024291392415761948, -0.020346825942397118, -0.0002758735790848732, 0.020635191351175308, -0.05211672559380531, 0.00444752024486661, -0.12607772648334503, 0.029935643076896667, 0.026920055970549583, 0.011467932723462582, -0.005188395269215107, -7.19138324711821e-06, -3.4501590562285855e-05, -2.2118849301477894e-05, 5.857769065187313e-05, -0.017049724236130714, -6.779353134334087e-05, 0.0013853535056114197, 0.003373664803802967], [0.0772053524851799, 0.13041265308856964, 5.7695571740623564e-05, 0.007548403460532427, 0.03880130872130394, 0.05786871165037155, -0.12586377561092377, -0.0354757159948349, 0.010522501543164253, -0.02735697664320469, -0.00013526150723919272, 0.04037972912192345, 0.1326758861541748, -0.0635259672999382, -0.08498197793960571, 0.08856577426195145, -0.00011786104005295783, 0.1351262778043747, 0.00011925865692319348, -0.0889398455619812, 3.442081288085319e-05, 0.013452010229229927, -0.01820039190351963, -0.06777026504278183, 0.009334922768175602, -0.0006677155033685267, -0.016142357140779495, 0.1222570464015007, -0.005198346916586161, 0.03357033059000969, 0.0460001565515995, -0.057343918830156326, 0.00011879778321599588, 7.042293145786971e-05, -0.00011126071331091225, 0.00010154800838790834, -0.02517755515873432, -8.70330859470414e-06, 0.013193046674132347, 0.00016251626948360354], [-0.008064191788434982, 0.025077957659959793, 0.0002715915034059435, -0.05498513951897621, -0.05443693697452545, -0.02438807114958763, -0.13926611840724945, -0.09027721732854843, 0.09478886425495148, -0.0726969912648201, 2.0251063688192517e-05, 0.03695013374090195, -0.04144962877035141, -0.07492511719465256, 0.11437766253948212, -0.09264496713876724, 0.000112540801637806, 0.11574701219797134, -0.00011257880396442488, 0.00013091515575069934, -7.691931386943907e-05, 0.044062428176403046, 0.08953548222780228, -0.044683776795864105, 0.035919107496738434, -0.06055162847042084, -0.13710777461528778, -0.04259374365210533, -0.008944595232605934, -0.024797426536679268, 0.07005693018436432, 0.022898156195878983, 5.957986650173552e-05, 0.00026160533889196813, 9.252626477973536e-05, -0.00010220780677627772, -0.05471344292163849, 0.0001303281169384718, 0.0020443187095224857, 0.05832809582352638], [0.04482116177678108, 0.06322479993104935, 2.8939453841303475e-05, 0.016040582209825516, -0.0004239457775838673, -0.010351354256272316, -0.05059536546468735, -0.039673302322626114, 0.06595338135957718, -0.011692643165588379, -5.050958861829713e-05, -0.006000924855470657, -0.0695190504193306, 0.020502842962741852, -0.0398138128221035, 0.014681769534945488, -2.3289388991543092e-05, 0.015292041003704071, 6.002893496770412e-05, -0.05532671883702278, 2.3676242562942207e-05, -0.001239256002008915, 0.008172638714313507, 0.015964394435286522, -0.046193286776542664, 0.0005191309610381722, -0.003614740911871195, -0.1712934523820877, 0.017382752150297165, 0.0005924514844082296, 0.008738369680941105, 0.02511412464082241, -1.6193976989598013e-05, 4.678389086620882e-05, -4.613297278410755e-05, -1.260164935956709e-06, 0.01521124318242073, 1.7210648366017267e-05, -0.049350593239068985, -0.012975760735571384], [0.09095948934555054, 0.10395301878452301, 1.5687907080064178e-06, 0.0077955713495612144, -0.056586362421512604, 0.10224364697933197, -0.10822540521621704, -0.016214989125728607, -0.03237712010741234, 0.03014443814754486, 8.002624235814437e-05, 0.12283575534820557, 0.08630082756280899, -0.003538994351401925, 0.00374023150652647, 0.04820651933550835, 9.103616321226582e-05, 0.07278265804052353, -0.0001397081941831857, -0.09291832894086838, -5.3021893108962104e-05, 0.016294684261083603, 0.03232578560709953, -0.032428499311208725, -0.16675135493278503, 0.003834978211671114, -0.05696949362754822, -0.07178507000207901, -0.07855687290430069, -0.047529906034469604, 0.03205433115363121, -0.05871674045920372, -2.2791437004343607e-05, 1.7932279661181383e-05, 6.386302993632853e-05, -6.678410863969475e-05, -0.01576034538447857, 2.327718902961351e-05, -0.16856177151203156, -0.015319588594138622], [6.895105002513446e-07, -1.0285731377734919e-07, -1.699586860137714e-10, -6.632033091591438e-07, 2.7606989760897704e-07, 6.613402803168356e-08, -2.9324780825845664e-06, 2.0864659333597046e-08, -3.401024457616586e-07, -2.3406467164477363e-07, -2.9193589212717086e-10, -7.842448894734844e-07, 8.559268849239743e-07, 2.1789524851101305e-08, 5.311878794600489e-07, -1.406308598461692e-07, 2.1578250297693558e-10, 1.8646275066203088e-06, 1.2192748199968406e-10, 1.1432460667037958e-07, -3.104768109274403e-10, -3.7301032307368587e-07, 1.0012272610993023e-07, -1.6036513272865704e-07, 3.3036178592737997e-07, -2.4434937628825537e-08, -2.7187002160644624e-07, 4.5189863158157095e-06, -3.3352390005347843e-07, -2.728029357967898e-07, 7.953465797072568e-07, 3.653125304481364e-07, -2.6224350468950774e-10, 2.924815337840281e-12, 1.2596804155329266e-10, -2.371759177943744e-10, -3.6351190146888257e-07, -1.143131561631705e-10, 1.7263355402974412e-06, -3.5022715394461557e-08], [9.61556906986516e-07, 1.047062241354979e-07, 1.7419615749858508e-10, -7.70768053826032e-07, 1.8792900391417788e-07, 1.5985108348104404e-07, -4.312598321121186e-06, 2.832228744864551e-07, 2.284867832713644e-07, -2.5483328158770746e-07, -8.082826075117566e-10, -1.742225776979467e-06, 3.114340643151081e-06, 1.226543702159688e-07, 1.087121518139611e-06, 2.2484559281110705e-07, -8.081520175284851e-11, 2.508557145119994e-06, 7.006622504412974e-10, 3.776242749609082e-07, -2.289825412615798e-10, -5.862485181751254e-07, -4.189593116876722e-09, -3.4989537311957974e-07, -5.965079541425666e-09, 2.8304705779191863e-07, -3.2439314168186684e-07, 7.714047569606919e-06, -6.063835371605819e-07, -5.985579605294333e-07, 1.0019259661930846e-06, 2.9964576242491603e-07, 8.904092047012924e-11, 4.004365172782798e-10, -2.899634421460462e-10, -8.62741041801618e-12, 2.3207392985113984e-07, 1.228140922293619e-10, 4.644702755740582e-07, 2.711041702241346e-07], [4.2986960124835605e-07, -3.0530248551485784e-08, 2.928052592054975e-11, -2.8666698881352204e-07, 7.352144848482567e-08, -1.5635443162409501e-07, -2.9878199256927473e-06, 5.7995396929300114e-08, -7.237831596285105e-07, 4.322270541479156e-08, -3.0071742318504846e-10, -5.767511197518616e-07, 2.171180540244677e-06, -7.045581895681607e-08, -5.255612904875306e-07, -3.57542830897728e-08, 2.129181830845539e-10, 1.792314947124396e-06, 1.4008826043632183e-10, -1.3538661391976348e-07, -3.261667047560479e-10, 2.112937380616131e-07, 2.1118235338235536e-07, -6.71530528961739e-07, -1.0268722760997662e-08, -1.608861595059352e-07, -2.0785820709079417e-07, 4.892788638244383e-06, -2.924986404195806e-07, -2.90947241410322e-07, 2.4287377442533398e-08, -1.2717665143213708e-08, -2.934515130892379e-11, 1.6850744410934482e-10, 3.7415473497226515e-11, -1.9340752610563783e-10, -1.8316988814603974e-08, -4.950615958843052e-11, 1.3388771549216472e-06, 5.650045409311133e-07], [3.718055836543499e-07, -1.0943323758283441e-07, -5.568493235963423e-11, -2.000551191372324e-08, 1.3922881691996736e-07, -1.7532524054786336e-07, -1.7612152305446216e-06, 2.259838716156537e-08, -3.0718655352757196e-07, 1.3899875739298295e-07, 3.83751754332029e-12, -5.41828626410279e-07, 1.6226703110078233e-06, 2.5493525068753797e-09, -7.091667271197366e-07, 8.645566929033066e-09, 2.6132498942565974e-10, 1.1586746495595435e-06, -8.951136359902634e-11, -1.4663675074189086e-07, -2.6684879306237974e-10, 4.27044604123239e-08, 6.841629840437236e-08, -3.229344542887702e-07, 7.205324692449722e-08, -7.202834950703618e-08, -4.372876460934094e-08, 2.9579834972537355e-06, -2.275195356560289e-07, -1.0202228395428392e-07, -4.29963762371699e-08, -7.068690166533997e-08, -8.77234881957456e-11, 2.2498492652234248e-11, 1.546627409476642e-10, -2.3644700086755677e-10, 4.407909870440818e-10, -7.741531721228156e-11, 1.1795019645433058e-06, 4.578522805331886e-07], [0.11733944714069366, 0.12252123653888702, -0.0001619753602426499, -0.021594000980257988, 0.21922990679740906, 0.19015870988368988, 0.1838495135307312, -0.0652448832988739, 0.03278295695781708, 0.0321451760828495, 0.00014567890320904553, -0.3221289813518524, -0.08169504255056381, 0.002069472335278988, -0.06216186657547951, 0.13890038430690765, 0.00016740763385314494, 0.15714193880558014, -0.0001698758132988587, 0.05557779222726822, -0.00017558960826136172, -0.03595571592450142, 0.04517470300197601, -0.23243078589439392, 0.1081678569316864, 0.14194726943969727, -0.014502537436783314, 0.588157057762146, 0.08344916254281998, 0.11466926336288452, 0.07434703409671783, -0.0448235385119915, 2.954220508399885e-05, -6.51363588985987e-05, 0.00017801982176024467, -0.00013147597201168537, -0.1294637769460678, -2.5907778763212264e-05, 0.12527453899383545, 0.03655211254954338], [5.598572556664294e-07, -6.282630238274578e-08, 1.3796029423029932e-11, -4.340391228652152e-07, 3.3703878443702706e-07, 9.010262402853186e-08, -2.0375000531203113e-06, -5.2581494713876964e-08, -1.5318762791594054e-07, -2.111104038249323e-07, -2.616094563201443e-10, -8.120941288325412e-07, 1.062027308762481e-06, 6.917242956205882e-08, 2.8113063876844535e-07, 5.2430973340733544e-08, 3.353370706116188e-11, 1.2237730970809935e-06, 2.1872284539092846e-10, 2.9329902417885023e-07, -1.1899735363751773e-10, -2.489136932126712e-07, -2.598396520170354e-08, -2.9993921657478495e-07, 1.3023894496200228e-07, 4.3283119310899565e-08, -1.351816365513514e-07, 3.36350694851717e-06, -3.177147789301671e-07, -2.0323773242125753e-07, 5.972567009848717e-07, 1.7215307934748125e-07, -6.09926345540579e-11, 1.3004229637569864e-10, -2.9787845801099166e-11, -9.406096040942558e-11, 1.0625069535308285e-07, 6.021916992837717e-11, 7.030603796920332e-07, 2.6197616875833774e-07], [0.0262905340641737, -0.021892640739679337, 0.00010637810919433832, -0.03149599954485893, -0.05003362149000168, -0.002410470275208354, -0.028198063373565674, 0.02088363841176033, -0.014334890991449356, -0.0017068847082555294, -9.09082154976204e-05, 0.1002880111336708, 0.17032568156719208, 0.014169075526297092, 0.015153823420405388, -0.08148748427629471, -6.433309408748755e-06, -0.018115172162652016, 5.625954145216383e-05, -0.02828129567205906, 3.705667768372223e-05, 0.015560568310320377, 0.01614435948431492, 0.1422613561153412, -0.028705714270472527, -0.11419975012540817, -0.011866412125527859, 0.028591716662049294, -0.037123989313840866, -0.005629603285342455, -0.02295709401369095, -0.005090191960334778, 7.830131653463468e-05, 9.503529145149514e-05, -6.450337241403759e-05, -2.115021970894304e-06, -0.12454859167337418, 6.56306219752878e-05, 0.05056224763393402, -0.006674617063254118], [0.09226422756910324, 0.028659770265221596, -1.8506219930713996e-05, -0.007820800878107548, -0.06670034676790237, 0.02980808913707733, -0.0025683657731860876, -0.04546572268009186, 0.023169025778770447, -0.0312548503279686, 0.00014290357648860663, 0.07396792620420456, 0.037241071462631226, 0.01734974980354309, -0.017431126907467842, 0.01610938459634781, 0.00018606461526360363, 0.07729138433933258, -0.00023105354921426624, -0.049439437687397, -0.0001204254076583311, 0.01717316545546055, 0.00760706327855587, 0.03745708987116814, -0.11508359014987946, -0.017347028478980064, -0.04276108741760254, -0.11555611342191696, -0.09006558358669281, -0.07563143968582153, 0.015150386840105057, -0.016133364289999008, 4.801508111995645e-05, -1.9018843886442482e-05, 9.032333764480427e-05, -0.0001369578531011939, 0.016618065536022186, -1.2682014585152501e-06, -0.13603660464286804, -0.010569915175437927], [-0.016807764768600464, -0.05745634809136391, -1.374714065605076e-05, 0.06702832877635956, 0.00875845830887556, -0.053354185074567795, 0.008870221674442291, 0.05501561239361763, -0.005245591513812542, 0.01390908844769001, 2.5205707061104476e-05, -0.021642709150910378, -0.05724495276808739, -0.019958263263106346, 0.020982423797249794, -0.06457845866680145, -3.1910989491734654e-05, -0.14526192843914032, -7.018547421466792e-06, -0.015612962655723095, 2.4150976969394833e-05, -0.02435489185154438, -0.08845588564872742, 0.026093294844031334, 0.033228613436222076, 0.009709465317428112, 0.06374785304069519, -0.04419604688882828, -0.04983653873205185, -0.02590664103627205, -0.08392278105020523, 0.0021453883964568377, -6.472646782640368e-05, -2.928063622675836e-05, 3.8187845348147675e-05, 2.518568726372905e-05, -0.0698825865983963, 2.907496855186764e-05, -0.01807440258562565, 0.02975638583302498], [0.08151992410421371, 0.05702917277812958, 4.5609391236212105e-05, 0.024494819343090057, -0.01816296949982643, -0.12837953865528107, 0.2857031524181366, 0.02083149366080761, 0.09178921580314636, 0.04318740963935852, -0.00011467835429357365, 0.13859666883945465, -0.44318437576293945, -0.022139253094792366, -0.1525002419948578, 0.015200920403003693, 1.5445977624040097e-05, 0.15738846361637115, 9.850501555774827e-06, 0.11648894846439362, -8.424560655839741e-05, 0.09147286415100098, -0.09064070880413055, -0.1004939079284668, 0.046914663165807724, -0.01780775934457779, 0.10979234427213669, -0.7002153992652893, 0.11102937161922455, 0.13442714512348175, -0.04994267597794533, 0.0772925317287445, 9.962479816749692e-05, 5.938312824582681e-05, 0.00010452797869220376, -1.8474940588930622e-05, 0.020991971716284752, 5.996314939693548e-05, -0.17808067798614502, -0.06562025099992752], [7.796865588716173e-07, -4.546671306115968e-08, 1.231823150427136e-11, -6.826192588960112e-07, 2.5120530722233525e-07, 1.0544824391445218e-07, -3.7741112919320585e-06, 1.3499199269517703e-07, 4.0196999862018856e-07, -2.8627420078919386e-07, -6.54788334664147e-10, -1.4958931160435895e-06, 2.5646579615568044e-06, 1.8663355660919478e-07, 8.512839713148423e-07, 9.029313474684386e-08, 2.7428933690315516e-12, 2.2578176412935136e-06, 5.147356985091278e-10, 4.774393005391175e-07, -2.5729923747164207e-10, -5.561571470025228e-07, 1.0271533312788961e-07, -7.485770936455083e-08, 1.528522801663712e-07, 1.824658539817392e-07, -3.2903042779253155e-07, 6.383010713761905e-06, -5.208613629292813e-07, -4.937614903610665e-07, 1.0048988769995049e-06, 2.499733682270744e-07, -2.407581078944787e-11, 2.2193974436035546e-10, -1.708331254235418e-10, -5.952763976191378e-11, -3.326277919768472e-08, -1.2524964572435682e-11, 6.40819052932784e-07, 2.203181139748267e-07], [-0.06412137299776077, 0.04884426295757294, -3.3400821848772466e-05, -0.07248292863368988, -0.02386843040585518, -0.05150297284126282, -0.10927683115005493, 0.027086062356829643, 0.06234824284911156, -0.010611578822135925, -0.00010348448995500803, -0.0919380709528923, -0.0795678123831749, 0.03758919611573219, -0.09156761318445206, -0.07456143945455551, 5.0371207180432975e-05, -0.14997656643390656, 1.1570958122320008e-05, 0.011488731019198895, -5.1258899475215e-05, -0.03910044580698013, -0.0032340427860617638, -0.0004375553980935365, 0.008400790393352509, 0.08389296382665634, -0.01715845987200737, -0.10716181248426437, -0.02613210119307041, 0.04112543538212776, -0.0037382892332971096, 0.011715056374669075, -0.00010219673276878893, -6.791082114432356e-07, 9.385847806697711e-05, -3.1870222301222384e-05, 0.044110510498285294, -9.518984006717801e-05, 0.18981775641441345, -0.019151318818330765], [-0.03215932101011276, 0.023847147822380066, 6.718270742567256e-05, 0.032238736748695374, 0.023867905139923096, 0.017338529229164124, -0.08275067806243896, -0.03991226106882095, 0.08367227762937546, -0.01253017783164978, 3.273570473538712e-05, -0.0805787667632103, -0.041543785482645035, 0.005428522825241089, -0.12560692429542542, -0.018379315733909607, 9.727849828777835e-05, 0.019668951630592346, -4.4202675780979916e-05, 0.015396762639284134, -0.00010874310100916773, -0.05736937001347542, -0.012773886322975159, 0.029813256114721298, 0.003550763940438628, -0.06125078350305557, -0.020354969426989555, -0.2835339605808258, -0.04463048651814461, 0.0666443482041359, 0.06010309234261513, -0.03670111671090126, -1.400813926011324e-05, 5.868601510883309e-05, 0.00010519535862840712, -6.865886098239571e-05, -0.01223661471158266, -2.3072656404110603e-05, -0.06560031324625015, 0.03752891346812248], [-0.0059371087700128555, -0.031392309814691544, -4.915698809782043e-05, 0.015754641965031624, 0.06209857016801834, -0.06043923273682594, 0.012251317501068115, -0.09743407368659973, 0.0148262744769454, -0.02669481188058853, 1.6554067769902758e-05, -0.013345724903047085, -0.04523969441652298, -0.05405696853995323, 0.020118223503232002, 0.06399645656347275, -1.76416797330603e-05, 0.009964032098650932, 3.0490473363897763e-05, 0.007830106653273106, 5.115893145557493e-05, 0.03602343425154686, -0.002809868659824133, -0.03712666034698486, 0.01861267164349556, -0.020023001357913017, -0.0284623671323061, -0.14573094248771667, 0.02074567787349224, 0.03302551805973053, 0.03044259548187256, -0.0226278156042099, -6.795398803660646e-05, -2.007603870879393e-05, 8.666539542900864e-06, -1.6115653124870732e-05, -0.05379217863082886, -2.0084849893464707e-05, 0.04196614399552345, 0.0015754814958199859], [0.01836664415895939, 0.04183359816670418, 9.46266736718826e-05, -0.017350170761346817, 0.026137668639421463, 0.019561288878321648, -0.0916951596736908, 0.06571502983570099, 0.15700051188468933, 0.09020719677209854, -0.00023820612113922834, 0.035216376185417175, -0.21552133560180664, -0.04069697856903076, 0.16621947288513184, -0.0437794104218483, -0.00011111630010418594, -0.09053129702806473, 0.0002512388746254146, 0.13791318237781525, 2.0608589693438262e-05, 0.11078107357025146, 0.00445577222853899, -0.021169481799006462, -0.08821911364793777, -0.0494682751595974, 0.10158046334981918, -0.21209096908569336, -0.013362782076001167, -0.1187516450881958, -0.044863536953926086, 0.09243973344564438, 4.316116246627644e-05, 9.0173096396029e-05, -0.00013723316078539938, 7.770408410578966e-05, 0.003604625817388296, 3.6781995731871575e-05, -0.28867220878601074, 0.07583444565534592], [0.01053586695343256, -0.004482640419155359, 3.094580824836157e-05, -0.007287333253771067, -0.03846602141857147, -0.0358906015753746, 0.06999962776899338, 0.021918170154094696, 0.04195299744606018, 0.0008867112337611616, -3.701379682752304e-05, 2.2524200176121667e-05, 0.008901940658688545, 0.038333360105752945, -0.00851517729461193, 0.0722498893737793, 2.4439335902570747e-05, -0.029683971777558327, 2.389919472989277e-06, 0.021393941715359688, -1.4584289601771161e-05, 0.00019949166744481772, -0.013500056229531765, -0.008463159203529358, -0.06839174032211304, 0.07947979122400284, 0.004193868022412062, -0.12697097659111023, 0.029021112248301506, 0.025638796389102936, 0.01999792270362377, 0.02283390983939171, -3.8576912629650906e-05, 4.5649194362340495e-05, 2.9560729672084562e-05, -2.1674852177966386e-05, -0.03853750601410866, 1.2053120372002013e-05, 0.10886917263269424, -0.005731763783842325], [-0.09736478328704834, -0.12439246475696564, -0.0002003066911129281, 0.06004641205072403, 0.10954750329256058, 0.0034425072371959686, 0.4087386131286621, -0.030245356261730194, -0.18424904346466064, -0.06566488742828369, 0.00014241108146961778, -0.0048233321867883205, -0.2577490508556366, 0.0864139273762703, -0.2700926661491394, -0.0487801618874073, -0.00014787477266509086, -0.037961140275001526, 6.842875882284716e-05, 0.11726418882608414, 4.1782885091379285e-05, 0.0050045703537762165, -0.050582170486450195, 0.03950602933764458, 0.10706844180822372, 0.026564138010144234, 0.13342128694057465, -0.12116754055023193, 0.04699947312474251, 0.1316944807767868, -0.01266204472631216, -0.020093906670808792, -8.871744648786262e-05, -0.0002734621230047196, -0.00016209408931899816, 0.00019695593800861388, -0.03325393795967102, -0.00027310854056850076, -0.08111830800771713, -0.04244763031601906], [-0.0156010203063488, 0.004821329843252897, 1.859021358541213e-05, 0.034572783857584, -0.007644325494766235, -0.03327561169862747, 0.012306207790970802, -0.008933713659644127, 0.023593392223119736, 0.008181695826351643, -6.845655775578052e-07, -0.04518210515379906, -0.024981096386909485, -0.0024372448679059744, -0.054119739681482315, 0.06307590752840042, 4.9361718993168324e-05, -0.06522084027528763, -2.1823643692187034e-05, 0.04992580786347389, -2.396383206360042e-05, -0.03511151298880577, 0.01928156055510044, -0.014445665292441845, -0.02778705023229122, 0.045382604002952576, 0.0031282922718673944, -0.058123089373111725, 0.05102976784110069, 0.06611458957195282, -0.008137879893183708, -0.02872505970299244, -4.410173642099835e-05, 2.9098076993250288e-05, 5.0733644457068294e-05, -4.6112250856822357e-05, 0.004115324933081865, 1.618864007468801e-05, 0.15595458447933197, -0.02072654664516449], [6.271285997172527e-07, 8.041036636541321e-08, 6.975361399597091e-10, -5.7244736950679e-08, -5.806211333947431e-08, 8.09084639286084e-08, -3.6860242289549205e-06, 4.021882205051952e-08, -3.568066802017711e-07, 8.457361388991558e-08, -1.032627316988055e-09, -7.349400448219967e-07, 3.2108707728184527e-06, -6.499291202999302e-07, 4.5630375211658247e-07, 7.126195100681798e-08, -3.23044757610802e-10, 2.1191599444136955e-06, 8.549283503356264e-10, -1.7884015335312142e-07, -2.4076105692438787e-11, 2.045482361268114e-08, 1.1569787794485364e-08, -9.854890095084556e-07, -4.2203978978250234e-08, -4.811303710994252e-07, -2.592881855889573e-07, 6.288567419687752e-06, -5.707435093427193e-07, -6.922466013747908e-07, 2.2698812074395391e-07, 1.5202309100459388e-07, 6.274357144953058e-10, 8.317360689069631e-10, -6.533897867200267e-10, 2.5802610048586416e-10, 4.0282890267917537e-07, 4.0565198422548576e-10, 1.407487388860318e-07, 3.0114259175206826e-07], [0.003940880298614502, -0.13452890515327454, 6.453715468524024e-05, -0.028322499245405197, 0.012259233742952347, 0.15194985270500183, 0.05657210573554039, -0.027318470180034637, 0.15689636766910553, -0.04964480549097061, -2.957244032586459e-05, -0.25121161341667175, -0.14631737768650055, 0.05581323802471161, -0.06872717291116714, -0.0533362440764904, 0.00010565992852207273, 0.09314797073602676, -2.9407337933662347e-05, 0.09353993088006973, -9.859555575530976e-05, -0.12426052987575531, -0.07751606404781342, 0.26093170046806335, 0.021446088328957558, -0.03360199183225632, -0.05893516540527344, -0.24840258061885834, -0.056048158556222916, 0.08457766473293304, 0.1282515972852707, -0.019791854545474052, 3.107080192421563e-05, 3.942717376048677e-05, 9.696395136415958e-05, -9.533444244880229e-05, 0.24512672424316406, -7.223319698823616e-05, -0.019111361354589462, -0.014171251095831394], [-0.09751685708761215, -0.0465155653655529, 4.104910658497829e-06, 0.09754006564617157, 0.0032125599682331085, -0.15336771309375763, 0.04709835350513458, -0.1322404444217682, 0.2972336411476135, -0.08218685537576675, -0.00011548161273822188, 0.060957398265600204, -0.09316461533308029, -0.0058040074072778225, -0.383585661649704, -0.12079735845327377, -7.21416508895345e-05, -0.056238364428281784, 7.54063730710186e-05, -0.17421947419643402, 5.8926307247020304e-05, 0.03280283510684967, 0.009210817515850067, 0.12988784909248352, 0.03727418929338455, -0.03426874801516533, -0.01150077860802412, -0.1715972125530243, 0.044525206089019775, -0.07387891411781311, -0.03310538828372955, -0.013031926937401295, 3.9716222090646625e-05, 7.522599844378419e-06, -9.491766832070425e-05, 7.967084093252197e-05, -0.13290181756019592, 8.926373993745074e-05, 0.12913231551647186, -0.1250375360250473], [-0.03106619045138359, 0.04005453735589981, -1.318884824286215e-05, 0.004927956964820623, 0.03123514913022518, 0.01892795041203499, 0.013132336549460888, -0.02828861214220524, 0.017635202035307884, 0.007119946647435427, 2.4017410396481864e-05, -0.06285150349140167, -0.06445524841547012, -0.030205683782696724, -0.054727453738451004, 0.06784600764513016, 2.002162545977626e-05, -7.543993706349283e-05, 2.983607555506751e-05, 0.11083482950925827, -5.191344826016575e-05, 0.005801456980407238, -0.008798101916909218, -0.003933979198336601, 0.03321630880236626, -0.00250902003608644, -0.00015393993817269802, -0.09494362771511078, -0.0027269371785223484, 0.08318085968494415, 0.044242847710847855, 0.00937818642705679, -2.7169982786290348e-05, -5.19173736392986e-05, -6.064799890737049e-06, -9.068468784789729e-07, -0.011703207157552242, -4.6558136091334745e-05, 0.01900673843920231, -0.005990874953567982], [-0.1175156906247139, -0.01443041954189539, -0.00018330480088479817, 0.05562072619795799, 0.08582994341850281, -0.10752259194850922, -0.12071259319782257, -0.07826761901378632, 0.13655036687850952, -0.028750576078891754, -4.5419539674185216e-05, -0.039111845195293427, -0.2936648726463318, -0.024727318435907364, -0.2664283812046051, -0.13928917050361633, -4.4783519115298986e-05, -0.06753738969564438, 9.116430737776682e-05, -0.08175522834062576, 2.9165195883251727e-05, -0.06493377685546875, -0.036311257630586624, -0.0178692564368248, 0.030365556478500366, 0.002928829053416848, 0.03236949443817139, -0.31641697883605957, -0.06576429307460785, -0.013600891456007957, -0.018882425501942635, 0.012844938784837723, -6.962788756936789e-05, -0.00014381943037733436, -6.205935733305523e-06, 5.668720041285269e-05, 0.025826523080468178, -0.0002750204876065254, 0.022662650793790817, -0.045810043811798096], [-0.04491719603538513, 0.0860435962677002, 0.00011226613423787057, -0.044079430401325226, 0.11409172415733337, -0.030174853280186653, 0.23912669718265533, -0.0316012017428875, 0.003694933606311679, 0.06869587302207947, -0.0002249408862553537, -0.11957193911075592, 0.011819601990282536, 0.07602790743112564, -0.05490928515791893, -0.06061122193932533, -0.00025892851408571005, -0.20806889235973358, 0.0003154168662149459, 0.02704646810889244, 0.00012075645645381883, -0.07535628229379654, 0.1484290063381195, 0.03440467268228531, -0.05275867134332657, 0.03341547027230263, 0.050998859107494354, -0.054426949471235275, -0.05967337638139725, 0.011930245906114578, -0.1302691251039505, 0.023384222760796547, 9.160139597952366e-06, 7.871693378547207e-05, -0.00021704011305700988, 0.00015267332491930574, 0.062230806797742844, 0.00017047121946234256, 0.2033286690711975, -0.04568181559443474], [5.552411153075809e-07, -1.225177754804463e-07, -1.2447408381799363e-10, -1.9117353033948348e-08, 1.2814180649911577e-07, -2.955559921247186e-07, -2.706005943764467e-06, 1.7224026371831513e-10, -2.800876188757684e-07, 1.6717036999125412e-07, 5.067518279999739e-11, -8.193476901396934e-07, 2.5610952434362844e-06, 1.8955315539415096e-08, -1.056879227689933e-06, 1.1138134681232259e-07, 4.194050384764836e-10, 1.6761141523602419e-06, -1.6353762788412496e-10, -3.518317726047826e-07, -4.233158268363013e-10, 1.7029664434176084e-07, 7.082805808522608e-08, -4.948716423314181e-07, 7.573278537620354e-08, -9.829641811620604e-08, -1.2723717190965544e-07, 4.252939106663689e-06, -2.359700630449879e-07, -2.8915154715036806e-08, -8.548936847319055e-08, -2.7201139118915307e-07, -1.621624223790974e-10, -6.809430623533341e-12, 2.7344984609989353e-10, -3.821613303589544e-10, -5.632383803799712e-08, -1.4854856233981195e-10, 1.6904614312807098e-06, 6.911282639521232e-07], [0.04440838098526001, -0.0988970473408699, -6.403896259143949e-05, -0.09342066943645477, -0.00041937391506507993, -0.025740521028637886, -0.02527831494808197, -0.0744515135884285, 0.0045863366685807705, -0.04855931177735329, 5.3256710089044645e-05, 0.007713532540947199, -0.09710735082626343, -0.01220761425793171, -0.1318598985671997, -0.06112291291356087, 0.00010900370398303494, -0.004144476726651192, -5.4369626013794914e-05, 0.09051419049501419, -7.441883644787595e-05, -0.005541096907109022, -0.08365698158740997, 0.06302446871995926, 0.020332295447587967, -0.11579278111457825, 0.017900375649333, -0.24458660185337067, -0.059419307857751846, 0.048660267144441605, 0.040770966559648514, -0.01830935850739479, -0.00010873658902710304, -5.992896331008524e-05, 0.00011233155964873731, -0.00010917130566667765, -0.009661832824349403, -3.652948362287134e-05, 0.04755861312150955, 0.029245994985103607], [4.824258326152631e-07, 4.202190595492539e-08, 2.6816773801563443e-10, 3.970542294950974e-08, -9.19251519349018e-08, -5.8263470492647684e-08, -3.5468694932205835e-06, 7.933237355928213e-08, -5.481369953486137e-07, 1.7895266068990168e-07, -5.591205831656509e-10, -6.043234179742285e-07, 3.2692064451111946e-06, -1.2924053294227633e-07, -1.9202218481950695e-07, 3.0716793730789504e-07, -5.55911983113333e-11, 2.041408833974856e-06, 5.4431420482004e-10, -3.293921224667429e-07, -2.1444024334016376e-10, 3.215104698028881e-07, 1.8372126930898958e-07, -8.366961878891743e-07, -1.3222827988101926e-07, -1.4506188961149746e-07, -2.647554993018275e-07, 5.8178552535537165e-06, -1.3915868635194784e-07, -3.9838286625126784e-07, -6.617464975988696e-08, -1.920254959486556e-07, 3.252106917095432e-10, 3.893312616742861e-10, -3.1123431609714203e-10, 2.1386848889082266e-11, 6.788165052284967e-08, 9.512560183999597e-11, 6.034291573087103e-07, 6.069038818168337e-07], [-0.04122041165828705, 0.17308631539344788, 6.272119208006188e-05, -0.024134662002325058, 0.05806158110499382, 0.018135899677872658, 0.11468493193387985, 0.032996196299791336, -0.022602884098887444, 0.020506074652075768, -8.150485518854111e-05, -0.07174848765134811, -0.07498907297849655, -0.034759968519210815, 0.0840194821357727, -0.040960174053907394, 1.04623313745833e-05, -0.01658543385565281, 0.00012169006367912516, 0.03923746570944786, -6.604626105399802e-05, -0.060277555137872696, 0.014434576034545898, -0.07820405066013336, 0.11287227272987366, -0.0703926533460617, 0.06051792576909065, -0.12819522619247437, 0.03548634052276611, 0.10705936700105667, -0.017880985513329506, 0.03348158299922943, -0.00010372242104494944, 4.312464443501085e-05, 7.389001257251948e-05, -1.4742653547727969e-05, 0.039453256875276566, -5.489098111866042e-05, -0.03634113073348999, 0.011695655062794685], [3.5277756182949815e-07, -8.051291189303811e-08, -2.0453615190429986e-10, -2.1308663633590186e-07, 7.032841153886693e-08, -1.3713881230614788e-07, -1.7153655562651693e-06, -1.7380738515093697e-10, -3.5984194823868165e-07, -5.6980137941309295e-08, 1.7594985191049517e-10, -5.52319932012324e-07, 1.534006742076599e-06, 6.985391820535369e-08, -5.411214374362316e-07, 1.485230143316585e-07, 3.5928063302215207e-10, 1.1234178600716405e-06, -1.8880653984698625e-10, -1.2564836993078643e-07, -3.409653670516377e-10, 2.1371353398080828e-07, 8.450949451344059e-08, -3.4703816709225066e-07, 7.214347164108403e-08, -2.0396836220015757e-08, -1.5888996074409079e-07, 2.8787876544811297e-06, -1.2816198591281136e-07, 3.332992193350037e-08, 4.9855600536830025e-08, -1.868010883754323e-07, -2.17788620471282e-10, -1.476811173350967e-10, 2.915198915598438e-10, -3.460061126503433e-10, -1.1468971905514991e-07, -1.5477637227423457e-10, 1.2183962780909496e-06, 5.499892381521931e-07], [-0.08397670090198517, 0.040202636271715164, 6.858277629362419e-05, -0.0025439164601266384, -0.0137369055300951, -0.01388992927968502, -0.142533540725708, -0.004377021919935942, 0.05181686207652092, -0.005692725069820881, -8.044682545005344e-06, 0.08737047016620636, -0.10051318258047104, 0.03580784797668457, -0.10551784932613373, -0.06423061341047287, 8.728312241146341e-05, -0.08512590080499649, -2.163329736504238e-05, -0.010506351478397846, -5.4508887842530385e-05, -0.08013620972633362, -0.013455918990075588, 0.07873565703630447, -0.024921804666519165, 0.019072970375418663, -0.00028802265296690166, -0.33057355880737305, -0.10466454178094864, 0.010302109643816948, 0.010640604421496391, 0.0017199738649651408, -6.352397031150758e-05, 4.488329068408348e-05, 9.908927313517779e-05, -8.459624223178253e-05, 0.020157037302851677, 4.649245965993032e-05, -0.040852006524801254, -0.03429432958364487], [-0.12296132743358612, 0.009544635191559792, 5.24458555446472e-05, -0.04873907193541527, 0.05554023012518883, -0.06228037178516388, 0.048612140119075775, 0.012666003778576851, 0.0011387713020667434, -0.051523078233003616, -0.00012771162437275052, -0.06832709908485413, 0.0335044339299202, -0.0028844524640589952, -0.006649896968156099, -0.0013728279154747725, 5.117963155498728e-05, -0.19832782447338104, 9.309176675742492e-05, 0.11704590916633606, -4.7455934691242874e-05, 0.008177329786121845, -0.03584159538149834, -0.0478089414536953, 0.015108510851860046, 0.03773758187890053, 0.03592585027217865, -0.13326838612556458, 0.0722922533750534, 0.11176460981369019, 0.04199390858411789, 0.006164014805108309, -0.00012093259283574298, 8.23541558929719e-05, 3.175187885062769e-05, -4.067609552294016e-05, 0.010131778195500374, -3.852955705951899e-05, 0.18151189386844635, 0.005895012523978949], [-0.003401002613827586, -0.036026693880558014, -0.00019589014118537307, 0.020889190956950188, -0.08091021329164505, -0.13253261148929596, 0.0644926056265831, 0.07412291318178177, 0.07592061907052994, 0.02979331463575363, 0.00013835798017680645, 0.1979234218597412, -0.07057417184114456, 0.08147533982992172, -0.07737959921360016, -0.03851252421736717, 5.63830544706434e-05, -0.10018787533044815, -0.00014291718252934515, 0.10535350441932678, -1.5387215171358548e-05, 0.11025198549032211, -0.03071502037346363, 0.008169693872332573, -0.11177237331867218, -0.02730841375887394, 0.044371746480464935, -0.8661317825317383, 0.13302628695964813, 0.04707809537649155, -0.044941797852516174, 0.06935343891382217, -2.3180780772236176e-05, -0.00020250944362487644, 6.146193481981754e-05, -1.145981968875276e-05, -0.03352118656039238, -0.00019484208314679563, -0.07737988978624344, -0.03791884332895279], [-0.06594594568014145, 0.0027461496647447348, 3.439707506913692e-05, 0.0772901251912117, -0.023261576890945435, 0.03382294252514839, 0.05723511055111885, 0.01615842431783676, 0.05907492712140083, 0.011475355364382267, -1.740745392453391e-05, 0.039524178951978683, -0.05923938751220703, -0.015553208999335766, 0.027899790555238724, -0.010588623583316803, 0.00013156548084225506, 0.0025864054914563894, -8.464759594062343e-05, -0.028507625684142113, -0.0001656821114011109, 0.028304072096943855, 0.0007614820497110486, 0.01832471415400505, -0.0956161767244339, -0.03240131959319115, -0.03660896047949791, -0.39768773317337036, 0.0757715106010437, 0.021008577197790146, 0.027925290167331696, -0.011429589241743088, 0.00023411893926095217, 2.293989746249281e-05, 2.4007749743759632e-05, -6.596001912839711e-05, 0.09802950918674469, 1.1671658285195008e-05, -0.15733857452869415, 0.022275380790233612], [0.04348080977797508, -0.009832547977566719, -0.00017141998978331685, 0.05694030225276947, 0.052769411355257034, 0.05871054530143738, 0.19797103106975555, -0.08614460378885269, -0.01849621720612049, -0.024595221504569054, 8.308912219945341e-05, 0.0037995532620698214, -0.4000582695007324, -0.014930853620171547, -0.10810283571481705, 0.06956002116203308, 0.0001233128714375198, -0.05776325613260269, -0.00013144980766810477, 0.018077276647090912, -0.00013844601926393807, 0.008586535230278969, 0.01534788217395544, -0.06187465786933899, -0.172242671251297, -0.00384313240647316, -0.03686147183179855, -0.7106277346611023, 0.12245502322912216, 0.09205906093120575, 0.022032206878066063, -0.07333849370479584, 6.48898130748421e-05, -0.00014754662697669119, 6.471385131590068e-05, -0.00011803227243945003, 0.10443798452615738, -9.86906816251576e-05, -0.09857605397701263, 0.019646966829895973], [-0.02753186970949173, 0.001483230385929346, 1.708833769953344e-05, -0.009699522517621517, 0.023905977606773376, -0.05256449058651924, -0.045098405331373215, -0.0030744955874979496, 0.015486926771700382, 0.01345302164554596, 2.260661312902812e-05, -0.03566788509488106, -0.09566622227430344, 0.03439144045114517, -0.07759270071983337, -0.05423770844936371, -9.459821740165353e-06, -0.00826337281614542, -2.761114046734292e-05, -0.0042199501767754555, 3.550111796357669e-05, -0.04377872496843338, 0.007695676293224096, 0.015589733608067036, 0.008303171023726463, 0.0078992685303092, -0.0016035408480092883, 0.01083490252494812, 0.011412023566663265, 0.025257887318730354, -0.007676249835640192, 0.010014491155743599, -2.096332173096016e-05, 2.149623105651699e-05, 1.5863310181885026e-05, 1.0938613741018344e-05, 0.026454830542206764, 2.1310290321707726e-05, 0.11614412069320679, -0.019389212131500244], [-0.0403214693069458, -0.0180673785507679, -7.04414997017011e-05, 0.046138640493154526, -0.02389352023601532, -0.042317502200603485, -0.06647967547178268, -0.0599110946059227, 0.09997503459453583, -0.03890823572874069, -3.0034338124096394e-05, 0.05282098799943924, -0.18578891456127167, 0.013948039151728153, -0.06649316102266312, 0.004811183549463749, 1.1777122381317895e-05, -0.047810040414333344, -4.5100950956111774e-05, 0.09784195572137833, -4.9275018682237715e-05, 0.02236081473529339, -0.042107343673706055, 0.02243625558912754, 0.029299747198820114, -0.04103470593690872, 0.01286682765930891, -0.46692922711372375, 0.07017198204994202, 0.04483351111412048, 0.040247365832328796, 0.0013594427146017551, -4.2264018702553585e-05, -7.105838449206203e-05, 1.6711117496015504e-05, 4.899800114799291e-05, -0.004565638955682516, -0.00012640956265386194, -0.07081338763237, 0.0117487832903862], [-0.01284688338637352, 0.18807032704353333, 0.00011354284652043134, 0.015244437381625175, 0.02509143017232418, 0.09810581058263779, 0.06256788223981857, -0.051282621920108795, 0.06090916693210602, -0.02350793033838272, -0.00015171353879850358, 0.056232377886772156, -0.030201291665434837, -0.029573362320661545, 0.007222112268209457, 0.11960341781377792, -0.00013189080345910043, 0.06622776389122009, 0.00012581008195411414, 0.04801130294799805, 6.874713108118158e-06, 0.012390395626425743, -0.046727150678634644, -0.034868791699409485, 0.01922522485256195, -0.049617595970630646, -0.021459216251969337, -0.3931223452091217, 0.030690191313624382, 0.03908407688140869, 0.11814101785421371, -0.021459518000483513, 0.00018211419228464365, 8.334773156093433e-05, -0.0001448886323487386, 0.00012658930791076273, -0.07922609150409698, -1.8760219973046333e-05, -0.08448909968137741, 0.031205635517835617], [-0.017387235537171364, -0.010955974459648132, 0.00026718556182458997, 0.0832449197769165, -0.03211831673979759, 0.09136366844177246, -0.11424512416124344, -0.0765179991722107, -0.03350583463907242, 0.06626227498054504, 6.677019700873643e-05, 0.023073306307196617, -0.14418356120586395, 0.03585774451494217, -0.12128062546253204, -0.041784800589084625, 0.00018761924002319574, 0.02997613698244095, -0.00012319354573264718, 0.06439881026744843, -0.000130948843434453, -0.028916019946336746, 0.06075417250394821, -0.011227188631892204, 2.888131348299794e-05, -0.018026787787675858, -0.030712915584445, -0.4116930365562439, -0.02403397113084793, -0.07050765305757523, 0.016384001821279526, -0.029625937342643738, 0.00012132499978179112, 0.00022972612350713462, 0.00011057155643356964, -0.0001720199070405215, 0.047623161226511, 0.0001367801451124251, -0.06282554566860199, 0.06097244843840599], [-0.0928954929113388, 0.04892892390489578, -3.35513504978735e-05, 0.017269229516386986, 0.044310834258794785, -0.039318155497312546, -0.044875871390104294, -0.02050008624792099, 0.09445883333683014, -0.013658772222697735, -9.02034153114073e-05, -0.12108210474252701, -0.04929449036717415, 0.03225056082010269, -0.08316957950592041, -0.016454607248306274, -3.982459384133108e-05, -0.06730625778436661, 0.00016455218428745866, 0.05997393652796745, -2.0098175355087733e-06, -0.08658431470394135, -0.012286413460969925, 0.05520351231098175, 0.05210178345441818, 0.023024769499897957, 0.018914010375738144, -0.18211765587329865, 0.03585393726825714, 0.045842889696359634, 0.02224358730018139, 0.03390568122267723, -8.120771235553548e-05, -2.5121746148215607e-05, -6.537209264934063e-05, 2.624941225803923e-05, 0.03062109462916851, -0.00010605779243633151, 0.021602021530270576, 0.01807883009314537], [-0.1040010079741478, 0.023305976763367653, -0.00018722389359027147, -0.009086648002266884, -0.00922440830618143, -0.03690795227885246, -0.0877833440899849, 0.039063502103090286, -0.026927771046757698, -0.03569481894373894, 4.123845064896159e-05, -0.052032098174095154, -0.20555585622787476, -0.04137660935521126, -0.18896330893039703, -0.042841698974370956, 5.436048377305269e-05, -0.06213924661278725, -2.0238356228219345e-05, 0.000729065912310034, -6.437580304918811e-05, -0.033864714205265045, -0.020685777068138123, -0.013519231230020523, -0.02493351325392723, 0.03084402158856392, 0.013257928192615509, -0.2577134370803833, -0.03683534264564514, 0.07528465241193771, -0.023509563878178596, 0.007536073215305805, -0.0001561450626468286, -0.00016079859051387757, 8.510873885825276e-05, -2.1632400603266433e-05, -0.011391553096473217, -0.0002540236455388367, -0.028300972655415535, 0.020795797929167747], [6.074486691431957e-07, -1.0038930042810534e-07, -1.6940313041224897e-10, -5.941276981502597e-07, 3.045702783310844e-07, 2.5367510758655953e-08, -2.784794105537003e-06, 3.610584542457218e-08, -3.839396072180534e-07, -2.1434995289837389e-07, -2.540518906357647e-10, -7.608683745274902e-07, 8.930287549446803e-07, 7.997653028724017e-08, 3.276494737747271e-07, -1.4479891774499265e-07, 2.168015489356634e-10, 1.7868809436549782e-06, 9.9061786551502e-11, 1.6710262684682675e-07, -3.0227950698069606e-10, -2.624835531150893e-07, 1.432755283303777e-07, -1.6289142479308794e-07, 3.0917814797248866e-07, -2.5498060551853996e-08, -2.3422822437169089e-07, 4.284614078642335e-06, -3.266986254857329e-07, -2.818736675180844e-07, 6.760897690583079e-07, 3.2638942570883955e-07, -2.4851054547525564e-10, -8.369428414201074e-12, 1.2686436623443598e-10, -2.3045822195033594e-10, -3.2343010047952703e-07, -1.2194574516843915e-10, 1.6309207921949564e-06, 1.0560930974179428e-07], [8.19289880382712e-07, 1.3485382055478112e-07, 2.618573691215431e-10, -6.283712536969688e-07, 1.6708516170638177e-07, 1.4067597930988995e-07, -3.7958250231895363e-06, 3.031856579127634e-07, 3.626045952387358e-07, -2.1673892547369178e-07, -8.116843308592081e-10, -1.6541225704713725e-06, 3.0818443974567344e-06, 1.1577348146829536e-07, 1.0112141808349406e-06, 2.4278816113110224e-07, -1.838543067789189e-10, 2.1966957319818903e-06, 7.426860793025014e-10, 4.059314449023077e-07, -1.2931687665140856e-10, -4.894938570032537e-07, 1.5250160245727784e-08, -3.5208279314247193e-07, -7.346385899609231e-08, 2.817450592829118e-07, -2.854848162314738e-07, 6.903924713697052e-06, -5.83176813506725e-07, -5.702518706129922e-07, 8.655437682136835e-07, 2.4126435960170056e-07, 2.0398577271762974e-10, 4.5386602809394105e-10, -3.8575412308894386e-10, 9.140517509553803e-11, 3.555571197466634e-07, 1.8049797767538678e-10, -1.905431368243171e-08, 3.2543809425078507e-07], [4.040323915432964e-07, -3.2538661542957925e-08, 8.1200553225802e-11, -2.2048672576602257e-07, 8.941167806142403e-10, -1.459932548186771e-07, -2.773684855128522e-06, 5.127187208131545e-08, -6.011343316458806e-07, 8.424222386338442e-08, -3.1603178407557664e-10, -5.560193585552042e-07, 2.2296267161436845e-06, -1.4354780830672098e-07, -4.890777063337737e-07, -2.3113113645223393e-09, 1.630465068513942e-10, 1.685248776084336e-06, 1.7182306966123662e-10, -1.799823650117105e-07, -2.815081778795303e-10, 2.05777567430232e-07, 2.153079492472898e-07, -6.781498882446613e-07, -9.546620383105164e-09, -1.860479272863813e-07, -2.2363606433373207e-07, 4.6231925807660446e-06, -2.6122057761313044e-07, -2.3499798373904923e-07, -1.4168958450966329e-08, -6.745796810037064e-08, 2.542078873790654e-11, 2.0795214161761777e-10, -9.852768774465392e-12, -1.5043755130506042e-10, 1.2660104076189782e-08, -1.4951467147694686e-11, 1.1521416354298708e-06, 5.306819161887688e-07], [3.5920535879085946e-07, -1.0906867231597062e-07, -3.4830794498619255e-11, 1.5481555593055418e-08, 9.230713260421908e-08, -1.7380121164478624e-07, -1.6489825611643028e-06, 1.033560614871476e-08, -2.2573760816158028e-07, 1.5578001466565183e-07, -3.894875307691725e-12, -5.362898605199007e-07, 1.6243874370047706e-06, -3.582373153676599e-08, -6.869930189168372e-07, 3.080748811612466e-08, 2.4227284067812604e-10, 1.0949643183266744e-06, -8.0232862020857e-11, -1.796384623276026e-07, -2.49567894128333e-10, 3.638070111833258e-08, 6.164753330040185e-08, -3.280767089108849e-07, 7.421719772082724e-08, -8.609003288029271e-08, -5.840912464805115e-08, 2.796290345941088e-06, -2.098184239684997e-07, -6.503912430844139e-08, -5.7512469453513404e-08, -1.1047254844243071e-07, -6.725605489199538e-11, 3.7464472496528956e-11, 1.3708696677827703e-10, -2.1839370589749052e-10, 1.9353279867573292e-08, -6.650101996852342e-11, 1.0964947705360828e-06, 4.304961578327493e-07], [0.022316498681902885, -0.06996593624353409, -8.475400682073087e-05, 0.0574621818959713, 0.027761846780776978, 0.14292356371879578, 0.07745479792356491, -0.022832658141851425, 0.15084852278232574, -0.027432281523942947, 7.016709423623979e-05, 0.04621893912553787, -0.3103063404560089, 0.10371281206607819, -0.1396571695804596, -0.0459262952208519, 0.00013906376261729747, 0.0013413007836788893, -5.0641701818676665e-05, 0.05507078021764755, -0.00019748271733988076, -0.0654863640666008, -0.053566817194223404, -0.0018393106292933226, -0.0671624094247818, 0.22105494141578674, -0.05236067250370979, -0.7957645058631897, 0.008230811916291714, -0.008687395602464676, 0.08677799999713898, -0.03249608725309372, 0.0002076712262351066, -8.29686105134897e-05, -3.954709609388374e-05, -5.547630280489102e-05, -0.13212400674819946, -8.135214739013463e-05, -0.2974703907966614, 0.01179370004683733], [4.868305722993682e-07, -4.2060563032464415e-08, 5.1693874875136103e-11, -3.2761437296358054e-07, 2.9907752718827396e-07, 3.718263030805247e-08, -1.8056075532513205e-06, -4.614070903130596e-08, -2.5890377841619738e-08, -1.8377266997049446e-07, -2.4945159826650354e-10, -8.011677437025355e-07, 1.0743070788521436e-06, 7.283074410224799e-08, 1.8805258150678128e-07, 4.7796827828960886e-08, 6.945928207602314e-12, 1.0730382200563326e-06, 2.0443870207831338e-10, 2.5210366061401146e-07, -8.468167139730198e-11, -1.8807342883064848e-07, -4.590199331744316e-09, -3.0847468224237673e-07, 8.316234811900358e-08, 5.4243816549615076e-08, -1.4872604481297458e-07, 2.9611758236569585e-06, -3.1638145969736797e-07, -1.8529105716424965e-07, 4.895956067230145e-07, 6.482534331553325e-08, -2.2674100010749987e-12, 1.5202175629447368e-10, -5.556434132247823e-11, -6.014395925735272e-11, 1.9690240549152804e-07, 7.899568499336596e-11, 5.210129074839642e-07, 3.194250837168511e-07], [0.0029727546498179436, -0.00560641149058938, 0.00012059209257131442, -0.030022449791431427, -0.07364516705274582, 0.004871762823313475, 0.05028313398361206, 0.037648268043994904, -0.02278714068233967, 0.002418793737888336, -0.00011727758101187646, 0.14858345687389374, 0.04047767445445061, 0.057940296828746796, -0.015562722459435463, -0.13724589347839355, 5.794034677819582e-06, -0.09858544915914536, 6.59678116790019e-05, -0.0010552381863817573, 5.637349022435956e-05, 0.004469564184546471, 0.039423391222953796, 0.2727395296096802, -0.052238862961530685, -0.12190602719783783, 0.0034929572138935328, -0.21250081062316895, -0.06918442249298096, -0.06611651182174683, -0.053307127207517624, 0.010133200325071812, 9.212709846906364e-05, 0.0001185798246297054, -0.00011096589150838554, -6.97831774232327e-06, -0.21405470371246338, 5.6543602113379166e-05, -0.028371894732117653, 0.023205183446407318], [-0.04340974614024162, -0.024797124788165092, -0.00012689079449046403, -0.013330182060599327, -0.0004770049126818776, -0.041545670479536057, -0.058123547583818436, 0.030567703768610954, 0.07229825854301453, -0.024048475548624992, -2.4692024453543127e-05, -0.1529865562915802, 0.013771896250545979, -0.03315664827823639, -0.0880749300122261, -0.021716667339205742, 4.987783540855162e-05, -0.06351903825998306, 4.338421058491804e-05, 0.12901614606380463, -8.599073771620169e-05, -0.044034432619810104, -0.029919657856225967, 0.1128477081656456, -0.021363165229558945, -0.0681251585483551, 0.03412371128797531, -0.1509879231452942, -0.038784485310316086, 0.13722772896289825, -0.012257327325642109, 0.013634536415338516, -0.0001147510192822665, -0.0001316144916927442, 5.1150444051017985e-05, -2.2249270841712132e-05, 0.013982688076794147, -0.00022568834538105875, -0.09848587214946747, 0.017602499574422836], [0.24618899822235107, 0.2680298984050751, -2.494395994290244e-05, 0.128924161195755, -0.02644406072795391, 0.21341483294963837, 0.0162604171782732, 0.09592504054307938, 0.04440801218152046, -0.08754511177539825, -1.1031223948521074e-05, -0.17323482036590576, 0.09599600732326508, -0.15284200012683868, 0.12710590660572052, -0.024022208526730537, 2.8060208933311515e-05, -0.05034739896655083, 3.827875116257928e-05, 0.011163139715790749, 4.145141792832874e-05, 0.10805647075176239, -0.006817460525780916, 0.0222514346241951, 0.016345299780368805, -0.03868825361132622, 0.005277751479297876, 0.0858340635895729, -0.0485604852437973, 0.037817396223545074, 0.023357167840003967, -0.10120578855276108, 6.75339688314125e-05, -1.3549768482334912e-05, 6.369518087012693e-05, -6.586962263099849e-05, -0.01334059052169323, -3.368378429513541e-07, 0.08690476417541504, 0.07624788582324982], [0.061090581119060516, 0.3970460593700409, 0.00013250770280137658, 0.019005026668310165, 0.15506839752197266, 0.08184207230806351, -0.014847158454358578, -0.11990998685359955, 0.3048189878463745, -0.02689519338309765, -0.00011278428428340703, 0.1465456634759903, 0.07775413990020752, -0.10240117460489273, -0.100704625248909, 0.025519095361232758, -0.00011203549365745857, -0.04779540002346039, 0.0001382209302391857, 0.06199114769697189, 2.388055327173788e-05, -0.004582468885928392, 0.029331492260098457, 0.07031218707561493, -0.0766010656952858, 0.19141557812690735, 0.010341353714466095, -0.0581495501101017, 0.07934173196554184, 0.05863971635699272, 0.032340455800294876, -0.0016930272104218602, -3.996405575890094e-05, 7.375911809504032e-05, -2.2819400328444317e-05, 8.835771586745977e-05, -0.022279448807239532, 0.00010339276923332363, -0.034635793417692184, -0.03319772332906723], [0.0002114700764650479, 4.966392953065224e-05, -9.827293979469687e-06, 3.8479043723782524e-05, -0.00025978535995818675, 7.536818884545937e-05, -0.00010251670028083026, -5.726344170398079e-05, -0.00011500918481033295, -1.7211605154443532e-05, 8.589930985181127e-06, 2.1799442038172856e-05, -5.39147513336502e-05, -0.00012961866741534323, 6.032895907992497e-05, 3.3212450944120064e-05, 7.877552889112849e-06, 7.323535101022571e-05, -6.634407782257767e-06, -7.292689406313002e-05, -6.273844064708101e-06, 5.224851338425651e-05, -0.00011354901653248817, -0.00010193674825131893, -9.356773080071434e-05, -0.00015429613995365798, -4.490182618610561e-06, 0.00038124556886032224, -0.0003096834698226303, -0.00018034144886769354, -4.4511485612019897e-05, -0.00013494938320945948, -8.691917173564434e-06, -9.852121365838684e-06, 9.260974366043229e-06, -8.330845048476476e-06, 2.292966382810846e-05, -5.540248821489513e-06, 7.771117088850588e-05, 0.0002650603128131479], [-0.4558134078979492, -0.12778590619564056, 0.0001415587612427771, 0.35233569145202637, -0.11638193577528, 0.059574369341135025, -0.01825203374028206, -0.029952501878142357, 0.02233823575079441, -0.044340830296278, -1.0900062989094295e-05, 0.08062789589166641, 0.001878899522125721, 0.0017827965784817934, -0.04766581580042839, 0.15420769155025482, 4.90199017804116e-05, 0.22859996557235718, -8.544875163352117e-05, 0.12982679903507233, -4.269697456038557e-05, 0.06701517105102539, 1.1391537189483643, -0.032686613500118256, 0.00028292270144447684, 0.03344366326928139, 0.15341468155384064, 0.0697021633386612, 0.1004142090678215, -0.088440902531147, 0.23278838396072388, 0.13310381770133972, 7.642088166903704e-05, 2.1844958610017784e-05, 5.543273073271848e-05, -1.3209577446104959e-05, 0.0218393225222826, 9.064067853614688e-05, -0.0677829310297966, -0.05346943438053131], [0.046205680817365646, 0.09349784255027771, 4.795699715032242e-05, 0.1670733541250229, 0.24852684140205383, 0.23780319094657898, 0.07808580994606018, -0.09078609943389893, 0.055089931935071945, -0.056121569126844406, -0.00021417571406345814, 0.1127820760011673, -0.10643293708562851, -0.0024860557168722153, 0.3335039019584656, -0.47841575741767883, -0.0002135683607775718, 0.14238660037517548, 0.00022818066645413637, 0.43820351362228394, 0.00013372856483329087, -0.5306534171104431, 0.1612439900636673, -0.22161203622817993, -0.15007926523685455, -0.1706453114748001, -0.053785525262355804, 0.00951006356626749, 0.13000431656837463, 0.05648649111390114, 0.2811354100704193, -0.07098309695720673, 6.293568731052801e-05, 0.00010658005339791998, -0.00018187801470048726, 0.00014967752213124186, -0.06467477977275848, 0.00012504382175393403, 0.03327202796936035, -0.5403215289115906], [-0.10394826531410217, -0.019946377724409103, 5.7724151702132076e-05, -0.020444758236408234, -0.1820724457502365, 0.08035686612129211, -0.28505533933639526, -0.270634263753891, -0.5647014379501343, -0.1505560725927353, 6.8041285885556135e-06, -0.6743662357330322, 0.1142292469739914, 0.22060424089431763, 0.34968623518943787, -0.008515516296029091, 3.403984374017455e-05, 0.1443755030632019, -3.972550985054113e-05, -0.07810855656862259, -5.9507263358682394e-05, 0.096944160759449, -0.10426788032054901, -0.059098951518535614, 0.05947429686784744, 0.14732438325881958, -0.02482207864522934, 0.057886894792318344, -0.016287025064229965, -0.09726189076900482, -0.24465972185134888, -0.4093746840953827, -6.323381967376918e-05, 7.955601176945493e-05, 9.307935397373512e-05, -2.889715506171342e-05, -0.3000432848930359, 7.367313810391352e-05, -0.07666204869747162, -0.2520905137062073], [-0.04339636489748955, -0.03488589823246002, 0.0004930865252390504, 0.03962595760822296, 0.28268519043922424, 0.048109982162714005, 0.41551706194877625, 0.11000517755746841, -0.24637405574321747, -0.08954192698001862, -0.00033930171048268676, -0.20521850883960724, 0.32470062375068665, -0.058555327355861664, -0.7050789594650269, 0.1729069948196411, -0.00030798991792835295, 0.07227710634469986, 0.0004226273449603468, 0.34659528732299805, 0.00014073940110392869, -0.021539529785513878, -0.05575641244649887, 0.04546752944588661, 0.030927401036024094, 0.029420388862490654, 0.09654727578163147, 0.1156371608376503, 0.12817764282226562, 0.42980581521987915, -0.10285873711109161, 0.04734848439693451, 8.624568727100268e-05, 0.0002904439461417496, -0.00032982227276079357, 0.0002758384798653424, -0.04615850746631622, 0.00046283184201456606, 0.01875920593738556, -0.03277108818292618], [-0.21812936663627625, 0.060668058693408966, -0.0001409699470968917, -0.2576015591621399, -0.2540172040462494, 0.08150464296340942, 0.06812354177236557, 0.3051828444004059, 0.05714788660407066, 0.11522018164396286, 8.299592445837334e-05, 0.24368304014205933, 0.02275342307984829, 0.08840572834014893, 0.15967373549938202, 0.014549585990607738, 4.38483448306215e-06, -0.021895263344049454, -2.5961551727959886e-05, 0.08243808150291443, -1.3174896594136953e-05, 0.09155510365962982, 0.2835950255393982, 0.05794009938836098, 0.053529296070337296, 0.20824341475963593, 0.020565049722790718, -0.04128657281398773, -0.2226233035326004, 0.3732508420944214, 0.19409936666488647, 0.21384704113006592, -0.00012652056466322392, -9.277701610699296e-05, -1.3501577996066771e-05, 3.6657031159847975e-05, 0.13296902179718018, -0.00017452958854846656, -0.012970967218279839, 0.07805539667606354], [-0.05625669285655022, -0.13180194795131683, 0.00033209085813723505, 0.014139487408101559, 0.10866614431142807, -0.009496364742517471, -0.24729038774967194, 0.030923806130886078, 0.978583812713623, -0.11249958723783493, -4.3874842958757654e-05, 0.06413281708955765, 1.09135901927948, -0.06063169613480568, -1.0763462781906128, 0.12604747712612152, -0.0003789462789427489, -0.13035504519939423, 0.00016847577353473753, 0.1968613564968109, 0.00017098670650739223, 0.05147404596209526, -0.11102313548326492, 0.12065625935792923, -0.02960706129670143, 0.1165686696767807, 0.21478909254074097, -0.23094727098941803, 0.12205062806606293, 0.31168660521507263, -0.002892207819968462, -0.06250304728746414, -0.00011321681085973978, 0.00025480377371422946, -0.00022338121198117733, 0.000339303573127836, 0.10399214923381805, 0.00025911026750691235, 0.043931521475315094, -0.15899038314819336], [0.04806525632739067, 0.2373403161764145, -0.00018588939565233886, 0.334886372089386, -0.010666105896234512, 0.002244825940579176, 0.010007760487496853, 0.21310099959373474, 0.09334366768598557, 0.11830678582191467, 1.924596836033743e-05, 0.19707827270030975, 0.010687338188290596, 0.05405249074101448, 0.14741919934749603, -0.4536392092704773, 1.9332123883941676e-06, 0.4284433424472809, -3.27017878589686e-05, 0.555932879447937, -0.0001674554223427549, -0.22905775904655457, 0.05862559750676155, -0.04071658104658127, -0.002313857199624181, -5.3713803936261684e-05, -0.9385064244270325, -0.02503175102174282, 0.01514355931431055, 0.09189917892217636, -0.5925648212432861, 0.10246288776397705, 6.635644967900589e-05, -0.00018264820391777903, 1.405944385624025e-05, 1.69318045664113e-05, -0.0720418393611908, -0.0002854732156265527, 0.002358761616051197, 0.276800274848938], [-0.00019736035028472543, 9.81430130195804e-05, 4.157240709901089e-06, 6.0201555243111216e-06, 0.00020036555361002684, -0.00010015904990723357, 0.00014392557204701006, 0.00019303282897453755, -8.84820292412769e-06, 0.0001005032827379182, -9.499939551460557e-06, 5.18076449225191e-05, -3.930391540052369e-05, 3.4835613860195735e-07, -0.00011185828770976514, 6.779807881684974e-05, -4.5611386667587794e-06, -8.021926987566985e-06, 8.508151040587109e-06, 0.00011232725955778733, 1.4319717820399092e-06, 0.0001430609408998862, 0.00012593854626175016, 5.0172875489806756e-05, -5.3627591114491224e-05, 0.00024051047512330115, 5.721335037378594e-05, -0.00026464290567673743, 0.00020124501315876842, 7.46707955840975e-05, -4.7774850827408955e-05, 0.00013089591811876744, 3.386897333257366e-06, 5.2825671446044e-06, -5.9962999330309685e-06, 3.935004315280821e-06, -7.043421646812931e-05, 2.1458051833178615e-06, -2.9981341867824085e-05, -0.00026673590764403343], [0.009234815835952759, 0.06185328587889671, -0.00025176259805448353, -0.07742869853973389, 0.0040919105522334576, 0.5348829627037048, -0.043230097740888596, -0.009558234363794327, -0.06561508029699326, -0.09177656471729279, 0.0001450694544473663, 0.5606436133384705, 0.026082811877131462, -0.010594557970762253, 0.07624734938144684, -0.046894896775484085, 0.00016642248374409974, 0.0036192266270518303, -0.00020931137260049582, -0.023155702278017998, 2.381530066486448e-05, -0.14928151667118073, -0.04859423637390137, -0.3296099603176117, -0.08855497092008591, 0.010786391794681549, -0.12256794422864914, 0.049548953771591187, 0.06308209896087646, -0.03564609959721565, -0.07971851527690887, 0.21502447128295898, -0.00025681519764475524, -0.00014550583728123456, 0.0002608502400107682, -0.00020322203636169434, -0.2899797558784485, -0.00018105939670931548, 0.13639158010482788, -0.3812331557273865], [0.10637269914150238, 0.10823386907577515, -0.0001454488665331155, -0.16096124053001404, 0.39390456676483154, 0.287593811750412, -0.05261237174272537, 0.07508062571287155, -0.0667245090007782, 0.7023434638977051, 0.00012837086978834122, 0.05459991842508316, 0.970220148563385, 0.12355095148086548, -0.8480202555656433, -0.03957531228661537, 5.787042755400762e-05, -0.01434398628771305, -2.6652322048903443e-05, 1.0629523992538452, -0.0001529900182504207, 0.2721555531024933, -0.10382957011461258, 0.10936130583286285, -0.1604793816804886, -0.308200865983963, 0.7431677579879761, 0.15454231202602386, 0.16559387743473053, -0.21820899844169617, -0.27378028631210327, 0.012365265749394894, 0.00016804077313281596, -0.000217588763916865, -8.369507850147784e-05, 2.9704629923799075e-05, -0.06773024052381516, -0.00021442458091769367, -0.1410185843706131, -0.3314111828804016], [0.2649814486503601, -0.1625598967075348, -4.026075828278408e-07, 0.39495790004730225, 0.010125317610800266, -0.22516867518424988, -0.0895501971244812, 0.3519095182418823, -0.12037432938814163, 0.09585653990507126, 5.658320878865197e-05, 0.2350718379020691, 0.011275607161223888, -0.27059775590896606, 0.14610233902931213, -0.2470230758190155, 6.648427370237187e-05, 0.2209162563085556, -0.00012916231935378164, -0.09616266191005707, -1.9577785224100808e-06, -0.8408140540122986, 0.08166827261447906, 0.2950855791568756, 0.005583145655691624, 0.23502588272094727, 0.5707077383995056, -0.06627669930458069, 0.05363982170820236, 0.04237481206655502, 0.2833390533924103, 0.03872571140527725, 8.393160896957852e-06, 3.2992691558320075e-05, 7.690855272812769e-05, -2.711349952733144e-05, 0.08664732426404953, -2.721383498283103e-05, 0.17298516631126404, 0.4375147819519043], [0.05726204812526703, -0.10210015624761581, -0.00012428328045643866, 0.07505564391613007, -0.2981492280960083, -0.3416881263256073, 0.616636335849762, 0.04654545709490776, 0.27210333943367004, -0.4930057227611542, 0.0001165216090157628, 0.2766306400299072, 0.25994324684143066, -0.16971491277217865, -0.03520667552947998, 0.25132036209106445, 5.5997195886448026e-05, -0.11504946649074554, -9.112306725000963e-05, -0.7052038311958313, -0.00020237969874870032, -0.2271508276462555, 0.11626798659563065, 0.057382967323064804, 0.16563469171524048, 0.011593064293265343, -0.4039250314235687, 0.009331202134490013, 0.08152662217617035, 0.18300865590572357, 0.34766435623168945, -0.32203981280326843, -7.95811356510967e-05, -0.00012052537931594998, 6.404463783837855e-05, 3.9928800106281415e-06, 0.04903590679168701, -0.00017159957496915013, -0.14627641439437866, -0.04212741181254387], [-0.06586098670959473, -0.5422482490539551, 4.749927029479295e-05, 0.6242638230323792, 0.2553885579109192, 0.07728305459022522, -0.019181309267878532, -0.040755271911621094, -0.01867993362247944, 0.34488075971603394, -7.605100836372003e-05, 0.033436693251132965, 0.015578619204461575, 0.19419975578784943, 0.056880105286836624, 0.5747225284576416, -2.1991316316416487e-05, -0.0012640870409086347, 1.935216278070584e-05, -0.013420005328953266, 6.499349547084421e-05, -0.07635010033845901, 0.0790548101067543, -0.00939459539949894, 0.05800357088446617, 0.18978656828403473, -0.17546291649341583, 0.16781401634216309, 0.003958961460739374, -0.09497155994176865, -0.39009061455726624, 0.16542372107505798, -7.462561916327104e-05, 8.95628472790122e-05, 8.391306619159877e-05, -6.673410825897008e-05, 0.08300013840198517, 0.00015043726307339966, 0.06015213578939438, -0.025565458461642265], [-0.00016351290105376393, 0.00012774349306710064, 4.0144445847545285e-06, 5.156150655238889e-05, 5.278285971144214e-05, -0.00016450590919703245, 2.0571505956468172e-05, -1.7328235117020085e-05, -1.2045969015161972e-05, 3.4263321140315384e-06, -7.754873877274804e-06, 0.00010439630568725988, -3.1162086088443175e-05, -1.6538754152861657e-06, -0.00015760259702801704, -5.427081123343669e-05, -6.461143129854463e-06, -2.6189431991952006e-06, 7.225703484436963e-06, 6.386951281456277e-05, 4.186070782452589e-06, 0.00012918052379973233, 3.0089711799519137e-05, 9.223389497492462e-05, -0.0001586156286066398, 0.00014293061394710094, -5.692899503628723e-05, -5.757145117968321e-05, 7.693786028539762e-05, -0.0001763295877026394, 5.328444331098581e-06, 9.665901598054916e-05, 4.510753569775261e-06, 4.028800958622014e-06, -6.913579454703722e-06, 6.485744961537421e-06, -1.6651743862894364e-05, 2.0324516754044453e-06, 9.677080379333347e-05, -0.0001519156212452799], [0.31077054142951965, -0.1351589411497116, 2.2951402570470236e-05, -0.5062288045883179, -0.11370304226875305, 0.07538563013076782, 0.07649489492177963, -0.1023351326584816, 0.03203438222408295, -0.3723050057888031, -7.500848005292937e-05, -0.1388365924358368, 0.07115457952022552, -0.11990588903427124, -0.06501023471355438, -0.3383300304412842, -0.0001670019410084933, 0.37027162313461304, 4.2444509745109826e-05, -0.08066462725400925, 4.7516791710222606e-06, 0.09263124316930771, 0.02678387612104416, 0.07237467169761658, 0.09217259287834167, -0.38839682936668396, 0.02548130601644516, 0.04388928413391113, -0.05879031866788864, 0.1553533375263214, 0.2930380403995514, 0.03815540671348572, 8.665112545713782e-06, -7.477746839867905e-05, -0.00018085188639815897, 0.00017347776156384498, -0.14982102811336517, -4.9638765631243587e-05, -0.045099128037691116, 0.10589142143726349], [0.00022507496760226786, -0.00015391477791126817, -3.5324617329024477e-06, -5.820446676807478e-05, -2.1841218767804094e-05, 0.00024761538952589035, 7.82135539338924e-05, -0.00011611920490395278, -8.236024586949497e-05, -3.298091178294271e-05, 9.14101747184759e-06, -0.00012383816647343338, 0.00014890955935698003, 4.524632458924316e-05, 0.00034126697573810816, 0.00013496250903699547, 5.7700235629454255e-06, 7.940857176436111e-05, -8.657584658067208e-06, -8.226160571211949e-05, -2.56399653153494e-06, -0.00012640285422094166, -8.338645784533583e-06, -6.790329643990844e-05, 0.0001507966371718794, -0.00020732235861942172, 5.723729555029422e-05, -5.1353265007492155e-05, -0.00010829218081198633, 9.948554361471906e-05, 1.9659497411339544e-05, -0.00013958166528027505, -4.1948360376409255e-06, -4.234873813402373e-06, 6.889096766826697e-06, -5.41491363037494e-06, 4.436452218214981e-05, -1.7775885226001265e-06, -0.00010396941797807813, 0.00021152797853574157], [0.009076773189008236, -0.35347428917884827, 6.663820386165753e-05, -0.06379248946905136, -0.5026578903198242, -0.16536778211593628, -0.2401711642742157, 0.06824111938476562, -0.10971230268478394, -0.5116434693336487, -9.48001707001822e-06, -0.040049951523542404, -0.22179971635341644, -0.2342805713415146, 0.634067177772522, 0.0725480318069458, 1.1588096526793379e-07, -0.09304238110780716, -1.5207237083814107e-05, 0.6813233494758606, -4.727684790850617e-05, -0.002365362597629428, 0.006234521511942148, 0.09134827554225922, 0.09883906692266464, 0.035968054085969925, -0.19482918083667755, 0.08084725588560104, -0.10124977678060532, 0.2528369724750519, 0.42445510625839233, -0.1855406016111374, 9.091899119084701e-05, 3.3500531571917236e-05, -2.7373154807719402e-05, 5.261935712042032e-06, 0.007691076956689358, 3.0722043447894976e-05, -0.002677172189578414, 0.17146943509578705], [2.557660627644509e-05, -0.00017587427282705903, -4.692563834396424e-06, -4.6079552703304216e-05, -5.988676275592297e-05, -4.688573972089216e-05, -0.00016797383432276547, 1.3052104804955889e-05, -3.2040879887063056e-05, -2.888518793042749e-06, 6.016785846441053e-06, -8.576288382755592e-05, 2.795779255393427e-05, 8.393886673729867e-06, 0.00012822407006751746, -0.00010161359386984259, 5.472149496199563e-06, -6.263625982683152e-05, -4.634957349480828e-06, -4.677855395129882e-05, -4.3081786316179205e-06, -8.755611634114757e-05, -6.095048229326494e-05, -7.875115989008918e-05, 4.146886567468755e-05, -9.089594095712528e-05, -1.132249781221617e-05, 0.0001294432586291805, -6.429280620068312e-05, 0.00013761105947196484, -4.259073830326088e-05, -2.6780935513670556e-05, -4.321635060478002e-06, -4.632145646610297e-06, 5.673589839716442e-06, -5.7870661294145975e-06, 3.619881681515835e-05, -2.527478272895678e-06, -1.791420072549954e-05, 6.921315798535943e-05], [-0.06360793858766556, -0.11391380429267883, -0.0001622801792109385, -0.004860342480242252, 0.8610607385635376, -0.44069740176200867, -0.023568781092762947, 0.09041117131710052, -0.04313027113676071, 0.16283199191093445, 0.00017731265688780695, 0.2927483022212982, 0.019781645387411118, 0.2654394209384918, 0.352667897939682, 0.17562711238861084, 0.00013792281970381737, 0.06473662704229355, -0.00018033577362075448, -0.029519449919462204, -4.620084655471146e-05, 0.319030225276947, -0.33022138476371765, -0.16365401446819305, -0.04079948738217354, 