{"model_data": {"model": "SimpleRNN", "input_size": 2, "skip": 1, "output_size": 1, "unit_type": "LSTM", "num_layers": 1, "hidden_size": 40, "bias_fl": true}, "state_dict": {"rec.weight_ih_l0": [[-0.17302019894123077, -0.1535801887512207], [-0.113986074924469, 0.288673460483551], [-0.010528109036386013, -0.04886503517627716], [-0.05769447609782219, 0.45506322383880615], [0.12950901687145233, -0.11094488203525543], [0.9445131421089172, -0.18733488023281097], [1.8041582734440453e-05, -3.7922784485999728e-06], [0.2146749645471573, -0.13819660246372223], [-1.6652282283757813e-05, -7.5881580414716154e-06], [-0.025271926075220108, 0.3304024338722229], [-2.5780441319511738e-06, -1.1691402505675796e-05], [1.6723690350772813e-05, 2.512805110654881e-07], [0.08450769633054733, -0.4729650020599365], [-0.05685827508568764, -0.1286541223526001], [0.015089946798980236, 0.018929054960608482], [4.272270416549873e-06, -2.6928091756417416e-05], [0.020474009215831757, -0.1675969958305359], [0.006246369332075119, 0.2481996864080429], [0.17678609490394592, -0.4517718553543091], [9.161539310298394e-06, 1.0474333066667896e-05], [0.01981865055859089, -0.4891030490398407], [-0.1384277641773224, -0.02491985447704792], [0.000843764515593648, -0.10810493677854538], [5.482387450683746e-07, -6.538246452691965e-06], [-0.016255177557468414, 0.04759777709841728], [0.05802091583609581, -0.16358385980129242], [-0.026874694973230362, -0.1842225044965744], [-0.007357973139733076, -0.7355174422264099], [-0.007311505265533924, 0.01597168669104576], [-1.3547319213103037e-05, -6.1224477576615755e-06], [-0.06470009684562683, -0.039190687239170074], [-0.08877861499786377, -0.799490213394165], [8.458520824206062e-06, -2.6678128051571548e-05], [0.18098635971546173, -0.5014109015464783], [0.05590744689106941, -0.2150478959083557], [0.010663372464478016, -0.07048354297876358], [-0.127853125333786, -0.17172284424304962], [-0.011619459837675095, 0.1993381828069687], [1.784884989319835e-05, -1.3076600225758739e-05], [8.950473784352653e-06, -4.785381861438509e-06], [0.047330342233181, 0.22464139759540558], [-0.041961029171943665, 0.5958669185638428], [-0.061312779784202576, 0.5818725824356079], [-0.18483296036720276, 1.359080195426941], [0.0026610041968524456, 0.4836294949054718], [-0.2811371684074402, 0.7301163077354431], [1.8258597265230492e-05, -3.2621824175294023e-06], [0.09258056432008743, 0.10309220850467682], [-1.621270530449692e-05, 3.663178404167411e-06], [0.20242586731910706, 0.5747124552726746], [-2.4854837192833656e-06, -1.4718163583893329e-05], [1.6597034118603915e-05, -5.909787432756275e-07], [-0.014233583584427834, -0.2175551950931549], [-0.031369321048259735, 0.20670919120311737], [-0.031475380063056946, 0.3907090127468109], [4.341078692959854e-06, -3.03442902804818e-05], [0.07099997997283936, 0.208088219165802], [0.12900638580322266, -0.15253201127052307], [-0.11641180515289307, 0.6467688679695129], [8.875997082213871e-06, 1.6109899661387317e-05], [-0.1569313108921051, -0.2492247223854065], [0.005058920476585627, 0.3996579945087433], [-0.044363781809806824, 0.15702956914901733], [5.507479272637283e-07, -9.81430639512837e-06], [-0.012881926260888577, 0.04530619457364082], [0.023933587595820427, -0.05443071946501732], [0.02374906837940216, 0.013307333923876286], [-0.28739336133003235, 0.726439893245697], [-0.011490215547382832, 0.08116235584020615], [-1.2754978342854884e-05, 6.063795808586292e-06], [-0.04686947911977768, -0.05787309631705284], [0.030014768242836, -1.0152616500854492], [8.226383215514943e-06, -2.9472490496118553e-05], [0.10777562856674194, 0.1493455022573471], [-0.05226572975516319, 0.27497950196266174], [0.030881797894835472, 0.19544997811317444], [-0.07535479962825775, 0.07566577941179276], [0.012701637111604214, 0.01894228719174862], [1.807759872463066e-05, -1.263123795069987e-05], [8.766095561441034e-06, -6.883439709781669e-06], [-0.03333417326211929, 0.0483105331659317], [-0.07673560827970505, 0.10878735035657883], [-0.07442104071378708, -0.13546931743621826], [0.1271672397851944, -0.34484586119651794], [0.12794017791748047, 0.020870450884103775], [-0.7928258180618286, -0.3114844858646393], [0.0002978038974106312, -0.00013425458746496588], [0.1503078192472458, 0.10902398079633713], [-0.00145578698720783, 0.00026893612812273204], [-0.5541462302207947, 0.0442458800971508], [-0.00016533526650164276, -0.00027865287847816944], [0.00012048077041981742, 2.5644390007073525e-06], [-0.09259960800409317, -0.07592233270406723], [0.07402919232845306, 0.21476180851459503], [0.17160563170909882, -0.11084471642971039], [2.517667962820269e-05, 0.0005418438813649118], [0.08488959074020386, -0.030117930844426155], [0.2014867216348648, -0.008567553013563156], [-0.1082337498664856, 0.03240594267845154], [-0.0024565262719988823, 0.0001993409969145432], [-0.1005227267742157, -0.033731039613485336], [-0.35113251209259033, 0.010015676729381084], [-0.05638328567147255, 0.1589604616165161], [-0.00011887317668879405, -0.00017473088519182056], [0.08455771952867508, -0.022135857492685318], [0.11918742209672928, -0.0010697155958041549], [-0.051049135625362396, 0.04140284284949303], [-0.4349839389324188, -0.033071596175432205], [0.01923735812306404, -0.04273531213402748], [-0.0015113125555217266, 0.0003432591329328716], [-0.11001069843769073, -0.24252408742904663], [0.048783641308546066, 0.10495800524950027], [6.328258314169943e-05, -0.0003827722975984216], [0.13862194120883942, 0.1812264621257782], [-0.13408294320106506, -0.03815804794430733], [-0.022082313895225525, 0.06963113695383072], [0.7105798721313477, 0.034412842243909836], [-0.09980571269989014, -0.03246474266052246], [0.0004959207726642489, -0.0005214840639382601], [0.00014372379519045353, -5.6711862271185964e-05], [-0.10350906848907471, 0.21432985365390778], [-0.209542378783226, 0.3087223172187805], [0.06390395760536194, 0.1932019591331482], [0.12685036659240723, 0.26322340965270996], [0.0990627110004425, 0.015028347261250019], [0.1521667093038559, 0.08908545970916748], [1.4773713701288216e-05, -3.821666723524686e-06], [0.098939910531044, 0.38120415806770325], [-2.4720007786527276e-05, -7.506903784815222e-06], [-0.12314523011445999, 0.5793927311897278], [-7.221591658890247e-06, -1.1689397979353089e-05], [1.3207609299570322e-05, 2.3034159823964728e-07], [0.06974390149116516, -0.345134437084198], [0.023779455572366714, 0.2925296127796173], [0.03744709864258766, 0.13913975656032562], [1.053780010806804e-06, -2.6974958018399775e-05], [0.008784881792962551, 0.1296745240688324], [0.019183723255991936, 0.24382951855659485], [0.025809533894062042, 0.5567104816436768], [-1.231000896950718e-05, 1.0441446647746488e-05], [-0.0307100098580122, -0.2863224744796753], [-0.06814838200807571, -0.006035164929926395], [0.0019840996246784925, 0.22463729977607727], [-3.5503085200616624e-06, -6.53855704513262e-06], [-0.027688387781381607, 0.0476100854575634], [0.058691222220659256, -0.15291397273540497], [-0.08231814205646515, -0.09200219810009003], [-0.06258044391870499, 0.39833226799964905], [1.0262455940246582, -0.37594670057296753], [-2.3182790755527094e-05, -6.041639153409051e-06], [-0.11105792224407196, -0.08442755788564682], [0.024579329416155815, -0.673119068145752], [6.0193024182808585e-06, -2.6722997063188814e-05], [-0.051267240196466446, -0.07237840443849564], [0.17137642204761505, 0.21299217641353607], [-0.03764006122946739, 0.1069529727101326], [-0.054739922285079956, 0.11349464952945709], [0.0005671344697475433, 0.198253333568573], [1.38223140311311e-05, -1.3126467820256948e-05], [5.013399459130596e-06, -4.787631496583344e-06]], "rec.weight_hh_l0": [[-0.011520820669829845, 0.07244345545768738, -0.12784306704998016, -0.3664224147796631, 0.07062458246946335, -0.29760393500328064, -0.00011022682156180963, 0.14456695318222046, -0.0002810515579767525, 0.04605170339345932, -0.0003957190492656082, -0.00024656098685227334, 0.03804215043783188, 0.07594254612922668, -0.12381316721439362, 0.00031630860758014023, -0.1486417055130005, -0.04127800092101097, 0.049675580114126205, -0.000754973734728992, -0.07280782610177994, 0.02027924545109272, 0.04724476486444473, -0.0003957643639296293, 0.01656002178788185, 0.022556833922863007, -0.05246653035283089, -0.10401604324579239, -0.00042725011007860303, -0.0003047764766961336, 0.06169974058866501, 0.0143769271671772, -0.00047507885028608143, 0.350321888923645, 0.122468963265419, 0.08628029376268387, -0.03630523011088371, -0.01621708832681179, -8.58477214933373e-05, 0.0003889732761308551], [0.05273985490202904, -0.10769005119800568, -0.037473928183317184, -0.23773398995399475, 0.06499415636062622, -0.11988664418458939, -0.0011560600250959396, 0.15485620498657227, -0.0002034408535109833, -0.0909382700920105, -0.0006268518045544624, -0.001033283886499703, -0.019775139167904854, 0.08573907613754272, 0.020204463973641396, 0.0006489085499197245, 0.03114321082830429, -0.016512876376509666, 0.12244497984647751, -0.00042552524246275425, 0.00764103140681982, 0.03868989273905754, 0.08778439462184906, -0.0008157809497788548, -0.01240353100001812, -0.013334249146282673, -0.004555337131023407, 0.03305919095873833, 0.2090267539024353, -0.0002478867245372385, 0.004876624792814255, -0.09280002862215042, -0.0009910614462569356, 0.17143665254116058, -0.03432827070355415, -0.011727347038686275, -0.10010865330696106, -0.001091913552954793, -0.0013412990374490619, 0.000795843661762774], [-0.10122670978307724, 0.06911217421293259, 0.055166095495224, -0.002472677268087864, 0.10429061204195023, 0.0020422141533344984, 8.900380635168403e-06, 0.31411463022232056, -0.00012362170673441142, 0.0748225525021553, -0.00017367454711347818, -0.00017801736248657107, 0.006832629907876253, 0.03358466178178787, -0.0725870206952095, 0.00011150768114021048, 0.14777924120426178, -0.002127045067027211, 0.04154188558459282, 0.0001427061652066186, 0.07554285228252411, -0.1516558676958084, -0.07853841781616211, -0.00015111733227968216, -0.000689783482812345, -0.020414594560861588, -0.10937772691249847, 0.037943899631500244, 0.17475998401641846, -7.24310302757658e-05, -0.013154584914445877, 0.04177389293909073, -0.0002714786969590932, -0.012097271159291267, 0.10967699438333511, 0.0052381837740540504, -0.227413147687912, 0.012461723759770393, 0.0001413064746884629, 0.00010880421905312687], [-0.12186285108327866, 0.06611674278974533, -0.18023313581943512, -0.2010834664106369, -0.1480470895767212, 0.03296283259987831, -0.0012228676350787282, 0.18158411979675293, 0.00011082958371844143, -0.23949994146823883, -0.0005265584914013743, -0.0010469944681972265, -0.023454302921891212, 0.23003670573234558, 0.07387305796146393, 0.0006387096946127713, -0.18879713118076324, 0.09469906240701675, 0.058843862265348434, 0.0004691934445872903, -0.10451675951480865, 0.0043798573315143585, -0.08758899569511414, -0.0007136666099540889, -0.03131351247429848, 0.0003073142434004694, 0.2570408582687378, -0.016414986923336983, 0.1910114288330078, 6.23242522124201e-05, -0.005241375416517258, -0.1489068567752838, -0.0007308577769435942, 0.3688928186893463, -0.08056207001209259, -0.20993216335773468, 0.04278763756155968, -0.030577298253774643, -0.001462680520489812, 0.0007746526971459389], [0.06949062645435333, -0.06968171149492264, -0.08234990388154984, -0.1545659899711609, 0.01287255808711052, -0.2962631285190582, -0.0002682930789887905, 0.1953408420085907, -0.0004966770065948367, -0.1657632291316986, -0.0005121997091919184, -0.000413541158195585, -0.000180127564817667, -0.03729912266135216, 0.07643412053585052, 0.00040027961949817836, 0.2144765555858612, 0.046469561755657196, -0.0010983808897435665, -0.0003691536549013108, -0.08268091827630997, 0.014475890435278416, -0.0469726100564003, -0.0005635733832605183, 0.004443333018571138, 0.015984613448381424, -0.022244969382882118, 0.036640360951423645, 0.04287851229310036, -0.0005331224529072642, 0.06435710936784744, -0.06041520833969116, -0.00029492881731130183, 0.2064054310321808, 0.191165030002594, 0.10024973750114441, 0.005135729443281889, -0.005915490910410881, -0.0003718519874382764, 0.000438621558714658], [0.06422301381826401, -0.06049089878797531, -0.03150836005806923, 0.05417099967598915, 0.057048581540584564, 0.13669580221176147, 7.483640365535393e-05, 0.02443188801407814, 0.00046908011427149177, -0.030694516375660896, 5.4626423661829904e-05, 0.00012766844884026796, 0.031372565776109695, -0.2506217360496521, 0.20447319746017456, 5.89819137530867e-05, -0.08623935282230377, 0.23575595021247864, -0.036949384957551956, 0.0012176247546449304, -0.06428753584623337, -0.33090728521347046, 0.07117708027362823, 2.8849788577645086e-05, -0.011725369840860367, 0.034001972526311874, -0.04044613987207413, -0.07073602080345154, 0.04140300303697586, 0.0006673024035990238, -0.03940224274992943, 0.005337378941476345, -0.00017459334048908204, -0.05543329194188118, 0.03343869745731354, -0.05015389248728752, 0.4466809332370758, 0.015130279585719109, 8.352261829713825e-06, -6.727948493789881e-05], [-5.330219210009091e-06, -8.374128810828552e-06, -6.574445251317229e-06, -5.297557436279021e-06, 1.131642420659773e-06, -2.355042852286715e-05, -4.975577727606151e-09, 9.10867311176844e-06, -3.766482947753502e-08, -1.4010029190103523e-05, -8.627790926141188e-09, -1.0906609837491033e-08, 2.6619600248523057e-06, 3.083521733060479e-06, 8.427289685641881e-06, -6.8582428625063585e-09, 1.2951878716194187e-06, 2.1131795620021876e-06, -8.87794612935977e-06, -2.725583492235728e-08, -1.0269219274050556e-05, -1.1161318980157375e-06, -2.6020811674243305e-06, -1.1537444777331984e-08, 2.682989133973024e-06, 2.7321805191604653e-06, 6.224717253644485e-06, 3.005242888320936e-06, 6.679662419628585e-06, -4.4684924205284915e-08, 2.5781964723137207e-06, 3.2913868608375196e-07, 1.4589865315883799e-08, 1.2452248483896255e-05, 4.054349119542167e-06, 8.658889782964252e-07, 1.5129890925891232e-05, 2.271600806125207e-06, -2.966202172771659e-09, 8.412645691180387e-09], [-0.05550629645586014, 0.04230674356222153, 0.13772305846214294, 0.02300013042986393, 0.03077375702559948, -0.020383747294545174, 7.694299711147323e-05, 0.43248024582862854, -0.0006152915884740651, 0.14803363382816315, -0.0005008261068724096, -8.450357563560829e-05, 0.18297326564788818, -0.16786961257457733, 0.2519156336784363, 0.0004535966145340353, 0.2585292160511017, 0.04442289099097252, 0.0421539768576622, -0.0004254402010701597, 0.11235811561346054, 0.04612250253558159, 0.08979375660419464, -0.0004140477394685149, 0.0282217338681221, 0.05798215791583061, -0.009286845102906227, 0.048479557037353516, -0.07013966143131256, -0.00062929792329669, 0.07752782851457596, 0.013723595067858696, -7.158450898714364e-05, 0.5431976914405823, 0.13384276628494263, -0.06910667568445206, 0.09083902090787888, 0.026558859273791313, -0.00014171763905324042, 0.00017488765297457576], [1.0207806553808041e-05, -3.544540732036694e-06, -4.4714633418152516e-07, -1.3386869795795064e-05, -2.4891321572795277e-06, -7.995225132617634e-06, -8.872613754817849e-09, -9.571745977154933e-06, -4.489352889436304e-09, -8.723358178031049e-07, -5.968062044559019e-09, -9.400427991579363e-09, 2.565903741924558e-06, -2.865354190362268e-06, 2.7549424430617364e-06, 4.0697383241194984e-09, 1.1266951105426415e-06, -4.832783133679186e-07, -4.175639332970604e-06, 1.3519505515091623e-09, 3.0112912554614013e-06, 7.682840077904984e-06, 3.658469722722657e-06, -8.311724641885121e-09, 2.1349519840896392e-07, -1.3821789934809203e-06, -2.261690951854689e-06, 2.530564415792469e-06, 1.663381772232242e-05, -6.011631192848199e-09, -3.4565866258162714e-07, -1.4051912557988544e-06, -1.7241124083966497e-09, 7.829797141312156e-06, 7.400662838108474e-08, -4.48200637492846e-07, 4.579007509164512e-06, 1.24313669402909e-06, -1.2024563567081259e-08, 6.8024244015418844e-09], [-0.025285672396421432, -0.10768212378025055, -0.017822859808802605, -0.011111808940768242, 0.036636997014284134, -0.2761462330818176, 0.0003610202402342111, 0.06533181667327881, -0.0003355279332026839, 0.07126781344413757, -0.0003836112446151674, 0.00022753578377887607, -0.0717836245894432, 0.053577497601509094, -0.008155121468007565, 0.000585898058488965, -0.11557517945766449, -0.07848186790943146, -0.13128867745399475, -0.0007665462326258421, 0.049478285014629364, 0.043380241841077805, 0.10047109425067902, -0.0003606020181905478, 0.044927529990673065, 0.01602141559123993, -0.027972673997282982, 0.3038305938243866, 0.4600536525249481, -0.0002576533588580787, -0.06226242706179619, -0.11997882276773453, -0.0003386029857210815, 0.15430787205696106, -0.2333141714334488, 0.037907205522060394, 0.033429987728595734, 0.07749629020690918, -0.00010790975647978485, 8.656750287627801e-05], [6.500164317913004e-07, -9.25864605960669e-06, 1.5572072697978001e-06, -8.289514880743809e-06, 1.1827136177089415e-06, -1.2635508028324693e-05, -6.913807304442798e-09, 4.216920387989376e-06, -1.977555186272184e-08, -7.848689165257383e-06, -1.0218371038206442e-08, -9.387115085246478e-09, 4.563383299682755e-06, -1.3467445114656584e-06, 7.669190381420776e-06, 3.75841446853542e-09, 4.4050993892597035e-06, -4.905323862658406e-07, -5.94257517150254e-06, -1.2511626401590092e-08, -2.649695034051547e-06, 5.829981546412455e-06, 1.6806831126814359e-06, -1.1514639020049344e-08, 9.58505097514717e-07, -1.7251315398425504e-07, 2.024919922405388e-06, 1.4090924196352717e-06, 8.709955181984697e-06, -2.311617208761163e-08, 3.5148369192938844e-07, 9.64154992288968e-07, 1.4303275230886925e-09, 4.64641834696522e-06, 1.0415556062071119e-06, 8.817613661449286e-07, 3.7873037399549503e-06, 1.1752182444979553e-06, -7.729805240330734e-09, 9.047434801345844e-09], [-2.817405402311124e-06, -1.0809241757669952e-05, -4.332910066295881e-06, -3.649606242106529e-06, 2.0621041585400235e-06, -2.03314411919564e-05, -1.1808632294219024e-08, 6.7160594880988356e-06, -3.867451781047748e-08, -1.3017584933550097e-05, -1.4754181876242e-08, -1.6743920028261527e-08, 2.951191845568246e-06, 1.5260076224876684e-06, 8.679565326019656e-06, 2.2131436683281436e-09, 2.518538849471952e-06, 1.8691181367103127e-06, -8.052923476498108e-06, -2.8772189963888195e-08, -6.607394425373059e-06, 3.6762978083970665e-07, -7.549963925157499e-07, -1.7603298374524456e-08, 2.2496578822028823e-06, 1.959677774721058e-06, 3.889735580742126e-06, 2.8115684926888207e-06, 3.149472149743815e-06, -4.4429967260839476e-08, 1.2075079212081619e-06, 5.666411198035348e-07, 5.195188279571994e-09, 6.322531135083409e-06, 2.5848294171737507e-06, 2.3660905412725697e-07, 1.1981472198385745e-05, 1.7354540204905788e-06, -1.1970382018944292e-08, 1.4492231414919843e-08], [-0.08054126054048538, -0.011955044232308865, -0.06818380951881409, 0.033258598297834396, 0.0489172488451004, -0.07840654999017715, 0.00014942388224881142, 0.19052045047283173, -0.0004294083337299526, 0.0070481435395777225, -0.00024502567248418927, 2.0699140804936178e-05, 0.0549764521420002, 0.0012220528442412615, 0.008146305568516254, 0.00018845875456463546, -0.0059666321612894535, -0.08673545718193054, 0.0018293013563379645, -0.00034705776488408446, 0.04387320950627327, 0.03594563156366348, 0.030273407697677612, -0.00016814572154544294, 0.032632194459438324, 0.010977965779602528, -0.04768932983279228, 0.059395212680101395, -0.07654059678316116, -0.00041994728962890804, 0.02001805044710636, 0.19165341556072235, -0.00016271810454782099, 0.06333011388778687, 0.004272659309208393, -0.0020907786674797535, -0.0926741361618042, 0.04096536338329315, 0.0003656087501440197, 0.0001858185714809224], [0.040592871606349945, -0.09219369292259216, 0.022705264389514923, -0.03852001950144768, -0.006474749185144901, -0.13254649937152863, -0.00030536315171048045, 0.3657276928424835, -0.000803253089543432, -0.012764421291649342, -0.0005470389151014388, -0.00047309702495113015, 0.09538751095533371, 0.021091189235448837, -0.10082800686359406, 0.0004969093133695424, 0.047512445598840714, -0.11286219954490662, 0.09994132071733475, 0.0004264443414285779, -0.11316520720720291, 0.08450193703174591, 0.14813394844532013, -0.00034656404750421643, -0.0024554268456995487, -0.0006411934155039489, 0.11469768732786179, -0.048523180186748505, -0.1670806109905243, -0.0008478976087644696, 0.13092438876628876, 0.1844332218170166, -0.00010939682397292927, 0.233405202627182, -0.011434526182711124, 0.07380960136651993, -0.05878780782222748, 0.007824801839888096, -1.881177377072163e-05, 0.000337425124598667], [0.17458154261112213, -0.21679961681365967, 0.035578541457653046, -0.2685774266719818, 0.10646376758813858, -0.13721610605716705, 0.0012134143617004156, 0.12771359086036682, 0.00011500010441523045, 0.06561556458473206, 0.00029016780899837613, 0.0009627762483432889, 0.14572405815124512, -0.20174331963062286, 0.005268311593681574, -0.00010121969535248354, 0.23023028671741486, 0.04102422669529915, 0.08850791305303574, 0.00021946679044049233, 0.009173640049993992, 0.11710028350353241, 0.1498694270849228, 0.0004866704985033721, 0.012985975481569767, -0.003168178489431739, 0.00865062978118658, 0.04752690717577934, 0.14445997774600983, 0.00032693505636416376, -0.03728670999407768, 0.1007089763879776, 0.00027198903262615204, 0.40814030170440674, 0.013277498073875904, 0.15939894318580627, -0.044189345091581345, 0.03143873065710068, 0.0009452032973058522, -0.0005615282570943236], [-4.162742698099464e-06, -1.0854834727069829e-05, 1.6803520566099905e-06, -1.0029743862105533e-05, -4.200032677204035e-08, -1.7718424714985304e-05, 7.852944072794799e-09, 9.567016604705714e-06, -7.660877265891486e-09, -1.0634861610014923e-05, 3.934438996822109e-09, 4.482916260428738e-09, 3.5721382118936162e-06, -1.76297271536896e-06, 1.1178811291756574e-05, -1.1086032536411494e-08, 5.660142960550729e-06, -1.3412279997737642e-07, -3.064719521717052e-06, -6.4907834662619734e-09, -4.730919499706943e-06, 4.905664354737382e-06, -9.672849046182819e-07, 3.295824502203004e-09, 1.2281226418053848e-06, 2.462890336119017e-07, 5.15961892233463e-06, 8.042342187764007e-07, 1.478708963986719e-05, -1.2380379388332585e-08, 2.376799784542527e-06, 1.6786824517112109e-06, 1.5605422731823637e-08, 1.0977233614539728e-05, -1.9360718397365417e-06, -9.386990882376267e-07, 4.9655795919534285e-06, 1.550651973047934e-06, 1.2424997031246221e-08, -4.381914830986489e-09], [-0.06993414461612701, 0.006187042221426964, -0.14665479958057404, -0.3262009620666504, 0.13488386571407318, -0.09908260405063629, 0.0003178157494403422, 0.45884615182876587, 0.00020450976444408298, 0.15165656805038452, 0.00013457512250170112, 0.00035931493039242923, -0.04005417600274086, 0.07143015414476395, -0.09814240038394928, -6.081916581024416e-05, -0.03334175795316696, -0.042858608067035675, 0.07858729362487793, -0.0004774348344653845, 0.07419935613870621, 0.0800664871931076, 0.15955904126167297, 0.0001417756429873407, 0.025037851184606552, 0.03420871123671532, -0.13960084319114685, -0.0002398586511844769, 0.08497852832078934, 0.00022495820303447545, -0.012054357677698135, -0.024723365902900696, 5.4147803894011304e-05, 0.3681606948375702, -0.1023196280002594, 0.12308967113494873, -0.030178725719451904, -0.018880004063248634, -1.4625305084337015e-05, -0.00014576880494132638], [0.02845156565308571, -0.0006713313050568104, -0.06616538017988205, -0.09410589933395386, 0.011176113039255142, -0.004048892762511969, -0.0006547382799908519, 0.011604966595768929, -9.036152914632112e-05, -0.05518845096230507, -0.0002624172193463892, -0.0006065979250706732, -0.03862561285495758, 0.056793659925460815, -0.09852767735719681, 0.00025455476134084165, -0.009985918179154396, 0.0073911030776798725, -0.0530504435300827, 0.0001932832965394482, -0.05432301014661789, -0.013325267471373081, 0.025165045633912086, -0.0003832191287074238, -0.005124492105096579, -0.0011309899855405092, -0.005263383500277996, -0.01714743860065937, -0.15348143875598907, -0.0001387956872349605, 0.026896046474575996, -0.063473179936409, -0.0003068719815928489, -0.0002931887283921242, 0.023328959941864014, 0.03968801349401474, 0.03837515786290169, 0.008484529331326485, -0.0006570346304215491, 0.000435251829912886], [-0.026157287880778313, 0.1406191736459732, 0.06866062432527542, -0.1914246827363968, -0.07793662697076797, -0.13703911006450653, 0.00046157813630998135, 0.09826503694057465, 0.00043679270311258733, 0.06803999096155167, 0.0001916022301884368, 0.00027961601153947413, -0.11793871968984604, 0.11025293916463852, -0.020698532462120056, -6.50801375741139e-05, -0.13054674863815308, 0.12076801806688309, 0.15839718282222748, 0.001597460824996233, 0.006419516168534756, -0.06813835352659225, -0.024467695504426956, 0.0003842840378638357, -0.02295256219804287, -0.0029268977232277393, 0.03285859897732735, -0.06910877674818039, 0.7629963755607605, 0.00042182308970950544, -0.018384119495749474, 0.09989228844642639, 0.00040395758696831763, 0.22863852977752686, -0.01473654992878437, -0.047281019389629364, -0.0815659835934639, -0.03967401012778282, 0.0005774597520940006, -0.0004396607109811157], [6.479406692960765e-06, -9.026522093336098e-06, -7.700677997490857e-06, -2.5287790776928887e-05, -9.822663571412704e-09, -3.176820609951392e-05, -7.569534332674266e-09, -6.412624315998983e-06, -9.93410065319722e-09, -8.932242963055614e-06, -3.779908330781012e-10, -1.0848486553527437e-08, 4.749846539198188e-06, 5.324174253473757e-06, 3.1110391773836454e-06, -9.600932493469827e-09, 7.197140803327784e-06, 6.709760214107519e-07, -7.4191252679156605e-06, -1.372876745620033e-08, -3.207422651030356e-06, -8.780589269008487e-07, -1.7466321367010096e-07, -4.593581071077324e-09, 2.667359012775705e-06, 2.949503254967567e-07, -5.309103130457515e-07, 1.2273608263058122e-07, 2.3481736207031645e-05, -1.6752851550450032e-08, -2.3320656055147992e-06, -3.638218913692981e-06, 1.3200847526206871e-08, 2.7628582756733522e-05, -3.131110588583397e-07, 4.2617648432496935e-06, 2.3839213099563494e-05, 3.855663635476958e-06, 1.8226283815536704e-09, 6.8065175717890725e-09], [-0.04813492298126221, -0.0514243021607399, 0.06513223797082901, -0.034222349524497986, 0.038394417613744736, -0.09830015897750854, 0.001390047138556838, 0.02061811089515686, 0.0007610610336996615, 0.11342822015285492, 0.0007160586537793279, 0.001350055681541562, 0.09544870257377625, -0.1724649965763092, -0.039158254861831665, -0.0004739015130326152, 0.18966132402420044, -0.07540228962898254, 0.06542714685201645, 0.0007042396464385092, 0.007597130257636309, 0.09559184312820435, -0.05792393907904625, 0.0009605582454241812, 0.020716967061161995, -0.028646327555179596, 0.07855600863695145, 0.10489391535520554, 0.12540534138679504, 0.0008507419261150062, -0.009159809909760952, 0.21464909613132477, 0.0009528682567179203, 0.15307773649692535, -0.06000751629471779, 0.12405779212713242, -0.06379108130931854, 0.09163370728492737, 0.0015829586191102862, -0.001170249772258103], [0.011632421985268593, -0.03834701329469681, -0.06282931566238403, 0.007953624241054058, 0.0025213451590389013, 0.05880162492394447, -0.00018956464191433042, 0.0016235832590609789, 0.00015542957407888025, -0.08006545156240463, -0.0001410337135894224, -0.0002296607126481831, -0.0296060498803854, 0.06938906013965607, -0.02806621976196766, 0.0002071570052066818, -0.01924126036465168, -0.038830939680337906, 0.007118044886738062, 0.0006802278803661466, -0.07258772850036621, -0.028812410309910774, 0.07927729189395905, -0.00017149795894511044, -0.018008284270763397, -0.001558711752295494, 0.04857040196657181, -0.05051802843809128, -0.12129299342632294, 0.00017831560398917645, 0.06812369078397751, -0.011186961084604263, -0.00015933070972096175, 0.0008654296398162842, 0.04146161675453186, 0.03371478617191315, -0.053394682705402374, 0.025294236838817596, 2.2023910787538625e-05, 0.00020931752806063741], [-0.02808506228029728, 0.046286556869745255, 0.10858599096536636, -0.16033223271369934, 0.21748028695583344, 0.050729312002658844, -0.0005660326569341123, 0.5333470106124878, 7.91874117567204e-05, 0.2111872285604477, -0.00029451242880895734, -0.0006681513041257858, 0.11478988081216812, -0.0737866684794426, -0.03794630244374275, 0.0006812832434661686, 0.19319558143615723, -0.058656152337789536, 0.016858180984854698, 0.0007086059777066112, 0.060476094484329224, 0.043432727456092834, 0.011327083222568035, -0.0003967209777329117, -0.000491021666675806, 0.0279062669724226, -0.003618864808231592, -0.06895194202661514, 0.01023398619145155, 0.00021745578851550817, 0.03701549768447876, 0.029182730242609978, 2.7197158487979323e-05, 0.5452810525894165, 0.09729248285293579, 0.02933957614004612, -0.0781383067369461, 0.0396089069545269, -0.0011678797891363502, 0.0003814296505879611], [-3.697359929333288e-08, -9.462016350880731e-06, 1.3170874808565713e-06, -7.3019787123485e-06, 2.3289735509024467e-06, -1.2240187061252072e-05, -1.0045767773192438e-08, 4.677742708736332e-06, -2.5870106057368503e-08, -7.620155884069391e-06, -1.3913460605863293e-08, -1.2700819063127256e-08, 4.967500899510924e-06, -3.102646246588847e-07, 6.8700765041285194e-06, 6.653641637655028e-09, 3.949204710806953e-06, -5.288883357934537e-07, -7.320896656892728e-06, -1.8202872098527223e-08, -2.243685003122664e-06, 5.484650955622783e-06, 1.48987339798623e-06, -1.5425550614622807e-08, 1.1500075061121606e-06, 1.0357236845948137e-07, 1.7044081914718845e-06, 1.5249132729877601e-06, 6.085921086196322e-06, -2.9070648110973707e-08, -2.3021314632387657e-07, 9.65127355812001e-07, -7.575631233436297e-10, 3.2063701382867293e-06, 1.1845849030578393e-06, 5.906434239477676e-07, 4.498414455156308e-06, 1.163673005066812e-06, -1.2117905789921224e-08, 1.2521720549329984e-08], [-0.00109793187584728, 0.002224209951236844, -0.001941411173902452, 0.0013389784144237638, 0.0029647373594343662, 0.007099577225744724, 1.079775984180742e-06, 0.002811125945299864, 4.023290966870263e-05, -0.0012892931699752808, 1.639913534745574e-05, 6.034978014213266e-06, 0.00504769291728735, 0.007263563573360443, -0.001361823990009725, -9.180785127682611e-06, -0.005990609526634216, -0.000633109943009913, -0.0025369629729539156, 4.2719460907392204e-05, -0.0016742569860070944, 0.003261286299675703, 0.004003139212727547, 1.2823124052374624e-05, -0.0006860211724415421, 0.0011294090654700994, 0.0022532253060489893, -0.002113895257934928, -0.017606278881430626, 3.8286303606582806e-05, 0.0004698294505942613, 0.0012018478009849787, 6.897302682773443e-06, -0.008573733270168304, 0.003034390276297927, -0.0007544840918853879, 0.0008940526749938726, 0.00010739489516709, -3.149680878777872e-06, -1.3516311810235493e-05], [0.013842524960637093, -0.0014874368207529187, -0.020345570519566536, 0.015490802936255932, -0.009396549314260483, 0.0005981486174277961, -0.00013254852092359215, -0.02367224730551243, -7.287658809218556e-05, -0.0020244980696588755, -0.0001485167449573055, -0.0001756712154019624, -0.008392032235860825, -0.01791013963520527, -0.037035923451185226, 0.0001291759399464354, 0.018672244623303413, 0.0034982708748430014, -0.014462686143815517, 2.5013083359226584e-05, -0.009297884069383144, -0.011518637649714947, 0.009927349165081978, -0.00017628665955271572, 0.0037606165278702974, 0.0006943759508430958, -0.002375926123932004, -0.004981229081749916, -0.05677321180701256, -9.724518895382062e-05, 0.025762036442756653, -0.0007123916875571012, -0.00014137137623038143, 0.022013649344444275, 0.013549364171922207, 0.019750770181417465, 0.011068152263760567, 0.007887814193964005, -8.644563058624044e-05, 0.0001853804715210572], [0.036221981048583984, 0.00011550520866876468, -0.09653589874505997, -0.12319318950176239, 0.005252403672784567, -0.05062687397003174, 4.1921408410416916e-05, 0.04946524649858475, -2.2767619157093577e-05, 0.042142465710639954, 0.00011654492845991626, -3.9932128856889904e-05, 0.0618649385869503, -0.006448671221733093, -0.13388937711715698, -0.00019374974363017827, 0.0798225924372673, -0.009760001674294472, 0.04835907369852066, 0.0009297938086092472, -0.057091694325208664, 0.0870438739657402, -0.014348705299198627, 8.050500764511526e-05, 0.013512206263840199, 0.02848466858267784, 0.05539674311876297, -0.08516749739646912, -0.10085313767194748, 5.3333991672843695e-05, 0.10613871365785599, 0.06937580555677414, 0.00031838202266953886, 0.06138685718178749, 0.015366308391094208, 0.1261712908744812, 0.14352306723594666, 0.10054343193769455, 0.0003281530225649476, -6.850274803582579e-05], [0.12288518995046616, -0.051317524164915085, -0.29472553730010986, -0.15779490768909454, -0.20660851895809174, -0.14885905385017395, 6.002536974847317e-05, -0.008130894042551517, -0.0031047347001731396, -0.04814276099205017, -0.0015954667469486594, -0.00014648119395133108, 0.24252738058567047, -0.11476604640483856, -0.1168767660856247, 0.0010193971684202552, 0.14334052801132202, -0.14115099608898163, -0.37881341576576233, -0.003982780501246452, 0.13029813766479492, -0.03976134955883026, -0.11472466588020325, -0.0015101401368156075, 0.10874153673648834, -0.00803434569388628, -0.10094644874334335, 0.2588413953781128, 0.7420522570610046, -0.0032407459802925587, -0.0848531723022461, 0.1980026513338089, -0.00025070784613490105, 0.10006475448608398, -0.4926159679889679, 0.37154439091682434, 0.2978356182575226, 0.1120578795671463, -0.00028762497822754085, 0.0009469265933148563], [0.011285446584224701, 0.00793465320020914, 0.007919073104858398, 0.04037650674581528, 0.01814872771501541, 0.03428373858332634, -9.27523615246173e-06, -0.008644316345453262, 0.00010150906018679962, -0.008337244391441345, -4.510981307248585e-05, -1.66901336342562e-05, -0.010763509199023247, -0.00894622877240181, -0.0054470025934278965, 7.555376214440912e-05, 0.009630577638745308, 0.004031818360090256, -0.012225018814206123, 0.00010364328772993758, 0.005982094444334507, -0.0068955919705331326, 0.0018783939303830266, -4.533338869805448e-05, -0.005239041987806559, -0.00018163137428928167, -0.007234163116663694, -0.023733094334602356, -0.07019859552383423, 8.368233102373779e-05, 0.02156113274395466, -0.0077299680560827255, -6.521822069771588e-05, -0.04706106707453728, 0.007071459665894508, 0.004989752545952797, 0.013662084937095642, -0.0010791701497510076, -2.2305830498225987e-06, 2.341621438972652e-05], [9.450235666008666e-06, -4.311616066843271e-06, -3.306107316802809e-07, -1.3107495760777965e-05, -1.9091612557531334e-06, -9.608388609194662e-06, -7.3210855155991794e-09, -1.0653985555109102e-05, -5.258887991743677e-09, -7.338979912674404e-07, -5.7364135663817706e-09, -8.451726429825612e-09, 1.822871240619861e-06, -6.471299798249674e-07, 1.7030490653269226e-06, 3.4202141119266116e-09, 2.2584449652640615e-06, -2.1177743292355444e-07, -2.9519169402192347e-06, 1.5175658507615708e-09, 2.2089359390520258e-06, 7.196356364147505e-06, 2.5402191567991395e-06, -7.874178642452989e-09, 3.6298447980698256e-07, -1.4971915334172081e-06, -1.832283601288509e-06, 3.2776445095805684e-06, 1.648281977395527e-05, -6.59990773144159e-09, -1.7289487175276008e-07, -1.907238811327261e-06, -5.42824285520993e-10, 8.2420074249967e-06, 1.8400572798782378e-07, -2.482205161413731e-07, 5.875848728464916e-06, 1.4096112863626331e-06, -9.645397369695274e-09, 6.132991892116024e-09], [-0.003113817423582077, 0.010057386942207813, -0.0026302647311240435, 0.02120671235024929, -0.01898123323917389, -0.00957308616489172, -8.891525794751942e-05, -0.02317783236503601, 1.358494864689419e-05, 0.006101419683545828, -8.230399544117972e-05, -0.0001294938992941752, -0.005335274618119001, 0.0014142334694042802, -0.016773534938693047, 5.2234463510103524e-05, 0.006597473286092281, -0.006873862352222204, -0.004963486455380917, 0.00023133066133596003, -0.01991424709558487, -0.0031043582130223513, 0.021114638075232506, -0.00011484939750516787, -0.0005479122628457844, -0.004459349438548088, 0.03398757427930832, -0.00553650688380003, -0.03271365538239479, 2.8190540888317628e-06, 0.028515905141830444, -0.0035392497666180134, -8.403896208619699e-05, 0.027412226423621178, -0.013688977807760239, 0.00908000860363245, -0.01887006312608719, 0.01491787564009428, -6.953595584491268e-05, 0.00010860369366127998], [0.00035704512265510857, 0.056085553020238876, -0.021221498027443886, 0.03745802491903305, -0.027388719841837883, -0.15454784035682678, 0.0006013160455040634, 0.04395732656121254, -0.0005408161086961627, 0.15538088977336884, -0.0002695868315640837, 0.00031092928838916123, 0.1476801335811615, -0.015867464244365692, -0.11039015650749207, 4.223896030453034e-05, 0.1258932203054428, 0.024735141545534134, 0.018998142331838608, 0.0007158205844461918, 0.015588386915624142, 0.16902223229408264, -0.022742921486496925, -5.344411692931317e-05, 0.021207960322499275, 0.05461684986948967, 0.03622639924287796, 0.0016749410424381495, -0.10033567249774933, -0.0003526855434756726, 0.07969292998313904, 0.20105277001857758, -6.757984374416992e-05, 0.22304795682430267, 0.2153761237859726, 0.06396136432886124, 0.06970524787902832, 0.062307875603437424, 0.0007896538591012359, -3.5213903174735606e-05], [-5.243912255536998e-06, -9.904113539960235e-06, 3.79528245275651e-07, -1.0136815944861155e-05, -1.1100332812929992e-06, -2.2511805582325906e-05, 1.516993641814679e-08, 9.871692782326136e-06, -6.6060046322036214e-09, -1.2148323548899498e-05, 9.502479692002908e-09, 1.0360330371383952e-08, 2.883264642150607e-06, -2.5923593511834042e-06, 1.3893674804421607e-05, -1.890794543157881e-08, 5.368503025238169e-06, 1.204159161716234e-06, -3.92150695915916e-06, -5.888364906780907e-09, -5.358369435271015e-06, 3.7552395042439457e-06, -2.7420085189078236e-06, 8.984472721351722e-09, 1.7085220633816789e-06, 1.072238092092448e-06, 5.954697826382471e-06, 3.5976577805740817e-07, 1.608790989848785e-05, -1.2645590352633462e-08, 3.775811592277023e-06, 7.127088110792101e-07, 2.4041142410169414e-08, 1.511364916950697e-05, -2.614293634906062e-06, -1.970194034583983e-06, 8.480063115712255e-06, 2.059246526187053e-06, 2.1482742695866364e-08, -1.0230300162561434e-08], [0.03143545985221863, -0.16485477983951569, -0.20451921224594116, -0.06551198661327362, -0.5041338801383972, -0.013190405443310738, -0.0005281469784677029, -1.8742198944091797, -0.001474782475270331, 0.09276213496923447, -0.0007852946873754263, -0.000723263539839536, 0.018871579319238663, 0.12712644040584564, 0.15731693804264069, 0.00042703558574430645, 0.2973369061946869, -0.0116978008300066, -0.024885738268494606, -0.0002693199785426259, 0.03978404775261879, 0.2551579773426056, -0.05042793229222298, -0.0007702731527388096, 0.057126011699438095, -0.033843908458948135, 0.13098464906215668, -0.05864015966653824, 0.1640348881483078, -0.0012224565725773573, 0.079368956387043, -0.07953722774982452, -0.0005515377270057797, 0.1743008941411972, -0.034328240901231766, 0.2521795630455017, -0.07388576865196228, 0.07646260410547256, -3.145971641060896e-05, 0.0009760813554748893], [-0.017433449625968933, 0.141565203666687, 0.02563847228884697, 0.013780727051198483, -0.06032305210828781, -0.049006760120391846, 3.779364124056883e-05, 0.03864693641662598, -1.6634923667879775e-05, -0.12386808544397354, 1.8160069885198027e-05, 5.6349039368797094e-05, 0.1276550441980362, 0.011549357324838638, 0.05951816588640213, -0.00027852991479448974, 0.003579002106562257, 0.01761048473417759, 0.39482608437538147, 0.0007836231961846352, 0.0015231813304126263, -0.028695248067378998, 0.0034806665498763323, -2.8105623641749844e-05, -0.006953686010092497, 0.014086112380027771, 0.009438320994377136, -0.32394862174987793, 0.030563166365027428, -2.167061211366672e-05, 0.056387558579444885, -0.021977094933390617, 0.0002502448915038258, 0.018114719539880753, -0.13924004137516022, 0.018595455214381218, -0.028010958805680275, 0.004992462694644928, 0.0001763772452250123, -8.013917977223173e-05], [-0.06891217082738876, -0.05036019906401634, 0.04520557448267937, -0.11595574766397476, 0.029380152001976967, -0.07444062829017639, 0.001391612458974123, 0.055151812732219696, 0.0009747616713866591, 0.0013545483816415071, 0.0008086274610832334, 0.0014355068560689688, 0.09809844940900803, 0.00015418021939694881, 0.02787196636199951, -0.0005894499481655657, 0.03615478053689003, -0.16327501833438873, 0.09091755747795105, 0.0003683504764921963, -0.026479432359337807, 0.043037049472332, -0.13182611763477325, 0.000954320072196424, 0.010814880020916462, -0.002471825573593378, 0.08179269731044769, 0.14194552600383759, 0.1331300139427185, 0.0009949692757800221, -0.03002084232866764, 0.03396202251315117, 0.000955118506681174, 0.15098468959331512, -0.10993842780590057, -0.01059665810316801, 0.004212380852550268, 0.03712116554379463, 0.0011871226597577333, -0.0012062834575772285], [-0.1702122837305069, 0.06371226161718369, -0.04361062869429588, -0.13708586990833282, 0.013539370149374008, -0.1949080228805542, -0.0006835575914010406, 0.14215297996997833, -0.0014929176541045308, 0.035178638994693756, -0.0009392151259817183, -0.0008499376708641648, 0.24047598242759705, -0.03099559061229229, 0.002289727795869112, 0.0005593174137175083, -0.07794366031885147, -0.0341474749147892, 0.003429917385801673, -0.0005387909477576613, -0.01754455454647541, -0.009371507912874222, -0.0623943954706192, -0.000990661676041782, 0.046429187059402466, 0.03440713509917259, 0.0747479796409607, -0.018640127032995224, -0.0868593230843544, -0.0014309711987152696, 0.08633048832416534, 0.05423103645443916, -0.000571292475797236, 0.34159210324287415, -0.009856222197413445, 0.09458844363689423, 0.0800577849149704, 0.08434922248125076, -0.0005847016000188887, 0.0010033805156126618], [0.0005064632277935743, -0.008796137757599354, -0.0239093117415905, -0.04201231524348259, 0.01306934840977192, -0.001362879411317408, -0.00024162659246940166, 0.009834259748458862, -6.745482824044302e-05, -0.017876634374260902, -0.00011711686238413677, -0.00022628818987868726, 0.011489947326481342, 0.03451709821820259, -0.03271252661943436, 0.00010755321272881702, -0.01587075926363468, 0.0035139203537255526, -0.018281791359186172, 5.8211342548020184e-05, -0.029043888673186302, 0.010506299324333668, 0.010513822548091412, -0.00015662530495319515, -0.0011965160956606269, 9.903033969749231e-06, -0.0005690133548341691, 0.001440739375539124, -0.07327280193567276, -7.791953976266086e-05, 0.00382362212985754, -0.007876924239099026, -0.00011721046757884324, 0.009322877041995525, 0.03939639776945114, 0.0205776896327734, -0.007755516096949577, 0.0014358152402564883, -0.0002561354194767773, 0.000170995932421647], [-8.956727469922043e-06, -6.942142590560252e-06, -7.951515726745129e-06, -1.0817598194989841e-05, 2.9373295546974987e-06, -2.6632351364241913e-05, -3.4879612531568682e-09, 1.2978511222172529e-05, -4.519164420457855e-08, -1.5298932339646854e-05, -9.331436068293897e-09, -1.0612190237679897e-08, 4.738660209113732e-06, 4.950468792230822e-06, 7.72687326389132e-06, -1.1080472539504171e-08, 7.86696148225019e-07, -8.176459687092574e-08, -1.4361777175508905e-05, -3.619304678181834e-08, -1.1126428944407962e-05, -1.036532012221869e-06, -5.283895006868988e-06, -1.2328006171458128e-08, 3.295401029390632e-06, 3.252636133765918e-06, 7.811800969648175e-06, 1.0969362165269558e-06, 1.4058113265491556e-05, -5.408120173910902e-08, 2.8524618755909614e-06, 5.34947389496665e-07, 2.005776167379736e-08, 1.865794365585316e-05, 3.664145879156422e-06, 4.5448524588209693e-07, 1.7223841496161185e-05, 3.4180827697127825e-06, -2.343124583248368e-10, 9.02150087966902e-09], [8.246740890172077e-08, -1.0195043614658061e-05, -2.276767190778628e-06, -6.75278670314583e-06, 1.7096776900871191e-06, -1.7038020814652555e-05, -8.584398081268318e-09, 2.8762783585989382e-06, -3.3344008443236817e-08, -9.611450877855532e-06, -1.4392891323211643e-08, -1.2791518955168613e-08, 3.588655317798839e-06, -4.209022677059693e-07, 7.20008347343537e-06, 4.30964153252944e-09, 3.859001026285114e-06, 5.256986241874984e-07, -8.286367119580973e-06, -2.622414285724517e-08, -3.0231424261728534e-06, 3.106431222477113e-06, 3.4399360515635635e-07, -1.6274798397830637e-08, 1.8774488808048773e-06, 9.932703051163116e-07, 2.0240884168742923e-06, 2.2531769445777172e-06, 6.7620849222294055e-06, -3.735032194640553e-08, 1.0287845242373805e-08, 4.557195438792405e-07, 2.692533085379978e-09, 6.23514870312647e-06, 1.6203742916331976e-06, 6.20313812760287e-07, 9.11678398551885e-06, 1.505370619270252e-06, -1.0146962381440972e-08, 1.2975118757196924e-08], [0.14240075647830963, -0.06796476244926453, 0.013163957744836807, 0.14294347167015076, 0.037827614694833755, 0.2894892692565918, -0.0006518863374367356, -0.07570531219244003, -2.2047232050681487e-05, 0.032491084188222885, -0.0002741315693128854, -0.0006218766211532056, -0.07276816666126251, -0.048589300364255905, -0.15475426614284515, 0.0003762959677260369, 0.05316677689552307, 0.026237597689032555, 0.009940408170223236, -0.0007436038576997817, 0.03532593697309494, -0.028932077810168266, 0.12007729709148407, -0.00039882652345113456, -0.014754797331988811, 0.00841718353331089, -0.08921781927347183, -0.16015438735485077, -0.2535575330257416, -7.601042307214811e-05, -0.0031535886228084564, -0.11579982191324234, -0.0005494965589605272, -0.09867841750383377, -0.024546973407268524, 0.021469347178936005, 0.14937055110931396, -0.06701532751321793, -0.0005641054012812674, 0.0006245183176361024], [0.030650686472654343, -0.09535955637693405, 0.015545425936579704, -0.013744205236434937, 0.0851837694644928, 0.3474101722240448, -0.0010318609420210123, 0.04226270318031311, -0.00011110107152489945, 0.018368739634752274, -0.00016816901916172355, -0.0007581455283798277, -0.06246136128902435, 0.05264855921268463, 0.010771652683615685, 0.00016923742077779025, -0.0494830459356308, 0.06256413459777832, 0.00615497725084424, -0.00011391865700716153, 0.0029141453560441732, 0.0447203703224659, 0.05135257542133331, -0.0002608704671729356, -0.03558001667261124, -0.01657632179558277, 0.05022600665688515, -0.07529304921627045, -0.21987521648406982, -2.5872501282719895e-05, 0.016446318477392197, -0.10013239085674286, -0.0004969497094862163, -0.03473556041717529, -0.03719693422317505, -0.03134838119149208, -0.079981729388237, -0.03650219365954399, -0.0007397267618216574, 0.0005041711265221238], [0.025782927870750427, 0.0789351835846901, 0.14652562141418457, -0.11280548572540283, 0.06537467986345291, 0.13563638925552368, -0.0004857481108047068, -0.06320185214281082, 0.0002275173901580274, 0.29500719904899597, -0.00012020511348964646, -0.0004466281388886273, 0.01379932090640068, 0.025993794202804565, -0.1294541209936142, 0.000337825040332973, -0.05213286355137825, -0.004267978016287088, -0.03820348531007767, -0.00043057810398750007, 0.1120188906788826, -0.014051994308829308, 0.05382271111011505, -0.00018848953186534345, 0.00017250333621632308, 0.023374084383249283, -0.05412236973643303, 0.018850279971957207, -0.15236501395702362, 0.0001453734585084021, -0.012924086302518845, 0.005421128123998642, -0.00031918767490424216, 0.0788198783993721, 0.19063934683799744, -0.10861819237470627, -0.015572313219308853, -0.04809247702360153, -0.0004889881820417941, 0.00026363777578808367], [0.005146999843418598, 0.04185005649924278, -0.07028401643037796, 0.009494982659816742, 0.02408125251531601, -0.01822214387357235, -0.0021588928066194057, 0.17389936745166779, -0.00046700891107320786, -0.13595639169216156, -0.0013348826905712485, -0.0019701209384948015, 0.011732453480362892, 0.06958094239234924, 0.21110333502292633, 0.0012317163636907935, 0.1037648618221283, 0.18847641348838806, -0.24367061257362366, 0.0005011389730498195, -0.18829408288002014, 0.04246726632118225, 0.11621317267417908, -0.0016720223939046264, -0.024473460391163826, 0.0014031322207301855, 0.046723417937755585, -0.06630108505487442, -0.051023099571466446, -0.0004674041410908103, 0.008451358415186405, -0.1921745240688324, -0.0012894957326352596, 0.3132593333721161, 0.20381969213485718, 0.06703253835439682, 0.027479059994220734, 0.015002519823610783, -0.0026450075674802065, 0.0016176234930753708], [-0.041200727224349976, -0.06694527715444565, -0.04478297010064125, -0.23428992927074432, 0.06959235668182373, 0.09692450612783432, -0.0006385474116541445, 0.1314549595117569, -5.770144343841821e-05, -0.13922834396362305, -0.0003459772851783782, -0.0006049447110854089, 0.0002744504890870303, 0.012893101200461388, 0.12642183899879456, 0.0003047341597266495, 0.11346539109945297, 0.09449909627437592, -0.1406121850013733, 0.00013202577247284353, 0.0029432044830173254, 0.024377912282943726, -0.015015036799013615, -0.0005253904964774847, -0.0172121599316597, -0.005551369860768318, -0.007388993166387081, -0.060441888868808746, -0.1078883707523346, -9.759101521922275e-05, 0.011233469471335411, -0.07001980394124985, -0.0003870766086038202, 0.07626275718212128, 0.12615075707435608, -0.07249362766742706, -0.035227078944444656, -0.019140562042593956, -0.0006624408415518701, 0.0004658711841329932], [-0.011652841232717037, -0.1369267702102661, -0.07541787624359131, 0.08035855740308762, 0.05113648995757103, 0.024283280596137047, -0.0008876778301782906, -0.028437284752726555, -0.00011595699470490217, -0.1778678596019745, -0.00047851091949269176, -0.0007704810705035925, -0.07760267704725266, -0.005595897790044546, 0.11643119901418686, 0.0004716696566902101, 0.05624401196837425, 0.0875127762556076, -0.02849818952381611, 0.0006139541510492563, -0.03680108115077019, 0.021614637225866318, 0.014459874480962753, -0.0005697982269339263, -0.032160546630620956, 0.0004724274331238121, 0.07196329534053802, -0.08959121257066727, -0.1692861020565033, -1.8034477761830203e-05, -3.795769589487463e-05, -0.06565132737159729, -0.0006960568716749549, -0.06417036056518555, -0.0013194723287597299, -0.029036501422524452, 0.03413380682468414, -0.012079862877726555, -0.0008706119260750711, 0.0006941762403585017], [-6.429644599847961e-06, -8.123233783408068e-06, -5.967042852716986e-06, -6.3651045820734e-06, 5.861125487172103e-07, -2.5720570192788728e-05, 2.236203444638818e-09, 9.860728823696263e-06, -2.9620123243034868e-08, -1.3993778338772245e-05, -8.985139299255707e-10, -4.1694896424360195e-09, 2.429697815387044e-06, 2.070522668873309e-06, 9.952734217222314e-06, -1.5069371528397824e-08, 2.139851631000056e-06, 2.6348288884037174e-06, -8.954867553256918e-06, -2.060999193531643e-08, -1.0688318070606329e-05, -1.2047298696415965e-06, -4.300194177631056e-06, -3.849979446357565e-09, 2.7752687401516596e-06, 2.8861002192570595e-06, 6.694065632473212e-06, 2.6896675535681425e-06, 9.227755072060972e-06, -3.77161981646168e-08, 4.093894403922604e-06, -2.645723782279674e-07, 2.2302687696651446e-08, 1.5185284610197414e-05, 4.11843348047114e-06, 2.8905449767080427e-07, 1.6465211956528947e-05, 2.7056510134571e-06, 6.733729129848598e-09, 1.2504395296986104e-09], [-0.05186805874109268, -0.026367662474513054, 0.02405708283185959, -0.07194465398788452, -0.035731274634599686, 0.1705058068037033, -0.0009143137722276151, -0.11597325652837753, -0.0004329974763095379, -0.05337639898061752, -0.0007149891462177038, -0.000930115464143455, 0.06712892651557922, 0.053072355687618256, -0.023760393261909485, 0.0006430182256735861, 0.04770626872777939, 0.08588521927595139, -0.14201636612415314, -0.0001210872214869596, 0.006224264856427908, 0.04658154398202896, -0.16572289168834686, -0.0008776567410677671, -0.011739964596927166, 0.005239613354206085, 0.14992819726467133, -0.09891412407159805, -0.1786348819732666, -0.0004332854296080768, 0.002746391575783491, -0.05846540257334709, -0.0007313716923817992, -0.12948568165302277, -0.036628108471632004, -0.21348024904727936, -0.00433437991887331, -0.005188243929296732, -0.0007791479001753032, 0.0009613932343199849], [9.596103154763114e-06, -3.88712123822188e-06, 1.4915525525793782e-07, -7.143564289435744e-06, -1.3431825891530025e-06, -2.8289027795835864e-06, -1.0409466177918603e-08, -7.95809773990186e-06, -1.3386636243950534e-09, -6.041653932697955e-07, -5.073386599718788e-09, -1.0045146048298648e-08, 2.967492036987096e-06, -2.589264795460622e-06, 2.124847696904908e-06, 4.266681230546965e-09, -1.248066467951503e-07, -6.57560235595156e-07, -4.336363417678513e-06, 7.149968173081334e-09, 3.2320826903742272e-06, 7.0713676905143075e-06, 4.55259259979357e-06, -8.183771882386282e-09, -4.052845170576802e-08, -1.4332448472487158e-06, -2.2320434709399706e-06, 2.686485231606639e-06, 5.779570983577287e-06, -1.923898373945576e-09, -8.059083143052703e-07, 5.194747814130096e-07, -2.4139814591706e-09, 6.690363818506739e-08, 6.349316663545324e-07, -7.088266897881113e-07, 4.360698767413851e-06, 1.0072872100863606e-06, -1.4406296600100177e-08, 6.700028087891496e-09], [-0.0015647965483367443, 0.025989150628447533, 0.13143306970596313, 0.2410578429698944, 0.02960989996790886, -0.15511554479599, -0.0008272092090919614, -0.00326528144069016, -0.0007435971638187766, 0.12635965645313263, -0.0009423004230484366, -0.00086170993745327, -0.11196983605623245, 0.03080741874873638, -0.03312619775533676, 0.0009603170328773558, -0.04864006116986275, 0.038782618939876556, 0.06274349242448807, -0.0007603515987284482, 0.005920495372265577, -0.060054052621126175, 0.07157812267541885, -0.0008968179463408887, 0.0027979575097560883, -0.022635646164417267, -0.04724280163645744, 0.07275204360485077, -0.48330414295196533, -0.000866191869135946, 0.03581736236810684, -0.04845205321907997, -0.0008542213472537696, -0.16850964725017548, -0.012535739690065384, 0.01891314797103405, -0.07651320099830627, -0.0014081867411732674, -0.0008677280857227743, 0.0008373711607418954], [3.979923519636941e-07, -9.375783520226832e-06, 1.232053250532772e-06, -9.034991307999007e-06, 3.143698847907217e-07, -1.4876885870762635e-05, -3.5913074736271255e-09, 4.108852408535313e-06, -1.6171336270076608e-08, -8.28402608021861e-06, -6.3722658261156084e-09, -6.504672800389244e-09, 3.5618113543023355e-06, -2.473116637702333e-06, 8.577109838370234e-06, -6.680702657746451e-10, 5.478150796989212e-06, -3.734500637619931e-07, -6.322622994048288e-06, -1.1157327506339243e-08, -2.839390617737081e-06, 5.446118393592769e-06, 9.391679327563907e-07, -7.616352881711919e-09, 1.0767597586891497e-06, -3.146504923279281e-07, 1.5470074004042544e-06, 1.186956865240063e-06, 1.1346816791046876e-05, -2.052578373934466e-08, 1.5359285043814452e-06, 2.687487494767993e-07, 5.443307582453372e-09, 7.4788567872019485e-06, 9.103723073167203e-07, 1.1833473081424017e-06, 3.471707941571367e-06, 1.4848325236016535e-06, -2.2825537016046837e-09, 5.836810590409414e-09], [-3.6643689327320317e-06, -1.0674689292500261e-05, -4.100353180547245e-06, -4.924645963910734e-06, 1.3555145415011793e-06, -2.2751812139176764e-05, -5.297906557899523e-09, 7.272050424944609e-06, -3.144002391763934e-08, -1.3142508578312118e-05, -7.595457596210053e-09, -1.0748227197154847e-08, 2.5605602331779664e-06, 3.8079372188803973e-07, 1.0204224054177757e-05, -5.59990409598754e-09, 3.523669192873058e-06, 2.304275312781101e-06, -8.28963311505504e-06, -2.2868755777949445e-08, -6.908896921231644e-06, 2.660942186594184e-07, -2.1693765575037105e-06, -1.0557333673943958e-08, 2.3595296170242364e-06, 2.021440650423756e-06, 3.991316134488443e-06, 2.5008296233863803e-06, 6.117162229202222e-06, -3.832784045698645e-08, 2.698468279049848e-06, -1.1775561858939909e-07, 1.2546189864792723e-08, 9.719869012769777e-06, 2.6040079319500364e-06, -8.799391792990718e-08, 1.2760083336615935e-05, 2.1489108803507406e-06, -2.9954734248605064e-09, 7.989506833894211e-09], [-0.0014674554113298655, 0.033201273530721664, 0.01940985582768917, 0.1717376410961151, 0.05043443292379379, 0.07690668851137161, -0.00033477693796157837, -0.06507689505815506, -0.00030428433092311025, 0.11996502429246902, -0.0003354462969582528, -0.0004091071314178407, -0.005476759746670723, -0.01641629822552204, -0.0747644454240799, 0.0004299320571590215, -0.09084080159664154, -0.048998355865478516, -0.07358836382627487, -0.0006615702295675874, 0.02957247942686081, 0.04664067551493645, 0.08041024953126907, -0.0003394964151084423, 0.026672443374991417, 0.011951575055718422, -0.011473989114165306, 0.0447382852435112, -0.19952090084552765, -0.0003567483217921108, 0.012835647910833359, 0.10052236169576645, -0.0004235686792526394, -0.027660328894853592, 0.020311765372753143, 0.006280046422034502, -0.0028962818905711174, 0.0049207815900444984, -0.00024583376944065094, 0.0004219638940412551], [0.0297999307513237, -0.10184721648693085, 0.07415799796581268, 0.08157891035079956, 0.06680601090192795, 0.1902783066034317, 0.0007149450248107314, -0.1907186508178711, 0.0003207576519344002, 0.03321484848856926, 0.00025942668435163796, 0.0006064564804546535, -0.008696665056049824, -0.1295689195394516, -0.029372112825512886, -0.0001326096389675513, -0.09154289960861206, 0.05494224280118942, 0.023031501099467278, 0.00033785385312512517, -0.057082999497652054, 0.05021694302558899, 0.0026089022867381573, 0.00030145791242830455, -0.017750749364495277, -0.022463154047727585, 0.03808578848838806, -0.058333057910203934, -0.19962187111377716, 0.0004460722557269037, 0.0003295318747404963, -0.014472384937107563, 0.0001282141456613317, -0.18519116938114166, -0.05481567978858948, 0.008739548735320568, -0.07820729166269302, -0.016589557752013206, 0.0007126916316337883, -0.0003412427904549986], [0.10279592126607895, -0.09912930428981781, 0.05217580869793892, 0.0904666930437088, 0.00554727902635932, 0.07622330635786057, 0.000920365855563432, -0.12719103693962097, 0.00034175944165326655, -0.1360262930393219, 0.00013226608280092478, 0.0007476089522242546, -0.002364455722272396, -0.08869095891714096, 0.17882229387760162, -5.08138291479554e-05, 0.008834428153932095, 0.14798595011234283, -0.17760996520519257, 9.942480392055586e-05, -0.007267305161803961, 0.06663385033607483, 0.15603885054588318, 0.0002326506655663252, -0.004539866000413895, -0.01492808386683464, -0.05149542912840843, -0.05074194446206093, -0.14758555591106415, 0.0002958579279948026, 0.009630692191421986, -0.21876206994056702, 0.00012315843196120113, -0.14910641312599182, -0.03932584449648857, -0.03991690278053284, 0.06624455749988556, -0.004228587727993727, 0.0007222170825116336, -0.00036134623223915696], [-4.5294323172129225e-06, -1.0866297998290975e-05, 1.5191621969279367e-06, -1.1132258805446327e-05, -6.74786178933573e-07, -1.9971497749793343e-05, 1.119127723825386e-08, 9.666250662121456e-06, -5.008832459907353e-09, -1.0859074791369494e-05, 7.305037019733618e-09, 7.4135062533287055e-09, 2.9276072837092215e-06, -2.753579110503779e-06, 1.2151832379458938e-05, -1.505270397217373e-08, 6.849571036582347e-06, -6.26209910592479e-08, -3.32243189404835e-06, -5.733175267863544e-09, -4.719147000287194e-06, 4.68937605546671e-06, -1.7625156942813192e-06, 6.806810226578364e-09, 1.3536559890781064e-06, 1.7112915884354152e-07, 4.753204848384485e-06, 6.060707278265909e-07, 1.7450152881792746e-05, -1.0519883630877302e-08, 3.2182720133278053e-06, 1.1114824474134366e-06, 1.9402351725261724e-08, 1.4022116374690086e-05, -2.0666836917371256e-06, -8.436375082965242e-07, 4.81183724332368e-06, 1.8230944078823086e-06, 1.7422422615709365e-08, -7.456642414638281e-09], [0.014187649823725224, -0.056857939809560776, 0.08936547487974167, 0.04092841595411301, 0.05972466617822647, 0.08858581632375717, -0.00011019667726941407, -0.05832706764340401, 0.00020680703164543957, -0.037751659750938416, 3.240296427975409e-05, -4.897104008705355e-05, 0.04797034710645676, 0.06796342879533768, -0.21777862310409546, -5.7531513448338956e-05, -0.050128255039453506, 0.026791788637638092, -0.013098419643938541, -0.00012353032070677727, 0.03270057216286659, 0.0781153216958046, 0.13415895402431488, 8.162950138057568e-08, -0.017793582752346992, -0.037271980196237564, -0.0015212182188406587, -0.0674007311463356, -0.36485952138900757, 0.00011580161663005129, 0.05028235539793968, -0.07995244860649109, -0.00030441797571256757, -0.18654127418994904, -0.07450328022241592, -0.08916124701499939, -0.09777222573757172, -0.008836905471980572, 6.466428021667525e-05, 0.00017177188419736922], [0.1272754818201065, -0.019487684592604637, -0.013235156424343586, 0.11064276099205017, -0.02534347213804722, 0.03271583095192909, 0.00031763248261995614, -0.09870324283838272, 0.0004261548747308552, 0.0018552076071500778, 0.0003619047929532826, 0.00037553306901827455, -0.1217280849814415, -0.03826093301177025, -0.09902270138263702, -0.0002528680197428912, 0.047722041606903076, 0.04669547453522682, -0.029971390962600708, 9.960850729839876e-05, -0.00872640311717987, -0.05738873779773712, 0.030057130381464958, 0.0003872125525958836, -0.007099064067006111, -0.016995495185256004, -0.06657467782497406, 0.011525203473865986, -0.007917278446257114, 0.0004238204564899206, -0.00825943611562252, -0.08134687691926956, 0.0002762324584182352, -0.08666262030601501, -0.03741426765918732, 0.06353887170553207, 0.04069879651069641, -0.006198860239237547, 0.0002640289312694222, -0.00040181310032494366], [0.07108179479837418, -0.020288940519094467, 0.02567940205335617, 0.1201414167881012, -0.033062782138586044, 0.05362933501601219, -0.0010641393018886447, -0.049386464059352875, 4.6857112465659156e-05, -0.055480536073446274, -0.0002172636886825785, -0.00095562165370211, -0.09574340283870697, -0.009705502539873123, -0.01773449219763279, 0.00020385204697959125, 0.1002626046538353, 0.005945891607552767, -0.015574352815747261, -0.0002965691965073347, -0.08371343463659286, -0.03787006437778473, -0.06524163484573364, -0.00036884163273498416, -0.026908867061138153, -0.015226869843900204, -0.019386442378163338, 0.09156489372253418, -0.6683639287948608, -0.00018070702208206058, 0.06767753511667252, -0.024311326444149017, -0.0002983645536005497, -0.26266783475875854, 0.2852308750152588, -0.05203758552670479, -0.08943617343902588, -0.026403313502669334, -0.0009776094229891896, 0.0005552221555262804], [5.607829734799452e-06, -1.0912734978774097e-05, -4.357434590929188e-06, -6.336604201351292e-07, 2.651321210578317e-06, -1.0168240805796813e-05, 2.2106172448133066e-09, -8.64881349116331e-06, 2.2173892930132943e-11, -5.817035798827419e-06, 2.791916475786138e-09, 1.3088090333734925e-10, 5.435173534351634e-06, 6.301610028458526e-06, -3.0366447845153743e-06, -8.282543539905873e-09, -1.4175444675856852e-06, -1.1282551213298575e-06, -5.27420570506365e-06, 2.1919611015164264e-08, -1.4381035953192622e-06, -3.6233152513887035e-06, 2.902341293520294e-06, -2.8324329548468086e-09, 1.5060825262480648e-06, 6.67108466245736e-08, 2.920987981269718e-06, 2.3646914542041486e-06, -5.602349574473919e-06, 1.9464898581844636e-09, -3.980208930443041e-06, 4.313844328862615e-06, 1.2424499651331189e-08, -2.5011361231008777e-06, -1.3559081253333716e-06, 2.227161076007178e-06, 1.8864193407353014e-05, 2.660616701177787e-06, 2.276436594783604e-09, -1.9299947751072466e-10], [-0.07849932461977005, 0.05382795259356499, 0.17054587602615356, 0.5936302542686462, 0.002012440701946616, 0.2130557894706726, 0.0003864103928208351, -0.08897091448307037, 0.00037543862708844244, 0.2088397741317749, -0.00010258192924084142, 0.0002266796655021608, 0.010550537146627903, 0.012779050506651402, -0.12254873663187027, 0.00035015554749406874, -0.2261057049036026, 0.12433251738548279, -0.04426132142543793, 0.0005521132261492312, -0.03704081103205681, 0.032242245972156525, 0.12173289060592651, -8.367777809326071e-06, 0.006608359515666962, 0.0017021248349919915, 0.12886865437030792, 0.048061687499284744, -0.3262767791748047, 0.00038399911136366427, 0.04948471859097481, -0.02986779250204563, -0.00030021200655028224, -0.2547241449356079, -0.11285672336816788, -0.04784391447901726, 0.033390067517757416, 0.045384764671325684, 0.00024872651556506753, -3.066704448428936e-05], [0.09403891116380692, -0.1329052746295929, -0.027992354705929756, -0.040453553199768066, -0.0037825240287929773, 0.27765947580337524, -0.0006106944056227803, -0.1872679591178894, 0.0006840726709924638, -0.10024283081293106, 3.1902382033877075e-05, -0.00046102641499601305, -0.1342019885778427, -0.040512815117836, 0.11956904828548431, 0.00022072311548981816, -0.009968148544430733, 0.10905909538269043, -0.057978320866823196, 0.000344431638950482, -0.029079213738441467, -0.00552474707365036, 0.06028827279806137, -0.00013098354975227267, -0.03326691314578056, -0.01982230506837368, 0.03704127296805382, -0.03557940199971199, -0.03848208114504814, 0.0006619494524784386, -0.004668041598051786, -0.09881602227687836, -0.00029667915077880025, -0.07944808900356293, -0.0990707278251648, -0.04232136160135269, 0.013625333085656166, -0.032013799995183945, -0.0006805346347391605, 0.00022744432499166578], [-0.020998017862439156, -0.02468680776655674, 0.1315087378025055, -0.042121779173612595, 0.05093766376376152, 0.17244486510753632, 0.00028314092196524143, -0.12065586447715759, 0.0008567966870032251, -0.13054409623146057, 0.0003940835304092616, 0.00023995489755179733, -0.024381013587117195, -0.06083153188228607, -0.022993165999650955, -0.00022495041775982827, -0.1905551552772522, 0.118901826441288, -0.022156232967972755, 0.0005921113188378513, -0.038388680666685104, -0.0851512923836708, -0.1754109412431717, 0.0003324634162709117, -0.03371262550354004, -0.018712501972913742, 0.08873862773180008, -0.05701657757163048, -0.13938498497009277, 0.0008022240363061428, -0.010618769563734531, -0.060235653072595596, 0.00014526127779390663, -0.26609107851982117, -0.04035688936710358, -0.22064363956451416, -0.083802230656147, -0.06452324241399765, 0.0004328518989495933, -0.00026657976559363306], [-3.544999742643995e-07, -9.551899893267546e-06, 9.315729698755604e-07, -8.268778401543386e-06, 1.2815394256904256e-06, -1.493048057454871e-05, -5.516217704837345e-09, 4.5161104935687035e-06, -2.140873256450959e-08, -8.088417416729499e-06, -8.939212037262223e-09, -8.753283431417458e-09, 3.833242317341501e-06, -1.6396992350564688e-06, 7.967412784637418e-06, 8.861090194933752e-10, 5.103994226374198e-06, -3.50277929328513e-07, -7.790204108459875e-06, -1.6413570946838263e-08, -2.5213828394043958e-06, 5.0958601605088916e-06, 5.440347763396858e-07, -1.0369795688802697e-08, 1.3127126976542058e-06, -2.4902531592374544e-08, 1.2739794783556135e-06, 1.2318826065893518e-06, 9.165156370727345e-06, -2.5827043614867762e-08, 1.2293768349991296e-06, 1.1205462868701943e-07, 4.566713229792185e-09, 6.673578809568426e-06, 9.751902325660922e-07, 9.007360404211795e-07, 4.333634933573194e-06, 1.5594424667142448e-06, -4.9998476470136666e-09, 8.260357731160184e-09], [0.0016547288978472352, 0.0026831883005797863, -0.00301616289652884, 0.013381440192461014, 0.001562111428938806, 0.0071686552837491035, 8.74377838044893e-06, 0.001365352189168334, 4.4267173507250845e-05, 0.0006796714151278138, 2.276037776027806e-05, 1.2457628145057242e-05, 0.002753652399405837, 0.006643429398536682, -0.003682238981127739, -1.608502680028323e-05, -0.006903412286192179, -0.0006543491617776453, -1.6267289538518526e-05, 3.6645134969148785e-05, -0.000769352016504854, -0.0014037556247785687, 0.006333621684461832, 2.0386647520354018e-05, -0.00036109203938394785, 0.00203857128508389, 0.0023309795651584864, -0.0012369024334475398, -0.015850363299250603, 4.1519058868288994e-05, -0.0012239953503012657, 0.002577833365648985, 1.1340825039951596e-05, -0.009892279282212257, 0.0020368588156998158, -0.0005209872033447027, 0.006938122678548098, -3.463697066763416e-05, 7.936181646073237e-06, -1.92772968148347e-05], [0.023458342999219894, -0.006129472050815821, -0.006926124915480614, 0.018260842189192772, -0.005656455177813768, 0.015806635841727257, -0.00010819859016919509, -0.012208376079797745, 3.0286677429103293e-05, -0.013283895328640938, -4.9576370656723157e-05, -0.00011294707655906677, -0.01991358771920204, -0.025847485288977623, -0.013851257041096687, 3.515981734381057e-05, 0.03574269264936447, 0.009886997751891613, -0.010692846029996872, 0.0001469005219405517, 0.0031694197095930576, -0.010936398059129715, -0.0005724196671508253, -8.240323222707957e-05, -0.003067576326429844, -0.004728352185338736, -0.005450313910841942, -0.005138337146490812, -0.023529455065727234, 1.835349939938169e-05, 0.011012302711606026, -0.01070471853017807, -4.618287130142562e-05, -0.0014745841035619378, 1.6117895938805304e-05, 0.0009020448196679354, -0.011259469203650951, -0.001151114352978766, -8.752015128266066e-05, 8.701883780304343e-05], [-0.002792008686810732, 0.024335775524377823, 0.011552813462913036, 0.2646639347076416, 0.03046051412820816, 0.10625988245010376, 0.0004438159230630845, -0.06985989958047867, 0.0004954902688041329, 0.05061947554349899, 0.000258781248703599, 0.0003170885320287198, -0.04300631955265999, 0.03891971707344055, -0.007282738108187914, -9.369781037094072e-05, -0.1055961549282074, 0.12923362851142883, -0.005751927848905325, 0.00046376901445910335, -0.040382690727710724, 0.00870699156075716, -0.0029731031972914934, 0.00024852913338690996, 0.0025232508778572083, 0.02329600229859352, -0.0001936709159053862, -0.058110274374485016, -0.2049771100282669, 0.00047128795995377004, 0.044561635702848434, -0.04681422561407089, 7.244019798235968e-05, -0.09759017080068588, -0.0014385879039764404, 0.0018742380198091269, 0.1127282977104187, 0.0019576868508011103, 0.00044209620682522655, -0.0003078830486629158], [-0.04794374480843544, -0.08296535909175873, -0.1667468547821045, 0.1803562343120575, -0.07962305098772049, 0.3895300328731537, -0.0006263532559387386, 0.015115948393940926, 0.00017676169227343053, -0.04465938359498978, -0.00027796931681223214, -0.0003567642706912011, 0.05050287023186684, 0.0458940714597702, -0.0242486372590065, 0.0007870589033700526, -0.03710167109966278, -0.14722175896167755, -0.02369042858481407, -0.0011523549910634756, 0.037227731198072433, 0.021351011469960213, -0.07373089343309402, -0.00021888651826884598, -0.015734177082777023, -0.009202813729643822, 0.06604824960231781, 0.20640727877616882, -0.5344347953796387, 8.462606638204306e-05, -0.05929215997457504, 0.030154531821608543, -0.0004896825994364917, -0.473722904920578, -0.3297745883464813, 0.10126734524965286, 0.01181967556476593, 0.005019910167902708, -0.0007417628658004105, 0.00029834118322469294], [0.015291663818061352, 0.018748221918940544, 0.0203598253428936, 0.06333447247743607, 0.03780299797654152, 0.0633290708065033, -4.44887118646875e-05, -0.014296790584921837, 0.00022615911439061165, -0.007116386666893959, -7.16235808795318e-06, -3.243018363718875e-05, -0.014456073753535748, -0.012248366139829159, -0.011802089400589466, 9.181909990729764e-05, 0.011871978640556335, 0.00795647595077753, -0.024433612823486328, 0.00013869490067008883, 0.01973520591855049, -0.008337870240211487, 0.001935311360284686, -9.717807188280858e-06, -0.009501650929450989, 0.0009413823136128485, -0.0110428836196661, -0.04849562793970108, -0.13411563634872437, 0.0001866745442384854, 0.03753264993429184, -0.01596534252166748, -8.127529872581363e-05, -0.08492851257324219, 0.00921599566936493, -0.0007859031320549548, 0.041836488991975784, -0.003329669125378132, -9.637428775022272e-07, 3.084041736656218e-06], [8.663691005494911e-06, -4.507858193392167e-06, 5.143386374584225e-07, -5.383411917136982e-06, -5.280111849970126e-07, -3.173453478666488e-06, -9.115793453418064e-09, -9.04517037270125e-06, -1.8580951222091358e-09, -2.308016320284878e-07, -5.183900864125235e-09, -9.208964257823027e-09, 2.4690043574082665e-06, -6.176143330094419e-08, 6.328259587462526e-07, 4.1930539040890835e-09, 5.542554504245345e-07, -4.0454452232552285e-07, -2.96078155770374e-06, 9.617218132973449e-09, 2.463815235387301e-06, 6.392660452547716e-06, 3.6984379221394192e-06, -8.270673923505001e-09, 9.168450887386825e-09, -1.5949328826536657e-06, -1.704516989775584e-06, 3.514983291097451e-06, 2.8504223337222356e-06, -1.7793152506939691e-09, -9.033101378008723e-07, 4.3689462358997844e-07, -1.7803526430881789e-09, -1.2950401924172183e-06, 8.310032626468455e-07, -5.535043214877078e-07, 5.4209681366046425e-06, 1.0694319598769653e-06, -1.2985135633414302e-08, 6.210261638273096e-09], [0.0072654131799936295, 0.009385398589074612, 0.008919613435864449, 0.04984750598669052, -0.026587577536702156, 0.008381693623960018, -6.992305861786008e-05, -0.03964706137776375, 7.552869647042826e-05, 0.012996652163565159, -5.524782682186924e-05, -0.00010875587031478062, -0.011299320496618748, -0.011954565532505512, -0.01438236329704523, 3.4913213312393054e-05, 0.011035731993615627, 0.0040183463133871555, -0.004463012330234051, 0.00027310053701512516, -0.0165689866989851, -0.006916331592947245, 0.014383724890649319, -9.47895969147794e-05, -0.0018208769615739584, -0.007685330230742693, 0.0328129343688488, -0.005763830151408911, -0.038744356483221054, 6.431063957279548e-05, 0.028815854340791702, -0.005313550122082233, -7.118142821127549e-05, 0.006352042313665152, -0.021984489634633064, 0.0042060199193656445, -0.024485155940055847, 0.012881611473858356, -4.94450687256176e-05, 8.471056207781658e-05], [0.06019844487309456, -0.0223301500082016, -0.07885020971298218, 0.09492335468530655, -0.020510129630565643, -0.023641571402549744, -0.00048291284474544227, 0.022171804681420326, -0.0005734516307711601, 0.05192393809556961, -0.0005327794351615012, -0.0005794378230348229, 0.031621333211660385, -0.018173029646277428, -0.1330057829618454, 0.0005150552024133503, 0.12779557704925537, 0.005363350734114647, 0.07014517486095428, -0.00025503383949398994, -0.043895017355680466, 0.09545783698558807, 0.005959624890238047, -0.0005013902555219829, 0.02157350443303585, 0.045464321970939636, 0.02941063605248928, -0.05629371851682663, -0.19117426872253418, -0.0004443457874003798, 0.07817923277616501, 0.1874079704284668, -0.0007712076185271144, 0.0852736234664917, 0.10151109099388123, 0.12468092888593674, 0.1582518368959427, 0.06341385841369629, -0.00027585457428358495, 0.0006820951239205897], [-5.653723292198265e-06, -9.985505130316596e-06, 3.9401783169523696e-07, -1.1335107956256252e-05, -1.7649601886660093e-06, -2.4707946067792363e-05, 1.9192768263565085e-08, 9.957070687960368e-06, -2.614244820620115e-09, -1.230361704074312e-05, 1.3961248157556838e-08, 1.395999849052032e-08, 2.1802679839311168e-06, -3.8692915040883236e-06, 1.5010216884547845e-05, -2.3989034758642447e-08, 6.719054454151774e-06, 1.295733341066807e-06, -4.317437287681969e-06, -3.97809341023958e-09, -5.137793323228834e-06, 3.6172712043480715e-06, -3.7885529309278354e-06, 1.345287170551046e-08, 1.8238404209114378e-06, 9.438383585802512e-07, 5.449300715554273e-06, 8.604155965485916e-08, 1.878011244116351e-05, -9.597187045073952e-09, 4.8624506234773435e-06, 4.039271317424209e-08, 2.880039851049787e-08, 1.8029866623692214e-05, -2.7982716801489005e-06, -2.0278337160561932e-06, 8.177416020771489e-06, 2.36908590522944e-06, 2.751248295851383e-08, -1.4139137860524897e-08], [-0.10002129524946213, -0.015924401581287384, -0.16379418969154358, -0.16171982884407043, -0.10918892174959183, 0.17021209001541138, -0.0018355486681684852, 0.004164085257798433, -0.002311846474185586, 0.0049148425459861755, -0.0018250775756314397, -0.0020162074360996485, 0.06036262586712837, 0.2752363681793213, -0.2359481155872345, 0.0012287900317460299, -0.08975052088499069, -0.05217203125357628, -0.08633376657962799, -0.0006852021906524897, 0.03442557901144028, -0.012568986043334007, -0.09150297194719315, -0.0019136419286951423, 0.05406421795487404, 0.04032701253890991, 0.15452292561531067, -0.10899865627288818, -0.41637077927589417, -0.002202544128522277, 0.1041843444108963, 0.01494735386222601, -0.0015475631225854158, 0.23491524159908295, -0.006080268416553736, 0.010187708772718906, 0.22478005290031433, 0.07642300426959991, -0.001311835483647883, 0.002143138088285923], [-0.045284707099199295, 0.2005893588066101, 0.05966886132955551, 0.16097085177898407, -0.04456949606537819, 0.10215946286916733, 0.00044446944957599044, 0.01842334121465683, 0.0001171729527413845, -0.06225648894906044, 0.0003193241136614233, 0.0004450072592590004, 0.1382356584072113, -0.038699179887771606, 0.01886611431837082, -0.0006707733264192939, -0.028188467025756836, -0.03706507012248039, 0.4046665132045746, 0.000868534785695374, 0.05842909589409828, -0.07763627916574478, -0.013468267396092415, 0.0003091928956564516, 0.0013274149969220161, 0.016850538551807404, 0.01417393609881401, -0.4173998236656189, -0.20671461522579193, 0.00012323514965828508, 0.07287381589412689, 0.017083901911973953, 0.0005586995393969119, -0.19771240651607513, -0.2582266330718994, 0.018527664244174957, -0.022090598940849304, 0.026563866063952446, 0.000768314057495445, -0.0003955896245315671], [-0.08730997145175934, 0.018915850669145584, 0.1062418594956398, 0.39465951919555664, 0.032483894377946854, 0.20848338305950165, 0.001097503467462957, 0.0772409662604332, 0.0007613883353769779, 0.13235975801944733, 0.0006152890855446458, 0.0010674825171008706, 0.06811031699180603, -0.01588289439678192, -0.06946505606174469, -0.0003673700266517699, -0.19480110704898834, 0.042154476046562195, -0.1218365952372551, -0.0001249038177775219, 0.09569133073091507, -0.01998087204992771, 0.048628274351358414, 0.0007567991851828992, 0.0055109066888689995, 0.006073507945984602, 0.010111813433468342, 0.07692565768957138, -0.2722185254096985, 0.0007707360782660544, -0.007925334386527538, -0.009238861501216888, 0.00024734847829677165, -0.18441548943519592, -0.02452610805630684, -0.14273615181446075, 0.004973140545189381, -0.006191772408783436, 0.0010685689048841596, -0.0007715736865065992], [-0.09437549114227295, 0.06099575385451317, -0.12751325964927673, 0.15189917385578156, -0.03451760113239288, 0.17386573553085327, 0.00022121374786365777, -0.15025649964809418, -2.9669125069631264e-05, 0.012647859752178192, -3.323476266814396e-05, 0.00021810994076076895, -0.10819503664970398, -0.04777180776000023, -0.2883259952068329, 0.0001790920941857621, -0.04079388082027435, -0.03473519906401634, 0.013360490091145039, -0.00019118144700769335, -0.0022942402865737677, 0.008314509876072407, 0.07658351212739944, 4.982069367542863e-05, 2.6551910195848905e-05, -0.0020629013888537884, 0.041047170758247375, -0.051189422607421875, -0.14096543192863464, 6.725068669766188e-05, 0.031228020787239075, -0.03647143766283989, -9.9477510957513e-06, 0.049264926463365555, -0.16641448438167572, 0.03074825555086136, 0.07112760096788406, 0.034235287457704544, 0.00020895576744806021, -7.762561290292069e-05], [0.013357430696487427, -0.010149195790290833, -0.009994275867938995, 0.044791821390390396, 0.0033770303707569838, 0.00218630931340158, 8.913100464269519e-05, -0.01679905131459236, 1.4908604498486966e-05, 0.005103023257106543, 3.2112482585944235e-05, 9.531621617497876e-05, -0.008970287628471851, 0.009169185534119606, -0.023613613098859787, -1.779656668077223e-05, -0.022135131061077118, 0.007811133749783039, -0.009074565954506397, -2.7630610929918475e-05, -0.012225921265780926, -0.0054658930748701096, 0.01752721518278122, 5.6143977417377755e-05, -0.0009754534694366157, -0.00315093994140625, -0.021981563419103622, 0.011881211772561073, 0.005719940643757582, 3.0455539672402665e-05, -0.011013446375727654, -0.0016149274306371808, 3.999569526058622e-05, -0.012058599852025509, 0.02563754841685295, 0.021021783351898193, -0.014877257868647575, -0.002969165798276663, 6.692313763778657e-05, -7.164842099882662e-05], [-1.0194762580795214e-05, -6.586431027244544e-06, -7.144701612560311e-06, -1.1607440683292225e-05, 2.4125865820678882e-06, -2.844262598955538e-05, 5.226760357857074e-09, 1.3705750461667776e-05, -3.573701334858015e-08, -1.5172906387306284e-05, -4.529323305302313e-10, -2.313165881062673e-09, 4.2873271013377234e-06, 3.9487936192017514e-06, 9.145527656073682e-06, -2.015185707193723e-08, 1.59737567173579e-06, 3.0909464499018213e-07, -1.4281570656748954e-05, -2.8192596701615003e-08, -1.1743083632609341e-05, -1.2277188261577976e-06, -6.9639768298657145e-06, -3.395884906609581e-09, 3.338343276482192e-06, 3.364250460435869e-06, 8.4600796981249e-06, 8.464547249786847e-07, 1.619760223547928e-05, -4.544570941789061e-08, 4.4310659177426714e-06, -4.546448906239675e-08, 2.854144653952062e-08, 2.0983366994187236e-05, 3.706319375851308e-06, 1.2573925900483118e-08, 1.851676825026516e-05, 3.8018922623450635e-06, 1.0859099397464433e-08, 5.394029112260057e-10], [-3.556699539331021e-07, -1.0255506822431926e-05, -2.302794200659264e-06, -7.316856226680102e-06, 8.994128393169376e-07, -1.8918124624178745e-05, -4.3962771201222495e-09, 2.9990221719344845e-06, -2.81007270785949e-08, -9.956277608580422e-06, -9.307115078627248e-09, -8.969069043018862e-09, 2.6702878130890895e-06, -1.5713274024165003e-06, 8.26946779852733e-06, -1.2481177202872118e-09, 4.853905920754187e-06, 6.908305749675492e-07, -8.554340638511349e-06, -2.34046240166208e-08, -3.1364477308670757e-06, 2.8106317131459946e-06, -6.182883112160198e-07, -1.1181962911166465e-08, 1.9630381302704336e-06, 8.635715289528889e-07, 1.6897733985388186e-06, 1.9510059701133287e-06, 8.746674211579375e-06, -3.318488239756334e-08, 1.3839718349117902e-06, -2.455972207826562e-07, 7.66291030629418e-09, 8.7199086920009e-06, 1.3540161489800084e-06, 6.431026804420981e-07, 8.841763701639138e-06, 1.841435505411937e-06, -3.546295257450538e-09, 8.69946248371889e-09], [-0.10847068578004837, -0.5067134499549866, 1.2234171628952026, -0.08705411851406097, -0.3354516923427582, 0.08311508595943451, 0.0005854907794855535, -0.42217689752578735, 0.001042921096086502, -0.24536697566509247, 0.0005858064396306872, 0.0005025831051170826, 0.5293994545936584, 0.9828029274940491, 0.137258380651474, -0.00043510328396223485, 1.0608752965927124, 0.09877518564462662, -0.027684614062309265, 0.0013438538881018758, 0.12890973687171936, 0.09054532647132874, 0.2269744873046875, 0.00042692170245572925, -0.01391309779137373, -0.24367792904376984, 0.2143416553735733, -0.10449998080730438, -0.3787192106246948, 0.00103704072535038, 0.17386773228645325, 0.48421305418014526, 0.00035274209221825004, -0.13296709954738617, -0.18849796056747437, 0.004519391804933548, -0.1806911826133728, 0.06597211956977844, 0.0005984017043374479, -0.0005493100616149604], [0.2303577959537506, 0.49246156215667725, -0.09744413197040558, -0.08364788442850113, -0.897704541683197, 0.09137842804193497, 0.0002018097002292052, -0.04676901921629906, 0.0011525900335982442, 0.17009992897510529, 0.000991482869721949, 0.0006337133818306029, 0.0031124763190746307, -0.3953162729740143, -0.25198015570640564, -0.0006173670408315957, -0.10331648588180542, 0.031824465841054916, -0.18212969601154327, -0.0008717692107893527, -0.0719299167394638, 0.014718165621161461, -0.13168781995773315, 0.0010254393564537168, -0.017762236297130585, -0.06262194365262985, 0.2831589877605438, -0.4147663116455078, 0.07596027851104736, 0.001315992558375001, -0.002820637309923768, 0.09653537720441818, 0.0004932492156513035, 0.017470624297857285, 0.015231505036354065, 0.008476649411022663, -0.28764382004737854, 0.05252319201827049, -0.0001352387625956908, -0.0004319929576013237], [-1.0288647413253784, -0.029866520315408707, 0.09003845602273941, -0.13201099634170532, 0.4803309738636017, -0.0007006095838733017, -0.00030939755379222333, 0.07983167469501495, -0.001967264339327812, 0.12089364230632782, -0.0011408028658479452, -0.00042284559458494186, -0.009030846878886223, 0.9012936949729919, 0.20794640481472015, 0.0007423092611134052, -0.48154139518737793, 0.2570996880531311, 0.16657139360904694, -0.0025775465182960033, -0.2798481583595276, 0.060704346746206284, -0.11619269102811813, -0.0008399062207899988, 0.07996854931116104, 0.07487368583679199, -0.504203736782074, -0.2987532317638397, -0.2617208659648895, -0.002242809161543846, -0.049091190099716187, -0.001872179564088583, -0.0006260228110477328, -0.148183673620224, 0.30575093626976013, 0.14856059849262238, -0.42710426449775696, -0.054893746972084045, -3.804484731517732e-05, 0.0010549788130447268], [0.11579731851816177, 0.04796198382973671, 0.09422678500413895, 0.6284235119819641, -0.01627444103360176, 0.19946734607219696, 0.002618965692818165, -0.7166476845741272, 0.0015432899817824364, -0.11187246441841125, 0.0013708143960684538, 0.0024021361023187637, -0.18754398822784424, -0.5937615036964417, 0.46298277378082275, -0.0016404874622821808, 0.7584445476531982, 0.06196692958474159, 0.11187351495027542, 0.002804055344313383, 0.29722607135772705, -0.049723658710718155, -0.2928927540779114, 0.00131517113186419, 0.046877577900886536, 0.00865435041487217, -0.1689654439687729, -0.006145171355456114, -0.03129788115620613, 0.0017497296212241054, 0.11082324385643005, -0.11083294451236725, 0.0023123454302549362, -0.5348576307296753, 0.15275606513023376, -0.17922498285770416, -0.07897177338600159, 0.1079191118478775, 0.0023773345164954662, -0.002015154343098402], [0.056699126958847046, 0.4658176600933075, -0.04249788448214531, -0.11942749470472336, 0.07570912688970566, 0.2239200919866562, 0.0011521338019520044, 0.047564007341861725, -4.989527224097401e-05, 0.2700822949409485, 0.0008706209482625127, 0.0009619430638849735, -0.01496769580990076, 0.3309302031993866, 0.3709222078323364, -0.0007875595474615693, -0.04850221425294876, -0.08599437773227692, 0.1141359806060791, -0.0006937566213309765, 0.17523841559886932, -1.1813154220581055, 0.19944363832473755, 0.0007600855315104127, -0.009561283513903618, 0.03005128540098667, -0.15127743780612946, -0.010814342647790909, -0.06482277065515518, 4.4228760089026764e-05, 0.044168729335069656, 0.04719216749072075, 0.0007698237895965576, 0.06422346830368042, 0.012104169465601444, -0.06860687583684921, 0.47076886892318726, 0.034888651221990585, 0.0007136781932786107, -0.0007306633633561432], [-0.34963467717170715, -0.16422578692436218, -0.10857806354761124, -0.1532122641801834, -0.06577958166599274, 0.05076097324490547, 0.0013370682718232274, -0.28011035919189453, 0.00030652311397716403, 0.1761878877878189, 0.0010124420514330268, 0.0012240170035511255, 0.06272507458925247, 0.7190373539924622, -0.3387565612792969, -0.0006738167721778154, -0.2592572569847107, -0.06969980150461197, 0.12350872904062271, -0.0008223044569604099, 0.10613568127155304, 0.6477113366127014, 0.028745369985699654, 0.0011025216663256288, -0.002341839950531721, 0.028916768729686737, 0.18254771828651428, -0.09813768416643143, 0.035623177886009216, 0.00036063086008653045, -0.04891590401530266, 0.1611403077840805, 0.0005753434379585087, -0.04621787369251251, -0.07757969200611115, -0.055095914751291275, -0.2864290177822113, -0.049542613327503204, 0.0009899066062644124, -0.001059988746419549], [-0.0008603600435890257, -0.0003845425380859524, 0.001293347915634513, 0.0033620106987655163, -0.00038730556843802333, -0.0003640943905338645, -1.594679633853957e-05, -9.935038542607799e-05, -1.2615784726222046e-05, 0.002076835371553898, -2.686669358809013e-05, -1.1483803064038511e-05, 0.0003893077664542943, -2.325391506019514e-05, 0.0005809661233797669, 3.9481928979512304e-05, -0.0014255278510972857, -0.00040504601201973855, -0.0009140007896348834, -6.380435024766484e-06, 0.0013644390273839235, 0.0005264749634079635, 0.0005825218395330012, -2.0805211534025148e-05, 0.0009385033044964075, 0.00011811568401753902, -0.00045500294072553515, 0.0022289855405688286, 0.0001296909904340282, -2.9851103136024904e-06, -0.0009981562616303563, -0.000851764518301934, -3.312864282634109e-05, -0.0009356123046018183, -0.0018030762439593673, -0.00013806966308038682, 0.0005052058259025216, 0.0007003337959758937, -2.825514820870012e-05, 1.671994323260151e-05], [0.17963115870952606, 0.4441685974597931, 0.10772351920604706, 0.6219214797019958, 0.0002310734853381291, 0.18472464382648468, 9.909649088513106e-05, -0.20024067163467407, 0.0015363739803433418, -0.44287967681884766, 0.000466222467366606, 0.00014284525241237134, -0.12317778170108795, 1.2516827583312988, -0.26072657108306885, 4.826547979064344e-07, 0.3420802354812622, -0.16547539830207825, -0.10444167256355286, 0.0009887807536870241, -0.05906439572572708, -0.22828523814678192, -1.2824863195419312, 0.00030720708309672773, -0.06991563737392426, -0.10388834774494171, 0.19849324226379395, 0.2414844036102295, -0.06698709726333618, 0.0011555780656635761, 0.15242697298526764, 0.343215674161911, 0.00010314664541510865, 0.8412811160087585, -0.14817804098129272, -0.1274518221616745, -0.11164307594299316, 0.01707773096859455, 0.0002844159316737205, -0.0006005290779285133], [-0.0011494888458400965, -0.0005101308925077319, -0.0006436195108108222, 0.001000087009742856, -0.00048417638754472136, 0.002046685665845871, -2.2681647351419087e-06, 0.0006452866364270449, -8.916435945138801e-06, -0.0011403935495764017, -1.67837551998673e-05, -2.667379419563076e-07, -0.0014556051464751363, -0.0005593173555098474, -0.0005652454565279186, 2.007285729632713e-05, -0.000596019730437547, 0.004764726385474205, -0.0006202042568475008, 8.223644726967905e-06, -0.00013795906852465123, -2.3296039216802455e-05, 0.0005888940067961812, -1.286184760829201e-05, -0.0003572576097212732, -0.00030969385989010334, 0.0001072029845090583, 0.0009782614652067423, -0.004686244297772646, -3.3965050079132197e-06, -0.00013426336226984859, -0.0013457383029162884, -1.4350403944263235e-05, -0.0024940590374171734, -0.0005446537397801876, -0.0012811566703021526, -0.0005946294986642897, -0.00010932504665106535, -8.263890777016059e-06, 7.917075890873093e-06], [-0.012647614814341068, 0.4065687358379364, 0.38396018743515015, 0.1788458377122879, 0.18213005363941193, 0.02070542611181736, -0.0005529643967747688, 0.28497621417045593, -0.0009367261664010584, 0.18368980288505554, -0.00039357077912427485, -0.000883218483068049, -0.10653315484523773, -0.28719794750213623, 0.22158478200435638, 0.0006711095338687301, 0.2039313018321991, 0.25518518686294556, 0.5341764688491821, -0.0001021291536744684, -0.00649271672591567, 0.06901293992996216, 0.06562040746212006, -0.0005252812406979501, 0.04506837576627731, 0.0894130989909172, -0.02245085872709751, -0.3407631516456604, -0.01257982850074768, -0.000951082503888756, 0.09054984152317047, 0.40495097637176514, -0.000961141602601856, 0.0738665834069252, 0.07825065404176712, 0.21140429377555847, 0.4218083322048187, 0.02394021488726139, -0.0003305953578092158, 0.0005032939952798188], [-0.00010032339923782274, -0.00016181508544832468, -0.00012629049888346344, 0.0010652304627001286, -8.503913704771549e-05, 0.0010724443709477782, -8.128214176394977e-06, 2.742381639109226e-06, -1.908054946397897e-05, -6.698411743855104e-05, -2.4540988306398503e-05, -6.93681158736581e-06, -0.0006200202624313533, 0.0004450232663657516, -4.5136213884688914e-05, 3.0389517633011565e-05, -0.0004487666883505881, 0.0008781407377682626, -0.0004486813268158585, -1.478780268371338e-05, 0.0001823521452024579, -0.0004183294659014791, 3.8743932236684486e-05, -1.961116686288733e-05, -3.423379166633822e-05, -0.00013083707017358392, 0.00018178936443291605, 0.0008314170991070569, -0.00023089289607014507, -1.3483867405739147e-05, -0.0009171536075882614, -0.0002659645688254386, -2.6119587346329354e-05, -0.002350284019485116, -0.0007345514022745192, -0.0005603490280918777, 2.782241972454358e-05, -0.0003300163662061095, -1.3628271517518442e-05, 1.4942050256649964e-05], [-0.0006936604040674865, -0.0003463911998551339, 0.000839446613099426, 0.0029709956143051386, -0.00039041548734530807, 0.00014595274114981294, -1.2791590961569455e-05, 3.621569339884445e-05, -1.0343954272684641e-05, 0.0014019330265000463, -2.3777412934578024e-05, -8.642761713417713e-06, 0.00034693937050178647, 0.00010907185060204938, 0.0003630608262028545, 3.530600224621594e-05, -0.0013661857228726149, -0.00019689055625349283, -0.0008729100809432566, -2.745359097389155e-06, 0.0011315734591335058, 0.0004350121016614139, 0.00024498431594111025, -1.844328835431952e-05, 0.000774653977714479, -7.829430614947341e-06, -0.0004003236535936594, 0.0021530985832214355, -0.00013485508679877967, -1.8342561816098168e-06, -0.0009572121780365705, -0.0012133821146562696, -2.9104863642714918e-05, -0.0016730938805267215, -0.0016407332150265574, -0.00010843054769793525, 0.00044631664059124887, 0.000531027268152684, -2.3899396182969213e-05, 1.430700740456814e-05], [-0.6115978956222534, -0.07411210238933563, -0.12293558567762375, -0.3625342547893524, 0.0966372936964035, -0.11397135257720947, 0.0010518537601456046, 0.005601068958640099, -0.0013378736330196261, 0.15578298270702362, -0.00018936170090455562, 0.0008657494909130037, 0.4791000187397003, 0.5114056468009949, 0.06721408665180206, 6.824605861766031e-06, -0.6242775917053223, 0.1705688238143921, -0.07860751450061798, -0.0027500861324369907, -0.3763006031513214, 0.47756069898605347, -0.04861428961157799, -0.0001847278472268954, 0.0648781880736351, 0.10603155195713043, -0.10560324043035507, -0.31053754687309265, -0.046648312360048294, -0.001334851491264999, 0.021513188257813454, 0.10953523218631744, 0.0003330840263515711, 0.0009323197300545871, 0.13841049373149872, 0.6010818481445312, 0.1526840776205063, 0.046774089336395264, 0.0002499193069525063, -0.00013019678590353578], [-1.400492787361145, 0.22442753612995148, -0.7189734578132629, 0.1314370483160019, -0.11306615173816681, -0.02147885225713253, -0.00013828965893480927, -0.6486148834228516, 0.002315247431397438, 0.041949089616537094, 0.0004671075730584562, 4.402030390338041e-05, -0.35898134112358093, -0.28032439947128296, -0.6134867072105408, -0.00026698518195189536, 0.8670854568481445, 0.08701223880052567, 0.07916006445884705, 0.00351141020655632, 0.18831263482570648, -0.012413286603987217, 0.8037105798721313, 0.00028493537683971226, -0.03882453218102455, 0.039656296372413635, 0.35862842202186584, -0.24432937800884247, 0.14899444580078125, 0.0024954804684966803, 0.17098695039749146, -0.6020869016647339, 0.00016248955216724426, -0.19555777311325073, 0.2600700259208679, -0.18827296793460846, -0.07013669610023499, 0.04393840208649635, -0.0003968420787714422, -0.00038491436862386763], [-0.2868725061416626, 0.3700379729270935, 0.1518048793077469, -0.6383009552955627, -0.4547889232635498, 0.0316835418343544, -0.00039917032700031996, 0.5324838161468506, 0.0019792094826698303, -0.6017229557037354, 1.2327798685873859e-05, -0.0004495765606407076, -0.09080665558576584, -0.029210960492491722, -0.04103142023086548, 0.00021025554451625794, 0.133113831281662, -0.08239156752824783, -0.42313382029533386, 0.00443688640370965, -0.0052264099940657616, -0.074154794216156, 1.5200453996658325, -0.00024231290444731712, -0.0707547515630722, 0.034973904490470886, 0.512549877166748, 0.30611133575439453, 0.48256948590278625, 0.002062923042103648, 0.3253203332424164, 0.8408582210540771, -0.00044044555397704244, -0.3899414539337158, -0.20151886343955994, -0.45025020837783813, -0.26460814476013184, 0.06062542647123337, -0.00041279205470345914, -0.0001012059292406775], [0.00012637941108550876, -2.3499130747950403e-06, 0.00028251815820112824, -0.0008384026004932821, 0.00011241646279813722, -0.0005109860212542117, 1.2005577445961535e-05, 0.00013962897355668247, 2.0301236872910522e-05, -0.00016429588140454143, 3.0395431167562492e-05, 1.1121988791273907e-05, -0.00010745685722213238, -0.00024233286967501044, 7.033139991108328e-05, -3.970667967223562e-05, 0.0004653433570638299, 6.174178997753188e-05, 0.00020683222101069987, 1.1977512258454226e-05, -0.0005262811901047826, 0.00033264432568103075, -2.4879491320461966e-05, 2.503801260900218e-05, -0.00010681573621695861, 4.806888318853453e-05, -0.00011759517656173557, -0.0005108372424729168, -0.00012286071432754397, 1.3434230822895188e-05, 0.0009184573427774012, 0.00010128573194378987, 3.432995072216727e-05, 0.0017502038972452283, 0.0005119140259921551, -1.2358153981040232e-05, -0.0001445756061002612, 8.857377542881295e-05, 1.8917662600870244e-05, -1.961121779459063e-05], [-1.1224128007888794, -0.14853832125663757, 0.49693918228149414, -0.3269040882587433, 0.2118070423603058, -0.07522889971733093, -0.0005200435989536345, 0.028900206089019775, -5.7405824918532744e-05, -0.09214010089635849, -0.00017553141515236348, -0.00033032652572728693, 0.32177332043647766, -1.0511441230773926, 0.35509490966796875, 0.00019303506996948272, 0.07666322588920593, 0.21867454051971436, -0.129617840051651, -3.724955968209542e-05, -0.30114153027534485, 0.23470120131969452, -0.9624643921852112, -0.00020393141312524676, 0.032862965017557144, -0.1661805361509323, 0.2982589900493622, 0.374111145734787, -0.12741439044475555, 0.00024060779833234847, -0.19952180981636047, 0.014470463618636131, -0.00026334429276175797, 0.06703397631645203, 0.0570860430598259, 0.10429488122463226, -0.23428994417190552, -0.001820411067456007, -0.0007106309058144689, 0.0003417397674638778], [0.01170398946851492, 0.21616056561470032, 0.1896803081035614, 0.15570010244846344, 0.10305410623550415, 0.11291511356830597, -0.0007153520709834993, 0.08481022715568542, -0.001512001152150333, -0.1177428588271141, -0.0006565327639691532, -0.0007785965572111309, -0.4467018246650696, -0.1178513690829277, 0.29864197969436646, 0.0003336575464345515, -0.30578702688217163, -0.06918945163488388, 0.019392680376768112, -0.004117419943213463, -0.18643653392791748, 0.8602520227432251, -0.23292121291160583, -0.0006698431097902358, -0.03529024496674538, 0.04303651675581932, -0.33737075328826904, -0.1655237376689911, 0.06793701648712158, -0.0019881105981767178, 0.062014490365982056, -0.3022470474243164, -0.0007285890751518309, 0.16231288015842438, 0.20350366830825806, -0.15986469388008118, 0.21975457668304443, -0.6060330271720886, -0.000599907070863992, 0.0008553261868655682], [-0.011893609538674355, 0.185935378074646, 0.03559518977999687, 0.15011820197105408, 0.07622205466032028, 0.04400664567947388, -0.00031869462691247463, 0.13042838871479034, -0.002088731387630105, -0.5756670236587524, -0.00040384632302448153, -0.0004929230199195445, 0.041691649705171585, 0.03362783044576645, 0.2716027796268463, 0.0002258453459944576, 0.20332089066505432, 0.11628864705562592, 0.5652815103530884, -0.002772172912955284, -0.25410136580467224, 0.26247429847717285, -0.02456706203520298, -0.0003372183127794415, 0.023697583004832268, 0.13940143585205078, 0.2664027214050293, 0.46890708804130554, 0.01696057803928852, -0.002264714799821377, 0.10437335073947906, 0.07392551004886627, -0.00043317064410075545, -0.08304145187139511, 0.12202326208353043, 0.0700107216835022, 0.4846673905849457, -0.05686568468809128, -7.917052425909787e-05, 0.0005984564195387065], [-0.0026557864621281624, -0.0006193781737238169, -0.0020720406901091337, 0.0004179307143203914, -0.0005980516434647143, 0.0011424502590671182, -2.9355513106565922e-05, 0.001363956369459629, -1.8826349332812242e-05, -0.0005660441238433123, -5.109108315082267e-05, -2.669524292286951e-05, -0.0017756980378180742, -0.0030123128090053797, -0.0016081363428384066, 6.56510383123532e-05, -0.00039747997652739286, 0.011575303971767426, 0.00038895028410479426, 8.698290912434459e-06, -0.00019441502809058875, 0.0013637352967634797, 0.0008489330066367984, -4.4027627154719085e-05, -1.3068914995528758e-05, -0.00020707686780951917, -0.0006407243781723082, -4.540622467175126e-05, -0.006687676999717951, -8.572514161642175e-06, -0.000494387757498771, -0.0001947076088981703, -5.443892951007001e-05, -2.901294647017494e-05, -0.00010598480002954602, -0.000709284795448184, -0.0010882711503654718, -0.00014532459317706525, -4.098831777810119e-05, 3.467304850346409e-05], [-0.06394932419061661, 0.07079283148050308, 0.29325729608535767, -0.22716377675533295, -0.10550298541784286, -0.07412191480398178, 0.0007527128327637911, -0.011698895134031773, 0.000992057379335165, 0.34535926580429077, 0.00035886079422198236, 0.0006876211846247315, 0.7562426924705505, -0.2590911090373993, -0.06530330330133438, 4.943546446156688e-05, 0.5665117502212524, -0.09619656205177307, 0.08451348543167114, 0.0007903380319476128, 0.21906651556491852, 0.12108279764652252, -0.27248236536979675, 0.00033110196818597615, 0.006783458404242992, 0.28858593106269836, 0.6863012909889221, 0.07618144899606705, -0.17672327160835266, 0.000966908351983875, -0.16650091111660004, 0.13051491975784302, 0.0002547357580624521, -0.09599672257900238, -0.45601925253868103, -1.1359633207321167, 0.39388588070869446, 0.0823555588722229, 0.00033746217377483845, -0.0005993820959702134], [-0.022825228050351143, -0.42160144448280334, 0.06458476930856705, 0.15280842781066895, 1.141526699066162, -0.2089010626077652, -0.00039091194048523903, -0.008338838815689087, 0.002072278643026948, 0.17941662669181824, 0.00036255898885428905, -0.00023694518313277513, -0.10350967198610306, 0.07417640835046768, 0.052627015858888626, 2.824842704285402e-05, 0.18264760076999664, -0.7977118492126465, -0.2566226124763489, 0.003002382582053542, 