{"model_data": {"model": "SimpleRNN", "input_size": 2, "skip": 1, "output_size": 1, "unit_type": "LSTM", "num_layers": 1, "hidden_size": 40, "bias_fl": true}, "state_dict": {"rec.weight_ih_l0": [[0.026341287419199944, -0.15265172719955444], [6.137791785931768e-08, -1.354973665002035e-05], [0.008208940736949444, 0.06796377152204514], [0.05844797566533089, 0.023799685761332512], [0.061768364161252975, 0.0398041307926178], [-0.008113032206892967, 0.09777001291513443], [-0.0023761664051562548, -0.19194594025611877], [-0.004833101760596037, 0.013335226103663445], [0.27629947662353516, -0.04985039681196213], [0.046795155853033066, 0.06215016543865204], [0.05414499714970589, -0.0087806461378932], [-0.004092518240213394, -0.3164725601673126], [-0.026092853397130966, -0.06990834325551987], [-0.05176227539777756, -0.33927568793296814], [8.262043849072143e-08, -1.2222183613630477e-05], [-0.005687734577804804, 0.07137317955493927], [-0.014211881905794144, -0.307109534740448], [0.005309049040079117, 0.13674935698509216], [-0.016625339165329933, -0.07263491302728653], [-0.0033474217634648085, 0.03489083796739578], [0.004033291712403297, -0.03615541011095047], [0.05129137635231018, 0.014271557331085205], [0.008449327200651169, -0.027632297948002815], [-0.003805512562394142, 0.09305141121149063], [-0.025297358632087708, -0.1204671636223793], [-6.596251296286937e-07, -1.29733152789413e-05], [0.0214052926748991, 0.10434224456548691], [-0.0032957729417830706, 0.019753072410821915], [0.023885764181613922, 0.0640907734632492], [-0.12927056849002838, -0.13029725849628448], [-1.043224983732216e-06, -1.5869431081227958e-05], [0.043771892786026, 0.030123885720968246], [-0.004104940220713615, 0.24169921875], [-0.029729850590229034, -0.39988240599632263], [8.377442668461299e-07, -2.2559876015293412e-05], [0.025845348834991455, 0.06905509531497955], [0.00981009379029274, 0.05935234576463699], [0.05711482837796211, -0.030814554542303085], [-3.6350843402033206e-07, -1.2263439202797599e-05], [0.058510467410087585, -0.18565867841243744], [0.0665971040725708, 0.26836875081062317], [-5.901669055674574e-07, -1.2457699995138682e-05], [0.03140110522508621, -0.010231026448309422], [0.03383888676762581, 0.0566638819873333], [0.016595063731074333, 0.1145067885518074], [-0.032313838601112366, 0.1362096667289734], [-0.03932523354887962, -0.18726226687431335], [-0.038369618356227875, -0.3488956093788147], [0.07664982974529266, 0.03348772972822189], [-0.012007405050098896, 0.1050507053732872], [0.0029547971207648516, -0.06164977326989174], [-0.062019240111112595, 0.423763245344162], [0.014654885977506638, -0.08380989730358124], [0.047122374176979065, 0.37449827790260315], [-5.236564106780861e-07, -1.1254100172664039e-05], [-0.015297887846827507, 0.18861371278762817], [-0.04621720686554909, 0.43352118134498596], [-0.0015084999613463879, 0.14912103116512299], [-0.04701388254761696, 0.0017157095717266202], [-0.0390508659183979, 0.3248094916343689], [0.005385262425988913, 0.19791781902313232], [0.07008448988199234, 0.06597333401441574], [0.0035230040084570646, 0.09049332141876221], [-0.12878431379795074, -0.024028681218624115], [0.004913151729851961, 0.42444145679473877], [-1.2278267149667954e-06, -1.1989282938884571e-05], [-0.026312770321965218, -0.042420972138643265], [-0.005850725341588259, 0.02268708497285843], [0.04909679666161537, 0.12615171074867249], [0.02068963274359703, -0.15383176505565643], [-1.6013460708563798e-06, -1.4900987480359618e-05], [0.0015263243112713099, 0.037806883454322815], [0.044012270867824554, 0.121236152946949], [-0.013554085046052933, 0.41233837604522705], [4.94557639285631e-07, -2.172422500734683e-05], [0.06042712926864624, 0.16182449460029602], [0.018120426684617996, 0.04996047541499138], [0.00551071111112833, 0.0358148030936718], [-9.493833204032853e-07, -1.120645447372226e-05], [-0.10820487886667252, -0.06256251037120819], [-0.07156676054000854, -0.12555921077728271], [0.0002298460021847859, 0.0003719247761182487], [-0.23593421280384064, -0.2250240445137024], [-0.03534557297825813, 0.1228553056716919], [-0.25400182604789734, 0.05674414709210396], [-0.03229842707514763, -0.13735608756542206], [-0.05386428162455559, 0.2961694002151489], [0.009100832045078278, 0.08651188760995865], [0.32046952843666077, -0.1293579638004303], [-0.644805908203125, 0.11459245532751083], [0.12429682910442352, 0.10313962399959564], [-0.0650993287563324, -0.06903976947069168], [0.13637110590934753, 0.04584388807415962], [-0.4543502628803253, 0.02874789573252201], [0.00023712823167443275, 0.00039118548738770187], [-0.014976675622165203, 0.11768624931573868], [0.32843825221061707, 0.0441243015229702], [0.06065421923995018, 0.17489567399024963], [0.045173414051532745, -0.42377492785453796], [0.0005156356492079794, -0.6838024258613586], [0.011302508413791656, -0.04452180862426758], [-0.1080627590417862, -0.15893852710723877], [0.11713209748268127, 0.07564706355333328], [0.38696613907814026, 0.0322510227560997], [-0.11621437966823578, -0.08522579073905945], [0.00023286470968741924, 0.00039961631409823895], [0.1311744600534439, -0.4827672839164734], [0.007794581353664398, 0.022750835865736008], [-0.2761862576007843, -0.022218482568860054], [-0.7271899580955505, -0.15237808227539062], [0.00021989986998960376, 0.0005409207660704851], [-0.05503791943192482, -0.13841886818408966], [-0.054140638560056686, -0.07446005940437317], [-0.15237785875797272, 0.09947045892477036], [0.00013341428712010384, 0.0006891328957863152], [0.033053960651159286, -0.4449109733104706], [-0.033646490424871445, 0.0034500807523727417], [0.026693129912018776, -0.0936548262834549], [0.00022100760543253273, 0.0003782498533837497], [0.22699500620365143, -0.2542016804218292], [0.03404601290822029, 0.04586389288306236], [-3.1512766440755513e-07, -1.3556386875279713e-05], [-0.009306097403168678, 0.08056831359863281], [0.06643454730510712, 0.03491825982928276], [0.029333507642149925, 0.08694291114807129], [-0.04158033803105354, 0.10705859959125519], [-0.021164728328585625, -0.3192560374736786], [-0.012881084345281124, 0.007395840249955654], [0.06574689596891403, 0.0629161149263382], [0.005547833163291216, 0.22116594016551971], [0.053859904408454895, 0.1794062703847885], [0.017199359834194183, 0.27313849329948425], [-0.05580344796180725, 0.08256221562623978], [0.06212630867958069, 0.21509802341461182], [-1.8194519668668363e-07, -1.2227903425809927e-05], [0.10609166324138641, 0.18385356664657593], [-0.044281188398599625, 0.20440971851348877], [0.13248974084854126, -0.1384948045015335], [-0.04832799360156059, 0.08107756078243256], [0.02411615662276745, 0.13700279593467712], [-0.027103792876005173, 0.022742614150047302], [0.09291289001703262, -0.010409963317215443], [0.04194330424070358, 0.0941457524895668], [-0.012358546257019043, 0.12287770956754684], [0.0220191590487957, 0.11781512200832367], [-8.927545422920957e-07, -1.297809649258852e-05], [0.005917065776884556, 0.12916633486747742], [-0.003959760535508394, 0.019841311499476433], [0.03724556788802147, 0.1193389743566513], [0.09665188193321228, 0.01731199026107788], [-1.2301537708481192e-06, -1.5875666576903313e-05], [0.029597371816635132, 0.11387258023023605], [0.07803241908550262, 0.0880635678768158], [0.011950693093240261, 0.10230032354593277], [1.0692660907807294e-06, -2.257896267110482e-05], [-0.02699558436870575, -0.5091570615768433], [-0.009290157817304134, 0.12453768402338028], [0.012460609897971153, 0.14013350009918213], [-6.627141715398466e-07, -1.2270196748431772e-05], [-0.005243499763309956, 0.23827695846557617]], "rec.weight_hh_l0": [[-0.025210168212652206, -6.492315151263028e-06, 0.06972065567970276, 0.10219613462686539, 0.0938647985458374, -0.05641613155603409, -0.07328382879495621, 0.08610891550779343, -0.08121049404144287, 0.039136432111263275, 0.05207554250955582, 0.11105460673570633, -0.08594504743814468, -0.051653165370225906, -6.836467946413904e-05, -0.1345512866973877, 0.04159848392009735, -0.16359466314315796, -0.04760460928082466, -0.14206518232822418, 0.05314592644572258, -0.10579035431146622, -0.14031222462654114, -0.035454075783491135, -0.033827733248472214, -4.325407644500956e-05, 0.390188992023468, -0.01550715509802103, -0.020430708304047585, 0.0952061116695404, -3.2854466553544626e-05, -0.07691439241170883, 0.1992562711238861, -0.16440333425998688, -0.00024257278710138053, 0.15971094369888306, 0.059444718062877655, -0.1666136384010315, -2.229707570222672e-05, 0.06158832833170891], [-8.581368092563935e-06, -3.1545210887884423e-09, 5.323017759906179e-08, -1.5644112636437058e-06, -2.3365460322111176e-07, 1.7004174424073426e-06, -3.2471082249685423e-06, -1.190611601487035e-05, 3.7481720482901437e-06, -2.327720494577079e-06, 1.202238536279765e-06, -2.22410972128273e-06, 1.5265812862708117e-06, 4.898944553133333e-06, -2.2610455729932255e-09, -2.9449709472828545e-05, -3.237153578083962e-06, 4.022362190880813e-06, -1.4481406651611906e-06, -2.5453486159676686e-05, 3.161454515065998e-06, -1.2379738336676382e-06, -2.186544634241727e-06, -9.017580850922968e-07, -4.605494723364245e-06, -2.305190704987581e-09, 8.930035164667061e-07, -6.006577564221516e-07, 1.690899125605938e-06, 6.008673949509102e-07, -3.2808715744181427e-09, 6.027494237059727e-07, 1.4956288396206219e-05, 1.8148068647860782e-07, -3.3621092576652245e-09, 9.22524486668408e-06, 1.74460126345366e-06, -7.560615955526373e-08, -2.528222076136899e-09, 7.98827204562258e-06], [-0.10391728579998016, 5.663948832079768e-05, 0.011387047357857227, 0.031366731971502304, -0.009720215573906898, -0.004959506914019585, 0.03035743534564972, 0.007004694081842899, -0.03371221944689751, 0.0050080013461411, -0.03253175690770149, 0.002768230624496937, 0.04415697976946831, -0.07519902288913727, 3.588770778151229e-05, 0.283618688583374, 0.005601549055427313, -0.020922238007187843, 0.007140301633626223, 0.15045124292373657, 0.07541918754577637, 0.1180385947227478, -0.03028329461812973, 0.03429334610700607, 0.0004416509182192385, 3.6274093872634694e-05, 0.06554640829563141, 0.0015732315368950367, -0.013286201283335686, -0.027289865538477898, 2.749507621047087e-05, 0.01617399975657463, -0.048522114753723145, -0.1252468228340149, 1.816840864421465e-07, 0.09054935723543167, -0.04293758422136307, -0.005389665253460407, 4.6892062528058887e-05, -0.012139812111854553], [0.009706245735287666, 5.376627450459637e-05, 0.016196636483073235, 0.03441205993294716, -0.005765960551798344, -0.01151767186820507, 0.013504883274435997, -0.003937574103474617, 0.011852763593196869, 0.00881100445985794, 0.016272880136966705, 0.014618786051869392, -0.018086157739162445, -0.062117453664541245, 1.7370684872730635e-05, 0.13418343663215637, -0.007409665733575821, -0.05819286033511162, 0.018669962882995605, 0.10109896212816238, 0.02155831642448902, 0.033972058445215225, -0.0048540011048316956, 0.004003405570983887, 0.048501163721084595, 2.3352164134848863e-05, 0.036713168025016785, 0.005910815205425024, -0.052647221833467484, -0.023659048601984978, 4.569812153931707e-05, 0.025456473231315613, 0.0013114538742229342, -0.06418566405773163, 3.7502541090361774e-05, -0.04782489687204361, -0.018559200689196587, -0.037223849445581436, 3.744539571925998e-05, -0.01070330198854208], [-0.03309537470340729, -0.00010700997518142685, 0.009777000173926353, 0.03786858916282654, 0.020295698195695877, -0.025357628241181374, -0.0059235175140202045, -0.017094865441322327, -0.014955133199691772, -0.021883524954319, 0.028558623045682907, 0.031166842207312584, 0.03655858710408211, -0.1167069599032402, -0.00011684729543048888, 0.19817225635051727, 0.0424453467130661, -0.01976448856294155, 0.0196814127266407, 0.11295955628156662, 0.06365486234426498, 0.030597159639000893, -0.02483067475259304, 0.04470284655690193, 0.009143959730863571, -0.00010187393490923569, 0.035400647670030594, -0.0018055564723908901, -0.015416266396641731, 0.0006945229833945632, -0.00010033251601271331, 0.015889903530478477, -0.02681342139840126, -0.0464182123541832, -0.00016066119133029133, 0.0030705584213137627, -0.025569899007678032, 0.031888674944639206, -0.00010589801240712404, -0.007530247326940298], [-0.02844921313226223, 0.0001359586458420381, 0.028298795223236084, 0.04149588942527771, 0.014690952375531197, -0.005801783874630928, 0.01763215661048889, 0.012478203512728214, -0.025494610890746117, 0.014230971224606037, -0.015343563631176949, 0.012180670164525509, -0.00772146787494421, -0.041835568845272064, 0.0001130671298597008, 0.10911482572555542, -0.04160121828317642, 0.012517665512859821, 0.036651745438575745, -0.054564591497182846, -0.0022037478629499674, 0.06273695081472397, -0.022538213059306145, 0.04165629670023918, 0.041491784155368805, 0.00011721564078470692, 0.06574112921953201, 0.0026587694883346558, -0.032802119851112366, 0.0022238283418118954, 0.00010248082980979234, 0.0173318013548851, -0.01464449055492878, -0.03116868995130062, 9.240092913387343e-05, 0.09973262995481491, -0.0009777310770004988, -0.01207016222178936, 0.00012914082617498934, -0.03044908493757248], [-0.018352316692471504, -0.00015794667706359178, 0.007169229444116354, 0.022087974473834038, 0.019750913605093956, -0.00044773524859920144, -0.05416371300816536, 0.09421619772911072, 0.012776118703186512, -0.0074221729300916195, 0.020079536363482475, 0.028729842975735664, 0.029653064906597137, 0.042910341173410416, -0.00017460524395573884, 0.05428815260529518, 0.012437192723155022, -0.10586008429527283, 0.0021210629492998123, 0.07591570168733597, 0.038536522537469864, 0.04891277104616165, 0.004390557762235403, -0.02424904704093933, 0.07167482376098633, -0.00017048472363967448, 0.005273553542792797, 0.003841881873086095, -0.01281595416367054, -0.02464986778795719, -0.00016620832320768386, 0.014396614395081997, 0.07996312528848648, 0.025715971365571022, -0.00022484817600343376, 0.15344969928264618, -0.03890222683548927, 0.02331431955099106, -0.00016553374007344246, 0.025954175740480423], [-0.02503478340804577, 2.3738461095490493e-05, -0.01142617966979742, 0.08470656722784042, -0.017493531107902527, -0.08980371057987213, 0.07186833769083023, -0.0190421212464571, 0.023192578926682472, -0.025823596864938736, -0.017697516828775406, -0.04193296283483505, -0.03460555151104927, -0.06755299121141434, -1.8809390894602984e-05, 0.31853196024894714, 0.05894213914871216, -0.08285185694694519, -0.02184472046792507, 0.34667089581489563, -0.028294967487454414, 0.14742621779441833, -0.0034024924971163273, 0.013028525747358799, 0.0536683164536953, 2.7349902666173875e-05, 0.02071494236588478, 0.01560661755502224, -0.09481698274612427, 0.06791719794273376, 9.014605166157708e-05, 0.12028822302818298, 0.2226024866104126, -0.09100869297981262, 4.012083445559256e-05, -0.2538246810436249, -0.0839977115392685, -0.017242221161723137, 1.7201367882080376e-05, -0.035986535251140594], [0.056145429611206055, 5.511315248440951e-05, 0.03229264169931412, -0.014884091913700104, 3.474824916338548e-05, -0.011239826679229736, 0.007131537422537804, -0.04720350727438927, 0.07603400945663452, -0.043106917291879654, 0.05393042415380478, -0.0014626933261752129, 0.17053811252117157, -0.08512772619724274, 3.285813727416098e-05, -0.06484005600214005, -0.0687841922044754, -0.07108135521411896, 0.035787422209978104, -0.043360039591789246, -0.04985806718468666, -0.013068211264908314, 0.0014852596214041114, -0.08697007596492767, -0.009766748175024986, 6.444061000365764e-06, 0.041864268481731415, 0.014848839491605759, -0.025464924052357674, -0.1837155520915985, 1.3558568753069267e-05, -0.05966493859887123, -0.06592345982789993, -0.0785655602812767, -3.0352455723914318e-05, -0.008616508916020393, -0.002679462544620037, -0.026435481384396553, 2.2962631192058325e-05, 0.14143872261047363], [-0.1549280732870102, 0.0001535938063170761, 0.029642580077052116, 0.07550031691789627, -0.026632074266672134, 0.019125651568174362, 0.05085435137152672, -0.027152279391884804, -0.0053058709017932415, 0.010375188663601875, -0.001192440278828144, -0.045012183487415314, 3.366634336998686e-05, -0.0699465274810791, 0.00010310556535841897, 0.1679977923631668, -0.061919186264276505, -0.03417644649744034, 0.019507473334670067, -0.07338129729032516, 0.13096319139003754, 0.05389072373509407, -0.059603698551654816, 0.046965938061475754, -0.025815870612859726, 0.00013059496995992959, 0.09461382776498795, -0.005434814374893904, -0.08772723376750946, -0.060463305562734604, 0.00014382695371750742, 0.0032224408350884914, 0.08618361502885818, -0.06000332161784172, 0.00011385433754185215, 0.22728517651557922, -0.03251935541629791, -0.034774236381053925, 0.00014421570813283324, 0.030163727700710297], [0.0005354679306037724, 0.0002677089942153543, 0.02878950722515583, 0.06242089346051216, 0.01823197491466999, -0.010663306340575218, -0.014397576451301575, 0.04942386969923973, 0.1041623204946518, -0.023603271692991257, 0.037775661796331406, 0.008218813687562943, -0.08222837001085281, -0.15334217250347137, 0.00022742444707546383, 0.332477867603302, 0.037735290825366974, 0.04320237785577774, 0.020535483956336975, 0.12069962173700333, 0.033118803054094315, 0.07352709025144577, 0.061682071536779404, 0.08930949866771698, 0.15769201517105103, 0.00020845994004048407, -0.009003416635096073, -0.00041801424231380224, -0.10323800891637802, 0.06335803866386414, 0.0002011609758483246, 0.09383426606655121, 0.018558064475655556, -0.053101468831300735, 0.00022195240308064967, -0.1770774871110916, -0.05971040204167366, 0.015898142009973526, 0.00023875599435996264, -0.01999587193131447], [-0.059572089463472366, -0.00019087041437160224, -0.012198577634990215, -0.009787064045667648, -0.01953158713877201, 0.0814247876405716, -0.06563401967287064, -0.19610030949115753, -0.00261228927411139, -0.05233219265937805, -0.10680599510669708, -0.07793185114860535, -0.09204145520925522, 0.04776346683502197, -0.0002657062141224742, -0.17297011613845825, -0.1325981169939041, 0.5468254685401917, 0.09920915961265564, -0.2872924208641052, 0.16464510560035706, -0.32321876287460327, -0.032274290919303894, 0.05233411118388176, -0.05271712318062782, -0.0002355521428398788, -0.02127985656261444, -0.014047229662537575, 0.05439533293247223, 0.003134859027341008, -0.0001866378734121099, -0.14848963916301727, -0.6976711750030518, 0.1220012828707695, -0.00016477271856274456, 0.2382696568965912, 0.03562001511454582, -0.045590534806251526, -0.00019361331942491233, -0.08952466398477554], [0.05261915177106857, 0.00010940101492451504, -0.00756330881267786, 0.04955277964472771, 0.0610601082444191, -0.021654760465025902, -0.029749896377325058, 0.025068705901503563, -0.018517442047595978, -0.02245987579226494, -0.0685235857963562, -0.053307197988033295, -0.13730216026306152, -0.07254980504512787, 3.152445060550235e-05, 0.0747675746679306, 0.030225083231925964, -0.013210954144597054, 0.06265834718942642, 0.035639263689517975, 0.10897474735975266, -0.05858541652560234, 0.03502741828560829, 0.08834540843963623, 0.06957516074180603, 5.1540198910515755e-05, 0.07049885392189026, -0.009046738967299461, -0.10287070274353027, 0.1863517314195633, 7.05018246662803e-05, 0.020534971728920937, -0.08511802554130554, -0.014122406020760536, -2.4039985873969272e-05, -0.03513071686029434, -0.002650150563567877, -0.0037803633604198694, 8.165006147464737e-05, -0.12635619938373566], [-0.08074808120727539, 0.00026171706849709153, 0.010174104943871498, 0.008542411029338837, -0.08204654604196548, -0.03927020728588104, -0.004440781660377979, -0.0983215942978859, 0.41871845722198486, 0.00933158677071333, -0.07144159823656082, -0.035093408077955246, -0.17313486337661743, -0.09036582708358765, 0.0002758013433776796, -0.29442065954208374, -0.11041224747896194, -0.1253158003091812, -0.007999332621693611, -0.30129432678222656, 0.0713147297501564, -0.22636432945728302, -0.008656647987663746, -0.08564829081296921, -0.032977163791656494, 0.0002887391019612551, -0.04015457257628441, 0.001809917506761849, 0.07776635885238647, 0.06461691111326218, 0.00028575537726283073, -0.020936144515872, 0.12767721712589264, 0.11379401385784149, 4.744241596199572e-05, 0.03366683050990105, -0.057724498212337494, -0.04670678824186325, 0.0002788038400467485, 0.016148222610354424], [-8.30420231068274e-06, -1.8081024455440797e-09, 1.98658867134327e-07, -1.1543540949787712e-06, -3.7505640193558065e-07, 1.380170715492568e-06, -2.808573754009558e-06, -1.1118506336060818e-05, 3.985011971963104e-06, -1.8535992012402858e-06, 6.639471052949375e-07, -1.817534098336182e-06, 8.104852895485237e-07, 4.809275196748786e-06, -9.575457093902173e-10, -3.042032585653942e-05, -2.770140554275713e-06, 4.438064479472814e-06, -1.0915438224401441e-06, -2.67912182607688e-05, 2.7115440843772376e-06, -2.5972296953113982e-06, -1.8095778386850725e-06, -8.005831091395521e-07, -3.724053385667503e-06, -1.1296975577224089e-09, 6.640532319579506e-07, -4.874359547102358e-07, 1.1409382523197564e-06, 9.96808012132533e-07, -2.06236738797827e-09, 5.410994958765514e-07, 1.4870664017507806e-05, 8.310182693094248e-07, -1.6735006713730627e-09, 7.001758604019415e-06, 1.5069529126776615e-06, -3.0456283184321364e-07, -1.2964276319138435e-09, 7.133496183087118e-06], [-0.009565461426973343, 5.3252220823196694e-05, 0.0015787219163030386, 0.003239652141928673, 0.009221291169524193, 0.0024126966018229723, 0.015460919588804245, 0.017215725034475327, -0.02952445298433304, 0.006730138324201107, -0.0011228237999603152, -0.003766970243304968, 0.015423964709043503, -0.014369189739227295, 5.487039379659109e-05, 0.1318189650774002, -0.009510782547295094, 0.0056736222468316555, 0.003087335964664817, 0.06228036433458328, 0.014570631086826324, 0.03978351503610611, -0.003602383891120553, 0.0038526272401213646, -0.0007927983533591032, 5.3493768064072356e-05, 0.01550375111401081, 0.0006990231922827661, 0.0033689728006720543, -0.013642542064189911, 4.7979570808820426e-05, -0.003254631068557501, -0.056751322001218796, -0.03276560828089714, 6.215865141712129e-05, -0.005475686863064766, 0.0013474974548444152, 0.003916946705430746, 5.214654083829373e-05, -0.016654513776302338], [0.10958900302648544, -3.163155270158313e-05, 0.0066794236190617085, 0.060468122363090515, -0.05072980746626854, -0.021750446408987045, -0.04762126877903938, -0.07622825354337692, 0.17118483781814575, 0.005518576595932245, 0.07442092150449753, -0.14702631533145905, -0.08926345407962799, 0.23288971185684204, -6.229463178897277e-05, -0.07603583484888077, -0.1505763828754425, -0.006764409132301807, -0.0500103235244751, -0.08702466636896133, -0.017340462654829025, -0.47764500975608826, 0.08844562619924545, -0.009876726195216179, -0.16207779943943024, -6.0023146943422034e-05, -0.05577899143099785, -0.011535941623151302, -0.039779189974069595, 0.11112900823354721, -1.9982680896646343e-05, 0.07789156585931778, -0.04715309292078018, 0.08684904873371124, 6.023963578627445e-05, 0.00226341444067657, -0.03936409577727318, 0.021295569837093353, -3.621808718889952e-05, 0.13961739838123322], [0.05349243804812431, 6.329192547127604e-05, -0.013645105063915253, -0.02773558348417282, -0.018511051312088966, 0.0009863312589004636, 0.02075815759599209, 0.2049652338027954, -0.007390232291072607, 0.03336367756128311, 0.0333377867937088, 0.031612470746040344, 0.015393591485917568, -0.024354513734579086, 3.151827695546672e-05, 0.1640499085187912, -0.1210467591881752, 0.04594976827502251, -0.013766931369900703, 0.09200198203325272, 0.03612636402249336, 0.0744694322347641, -0.018504628911614418, -0.002824532799422741, -0.05671265348792076, 5.042864358983934e-05, 0.05034589767456055, -0.006292220205068588, 0.04771486297249794, -0.017894349992275238, 0.00010009716061176732, 0.01735592447221279, -0.12011377513408661, -0.011531374417245388, 0.00019856849394273013, -0.0826626867055893, -0.009175767190754414, 0.003533384995535016, 6.288252188824117e-05, -0.017607085406780243], [-0.04655955731868744, 5.1246624934719875e-05, 0.04281555861234665, 0.10385623574256897, -0.022783180698752403, -0.03290661424398422, 0.011835472658276558, -0.011401325464248657, 0.012271839193999767, 0.07889575511217117, -0.0032341936603188515, -0.04081320762634277, 0.025468017905950546, -0.007181321270763874, -2.3259894078364596e-05, 0.123363196849823, -0.04873397946357727, -0.06991647928953171, 0.01685013435781002, -0.07084787636995316, 0.003469904186204076, 0.024431854486465454, -0.03871770203113556, 0.005917231552302837, 0.06532430648803711, 9.640869393479079e-06, 0.04891335591673851, 0.006715828087180853, -0.10093537718057632, 0.020898286253213882, 5.940971459494904e-05, 0.019788026809692383, 0.1266646683216095, 0.018283560872077942, 8.388298738282174e-05, 0.15550072491168976, -0.06433964520692825, -0.014851681888103485, 2.5964727683458477e-05, -0.008810686878859997], [0.0002614977420307696, 1.855462687672116e-05, 0.02027084119617939, 0.041255731135606766, -0.006313069723546505, -0.005136017221957445, 0.021554037928581238, -0.07327939569950104, -0.044572167098522186, -0.002462342381477356, 0.0026540029793977737, 0.0038374997675418854, -0.010089384391903877, -0.05024395510554314, 2.8072619898011908e-05, 0.11484770476818085, 0.01183401420712471, -0.014457876794040203, -0.02651793323457241, 0.022760311141610146, -0.014016852714121342, 0.012912613339722157, 0.030510034412145615, -8.438622899120674e-05, -0.03552855923771858, 4.2424933781148866e-05, 0.05412958562374115, -0.010132130235433578, -0.05529399961233139, 0.003989454358816147, 3.640956128947437e-05, 0.00324382446706295, 0.06305668503046036, -0.046120960265398026, 8.467775842291303e-06, 0.007946268655359745, 0.012332704849541187, 0.0061584347859025, 2.9335313229239546e-05, -0.036819588392972946], [-0.016551097854971886, 0.00022913630527909845, 0.006950623355805874, 0.00820037629455328, -0.009133823215961456, -0.0049598198384046555, 0.0398259200155735, -0.003171962685883045, 0.01660492829978466, 0.03013787232339382, -0.016978835687041283, -0.049869608134031296, 0.024678820744156837, 0.049699410796165466, 0.00021879897394683212, 0.019121600314974785, 0.0627741739153862, -0.051483381539583206, 0.03967905417084694, 0.015581444837152958, -0.04808800667524338, 0.004806024022400379, 0.021028848364949226, 0.017906928434967995, -0.05933448299765587, 0.00023273786064237356, -0.0007609987515024841, 0.008977795019745827, -0.027632011100649834, 0.01422290038317442, 0.00022299221018329263, -0.01156011875718832, -0.009454866871237755, -0.0177370086312294, 0.00012221427459735423, 0.09137878566980362, -0.0007901597418822348, 0.026055224239826202, 0.0002324876404600218, 0.03611285611987114], [0.03549293056130409, -0.00016015811706893146, 0.020438164472579956, 0.030139949172735214, 0.003713849000632763, -0.004903893452137709, 0.024123137816786766, 0.0074304817244410515, 0.026973074302077293, 0.014349214732646942, 0.038056083023548126, 0.03325805813074112, 0.015937870368361473, -0.07225170731544495, -0.00013021955965086818, 0.10603858530521393, 0.052287764847278595, -0.03954298794269562, 0.006837976630777121, 0.07159668207168579, -0.028397981077432632, 0.009122016839683056, -0.0181480310857296, 0.006517558824270964, 0.03738706186413765, -0.00012345031427685171, 0.006376427598297596, 0.0014672926627099514, -0.03789525479078293, -0.018319405615329742, -0.0001281674631172791, 0.03865588456392288, 0.008400448597967625, -0.019149918109178543, -8.221972530009225e-05, -0.03618884086608887, -0.033973779529333115, -0.03173735737800598, -0.00014632240345235914, -0.0088664460927248], [-0.15755438804626465, 0.00017445597040932626, 0.05286893621087074, 0.05219481885433197, 0.0399961918592453, -1.1971248568443116e-05, -0.01219597551971674, 0.03201529383659363, 0.027121422812342644, 0.0023298757150769234, -0.036131683737039566, -0.07905533909797668, 0.018298020586371422, -0.026220088824629784, 0.00016123281966429204, 0.06154736876487732, 0.049441542476415634, -0.006964150350540876, 0.07321030646562576, -0.1692403107881546, 0.09898995608091354, 0.0027474795933812857, -0.031012356281280518, 0.0316130556166172, 0.06338933110237122, 0.00011834385804831982, 0.0734385997056961, 0.004702776204794645, -0.0224712286144495, 0.00808430090546608, 5.490619150805287e-05, 0.03634656220674515, 0.08756649494171143, 0.01758239045739174, 4.730560613097623e-05, 0.22164388000965118, -0.04336147755384445, 0.017175113782286644, 0.00015868186892475933, -0.004960703197866678], [0.040102891623973846, -4.05327882617712e-05, 0.026435980573296547, 0.04149525612592697, 0.006512891035526991, -0.0013666586019098759, 0.014288132078945637, -0.0011486567091196775, 0.011968672275543213, -0.027386333793401718, -0.011732017621397972, -0.017911620438098907, -0.03538196161389351, -0.06041499227285385, -5.401229645940475e-05, 0.23785468935966492, 0.02214478887617588, -0.013248656876385212, 0.030756225809454918, 0.15271486341953278, 0.01370944269001484, 0.04604001343250275, 0.015774080529808998, 0.049500174820423126, 0.032528363168239594, -4.2494822992011905e-05, -0.020044522359967232, 0.005971586797386408, -0.03910217061638832, 0.04024481773376465, -4.9131725972983986e-05, 0.008431550115346909, -0.11252449452877045, -0.080631785094738, -0.00012981196050532162, -0.09921442717313766, -0.0015310861635953188, -0.015300828032195568, -4.621508560376242e-05, -0.021673282608389854], [-0.013630624860525131, -0.00027866807067766786, 0.023304367437958717, -0.006501676980406046, 0.03823402151465416, -0.03148062899708748, -0.05527302250266075, 0.06759804487228394, 0.025576936081051826, -0.04398329555988312, 0.025037406012415886, -0.027984285727143288, -0.04758196696639061, 0.026255760341882706, -0.00024751346791163087, -0.11853773146867752, -0.08848356455564499, -0.08696356415748596, 0.07223113626241684, -0.19645288586616516, -0.019941173493862152, -0.026418862864375114, -0.08048254996538162, -0.01730799674987793, -0.01615510880947113, -0.00025924912188202143, 0.05443694442510605, 0.004080743063241243, 0.04555303975939751, 0.026396511122584343, -0.0003249074216000736, 0.04265011474490166, 0.20238974690437317, -0.07053246349096298, -0.0003009651554748416, 0.1254296600818634, -0.019996942952275276, -0.014479140751063824, -0.0002535357198212296, -0.033524107187986374], [-8.216043170250487e-06, -2.7325686158263807e-09, 2.3466306231512135e-07, -1.216393798131321e-06, -1.983977568897899e-07, 1.2319554798523313e-06, -2.9964664918225026e-06, -1.0635263606673107e-05, 4.010011707578087e-06, -1.517295800113061e-06, 6.932402243364777e-07, -1.6143135326274205e-06, 1.6153472870428232e-07, 4.897225608146982e-06, -1.910629654489071e-09, -2.9603279472212307e-05, -2.2815165721112862e-06, 3.693726057463209e-06, -8.28454346901708e-07, -2.5299870685557835e-05, 2.5368867682118434e-06, -3.242579396101064e-06, -2.080250396829797e-06, -6.766076694475487e-07, -3.713138539751526e-06, -1.9310051335708067e-09, 4.859352316088916e-07, -3.7664941032744537e-07, 1.4020006346981972e-06, 1.8348519006394781e-06, -2.7143012282238033e-09, 7.485562036890769e-07, 1.499278823757777e-05, 7.507996997446753e-07, -2.574663371390784e-09, 6.891440079925815e-06, 1.0031957344835973e-06, -4.77736421089503e-07, -2.159364020926091e-09, 7.157210802688496e-06], [0.01476273313164711, -3.5545667742553633e-06, -0.017734451219439507, 0.007864576764404774, -0.0150618189945817, -0.0065721794962882996, 0.020824763923883438, -0.003106110729277134, -0.01363567728549242, 0.012687420472502708, -0.019530991092324257, -0.00023014510225038975, 0.01854209415614605, -0.06650197505950928, -3.2931184250628576e-05, 0.34734082221984863, 0.020596789196133614, 0.01747843436896801, 0.0034307900350540876, 0.2980920076370239, 0.013812408782541752, 0.09992042183876038, 0.010026680305600166, 0.02261536382138729, 0.02827346697449684, -3.581649434636347e-05, 0.004253878723829985, 0.0011759346816688776, -0.033957984298467636, -0.020936310291290283, -2.1136165742063895e-05, 0.0014170454815030098, -0.08297237753868103, -0.10190801322460175, -4.2327890696469694e-05, -0.1090639978647232, -0.013989070430397987, 0.0184500552713871, -2.1346359062590636e-05, 0.010679909028112888], [0.006193502340465784, -2.91083433694439e-05, -0.0009914293186739087, 0.0007380415336228907, -0.000997424009256065, 0.0002468844468239695, 0.0061870152130723, 0.013462347909808159, -0.006390093360096216, 0.003215428441762924, 0.0015268400311470032, -0.00011600008292589337, 0.003446229500696063, -0.002502297982573509, -2.8397140340530314e-05, 0.03281550109386444, 0.0006484049954451621, 0.0025516441091895103, 0.002014713129028678, 0.025270001962780952, -0.0017410283908247948, 0.0106118842959404, 8.491489279549569e-05, 0.0012206074316054583, 0.003062172792851925, -2.5063527573365718e-05, -0.0012524343328550458, 0.00034487692755647004, -4.512408122536726e-05, -0.0014895580243319273, -2.199247683165595e-05, 0.0004340916348155588, -0.016928592696785927, -0.00610845722258091, -2.1465988538693637e-05, -0.013898534700274467, 0.00034082616912201047, 0.002387498039752245, -2.7226507882005535e-05, -0.004658475983887911], [-0.05340298265218735, 0.00013165104610379785, 0.045563939958810806, 0.06777913123369217, 0.004224114120006561, -0.004418137017637491, 0.05111076682806015, -0.012652280740439892, -0.0020469487644732, 0.011165783740580082, 0.02060232311487198, 0.006079464685171843, -0.020079027861356735, -0.04154859110713005, 9.817526006372645e-05, 0.08870730549097061, -0.046412110328674316, -0.08257558196783066, 0.05281151458621025, -0.09072592109441757, -0.017217664048075676, 0.024294214323163033, -0.019675880670547485, 0.08036884665489197, 0.014743312261998653, 0.00011436062050051987, -0.031065279617905617, 0.016564013436436653, -0.026496930047869682, -0.003181269858032465, 0.00010845045471796766, -0.000586744979955256, 0.07439514994621277, -0.04585005342960358, -1.605695615580771e-05, 0.1333436369895935, -0.02874630317091942, -0.016984781250357628, 0.00012010918726446107, -0.022555731236934662], [0.08461929857730865, -0.00011526500748004764, 0.011547758243978024, 0.039095520973205566, 0.027872804552316666, -0.02628178708255291, -0.018831975758075714, 0.011814859695732594, -0.08633614331483841, 0.07935900241136551, 0.057694707065820694, -0.07790382951498032, -0.09658340364694595, -0.020190566778182983, -0.00012474182585719973, 0.007235555909574032, 0.04939688742160797, 0.04683970287442207, 0.019986890256404877, 0.209573894739151, 0.0002531613572500646, -0.0015070138033479452, 0.012351607903838158, -0.051519736647605896, 0.02575390413403511, -0.00011781015928136185, 0.07665293663740158, 0.007736333645880222, -0.05098375305533409, 0.1518736183643341, -0.0001132685283664614, 0.014449343085289001, -0.053621187806129456, -0.057097844779491425, -6.73019458190538e-05, -0.3490567207336426, -0.03903111442923546, -0.008070545271039009, -0.00011315282608848065, -0.11013555526733398], [-9.426300493942108e-06, -5.5959161748830866e-09, 3.6441076645132853e-07, -1.8411561768516549e-06, 2.6362675953350845e-07, 1.4566279560312978e-06, -3.977952474087942e-06, -1.3029629371885676e-05, 4.7783069021534175e-06, -1.475795670558e-06, 1.2074634696546127e-06, -1.4780590618101996e-06, -3.968782635865864e-08, 5.570620032813167e-06, -4.626699023901892e-09, -3.193528391420841e-05, -2.63771585196082e-06, 3.770512876144494e-06, -6.999929382800474e-07, -2.6591060304781422e-05, 3.1479683002544334e-06, -3.476317715467303e-06, -2.8059043870598543e-06, -6.753054435648664e-07, -5.177897946850862e-06, -4.372889161885496e-09, 7.346324650825409e-07, -3.5429604849923635e-07, 2.23278198063781e-06, 2.6039424483315088e-06, -5.120257107193993e-09, 1.18451600883418e-06, 1.717628947517369e-05, 3.3697210710670333e-07, -5.431543215195234e-09, 8.406368579016998e-06, 5.835919409946655e-07, -9.526405619908473e-07, -4.76730432907857e-09, 8.778561095823534e-06], [-0.11542065441608429, 0.0002183340984629467, 0.018913738429546356, 0.06002289429306984, -0.010614996775984764, 0.0022952340077608824, 0.024696240201592445, 0.0628209188580513, 0.03621934354305267, 0.0035307754296809435, -0.03933928161859512, 0.05407128855586052, -0.01704780012369156, -0.0981091633439064, 0.00015173743304330856, 0.18296441435813904, -0.02883400022983551, -0.008126047439873219, 0.03070288524031639, -0.014895460568368435, -0.010040090419352055, 0.08925271779298782, -0.017221417278051376, 0.04831121861934662, 0.0806787833571434, 0.00015493972750846297, 0.03427156060934067, 0.005030657164752483, -0.04338470473885536, 0.032201673835515976, 0.00018255198665428907, 0.02724209427833557, 0.11335030943155289, 0.0007246399763971567, 0.00017128820763900876, 0.07634390890598297, -0.06180191785097122, -0.05524657294154167, 0.00018299752264283597, -0.054952725768089294], [0.02426394633948803, -0.0001883128861663863, 0.00036755335167981684, -0.03757406026124954, -0.019320907071232796, 0.041781749576330185, 0.010308127850294113, -0.12139822542667389, -0.044814374297857285, -0.05444777011871338, -0.14762429893016815, -0.03705236315727234, 0.0389365628361702, -0.006396676413714886, -0.00018739824008662254, 0.22175118327140808, 0.04190674424171448, 0.03970571979880333, 0.03314661234617233, 0.049537744373083115, 0.019657591357827187, -0.03976527601480484, 0.0888732299208641, -8.883289410732687e-05, 0.03532106801867485, -0.00016205980500672013, -0.027810024097561836, -0.015664927661418915, 0.0005421743844635785, -0.07199852168560028, -0.00012666384282056242, -0.1034894585609436, -0.16636717319488525, -0.013941976241767406, -7.18089722795412e-05, -0.006724105216562748, 0.07371652871370316, 0.06333146244287491, -0.0001765689521562308, -0.06465236097574234], [-0.23552462458610535, -0.00010437917080707848, 0.025978222489356995, 0.057766493409872055, -0.030545540153980255, 0.007220517378300428, 0.004443163517862558, -0.10716895759105682, -0.04022142291069031, 0.07373031973838806, -0.02262502908706665, 0.05327560752630234, -0.03203633800148964, -0.06554225832223892, -2.4480517822667025e-05, -0.39061352610588074, -0.023932887241244316, -0.0805177241563797, 0.10037524253129959, -0.3385654389858246, 0.15336932241916656, -0.04104604199528694, -0.09971778839826584, -0.02469678781926632, -0.01776709407567978, -4.3863772589247674e-05, 0.05213630944490433, 0.0029229235369712114, -0.054281849414110184, -0.027571583166718483, -0.00011447650467744097, -0.023611193522810936, 0.2713930308818817, -0.003388246987015009, -0.00020477324142120779, 0.12154124677181244, -0.06042694300413132, -0.07073681801557541, -6.352468335535377e-05, -0.024101121351122856], [-1.2307922588661313e-05, -1.1189556836654901e-08, 1.1425867114667199e-06, -3.443549985604477e-06, 1.086138126993319e-06, 1.820991883505485e-06, -6.051760919945082e-06, -2.0599669369403273e-05, 7.689504855079576e-06, -2.994036378822784e-07, 2.345357643207535e-06, 9.084723160412977e-07, 5.124621225149895e-07, 6.8570711846405175e-06, -9.798954536677229e-09, -4.4537842768477276e-05, -6.7769765337288845e-06, 5.66358539799694e-06, -3.94257540392573e-07, -3.724332418642007e-05, 4.694192739407299e-06, -4.422265647008317e-06, -3.877388280670857e-06, -1.3351439065445447e-06, -9.590353329258505e-06, -9.18363340929318e-09, 2.1071209630463272e-06, -3.5121149721817346e-07, 3.594228473957628e-06, 3.006485940204584e-06, -1.0113419435242577e-08, 1.9285271264379844e-06, 2.4064904209808446e-05, 7.622591624567576e-07, -1.093949375530201e-08, 1.090560090233339e-05, -4.964531399309635e-07, -2.64701884589158e-06, -9.837195058537418e-09, 1.2549117855087388e-05], [0.04276683181524277, 9.078891889657825e-05, 0.005057041998952627, 0.009910056367516518, 0.005879560019820929, 0.014172445982694626, 0.0023337695747613907, 0.003467163071036339, -0.031055057421326637, -0.008793892338871956, 0.018032943829894066, -0.015330024994909763, 0.015033500269055367, -0.012493404559791088, 7.29783350834623e-05, 0.1421949416399002, -0.0037631304003298283, 0.010094927623867989, 0.0035915642511099577, 0.1262647807598114, -0.026523606851696968, 0.02857949398458004, 0.032608918845653534, 0.024135733023285866, 0.005456991959363222, 5.935889930697158e-05, -0.018789246678352356, -0.0027212409768253565, -0.014381890185177326, -0.01401866227388382, 6.675851909676567e-05, -0.0124423922970891, -0.07627856731414795, 0.006839596200734377, 0.00010366000788053498, -0.029624363407492638, 0.019259780645370483, 0.010120498947799206, 7.879280747147277e-05, -0.0038319905288517475], [-0.059057921171188354, 0.00017738129827193916, 0.03716500848531723, 0.05674044415354729, -0.02247551828622818, 0.005940485280007124, 0.015180959366261959, -0.03235287591814995, 0.03527417778968811, -0.0124002480879426, -0.04087166488170624, -0.00767518812790513, 0.040778886526823044, -0.08111229538917542, 0.00013225334987509996, 0.15446756780147552, 0.023932738229632378, 0.04673253372311592, -0.004594271536916494, 0.06799500435590744, 0.03342234343290329, 0.05060397833585739, -0.019763141870498657, 0.03024090826511383, 0.03246374800801277, 0.00012757694639731199, 0.061402857303619385, -0.008343780413269997, -0.038963161408901215, 0.00646603899076581, 0.00012018074630759656, 0.0158015638589859, 0.041864797472953796, -0.06117704510688782, 0.00013546878471970558, 0.039279572665691376, -0.011138183064758778, -0.0028936024755239487, 0.00015134253771975636, -0.010401681996881962], [-0.17518554627895355, 0.0004136514035053551, 0.024154342710971832, 0.09928013384342194, 0.017540287226438522, -0.016723932698369026, 0.009373707696795464, -0.03919406980276108, 0.07664202153682709, 0.01773921586573124, -0.051101550459861755, -0.027836713939905167, 0.005415684077888727, -0.06536278873682022, 0.00035492682945914567, 0.1663670390844345, -0.06719445437192917, 0.01405757013708353, 0.0721762403845787, -0.15926899015903473, 0.019437216222286224, 0.16950848698616028, -0.09127386659383774, 0.10647603124380112, 0.13367685675621033, 0.0003524255007505417, 0.034083086997270584, 0.012066570110619068, -0.09798412024974823, 0.06697386503219604, 0.00037183452514000237, 0.017797378823161125, 0.10535553097724915, 0.087823785841465, 0.00043714369530789554, 0.2010382115840912, -0.04878901690244675, 0.01396563183516264, 0.00037490465911105275, -0.020230978727340698], [-7.882556019467302e-06, -2.096262718964681e-09, 7.990174566430142e-08, -1.142492692451924e-06, -3.781115651690925e-07, 1.3363994639803423e-06, -2.7894241156900534e-06, -1.0245526937069371e-05, 3.489365553832613e-06, -1.9706642433447996e-06, 7.799641252859146e-07, -2.0689792563644005e-06, 8.396390285270172e-07, 4.6039790504437406e-06, -1.3088236050506907e-09, -2.8090706109651364e-05, -2.4836929242155747e-06, 3.573859657990397e-06, -1.207341256304062e-06, -2.424525882815942e-05, 2.60046499533928e-06, -2.0954621504643e-06, -1.9580722891987534e-06, -7.574457754344621e-07, -3.696768089866964e-06, -1.4053275210201832e-09, 5.986570386085077e-07, -4.888040052719589e-07, 1.3013451507504215e-06, 1.066064555743651e-06, -2.2605242122608615e-09, 5.559305691349437e-07, 1.4027003999217413e-05, 5.035244043938292e-07, -2.1280825990288577e-09, 7.632223969267216e-06, 1.502656914453837e-06, -9.565885505935512e-08, -1.5800556418810174e-09, 6.946164376131492e-06], [0.015701739117503166, 0.00015470168727915734, 0.03213094547390938, 0.0828825905919075, 0.018345318734645844, -0.011187134310603142, -0.0028534200973808765, -0.07952259480953217, 0.06622647494077682, -0.000574838777538389, -0.007166480179876089, -0.10110531747341156, -0.13037198781967163, 0.12388438731431961, 4.947617344441824e-05, -0.03663187474012375, -0.06253894418478012, -0.0007431181147694588, 0.04063722491264343, 0.052545029670000076, 0.02686510607600212, 0.017910052090883255, 0.036100637167692184, 0.17704440653324127, 0.0523497499525547, 8.974898082669824e-05, -0.17571145296096802, 0.016208119690418243, 0.03460914269089699, 0.12412754446268082, 0.00012595225416589528, 0.007815432734787464, 0.039491500705480576, -0.041709765791893005, 0.00012887864431831986, -0.15530133247375488, -0.07825116813182831, 0.06982305645942688, 0.00013601998216472566, 0.016170155256986618], [0.04247021675109863, -0.0002221328904852271, -0.01783014088869095, 0.06885350495576859, -0.07550115883350372, -0.034351155161857605, 0.029794206842780113, -0.052051447331905365, -0.140536367893219, 0.005802495405077934, 0.08474333584308624, 0.11301373690366745, 0.01192585937678814, -0.07033316045999527, -0.0002879882522393018, 0.37262266874313354, 0.05379238352179527, -0.008621513843536377, 0.01306250412017107, 0.26283225417137146, 0.06049041077494621, 0.0556926429271698, -0.10172326117753983, 0.004971441347151995, -0.064310722053051, -0.0002669363166205585, 0.10164868831634521, -0.01616162434220314, -0.11443327367305756, -0.03190787509083748, -0.0002567032934166491, 0.0762714296579361, -0.17339861392974854, -0.23862561583518982, -0.0004809102974832058, -0.17570604383945465, -0.07046610116958618, -0.12041664123535156, -0.00025211554020643234, -0.07413934916257858], [-8.29647160571767e-06, -3.4368479173707556e-09, -1.9418885699451494e-07, -1.6807856582090608e-06, 1.9284118479845347e-07, 1.5900965308901505e-06, -3.2044358704297338e-06, -1.2710604096355382e-05, 3.797308863795479e-06, -1.6106286011563498e-06, 1.1872411960212048e-06, -2.281253728142474e-06, 1.8917424995379406e-06, 4.8447468543599825e-06, -2.5425683780611052e-09, -2.8259173632250167e-05, -3.174160383423441e-06, 4.9494019549456425e-06, -9.514847079117317e-07, -2.466617661411874e-05, 2.9212717436166713e-06, -9.172928798761859e-07, -2.3789916667738e-06, -1.0564386911937618e-06, -4.4777634684578516e-06, -2.5382873580781506e-09, 8.72278576480312e-07, -5.889179988116666e-07, 1.8127464045392117e-06, 8.771809802965436e-07, -3.4811573623727554e-09, 6.94049901994731e-08, 1.4224818187358323e-05, 3.854120578239417e-08, -3.4576690399745758e-09, 7.642159289389383e-06, 1.2595130556292133e-06, 9.87817330155849e-08, -2.7931943424874817e-09, 7.896173883636948e-06], [0.06079515069723129, -0.00012624476221390069, 0.01512330211699009, -0.002898167120292783, 0.008767448365688324, 0.008813618682324886, 0.041833534836769104, 0.02672695554792881, -0.05395052954554558, -0.021799955517053604, 0.049124494194984436, 0.006527809891849756, 0.0604127012193203, -0.005623577628284693, -8.028004231164232e-05, 0.038213372230529785, -0.03139717876911163, -0.04613301530480385, -0.017389394342899323, -0.002071118913590908, -0.028321700170636177, 0.04661932960152626, -0.010041829198598862, -0.0054374015890061855, -0.03657495602965355, -6.0678819863824174e-05, 0.01194719783961773, 0.001478772610425949, 0.010869679041206837, -0.04403640329837799, -8.21195135358721e-05, -0.014334743842482567, -0.04854314401745796, -0.014688652008771896, -0.00010058325278805569, 0.15815679728984833, -0.017034247517585754, -0.003825874999165535, -9.621674689697102e-05, -0.00576406205072999], [0.10018996149301529, -0.00010672444477677345, 0.018355440348386765, 0.01567843370139599, 0.025090914219617844, -0.016379309818148613, 0.03473086655139923, -0.04683677479624748, -0.02702953666448593, 0.021661905571818352, 0.04352252557873726, 0.00616401107981801, -0.027841344475746155, -0.015454723499715328, -9.725629934109747e-05, 0.09702358394861221, -0.005898582749068737, -0.04935160651803017, 0.003161394502967596, 0.06557152420282364, -0.011574305593967438, 0.02464093267917633, 0.026530180126428604, -0.0034547571558505297, 0.022361401468515396, -7.653334614587948e-05, 0.029219189658761024, 0.009466481395065784, -0.039574891328811646, -0.021431248635053635, -5.41728368261829e-05, 0.03149556368589401, -0.023976396769285202, -0.019076764583587646, -5.459912244987208e-06, -0.02649807184934616, -0.0002970705972984433, -0.020924508571624756, -9.563215280650184e-05, -0.013440601527690887], [0.06695497035980225, -0.00043053622357547283, -0.002467905171215534, 0.022779233753681183, 0.04709308594465256, -0.024904219433665276, 0.024128250777721405, -0.010704075917601585, -0.04156157746911049, 0.013838689774274826, 0.023510795086622238, 0.0438082218170166, 0.016703855246305466, -0.05400221794843674, -0.00038156844675540924, 0.1332971304655075, -0.003437776118516922, -0.0394522100687027, 0.01934201642870903, 0.046429723501205444, 0.007874785922467709, -0.04710134118795395, -0.009249846450984478, 0.050072282552719116, -0.021693265065550804, -0.000354929972672835, 0.01765061542391777, 0.004593289457261562, -0.007759272586554289, -0.0031698730308562517, -0.0003530468384269625, -0.021015524864196777, -0.09508326649665833, 0.02037678472697735, -0.0003175792226102203, -0.013516167178750038, -0.0324227437376976, -0.0361301451921463, -0.00039488181937485933, 0.013663115911185741], [0.006267729680985212, -0.00026737648295238614, 0.012332819402217865, 0.006048012524843216, 0.04995279759168625, -0.007761793676763773, 0.02027023956179619, 0.08751153945922852, -0.05265609920024872, 0.05279495194554329, 0.034639813005924225, 0.08103256672620773, 0.04167370870709419, -0.0461137630045414, -0.0002331863943254575, 0.11751095205545425, -0.030087832361459732, -0.02958601713180542, 0.0065290117636322975, -0.0031100939959287643, -0.03126823157072067, 0.031409893184900284, 0.024175725877285004, -0.0013084446545690298, 0.038868144154548645, -0.00022709333279635757, 0.015513216145336628, 0.005400803871452808, -0.009262202307581902, -0.02338419295847416, -0.00023484748089686036, 0.009349879808723927, -0.0225964542478323, -0.01644507795572281, -0.00025177097995765507, 0.06787559390068054, -0.0010890205157920718, -0.004491371102631092, -0.0002518709807191044, -0.034320857375860214], [0.02568855695426464, -0.00013638408563565463, 0.02387102320790291, 0.010438019409775734, 0.008691095747053623, 0.015773028135299683, -0.10852896422147751, 0.17335008084774017, -0.0034299723338335752, 0.022260349243879318, 0.007279571145772934, 0.04011233150959015, 0.03265736997127533, 0.09226777404546738, -0.00014973724319133908, 0.11485698819160461, 0.030102120712399483, -0.10788306593894958, 0.01798083446919918, 0.11402586102485657, 0.04828200489282608, 0.04876870661973953, 0.007760568056255579, -0.04578547552227974, 0.13269872963428497, -0.00014038335939403623, 0.010779079049825668, 0.003308800747618079, -0.0003331767802592367, -0.018017681315541267, -0.00012830448395106941, -0.010527858510613441, 0.019775789231061935, 0.07033374905586243, -0.00015239093045238405, 0.18884038925170898, -0.039474643766880035, 0.06472793966531754, -0.00014146817557048053, 0.008165040984749794], [0.13983608782291412, -4.7130648454185575e-05, -0.01446428894996643, 0.012879645451903343, -0.03166917711496353, -0.07954596728086472, 0.00744259636849165, -0.18769514560699463, -0.020988114178180695, 0.007412787061184645, -0.10205069929361343, -0.0859103798866272, -0.015885574743151665, 0.039428770542144775, -2.860028325812891e-05, -0.12385096400976181, 0.13390378654003143, 0.030756965279579163, -0.08034978061914444, 0.11857619136571884, -0.03206222504377365, 0.0529988594353199, 0.02582448720932007, -0.022595945745706558, 0.04964980483055115, 1.2074601727363188e-05, 0.06581652164459229, 0.01382477767765522, -0.07112202048301697, 0.054007191210985184, 7.653632201254368e-05, 0.08341348171234131, 0.03270181268453598, 0.11861535161733627, 8.262873598141596e-05, -0.13878460228443146, -0.0717557892203331, -0.009137016721069813, -2.7358952138456516e-05, 0.0653730258345604], [0.045670270919799805, -0.0002623179170768708, 0.016245314851403236, -0.0360284224152565, -0.029489686712622643, 0.01662142388522625, 0.0226020235568285, -0.028517039492726326, -0.019013075157999992, -0.02271210588514805, 0.06159209460020065, 0.024985745549201965, 0.13489685952663422, -0.09674395620822906, -0.0002298900217283517, 0.1354801505804062, -0.045998647809028625, 0.05904621258378029, 0.017497627064585686, 0.21158891916275024, -0.004214517772197723, 0.03957211971282959, 0.0006839791894890368, -0.10509397089481354, -0.05513826385140419, -0.0002449086750857532, 0.05200008675456047, 0.0014742107596248388, -0.01266003493219614, -0.13972434401512146, -0.00023730375687591732, -0.025517215952277184, -0.09628647565841675, -0.09864281862974167, -0.00024076871341094375, -0.14867357909679413, -0.007549923378974199, -0.04371390864253044, -0.0002648969239089638, -0.004029314033687115], [0.02905886434018612, -0.00011478521628305316, 0.0023312922567129135, -0.032132819294929504, 0.03424328938126564, 0.009811787866055965, 0.027925552800297737, -0.001425433438271284, -0.09487778693437576, 0.0024432633072137833, -0.011386355385184288, -0.03477797284722328, 0.10897747427225113, -0.03956496715545654, -0.0001158413797384128, 0.23526959121227264, -0.030394090339541435, 0.0725172609090805, 0.021670188754796982, 0.09791053086519241, 0.03849699720740318, -0.04813386872410774, 0.04892280697822571, 0.009099551476538181, -0.04004500061273575, -7.314907998079434e-05, 0.015637336298823357, -0.014370659366250038, -0.0054252552799880505, 0.008018478751182556, -4.3540287151699886e-05, 0.025386834517121315, -0.1179765984416008, 0.02040865272283554, -0.00014444354746956378, 0.1252923160791397, 0.05399767681956291, 0.08267253637313843, -9.275777847506106e-05, 0.003984742797911167], [0.06766978651285172, -0.0004052997683174908, 0.05814405158162117, -0.007046548184007406, 0.03536444157361984, 0.029701638966798782, -0.02930513769388199, 0.053649093955755234, -0.01305941492319107, -0.0061891148798167706, 0.13635194301605225, 0.013410324230790138, 0.03775444254279137, -0.0682276263833046, -0.00035915873013436794, 0.10498689115047455, 0.01837199740111828, 0.04219440370798111, 0.04739000275731087, 0.14076609909534454, -0.10856416821479797, 0.0019290328491479158, 0.008406328037381172, -0.0395263135433197, -0.021439041942358017, -0.0003297831863164902, -0.014854947105050087, -0.00714031932875514, 0.010016276501119137, 0.035040922462940216, -0.0003512166440486908, 0.05485713854432106, -0.05284294858574867, -0.08520902693271637, -0.0004999938537366688, -0.01046745665371418, 0.041234567761421204, 0.043622009456157684, -0.0003827192704193294, 0.04563241824507713], [-0.09852692484855652, -0.00013685139128938317, 0.0796385407447815, 0.07273635268211365, 0.03323301300406456, 0.05194857716560364, 0.02308296412229538, 0.24343766272068024, -0.11324239522218704, 0.016797030344605446, -0.004810105077922344, -0.06955859810113907, 0.16840071976184845, -0.06858450174331665, -0.0001617835951037705, 0.4090900719165802, 0.09869316965341568, -0.08919001370668411, 0.16471432149410248, 0.20789068937301636, 0.09054429829120636, 0.30801495909690857, -0.14922036230564117, 0.07225076854228973, 0.03755186125636101, -0.00019185560813639313, 0.10835721343755722, 0.006736531853675842, -0.022125158458948135, -0.08495502173900604, -0.0001688517804723233, -0.031107131391763687, -0.23691368103027344, -0.13829723000526428, 0.00014888771693222225, 0.20290370285511017, 0.012340634129941463, -0.024632306769490242, -0.00017288519302383065, 0.01939721778035164], [0.008372833020985126, -0.0003453686076682061, 0.005173950921744108, -0.07519270479679108, 0.011730476282536983, 0.037316564470529556, 0.03599140793085098, 0.005153476260602474, -0.04259489104151726, -0.07030000537633896, 0.011218966916203499, 0.04394863545894623, -0.0066708754748106, -0.163004070520401, -0.0003023801255039871, 0.11537197977304459, 0.08148647099733353, 0.1089140921831131, 0.0688864141702652, 0.24758316576480865, 0.026631124317646027, -0.1262638121843338, -0.005657271482050419, 0.013364170677959919, -0.034503839910030365, -0.0002629600348882377, 0.03933338075876236, -0.014807800762355328, -0.027629509568214417, 0.11686789989471436, -0.00026397473993711174, 0.0004570269084069878, -0.08049215376377106, -0.04404549300670624, -0.00035813351860269904, -0.21815696358680725, -0.009200533851981163, -0.016964834183454514, -0.00030864152358844876, -0.044750455766916275], [0.09423273056745529, 0.0003185336827300489, 0.02167271077632904, 0.044195130467414856, 0.07337222993373871, 0.005657079163938761, 0.1258859783411026, 0.10713782161474228, 0.11694146692752838, 0.09716325998306274, 0.02104160748422146, 0.005662518087774515, 0.030625084415078163, -0.016197478398680687, 0.0002761372015811503, 0.601161539554596, -0.06741976737976074, 0.17286984622478485, 0.10231725126504898, 0.686693549156189, 0.02645794488489628, 0.1405886858701706, 0.06686068326234818, 0.07421856373548508, 0.12395896762609482, 0.0002942256978712976, -0.0656251385807991, 0.023772280663251877, -0.0237488504499197, 0.02995780110359192, 0.00033942682784982026, 0.014186235144734383, -0.3996608555316925, 0.0005183215253055096, 0.00018002372235059738, -0.23897509276866913, -0.04109567403793335, 0.04811728745698929, 0.00029998915852047503, 0.06811223924160004], [-8.012620128283743e-06, -2.0303423386991426e-09, -5.6976581674916815e-08, -1.243019482899399e-06, 1.050905051869222e-08, 1.2819452877010917e-06, -2.7864289222634397e-06, -1.1713070307450835e-05, 3.94912103729439e-06, -1.1966673127972172e-06, 6.775065912734135e-07, -1.87166506293579e-06, 1.1948984592891065e-06, 4.746351805806626e-06, -1.1886950312955946e-09, -2.9157028620829806e-05, -2.717192728596274e-06, 5.156618499313481e-06, -6.29867884072155e-07, -2.591973498056177e-05, 2.517466782592237e-06, -2.250465058750706e-06, -1.997312210733071e-06, -9.450278071199136e-07, -3.5831708373734728e-06, -1.3232539508578611e-09, 6.760039923392469e-07, -4.841779173148097e-07, 1.2337719681454473e-06, 1.1795622185672983e-06, -2.23616791750203e-09, 4.5016349758952856e-08, 1.411069115420105e-05, 6.822383511462249e-07, -1.7936148122288387e-09, 5.762988166679861e-06, 1.1159409041283652e-06, -1.1462185511845746e-07, -1.5072911807578748e-09, 7.007246040302562e-06], [-0.02286822721362114, 4.609171810443513e-05, 0.008195056580007076, 0.012771724723279476, 0.022412894293665886, 0.002158846938982606, 0.03835655376315117, 0.042089927941560745, -0.06642012298107147, 0.01302176620811224, -0.0008556110551580787, -0.005273841321468353, 0.03495563566684723, -0.03191521763801575, 4.319189611123875e-05, 0.29742497205734253, -0.017139261588454247, 0.011603683233261108, 0.01035125833004713, 0.147950679063797, 0.030145082622766495, 0.0932888388633728, -0.007062888704240322, 0.01700579933822155, -0.00170698924921453, 3.705853669089265e-05, 0.034838076680898666, 0.00199730321764946, 0.006734897382557392, -0.022718587890267372, 2.3472692191717215e-05, -0.0031457925215363503, -0.12210223823785782, -0.06803534179925919, 1.9739314666367136e-05, -0.020905207842588425, -0.00399808119982481, 0.007029486354440451, 4.134955452173017e-05, -0.03615637868642807], [-0.10127423703670502, 0.00019322315347380936, 0.09326744824647903, 0.1676369458436966, -0.0028973098378628492, 0.013155052438378334, 0.022841664031147957, -0.07815933227539062, -0.010657412931323051, -0.02830529771745205, -0.023311495780944824, -0.08985341340303421, 0.08395541459321976, -0.0820702463388443, 0.00017068904708139598, 0.36873745918273926, 0.017984479665756226, 0.04319090023636818, 0.03472407907247543, 0.3931470811367035, 0.00729153910651803, -0.027493303641676903, -0.009929420426487923, 0.06991912424564362, 0.013034812174737453, 0.00011736657324945554, 0.053829703480005264, 0.002709083491936326, -0.11256478726863861, -0.0017325601074844599, 0.00015583832282572985, -0.008322400972247124, -0.40409913659095764, -0.039457112550735474, 0.0005995871033519506, 0.1404067873954773, 0.00857714656740427, -0.026367835700511932, 0.00015651769354008138, 0.06661129742860794], [-0.011622147634625435, 0.00012390960182528943, 0.028676094487309456, -0.06789669394493103, 0.020184479653835297, 0.07582516223192215, -0.03470121696591377, 0.17740769684314728, -0.031582362949848175, 0.06706127524375916, 0.14952577650547028, 0.013712866231799126, 0.000632078037597239, -0.0008434696937911212, 8.929843897931278e-05, 0.16056522727012634, -0.05901092290878296, 0.16247746348381042, 0.07314064353704453, -0.021022390574216843, -0.0020559411495923996, 0.026587530970573425, -0.05698687583208084, 0.022472787648439407, 0.01608494482934475, 0.00012096748105250299, -0.01983865164220333, 0.001802331069484353, 0.10325444489717484, 0.023374315351247787, 0.00017038537771441042, -0.02288725972175598, -0.16426360607147217, 0.13961924612522125, 0.0002329889830434695, 0.05240388587117195, -0.04067274555563927, 0.09711706638336182, 0.00013250573829282075, 0.061721812933683395], [-0.019272521138191223, -0.00010943177039735019, 0.06838343292474747, 0.05997219681739807, -0.0017044033156707883, 0.023050786927342415, 0.03181615099310875, -0.11666501313447952, -0.04448523744940758, 0.005859848111867905, 0.02101573720574379, -0.09854457527399063, 0.022761255502700806, 0.050714053213596344, -0.00016008100647013634, 0.2181795984506607, -0.010614698752760887, 0.061674416065216064, 0.0049942899495363235, 0.05941978842020035, 0.00031541980570182204, 0.06754779070615768, -0.06499969214200974, -0.024865826591849327, 0.04634062200784683, -9.575385774951428e-05, 0.0487246997654438, 0.005927199497818947, -0.04990711063146591, -0.0026794017758220434, -3.473311517154798e-05, -0.01444985717535019, -0.05329609662294388, 0.019891636446118355, -5.4899883252801374e-05, 0.13217486441135406, -0.08856269717216492, -0.0020615665707737207, -0.0001103120157495141, 0.04528949409723282], [0.10297029465436935, -0.00015379198885057122, 0.03782926872372627, 0.0591474287211895, -0.019957026466727257, -0.037288255989551544, 0.07261281460523605, -0.1461574137210846, -0.0972914770245552, -0.03448517620563507, -0.015114013105630875, -0.019066238775849342, -0.03935721516609192, -0.06136958301067352, -0.0001219529949594289, 0.21056893467903137, 0.030550656840205193, -0.019093086943030357, -0.08078683167695999, 0.10892588645219803, -0.05388650298118591, 0.049738381057977676, 0.0718856230378151, -0.023049822077155113, -0.05374855548143387, -0.0001101099987863563, 0.11882099509239197, -0.015223967842757702, -0.0755731537938118, 0.01973656937479973, -0.00011754858132917434, 0.027382131665945053, 0.016998790204524994, -0.059209924191236496, -5.922705167904496e-05, -0.08385895937681198, 0.044184040278196335, 0.04148920252919197, -0.00013435758592095226, -0.07290652394294739], [-0.017434488981962204, 0.0001418793690390885, 0.037799250334501266, 0.05827932059764862, -0.021735897287726402, -0.0040786429308354855, 0.10062309354543686, -0.0024551444221287966, 0.011937101371586323, 0.0019669963512569666, 0.012519964948296547, -0.03398433327674866, 0.003956247586756945, 0.0343603752553463, 0.00014601228758692741, 0.32496926188468933, 0.05255497992038727, 0.05682846158742905, 0.028630830347537994, 0.2673940062522888, -0.11252141743898392, 0.07660232484340668, 0.021425005048513412, 0.017470262944698334, -0.09072616696357727, 0.0001488663983764127, -0.012085103429853916, 0.014900721609592438, -0.04624681547284126, 0.018374666571617126, 0.00014844135148450732, -0.007809390313923359, -0.20037607848644257, -0.16240227222442627, 7.437309977831319e-05, -0.13438472151756287, -0.00979967787861824, -0.004931081086397171, 0.0001401323825120926, 0.06790705770254135], [0.06954549252986908, -0.00014605025353375822, 0.02350667491555214, 0.03486136347055435, 0.010105985216796398, -0.016967343166470528, 0.037252381443977356, 0.05440907180309296, 0.0401303768157959, 0.0443454310297966, 0.034436240792274475, 0.04742361605167389, 0.032501205801963806, -0.11467781662940979, -0.00010376583668403327, 0.19878213107585907, 0.1335119903087616, -0.0457037016749382, 0.010172674432396889, 0.14924085140228271, -0.010114576667547226, -0.0365360826253891, -0.008537545800209045, 0.01446156669408083, 0.0513000413775444, -0.00010190616740146652, 0.02808304689824581, -0.001665193005464971, -0.060522545129060745, -0.02977193333208561, -0.00011113935033790767, 0.06727603822946548, -0.020097708329558372, -0.004553263541311026, -3.414918319322169e-05, -0.07129649817943573, -0.046269021928310394, -0.030999431386590004, -0.0001301050651818514, -0.013493640348315239], [-0.017703285440802574, -0.0004286651674192399, 0.039115119725465775, 0.03311341628432274, 0.015843158587813377, -0.0219107735902071, 0.0015685245161876082, 0.014930461533367634, -0.02720401994884014, 0.019562091678380966, -0.04524575173854828, -0.036987096071243286, -0.0062072183936834335, -0.012239564210176468, -0.00034122291253879666, 0.20984335243701935, 0.020803865045309067, -0.01930338703095913, 0.09542763978242874, 0.07477857917547226, 0.09707862138748169, -0.02657749503850937, -0.01534027699381113, 0.017146866768598557, 0.04148433357477188, -0.00037479589809663594, 0.018290173262357712, 0.009730433113873005, -0.011206282302737236, -0.012422040104866028, -0.00045073064393363893, 0.004351216368377209, -0.08927852660417557, -0.003215498523786664, -0.00043379608541727066, 0.04840725660324097, -0.007955824956297874, 0.045495375990867615, -0.0003950048121623695, -0.03149468079209328], [0.08861100673675537, -0.000331651302985847, 0.004358677193522453, -0.0385030172765255, 0.04503711685538292, 0.008085083216428757, -0.008428824134171009, 0.012852904386818409, -0.06298666447401047, 0.03230924904346466, -0.039974916726350784, -0.021834051236510277, -0.005301137454807758, 0.002297078724950552, -0.00028041808400303125, 0.05015161260962486, 0.02803211286664009, 0.013186845928430557, 0.03666358441114426, 0.019247164949774742, -0.03036353923380375, -0.0665145218372345, 0.011653255671262741, 0.07921874523162842, -0.027347741648554802, -0.00025496812304481864, 0.0007116934284567833, -0.00020259403390809894, 0.019663821905851364, 0.11527561396360397, -0.00026731507387012243, 0.01907426118850708, -0.07370113581418991, -0.009755773469805717, -0.0002726080419961363, 0.0020784351509064436, 0.0466148667037487, -0.024770842865109444, -0.0003016162954736501, 0.025873946025967598], [0.14628461003303528, -0.00023466645507141948, 0.03650309517979622, 0.06500140577554703, 0.050675757229328156, -0.04098174348473549, 0.01100066490471363, -0.011146510019898415, 0.09719869494438171, 0.04007810354232788, 0.00718712480738759, -0.05946659296751022, 0.018971653655171394, 0.05786101520061493, -0.0002519895206205547, 0.36462923884391785, -0.0587284229695797, -0.007490220014005899, 0.042226504534482956, 0.32995378971099854, -0.02630643919110298, -0.018775327131152153, 0.04352053999900818, 0.007643965072929859, 0.0843062624335289, -0.00024145777570083737, -0.04510611295700073, 0.021495528519153595, -0.014492256566882133, -0.01943795196712017, -0.00023001102090347558, -0.02794451080262661, -0.36888280510902405, -0.010158068500459194, -0.00023335753940045834, -0.04439619183540344, 0.01351962797343731, 0.001689801923930645, -0.0002284751826664433, 0.047319747507572174], [-7.889353582868353e-06, -2.877190485861547e-09, 2.2953814848847287e-08, -1.2943452247782261e-06, 1.5990005408639263e-07, 1.1621013982221484e-06, -2.9281002298375824e-06, -1.1096883099526167e-05, 3.894718247465789e-06, -9.351378480459971e-07, 7.305954454750463e-07, -1.6837989278428722e-06, 5.781190566267469e-07, 4.820353296963731e-06, -2.0708277315151236e-09, -2.8164206014480442e-05, -2.2398721739591565e-06, 4.295716280466877e-06, -4.1761836655496154e-07, -2.426634637231473e-05, 2.3502936983277323e-06, -2.805806161632063e-06, -2.2512153918796685e-06, -8.04964656708762e-07, -3.575968548830133e-06, -2.0638140085793566e-09, 5.06954052070796e-07, -3.7300191024769447e-07, 1.5081667470440152e-06, 1.9267049538029823e-06, -2.835623957864186e-09, 2.8669430207628466e-07, 1.4127636859484483e-05, 5.729183953917527e-07, -2.6801949548627135e-09, 5.8392633945913985e-06, 6.819022360105009e-07, -2.776216376787488e-07, -2.2995108039935985e-09, 7.037538125587162e-06], [0.13604174554347992, -0.0001980083907255903, -0.03086303547024727, -0.05162544175982475, 0.02249157428741455, 0.01633891463279724, -0.023206094279885292, 0.004449373111128807, -0.020047588273882866, 0.014399506151676178, 0.03763038292527199, -0.02326199598610401, 0.010567156597971916, 0.06166187673807144, -0.00018795949290506542, 0.03791213780641556, -0.004685887601226568, 0.006011778488755226, 0.0012851658975705504, 0.07483169436454773, -0.10571317374706268, -0.02507353201508522, 0.04442133381962776, 0.0010091301519423723, -0.036317355930805206, -0.00017832903540693223, -0.0474802628159523, -0.004282103385776281, 0.0034137554466724396, -0.0008438446093350649, -0.00017209086217917502, -0.020394425839185715, -0.04882350191473961, 0.02024378813803196, -0.000223796974751167, 0.010259635746479034, 0.0191754549741745, 0.046606529504060745, -0.00019153540779370815, 0.06037891283631325], [0.01050650142133236, -2.3104892534320243e-05, -8.193530811695382e-05, 0.0016244944417849183, -0.0017408855492249131, 0.00011683796037686989, 0.007226931396871805, 0.014442344196140766, -0.00799506064504385, 0.0025930055417120457, 0.0010560087393969297, -0.00041523404070176184, 0.0032219388522207737, -0.0007702627335675061, -2.1037878468632698e-05, 0.03214680030941963, -0.000992048648186028, 0.0003088737139478326, -9.88915708148852e-05, 0.025473978370428085, -0.005263342056423426, 0.010976269841194153, 0.0013636004878208041, -0.00019232991326134652, 0.0022282733116298914, -1.7755308363121003e-05, -0.002039552666246891, 0.00034006909118033946, 0.00025840470334514976, -0.0015026869950816035, -1.3687256796401925e-05, -0.0009515106212347746, -0.018673622980713844, -0.002728787949308753, -8.458531738142483e-06, -0.014399206265807152, 0.0011629967484623194, 0.0022261375561356544, -2.0798090190510266e-05, -0.008053491823375225], [-0.020741745829582214, -0.0003660256916191429, 0.01733294688165188, -0.010508108884096146, 0.034349218010902405, 0.00928457174450159, 0.02346263825893402, -0.005295897368341684, -0.06767579913139343, 0.04214964061975479, 0.012061623856425285, 0.056122779846191406, 0.02210022509098053, -0.02391425333917141, -0.0003202502557542175, 0.1819687783718109, 0.05021258443593979, 0.05867443233728409, 0.035680726170539856, 0.027399975806474686, 0.018312815576791763, 0.008727898821234703, 0.05118953064084053, 0.03685661777853966, -0.01303928904235363, -0.00029936435748822987, 0.001623855670914054, 0.0064534153789281845, -0.008573995903134346, -0.04820673167705536, -0.00029369888943620026, 0.013584972359240055, -0.0001238802942680195, -0.051529236137866974, -0.0002478350652381778, 0.07114839553833008, -0.007468079682439566, 0.020970672369003296, -0.0003456056001596153, -0.03126955032348633], [0.0438893623650074, -0.0004403823404572904, -0.029614627361297607, -0.07875407487154007, 0.020346393808722496, 0.02701001614332199, 0.011042595840990543, 0.02107893116772175, -0.23915806412696838, 0.04014812409877777, 0.05505264550447464, -0.0420190766453743, 0.15586316585540771, -4.427940075402148e-05, -0.0003395106759853661, 0.07545033097267151, 0.10364188998937607, 0.16914939880371094, 0.031567059457302094, 0.4111187756061554, -0.06581099331378937, -0.036611177027225494, -0.025734808295965195, -0.011558122001588345, -0.051396239548921585, -0.0003259057702962309, 0.04606572538614273, -0.01688835583627224, 0.05827260762453079, 0.11030969768762589, -0.0003511303511913866, 0.022858979180455208, -0.08407887816429138, -0.024983858689665794, -0.0002711846318561584, -0.3423632085323334, 0.04948754981160164, -0.031234994530677795, -0.0003792337083723396, -0.02019542269408703], [-9.14036627364112e-06, -5.802680114186387e-09, 1.859315261754091e-07, -1.9345609416632215e-06, 6.24466622412001e-07, 1.3893011328036664e-06, -3.900716819771333e-06, -1.3594029041996691e-05, 4.715614522865508e-06, -9.174258934763202e-07, 1.242758912667341e-06, -1.547121087241976e-06, 3.7629538951478025e-07, 5.4938691391726024e-06, -4.841456568982494e-09, -3.063585972995497e-05, -2.6296722808183404e-06, 4.424609869602136e-06, -3.120983933513344e-07, -2.5697454475448467e-05, 2.959379116873606e-06, -3.0460055313596968e-06, -2.9864174848626135e-06, -7.913891408861673e-07, -5.097145731269848e-06, -4.55423077028172e-09, 7.299778417291236e-07, -3.4698439321800834e-07, 2.378087401666562e-06, 2.733999508564011e-06, -5.285038628954908e-09, 7.539345006080111e-07, 1.6370584489777684e-05, 1.5962251609380473e-07, -5.5557776157399985e-09, 7.292571353900712e-06, 2.431595191865199e-07, -7.745636594336247e-07, -4.964307187549366e-09, 8.71275824465556e-06], [0.04489497095346451, -0.00033859218819998205, 0.011563995853066444, -0.0702396109700203, 0.011958562768995762, 0.042042359709739685, 0.033693425357341766, 0.03309949114918709, -0.08315258473157883, 0.013907583430409431, 0.031137334182858467, 0.06613261997699738, 0.09217821061611176, -0.08165645599365234, -0.00028238625964149833, 0.16346949338912964, 0.003646201454102993, 0.04181169345974922, 0.06203923374414444, -0.029022274538874626, -0.04671745002269745, 0.00866092648357153, -0.006284910254180431, 0.040377210825681686, -0.049104511737823486, -0.0002713206922635436, -0.004144799895584583, -3.3916505799425067e-06, 0.05938435345888138, -0.017294006422162056, -0.00026722418260760605, 0.0012315042549744248, -0.11339535564184189, -0.03165999427437782, -0.00018866374739445746, 0.21513982117176056, 0.018958618864417076, -0.021824462339282036, -0.0003172749711666256, 0.01491564977914095], [0.0748642310500145, -0.0003619855269789696, 0.021902475506067276, -0.04056118428707123, 0.03943711146712303, -0.017599157989025116, 0.0066403960809111595, 0.18602369725704193, -0.032692380249500275, -0.12052600085735321, -0.3225754201412201, -0.03094792179763317, 0.11431831121444702, -0.01165713183581829, -0.00040453177643939853, -0.039848681539297104, -0.12098073959350586, -0.04611220210790634, -0.15477058291435242, -0.061771564185619354, 0.05081157386302948, -0.04671883583068848, 0.11278563737869263, -0.06273892521858215, -0.07112958282232285, -0.00035243990714661777, 0.21509908139705658, -0.03923971205949783, 0.05712347850203514, -0.1251530945301056, -0.00027612896519713104, -0.19999004900455475, -0.13768270611763, -0.017525555565953255, -0.0004188955354038626, 0.17658691108226776, 0.11269652843475342, 0.017063355073332787, -0.00036134725087322295, -0.0958264097571373], [-0.05274899676442146, -0.00019326333131175488, 0.054891716688871384, 0.09028002619743347, -0.009927136823534966, 0.025542709976434708, 0.07470910996198654, 0.06420515477657318, -0.1333276629447937, 0.043553706258535385, 0.040809087455272675, -0.04995701089501381, 0.0533682145178318, -0.08893205225467682, -0.00012537369912024587, 0.6372026205062866, -0.10546863079071045, 0.011983322910964489, 0.056036293506622314, 0.459982693195343, -0.027583634480834007, 0.14685730636119843, -0.03408254310488701, 0.003411444602534175, 0.012145623564720154, -0.00015185742813628167, 0.05298028886318207, 0.003579327603802085, -0.08460227400064468, -0.05312008038163185, -0.00022802710009273142, -0.020131397992372513, -0.2956414222717285, -0.08581990748643875, -0.00030766677809879184, -0.13974276185035706, 0.03867632895708084, -0.04221229627728462, -0.00016699513071216643, -0.03657829761505127], [-1.2174904441053513e-05, -1.1752407935716747e-08, 9.6493829460087e-07, -3.615626383179915e-06, 1.5036360991871334e-06, 1.7350567986795795e-06, -6.055372523405822e-06, -2.1561343601206318e-05, 7.870800800446887e-06, 1.9905209569515137e-07, 2.3678910565649858e-06, 8.797320560915978e-07, 8.344642310476047e-07, 6.760607448086375e-06, -1.033498442382097e-08, -4.4026674004271626e-05, -6.808663783886004e-06, 6.6889560912386514e-06, -1.1443482605955069e-07, -3.709279917529784e-05, 4.530711066763615e-06, -4.1777170736168046e-06, -4.032306151202647e-06, -1.334938815489295e-06, -9.682377822173294e-06, -9.656385024925385e-09, 2.0312504602770787e-06, -3.459412312167842e-07, 3.803240133493091e-06, 3.340526063766447e-06, -1.0547665851845522e-08, 1.5888401776464889e-06, 2.3687180146225728e-05, 6.381088155649195e-07, -1.1193237448026139e-08, 9.352356755698565e-06, -9.833013336901786e-07, -2.555382479840773e-06, -1.0364909819315926e-08, 1.2653288649744354e-05], [0.10428031533956528, 0.00013927029795013368, 0.00807022675871849, 0.011351254768669605, 0.012776081450283527, 0.01974114216864109, 0.011721944436430931, -0.023807216435670853, -0.061237629503011703, -0.030313115566968918, -0.0012580108596011996, -0.032895199954509735, 0.06470426917076111, -0.030838260427117348, 0.0001245897146873176, 0.3166435658931732, 0.0035558289382606745, 0.047269903123378754, 0.002558932639658451, 0.29275816679000854, -0.062039680778980255, 0.05639065429568291, 0.09179157018661499, 0.02210407517850399, -0.010652711614966393, 0.0001108195137931034, -0.017642494291067123, -0.00902760960161686, -0.038712311536073685, -0.045148592442274094, 0.00010680623381631449, -0.01770128309726715, -0.16479149460792542, -0.006129492074251175, 0.00017388125706929713, -0.08779538422822952, 0.046094466000795364, 0.015461395494639874, 0.00013533806486520916, -0.03610803186893463], [0.07265055924654007, -0.0003988039679825306, 0.014593933708965778, -0.0038853923324495554, 0.013972758315503597, 0.013909684494137764, 0.031246012076735497, 0.03782669082283974, -0.10312054306268692, 0.05536450818181038, 0.04454372078180313, 0.04325318709015846, 0.0812491625547409, -0.06079909950494766, -0.000346588873071596, 0.23182350397109985, 0.003397291759029031, 0.07002092152833939, 0.013904361054301262, 0.12364400923252106, -0.004194614943116903, -0.013741621747612953, 0.01782790571451187, 0.027908585965633392, -0.01878204196691513, -0.0003144432557746768, 0.04272991418838501, -0.014432016760110855, -0.04642338305711746, -0.036084964871406555, -0.00032879470381885767, 0.01348454225808382, -0.09220260381698608, -0.07908666878938675, -0.00038936641067266464, 0.12512758374214172, 0.07440177351236343, 0.019562771543860435, -0.0003645229444373399, -0.034457288682460785], [0.08641628921031952, -0.0004349594528321177, -0.021375494077801704, -0.09675537794828415, 0.060733597725629807, 0.05959801375865936, -0.00304168788716197, 0.10067032277584076, -0.08398042619228363, 0.04916394129395485, -0.029422327876091003, 0.008196602575480938, 0.09877747297286987, -0.04352935403585434, -0.00033886177698150277, 0.1909305602312088, 0.05996483191847801, 0.12748001515865326, 0.018972164019942284, 0.09134373068809509, 0.08261257410049438, -0.017377221956849098, 0.04543156549334526, 0.014616807922720909, -0.04547934606671333, -0.00033004721626639366, 0.047590259462594986, -0.010161006823182106, 0.05316581577062607, -0.03841162845492363, -0.0003540101752150804, -0.09135662019252777, -0.20679259300231934, -0.006837957073003054, -0.0003139694454148412, 0.1056322231888771, 0.020485233515501022, 0.04331151023507118, -0.0003917308058589697, -0.019143909215927124], [-7.561472102679545e-06, -2.3131114801344665e-09, -1.576519252921571e-07, -1.2353378906482249e-06, 1.8460257322772122e-08, 1.2423798807503772e-06, -2.730024334596237e-06, -1.0859317626454867e-05, 3.4458385016478132e-06, -1.3169006933821947e-06, 7.875549385971681e-07, -2.1332400592655176e-06, 1.2282541774766287e-06, 4.536805590760196e-06, -1.5350349880094427e-09, -2.6731220714282244e-05, -2.4178393687179778e-06, 4.3398486013757065e-06, -7.616981179126014e-07, -2.3289032469619997e-05, 2.382685806878726e-06, -1.7110153294197517e-06, -2.1237619876046665e-06, -8.894722327568161e-07, -3.5548293908505e-06, -1.5931491681442367e-09, 6.011013624629413e-07, -4.807544655704987e-07, 1.4034259265827131e-06, 1.2447147810235037e-06, -2.424030531855692e-09, 5.546263182054645e-08, 1.3219677384768147e-05, 3.3704120028232865e-07, -2.2310358005483977e-09, 6.301674602582352e-06, 1.0900633924393333e-06, 9.065551154208151e-08, -1.7872007207486718e-09, 6.828171080996981e-06], [0.058019425719976425, -0.00017233294784091413, -0.043015409260988235, -0.05326102674007416, 0.027756666764616966, 0.05280754342675209, 0.06483498960733414, 0.09516330808401108, -0.006191117689013481, 0.03079017624258995, 0.04575914517045021, 0.07968288660049438, -0.24064901471138, 0.05586620047688484, -0.00014240166638046503, 0.010049083270132542, 0.021647971123456955, 0.1749507039785385, 0.0546191968023777, 0.5468053817749023, -0.04028748348355293, -0.09138399362564087, 0.013652232475578785, 0.011728120036423206, 0.002424087142571807, -0.00010066002141684294, 0.014967834576964378, 0.0002599641738925129, 0.012685989961028099, 0.010802367702126503, -0.00011790679127443582, 0.020961828529834747, -0.06999814510345459, -0.07675448805093765, -0.00014512657071463764, -0.5346559286117554, 0.009649600833654404, -0.03923197463154793, -0.00011569859634619206, -0.03451937064528465], [0.5638580322265625, 0.00011812427692348137, 0.04128917306661606, 0.018617384135723114, -0.1327751874923706, 0.05846787989139557, -0.054286472499370575, -0.3105752170085907, -0.123490110039711, -0.06822612881660461, 0.040152885019779205, 0.10224141925573349, 0.16224300861358643, -0.055687516927719116, 0.00011029348388547078, -0.008441747166216373, 0.09832226485013962, -0.14649514853954315, 0.2302066534757614, -0.04093555361032486, 0.00047894520685076714, 0.15012572705745697, -0.045580681413412094, -0.017408285290002823, 0.1255570352077484, 9.642983059165999e-05, -0.5016933083534241, 0.011796937324106693, -0.11522907763719559, -0.18648135662078857, 0.00016978140047285706, 0.09041283279657364, -0.272861510515213, 0.17582020163536072, 0.0005818187491968274, -0.10951042920351028, -0.20653581619262695, -0.11968560516834259, 0.00010710312926676124, -0.40347641706466675], [0.00013358557771425694, -3.78666736651212e-05, -0.0005235275020822883, 0.0002957065880764276, -0.0005177975981496274, -0.0002392229507677257, 0.0004635948280338198, 0.0001628643076401204, -0.00010491454304428771, -0.00026643459568731487, 0.0002380118239670992, -5.956174209131859e-05, 0.00025682433624751866, 6.64628969389014e-05, -3.993041536887176e-05, 6.762268458260223e-05, 0.00028223064146004617, -0.0006504575721919537, -0.00035367414238862693, 0.0001545691629871726, 0.00015504601469729096, 0.0003511509275995195, -0.0003091154503636062, -0.00041581527329981327, 6.792798103560926e-06, -3.7579480704152957e-05, -0.00023631622025277466, -0.00014145427849143744, -0.00023372842406388372, -0.0004672671784646809, -3.642974479589611e-05, 0.00014862185344099998, 0.0003899573057424277, -2.6804285880643874e-05, -4.1928939026547596e-05, -0.0001390304823871702, 8.221320604206994e-05, 0.0002788446145132184, -3.743472552741878e-05, 7.775203266646713e-05], [0.017044663429260254, 0.00042839330853894353, -0.07433702051639557, -0.16933661699295044, -0.6973554491996765, 0.22378797829151154, 0.25249147415161133, -0.1824648678302765, 0.1299639791250229, 0.008043499663472176, 0.3915838599205017, -0.05954798310995102, -0.0006214002496562898, -0.023231452330946922, 0.00041728653013706207, 0.024158291518688202, 0.002384563209488988, -0.1689177006483078, 0.08603855222463608, -0.3345247507095337, -0.21510955691337585, -0.043744124472141266, 0.6097521781921387, 0.12307143956422806, 0.2358344942331314, 0.0004250163328833878, 0.5595497488975525, 0.17454850673675537, 0.2814326882362366, -0.016686124727129936, 0.0004341188177932054, -0.13697880506515503, -0.13007323443889618, -0.027164818719029427, 0.0006202312069945037, -0.09110894799232483, -0.4373200237751007, 0.028946565464138985, 0.000435946712968871, 0.05114731565117836], [-0.0248471237719059, 0.00015644913946744055, 0.25807157158851624, 0.17479394376277924, -0.10355154424905777, 0.008179432712495327, 0.026480529457330704, -0.11103518307209015, 0.19316545128822327, 0.10759250819683075, 0.07173367589712143, -0.04729394242167473, -0.44528672099113464, -0.0754445493221283, 0.0001398478780174628, -0.10062699764966965, -0.023069504648447037, -0.22174422442913055, -0.06514535844326019, -0.006994461175054312, -0.09855711460113525, -0.04388616979122162, -0.15538860857486725, -0.20160910487174988, 0.03089972957968712, 0.00019026613153982908, 0.33120861649513245, 0.040297288447618484, -0.05525647848844528, 0.13351953029632568, 0.00026715255808085203, -0.11601124703884125, 0.040393054485321045, -0.01020119059830904, 0.000830929318908602, 0.031276389956474304, 0.2709244191646576, -0.08160193264484406, 0.00015123619232326746, 0.14098511636257172], [0.11720867455005646, -0.00012695312034338713, 0.36166107654571533, -0.19131261110305786, 0.1989119052886963, -0.19539809226989746, 0.18233707547187805, -0.2105044424533844, -0.061824604868888855, -0.3648751676082611, -0.06834588199853897, 0.3879808783531189, -0.035598840564489365, 0.0031303127761930227, -0.00010932552686426789, -0.04465114325284958, -0.01567964442074299, -0.18502667546272278, 0.3565148413181305, 0.0741397961974144, 0.047791220247745514, 0.03992440551519394, -0.027707917615771294, 0.1864670217037201, 0.1556478887796402, -9.797084931051359e-05, 0.3577873110771179, 0.01870592124760151, -0.09803620725870132, -0.10533252358436584, -0.0001470714487368241, -0.017572524026036263, -0.04818983003497124, 0.015096883289515972, -0.000231944999541156, -0.07265439629554749, 0.05388014018535614, 0.761945366859436, -7.651602936675772e-05, 0.2043333798646927], [-0.24691982567310333, -0.0001571440661791712, -0.09277136623859406, -0.05437413975596428, -0.03830248489975929, 0.1372673511505127, -0.12156672030687332, 0.048046983778476715, -0.14259134232997894, 0.02033199556171894, 0.21707753837108612, -0.08937043696641922, 0.10632959753274918, -0.045283541083335876, -0.00019045639783143997, 0.11094889789819717, -0.004857576917856932, 0.21729645133018494, -0.26310449838638306, 0.027141401544213295, -0.13818395137786865, -0.08238418400287628, 0.011654320172965527, 0.27268677949905396, 0.11617588996887207, -0.00018154073040932417, 0.07538864016532898, -0.06439874321222305, 0.08261199295520782, -0.07913565635681152, -0.00020986224990338087, -0.3015097677707672, -0.28429678082466125, 0.24786630272865295, -0.00040878431173041463, 0.02202938310801983, -0.44852688908576965, -0.2056707888841629, -0.00012470941874198616, 0.15011772513389587], [-0.014167477376759052, -0.00033210223773494363, -0.2698825001716614, -0.02235398441553116, 0.0011733496794477105, -0.03234981745481491, 0.4249723255634308, 0.059571899473667145, -0.025671178475022316, -0.14665508270263672, 0.045851003378629684, 0.045712146908044815, 0.05614369735121727, -0.08361257612705231, -0.0003630478458944708, -0.013043860904872417, 0.17949120700359344, 0.002119052456691861, -0.272959440946579, -0.05572002753615379, 0.07915329933166504, 0.015602816827595234, 0.04658106341958046, -0.11230858415365219, -0.27765363454818726, -0.00034647167194634676, -0.25768932700157166, 0.008154883980751038, 0.09634201228618622, -0.058316245675086975, -0.0003074543201364577, 0.033915042877197266, 0.07512837648391724, -0.09394232928752899, -0.0002562779700383544, -0.03836015611886978, -0.3097466826438904, -0.20271220803260803, -0.00035298345028422773, -0.0787527784705162], [0.4696604609489441, 0.00018760227249003947, 0.18061098456382751, -0.10550233721733093, 0.10208368301391602, -0.33485424518585205, -0.12507441639900208, 1.1706020832061768, 0.018490567803382874, -0.17242784798145294, -1.1050022840499878, -0.13742710649967194, 0.07534892112016678, 0.09996561706066132, 0.00022610256564803421, -0.2680686116218567, -0.009993944317102432, -0.16038008034229279, -0.33576884865760803, 0.07056712359189987, 0.11778487265110016, -0.16384731233119965, 0.2549174726009369, 0.08837895840406418, -0.02458948642015457, 0.00018353819905314595, 1.1352814435958862, -0.022720588371157646, 0.03710739314556122, 0.07133329659700394, 0.00011086800805060193, -0.24563461542129517, 0.007913125678896904, -0.3185440003871918, 8.511682972311974e-05, -0.0808546170592308, 0.0636528953909874, -0.2556413412094116, 0.00021039975399617106, -0.2012667953968048], [-0.10700303316116333, 0.00026213255478069186, 0.07580763101577759, 0.03338650241494179, 0.11323149502277374, -0.006014254409819841, 0.015371768735349178, 0.029036151245236397, 0.2889308035373688, -0.2114974409341812, 0.15900248289108276, -0.059282902628183365, 0.16485247015953064, 0.05125928297638893, 0.0002497998939361423, -0.11615268141031265, -0.11686521768569946, 0.0018010034691542387, 0.04265190288424492, 0.1403866410255432, 0.09211475402116776, -0.14875222742557526, 0.039188265800476074, -0.4554567337036133, -0.03998506814241409, 0.000249599979724735, 0.29943111538887024, 0.04017209634184837, -0.2714954912662506, -0.2875851094722748, 0.00033170366077683866, -0.06924475729465485, 0.10155807435512543, 0.05413851514458656, 0.0005960957496427, -0.25662335753440857, 0.14925509691238403, -0.05947595089673996, 0.0002528383629396558, -0.019898250699043274], [-0.014254633337259293, -0.00017549775657244027, -0.8005011081695557, -0.01767611876130104, -0.10400000214576721, -0.3897661566734314, -0.17054899036884308, 0.009279352612793446, 0.10329485684633255, -0.15415513515472412, 0.026822861284017563, 0.2796464264392853, 0.23033282160758972, -0.1481827199459076, -0.00013945404498372227, 0.05484558641910553, -0.061186160892248154, 0.09635373950004578, 0.4296058714389801, 0.1428755521774292, 0.07680656760931015, 0.028111420571804047, 0.14418503642082214, 0.29172128438949585, 0.011309684254229069, -0.00012679614883381873, 0.17877133190631866, 0.05526232719421387, -0.5477262735366821, -0.30215170979499817, -0.00015155028086155653, -0.08259142190217972, -0.07195629179477692, 0.12892572581768036, -0.0003135261940769851, 0.05791269987821579, -0.0003826395550277084, -0.21071091294288635, -0.00016899245383683592, 0.2794020473957062], [0.14368051290512085, -0.0003054617845918983, -0.2683713436126709, 0.06360770016908646, 0.3249390721321106, -0.07240528613328934, -0.022484421730041504, 0.3031018376350403, -0.23068451881408691, 0.11941514164209366, 0.2957634925842285, -0.11304842680692673, -0.40092697739601135, -0.22109051048755646, -0.0002477600646670908, -0.10687397420406342, -0.04936136305332184, 0.07051336020231247, -0.39034318923950195, 0.10770074278116226, 0.07940790057182312, -0.06818164885044098, -0.19657517969608307, -0.09056802093982697, -0.07582882791757584, -0.00020559501717798412, 0.45510464906692505, 0.02203395776450634, 0.07678329199552536, 0.017760371789336205, -0.00021287307026796043, -0.27096712589263916, 0.11127228289842606, 0.06622771918773651, -0.00014891834871377796, 0.014926646836102009, 0.30112212896347046, -0.22174185514450073, -0.00025722867576405406, 0.7840723991394043], [-0.05458683520555496, -0.00010120335355168208, 0.036047354340553284, 0.005212476011365652, -0.2486090362071991, 0.023045536130666733, 0.05198616161942482, 0.625105619430542, 0.002014775527641177, -0.08441491425037384, 0.23456351459026337, 0.5221096277236938, 0.06033219397068024, -0.16841302812099457, -0.00013842595217283815, 0.11612217128276825, -0.6155830025672913, 0.31413090229034424, -0.21724730730056763, -0.06016169488430023, -0.012822423130273819, -0.07445596158504486, -0.12283948808908463, -0.010255170986056328, -0.4210720658302307, -0.00017137125541921705, -0.06140648573637009, -0.019199680536985397, 0.21083399653434753, 0.022460738196969032, -0.00016982742818072438, 0.20607890188694, 0.3316594362258911, -0.041076671332120895, -0.0003148116229567677, -0.017399465665221214, -0.04572515934705734, 0.14484456181526184, -0.0001289983483729884, 0.12115074694156647], [-0.0019607339054346085, -0.00029634725069627166, 0.04665837064385414, 0.26380330324172974, 0.0772070661187172, -0.15116076171398163, -0.0329471230506897, -0.022131899371743202, 0.3931616544723511, -0.04104192927479744, 0.1995704025030136, 0.01695365272462368, 0.44040554761886597, 0.27340421080589294, -0.0002675959258340299, -0.24642455577850342, 0.16677698493003845, -0.012247217819094658, 0.1644369214773178, -0.0536593496799469, -0.08029049634933472, 0.20383059978485107, 0.003817314514890313, -0.6616238355636597, 0.002543975133448839, -0.0002498585090506822, 0.3863644301891327, -0.007832144387066364, 0.09872356802225113, -0.04700813069939613, -0.0002745838137343526, -0.30692058801651, -0.031185461208224297, -0.0679374411702156, -0.0004491285071708262, 0.10885441303253174, 0.4786440134048462, -0.012285402044653893, -0.00027737810160033405, -0.18987786769866943], [0.056787312030792236, 0.00015250674914568663, 0.03839269280433655, 0.10176174342632294, -0.05512603372335434, 0.06749492138624191, 0.021288752555847168, 0.11009065061807632, -0.05847623944282532, -0.0545068122446537, 0.15872691571712494, -0.01641789823770523, -0.15132421255111694, 0.30861756205558777, 0.00010392094554845244, 0.06035217270255089, -0.07408381253480911, 0.026715103536844254, -0.05065864324569702, 0.001394806895405054, -0.06469251960515976, 0.02321229875087738, -0.09783522039651871, -0.0888233482837677, -0.1383557915687561, 0.0001053147207130678, 0.015469461679458618, -0.008587097749114037, 0.02151833474636078, 0.03158723935484886, 0.00013847505033481866, -0.11558858305215836, 0.04406619817018509, 0.14178435504436493, 9.817966201808304e-05, -0.004215576220303774, 0.03543977439403534, -0.05360635742545128, 0.00013510827557183802, -0.07224670052528381], [0.00011298974277451634, -3.71317146345973e-05, -0.0004291470686439425, 0.00023540690017398447, -0.0004587863222695887, -0.00015119374438654631, 0.00036938051925972104, 0.00014450267190113664, -0.0001123079564422369, -0.0002193975233240053, 0.0001561537937959656, -5.495018558576703e-05, 0.00025898346211761236, 4.3151219870196655e-05, -3.934705091523938e-05, 4.864494258072227e-05, 0.00029948397423140705, -0.0006285035633482039, -0.0003278650401625782, 0.00019278349645901471, 0.00016782208695076406, 0.00041769715608097613, -0.0002517439716029912, -0.0004105791449546814, 6.341472908388823e-05, -3.723127520061098e-05, -0.00025140983052551746, -0.00013870578550267965, -0.00017376984760630876, -0.000503704824950546, -3.610997737268917e-05, 9.180469351122156e-05, 0.00029574427753686905, -6.344196299323812e-05, -4.047681431984529e-05, -0.00019338160927873105, 0.00015849054034333676, 0.00029822642682120204, -3.692316749948077e-05, 0.00012604882067535073], [-0.01694607362151146, 3.332323467475362e-05, 0.0009776536608114839, 0.002304109511896968, 0.015328318811953068, 0.005740106571465731, 0.02585088089108467, 0.03200579807162285, -0.053205400705337524, 0.010051699355244637, -0.005495027173310518, -0.004878723528236151, 0.02476700395345688, -0.022197384387254715, 3.723752161022276e-05, 0.22249728441238403, -0.022034065797924995, 0.007333355490118265, 0.003639346919953823, 0.106848806142807, 0.02577490545809269, 0.06939354538917542, -0.007274635136127472, 0.005146113224327564, -0.008074386976659298, 3.437949271756224e-05, 0.024418557062745094, 0.00042479453259147704, 0.009929890744388103, -0.02228739485144615, 1.9863302441081032e-05, -0.008864926174283028, -0.10127266496419907, -0.05730798467993736, 1.4531491615343839e-05, -0.005403267219662666, 0.004395660478621721, 0.006376618053764105, 3.371409184182994e-05, -0.030884385108947754], [-0.030410246923565865, 9.744562703417614e-06, 0.10039310157299042, -0.017642568796873093, 0.1761583834886551, 0.009713704697787762, -0.02419341914355755, 0.05828327685594559, -0.014045652002096176, 0.7078864574432373, 0.10189884155988693, 0.4121896028518677, -0.04499073326587677, 0.017311112955212593, 2.4074076918623177e-06, -0.008459385484457016, 0.6220256090164185, -0.04546373710036278, 0.1184210553765297, 0.08274415880441666, -0.03846161067485809, -0.06906557828187943, 0.06485600769519806, -0.11959010362625122, 0.15410596132278442, -6.699739969917573e-06, 0.022327080368995667, 0.01840595155954361, -0.002173611195757985, 0.1392754167318344, -2.180922592742718e-06, 0.021257266402244568, -0.010879379697144032, 0.049027953296899796, -9.778733328857925e-06, -0.020010733976960182, -0.2411724328994751, 0.11885032057762146, 7.5257389653415885e-06, -0.076484315097332], [-0.09229773283004761, 0.000328281574184075, 0.15407229959964752, -0.009495561942458153, 0.06569353491067886, 0.2625228762626648, -0.08490846306085587, -0.6416425108909607, -0.11222637444734573, 0.0005238842568360269, 0.15692825615406036, 0.07024814933538437, -0.019598012790083885, 0.01404880452901125, 0.00039068376645445824, 0.047162365168333054, 0.29670849442481995, 0.37305042147636414, 0.4482658803462982, -0.08212926983833313, -0.1469355672597885, 0.23921672999858856, -0.1598418802022934, 0.04520123824477196, 0.2707725167274475, 0.0003913249238394201, -0.25452104210853577, 0.06610340625047684, 0.0012034667888656259, 0.14560626447200775, 0.000400070653995499, -0.27573004364967346, -0.13164399564266205, 0.26621192693710327, 0.000530787103343755, -0.46765780448913574, -0.07334548979997635, -0.0272807814180851, 0.0003482896718196571, 0.19053365290164948], [-0.25183290243148804, -0.00013986053818371147, -0.20401330292224884, -0.03433698043227196, -0.015529408119618893, 0.05779659375548363, 0.30352821946144104, 0.010615010745823383, 0.14525355398654938, -0.06922347098588943, 0.44569143652915955, 0.2599031627178192, -0.029975328594446182, 0.21104104816913605, -0.00019885694200638682, 0.1065872460603714, 0.0372091643512249, 0.0719873309135437, 0.14904071390628815, -0.2653129994869232, 0.06354774534702301, -0.21055719256401062, -0.15179578959941864, 0.0182577483355999, 0.0923144519329071, -0.00021982578618917614, 0.014308956451714039, -0.027757633477449417, 0.13224206864833832, 0.05402279645204544, -0.000215838139411062, 0.523838460445404, -0.28947505354881287, 0.314792275428772, -0.0002773367741610855, -0.1135050430893898, 0.3170078694820404, -0.09780658781528473, -0.00018123888003174216, -0.07050683349370956], [0.05248136445879936, -0.0003469540679361671, 0.17625343799591064, 0.008595631457865238, -0.17998504638671875, 0.07563193142414093, 0.16574981808662415, -0.06779514998197556, -0.08889526128768921, -0.013350197114050388, -0.019127724692225456, 0.028018880635499954, 0.05444461107254028, -0.08206282556056976, -0.00042791326995939016, -0.21830567717552185, -0.026939431205391884, -0.14694571495056152, 0.2098846584558487, 0.1757238209247589, -0.034588657319545746, -0.01569686084985733, 0.03238862752914429, 0.07804881036281586, 0.07328873127698898, -0.000367603701306507, 0.24174325168132782, -0.02372625097632408, 0.02817344479262829, 0.11965926736593246, -0.00028275648946873844, 0.041727934032678604, -0.05485905706882477, 0.007350211031734943, -0.0005638356087729335, -0.28691282868385315, 0.08818089216947556, 0.17278972268104553, -0.00036539588472805917, 0.1793239861726761], [-0.03467739373445511, 0.00019501934002619237, 0.042555827647447586, 0.09017685055732727, -0.13978496193885803, 0.1642085164785385, 0.20302239060401917, -0.19149519503116608, 0.03744952753186226, -0.040707699954509735, -0.033404842019081116, 0.2619563043117523, -0.01569558121263981, 0.07692554593086243, 0.0001380277972202748, -0.009200158528983593, 0.1485273241996765, -0.005158048588782549, -0.10738000273704529, 0.007925880141556263, 0.5033190846443176, 0.05318396911025047, -0.050746235996484756, -0.02902284450829029, 0.21584270894527435, 0.00016968244744930416, 0.047424692660570145, -0.018875854089856148, -0.015992535278201103, 0.09955575317144394, 0.00017833878519013524, -0.09970011562108994, -0.13324882090091705, 0.06784465163946152, 0.0002548547345213592, 0.049983326345682144, 0.02723168209195137, -0.2715303897857666, 0.00022127827105578035, -0.04428885877132416], [-0.0997086688876152, -3.352904968778603e-05, -0.050301603972911835, -0.03646191209554672, -0.10193238407373428, 0.10446733236312866, -0.04631200432777405, -0.1998482644557953, -0.04689909145236015, -0.011304711923003197, 0.1878538727760315, -0.2842496335506439, 0.020356906577944756, 0.15165133774280548, -6.677350756945089e-05, 0.16569462418556213, -0.536969780921936, -0.10004276782274246, -0.18736571073532104, -0.14924666285514832, -0.008954557590186596, 0.3710992634296417, -0.07662695646286011, -0.07623949646949768, -0.11305799335241318, -7.811451359884813e-05, -0.030836250633001328, -0.0642445981502533, 0.057186104357242584, -0.03503252565860748, -0.00010003140050685033, 0.14052776992321014, 0.2790127992630005, 0.21679538488388062, -0.00016973716265056282, -0.14267392456531525, -0.039066486060619354, 0.0044939336366951466, -1.0685884262784384e-05, 0.024061037227511406], [-0.1054924875497818, -7.165869465097785e-05, -0.5083779096603394, -0.011844365857541561, 0.6142271161079407, 0.05913800373673439, -0.15875262022018433, -0.26205822825431824, 0.06600245088338852, 0.04383009299635887, -0.062351398169994354, 0.10335616767406464, -0.005202899221330881, 0.08475499600172043, -0.0001146814611274749, -0.10343393683433533, 0.016254553571343422, -0.07651589065790176, -0.2572799623012543, 0.08550631254911423, -0.15049511194229126, -0.10205690562725067, 0.28145554661750793, -0.07276961207389832, 0.258289635181427, -0.00013911996211390942, -0.2500125467777252, -0.03836100921034813, -0.127017542719841, 0.05774081498384476, -0.00018474120588507503, -0.2853522002696991, -0.14800749719142914, -0.07322204858064651, -0.0002401152451056987, 0.06006225198507309, 0.0036463469732552767, 