{"model_data": {"model": "SimpleRNN", "input_size": 1, "skip": 1, "output_size": 1, "unit_type": "LSTM", "num_layers": 1, "hidden_size": 40, "bias_fl": true}, "state_dict": {"rec.weight_ih_l0": [[0.041428904980421066], [0.0009339792304672301], [0.225920632481575], [0.04624199494719505], [-0.02651898004114628], [0.06395906209945679], [-0.010533728636801243], [0.05000946298241615], [-0.03438407555222511], [0.027455370873212814], [-0.0022858099546283484], [0.012935556471347809], [0.003310195868834853], [0.007738515269011259], [-0.1759493350982666], [0.020450998097658157], [0.013028020970523357], [-0.02443275973200798], [0.027678629383444786], [-0.01036280207335949], [0.055334776639938354], [-0.010307093150913715], [0.00980254728347063], [0.011522726155817509], [-0.03829062357544899], [-0.02124551683664322], [-0.038187894970178604], [-0.00773849431425333], [-0.023639319464564323], [-0.004679886624217033], [0.0470036156475544], [0.014392937533557415], [-0.00614741537719965], [0.6107522249221802], [4.968170514985104e-07], [0.034243326634168625], [0.013225805014371872], [-0.10466409474611282], [0.0026908882427960634], [-0.02029605768620968], [-0.17878039181232452], [0.0024042129516601562], [0.07643646746873856], [-0.02527797967195511], [-0.017828170210123062], [-0.007135195191949606], [-0.030673842877149582], [-0.023644454777240753], [-0.025201424956321716], [-0.012758632190525532], [-0.03802662342786789], [0.009851665236055851], [-0.008253130130469799], [0.0013246507151052356], [-0.13062956929206848], [0.09486265480518341], [-0.02014605887234211], [0.004376580938696861], [-0.0420689657330513], [-0.013937629759311676], [0.06358059495687485], [-0.026212355121970177], [-0.006346526090055704], [-0.031863100826740265], [0.0017875464400276542], [-0.01120460219681263], [-0.001480537699535489], [-0.012233647517859936], [0.011706353165209293], [0.005498694721609354], [-0.02615174651145935], [-0.03747110813856125], [-0.013852675445377827], [0.09396444261074066], [4.874034402746474e-07], [0.016879897564649582], [0.035327211022377014], [-0.14893245697021484], [-0.013816343620419502], [-0.06185242906212807], [-0.0856037512421608], [-0.5209207534790039], [-0.32252630591392517], [0.16252104938030243], [-0.00323037919588387], [0.02681613154709339], [-0.06546330451965332], [-0.42122533917427063], [-0.1954648494720459], [0.09653589874505997], [0.07358291745185852], [-0.19514520466327667], [-0.1400562822818756], [-0.16607999801635742], [-0.0330214723944664], [-0.20117832720279694], [0.037530798465013504], [-0.09387758374214172], [-0.14875797927379608], [-0.10868284106254578], [0.3124648630619049], [-0.0641380175948143], [-0.07151319831609726], [0.18059566617012024], [0.1494031548500061], [-0.06349638104438782], [0.06344597786664963], [0.11872348189353943], [-0.04409993439912796], [0.07200287282466888], [0.15907776355743408], [-0.27838075160980225], [-0.0445907860994339], [0.07163923233747482], [-0.0004391357651911676], [1.5014907121658325], [-0.09446152299642563], [-0.16154342889785767], [-0.08800766617059708], [-0.30507853627204895], [-0.2299162894487381], [-0.06758145242929459], [0.22157949209213257], [0.11209871619939804], [-0.024139054119586945], [-0.05796242132782936], [0.03148007392883301], [0.03719402477145195], [-0.039482247084379196], [-0.028795063495635986], [-0.033329617232084274], [0.006965297739952803], [0.0050954632461071014], [0.011105984449386597], [-0.21419808268547058], [0.015103006735444069], [-0.006734730210155249], [0.014535754919052124], [-0.025116516277194023], [0.01808955706655979], [0.1326526552438736], [0.06716843694448471], [-0.028398742899298668], [0.014055703766644001], [-0.00766449561342597], [0.013949424959719181], [-0.07173263281583786], [-0.012775986455380917], [-0.0011862533865496516], [-0.003710451303049922], [0.03418593108654022], [0.12900419533252716], [-0.008473234251141548], [0.27850663661956787], [3.6363192634780717e-07], [0.09229902178049088], [-0.010231935419142246], [-0.3480624556541443], [0.013411225751042366], [-0.015044409781694412]], "rec.weight_hh_l0": [[0.09905559569597244, 0.04801081866025925, 0.29279935359954834, -0.05504536256194115, -0.17082247138023376, 0.0445411279797554, 0.004096366465091705, 0.04759099707007408, 0.0020996753592044115, 0.06008188799023628, 0.02576102502644062, 0.03777766972780228, 0.04203631356358528, 0.02873281203210354, 0.41101691126823425, 0.2274595946073532, -1.1020022630691528, -0.0016427512746304274, 0.035099808126688004, 0.026422644034028053, 0.18205662071704865, 0.2560412585735321, 0.14615920186042786, -0.02738122269511223, 0.23245655000209808, 0.01247998233884573, -0.06715375930070877, 0.10033725202083588, 0.09542305022478104, -0.04507116228342056, -0.03101823665201664, -0.060770634561777115, -0.043796490877866745, 0.04836253076791763, 0.0002228703087894246, -0.03193797543644905, -0.053577970713377, -0.7665191888809204, 0.08378294855356216, -0.05107162147760391], [-0.022371510043740273, 0.055539052933454514, 0.0661211758852005, 0.02495412901043892, -0.007829731330275536, 0.0005409402656368911, 0.005463240668177605, -0.08659758418798447, 0.029938511550426483, -0.014585532248020172, 0.0054442002438008785, -0.062459830194711685, 0.007045568898320198, -0.019504806026816368, 0.1602187156677246, -0.027420710772275925, 0.05814309045672417, -0.025255300104618073, 0.07876047492027283, -0.018033208325505257, 0.010210898704826832, 0.041831716895103455, 0.005374780390411615, -0.0003913482360076159, 0.0007626650622114539, -0.03603782877326012, -0.022157633677124977, 0.009672306478023529, -0.0197250097990036, -0.022357044741511345, 0.04444236308336258, -0.046957552433013916, -0.0310151856392622, 0.0211398433893919, -0.00012660121137741953, -0.05432121828198433, -0.008691263385117054, -0.016877401620149612, -0.0029784298967570066, -0.029675399884581566], [-0.08768892288208008, 0.011987660080194473, 0.18337713181972504, 0.021149449050426483, -0.05045342445373535, -0.049978528171777725, 0.01833595708012581, -0.03896590322256088, -0.06137210130691528, -0.017778851091861725, -0.0060509201139211655, -0.002797667169943452, -0.02341397851705551, -0.016026288270950317, -0.09082868695259094, 0.1254226714372635, -0.0006314842612482607, -0.011719496920704842, 0.08864619582891464, -0.029216375201940536, 0.06618687510490417, -0.042681168764829636, 0.006332818418741226, 0.019910478964447975, 0.03736410662531853, 0.0282661821693182, -0.006472657434642315, -0.03941335156559944, -0.0036219318863004446, 0.019841667264699936, -0.010762818157672882, -0.021924588829278946, 0.0011889475863426924, 0.4414391815662384, -5.2144296205369756e-05, 0.17835712432861328, 0.0666411966085434, -0.10094089061021805, -0.023816721513867378, -0.010544048622250557], [0.18365469574928284, 0.031008251011371613, -0.014192848466336727, 0.0559086911380291, -0.050258833914995193, -0.04882276803255081, -0.0010523139499127865, 0.01706063188612461, 0.013140855357050896, -0.0454525463283062, 0.038048986345529556, 0.017902513965964317, 0.021725639700889587, 0.0034984268713742495, -0.0767185240983963, 0.07865322381258011, 0.5369852185249329, -0.03360968083143234, 0.08202553540468216, -0.03465430065989494, -0.015295574441552162, -0.15384270250797272, 0.008827916346490383, 0.008406959474086761, -0.10020142793655396, 0.0003210954600945115, -0.03577869385480881, -0.009182163514196873, 0.021683091297745705, -0.0005783193046227098, -0.008317094296216965, -0.11334427446126938, -0.0013382644392549992, 0.1884453296661377, 2.420758391963318e-06, 0.0627773255109787, 0.01262002531439066, 0.3675239384174347, 0.011993790976703167, -0.0058630951680243015], [0.12100929766893387, 0.0005874104099348187, -0.011126816272735596, 0.03972935676574707, -0.02180401049554348, -0.006506989244371653, 0.0012805485166609287, 0.0017532412894070148, 0.026152556762099266, -0.03184226155281067, 0.031109707430005074, 0.022271638736128807, 0.0035034031607210636, 0.005951724015176296, -0.038034725934267044, -0.010852931067347527, 0.35569098591804504, -0.025133486837148666, 0.05268605798482895, -0.005874323658645153, -0.028733953833580017, -0.10995049774646759, -0.0004902860382571816, 0.010114249773323536, -0.031130680814385414, -0.016696661710739136, -0.009212848730385303, -0.01970839500427246, -0.009182852692902088, -0.007745956536382437, 0.010756303556263447, -0.07909146696329117, -0.006057899445295334, 0.12674283981323242, 4.1371189581695944e-05, 0.020563997328281403, -0.004776705987751484, 0.26460957527160645, 0.02848762646317482, 0.018862983211874962], [-0.09226582944393158, 0.03893349692225456, 0.03740977868437767, -0.02464439906179905, 0.01049402728676796, -0.07518797367811203, -0.019325975328683853, 0.012616489082574844, 5.6053235311992466e-05, 0.017440928146243095, 0.03575469180941582, -0.036860521882772446, 0.01589779369533062, -0.0004823140916414559, 0.056911516934633255, -0.010508660227060318, -0.9362530708312988, -0.02811267413198948, 0.017566528171300888, -0.008991793729364872, 0.08733510971069336, 0.15198449790477753, -0.006925799418240786, 0.004108250141143799, 0.05148087814450264, -0.02844785526394844, -0.030499091371893883, 0.03775491565465927, -0.005677569657564163, 0.00985761359333992, 0.011806819587945938, -0.059888601303100586, -0.01523338072001934, -0.1487865000963211, 9.541033250570763e-06, -0.005563237704336643, -0.06397044658660889, -0.3660770654678345, 0.0121139632537961, 0.013152937404811382], [-0.041984207928180695, -0.0008425970445387065, 0.03939098119735718, 0.022738588973879814, -0.02447526715695858, 0.006551045458763838, 0.016129735857248306, 0.006706670392304659, 0.009336805902421474, -0.019014714285731316, -0.014417787082493305, -0.005254843737930059, -0.0034491594415158033, 0.016695445403456688, 0.036613184958696365, 0.011339841410517693, -0.1278068721294403, 0.0027435473166406155, 0.03228173404932022, -0.010604041628539562, 0.021755700930953026, 0.022604843601584435, -0.02318161353468895, 0.014377076178789139, 0.007613623049110174, 0.002406981773674488, 0.021853484213352203, 0.01172654703259468, -0.00256292219273746, -0.0038162001874297857, 0.005892986431717873, 0.030053865164518356, -0.008782487362623215, -0.016851864755153656, 0.0001084242612705566, -0.029583115130662918, -0.016138970851898193, -0.10910787433385849, 0.01996781677007675, 0.012136035598814487], [-0.046009596437215805, -0.002781407441943884, 0.04225248470902443, 0.028706634417176247, -0.004000538494437933, -0.021065540611743927, 0.044615328311920166, -0.026390189304947853, 0.013130910694599152, -0.0008980543934740126, 0.009641814045608044, -0.018930960446596146, 0.008602093905210495, -0.003409292083233595, 0.08636265993118286, -0.00403193011879921, 0.04520886763930321, -0.025279158726334572, 0.004445552360266447, -0.022340331226587296, -0.0026782420463860035, 0.025936054065823555, 0.015994498506188393, 0.015832357108592987, 0.014539413154125214, -0.015696723014116287, -0.015068389475345612, 0.0009045818005688488, -0.001615186920389533, -0.00010877312888624147, 0.010362711735069752, -0.007575211115181446, -0.0026451514568179846, 0.040455278009176254, -6.381991261150688e-05, -0.008627798408269882, -0.02553730644285679, -0.006453059148043394, 0.006629893556237221, -0.0004955881740897894], [0.08530060946941376, 0.021413655951619148, -0.029813162982463837, -0.03113413229584694, -0.001798194833099842, 0.006305555813014507, -0.01418650895357132, 0.013097930699586868, 0.028623787686228752, -0.004869966302067041, 0.014418166130781174, 0.017257295548915863, 0.010219155810773373, 0.0041219755075871944, 0.010107394307851791, 0.03893786296248436, 0.09838291257619858, -0.015800323337316513, 0.04024622216820717, -0.02047414891421795, -0.0139313954859972, -0.020815197378396988, 0.00989499781280756, 0.007449530530720949, -0.07315507531166077, 0.0019161930540576577, -0.019698606804013252, 0.0058128791861236095, 0.019208252429962158, -0.007560879457741976, -0.00642456766217947, -0.033212773501873016, 0.0021403867285698652, 0.04471246525645256, 2.9628363336087205e-05, 0.011060399003326893, 0.0027350299060344696, 0.10582682490348816, 0.013817738741636276, 0.006308278534561396], [-0.08015934377908707, 0.010205878876149654, 0.10139643400907516, 0.03750539571046829, -0.030643077567219734, -0.021264826878905296, 0.012717010453343391, 0.005070106126368046, 0.001567929401062429, -0.01968974992632866, -0.018068751320242882, -0.017444198951125145, 0.03465316444635391, 0.012033035047352314, 0.052845388650894165, 0.05106167122721672, 0.05140370875597, -0.006984457839280367, 0.007187831215560436, -0.03539819270372391, 0.05022088810801506, 0.08336567878723145, -0.02237359620630741, 0.02758072130382061, 0.0467999167740345, 0.0003693665494211018, 0.010779265314340591, 0.01023668609559536, -0.0329156257212162, 0.0074689011089503765, -0.026702595874667168, 0.00023365970992017537, -0.019935060292482376, -0.06564968824386597, -0.00010321065201424062, -0.013540138490498066, 0.0007110481383278966, -0.06766656041145325, 0.023398136720061302, -0.038251616060733795], [-0.0584866963326931, -0.005858996417373419, -0.00492105120792985, 0.018242599442601204, 0.009359569288790226, -0.014563322998583317, 0.013720829039812088, -0.006806244142353535, 0.015206478536128998, 0.002243840368464589, 0.09596624225378036, -0.002535536652430892, 0.016981685534119606, -0.000435446243500337, 0.011842445470392704, 0.011284305714070797, -0.2045062780380249, 0.01635891944169998, 0.01728746108710766, 0.007819030433893204, 0.07399556785821915, 0.029154296964406967, -0.060221683233976364, 0.004105367697775364, 0.032087333500385284, 0.028565797954797745, -0.01158821489661932, 0.03437601029872894, 0.0083939703181386, -0.0009935993002727628, -0.018111778423190117, 0.03627416491508484, -0.015442443080246449, -0.058991141617298126, 5.5433029046980664e-05, -0.01756669580936432, 0.042174048721790314, -0.13185778260231018, 0.011487217620015144, -0.01696043461561203], [0.0780336782336235, 0.0009525560308247805, -0.015401143580675125, 0.03509152680635452, -0.042388252913951874, -0.018873078748583794, -0.008475536480545998, -0.01575363613665104, 0.002254373859614134, -0.017449557781219482, 0.022067779675126076, 0.00047437960165552795, -0.009812772274017334, 0.0027721598744392395, -0.010868357494473457, 0.008100871928036213, 0.24803173542022705, -0.0008471250184811652, 0.04285840317606926, -0.008854974061250687, -0.003927411511540413, -0.05641505867242813, -0.0009162382921203971, 0.0047646877355873585, 0.020769041031599045, 0.010545454919338226, -0.0055900816805660725, 0.0025892802514135838, -0.004310314543545246, -0.006270659621804953, 0.001806542626582086, -0.03911002352833748, -0.012924469076097012, 0.07571667432785034, 2.922983003372792e-05, 0.018330706283450127, 0.016334539279341698, 0.18438363075256348, 0.015143412165343761, -0.02159740962088108], [-0.07571366429328918, -0.0033221831545233727, 0.08349844068288803, 0.05859570950269699, -0.008583963848650455, -0.03794032707810402, 0.0036777423229068518, 0.01198381558060646, 0.007318957708775997, 0.014419669285416603, -0.0025434077251702547, -0.03716052696108818, 0.014908003620803356, 0.004190739244222641, 0.07669439166784286, -0.010090678930282593, 0.20523613691329956, 0.001514569390565157, 0.02370903082191944, -0.017851902171969414, 0.045877426862716675, 0.07486662268638611, -0.032579854130744934, 0.030241584405303, 0.059435680508613586, 0.020213628187775612, 0.0005253755953162909, 0.02306194230914116, -0.008210504427552223, 0.0004254815576132387, -0.012569346465170383, 0.005764472298324108, 0.01214434951543808, -0.030585577711462975, -6.517614383483306e-05, -0.05413789674639702, -0.04235079139471054, 0.019684428349137306, 0.03204137459397316, 0.014354322105646133], [0.04682324826717377, 0.010933669283986092, -0.017511354759335518, 0.024552563205361366, -0.003309330902993679, -0.010690327733755112, -0.002203201176598668, 2.0135428712819703e-05, 0.007124661933630705, -0.0178131852298975, 0.01663103513419628, 0.00595052307471633, 0.011515012010931969, 0.004891566466540098, -0.01647946983575821, -0.006893631536513567, 0.08972083777189255, -0.004254091996699572, 0.025346720591187477, -0.0046186367981135845, -0.01078431960195303, -0.030935604125261307, -0.006426716689020395, 0.002118465257808566, 0.0031246249563992023, 0.016058748587965965, -0.007541653700172901, 0.008908573538064957, 0.00131506088655442, -0.0004977615899406374, -0.004702167585492134, -0.02855725772678852, -0.010131892748177052, 0.03348951041698456, 2.1501133232959546e-05, 0.013005640357732773, 0.009577414020895958, 0.06815046817064285, 0.007378511596471071, 0.0009017057018354535], [-0.1808551847934723, 0.03026410937309265, 0.2753247618675232, 0.1300276219844818, 0.012302500195801258, 0.0008189631626009941, 0.06993939727544785, 0.15472877025604248, 0.011564979329705238, -0.1319654881954193, -0.013759861700236797, 0.053651269525289536, -0.011888244189321995, 0.10307936370372772, 0.09665054082870483, -0.5847011208534241, -0.9767928719520569, 0.17027010023593903, -0.10945872217416763, 0.06969060748815536, 0.12237829715013504, 0.2268766611814499, 0.05059633031487465, -0.12173331528902054, 0.15767033398151398, -0.11170211434364319, -0.0069368863478302956, -0.06657057255506516, 0.004623400047421455, 0.014611557126045227, -0.0695299580693245, 0.1210063099861145, 0.0510149784386158, 0.149251326918602, 0.00012912247620988637, -0.3105221092700958, 0.0014599873684346676, -0.48035943508148193, 0.03287532925605774, 0.10499125719070435], [0.20721282064914703, 0.013491673395037651, -0.03646288812160492, 0.13222406804561615, -0.0038410446140915155, -0.05406902730464935, 0.016612429171800613, -0.035460855811834335, 0.033357277512550354, -0.034212831407785416, 0.051036980003118515, 0.0076726507395505905, 0.023503849282860756, -0.014539803378283978, -0.08846493065357208, -0.014513600617647171, 0.6311836838722229, -0.05870832875370979, 0.11037341505289078, -0.026697343215346336, -0.05501319468021393, -0.17779669165611267, 0.008694184012711048, 0.022817697376012802, -0.12273736298084259, -0.006674395874142647, -0.04036834463477135, -0.02620263211429119, 0.004417571239173412, -0.005790568422526121, 0.019183706492185593, -0.12825335562229156, -0.014898495748639107, 0.16220270097255707, -5.2041421440662816e-05, 0.0447031706571579, -0.01904984377324581, 0.3991313874721527, 0.0075666592456400394, -0.008089298382401466], [0.08763215690851212, 0.0016815384151414037, -0.019069623202085495, -0.05181427299976349, -0.0035334329586476088, -0.010657831095159054, -0.007165153510868549, 0.006733296904712915, 0.006837793625891209, -0.004363975487649441, 0.0025413415860384703, 0.009710545651614666, 0.0058057792484760284, 0.0001185032888315618, -0.03584251180291176, 0.02225634455680847, 0.18701006472110748, -0.015830712392926216, 0.04135551303625107, -0.014507049694657326, 0.010790979489684105, -0.056360650807619095, 0.000428518105763942, 0.01024149265140295, -0.017525792121887207, -8.329452248290181e-05, -0.010312181897461414, 0.0013801248278468847, 0.01679452322423458, -0.0018359815003350377, 0.0039774575270712376, -0.031445033848285675, -0.00346216163598001, 0.05463792756199837, 9.122135452344082e-06, 0.03372088447213173, -0.008678021840751171, 0.11588412523269653, 0.01295899972319603, -0.005157030187547207], [-0.03310706466436386, 0.04455502703785896, 0.03805727884173393, -0.026420868933200836, -0.03850187361240387, -0.014799603261053562, 0.022928588092327118, 0.02090594172477722, -0.0016857829177752137, 0.01745031587779522, 0.0047340779565274715, -0.0024369414895772934, 0.027489276602864265, 0.009487160481512547, 0.05443420261144638, 0.07874909043312073, 0.11046352237462997, -0.0403972789645195, 0.019972750917077065, -0.011211160570383072, 0.0587938018143177, 0.014175688847899437, 0.002558913780376315, 0.027365894988179207, 0.05992656946182251, -0.030846798792481422, -0.016328895464539528, 0.022101953625679016, -0.006045925430953503, 0.0111540537327528, 0.00037401734152808785, -0.005363177042454481, 0.014039234258234501, 0.003998749889433384, -7.453477883245796e-05, -0.025742022320628166, -0.031754933297634125, 0.013336841948330402, 0.02819390594959259, 0.005221337545663118], [-0.07732797414064407, -0.043430060148239136, -0.06652235239744186, -0.013121901080012321, 0.06754922866821289, 0.013929917477071285, -0.11374738812446594, 0.03977290913462639, 0.014064296148717403, 0.06596405059099197, -0.03864416852593422, 0.016351696103811264, 0.04843984544277191, -0.010409302078187466, -0.043258823454380035, -0.027443720027804375, -0.5122994184494019, -0.01720619387924671, 0.11007368564605713, 0.0028053082060068846, 0.07470844686031342, 0.13802661001682281, -0.01585758663713932, 0.019594941288232803, 0.0036447900347411633, 0.00849180854856968, -0.025630101561546326, 0.0077933394350111485, 0.03803597390651703, 0.010501419194042683, -0.014307172037661076, -0.036245789378881454, 0.01614762656390667, -0.14848089218139648, 0.00018124289636034518, 0.0053889211267232895, -0.1023169532418251, -0.42907387018203735, 0.016550211235880852, 0.01735810562968254], [-0.04927629977464676, 0.018110260367393494, 0.022233672440052032, 0.020207442343235016, -0.041439302265644073, -0.012775729410350323, 0.01708119921386242, 0.028349166736006737, -0.0007652438944205642, 0.009866704232990742, 0.011760225519537926, -0.008695825934410095, 0.0004970397567376494, 0.016801709309220314, 0.07345154136419296, 0.057086750864982605, 0.0730258971452713, -0.016032787039875984, -0.01839672029018402, -0.02696351148188114, 0.03580612689256668, 0.011762876063585281, -0.012033252976834774, 0.030545243993401527, 0.034278783947229385, -0.023865193128585815, 0.0016506045358255506, 0.038447000086307526, -0.024350140243768692, -0.006697793025523424, 0.016902068629860878, 0.0041649299673736095, 0.005097261629998684, 0.0024622080381959677, 9.139341273112223e-06, -0.01386334840208292, -0.0019174878252670169, 0.01634136773645878, 0.03511973097920418, -0.006892235018312931], [-0.21571043133735657, 0.03482885658740997, -0.019998352974653244, 0.24706220626831055, -0.044522639364004135, 0.13202469050884247, 0.0464475080370903, 0.00521983252838254, -0.017220422625541687, 0.0037665802519768476, -0.10042252391576767, 0.03760785609483719, -0.00647072633728385, 0.032598331570625305, -0.23353725671768188, 0.013373938389122486, -0.46176236867904663, -0.0017007057322189212, -0.07091106474399567, 0.00723766116425395, 0.020388133823871613, -0.025469539687037468, 0.02907780557870865, -0.02542337030172348, 0.08563371002674103, -0.014004232361912727, -0.035192690789699554, -0.032682858407497406, -0.015604072250425816, 0.032954588532447815, -0.02925575152039528, 0.06545902043581009, 0.012922271154820919, -0.017461828887462616, 6.730388122377917e-05, 0.023831427097320557, 0.11085812002420425, -0.2785918712615967, -0.020510908216238022, -0.044055137783288956], [0.037716060876846313, -0.0031798866111785173, -0.033589478582143784, -0.033299487084150314, -0.032761842012405396, 0.004047276917845011, -0.01226087473332882, -0.00334651255980134, 0.01060524769127369, 0.0026780671905726194, -0.006788450293242931, -0.007542691193521023, -0.0011898811208084226, -0.005029075779020786, -0.05359162390232086, 0.0359988734126091, 0.1289549618959427, -0.010921545326709747, 0.026012388989329338, -0.01831478625535965, -0.017971109598875046, -0.08025334775447845, 0.018651079386472702, 0.0065043168142437935, -0.025591926649212837, 0.0024086616467684507, -0.006376804318279028, 0.0013668318279087543, 0.005304614547640085, -0.008328775875270367, 0.009166627191007137, -0.011960804462432861, 0.0030147910583764315, -0.00648216949775815, -0.00013774388935416937, -0.01216241717338562, 0.016185499727725983, 0.08900347352027893, 0.0022363129537552595, -0.012911546044051647], [-0.08166221529245377, 0.0006213399465195835, 0.058289919048547745, 0.032470885664224625, 0.0017211297526955605, -0.014241918921470642, 0.024633849039673805, -0.012629631906747818, 0.013572433032095432, 0.010139962658286095, -0.022464506328105927, -0.02276093326508999, -0.010707535780966282, 0.00020408592536114156, 0.0557839572429657, 0.012054826132953167, -0.03654497489333153, -0.006556123495101929, 0.02051752619445324, -0.01620646007359028, 0.038670673966407776, 0.05975757911801338, -0.010088251903653145, 0.009629257954657078, 0.010565169155597687, -0.018519656732678413, -0.016101976856589317, 0.0017453338950872421, -0.01316064689308405, 0.005672074388712645, 0.03205244615674019, 0.022599389776587486, -0.017152871936559677, -0.04604737460613251, -0.0001694945094641298, -0.03133488819003105, 0.0049533541314303875, -0.08868124336004257, -0.00033407608862034976, 0.00017254443082492799], [0.018052859231829643, 0.021217430010437965, -0.044033706188201904, 0.031157398596405983, 0.003225107677280903, -0.006321666296571493, 0.02006780356168747, -0.013873246498405933, 0.011500953696668148, -0.02576771192252636, 0.02329310029745102, -0.00027826023870147765, 0.013057658448815346, -0.00103833491448313, -0.008876553736627102, 0.0036001717671751976, 0.029657447710633278, -0.01704401895403862, -0.003825288964435458, 0.002645014552399516, -0.023387227207422256, -0.02064354531466961, -0.011587070301175117, 0.006554072257131338, -0.015724079683423042, -0.005452042445540428, 0.0006834970554336905, 0.008953695185482502, -0.016850903630256653, 0.0006806764286011457, 0.006982862949371338, -0.021366195753216743, -0.004884215537458658, 0.014801565557718277, -8.244016385106079e-07, 0.0015996014699339867, -0.019940607249736786, 0.02333201840519905, 0.0013008388923481107, -0.0016056749736890197], [0.09207389503717422, 0.03436188027262688, -0.024818211793899536, -0.07810863107442856, 0.107838474214077, -0.0029189258348196745, -0.020100688561797142, -0.028582677245140076, 0.054046329110860825, -0.011921755969524384, 0.024237679317593575, 0.02519148960709572, -0.006666358094662428, -0.011634159833192825, -0.04644724726676941, -0.2845982313156128, 0.11897773295640945, 0.05177845433354378, 0.07927431911230087, -0.014556093141436577, -0.022467290982604027, -0.06634034961462021, 0.020105740055441856, 0.001568454783409834, 0.009302171878516674, 0.045325107872486115, -0.007450683042407036, -0.02140970714390278, 0.045078326016664505, -0.015581922605633736, 0.02280251868069172, -0.04352135211229324, -0.008524775505065918, 0.0578649677336216, -4.3023730540880933e-05, -0.07419558614492416, -0.04865195229649544, 0.10353049635887146, 0.004197117872536182, 0.028382837772369385], [-0.05071530118584633, -0.01926649548113346, 0.0681179016828537, 0.034553781151771545, -0.05361511930823326, -0.027495896443724632, 0.05739477649331093, -0.0058465637266635895, 0.007671089842915535, -0.027192603796720505, 0.00023654341930523515, -0.04279378801584244, -0.002602888271212578, 0.005651162471622229, 0.08529187738895416, 0.03474624827504158, 0.17760327458381653, -0.016840925440192223, 0.03629649430513382, -0.0459592379629612, 0.04263343662023544, 0.023256879299879074, 0.010023819282650948, 0.012723979540169239, 0.09996677190065384, 0.010336913168430328, -0.013286574743688107, 0.016661036759614944, 0.010830678977072239, 0.002229413716122508, -0.007078540977090597, 0.003290327498689294, 0.005775299854576588, 0.00926224235445261, 1.1715378605003934e-05, -0.042054470628499985, 0.0142526775598526, 0.06051795184612274, 0.008351600728929043, -0.026493823155760765], [-0.005462910979986191, 0.05225250497460365, 0.0006507904035970569, 0.01416303962469101, 0.014021847397089005, 0.006470707710832357, -0.012421038001775742, 0.02289443649351597, -0.0016038237372413278, -0.003953391686081886, -0.009773574769496918, 0.015432517044246197, 0.02680095098912716, 0.014692404307425022, 0.03170160949230194, 0.019335301592946053, 0.03127461299300194, -0.01813809759914875, 0.043991364538669586, -0.01057511568069458, 0.022138189524412155, 0.023980656638741493, -0.01025200355798006, 0.01887931115925312, 0.027802878990769386, 0.004092587623745203, -0.027696218341588974, 0.015068111009895802, 0.005473867990076542, 0.015722565352916718, -0.007059388794004917, -0.0004806596552953124, -0.005251387134194374, -0.008740187622606754, -6.210775154613657e-06, -0.01656196638941765, -0.031087199226021767, 0.00674643088132143, 0.02093881368637085, 0.02299848571419716], [0.11377516388893127, 0.013786586932837963, -0.04981909319758415, -0.004615184850990772, -0.00646064430475235, -0.01654096134006977, -0.0012661797227337956, -0.004736693575978279, 0.013783255591988564, -0.021766653284430504, 0.02424614131450653, 0.005013798363506794, 0.011668945662677288, 0.0018294649198651314, -0.0466124601662159, -0.011366389691829681, 0.23722480237483978, -0.027272187173366547, 0.052261944860219955, -0.008668074384331703, -0.00791650079190731, -0.1021975427865982, 0.0031999938655644655, 0.008053534664213657, 0.010562172159552574, 0.0145602747797966, -0.022612761706113815, 0.006971440743654966, 0.005193869583308697, -0.0021240643691271544, 0.0003607268154155463, -0.05363967642188072, -0.007855556905269623, 0.047226518392562866, 4.290550350560807e-05, 0.011059220880270004, -0.01440605241805315, 0.18233823776245117, 0.01919662393629551, -0.0031163087114691734], [-0.07101909071207047, 0.033978912979364395, 0.06160875782370567, 0.003599239978939295, -0.016190867871046066, -0.001885644276626408, 0.03465403988957405, 0.013249386101961136, 0.005002679768949747, 0.016603983938694, -0.001353105646558106, 0.006800131406635046, -0.005416948813945055, 0.02289247140288353, 0.07919715344905853, 0.012513956055045128, 0.10217542201280594, 0.01978432387113571, 0.0008450283203274012, -0.04716017469763756, 0.07965092360973358, 0.023251837119460106, -0.010201996192336082, 0.03281352296471596, 0.09428572654724121, 0.0008948119357228279, -0.004684017971158028, 0.023024706169962883, 0.029588952660560608, 0.001073695020750165, -0.02051975391805172, 0.023406023159623146, -0.016888368874788284, -0.009055747650563717, 4.4506134145194665e-05, -0.045431189239025116, -0.0019875073339790106, -0.008831419050693512, 0.02927868254482746, 0.002802877454087138], [0.011473516933619976, -0.009425042197108269, 0.0025987231638282537, -0.0436704196035862, -0.0044847168028354645, -0.004744579084217548, 0.009607146494090557, -0.003513847477734089, 0.006963829509913921, -0.003387172007933259, -0.0019208687590435147, -0.0055598109029233456, -0.0034386618062853813, -0.005211008712649345, 0.010011066682636738, -0.007145401556044817, 0.0022408594377338886, -0.02155125141143799, 0.001166566857136786, -0.013422970660030842, 0.0023109617177397013, 0.0009146350203081965, -0.0007479001069441438, 0.011210622265934944, 0.002950811991468072, -0.02541542425751686, -0.013516876846551895, -0.006840967107564211, 0.008884199894964695, -0.0037275301292538643, 0.0013849751558154821, -0.006438651587814093, 8.442684338660911e-05, 0.017542244866490364, -7.5176599239057396e-06, 0.0015137478476390243, -0.024026300758123398, 0.011321742087602615, 0.004983479157090187, -0.0029953799676150084], [-0.0709044486284256, -0.0022262323182076216, 0.0670720562338829, 0.03883872926235199, -0.06277702748775482, -0.02296539396047592, 0.02073192223906517, -0.03108072094619274, -0.013735494576394558, 0.030100539326667786, -0.017650093883275986, -0.005280857440084219, -0.060845401138067245, 0.005362951662391424, 0.07389723509550095, 0.04007739946246147, 0.18795029819011688, 0.007048462517559528, 0.01663580723106861, -0.03187357634305954, 0.06252237409353256, 0.018803369253873825, 0.016039101406931877, 0.02952682599425316, 0.09872957319021225, -0.01061761099845171, -0.003963219467550516, -0.0034812260419130325, 0.011726828292012215, -0.000207764285732992, 0.021520085632801056, 0.01154782623052597, 0.001009766012430191, 0.0024295118637382984, -4.6181063225958496e-05, -0.03766746446490288, -0.00023903705005068332, 0.0492403469979763, 0.043905407190322876, 0.014684248715639114], [-0.06339973211288452, 0.0844174474477768, -0.036712225526571274, -0.03912949934601784, 0.05710282921791077, 0.05946201831102371, -0.14277462661266327, 0.08642981201410294, 0.005773845128715038, 0.0032715103588998318, -0.07089827954769135, 0.043747127056121826, 0.032532352954149246, 0.028618402779102325, 0.01907014288008213, 0.04993465170264244, -1.1052875518798828, 0.00023726776998955756, 0.05555921420454979, -0.000430870073614642, 0.005520414095371962, 0.16805559396743774, -0.0010080176871269941, -0.011348585598170757, 0.039594512432813644, 0.03276578336954117, -0.07998290657997131, 0.0340576246380806, 0.052721504122018814, 0.032723356038331985, -0.0560678094625473, -0.12659263610839844, 0.030927056446671486, -0.16893348097801208, 0.00017852206656243652, -0.033077746629714966, -0.08404773473739624, -0.5479729771614075, -0.004387947730720043, 0.05652966350317001], [0.08862163126468658, 0.01303829625248909, 0.004628285299986601, 0.029944125562906265, -0.020864978432655334, -0.0298098623752594, 0.005221555009484291, -0.00540565513074398, 0.008381959982216358, -0.024022981524467468, 0.024051953107118607, 0.003432051744312048, 0.0056533911265432835, 0.005693514831364155, -0.006223971955478191, -0.008209746330976486, 0.2917717397212982, -0.01921960897743702, 0.04785672575235367, -0.0183222908526659, -0.015953505411744118, -0.07058108597993851, -0.005383855197578669, 0.010417202487587929, 0.008618727326393127, 0.006584237329661846, -0.020413197576999664, 0.005227433517575264, 0.006927617359906435, -0.0025538874324411154, -0.005200985353440046, -0.04637524485588074, -0.006171544548124075, 0.10111887007951736, 4.339351289672777e-05, 0.006674101576209068, 0.00038481494993902743, 0.2121686041355133, 0.016377806663513184, -0.0008521020645275712], [0.3279849588871002, -0.1025824248790741, -0.14749868214130402, -0.0591295063495636, -0.049409471452236176, -0.016103405505418777, -0.0938212051987648, -0.16057169437408447, -0.048590827733278275, 0.04138980805873871, 0.1869959831237793, -0.03366273269057274, 0.026297232136130333, -0.08124851435422897, 0.45874783396720886, 0.5749142169952393, -0.9491950273513794, -0.1290743499994278, -0.005235494580119848, -0.04480549320578575, -0.08030717074871063, 0.3002564609050751, -0.11458230018615723, 0.04860251769423485, 0.3239709436893463, 0.10309136658906937, 0.004005411174148321, 0.013552014715969563, -0.022419221699237823, -0.011916646733880043, 0.07667049020528793, -0.005475910846143961, -0.057498835027217865, -0.21682918071746826, -0.00032270888914354146, 0.3918949365615845, 0.0022833882831037045, -0.22800862789154053, -0.0652565211057663, -0.05591411143541336], [3.57207863999065e-06, 3.416918161747162e-07, -3.5106722862110473e-07, 3.3130095289379824e-07, -3.690387586630095e-07, -5.198246526560979e-07, 2.844207926955278e-07, -2.720420582136285e-07, 4.75869086358216e-07, -7.336529961321503e-07, 7.016396352810261e-07, 2.777189251901291e-07, 2.334974169571069e-07, 1.6906597011256963e-08, -1.2915053275719401e-06, 1.535322553536389e-07, 6.252495495573385e-06, -5.77853995764599e-07, 1.0773370604511001e-06, -5.485646852321224e-07, -2.341125195925997e-07, -2.216819211753318e-06, 1.1580939229816067e-07, 2.8160656029285747e-07, -1.1662394854283775e-06, 2.6896867666437174e-07, -2.9204480256339593e-07, -8.503864279418849e-08, 2.00644009851203e-07, -9.468121220379544e-08, 1.4676648341094278e-08, -1.7534832750243368e-06, -1.311262707304195e-07, 3.6670569443231216e-06, 6.837879706900196e-10, 1.0283637266184087e-06, 1.9003704210263095e-07, 4.988204636902083e-06, 4.0116859167937946e-07, -2.4039619006543944e-07], [-0.039283812046051025, 0.07617523521184921, -0.5379518270492554, 0.06734450161457062, -0.08028963208198547, 0.10017286241054535, 0.018658213317394257, 0.035293009132146835, 0.07510871440172195, -0.002417375100776553, -0.14098875224590302, -0.03760600835084915, 0.019022610038518906, 0.009157978929579258, -0.8806754350662231, -0.15134026110172272, 0.15988484025001526, -0.00019504374358803034, 0.03365778177976608, 0.034704361110925674, -0.083945132791996, -0.28089213371276855, 0.042948849499225616, -0.0289312656968832, -0.12098375707864761, 0.055426836013793945, -0.08279317617416382, 0.0006552627892233431, 0.013535711914300919, 0.03192010521888733, -0.04132979363203049, 0.01269250176846981, -0.02361179143190384, -1.046126365661621, -0.0001700200082268566, -0.13068002462387085, -0.025819474831223488, -0.1646239012479782, -0.06582259386777878, 0.030358249321579933], [0.21495193243026733, 0.03086123801767826, -0.025020431727170944, 0.007657120935618877, -0.02097362093627453, -0.04254791885614395, 0.006878619082272053, -0.00962080154567957, 0.037607334554195404, -0.04737579822540283, 0.049424346536397934, 0.022265739738941193, 0.018111320212483406, 0.0004115526098757982, -0.07376352697610855, 0.03354911506175995, 0.5123765468597412, -0.03946909308433533, 0.09698537737131119, -0.038856543600559235, -0.024049563333392143, -0.16312237083911896, 0.014821589924395084, 0.020222313702106476, -0.11781170219182968, 0.003517177188768983, -0.028854265809059143, -0.011877180077135563, 0.01863704062998295, -0.01057011540979147, 0.012946452014148235, -0.11695729196071625, -0.006734553258866072, 0.20357073843479156, 1.0147341527044773e-05, 0.06850619614124298, -0.0027158858720213175, 0.3865700662136078, 0.026969540864229202, -0.008166064508259296], [-0.0345357283949852, 0.02460147999227047, 0.03282134607434273, -0.058325234800577164, -0.016215156763792038, 0.018811073154211044, -0.002162906574085355, -0.004507279954850674, 0.006137527525424957, -0.01396646723151207, -0.005155341699719429, 0.008461280725896358, 0.010070021264255047, 0.025983339175581932, 0.0944715067744255, 0.02946784906089306, 0.08755270391702652, 0.02130608819425106, 0.027997074648737907, -0.02711164951324463, 0.006417836993932724, -0.028713678941130638, -0.020080219954252243, 0.024651790037751198, 0.014940754510462284, 0.025037044659256935, 0.01874677836894989, 0.025083517655730247, -0.0024884536396712065, -0.004844247829169035, -0.03623006120324135, 0.006837145425379276, -0.01691032387316227, -0.06611132621765137, 0.00031485679210163653, -0.04212094098329544, 0.019394172355532646, 0.11474911123514175, 0.048191145062446594, -0.002294675214216113], [0.015733890235424042, 0.02035282552242279, 0.007543222047388554, -0.01974373310804367, -0.005632746033370495, -0.01585317775607109, 0.011359699070453644, -0.007322618272155523, 0.01706165261566639, -0.010460511781275272, 0.020286746323108673, 0.013113344088196754, 0.008705120533704758, 0.006117905490100384, 0.046910494565963745, 0.06838012486696243, 0.049372635781764984, 0.0043035149574279785, 0.01614738628268242, -0.013143094256520271, 0.00373644451610744, 0.019616330042481422, 0.0016708973562344909, 0.011895347386598587, -0.012115854769945145, 0.015169653110206127, -0.014580043964087963, 0.008484198711812496, 0.022782381623983383, -0.002380438381806016, 0.012172575108706951, -0.020882712677121162, -0.014412149786949158, 0.049063291400671005, 1.2788579624611884e-05, 0.030641408637166023, -0.012008505873382092, 0.014077318832278252, 0.018094860017299652, 0.010010974481701851], [0.017366662621498108, -0.004832161590456963, 0.041388969868421555, 0.050301358103752136, -0.03645417094230652, -0.04068813472986221, 0.0035509623121470213, -0.007012048736214638, 0.005554633215069771, -0.017671097069978714, 0.013881530612707138, 0.005775831174105406, -0.006896193604916334, 0.010236394591629505, 0.05167798697948456, -0.006382504478096962, 0.2871783673763275, -0.00011445384006947279, 0.03754431754350662, -0.015185331925749779, -0.0021244992967694998, -0.0016709412448108196, -0.010172023437917233, 0.01280656736344099, 0.03317079320549965, -0.004883676767349243, 0.0032176226377487183, -0.005102731753140688, -0.009295796975493431, -0.0075231618247926235, 0.003441399661824107, -0.011030010879039764, -0.010383342392742634, 0.07149967551231384, 6.795037916162983e-05, -0.019429834559559822, 0.014335277490317822, 0.1740696132183075, 0.02582014538347721, -0.01250479742884636], [0.22351032495498657, 0.10906510055065155, -0.0711853951215744, -0.35599201917648315, -0.035875190049409866, 0.11038288474082947, -0.03760874643921852, 0.0012699151411652565, 0.0010452794376760721, 0.039898041635751724, 0.049403611570596695, 0.06153161823749542, 0.045684389770030975, 0.035560492426157, -0.3165447413921356, 0.4785449206829071, 1.1680796146392822, -0.05796227231621742, 0.12484584748744965, -0.10319716483354568, 0.08147263526916504, -0.3708413243293762, -0.007145177572965622, 0.10337220132350922, -0.47396382689476013, 0.015071099624037743, 0.03703764081001282, 0.06377633661031723, 0.09073992818593979, -0.006397841963917017, 0.010118149220943451, -0.033696070313453674, -0.03654219210147858, -0.012891614809632301, 5.708912431146018e-05, 0.1770157366991043, -0.030152224004268646, 0.5249106287956238, 0.10649584978818893, 0.009053648449480534], [0.1539926528930664, 0.018653737381100655, -0.02972301095724106, 0.008451320230960846, -0.05117487162351608, -0.008723976090550423, -0.024251293390989304, -0.009058154188096523, 0.0014216916169971228, -0.02381918951869011, 0.009518166072666645, -0.029172934591770172, 0.024726655334234238, -0.0005763815715909004, -0.06357567757368088, 0.011126604862511158, 0.4212668240070343, -0.034517552703619, 0.08960412442684174, 0.003571760840713978, -0.0032517032232135534, -0.12425239384174347, -0.008268602192401886, -0.007349743507802486, 0.03695002943277359, 0.02667847089469433, -0.01747157797217369, 0.030879955738782883, -0.0053871492855250835, -0.01177595742046833, -0.008776619099080563, -0.083931103348732, -0.01958467625081539, -0.01833663135766983, 4.4812866690335795e-05, -0.017081063240766525, -0.0475461408495903, 0.16713179647922516, 0.008488873019814491, -0.009928897023200989], [-0.18351557850837708, 0.013969985768198967, 0.20854832231998444, -0.03964851051568985, -0.008854551240801811, -0.03026447631418705, 0.02983451820909977, -0.00495111895725131, -0.02498401328921318, -0.015892568975687027, 0.02709260769188404, 0.01804765686392784, -0.00810586754232645, 0.010184505954384804, 0.026500921696424484, -0.07793578505516052, 0.14606451988220215, 0.03416232392191887, 0.040693383663892746, 0.012647216208279133, 0.00040211042505688965, -0.006512979976832867, 0.010248308070003986, -0.010143174789845943, 0.09217147529125214, 0.00832682941108942, -0.0007579693919979036, -0.04207238554954529, -0.01710556074976921, 0.008747569285333157, -0.017883945256471634, 0.003540423698723316, 0.007773168850690126, 0.41384246945381165, -4.336057463660836e-05, 0.05607939139008522, 0.06909466534852982, 0.024670954793691635, -0.014554791152477264, 0.04054050147533417], [0.026436766609549522, 0.03743436187505722, -0.003739027539268136, -0.06867849826812744, -0.11633481830358505, -0.053846921771764755, -0.01990240067243576, 0.09001559019088745, -0.035575803369283676, -0.0280753206461668, 0.09147476404905319, 0.011763134971261024, -0.014923355542123318, 0.043472081422805786, 0.22127021849155426, 0.11455024033784866, -0.041514985263347626, 0.040987610816955566, -0.04244788736104965, 0.010801216587424278, -0.0056808749213814735, -0.007150959223508835, 0.023880384862422943, -0.05437608063220978, 0.09624510258436203, 0.0006761429831385612, 0.007523586042225361, 0.056665416806936264, 0.026230644434690475, -0.0027363828849047422, -0.04416505619883537, -0.06727954745292664, 0.01704341173171997, 0.19788917899131775, 0.00024644742370583117, 0.0138247050344944, 0.00979704037308693, 0.09073667228221893, 0.027520809322595596, 0.0009447467164136469], [-0.06505772471427917, -0.0014439246151596308, 0.00486250314861536, 0.01941065490245819, -0.019172420725226402, 0.031284019351005554, 0.004301459528505802, -0.004853323567658663, -0.00871572457253933, 0.02094227820634842, -0.016301767900586128, -0.008169367909431458, -0.015834283083677292, 0.0009086937643587589, 0.02320140227675438, 0.022811438888311386, -0.13786068558692932, -0.01000181119889021, -0.036942072212696075, 0.022271951660513878, 0.018153682351112366, 0.04151003435254097, -0.001280111842788756, -0.006222723983228207, 0.041394032537937164, -0.0670178011059761, 0.005421526730060577, -0.011395011097192764, -0.026594357565045357, 4.004349102615379e-05, 0.007839211262762547, 0.035315945744514465, -0.004261333961039782, -0.053428515791893005, 4.3378797272453085e-05, -0.013771829195320606, -0.0030079169664531946, -0.12153315544128418, 0.003364813979715109, -0.007389380596578121], [0.10615163296461105, -0.04693640395998955, 0.08903751522302628, 0.06446950137615204, -0.026697900146245956, -0.13400280475616455, 0.016219548881053925, 0.022586090490221977, -0.007906309328973293, -0.006655504927039146, 0.05911742150783539, -0.02574748545885086, -0.007854877971112728, -0.0008895248756743968, -0.03988594189286232, -0.027535688132047653, 0.8103392720222473, -0.0026740299072116613, 0.053507689386606216, -0.023507652804255486, 0.0655965730547905, -0.15369297564029694, -0.029685422778129578, 0.005614066030830145, -0.05427085608243942, -0.031699325889348984, -0.032291267067193985, -0.005886992439627647, 0.0018803225830197334, 0.005515513475984335, 0.005264890380203724, 0.05212464556097984, -0.004759277682751417, 0.12125005573034286, -1.5125581739994232e-05, -0.013939152471721172, 0.003204590640962124, 0.39834582805633545, 0.01104549691081047, -0.004496028181165457], [0.0367058590054512, 0.004535706248134375, 0.07135064899921417, -0.00515799829736352, -0.042340971529483795, -0.0021427671890705824, 0.044883109629154205, 0.009738143533468246, 0.021640731021761894, 0.007090291008353233, -0.007909668609499931, -0.011064943857491016, -0.007089231163263321, 0.017623744904994965, 0.06403615325689316, 0.021068155765533447, 0.43149659037590027, -0.00539648812264204, 0.01605837792158127, -0.0038252389058470726, -0.019444162026047707, -0.043540649116039276, -0.0038081735838204622, -0.0011939050164073706, 0.01805105246603489, -0.02118566259741783, 0.002569612581282854, 0.0033094361424446106, 0.008766238577663898, -0.015360906720161438, 0.017647067084908485, -0.045608144253492355, -0.004955703858286142, 0.052178651094436646, 5.33098318555858e-05, -0.01015208475291729, -0.02797400765120983, 0.15087027847766876, 0.017712388187646866, 0.008276471868157387], [0.04823458194732666, 0.008876600302755833, -0.05262076109647751, 0.019868822768330574, -0.025642981752753258, -0.02313343435525894, 0.03282551094889641, -0.019387762993574142, -0.009527700953185558, -0.005043020471930504, 0.02851303108036518, 0.00849385280162096, -0.004600715823471546, 0.022343238815665245, -0.059154387563467026, 0.011171465739607811, 0.21130865812301636, 0.012521077878773212, -0.04431584104895592, 0.014093051664531231, 0.015303530730307102, -0.08524174988269806, 0.022453995421528816, -0.009806512854993343, 0.022077057510614395, 0.049819041043519974, 0.017608342692255974, 0.030347440391778946, -0.034148793667554855, 0.0007646458107046783, -0.024046655744314194, -0.023574652150273323, -0.013915915973484516, -0.06380696594715118, 9.861408034339547e-05, -0.02403680980205536, 0.03779393807053566, 0.09862461686134338, 0.021883796900510788, -0.008037530817091465], [0.06681763380765915, 0.015068977139890194, -0.03103816695511341, -0.05165565013885498, -0.004748575389385223, 0.013756223022937775, -0.0196098480373621, 0.00996109563857317, 0.027728741988539696, -0.0016003752825781703, 0.01708647981286049, 0.019863920286297798, 0.0049338205717504025, 0.004147179424762726, 0.027954161167144775, 0.0633806511759758, 0.05704640597105026, -0.00937290582805872, 0.03128896281123161, -0.02102641761302948, -0.007361520081758499, -0.0024209616240113974, 0.015505122020840645, 0.00818895548582077, -0.07782004028558731, 0.004212293773889542, -0.014010695740580559, 0.008572675287723541, 0.01899700239300728, -0.010519768111407757, -0.0019532509613782167, -0.023015834391117096, 0.003978906199336052, 0.027798591181635857, 3.9009413740132004e-05, 0.015947632491588593, 0.00574998976662755, 0.07630103081464767, 0.017073551192879677, 0.004687925800681114], [0.062329091131687164, 0.00722478935495019, 0.01745661348104477, 0.014744366519153118, -0.04028794914484024, 0.014262475073337555, -0.03132455796003342, 0.004187434911727905, -0.024262337014079094, -0.03781147301197052, -0.00022072548745200038, 0.011535894125699997, -0.0020847611594945192, 0.009100593626499176, -0.0002637843426782638, 0.06234825402498245, 0.3006606698036194, 0.017634214833378792, 0.002383363200351596, -0.028509192168712616, 0.03018907643854618, -0.09853652864694595, 0.014781668782234192, 0.003828882472589612, 0.12063432484865189, 0.041968461126089096, 0.009748219512403011, 0.022665128111839294, -0.006500124931335449, 0.0029747847001999617, -0.025525428354740143, 0.006320444867014885, 0.014146671630442142, 0.047594040632247925, 5.393102765083313e-05, 0.0038073796313256025, -0.008959699422121048, 0.1708124577999115, 0.03250327333807945, 0.004638809710741043], [0.0407937727868557, -0.02225693129003048, 0.06809211522340775, 0.03738866746425629, -0.017469944432377815, -0.04576241597533226, 0.011353448033332825, 0.009442431852221489, 0.022363046184182167, -0.010877679102122784, 0.09071120619773865, 0.01384970173239708, -0.003127871546894312, 0.013568263500928879, 0.023745091632008553, 0.03878123313188553, 0.5612055063247681, 0.026671776548027992, 0.018475331366062164, -0.01595251075923443, 0.07609299570322037, -0.04756706953048706, -0.03908829391002655, -0.0033535605762153864, -0.020482007414102554, 0.04713991656899452, -0.007890396751463413, 0.034428730607032776, 5.8870042266789824e-05, -0.013595306314527988, -0.044272057712078094, -0.0017836266197264194, -0.02364887297153473, 0.11833138018846512, 0.00012801826233044267, 0.0029631226789206266, 0.07996973395347595, 0.2697794735431671, 0.022893596440553665, -0.016025345772504807], [0.03407925367355347, 0.011428704485297203, -0.04442141577601433, 0.01549556851387024, -0.043866872787475586, 0.0076684728264808655, -0.014200164936482906, -0.0026627094484865665, -0.009176861494779587, -0.007189058233052492, 0.008103369735181332, 0.001754388096742332, -0.004436582326889038, 0.006640298292040825, -0.0362091138958931, 0.03398682922124863, 0.01584656536579132, 0.02198217250406742, -0.002497259760275483, 0.01273234374821186, 0.015164059586822987, -0.025944795459508896, 0.012603654526174068, -0.012505089864134789, 0.028530433773994446, 0.021071666851639748, 0.008115353994071484, 0.009288456290960312, -0.009166253730654716, -0.005116097163408995, -0.008280874229967594, -0.00622168742120266, -0.012418962083756924, -0.016657691448926926, 3.342901618452743e-05, 0.005161065608263016, 0.025153959169983864, 0.02352995239198208, 0.008419105783104897, -0.015881603583693504], [0.14029090106487274, 0.03490154817700386, -0.07450946420431137, 0.01410465408116579, -0.05738496780395508, 0.019537126645445824, -0.01724567450582981, 0.020390629768371582, -0.007671707309782505, -0.0017081918194890022, 0.01134449616074562, -0.0072786808013916016, 0.0012813456123694777, 0.018123822286725044, -0.12166760116815567, 0.013198166154325008, 0.23254570364952087, 0.01471332460641861, 0.04493394121527672, 0.009273644536733627, 0.051470693200826645, -0.11821530759334564, 0.028830131515860558, -0.02589774690568447, 0.04564950242638588, 0.006061434280127287, -0.02931019477546215, 0.037889666855335236, 0.01151255238801241, -0.018269341439008713, -0.02808905579149723, -0.020372482016682625, -0.014295090921223164, -0.004688809625804424, 3.889704021275975e-05, 0.007882990874350071, -0.00037933955900371075, 0.12996035814285278, 0.03422638773918152, 0.016299977898597717], [0.002709413878619671, 0.00920587033033371, -0.017567729577422142, -0.00459500215947628, -0.003990980330854654, 0.0029015608597546816, 0.0026908344589173794, 0.002302607987076044, -0.004151216708123684, -0.003939829766750336, 0.0014946924056857824, 0.003085763892158866, -0.002301744883880019, 0.005081223789602518, -0.006387060508131981, 0.0011169874342158437, -0.011140669696033001, 0.0006778931128792465, -0.003693030681461096, 0.0073541393503546715, 0.0020849592983722687, -0.0010664634173735976, -0.008931749500334263, -0.0035296704154461622, 0.032553184777498245, 0.0033956957049667835, -0.007221414241939783, 0.009262386709451675, -0.0006449213833548129, 0.0026901953388005495, -0.0009832726791501045, 0.0015048857312649488, -0.007585556712001562, -0.018334995955228806, 1.5157508642005268e-05, -0.00471973093226552, 0.0015886140754446387, -0.007823714055120945, 0.0021842618007212877, 0.0034651528112590313], [0.38924071192741394, 0.013466540724039078, -0.08220615983009338, 0.035739216953516006, -0.02109024114906788, 0.02080056071281433, -0.000581621250603348, 0.12292670458555222, 0.030666567385196686, -0.05277819186449051, -0.03815649449825287, -0.009608563967049122, 0.01216532289981842, 0.02141411416232586, -0.08314242959022522, -0.07848081737756729, 1.010671854019165, 0.014589335769414902, 0.05379088222980499, 0.06274212896823883, 0.08982070535421371, -0.14531810581684113, -0.006526966113597155, -0.07843418419361115, 0.02597622200846672, -0.03283465653657913, -0.008447382599115372, -0.02938537299633026, -0.003022510791197419, -0.009514417499303818, -0.07327165454626083, -0.08228617161512375, 0.02130533568561077, 0.24536652863025665, 0.00011565104796318337, 0.10097808390855789, 0.012691228650510311, 0.6160843968391418, -0.02419090084731579, 0.03938279300928116], [-0.062012799084186554, 0.02181430347263813, -0.058554619550704956, 0.030468454584479332, 0.010821349918842316, 0.00035349809331819415, 0.013902241364121437, -0.054996609687805176, -0.006889012176543474, 0.04732714593410492, -0.018893370404839516, 0.023765461519360542, 0.028081297874450684, -0.013563647866249084, -0.15601500868797302, 0.03896719589829445, 0.11996568739414215, -0.02954484149813652, 0.030849840492010117, -0.024131057783961296, 0.03326066583395004, -0.10659912973642349, -0.027981968596577644, 0.04288042336702347, 0.08836793899536133, 0.022137153893709183, -0.02305036596953869, -0.024652915075421333, 0.02897738851606846, 0.01155131496489048, 0.03809034451842308, -0.05518226698040962, -0.007819735445082188, -0.1516021490097046, -0.00010738753917394206, -0.0021881284192204475, 0.007782207801938057, -0.0686396062374115, 0.0015133359702304006, -0.03301188722252846], [0.21876710653305054, 0.009982743300497532, -0.04801594465970993, -0.09606016427278519, -0.013238686136901379, -0.015488877892494202, -0.01590438187122345, 0.020490778610110283, 0.015173801220953465, -0.008977953344583511, 0.010385355912148952, 0.019272400066256523, 0.012801003642380238, 0.002560877474024892, -0.08036041259765625, 0.050317879766225815, 0.4423871338367462, -0.03389924019575119, 0.10420145094394684, -0.02638307586312294, 0.01818663813173771, -0.1435798853635788, -0.0025080444756895304, 0.017314685508608818, -0.05140644311904907, -0.003127589588984847, -0.021689152345061302, 0.00293070450425148, 0.029991263523697853, -0.004440964199602604, 0.004361607600003481, -0.07516869902610779, -0.006706041283905506, 0.11559057980775833, 1.6246271115960553e-05, 0.04962899163365364, -0.018176279962062836, 0.2791031301021576, 0.028743183240294456, -0.005055821035057306], [0.10751532018184662, 0.020180484279990196, -0.0908699631690979, -0.05206868052482605, -0.014560876414179802, 0.029995232820510864, -0.009316247887909412, 0.016571860760450363, -0.002663488732650876, 0.009452788159251213, -0.01746513694524765, -0.010137216188013554, 0.01746135763823986, -0.0030504493042826653, -0.07023042440414429, -0.02075035311281681, 0.1780373752117157, -0.039453085511922836, 0.01828923635184765, 0.01833365112543106, 0.01079963892698288, -0.11728537827730179, -0.01232001930475235, -0.006408095359802246, 0.023361461237072945, -0.017243124544620514, -0.008465351536870003, 0.021236706525087357, -0.005751734599471092, -0.006219719536602497, -0.01259896531701088, -0.035829681903123856, 0.003074123291298747, 0.0049088639207184315, 5.268447785056196e-05, -0.015879224985837936, -0.042554911226034164, 0.10554918646812439, 0.008479665964841843, 0.00011919364624191076], [0.21248504519462585, -0.024302836507558823, 0.0388619527220726, -0.0005800260114483535, -0.05901119112968445, 0.10739818215370178, 0.032428279519081116, 0.03241647779941559, 0.03167007490992546, -0.008656622841954231, -0.059893734753131866, -0.02783265709877014, 0.011592072434723377, 4.293373058317229e-05, -0.10621626675128937, -0.08818644285202026, 0.7328323125839233, -0.01894226297736168, 0.06736758351325989, -0.023304777219891548, 0.06704075634479523, -0.14147207140922546, 0.008170735090970993, -0.006771632004529238, 0.009225894697010517, -0.02758035808801651, -0.021764321252703667, -0.017568692564964294, 0.022020623087882996, -0.009984631091356277, -0.017116768285632133, -0.0793471559882164, -0.0039416151121258736, 0.10367801040410995, -0.00016696134116500616, 0.011545318178832531, -0.05765560269355774, 0.3959743082523346, 0.014905059710144997, 0.016554970294237137], [-0.008363892324268818, -0.0070165893994271755, -0.025819526985287666, 0.008736182935535908, -0.018058139830827713, 0.0037206378765404224, -0.02087862230837345, 0.02024674601852894, -0.003737763036042452, -0.0020526680164039135, 0.020489569753408432, 0.00022181136591825634, 0.005888995714485645, 0.006656703073531389, 0.09151764959096909, 0.026777120307087898, 0.13692635297775269, -0.0166921429336071, -0.022325603291392326, -0.01956242509186268, -0.024853888899087906, -0.03667083755135536, 0.002632854040712118, 0.01728072576224804, 0.041339363902807236, -0.008123576641082764, 0.016492726281285286, 0.029328495264053345, -0.0344625860452652, -0.018745126202702522, -0.0303925983607769, -0.011266842484474182, 0.008798053488135338, 0.030832942575216293, 7.572427421109751e-05, -0.00881621241569519, -0.00023627933114767075, 0.09346801787614822, 0.016299284994602203, -0.006780779920518398], [0.00020211153605487198, 0.04403913393616676, -0.08014063537120819, -0.06317869573831558, 0.014649841003119946, 0.12947282195091248, 0.016130907461047173, 0.00032678392017260194, 0.026801107451319695, -0.02148650400340557, -0.036719910800457, 0.026929451152682304, 0.01307804323732853, 0.017940372228622437, -0.24766820669174194, -0.09207228571176529, 0.5300185680389404, -0.0008210708620026708, -0.0003307515289634466, 0.0135557996109128, 0.027518928050994873, -0.12023675441741943, 0.03163563460111618, -0.027479486539959908, 0.020734917372465134, 0.01247935276478529, -0.03081352263689041, -0.02017970383167267, 0.008985107764601707, 0.0024016196839511395, -0.026713863015174866, -0.002657561097294092, 0.006808275822550058, 0.07693853974342346, 8.391253504669294e-05, 0.054179597645998, 0.027968721464276314, 0.20473740994930267, 0.0011722251074388623, -0.008811764419078827], [0.0647469088435173, -0.008761649020016193, -0.08878099173307419, -0.08205442875623703, -0.04781349375844002, 0.0014599296264350414, -0.0024781725369393826, -0.005004784557968378, 0.01717611774802208, -0.0013973574386909604, -0.010739731602370739, -0.0055898199789226055, 0.0016023180214688182, -0.005338379647582769, -0.10536473244428635, 0.04747386276721954, 0.3181786835193634, -0.024614719673991203, 0.043907396495342255, -0.02473529987037182, -0.038446132093667984, -0.13238118588924408, 0.031552597880363464, 0.008685032837092876, -0.04120459407567978, 0.008482065051794052, -0.015624325722455978, -0.0009624671074561775, 0.010384478606283665, -0.01004099939018488, 0.016453521326184273, -0.027718018740415573, 0.006734801921993494, -0.03187005966901779, -0.00025182488025166094, -0.01926138438284397, 0.014851001091301441, 0.1691131293773651, 0.002661024918779731, -0.01617811620235443], [0.06083120405673981, -0.03606322035193443, 0.03817760944366455, 0.01355339027941227, -0.05033814534544945, -0.030484788119792938, -0.009365725331008434, 0.03469708934426308, -0.006617014296352863, -0.01199016347527504, -0.00611036317422986, 0.0038928138092160225, -0.004756270907819271, 0.010169291868805885, -0.02187788486480713, 0.02370801381766796, 0.3852607011795044, 0.004796986002475023, 0.0171099454164505, -0.01742025837302208, 0.03265879303216934, -0.10992724448442459, -0.017061686143279076, 0.0014643912436440587, 0.06509051471948624, -0.00862014852464199, 0.02742118202149868, -0.007522593252360821, -0.017617875710129738, -0.0047752042300999165, -0.030066361650824547, -0.022856375202536583, -0.0049219513311982155, 0.07757243514060974, 1.9487893951009028e-05, 0.00415814807638526, 0.0215340256690979, 0.21617020666599274, 0.012293335981667042, 0.002750077983364463], [0.049564775079488754, 0.020613476634025574, -0.06932473182678223, 0.10929398238658905, -0.008967003785073757, -0.016251109540462494, 0.00955916941165924, 0.007167424540966749, 0.011083371005952358, -0.02866121381521225, 0.029532110318541527, 0.007931441999971867, 0.01883106492459774, 0.005287253763526678, -0.030241357162594795, 0.011438987217843533, 0.07311812043190002, -0.002120701828971505, -0.013063757680356503, 0.015992699190974236, -0.03399238362908363, -0.04528277367353439, -0.012115788646042347, -0.008500264026224613, -0.03170490264892578, 0.015098385512828827, 0.01589878648519516, 0.012598884291946888, -0.0346674770116806, -0.00017485464923083782, -0.01447803433984518, -0.032990165054798126, 0.0009347445447929204, 0.0019109399290755391, 1.0764802937046625e-05, -0.012526343576610088, 0.005302156787365675, 0.05950560420751572, -0.003969184588640928, -0.0006710829329676926], [0.053791072219610214, 0.03451717644929886, 0.00819757953286171, 0.28716275095939636, 0.06622450053691864, 0.0056013260036706924, -0.03425846993923187, -0.007222313899546862, 0.04383581131696701, 0.01829894818365574, -0.0016724365996196866, 0.015059425495564938, 0.028553275391459465, -0.003054211614653468, -0.020884938538074493, -0.155918687582016, 0.06961369514465332, 0.015265979804098606, 0.09057628363370895, 0.04004623368382454, -0.024510743096470833, -0.02783498913049698, 0.006819609552621841, -0.012848311103880405, 0.14329390227794647, 0.015632709488272667, -0.019912272691726685, -0.01923534646630287, 0.015077449381351471, -0.015383321791887283, 0.053227029740810394, -0.03636697307229042, -0.012735179625451565, 0.08330203592777252, -5.247526496532373e-05, -0.01994509808719158, -0.07562776654958725, 0.042505115270614624, 0.019320396706461906, 0.05768423527479172], [0.08398508280515671, 0.03528238832950592, -0.08250627666711807, -0.0032670749351382256, -0.06341981142759323, 0.007280832622200251, 0.03748622164130211, 0.020338207483291626, -0.014667825773358345, -0.02662505768239498, 0.004385452717542648, -0.02585958130657673, 0.0026285313069820404, 0.02263502962887287, -0.07735464721918106, 0.0452285073697567, 0.19281060993671417, -0.020436231046915054, 0.0185456071048975, 0.002172217471525073, 0.03325315937399864, -0.10445721447467804, 0.025027239695191383, -0.02934608794748783, 0.07366538047790527, 0.02693064510822296, -0.05683010816574097, 0.04882076382637024, 0.003353396663442254, 0.011743813753128052, -0.056705426424741745, -0.0273980051279068, 9.75235307123512e-05, 0.00447301659733057, 0.00016200050595216453, 0.00032058064243756235, -0.019284380599856377, 0.10561790317296982, 0.008492768742144108, -0.007538824342191219], [0.06914500892162323, 0.01055131759494543, 0.0007218330283649266, 0.007944958284497261, -0.015056485310196877, 0.009730317629873753, -0.00366814061999321, 0.03452784940600395, -0.012956355698406696, -0.007454887963831425, -0.03442145511507988, 0.008246863260865211, 0.016058368608355522, 0.009516938589513302, 0.011077332310378551, 0.022927258163690567, 0.2625143826007843, -0.030303101986646652, 0.06358729302883148, -0.017524132505059242, 0.006119181402027607, -0.03256721422076225, -0.0008615952683612704, 0.006424400489777327, 0.04544533044099808, -0.0036789977457374334, -0.04478885605931282, 0.0018978264415636659, 0.030011720955371857, 0.019820310175418854, -0.010263095609843731, -0.012475461699068546, 6.264567491598427e-05, 0.07303746044635773, 1.4587814803235233e-05, 0.003778385929763317, -0.034146495163440704, 0.1738300323486328, 0.001597853028215468, 0.018371667712926865], [0.04633929952979088, 0.026943640783429146, -0.05820292606949806, 0.02554936707019806, -0.023521365597844124, 0.005138469859957695, -0.0005983494920656085, 0.010273647494614124, -0.006488343700766563, -0.009988433681428432, 0.00793671514838934, 0.0004037907056044787, 0.00692248810082674, 0.007096560206264257, -0.04954701289534569, 0.03328947722911835, -0.014533614739775658, -0.01641499437391758, 0.004658987745642662, 0.015125643461942673, 0.01671670749783516, -0.038111913949251175, 0.004113936796784401, -0.005087252706289291, 0.06159938499331474, 0.010303364135324955, -0.018068009987473488, 0.01941443420946598, -0.004231782630085945, 0.0033253123983740807, -0.007045750040560961, -0.012120340950787067, -0.004854539874941111, -0.037273675203323364, 8.287531090900302e-05, 0.006305601913481951, -0.023821944370865822, -0.0004348720540292561, 0.013269401155412197, 0.0020614417735487223], [0.021642988547682762, 0.023418817669153214, -0.06468326598405838, 0.0024384132120758295, -0.05299123376607895, 0.023791292682290077, 0.005472113378345966, -0.010124540887773037, -0.014246904291212559, 0.0037568758707493544, 0.001477983663789928, -0.002633658703416586, -0.007405335083603859, 0.015503546223044395, -0.03037170320749283, 0.042245008051395416, 0.17246013879776, 0.014711394906044006, -0.016567600890994072, -0.013281730934977531, 0.04849233478307724, -0.09655661880970001, 0.028077227994799614, 0.005339252296835184, 0.09229718893766403, -0.014863360673189163, -0.0016724333399906754, 0.016059549525380135, 0.016920333728194237, -0.010418158024549484, -0.043341703712940216, 0.006298351567238569, -0.01418018527328968, -0.0007840843172743917, 0.00016670003242325038, 0.007189303636550903, -0.011383797973394394, 0.08432190120220184, 0.019957028329372406, -0.0031411785166710615], [0.025695879012346268, -0.0059950631111860275, 0.0015192313585430384, -0.04915394261479378, -0.010374553501605988, -0.005223704501986504, 0.010669027455151081, -0.01108898501843214, 0.0037895874120295048, -0.007171676494181156, 0.0013113445602357388, -0.008392619900405407, -0.005002304911613464, -0.005361897870898247, 0.009365820325911045, 0.005353602580726147, 0.060968004167079926, -0.01876114122569561, 0.0009591995039954782, -0.012559776194393635, 0.003546638647094369, -0.009374973364174366, 0.005117559339851141, 0.009043583646416664, 0.007667206227779388, -0.021033428609371185, -0.013994395732879639, -0.00383982015773654, 0.00881137978285551, -0.005007477942854166, 0.006811640691012144, -0.009263125248253345, 0.0002638897567521781, 0.029678350314497948, -1.096909363695886e-05, 0.0110283512622118, -0.021867869421839714, 0.045723047107458115, 0.005908207502216101, -0.006067285779863596], [0.07989554852247238, -0.0012127573136240244, -0.14626240730285645, -0.0019241570262238383, -0.08669529855251312, 0.023404709994792938, -0.02465437352657318, -0.008928087539970875, -0.03393217548727989, 0.012072655372321606, 0.031288620084524155, 0.014321226626634598, -0.003332961117848754, 0.024660896509885788, -0.08617378771305084, 0.06854034960269928, 0.15323705971240997, 0.031127167865633965, 0.023030003532767296, -0.003048318438231945, 0.06558249890804291, -0.09978994727134705, 0.06724680960178375, -0.008429938927292824, 0.09762928634881973, 0.015040209516882896, 0.015063424594700336, 0.031171267852187157, 0.011144005693495274, -0.012751114554703236, -0.08446922153234482, -0.003384278854355216, -0.014382022432982922, -0.009093240834772587, 0.0001724955945974216, -0.03671465814113617, 0.04303263500332832, 0.12524981796741486, 0.04005332291126251, -0.013530242256820202], [0.22219227254390717, 0.1263425052165985, 0.01223762333393097, -0.0693359300494194, 0.07045723497867584, 0.00444322032853961, 0.0009802546119317412, -0.025563430041074753, 0.02327679842710495, -0.014991148374974728, 0.04927593842148781, 0.010087601840496063, 0.054418932646512985, -0.011507244780659676, -0.08600755035877228, -0.033377476036548615, 1.0440059900283813, -0.042986948043107986, 0.17061388492584229, -0.006776314228773117, 0.05254241079092026, -0.24211949110031128, 0.006425771862268448, 0.02247895486652851, -0.03868664428591728, -0.028460748493671417, -0.06543056666851044, 0.015728432685136795, 0.0033606472425162792, -0.012021931819617748, 0.02554054744541645, -0.09030720591545105, 0.0024128491058945656, 0.14341239631175995, -9.43401682889089e-05, 0.022864842787384987, -0.04699798673391342, 0.49236950278282166, 0.0199324581772089, 0.025538621470332146], [0.03830919414758682, 0.006309235002845526, -0.05972475931048393, -0.015404114499688148, -0.018415583297610283, 0.0014776659663766623, -0.011347386054694653, 0.007142080459743738, -0.008318512700498104, 0.00014639433356933296, -0.010468872264027596, 0.005650585982948542, 0.0031353114172816277, 0.008914783596992493, -0.06143985688686371, 0.03148417919874191, -0.011984634213149548, 0.00339714833535254, 0.003574707079678774, 0.005490518640726805, 0.02431275136768818, -0.04853862524032593, 0.006933422759175301, -0.0022636328358203173, 0.02642541378736496, 0.011702163144946098, -0.003409571247175336, 0.016575360670685768, 0.011723041534423828, 0.0026846632827073336, -0.007597693707793951, 0.00020276020222809166, -0.007219070568680763, -0.05062698945403099, 6.526581273647025e-05, -0.004016389604657888, 2.5553776140441187e-05, -0.0039635831490159035, 0.013335393741726875, 0.0012707897694781423], [0.09803157299757004, -0.016755929216742516, -0.028553232550621033, -0.08186957240104675, 0.01856762357056141, 0.037852123379707336, 0.02049502544105053, -0.0017656116979196668, 0.029218945652246475, 0.0037316775415092707, -0.09179320931434631, 0.0019226234871894121, -0.011055526323616505, -0.03300870209932327, -0.20025888085365295, 0.07394010573625565, 1.0631330013275146, -0.07144927978515625, 0.07613491266965866, -0.051724549382925034, 0.07241468131542206, -0.23770461976528168, 0.013417614623904228, 0.011686934158205986, -0.2616710066795349, -0.07074223458766937, 0.05599463731050491, -0.03612346574664116, 0.008680082857608795, -0.03858519345521927, 0.04723849520087242, 0.11467750370502472, 0.021727701649069786, 0.17545770108699799, -2.1906275833316613e-06, 0.21449756622314453, -0.11216576397418976, 0.4722968637943268, -0.03782204911112785, 0.03263813629746437], [3.528238949002116e-06, 2.7022946369470446e-07, -3.249226949719741e-07, 2.467796207383799e-07, -3.8581214312216616e-07, -5.294328389027214e-07, 2.898333093526162e-07, -2.7517762646311894e-07, 4.504191792875645e-07, -7.089552696015744e-07, 6.983497087276191e-07, 2.7262177582088043e-07, 2.3194019149741507e-07, 8.132408524375023e-09, -1.2583132047438994e-06, 2.370003926444042e-07, 6.180033778946381e-06, -5.852016329299659e-07, 1.0730736903497018e-06, -5.394760478338867e-07, -1.9889276359208452e-07, -2.140185642929282e-06, 1.1256007326210238e-07, 2.9902096798650746e-07, -1.142687551691779e-06, 2.474122879903007e-07, -2.858891150481213e-07, -9.998638716979258e-08, 2.1225238810984592e-07, -9.375589371529713e-08, 2.204002313987985e-08, -1.7378145003021928e-06, -1.2421082828950603e-07, 3.68952760254615e-06, 6.961166643115746e-10, 1.0430063639432774e-06, 1.4485152632914833e-07, 4.944668035022914e-06, 4.1296053154837864e-07, -2.3389225134451408e-07], [-0.10813646763563156, 0.023882420733571053, -0.335625559091568, -0.035947758704423904, -0.10045564919710159, 0.1527644693851471, 0.004414713941514492, 0.058804627507925034, 0.042717672884464264, -0.04052235558629036, -0.046365223824977875, -0.011434471234679222, 0.004302723798900843, 0.026379626244306564, -0.4133267104625702, 0.04154490679502487, 0.10168593376874924, 0.012294944375753403, -0.05048022419214249, -0.03422783687710762, -0.0056321690790355206, -0.09731356799602509, -0.017956841737031937, -0.0029881612863391638, 0.03947559744119644, -0.009073618799448013, 0.027747197076678276, 0.0246993787586689, 0.007013476919382811, -0.00015291858289856464, -0.01779903657734394, 0.07006534934043884, -0.04406539723277092, -0.5574988722801208, 8.781363248999696e-06, -0.005537028890103102, -0.02791735716164112, 0.011746291071176529, -0.020856115967035294, 0.04501315578818321], [-0.030147060751914978, 0.014434413984417915, 0.10183849930763245, 0.00029803928919136524, -0.00023425411200150847, -0.00994968879967928, -0.040455903857946396, 0.014211751520633698, -0.0007345673511736095, 0.0029010544531047344, 0.06356894969940186, -0.016748685389757156, -0.004078099969774485, -0.005812720861285925, 0.20574717223644257, -0.013023833744227886, 0.04660632833838463, 0.021065015345811844, -0.03146537393331528, 0.03207826614379883, -0.07389752566814423, 0.09261966496706009, -0.01397792249917984, -0.029718194156885147, -0.008918014355003834, 0.005801110994070768, 0.0015847699251025915, 0.020058486610651016, -0.03302808478474617, -0.023624176159501076, 0.0037815903779119253, -0.006634031888097525, 0.012081719003617764, 0.269838809967041, 0.00012018891720799729, 0.028982864692807198, 0.004175851587206125, 0.0787794291973114, -0.003290157299488783, 0.004468432627618313], [-0.04720268025994301, 0.04629324749112129, 0.029006248340010643, -0.104758121073246, -0.021997952833771706, 0.023864803835749626, -0.007463844493031502, -0.0017543499125167727, 0.013248393312096596, -0.012544645927846432, -0.006515743210911751, 0.008749461732804775, 0.015859922394156456, 0.03525872528553009, 0.14143434166908264, 0.05263424292206764, 0.44158318638801575, 0.02520066499710083, 0.043764758855104446, -0.04150670766830444, -0.006711558438837528, -0.07598496973514557, -0.018366742879152298, 0.029516294598579407, 0.016138140112161636, 0.014768736436963081, -0.0021337554790079594, 0.03626994416117668, 0.011833203956484795, -0.008887152187526226, -0.031073443591594696, -0.0022081146016716957, -0.02789040096104145, -0.06550820171833038, 0.0004582208348438144, -0.04019979014992714, -0.006105461157858372, 0.23669759929180145, 0.0721883699297905, -0.0036897093523293734], [0.02825508452951908, 0.023681968450546265, -0.030738435685634613, 0.107876256108284, -0.011714990250766277, -0.01475220825523138, 0.012738850899040699, -0.0028095832094550133, 0.015977073460817337, -0.015800556167960167, 0.020522354170680046, 0.008873973973095417, -0.003710999386385083, 0.010056247003376484, 0.029779264703392982, 0.008297692984342575, 0.06632809340953827, 0.017071230337023735, -0.0008643961045891047, 0.020087046548724174, -0.028667069971561432, 0.006487664766609669, 0.00019445508951321244, -0.015420009382069111, 0.016909368336200714, 0.004884274676442146, -0.0377160869538784, 0.002779585774987936, 0.017404939979314804, -0.002345150103792548, 0.018443087115883827, -0.011910555884242058, -0.012643234804272652, 0.01570609025657177, 5.520141348824836e-05, -0.00014962202112656087, -0.01979958824813366, 0.03595045953989029, 0.006557616870850325, 0.020904170349240303], [0.08972074836492538, 0.039933525025844574, -0.10426289588212967, -0.019747093319892883, -0.08569806814193726, 0.003695980180054903, -0.03895358741283417, 0.019921623170375824, -0.02178708277642727, -0.013543623499572277, -0.006493296939879656, 0.01079346239566803, 0.014636397361755371, 0.027079978957772255, -0.1449727863073349, 0.03473012149333954, 0.08049861341714859, 0.03171846643090248, 0.02950458973646164, 0.015573034062981606, 0.06919565051794052, -0.0886077955365181, 0.04402361065149307, -0.02012818306684494, 0.07459060102701187, 0.029702773317694664, 0.010082376189529896, 0.021325141191482544, -0.003651656676083803, -0.005721703637391329, -0.03319990262389183, -0.004991833586245775, -0.0010870896512642503, -0.03828965127468109, 0.0001875924353953451, -0.023642223328351974, 0.04998817294836044, 0.09233109652996063, 0.03352762386202812, -0.036828067153692245], [0.45854273438453674, -0.08955491334199905, -0.2527739107608795, -0.1664867103099823, -0.16750527918338776, -0.09348471462726593, 0.06821075826883316, 0.01655266247689724, -0.08638318628072739, 0.02668248489499092, 0.015484550036489964, 0.032346006482839584, 0.02553463540971279, 0.04093533009290695, 0.1412462592124939, 0.709994375705719, 0.038738131523132324, -0.061609748750925064, 0.011103722266852856, -0.014422652311623096, -0.07716485857963562, -0.0435352586209774, -0.015856903046369553, 0.05402827262878418, -0.20290230214595795, 0.012465962208807468, 0.06373702734708786, -0.017106758430600166, 0.020643701776862144, 0.04948398098349571, 0.022781826555728912, -0.03756323084235191, 0.026693420484662056, -0.2818441689014435, 0.0003734153578989208, -0.003584669204428792, -0.011996826156973839, 0.1927584707736969, 0.01723320223391056, -0.019127406179904938], [-0.005597430281341076, 0.13873538374900818, -0.00861287023872137, 0.03912148252129555, -0.014155307784676552, 0.09356635808944702, 0.10295896232128143, -0.6735317707061768, 0.039743032306432724, -0.186787948012352, 0.013305834494531155, -0.44591572880744934, -0.1392711102962494, -0.19304274022579193, -0.04875751957297325, 0.07312450557947159, -0.022848444059491158, -0.0040726433508098125, 0.6093205809593201, 0.0723709836602211, 0.03368617594242096, -0.09933489561080933, 0.003949382808059454, -0.043006859719753265, 0.05138836428523064, -0.2762373685836792, 0.12444299459457397, 0.19763679802417755, -0.2810615003108978, -0.14897318184375763, 0.45503756403923035, -0.0390244796872139, -0.1170160248875618, 0.0960012897849083, -0.0002511408238206059, 0.22826983034610748, 0.019264524802565575, -0.147506445646286, -0.20157188177108765, -0.26628902554512024], [-0.13110224902629852, -0.1051473394036293, 0.26862832903862, 0.020552944391965866, 0.14036113023757935, 0.034431055188179016, -0.024574190378189087, -0.11732398718595505, -0.1813521534204483, 0.021938461810350418, -0.04651837795972824, -0.008177205920219421, 0.05541687831282616, -0.024030836299061775, 0.12632189691066742, 0.10887589305639267, 0.052665792405605316, -0.04699033126235008, -0.010136631317436695, -0.02071823552250862, 0.18574605882167816, -0.056751951575279236, -0.04773567616939545, 0.0613105446100235, -0.02034456841647625, -0.13204310834407806, 0.010738365352153778, 0.0373794361948967, -0.0009315629722550511, 0.028758632019162178, 0.1057453379034996, 0.028271827846765518, -0.032921068370342255, 0.8932155966758728, 0.00014216022100299597, -0.21396799385547638, -0.005103657953441143, -0.09821061789989471, 0.01139841414988041, 0.023787846788764], [0.31626585125923157, -0.1092984676361084, 0.3865535855293274, 1.5403954982757568, 0.6333401203155518, 0.04816160351037979, -0.08210893720388412, -0.23604847490787506, 0.04623004049062729, -0.03372785821557045, -0.29178306460380554, -0.06013655662536621, -0.10076317191123962, 0.0453559085726738, -0.21986156702041626, -2.6394824981689453, -0.19096213579177856, 0.07344458997249603, 0.055916350334882736, 0.047294579446315765, -0.29618898034095764, -0.022421857342123985, -0.04187234863638878, -0.053466279059648514, 0.7213641405105591, 0.0018954501720145345, -0.02822137251496315, 0.028869157657027245, -0.12613053619861603, -0.009150137193500996, -0.1309298574924469, -0.06827732175588608, -0.06917733699083328, 0.2904411256313324, 0.0004740352160297334, -0.04805172234773636, -0.31975072622299194, -0.040177132934331894, -0.03515009954571724, -0.1796221137046814], [-0.18227806687355042, 0.3527495265007019, -0.16101060807704926, -0.15954016149044037, -0.40355902910232544, -0.07975111156702042, 0.0580950491130352, 0.038025010377168655, -0.2512677311897278, -0.038129955530166626, -0.03618815541267395, -0.15796037018299103, 0.311447411775589, 0.11248571425676346, 0.1538938730955124, -0.536882221698761, -0.07574691623449326, -0.13298453390598297, 0.01671028696000576, 0.08173047751188278, -0.07270435988903046, -0.054217882454395294, -0.20244356989860535, 0.09719689935445786, -0.5234307050704956, 0.27338773012161255, -0.07321275025606155, 0.36640986800193787, 0.08757077157497406, 0.17208556830883026, -0.1275731921195984, 0.016354214400053024, 0.20182055234909058, 0.06585417687892914, -0.0001535027113277465, 0.3365185260772705, 0.10688941925764084, -0.0009016120457090437, 0.06562653928995132, -0.2254181206226349], [-0.09546598792076111, 0.2744519114494324, -0.004530685488134623, -0.04664130136370659, -0.030288539826869965, 0.5423887372016907, 0.15593068301677704, -0.07998315989971161, -0.0019520133500918746, -0.09020432829856873, -0.07792818546295166, 0.030760394409298897, 0.005346251651644707, 0.022180715575814247, -0.08624782413244247, 0.016645899042487144, 0.10204584151506424, 0.02683165669441223, -0.15481247007846832, 0.011208309791982174, 0.0009164364309981465, 0.05741892755031586, 0.09353149682283401, -0.05436510592699051, -0.05744437873363495, 0.10464652627706528, 0.06628690659999847, 0.015453923493623734, -0.03830350190401077, -0.036437299102544785, -0.029094191268086433, 0.3149130046367645, -0.03225965425372124, -0.0006768039893358946, -0.00012512822286225855, -0.11644337326288223, 0.1232978031039238, 0.03771834447979927, 0.041155070066452026, 0.03376763314008713], [-0.10576284676790237, -0.28435036540031433, 0.03283266723155975, -0.014788941480219364, -0.16174694895744324, 0.16755305230617523, 0.4146324396133423, 0.15947069227695465, 0.023617884144186974, 0.05713655427098274, 0.32659244537353516, -0.19099241495132446, 0.34182533621788025, -0.04301733523607254, -0.09023234248161316, -0.02674536406993866, -0.05961265042424202, -0.052636150270700455, -0.15705160796642303, -0.024561718106269836, 0.011517861858010292, -0.0490555576980114, -0.455040842294693, 0.08109306544065475, 0.024459170177578926, -0.13911955058574677, 0.055601999163627625, -0.03243880718946457, 0.12928426265716553, -0.043490588665008545, -0.04594682157039642, -0.14253836870193481, -0.016821598634123802, -0.015789328143000603, 0.00031448699883185327, -0.000677458883728832, -0.019148927181959152, 0.0744062140583992, -0.04122854024171829, -0.0014850611332803965], [0.10587713867425919, -0.04704319313168526, 0.0943470448255539, 0.11761695891618729, 0.27719178795814514, -0.025220878422260284, -0.21553650498390198, 0.04478445649147034, 0.01287497952580452, -0.016196047887206078, -0.16013652086257935, -0.03507297858595848, 0.4680226743221283, 0.01102728396654129, -0.10120239853858948, 0.14265817403793335, 0.04788011685013771, 0.04108887538313866, -0.12257348001003265, -0.019430480897426605, 0.1442820131778717, 0.008627672679722309, -0.5485700368881226, -0.03799084946513176, 0.058342933654785156, -0.008741551078855991, -0.04118269309401512, 0.047893963754177094, 0.1810876727104187, 0.018609611317515373, 0.29815608263015747, 0.06907423585653305, -0.2665589153766632, 0.13243068754673004, 0.000202777300728485, 0.19867531955242157, -0.2664411664009094, -0.10854145884513855, -0.012366894632577896, -0.006950498092919588], [0.05061154067516327, -0.04989565908908844, 0.08049102127552032, -0.03395804390311241, 0.025204656645655632, 0.05736550688743591, -0.06579307466745377, 0.08075340837240219, 0.08284182101488113, -0.009229633957147598, -0.005430804565548897, 0.008182612247765064, -0.0018270325381308794, 0.051643241196870804, 0.01652457006275654, -0.097713902592659, -0.010931054130196571, 0.04384871572256088, -0.009423556737601757, 0.007161067798733711, 0.023087715730071068, 0.04813792556524277, 0.025657953694462776, -0.016748551279306412, -0.1871572732925415, -0.13422495126724243, -0.06350290030241013, -0.006852929946035147, -0.004072736483067274, 0.0037663301918655634, -0.00851695891469717, -0.0740545466542244, 0.085047148168087, -0.11816742271184921, 0.0008020703098736703, 0.052212659269571304, 0.10447809100151062, -0.051633771508932114, 0.07591461390256882, -0.005193745251744986], [0.0008981709252111614, 0.10989700257778168, -0.002246274147182703, -0.02830733358860016, -0.01785062626004219, 0.014485578052699566, 0.182112917304039, 0.2760814428329468, -0.01096009649336338, 0.21376833319664001, -0.17475204169750214, 0.10775212943553925, -0.5454052686691284, 0.10151723772287369, 0.061671216040849686, -0.028643617406487465, -0.13496799767017365, 0.14704754948616028, 0.07474330812692642, 0.24493904411792755, -0.006183941848576069, -0.05198973789811134, -0.6315500140190125, -0.16377578675746918, -0.05047652870416641, 0.06794413179159164, -0.2069903165102005, 0.1310790628194809, 0.08688341081142426, -0.01109396480023861, 0.49014681577682495, -0.027274932712316513, 0.06597449630498886, -0.06065160781145096, -0.00010836448927875608, 0.017182180657982826, 0.1209479346871376, 0.06572043895721436, 0.029682673513889313, -0.012676944956183434], [0.052235089242458344, -0.0575217679142952, 0.05241734907031059, -0.005423971451818943, 0.06297985464334488, -0.09651999175548553, -0.18564222753047943, 0.10280266404151917, -0.0269404798746109, 0.07122859358787537, 0.5024383068084717, 0.08489619940519333, -0.056874822825193405, 0.048303790390491486, 0.15721145272254944, -0.03385785222053528, 0.024649880826473236, 0.030663013458251953, 0.00768687017261982, 0.02144179493188858, 0.013419735245406628, -0.019674817100167274, -0.06530819088220596, -0.10270034521818161, -0.027040211483836174, 0.11629687994718552, -0.27121874690055847, 0.012173667550086975, 0.00046371863572858274, 0.06989945471286774, -0.17558158934116364, -0.019627364352345467, 0.012035164050757885, -0.15878351032733917, -0.0004005506925750524, 0.15343822538852692, 0.368432879447937, 0.1002698466181755, -0.07361763715744019, -0.03907955065369606], [-0.0915117934346199, 0.03746049478650093, -0.10843779146671295, 0.0030776672065258026, -0.06899198889732361, -0.04981102794408798, 0.08563011139631271, -0.10049623250961304, -0.07207650691270828, -0.12543900310993195, -0.10271307080984116, -0.01632661558687687, 0.031081678345799446, 0.05588291585445404, 0.016840826719999313, -0.07130789756774902, -0.03425895795226097, -0.13993237912654877, -0.026348309591412544, -0.1495981216430664, -0.11638136208057404, -0.09936469048261642, -0.02226288616657257, -0.020160144194960594, -0.05475011095404625, 0.24048976600170135, -0.17036712169647217, 0.3934808373451233, 0.01609896495938301, 0.06742039322853088, 0.005598537158221006, 0.029218997806310654, -0.7228192687034607, 0.08100806921720505, -0.0011097315000370145, 0.40699854493141174, 0.16635169088840485, -0.028403665870428085, -0.08685915917158127, 0.44576406478881836], [-0.031314264982938766, 0.1705714762210846, -0.009168986231088638, 0.028458507731556892, -0.07010159641504288, -0.011832024902105331, -0.3675091862678528, -0.4170264005661011, 0.000599113991484046, 0.6224460601806641, 0.14310361444950104, -0.23304566740989685, 0.15239770710468292, -0.12697945535182953, -0.05642496049404144, -0.01394118182361126, 0.10208103805780411, 0.34085187315940857, -0.006644049659371376, 0.2365035116672516, 0.0028601184021681547, 0.004736460279673338, -0.07893705368041992, 0.06746402382850647, -0.02451888844370842, -0.40631887316703796, 0.3238292634487152, -0.0856841430068016, 0.31943631172180176, -0.14842543005943298, -0.49689528346061707, 0.023808076977729797, -0.0626179650425911, 0.09149953722953796, -0.00019712647190317512, 0.15792354941368103, -0.24005724489688873, -0.05873909592628479, 0.01628253608942032, 0.05831044539809227], [-0.06553666293621063, 0.08868832886219025, -0.011847471818327904, 0.003526503685861826, -0.08612532168626785, -0.034961968660354614, 0.05400616675615311, -0.07146944105625153, -0.027309350669384003, -0.054826509207487106, -0.05752485245466232, -0.10723640769720078, 0.17919404804706573, -0.02065988816320896, 0.003958473447710276, 0.07641645520925522, 0.02658161148428917, 0.07619985938072205, -0.006402930244803429, 0.06521860510110855, -0.04770296812057495, -0.06356552243232727, -0.04064352810382843, 0.012048212811350822, 0.16887696087360382, 0.13495643436908722, -0.04156585782766342, 0.00277441437356174, 0.19058845937252045, -0.027580348774790764, 0.0025748906191438437, 0.02684781514108181, -0.06362107396125793, -0.004798414185643196, -0.00043754526996053755, 0.14321503043174744, 0.10295194387435913, -0.07248571515083313, 0.02149864099919796, 0.36729690432548523], [-0.2481134682893753, 0.08925899863243103, 0.3630528450012207, 0.06654265522956848, 0.046765461564064026, -0.0531495064496994, 0.08408349007368088, 0.004372933879494667, 0.15952639281749725, 0.004246752709150314, -0.015117793343961239, 0.04705021530389786, -0.0052860877476632595, 0.028480475768446922, 0.37571796774864197, -0.20287565886974335, -0.03268611058592796, 0.032946910709142685, 0.014558124355971813, -0.046317342668771744, -0.3425765931606293, -0.02045220136642456, 0.08334674686193466, 0.03805065527558327, 0.02419751137495041, -0.04936785250902176, -0.010143090970814228, 0.05377013608813286, 0.023368407040834427, -0.05834164097905159, -0.0013646237784996629, -0.03125738352537155, -0.07576751708984375, -0.4048244059085846, 7.465612725354731e-05, -0.30399006605148315, -0.07417279481887817, 0.2085760235786438, 0.10735934227705002, -0.0372077152132988], [-0.010296374559402466, -0.1645575314760208, -0.4886752963066101, 0.3832862377166748, 0.6353962421417236, -0.0026600644923746586, 0.03541938588023186, -0.37183764576911926, -0.006292481906712055, 0.18560120463371277, -0.07028475403785706, 0.005615801550447941, -0.04435502737760544, -0.02674129419028759, 0.7790430784225464, -0.023242531344294548, 0.04899313673377037, -0.038448017090559006, 0.022712796926498413, -0.29103007912635803, 0.3166276812553406, -0.1136673241853714, -0.09123405814170837, 0.2258988469839096, 0.35470181703567505, -0.16284853219985962, 0.13339398801326752, -0.04168194159865379, -0.0816396027803421, 0.02272481843829155, 0.2324891984462738, 0.005219578742980957, -0.007532734889537096, -0.6456246376037598, 0.0004653357609640807, 1.9574118852615356, -0.10599225759506226, 0.04066310450434685, 0.10736805200576782, -0.14111770689487457], [0.2761470675468445, 0.09676872193813324, 0.09387609362602234, 0.09123637527227402, -0.032659415155649185, -0.004230045713484287, -0.0742466151714325, 0.061446525156497955, -0.04958324879407883, -0.07779330760240555, 0.06550035625696182, 0.014824598096311092, -0.012803330086171627, 0.0010248329490423203, -0.1231432855129242, -0.21542781591415405, 0.29675808548927307, -7.837062003090978e-05, 0.12966646254062653, 0.04462675377726555, 0.026691215112805367, -0.05892125889658928, -0.0023668284993618727, -0.052578143775463104, 0.0798715353012085, -0.007298658601939678, -0.03638358786702156, -0.04541019722819328, -0.05579468607902527, 0.013787043280899525, -0.00017601269064471126, -0.09844817966222763, 0.0018736071651801467, 0.1493418961763382, -0.0002197533322032541, -0.03805150091648102, 0.018542923033237457, 0.12381847947835922, -0.035330940037965775, 0.0628904178738594], [-0.01265563815832138, 0.08046351373195648, 0.08152824640274048, 0.0485074445605278, -0.04152603819966316, -0.01546628586947918, -0.13833262026309967, -0.08044132590293884, -0.05475762113928795, -0.11435269564390182, -0.0619189515709877, 0.14420068264007568, -0.459747314453125, -0.008642998524010181, -0.03353156894445419, 0.005316569469869137, 0.028003981336951256, 0.21404626965522766, -0.03411877155303955, -0.4476280212402344, 0.01682123728096485, 0.0010477550094947219, 0.23438633978366852, -0.07762856781482697, -0.025545332580804825, 0.1139247789978981, -0.04169805720448494, -0.16771943867206573, 0.31737858057022095, 0.0010544308461248875, -0.3744509220123291, -0.02270478382706642, 0.042357541620731354, 0.0010327016934752464, 0.0001401440385961905, -0.043267518281936646, 0.20755334198474884, -0.07253929227590561, -0.21834208071231842, -0.0659821555018425], [-0.07586677372455597, -0.5173484683036804, 0.006519539747387171, 0.035588596016168594, -0.14631900191307068, 0.4274979531764984, -0.18897762894630432, 0.05478990077972412, 0.06113714724779129, 0.13746300339698792, 0.08542685955762863, -0.058781933039426804, -0.03869275748729706, -0.0357978455722332, -0.003753968747332692, -0.002872118493542075, 0.12727166712284088, 0.015715276822447777, 0.29962384700775146, -0.01619127206504345, 0.06662376970052719, -0.025849396362900734, 0.051477398723363876, 0.04832826927304268, -0.02629404328763485, -0.07540810853242874, -0.01840004324913025, -0.009966747835278511, 0.11141150444746017, -0.023400718346238136, 0.04680614173412323, 0.2165817767381668, -0.006112751550972462, 0.06471026688814163, 0.0002429338201181963, 0.09644261747598648, -0.5599027276039124, -0.02210899256169796, 0.06907288730144501, -0.11753334850072861], [0.039137329906225204, 0.008518618531525135, -0.012181972153484821, 0.038558196276426315, 0.15475718677043915, -0.003600641619414091, 0.031444959342479706, -0.16241572797298431, 0.015863845124840736, 0.11148744076490402, 0.23117665946483612, 0.09516174346208572, -0.1356833428144455, -0.037701983004808426, -0.21776020526885986, 0.02980370819568634, 0.03347282111644745, 0.5481474995613098, -0.0009604133083485067, 0.12835900485515594, -0.10000844299793243, 0.07997098565101624, 0.05747678503394127, -0.08412041515111923, 0.1564512550830841, 0.1529223918914795, 0.06994527578353882, -0.22648561000823975, 0.29005566239356995, 0.022443264722824097, 0.1621907353401184, -0.05013829097151756, -0.178024023771286, 0.12212683260440826, -8.330619039043086e-07, -0.0713069811463356, -0.3528478145599365, -0.03198597952723503, 0.038869816809892654, 0.21959452331066132], [0.12211509793996811, -0.07421088218688965, -0.0864354595541954, -0.1399652510881424, -0.14016447961330414, 0.05877950042486191, -0.006762099917978048, 0.0361170656979084, -0.03852524980902672, 0.014034784398972988, 0.07436268031597137, -0.02697516418993473, -0.009224040433764458, 0.026695191860198975, -0.26560071110725403, 0.461926132440567, 0.06068943068385124, 0.07236697524785995, 0.04738800972700119, -0.0049512931145727634, 0.34102851152420044, -0.009570714086294174, -0.05631238967180252, 0.008477084338665009, -0.03348439559340477, 0.02575455792248249, 0.050301872193813324, 0.016373371705412865, -0.012883338145911694, 0.006251797545701265, -0.02124704048037529, 0.028103359043598175, -0.020796284079551697, -0.006475652102380991, 0.0003325465368106961, 0.13221333920955658, 0.2070925533771515, -0.258838951587677, 0.007152420934289694, -0.05062592029571533], [0.19702914357185364, 0.037083085626363754, 0.17530567944049835, 0.007852938957512379, 0.05078865960240364, 0.10806769877672195, -0.06319426745176315, 0.03573723882436752, -0.015591736882925034, 0.006449412554502487, -0.008645134046673775, 0.00273108365945518, -0.03246070444583893, -0.008665877394378185, 0.3551273047924042, 0.01599975675344467, -0.1085738018155098, 0.07015694677829742, 0.02707008458673954, -0.0033714512828737497, 0.08627355843782425, 0.4053981304168701, 0.0779515951871872, -0.07049530744552612, 0.10010263323783875, 0.07280847430229187, 0.00982969906181097, 0.0209567341953516, 0.001687902957201004, -0.007499379571527243, -0.020878003910183907, 0.007598950993269682, -0.03683997690677643, 0.2127656787633896, 0.0006422894657589495, 0.07356759160757065, 0.016049740836024284, 0.10771690309047699, -0.013555379584431648, 0.04803241044282913], [0.07471998780965805, -0.22569461166858673, 0.007840701378881931, 0.010341119021177292, 0.15417513251304626, -0.003379378467798233, 0.5728625655174255, 0.19400297105312347, -0.059318073093891144, 0.64902263879776, -0.20287322998046875, 0.08527683466672897, 0.13036476075649261, 0.07192683964967728, 0.06034126505255699, 0.056953106075525284, 0.01167533453553915, -0.3072991967201233, 0.12099303305149078, 0.07224075496196747, 0.03140394017100334, -0.05362251400947571, 0.22866711020469666, -0.09901983290910721, -0.035905417054891586, 0.19724947214126587, -0.04894012212753296, 0.03505435958504677, -0.143368199467659, 0.01089462824165821, -0.18818891048431396, -0.10777868330478668, 0.017054958269000053, 0.07511420547962189, 2.04340904019773e-05, 0.03942288085818291, 0.23754878342151642, 0.04845920205116272, 0.052865345031023026, 0.06690336018800735], [-0.15469332039356232, 0.05559838190674782, -0.03891865536570549, -0.06318561732769012, -0.03826899826526642, -0.014772963710129261, -0.0635189637541771, -0.013601109385490417, 0.0335279256105423, 0.06431786715984344, 0.05094858258962631, 0.02260521799325943, -0.016342531889677048, -0.015819136053323746, 0.048944152891635895, 0.07224974036216736, 0.01722443476319313, -0.17884178459644318, -0.04578070342540741, -0.0798572525382042, 0.012206104584038258, -0.0005997117259539664, -0.10587430745363235, 0.09334027767181396, -0.07669839262962341, 0.14461924135684967, 0.2062867134809494, 0.06943477690219879, -0.16237588226795197, -0.0032144642900675535, -0.07724135369062424, 0.04892729967832565, -0.06262536346912384, -0.08188435435295105, 0.00023214766406454146, -0.07925271987915039, -0.2263340950012207, 0.053898606449365616, -0.014451410621404648, -0.23687440156936646], [0.09279605746269226, 0.03066306747496128, 0.07234211266040802, -0.13194625079631805, -0.3041515350341797, -0.04895905777812004, -0.0023700115270912647, 0.12013380229473114, -0.05167848616838455, -0.1071859672665596, 0.024830911308526993, -0.11771775037050247, -0.019287049770355225, 0.011747751384973526, -0.1292192041873932, -0.7601280212402344, 0.017557824030518532, 0.06935478746891022, 0.03217506781220436, 0.11661768704652786, 0.18451771140098572, -0.04747162014245987, -0.04330696165561676, -0.04970347508788109, 0.1780092418193817, 0.08444661647081375, -0.0402250699698925, 0.05746861919760704, 0.01433660089969635, 0.012284287251532078, -0.13945412635803223, -0.0893615186214447, 0.051524147391319275, 0.01432795636355877, 3.747909067897126e-05, -0.12434585392475128, 0.04064231365919113, -0.045183245092630386, 0.015176425687968731, -0.023234223946928978], [0.07291289418935776, 0.009464256465435028, 0.07495630532503128, 0.01944655179977417, 0.05741865560412407, 0.014258732087910175, -0.06335242092609406, -0.1205204576253891, 0.12277135998010635, -0.00034831438097171485, -0.13057668507099152, -0.15551745891571045, 0.6098541021347046, 0.021459326148033142, -0.021551940590143204, 0.02668571099638939, 0.009799902327358723, 0.12637853622436523, 0.01803375780582428, -0.1907784640789032, -0.0516476184129715, -0.0016723443986847997, -0.06241839751601219, -0.20440644025802612, 0.06751397252082825, 0.2036937028169632, -0.03746895119547844, 0.2903270125389099, 0.22804370522499084, -0.11997643858194351, 0.3249126970767975, 0.026838399469852448, -0.10176049172878265, 0.07205640524625778, -1.676057217991911e-05, -0.11462807655334473, 0.2363387644290924, 0.002573267323896289, -0.33110472559928894, -0.7478546500205994], [-0.05324742570519447, -0.19475041329860687, 0.04656156897544861, 0.026026733219623566, -0.20179983973503113, 0.10637074708938599, -0.23527564108371735, -0.03455854207277298, 0.03838464245200157, 0.1794230192899704, -0.033799611032009125, 0.13443344831466675, -0.28150811791419983, 0.08054190874099731, -0.04256013035774231, -0.045885320752859116, 0.00965114776045084, 0.21623754501342773, -0.11287128925323486, 0.0917738601565361, 0.010122611187398434, 0.030575381591916084, 0.011296377517282963, -0.09642106294631958, -0.15377689898014069, 0.23774082958698273, 0.27074167132377625, 0.15574848651885986, -0.13090650737285614, -0.18938767910003662, 0.12088844925165176, -0.03585765138268471, -0.06220458075404167, -0.06699839234352112, 0.0004254439554642886, 0.024460209533572197, -0.075664222240448, 0.0988391861319542, 0.08014588057994843, -0.009119517169892788], [0.08596152812242508, 0.08243589103221893, -0.08434705436229706, -0.050377655774354935, 0.1137048602104187, -0.009006315842270851, -0.028970444574952126, -0.049177881330251694, 0.040502000600099564, -0.08660072833299637, -0.065320685505867, -0.38747531175613403, 0.332855761051178, -0.07001756876707077, 0.09731023013591766, 0.18948125839233398, -0.045356713235378265, 0.1396794468164444, 0.06336874514818192, 0.19347171485424042, -0.07156314700841904, -0.01480194367468357, -0.16172443330287933, 0.04003267362713814, 0.19234393537044525, -0.011127680540084839, -0.05793635919690132, -0.05548863485455513, 0.08615076541900635, -0.09243001788854599, 0.2705131471157074, 0.018882909789681435, 0.6799705624580383, -0.09593819826841354, 8.818066271487623e-05, -0.17448072135448456, 0.353401243686676, -0.03740515932440758, 0.11590839177370071, 0.10698142647743225], [0.06787696480751038, 0.1268208771944046, -0.031868740916252136, -0.036429643630981445, 0.046479467302560806, 0.009823864325881004, 0.10961263626813889, -0.04828857257962227, 0.038723595440387726, 0.0988307073712349, -0.10732085257768631, -0.023084217682480812, -0.3050338625907898, -0.1796933114528656, -0.020260147750377655, 0.0970689132809639, -0.06103119999170303, 0.14189517498016357, 0.075032539665699, -0.48962345719337463, -0.03192111477255821, 